999 300
</s> -0.12297 0.0560605 0.0427423 0.0935161 -0.018171 -0.0752551 -0.0141791 -0.0526059 -0.0793151 -0.0698043 0.0613132 -0.054866 -0.0686694 -0.0964317 0.0303643 -0.123112 -0.0270396 0.0510347 0.0681016 0.0509297 0.0250449 0.0462608 0.00136933 -0.0822091 -0.0986546 -0.0719032 0.00252412 -0.136835 -0.036529 -0.093712 0.00999807 0.0979766 -0.0980632 -0.0422931 -0.0328843 -0.00235628 0.0127272 0.0919976 -0.0477632 -0.0160249 -0.0264296 -0.0839199 -0.062948 -0.0574892 -0.0164801 -0.0133906 -0.036768 0.0503908 0.0398172 0.0162004 -0.0258417 -0.0377386 -0.0297319 -0.0558976 0.00807427 0.0061774 0.0296709 0.0725131 0.0664424 0.0778158 -0.0445367 0.113714 -0.0269596 -0.0682757 -0.057598 -0.0645834 0.00431177 0.0647325 -0.0652296 0.0473362 -0.0551008 -0.00673683 0.0570356 0.0616686 -0.0494413 -0.0239995 -0.00320596 0.100664 -0.0396471 -0.0463043 0.0211262 0.0565322 0.0196417 -0.0538665 -0.018932 -0.00626847 0.0843661 0.0607894 0.0623731 -0.0544603 0.0101726 0.0781972 -0.0286824 -0.103438 0.0443392 0.0210792 0.0287508 0.0905723 0.0494692 -0.00482255 0.0304438 -0.0550764 -0.0084128 0.00625269 0.0902366 0.0213183 -0.00123707 0.0583143 0.00113438 -0.0533939 0.0347419 0.12653 -0.116325 -0.0420198 -0.00703544 -0.0583178 0.000325041 0.0232091 0.0152234 0.0669369 0.0755052 -0.00214287 -0.0947512 0.06657 0.00694662 -0.0249034 -0.0248649 0.0555271 -0.0570665 0.152026 -0.0100736 -0.0580488 0.0477666 0.121363 0.0272771 0.0383165 -0.0690222 0.0112699 -0.0481829 0.0916741 -0.0613382 -0.00412837 0.0960191 0.00203976 0.0161417 -0.029464 -0.00662649 -0.0429079 0.0668718 0.0168805 0.0864707 -0.0613702 -0.00285395 -0.0745037 0.0317723 -0.0511083 0.0745408 -0.0154794 0.058539 -0.0192108 0.105582 -0.0403384 -0.00327025 0.0336112 -0.0180254 0.0885757 -0.0956113 -0.0360574 -0.0319264 -0.0326921 0.0507114 -0.03304 -0.0237163 -0.0617303 -0.0208611 -0.0499297 -0.00623607 -0.00153814 -0.0230273 -0.0498494 -0.00677141 -0.00954103 -0.0512274 -0.0590614 -0.00111854 0.0716895 -0.0414542 -0.0574717 0.0186339 0.000676324 -0.000446076 -0.0726143 0.099706 -0.0211457 -0.184448 -0.00164634 0.0804928 0.0522051 -0.081966 -0.0280613 0.0315703 -0.014289 0.144056 0.0121672 0.0945035 -0.0618665 -0.0298419 -0.000152238 0.0743225 -0.0523121 0.0256533 0.0252707 0.0481029 0.00441042 -0.0567907 -0.0149365 -0.00443123 -0.105349 0.0775439 -0.07713 0.103551 0.0944067 -0.0614 0.00558387 0.0318179 -0.0294135 0.0270795 -0.158695 0.0338396 -0.0132732 -0.027676 -0.0118051 -0.0762336 -0.0253229 -0.00762754 -0.0611222 -0.000370919 -0.157302 -0.00672248 0.00413737 -0.0433998 0.0256328 0.0675671 -0.0604246 0.0430485 0.0487392 0.088654 -0.0189125 0.00794339 -0.108377 0.014103 -0.0333491 -0.0580562 0.00613518 0.094475 0.0134913 -0.0177648 -0.0865162 0.0714097 -0.0204047 -0.0299331 0.0340033 0.0157742 0.146538 -0.0123134 -0.0320606 -0.00872851 0.0398541 0.0129302 0.0161855 -0.0907823 0.0653455 0.0496679 0.0346081 -0.0577019 0.0108658 0.00951014 0.0633685 0.00371464 -0.0361918 0.0485884 -0.0340514 -0.046444 0.0113917 -0.0258443 -0.0189244 0.00450665 0.00707469 0.0358882 0.0800847 -0.00249055 -0.0656662 0.00124105 0.0249327 0.0128187 -0.0722098 -0.114871 0.0043883 0.0631506 0.0293066
, -0.0195036 0.0629433 -0.0456321 -0.00466094 -0.054948 0.0310491 0.0547256 0.014195 0.0743183 0.142484 0.0556177 -0.0094918 0.0945905 0.0294548 -0.0376664 -0.00433712 -0.0289025 0.00146996 0.0556163 0.0214426 -0.0128746 0.00897809 -0.0977044 -0.0152535 -0.0598724 0.0536178 0.037657 -0.100116 -0.0191946 0.038954 -0.0567273 0.1174 -0.0845918 0.0747825 0.0642031 -0.126899 -0.0612601 -0.0892081 0.0456762 -0.0175475 0.0378146 0.0260565 -0.0327321 0.0169288 -0.036935 -0.0339434 -0.0293026 -0.0258676 0.00939936 -0.0165827 0.0259785 0.0181962 0.0125447 0.0238697 -0.0321279 -0.0580441 -0.0251381 0.0726696 -0.092574 0.0774767 0.0632789 -0.0463903 0.0351168 -0.00625414 -0.0485525 -0.0147454 -0.0316992 0.0126874 -0.070982 -0.00144055 -0.0232297 -0.015133 0.0820239 -0.106963 -0.0354695 -0.0485641 0.0561113 0.0385922 0.138363 0.0788136 -0.0274618 0.00998879 -0.0427949 -0.0348275 -0.0135894 -0.00361508 -0.0477051 0.00788543 0.0300794 -0.0241721 0.00932947 -0.0939646 0.0103331 -0.0237828 0.0753868 0.0141167 0.00396397 -0.0433524 0.0297621 0.00510721 -0.0115636 -0.047786 0.0313564 0.0473749 -0.0293004 0.0378253 -0.13515 -0.056954 -0.0211283 -0.0836643 -0.0412286 0.0758189 -0.0504595 -0.0286046 -0.063868 -0.0236088 0.0982797 0.0695643 0.000251744 0.0375477 0.08322 0.0239471 -0.0254125 0.104263 -0.0135581 -0.00675575 -0.00882206 0.0182363 0.0519217 0.039534 0.0118979 0.0411465 0.060503 0.0375618 0.041714 0.0670735 -0.0192915 0.0285733 -0.00584482 0.0525213 -0.00598321 0.0207408 0.0645675 -0.000893096 0.0271646 0.129534 -0.0550897 0.0122126 -0.0443906 -0.0212182 -0.00894681 -0.169252 0.0472786 -0.0241974 -0.0266931 -0.0569709 -0.0456297 -0.0438493 0.0872677 0.0689633 -0.0285568 0.192218 -0.060331 0.0859116 0.103495 0.00113451 -0.0544925 0.0272921 0.0755231 -0.0056334 -0.0728964 0.0292072 -0.0499476 -0.0586676 -0.00242622 0.0467633 0.0474406 0.0980862 -0.0326415 0.00428828 0.00995196 -0.0590307 0.0643094 0.10424 -0.0337506 0.125528 -0.0638372 -0.0516728 0.013347 -0.0239597 -0.074902 -0.104643 0.0615749 0.053658 -0.0326696 -0.0307943 0.0306827 0.0291875 -0.157129 -0.0415086 0.0901506 -0.0776859 -0.0819226 0.045129 -0.00395338 -0.0812507 -0.0508071 -0.0446794 0.0964221 0.011665 0.123203 -0.0183876 -0.0365664 -0.0590977 -0.113295 -0.0079312 -0.0267488 -0.117407 -0.055237 -0.00450401 0.027659 0.00714814 -0.0948951 0.029108 0.0105228 0.0311768 -0.0572214 -0.0589637 0.0812037 0.0203831 0.0250569 0.0361592 -0.0167762 0.0596697 -0.0823873 0.0683425 -0.0546578 -0.0100925 -0.1357 -0.00115265 -0.0526254 0.0550727 0.0576166 -0.0226331 0.0596793 0.0932376 0.0474138 -0.0513831 -0.0433699 0.0518467 0.0419247 0.0273833 -0.0946103 0.0623894 -0.0471878 -0.00226037 -0.0349003 -0.0522576 -0.0396324 0.0238407 0.00195741 0.0627013 0.0195453 0.0227509 -0.00247951 0.00747345 0.0217934 0.0575272 0.11881 -0.0463915 -0.0445671 0.0684306 -0.00486256 -0.0111513 -0.0984895 -0.0534725 0.127383 0.0759078 0.0375717 0.0662459 0.0427242 0.0258189 0.0359381 0.0765497 0.0388385 -0.0405426 0.0893889 -0.00513064 0.00756877 -0.00380822 0.0433693 -0.121492 0.061121 0.04124 -0.0481474 -0.0111356 -0.0353319 0.0250257 -0.0166403 0.0593923
de 0.0358295 -0.0431467 -0.00294973 -0.0260791 0.0256533 0.0479163 -0.0304398 -0.00745489 0.0282127 0.0629919 0.117436 -0.0215082 0.0099319 -0.0161061 -0.120043 0.0163662 -0.112021 0.03414 -0.0392414 0.0781208 -0.0815386 0.00516334 -0.0879661 0.018675 -0.0646307 0.0140895 0.0746425 0.00459181 0.00917602 0.0166775 -0.0511282 0.060224 -0.124639 0.069751 0.017309 -0.100317 0.00933055 -0.046235 0.0644732 -0.050468 0.0156932 -0.0125613 -0.0145425 0.0406109 0.00292486 -0.031844 -0.0104941 -0.0086646 0.0755075 -0.0132237 0.0862295 -0.0234906 0.0344347 0.0178491 -0.0757377 0.0425526 0.0565418 -0.0225171 -0.0213637 0.00360109 -0.0293328 -0.091853 0.135721 -0.0575011 -0.019272 -0.0735958 -0.0493041 -0.052877 -0.0994712 -0.0749534 -0.0912421 0.0271184 -0.00134089 -0.070328 0.0305864 -0.0229419 0.0965199 0.103316 0.00742518 0.0466622 0.0110413 0.103033 -0.11401 -0.101134 -0.00509259 -0.0421965 -0.0365131 0.0233861 -0.0273964 -0.112501 0.0167309 0.0658412 0.0574775 -0.117359 0.0360987 0.0617561 0.0570189 0.0230356 0.040178 -0.0361963 -0.0308469 -0.0179746 0.0820178 -0.0901136 -0.0626696 0.0376016 -0.0656903 0.0530767 0.0569328 0.0299769 -0.0318893 -0.0205208 -0.0358617 -0.0396377 -0.0450124 0.0164898 0.0167259 -0.0334666 0.097912 0.106178 0.0980098 0.0144304 -0.0694814 0.075872 0.0347326 -0.0370195 0.0173972 0.0612473 0.112578 0.00785131 -0.0521218 0.0778527 0.0100895 0.0193943 0.0420922 0.0879781 -0.0479374 0.0573906 -0.0312982 0.101143 -0.0257608 0.0657838 0.0475392 0.0459908 0.1076 0.134036 -0.0118946 0.0865553 -0.00894133 0.0045711 0.0105276 -0.0824367 -0.0340845 -0.0272566 -0.0775429 -0.0379821 -0.0230396 0.0263207 0.100882 0.0753803 -0.086109 0.023351 -0.0344725 0.0185821 0.0976543 -0.0789407 -0.0204762 0.0268766 0.0525861 -0.0586794 -0.0878813 -0.0529639 -0.0137268 0.0167331 -0.0319299 0.0669403 0.086136 0.218035 0.0332625 -0.0341417 0.0254373 -0.0272854 0.0181778 0.0517459 -0.00680801 0.042309 0.0429801 0.0111729 -0.0143386 -0.0291566 -0.0123782 -0.0705432 0.108412 0.0301052 -0.0667571 -0.0587119 -0.0437728 0.0387726 -0.10947 0.0249706 0.0396855 -0.051288 -0.091258 0.0193977 -0.0045947 -0.0361584 -0.0560364 0.00589382 0.0583911 0.00724197 0.0943654 0.0224206 0.00410441 -0.0521348 -0.0475629 -0.088447 0.0323314 -0.163492 0.0712713 0.0451708 0.0228447 -0.00793929 -0.0122523 0.012314 0.0148105 0.0344093 -0.0279665 -0.0279951 0.0465541 0.0283476 0.0577519 0.047555 -0.0418248 0.0177061 0.00140622 0.00523142 -0.029721 -0.0319263 -0.0490711 -0.0200619 -0.152005 0.00159002 0.0502817 0.0170029 0.0106119 0.0886657 0.0810476 0.0176923 0.0148348 0.031974 -0.0507834 0.000528396 -0.0143223 0.0419194 -0.0457564 -0.0240911 -0.0850134 -0.0380988 0.0563186 -0.0104712 -0.0310533 0.0671551 0.00499143 0.00637685 0.0112956 -0.00607378 -0.0397031 -0.0051176 0.0766425 0.0523145 -0.0622706 -0.0367473 -0.0504793 0.043592 -0.0757088 -0.0631432 0.0283282 0.159198 0.0229039 0.0536956 0.0207566 0.00918274 0.0105877 0.0655971 0.0261657 0.00959373 0.0373495 0.0997708 0.00784961 0.033446 0.0587739 -0.138591 -0.0250381 0.0500327 -0.0566416 -0.073727 -0.0187835 0.0190624 -0.065393 -0.0147882
' -0.0555018 -0.00716259 -0.116768 -0.0168689 -0.00404391 0.0209788 0.0103933 -0.0300335 -0.0286796 0.0723673 -0.00551744 -0.0683683 0.000753508 0.0112139 0.00167017 -0.114875 -0.00747075 -0.00458365 -0.0183141 0.0808778 -0.0441034 0.0838152 -0.0460346 -0.0598076 -0.131848 0.0348888 0.0589574 -0.0029211 -0.0188628 0.0506855 -0.0759375 0.0887882 -0.126264 0.0602232 0.032784 -0.101277 0.00427983 -0.0731373 -0.0711435 -0.00916043 -0.0186773 0.0115429 -0.0130744 -0.0607771 -0.0435377 0.0520969 0.06454 0.0351174 -0.0110623 -0.053428 0.0461193 0.0547258 -0.0164913 -0.0155632 -0.0391137 -0.0100882 -0.000774782 -0.0583671 -0.0366753 0.053531 -0.0920318 -0.0234195 0.042908 -0.0127807 -0.0435852 -0.0676564 -0.0813823 0.0211558 0.0214508 0.0143156 -0.0433191 0.00137765 0.119021 0.0355555 -0.0425008 0.093793 0.0454521 0.114597 -0.0127046 0.00344083 0.0112158 0.041612 -0.0655555 0.0179617 -0.0823557 0.0402351 -0.0735787 0.0273525 0.00674531 -0.0618311 -0.0342991 0.0147623 0.137497 -0.0872763 0.0742909 0.0552084 -0.0200812 -0.0274868 0.00273736 0.0611748 -0.021998 -0.0769221 -0.0433542 -0.0422431 -0.0166126 -0.00605035 -0.0390545 0.0834672 -0.00237809 0.00237514 0.0712879 0.0580594 -0.105882 0.0707224 0.0159714 0.0050056 0.00788502 0.109528 -0.011603 0.0519238 0.0496056 0.00124848 0.0361063 0.0684675 0.00935234 0.0528782 0.0479254 0.0396361 0.0749514 0.0374646 -0.0266198 0.0069156 -0.0389113 0.044401 0.07787 0.0142788 -0.135143 0.037514 0.0167553 0.0092945 0.0860316 -0.0461767 -0.0299246 0.0651823 0.0188189 0.159702 -0.037015 0.0499311 -0.0297474 -0.0363048 0.0231321 -0.0848691 -0.0817788 0.0098919 -0.0540514 -0.0912788 0.076477 -0.0322543 0.045327 0.00867537 -0.0851593 0.0459825 -0.0945682 -0.0150273 0.0592407 -0.0725913 -0.0157163 0.0165791 0.17082 -0.0353612 -0.00903492 0.00856927 -0.124847 -0.076034 -0.0102208 0.135256 0.0777271 0.11128 -0.0260807 -0.0206491 -0.0339557 0.0399311 -0.012719 0.089516 -0.0469526 -0.00715851 0.00967531 0.0854954 -0.0173165 -0.00436617 -0.0488781 -0.0587615 0.0276606 0.0248429 0.00350719 -0.0654441 0.0299326 0.0621705 -0.115582 -0.0221241 0.0812092 -0.0450617 -0.109729 0.0416462 0.0183772 -0.0635897 -0.0781719 -0.0337884 0.123937 0.0204075 0.0994066 0.0715325 -0.0975457 -0.00890282 0.00857344 -0.061295 0.000440754 -0.145271 -0.0165493 -0.0476211 0.025433 -0.0269694 -0.0709815 0.0833357 -0.0475502 -0.0311866 0.0197152 -0.0159655 0.00829131 0.00443839 0.127046 0.0683134 -0.00263585 -0.000782625 0.0302597 0.06576 0.00707729 -0.0230616 0.012606 0.0627954 -0.0742715 -0.0325156 0.0166458 -0.0035253 0.00979423 0.0199987 0.104057 0.0748688 0.0197767 0.0151974 0.00921062 0.00812624 -0.0786668 -0.00459539 -0.0367478 0.0517101 -0.0431654 -0.0672312 0.0527796 0.00130254 -0.0112534 -0.0418159 -0.01965 -0.0783491 -0.000291656 0.0127234 0.00524436 0.0442711 0.118402 -0.136521 -0.0333832 0.0113015 0.0705638 -0.0160259 -0.0685431 -0.0209086 0.108705 0.0453912 0.00616671 -0.0252099 -0.0242375 -0.0197893 -0.0233458 0.0181985 0.00059235 -0.0689965 0.0176483 0.0424039 -0.0535428 -0.0114254 0.0390039 -0.117034 0.0260701 0.0448208 -0.0638598 -0.126578 0.0344245 0.0667341 -0.0112689 -0.0907979
. 0.0124962 -0.0220601 -0.0674114 0.012062 -0.126182 0.0208915 -0.00967601 0.0143843 0.0657933 0.0614966 0.0329607 -0.0638014 0.058397 -0.0670347 -0.0250725 -0.125577 -0.0934959 0.111247 0.0609583 0.073403 0.016437 0.0486327 -0.108197 -0.0215871 -0.0276009 -0.042401 -0.0286042 -0.0840968 0.017589 0.0605893 -0.0765547 0.152587 -0.115755 0.0838918 -0.024999 -0.00917826 -0.0234934 -0.0360908 0.0348899 -0.0801468 -0.000777084 0.0217476 -0.0569728 -0.00182901 -0.0337568 0.0758741 0.024164 0.0474614 -0.0465217 0.00868883 0.0142722 0.0317302 -0.0245346 0.00520313 -0.111418 -0.00923093 0.042894 0.0562364 -0.0397041 0.0689924 0.0156504 -0.0328053 0.151277 -0.1186 -0.0467273 0.0037294 0.00416575 -0.0834483 -0.0696245 0.0236769 -0.0539034 -0.0126308 0.0476878 -0.165399 -0.0214933 -0.0250014 0.0336644 0.0447001 0.0227336 0.0189962 -0.0269302 0.0346142 -0.0154165 0.00498365 0.00867461 -0.0309202 -0.0308749 0.0445204 0.00194621 0.00214268 -0.00424248 -0.0331445 0.0545024 -0.0260714 0.0856714 -0.0586026 0.0140698 -0.0222167 -0.0754329 -0.0831943 -0.0656539 0.0333393 -0.0419084 0.0826972 -0.0856136 0.057522 -0.130948 -0.0755047 0.0627041 -0.0301976 0.0203454 0.0336137 0.00224562 -0.0620186 -0.00711996 -0.0318898 0.0555494 0.000399991 0.013769 0.123741 0.0390661 0.00196657 -0.0390682 0.0606151 0.0220826 0.0343207 -0.0275862 -0.0735658 0.0478356 0.0537349 0.0243404 0.0536877 0.0314079 0.130407 0.0297872 -0.00493275 -0.0182752 -0.0138929 -0.0639691 0.100884 -0.00468236 0.0432926 0.104657 0.0458087 0.0760479 0.0951825 -0.0693867 0.048673 -0.0516859 0.0197357 0.0183354 -0.139791 0.0199141 -0.00846238 0.02658 -0.112572 0.0744825 0.0337883 0.0514117 0.108116 0.00868654 0.0630447 -0.0095826 0.0153673 0.0713075 0.0510058 0.0178498 -0.000612564 0.0296157 -0.0078957 0.000899981 -0.0472232 -0.103827 -0.018775 0.00541265 0.0539989 -0.0254882 0.082183 -0.0817213 0.000879241 -0.0481317 -0.0496358 -0.00104736 0.037901 -0.038476 0.0938293 -0.113001 -0.0321596 0.0152151 -0.0206249 -0.0783524 -0.0945626 -0.0139398 0.0950774 -0.0939974 -0.0710984 0.00302932 0.0562089 -0.0881726 -0.0798659 0.0667172 -0.0530944 -0.0686399 0.0210379 0.0674855 -0.0211136 -0.0364654 0.0376389 0.105014 -0.0499568 0.0590038 -0.0302482 -0.0447207 -0.012112 -0.0866812 -0.00999355 0.0161844 -0.131632 0.00297536 0.0389487 0.0321779 -0.0430095 0.0379545 -0.0218184 -0.00744481 0.0615783 -0.00220603 -0.0780599 -0.00097435 0.0537546 0.0674276 0.0792936 -0.105405 0.0320494 -0.0289126 0.0370475 0.0121083 0.0163025 -0.126059 -0.0342466 -0.017631 0.0441037 0.0837995 -0.0601834 0.0582814 0.0842464 0.0744673 -0.00559229 -0.0489304 0.04967 -0.0201584 -0.0280627 -0.111533 0.0521215 -0.0387044 -0.00185975 -0.037451 -0.125906 -0.0585622 -0.0299696 -0.0175134 0.00806069 0.0337425 0.00610358 0.0650445 -0.00761717 -0.00367769 -0.0410382 0.0646363 -0.0303092 -0.0606411 0.0705223 0.0383223 0.0402387 -0.0427425 -0.0554856 0.00859351 0.0560145 -0.00994995 0.000923382 0.0381542 0.0499081 -0.0174577 0.0246697 0.0289045 -0.0517746 0.0117846 0.0467805 0.00249434 -0.00350127 0.0977726 -0.0799168 -0.00405037 0.0412159 -0.0781739 -0.133765 -0.038052 0.00660794 -0.0331063 0.0823139
- -0.133084 0.034148 -0.0384542 -0.0533345 -0.00824726 0.0222403 -0.00662667 -0.0288186 -0.0398771 -0.0632459 0.0490939 -0.034682 -0.0276883 -0.0296712 -0.0803378 -0.0552939 -0.0770711 0.106416 -0.0370776 0.0169363 0.049909 0.0226076 -0.112613 0.0219414 -0.101719 0.00702243 -0.0193662 -0.143094 0.0135166 -0.0429254 -0.0358231 0.0950707 -0.0838946 0.0307873 0.00186782 -0.0730347 0.032586 -0.0301671 -0.0621047 -0.0725763 0.00595443 0.0397786 -0.0193815 0.0395459 0.0349105 0.00748907 -0.138872 -0.0100494 0.00149929 0.087625 0.0855053 -0.0239681 -0.0307706 -0.0300782 -0.0373394 -0.00396621 0.0941785 0.0758067 -0.0134718 0.0242774 -0.00750327 -0.0275421 0.121187 -0.037621 -0.061533 -0.00693907 0.0279141 -0.0330652 -0.189001 0.0012184 0.0281956 -0.12614 0.015723 -0.0675962 -0.0451712 -0.0642012 0.057428 0.00550508 -0.0399688 0.115117 0.00349303 -0.0133811 0.0523115 -0.0336505 0.0150272 -0.0795746 0.0526644 -0.0342557 0.0145169 -0.0974797 -0.0943245 0.0486403 -0.0250693 0.00381513 0.0334504 -0.101575 0.0481204 -0.0370967 -0.0706056 0.0185548 0.0373244 -0.087305 0.00393001 0.0502116 0.0639359 -0.0515849 -0.0840274 0.0129921 0.0423134 -0.0527111 -0.0181589 0.0133958 -0.0714564 0.048675 -0.0253322 -0.0982224 0.0554718 -0.01156 -0.0245379 0.052686 0.0669731 -0.025226 0.0311348 0.0500051 -0.032148 0.0212563 -0.0284398 -0.0494022 0.00648382 0.0436848 -0.00953285 0.0693652 0.0128463 -0.0220657 0.0898329 0.0528116 0.00823225 0.0520343 -0.0184887 0.0922822 -0.024448 0.0696624 0.139079 0.0669782 0.0923422 0.0453911 0.0158412 0.0325595 -0.0759046 0.0301622 -0.0209403 -0.0509397 -0.0763316 0.0523672 0.0419132 0.0170505 0.00356633 -0.0689709 0.0126357 0.0187089 -0.0239058 0.00192879 -0.0162448 0.0133333 0.139789 -0.00958115 -0.0355118 0.0256599 0.00885735 -0.0927936 -0.0871848 0.000130909 -0.054999 -0.0441756 0.0307127 0.0618387 0.0419401 0.0324877 0.0261325 -0.054862 0.0547204 0.0371583 -0.0421141 0.132803 0.0272682 0.0902335 -0.0332705 -0.0768841 -0.0312937 0.0375251 -0.0137608 -0.149586 -0.00674266 0.105737 -0.0541049 -0.0307048 0.0259763 0.0349554 -0.0108766 -0.070872 0.0241336 -0.053852 -0.0477367 0.0591701 -0.0171682 -0.0265869 -0.0450093 -0.0208766 0.0871508 0.0508532 0.0222016 -0.100804 -0.0158499 0.0300848 -0.071103 -0.00481423 0.0717873 -0.133521 -0.0254659 -0.0192435 0.0147831 -0.047568 -0.0539806 0.0134935 -0.0312346 -0.0160773 -0.00895248 0.00446857 0.0481216 0.0562545 0.0165902 0.0571454 -0.0137965 -0.0320018 0.0191673 0.0764746 -0.0149703 0.0868399 -0.117487 0.0246121 -0.0512428 -0.0172643 0.028355 -0.0132525 0.0431425 0.0133752 0.117303 0.0741196 -0.0155129 0.0134941 0.0275006 -0.0513716 -0.10313 0.0955289 -0.00403253 -0.0884959 -0.0371723 -0.0758632 0.0714676 -0.0304908 -0.0423719 0.0274092 0.0603079 0.0842472 0.00283726 -0.0765909 0.02569 0.04658 0.104827 -0.0574508 0.0298306 0.0181304 -0.0182234 -0.0809115 -0.0664088 -0.0624694 0.0321335 0.075917 0.0992679 -0.0365936 -0.0337986 0.129295 -0.0176882 0.062192 0.0472742 -0.0123387 -0.0606785 -0.0338583 -0.088833 -0.00883357 0.0509504 -0.00660566 0.0131406 0.0996889 -0.0432157 -0.12163 0.0144858 -0.0750372 0.0562282 -0.0147601
la -0.0061825 -0.000943867 -0.00882648 0.0324623 -0.0218281 0.0298912 0.022999 0.0280628 0.00587757 -0.0256806 0.0421732 -0.00937519 0.0286577 -0.0508309 -0.0713388 -0.0083427 -0.0288709 -0.0385773 0.0438649 0.118239 -0.0857782 0.0265617 -0.121373 -0.0188254 -0.0546811 -0.0806788 0.0316896 -0.0378146 0.041633 -0.0309924 -0.041553 0.05955 -0.0608129 0.129453 0.0598485 -0.122053 -0.0465893 -0.0176105 0.0836952 -0.0343169 0.0102949 -0.0374583 0.0156218 0.0252615 0.0309 -0.00615672 0.0178421 -0.00797611 0.0408416 -0.0361498 0.0593975 -0.0613706 0.0276527 -0.0404968 0.0402123 0.046048 0.0312373 0.0431485 0.00445423 9.88624e-05 -0.00346425 -0.0778974 0.154648 -0.0686087 0.0452325 -0.144819 -0.0786261 -0.0718243 -0.0501803 -0.0975832 -0.0534395 0.0902073 -0.0381883 -0.11348 -0.0568386 -0.0591484 -0.00126019 0.10107 0.0268208 0.0506956 0.0600346 0.0774409 -0.056104 0.0544098 -0.0755055 -0.0298645 -0.0268502 0.0361278 -0.0362457 0.0522597 0.0538365 0.108371 0.0678186 -0.0700722 0.0743035 -0.0662201 0.010687 0.0279691 -0.00326633 -0.042528 -0.0928937 -0.00631895 0.14431 -0.1254 -0.0116685 0.025394 -0.0469559 0.0271642 -0.01464 0.0133371 -0.0244887 -0.0382446 -0.0243949 -0.0210928 -0.0389073 -0.00247949 0.0540797 -0.0135001 0.042426 0.0402435 0.119622 0.0172551 -0.0777591 0.0770677 0.0539903 0.014829 -0.0114786 0.0396226 0.0634068 0.0308243 -0.100483 0.0484344 -0.0281898 -0.037223 -0.00817851 0.157217 -0.0291976 0.090253 0.0498912 0.0809812 -0.0376977 0.0246775 0.0772037 0.0318821 0.0899249 0.0584205 0.0341208 0.0276246 0.0222026 0.0328205 0.0141397 -0.106921 -0.0308114 -0.0160526 -0.017509 -0.0197769 -0.0168273 0.010295 0.0634315 0.0058502 -0.0403612 0.0462222 -0.0231479 -0.0215591 0.0729946 -0.0483068 -0.0259098 0.038101 0.052467 -0.0487288 -0.0359727 -0.0473985 0.00314414 -0.0367814 -0.0396858 0.00391813 0.0448799 0.0532402 -0.00310235 0.0336822 0.0630127 -0.00504848 0.0142707 0.0284067 0.0778676 0.0943895 0.0187137 -0.0495746 0.00446752 0.00655588 -0.0715933 -0.0842261 0.0926764 0.114025 -0.0454785 -0.0301873 -0.0184554 -0.067482 -0.0904368 0.00354715 0.00638533 0.0568251 -0.0760443 0.0564864 0.0362291 -0.0353769 -0.0311386 -0.0175674 0.0180552 -0.0344819 0.0985215 0.0210186 0.031423 0.0114043 -0.0546951 -0.102189 -0.00743853 -0.0857716 -0.0125572 0.0655862 0.0190377 -0.0128279 -0.0303209 0.0431458 -0.0137317 -0.000178316 -0.139533 0.0643804 0.0736946 -0.0469452 0.0892313 0.0983245 -0.0239298 0.0299051 -0.0138605 -0.0020433 -0.0542123 -0.0563839 -0.0283625 -0.0122703 -0.0747506 -0.0507139 0.0561858 0.00670254 0.0101946 0.0748045 0.0659548 -0.00926681 0.0109386 0.00478068 0.00845448 0.0981463 0.067936 -0.0254418 -0.128914 -0.00139399 -0.0658585 -0.0743397 0.0812461 -0.0625947 0.00276097 0.119247 0.0355322 -0.0409402 -0.0401827 0.0790198 -0.000370183 0.0164888 0.0118278 -0.00677377 -0.0874498 -0.112267 0.0116907 0.10592 -0.0728045 -0.0808299 0.0291518 0.124673 0.0206159 -0.0228965 -0.0588222 0.0386628 -0.00713715 0.0155509 0.0444311 0.0535564 0.0965846 0.0742637 -0.0238635 0.0602833 0.0389618 -0.138955 0.00812259 0.0245422 -0.0627549 -0.046205 -0.0870064 0.111644 -0.0503964 -0.0603421
le 0.0155922 0.0143992 0.000964195 0.0814325 0.00502998 -0.0472354 -0.0164419 -0.0548256 -0.00663633 0.0488503 0.022545 0.0266564 0.0401905 -0.10342 -0.0169668 -0.0125917 -0.0975234 -0.0314403 -0.00332131 0.102056 0.0188436 -0.00367308 -0.10007 -0.0530796 -0.105465 -0.00167588 0.0192886 -0.0791583 0.0157968 -0.0226555 0.0489085 0.0849042 -0.03295 0.0440868 -0.0270887 -0.0496145 -0.0241997 -0.0636043 0.0450423 0.0178938 0.00169697 0.00245871 -0.012261 -0.00443266 -0.0421846 -0.0216534 -0.0512411 -0.00678853 -0.0245652 0.0257877 0.00549446 -0.011089 0.0206348 0.035791 -0.0631718 -0.0752187 0.0730975 -0.00157763 0.0636784 0.0973169 -0.0384161 -0.0160286 0.0583935 -0.0458372 -0.0460853 -0.023573 -0.050252 -0.0431699 -0.0273819 0.0764163 -0.0577243 -0.0229842 0.0700079 -0.075138 -0.0707052 -0.0415293 0.096971 0.105 0.0507717 0.0291454 0.0637433 0.0767079 -0.028713 0.000139358 -0.107029 0.0140436 0.0425744 0.0222938 0.0425537 -0.0445618 0.0568243 -0.0502723 0.0887374 -0.108313 0.0583118 0.0670242 -0.0171562 0.0513022 -0.0804362 0.0200589 -0.156693 -0.0331912 0.0535225 0.047912 -0.119677 -0.0465475 -0.0455761 -0.00727913 -0.0241463 0.00765998 -0.04455 0.0907783 -0.00651078 -0.013448 0.00694201 -0.0808658 0.120521 0.0298993 -0.0273079 0.0237333 0.0521766 -0.0092699 -0.104309 0.163085 -0.00244822 -0.0487755 0.0531354 0.0408789 0.0295702 0.0558732 0.000211626 0.0607944 -0.01772 -0.00483454 -0.0291383 0.0178003 0.0397359 -0.00477465 -0.0338167 0.0209591 0.101142 0.0935618 0.0995432 0.0132043 -0.00690776 0.189219 0.0902556 0.0260831 0.0633005 0.0629556 0.00365794 -0.0256437 -0.0172094 0.0366098 -0.0352666 -0.104265 -0.0401639 -0.123922 0.0493394 -0.0294063 -0.00115307 0.000979459 -0.0792182 0.0365049 0.0672183 -0.00345354 -0.0213364 0.0169691 0.0972132 -0.116687 -0.149607 0.0132318 -0.0547589 -0.045411 -0.0124272 -0.00794405 0.0196856 0.0934479 -0.0918641 -0.0550205 -0.00618965 -0.0222878 -0.0489492 0.107805 0.00779314 0.0760222 -0.0182397 -0.0989486 0.0174373 -0.0334571 0.0168872 -0.111055 0.0551324 0.0841569 -0.052484 0.0881102 -0.00671369 0.0520026 -0.154458 -0.108217 0.0541128 0.00464354 -0.0468304 0.0551123 -0.0578387 -0.0788415 -0.0114177 -0.00744606 0.0654279 0.0445991 0.0738278 -0.0342053 -0.0210343 -0.0617791 0.0339294 0.0056604 -0.0259188 -0.126117 -0.0644535 -0.0413445 -0.00589811 -0.037736 0.0388669 -0.00969423 -0.0146263 0.0322048 -0.0328247 0.0212309 0.00103862 -0.0503675 -0.0211163 0.0243007 -0.0191014 0.0567489 -0.043264 0.0568567 -0.0228579 -0.0283925 0.033612 0.0515101 -0.0414714 0.0132683 -0.00172606 0.0437305 0.0496663 0.0219529 0.00353095 -0.0158963 0.0906741 0.0702407 0.116513 0.0357111 -0.0814845 -0.0250231 -0.0351731 -0.0433493 -0.0937363 0.0301959 -0.0273607 0.0168359 0.052862 0.0723538 0.0169678 -0.0622831 0.0123741 -0.0231882 -0.0429889 -0.0191416 -0.0494621 -0.0614717 -0.186345 -0.0195057 -0.0121781 0.0129757 -0.074193 -0.0148256 0.0139371 0.0378752 0.104065 -0.0227193 -0.000346468 0.00911299 -0.0931044 0.012937 0.0222918 -0.0998681 0.133553 0.0363983 -0.0492157 -0.00794455 0.0159889 -0.0303941 -0.0918622 0.0159547 -0.040207 0.0590923 -0.0179378 -0.0183298 0.0270132 0.0520181
et 0.0452279 -0.00746001 -0.0699478 0.0678657 -0.0446425 0.0252148 0.0740176 -0.038979 0.0768492 0.082898 0.0991147 -0.0404535 0.0775041 -0.0940115 -0.0121854 -0.0703814 0.0466582 -0.065524 -0.0329539 0.0197819 0.0132564 0.0502401 -0.0781142 -0.0481204 -0.0502142 0.0427686 0.0502365 -0.0567215 0.0213504 0.010408 -0.118967 0.0890203 -0.0780565 0.0522637 0.00117535 -0.0133818 -0.0476797 -0.0901399 0.0871434 -0.00310242 0.0271261 0.0409513 -0.0690037 -0.0103349 -0.0372235 -0.0515631 -0.0107576 -0.0268875 0.0281455 -0.046277 0.0693294 0.0225518 -0.0441441 -0.0380009 -0.0240551 0.00299132 0.0113509 0.027747 -0.138826 0.0873165 -0.0133281 -0.10934 0.0717016 -0.0136727 0.0249906 0.0019158 -0.0650022 -0.0350242 -0.0653116 -0.0328868 -0.0848375 -0.00299674 0.0235708 -0.103316 -0.0349237 -0.0521652 0.126626 0.0787313 0.0862103 0.00964091 -0.0608503 -0.0175016 -0.0146663 -0.00645114 -0.0503545 -0.0248805 -0.0638679 0.0381896 0.0424302 0.0069447 -0.0114596 -0.0427985 0.0184075 -0.0900646 0.0321792 0.0565534 -0.00272132 0.0253662 0.0338999 -0.0498069 -0.00518386 -0.0853866 0.136299 -0.0234007 -0.027797 -0.0037369 -0.0672548 0.019361 -0.102752 -0.040789 0.0033586 0.0561873 -0.0177756 -0.0268895 -0.0257741 -0.0286084 0.0690851 0.0039445 -0.0593743 0.0513843 0.0522784 0.00414924 -0.0318507 0.124332 0.01901 -0.038296 0.0677547 0.05193 0.0376845 0.0244411 0.0585438 0.0759396 -0.0895026 0.00448267 0.0402786 0.00265041 -0.0359848 0.0100203 -0.0375516 0.0630332 0.00449284 0.077005 0.0752322 0.0121069 0.098773 0.0902195 -0.0410982 0.0244379 -0.0140885 0.00227339 -0.0100923 -0.136313 -0.0172785 0.0380985 -0.0174212 -0.0386244 -0.0984232 0.00645887 0.151663 0.0199214 -0.0103985 0.110744 0.00307034 0.115258 0.0421524 -0.0951449 -0.0305775 -0.0544537 0.0698672 -0.0961409 -0.0280635 -0.0490078 -0.0509291 -0.0169706 -0.0484774 0.0716091 0.069391 0.0559146 -0.00100414 0.0217936 0.118034 -0.0839002 0.0203615 0.0504344 -0.00328575 0.133425 -0.039835 -0.0564859 0.0923611 -0.0239673 -0.0585575 -0.0194932 0.0602923 0.00552553 -0.0268047 -0.0158297 0.0256254 0.0704712 -0.118039 -0.0827453 0.123757 -0.0388926 -0.142411 -0.00519608 -0.035914 -0.0593713 0.0267064 -0.040255 0.123762 0.0534965 0.116815 -0.0156088 -0.013097 -0.0304184 -0.0121352 -0.039094 0.0122933 -0.144152 -0.030419 -0.0234328 -0.0020488 -0.0641576 -0.0214102 0.0616246 -0.0490178 0.0450848 -0.0423517 -0.0612162 0.0779012 0.0488368 -0.00969485 0.0539121 0.0379169 -0.000308769 -0.0884435 0.12432 0.00604847 -0.0061927 -0.0387754 0.0585621 -0.0393222 -0.0206716 0.0340291 -0.0573896 0.064638 0.0817043 0.0589668 -0.0432358 -0.010554 0.102728 -0.0108512 0.0310184 -0.0710425 0.0498857 -0.0642797 -0.0515641 0.00957048 -0.0611408 0.0185457 0.0201454 -0.0104763 0.094069 -0.00398708 0.0123166 0.0361308 -0.0485694 0.0236524 0.0331419 0.0171462 0.0236273 -0.0851288 0.022823 0.0355994 0.0229534 -0.109774 -0.0132216 0.00458198 0.123401 -0.0727676 0.0244255 0.067174 0.0141334 -0.00975475 0.0353543 0.0181776 0.0218978 0.0286106 0.0487889 -0.0587615 0.0153793 0.0921931 -0.0693925 0.0404242 0.103345 0.048334 0.0016522 -0.0442319 0.0299867 0.0146577 0.00621143
à -0.00583901 0.0443626 0.00164087 0.0292455 0.00816237 0.0600501 0.027597 -0.0412111 -0.0218243 0.0844294 0.0492962 -0.0584886 -0.0421026 0.0380439 0.0612768 -0.114815 -0.090112 -0.0579875 0.0539275 0.0617727 -0.00532457 0.0983239 -0.103832 -0.0146547 -0.109685 -0.0592871 0.111289 -0.0398921 0.0336877 0.0831828 -0.0568416 0.0270001 -0.121415 0.105248 0.0150598 -0.130831 -0.0726748 -0.0640574 0.011546 0.0388491 0.00743461 -0.0777671 -0.109081 -0.00162495 0.00425233 0.0591263 0.0985326 0.0395431 0.0476258 -0.108879 -0.0442268 -0.0433356 -0.0168805 0.0472215 -0.0361649 0.0215422 0.03646 0.0942424 -0.0550963 0.00831041 0.0170592 -0.0793091 0.00613873 0.0387648 0.00604853 -0.148974 -0.0314539 0.0340343 -0.0882799 0.150216 -0.0577131 0.0747251 0.00988237 0.0191082 0.0394169 0.0203099 0.108037 0.106395 -0.0361162 -0.040718 -0.00932936 0.0694502 0.0309817 0.0154296 -0.00356077 0.0180163 -0.018148 0.0427671 -0.00556751 -0.0848834 0.0600515 0.00806679 0.0637941 -0.0832408 0.0670849 0.0652801 0.0398386 -0.0301605 -0.0489392 -0.0173319 0.0635225 0.010296 0.0830882 0.00237623 0.0111292 -0.0563874 -0.0385956 0.0124805 0.00622629 -0.0219779 0.0652277 -0.0162457 -0.0701635 0.00943598 -0.0226989 -0.0491649 0.0519196 -0.0302267 0.0303777 0.0784757 0.0907592 0.0599465 -0.10493 0.147399 0.0212548 0.0130304 -0.0472542 0.0251903 0.073009 0.0601263 0.0211138 0.0250836 0.073656 -0.036751 0.00698677 -0.00547321 -0.00173112 0.0577986 -0.0138318 0.0534106 -0.0275824 -0.0141795 0.130851 0.0329479 0.0626521 0.116137 -0.0163912 0.0408475 -0.00425529 0.00711395 0.000330171 -0.103848 0.0196489 -0.0401506 -0.0278887 -0.0852345 0.0101061 -0.00579582 0.0752953 -0.0290733 -0.0481266 -0.0488178 -0.0684749 0.0813732 0.0392486 -0.00712896 -0.0838342 0.00531735 0.139526 -0.0139746 -0.0716229 0.0595886 -0.0464588 0.124897 -0.0315457 0.120714 0.0222126 0.0858737 -0.0853371 -0.0307348 -0.00461743 -0.00430738 -0.056882 0.0793395 -0.0602385 0.0739876 -0.041458 0.0452975 0.0349989 -0.0469143 -0.0850524 -0.0447361 -0.00895613 -0.0881401 -0.0820873 -0.0809324 0.0335574 0.086682 -0.0411974 -0.0620378 -0.0858847 -0.0177049 -0.124222 0.0296459 -0.0518418 -0.0324067 -0.126663 -0.0469931 0.0932559 -0.0667777 0.0667909 -0.0122377 0.0127039 0.0433974 -0.016413 0.017598 -0.0308016 -0.0624069 -0.00384404 -0.0359126 -0.0116754 -0.0154365 -0.0445057 -0.0213171 -0.0435914 -0.0232117 -0.101566 0.00778456 0.0163866 0.0759974 0.046996 0.0167603 0.0223294 0.0499903 -0.0107501 0.0325854 -0.0760323 0.00400782 0.0116488 -0.000616797 -0.0272015 -0.00672001 0.0907684 0.0610591 0.0125644 0.0615448 0.0384803 0.0113577 0.0471655 -0.0140774 -0.00531712 -0.0281195 -0.0109694 -0.0388431 -0.085376 -0.0508373 -0.0256815 -0.0982589 0.0373553 0.0289435 -0.0428289 0.123186 -0.0222339 -0.0436062 -0.0238126 -0.00220153 -0.021272 0.00422625 0.0288367 0.00997412 0.0040717 -0.0445225 0.021066 -0.0151589 -0.0584394 -0.0552912 0.0733101 0.109214 -0.0378408 0.000781457 -0.00878787 0.0551422 -0.0280569 0.0313751 0.0427765 0.0957334 0.0552628 -0.000586157 0.0514642 -0.00716811 0.0965257 -0.106403 -0.0962111 0.0192235 0.0429561 -0.0390574 -0.0370933 0.0282711 -0.0171983 0.0222986
) -0.127839 -0.0146368 -0.0501657 -0.0431767 -0.0177568 0.0199147 0.0285116 -0.00356549 0.00475557 0.0261455 0.0558922 -0.0360701 0.118336 0.0101405 -0.0334957 0.0226025 0.0222266 0.0266687 0.0469391 -0.00658704 0.0285076 0.0706071 -0.0698577 -0.0103969 -0.105349 -0.0664793 0.00804232 -0.117798 0.0214286 0.0169187 -0.0289717 0.0993793 -0.0316658 0.101252 0.0161596 -0.0940127 -0.073069 -0.0776727 1.40801e-05 -0.0316569 0.00464951 -0.0429581 -0.0790689 0.00542794 0.00709209 0.019755 -0.0365508 -0.0176111 0.0348853 0.00876174 0.0556056 -0.0592515 -0.0350746 -0.0605958 -0.0590404 -0.106294 0.039313 -0.00944905 -0.0978554 0.0970029 0.043886 0.0186068 0.0423168 -0.0124063 -0.0791485 -0.030564 -0.00474504 -0.127484 -0.112047 0.062772 0.00598106 0.000335001 -0.00645458 -0.0698609 0.0337009 -0.0619483 0.0327634 0.0377983 0.0704749 0.124286 0.0366618 0.0210518 -0.0418191 0.0376315 0.0243585 -0.0451308 0.0294902 -0.0244956 -0.0188719 -0.0531281 0.0462 -0.0446254 -0.0297583 0.0122239 0.0575369 0.00591228 -0.0453347 -0.0342835 -0.00211223 0.0328585 0.0833372 -0.0321104 0.0336543 0.0879472 -0.00370398 -0.0234877 -0.0553069 0.0358712 0.0814912 -0.0478307 0.00476302 0.028865 -0.0267915 -0.046518 0.00161954 0.0248237 -0.00896686 0.0776827 -0.00327219 0.0344076 0.0911537 -0.0391434 -0.0680114 0.181867 -0.0319905 0.0617661 -0.0615735 -0.00128634 0.0537112 -0.0544092 0.0423065 0.0973681 0.0417091 0.104808 0.0630452 0.029068 -0.0140408 -0.0275909 0.0419145 0.0932162 0.0616914 0.0100696 0.0491368 0.11526 -0.00855193 0.0913476 -0.0588039 0.0107647 -0.0175248 -0.00209632 0.0184854 -0.089549 -0.0209511 0.0624024 -0.0526249 -0.0237097 0.0342035 -0.00680618 0.0716208 0.0374314 0.0504451 0.0144552 -0.124788 0.00711736 0.0753043 -0.0146344 -0.0424921 0.0672939 0.0550897 -0.0739906 -0.0864578 0.0920757 -0.0534453 -0.0201235 0.0152581 0.0448795 0.0767388 0.0283135 -0.00700695 -0.0186872 -0.0963013 -0.047388 -0.00542248 0.147097 -0.0383103 0.0938547 -0.0444394 0.0354442 0.0480748 -0.0430202 -0.0223197 -0.131225 -0.0391504 0.0812927 -0.0815218 -0.120956 0.0546455 0.00261339 -0.0964117 -0.0935689 0.0042976 -0.0414282 -0.0845544 0.0952013 0.0427266 0.0127942 -0.168913 -0.0644716 0.135022 -0.0488132 0.0986597 0.0156873 -0.00894799 -0.0207645 -0.0693416 -0.0296133 -0.0485441 -0.0346656 -0.117192 -0.00605944 0.0433219 0.0193475 -0.0363592 0.0411717 -0.0245343 -0.0748452 -0.0684831 -0.00495909 0.0819451 0.0189059 -0.048013 0.101348 0.0134298 -0.0867413 -0.0626818 0.0134155 -0.065852 -0.00892857 -0.0585418 0.0303175 -0.0784482 0.0854308 0.0378903 -0.0709415 0.044371 0.0327285 -0.0030448 0.0120728 -0.0264229 0.0473602 0.0539534 -0.0480239 -0.0523869 0.0776551 -0.0382466 -0.0475884 0.0297074 -0.0219194 -0.00773555 -0.0359855 -0.0216532 0.00729587 0.0487253 -0.0147188 -0.0169984 -0.0124441 0.0242292 0.0101101 0.0625884 -0.0292058 -0.00117652 0.0649888 0.030877 0.0195146 -0.0215388 -0.0178451 0.0845338 0.0655309 0.0810334 -0.000700443 0.047181 0.0825358 0.0087884 0.127272 0.0618393 -0.0287299 0.127177 -0.034032 0.0555571 0.0326569 0.0242866 -0.0618549 -0.0141437 -0.00638139 -0.0836872 -0.0511349 0.0114701 0.0872454 0.0516702 0.0462289
( -0.107017 -0.0301545 -0.0661466 -0.0416825 -0.0129017 0.0274496 0.0252121 -0.00392609 -0.00166361 0.0186754 0.0683011 -0.0432525 0.118813 0.00749253 -0.0327788 0.0333992 0.00589962 0.0272375 0.0300533 0.000345857 0.0221428 0.0716955 -0.0537831 0.00214279 -0.104997 -0.0557599 0.0143636 -0.11263 0.0184829 0.0140674 -0.0243738 0.108494 -0.0392383 0.101557 0.0354733 -0.0773867 -0.0723282 -0.0748663 0.00120892 -0.023384 0.0173138 -0.0578566 -0.0714437 0.00250327 0.00520236 0.015894 -0.0373609 -0.0184448 0.0304628 -1.235e-05 0.0710447 -0.0674736 -0.0389065 -0.0441172 -0.0663589 -0.104444 0.0421958 -0.032115 -0.100467 0.101582 0.0447814 0.0119292 0.0486561 -0.00436273 -0.0771862 -0.0217158 0.000613294 -0.114269 -0.113081 0.0519827 -0.00884049 -0.0110229 0.0090932 -0.0507888 0.0218424 -0.0554443 0.0211891 0.0390694 0.0856057 0.127389 0.0398389 0.0261269 -0.0392329 0.027166 0.0294299 -0.0560695 0.0420357 -0.0227814 -0.0267564 -0.0616919 0.0464363 -0.0363982 -0.0555469 0.00903091 0.0621696 0.0100117 -0.0502919 -0.0592919 -0.00354068 0.034989 0.0800482 -0.0204553 0.0172939 0.0803318 -0.00809319 -0.0183289 -0.0606747 0.0440641 0.0713426 -0.0530722 0.000388274 0.030339 -0.0271676 -0.0385833 0.0084774 0.0343921 -0.007246 0.0619295 -0.0149217 0.0455583 0.0996497 -0.0356806 -0.0662467 0.180393 -0.0320573 0.0633584 -0.057561 0.00102604 0.0560125 -0.0614194 0.0332957 0.0946384 0.0472538 0.0876574 0.0537961 0.0260862 -0.0148768 -0.0247245 0.0475939 0.0816219 0.0799382 0.0156826 0.0551301 0.113689 -0.00196663 0.103202 -0.045392 0.0105946 -0.0126838 -0.00863964 0.0228726 -0.086738 -0.00900273 0.0605082 -0.0453525 -0.00565928 0.0202052 -0.0176529 0.0709809 0.0376625 0.040727 0.016179 -0.125065 0.00504967 0.0640029 -0.028504 -0.0489015 0.0527107 0.0529675 -0.0611197 -0.0810109 0.0853064 -0.0626641 -0.01111 0.0112822 0.0488854 0.0807427 0.0293274 -0.00223651 -0.0270183 -0.104413 -0.0360107 -0.00156845 0.13767 -0.0256142 0.0663695 -0.0302269 0.0487024 0.0506346 -0.0362892 -0.014136 -0.137016 -0.0600907 0.0736391 -0.0864818 -0.117137 0.0656114 0.018133 -0.0977428 -0.10653 -0.00195051 -0.0570244 -0.0788305 0.102654 0.0277701 0.0313364 -0.172676 -0.0578823 0.136478 -0.0512055 0.0978379 0.0329315 -0.00710998 -0.0265302 -0.0848347 -0.0280877 -0.0560886 -0.0368615 -0.115675 -0.0172274 0.0355768 0.00591016 -0.0459043 0.0434075 -0.0118908 -0.0721565 -0.0779241 -0.00042293 0.0809166 0.0161648 -0.0670981 0.0992664 0.00479038 -0.0925459 -0.0716287 0.0189793 -0.0809524 0.00266123 -0.0573863 0.0290858 -0.0705888 0.0866171 0.031496 -0.0635337 0.0554838 0.0377817 0.00546927 0.0169969 -0.00210077 0.0311203 0.0556236 -0.0413945 -0.0458945 0.074818 -0.047559 -0.0504878 0.0337864 -0.0125972 -0.0218029 -0.0282582 -0.00746043 -0.00130714 0.0371632 -0.00943067 -0.0388059 -0.00534349 0.0252462 0.0125602 0.067096 -0.0290515 -0.00648024 0.0755076 0.0217943 0.00800546 -0.0138012 -0.0231385 0.0792775 0.0808062 0.0914198 -0.0101376 0.0222627 0.0930863 0.020571 0.13468 0.0527864 -0.0178963 0.125709 -0.0315503 0.0411026 0.0280003 0.0160917 -0.0658412 -0.0105841 -0.00654616 -0.0919603 -0.0569167 0.0134335 0.0865485 0.0600555 0.0274906
l -0.0596397 -0.0193279 -0.0632821 0.00964743 0.00516274 0.0237687 -0.00405068 -0.0759806 -0.00233987 0.139531 -0.0698977 -0.122255 -0.0363298 -0.0641595 0.0176386 -0.107648 0.0509336 -0.035151 0.0438008 0.127131 -0.0236151 0.103893 -0.0521931 -0.0912995 -0.144642 0.0251089 -0.0026001 0.00683743 0.00239265 0.0615033 -0.0920428 0.104702 -0.0758585 0.0507202 0.0573645 -0.140661 -0.021683 -0.0546651 -0.0943125 0.00265867 0.0258996 -0.0168988 0.0245313 -0.0194878 0.0575151 -0.00754512 0.0288483 0.0325666 -0.02865 -0.0941835 0.0742974 0.0916186 -0.0671463 -0.0207401 0.00223145 0.0180042 0.0164607 -0.0269541 -0.0465095 0.0204625 -0.045641 0.0337233 0.104812 -0.0154172 -0.00608731 0.0361245 -0.0703486 0.00253822 0.00667873 0.032691 -0.0363662 -0.0169003 0.0910873 0.0338945 -0.0335316 0.0878808 0.0274162 0.101323 0.0288028 -0.0361286 0.0352382 0.0835994 -0.0352378 -0.00750344 -0.098324 0.0435347 -0.0841501 0.0538178 -0.0132354 -0.0297975 -0.0364194 -0.00454188 0.128775 -0.0849248 0.0414722 -0.0107703 0.00830293 0.0165285 -0.0278141 0.0229622 -0.0449275 -0.128207 0.0124521 -0.0398204 -0.0143801 -0.0183349 -0.0230483 0.0651453 -0.0283898 0.0082418 0.0755208 0.00610341 -0.0565879 0.0577183 0.0735297 0.000496101 -0.023527 0.0479197 0.0204147 0.0100281 0.0524614 0.0485794 0.0185214 0.0566423 0.0422099 0.0171071 -0.0311477 0.0591746 0.0755856 -0.000576125 0.0137679 -0.014021 -0.0287094 0.0568142 0.010835 -0.0276803 -0.118444 0.0296375 -0.0357045 -0.00686305 0.0123531 -0.0048371 -0.0151379 0.0320112 -0.0340478 0.125233 0.000961482 0.040436 -0.00379084 0.00709445 0.00171011 -0.0309758 -0.102941 0.0182077 0.0128624 -0.0673082 0.0353939 -0.0817781 0.0750381 -0.0099195 -0.0560469 0.0765943 -0.0790133 -0.0107373 0.077937 -0.0737512 -0.00259945 0.0569358 0.16452 -0.0240824 -0.0116723 -0.0244822 0.000213889 -0.027232 -0.0685891 0.128555 0.0852414 0.124343 -0.0699841 -0.0952652 -0.0229912 0.0411496 -0.00896869 0.0850598 -0.0525719 0.0334247 0.0937044 0.0514261 -0.0136221 0.0149383 -0.110024 -0.0384372 0.0605085 -0.0274389 0.00122328 -0.0180954 -0.0244247 0.055818 -0.0911084 -0.0165225 0.00185452 -0.00726759 -0.0967548 0.0238662 0.0587337 -0.0772923 -0.120046 -0.00672633 0.0390224 0.0328655 0.134409 0.0416452 -0.0233422 -0.010469 0.0352931 -0.00775795 0.0704258 -0.14849 0.010727 -0.0492417 0.0446989 -0.00503726 -0.0664363 0.0970885 -0.0428427 0.000946806 0.0378878 -0.0928528 0.0434819 0.0180277 0.0658696 0.0577851 0.0146771 0.025531 0.0280697 0.0751924 0.0194218 -0.033722 0.029288 0.0379042 -0.0574852 -0.0534573 -0.0199745 0.0165782 0.00753022 0.0543114 0.0890324 0.00248965 0.0830762 -0.0305687 -0.0383978 0.0359859 -0.0221476 0.0620661 0.00106918 0.0367069 -0.0650416 -0.0451555 -0.0185217 -0.00391678 0.0455052 -0.0198838 -0.0637851 -0.0430476 0.00848888 -0.0442203 -0.0364177 -0.0144057 0.114666 -0.0795295 -0.000138511 0.0172925 0.0985675 0.0353454 -0.0477538 0.00185714 0.0600857 0.0477215 -0.0371259 -0.0135996 0.0281588 -0.0956066 -0.0337866 0.0521173 -0.0200998 -0.0597184 -0.0681304 0.0844846 -0.0971055 -0.00549603 0.0261204 -0.163715 -0.00259669 0.0693969 -0.0604938 -0.0946976 0.016232 0.052237 -0.0905972 -0.0522839
en -0.021535 0.00347087 0.00440411 0.136832 -0.0366834 0.0362515 0.00938984 -0.0871513 0.0297753 -0.0230753 0.0758493 -0.0300172 0.0305596 -0.00854724 0.0901281 -0.0791693 -0.0250791 -0.0656167 0.0377496 0.00170329 0.0142166 0.0262167 -0.0903035 -0.0788125 -0.083928 0.0571312 0.0516523 -0.0812047 0.0510584 0.0967279 -0.0904672 0.0380978 -0.061832 0.0136513 0.00541592 -0.0681699 0.00260028 -0.0694127 0.0710137 -0.0909055 0.0198277 -0.0659063 -0.0393806 0.00100147 0.0110012 -0.0789581 -0.0309539 -0.0570772 0.0360246 0.00361019 0.0804633 0.0538613 -0.0179001 0.00625648 -0.0173199 -0.0920985 -0.039981 0.091083 0.0419885 0.102187 -0.0224889 -0.0851331 0.0112671 -0.0347851 0.0765651 -0.102694 -0.002895 0.0536604 -0.0951921 0.00147732 -0.0242904 0.0964254 -0.0487273 -0.00130475 -0.0682684 -0.0308266 0.102508 0.0296007 -0.015141 0.0227551 0.0682553 0.0496635 -0.00544817 -0.00280631 -0.126135 -0.0271725 -0.0469037 0.00350392 0.0763513 0.00722925 0.000881982 -0.072789 0.103357 -0.0309607 0.0576985 -0.00992294 -0.0393553 0.0548629 0.0091003 0.0401164 -0.03769 -0.0433545 0.125412 -0.0300105 -0.0184561 -0.0235749 -0.0302083 0.135186 0.135764 0.045916 -0.0488974 0.0287054 -0.0632911 -0.0378236 -0.0521626 -0.0237174 0.0862377 0.0561057 0.123226 0.0853574 0.0717521 0.08452 -0.116704 0.1501 0.0251668 0.0131261 0.073379 0.0188077 0.0843293 0.0690765 0.0551035 0.0271656 0.00459069 -0.0241486 0.018284 0.0761173 0.0133356 0.0166237 0.0456437 0.0756285 -0.119988 0.0972198 0.0115586 -0.0710048 0.0817149 0.0945899 0.0499744 0.0924691 -0.0590272 0.00338921 0.00293002 -0.129882 -0.0305775 -0.0176473 -0.0939616 -0.0283646 0.0101395 -0.035541 -0.016569 0.0166154 -0.0357417 0.132066 -0.0565357 0.0640607 0.0923439 -0.104091 0.0343149 0.0685076 0.0775029 -0.0307905 -0.0532609 -0.00756351 -0.0396367 -0.0468328 -0.00414293 0.0383511 -0.0239724 0.0990473 0.0228087 0.00662315 0.00904088 -0.0290708 0.0546447 0.111124 0.0338523 0.0435298 -0.00977763 0.00581581 -0.0203868 -0.0576216 -0.0433435 -0.104057 -0.000454176 0.0853309 -0.0220166 -0.0181599 0.0304967 -0.0137285 -0.0893989 -0.0832643 0.0974048 -0.0544962 -0.0667867 0.0239068 -0.0103859 -0.000549433 -0.118039 0.0679786 0.0594856 0.0772957 0.0532775 0.000834513 -0.0337761 0.0219149 -0.057178 0.0875855 -0.0525358 -0.0534857 -0.00889586 0.0793502 0.045668 -0.110684 -0.00759476 0.0462437 0.0127936 0.0560316 -0.0304852 -0.0673591 0.085909 0.013733 0.0554844 -0.0264477 -0.0531644 0.0449349 -0.0184875 0.0813957 -0.0165677 0.0199433 -0.0177367 -0.0537834 -0.0462002 0.0118606 0.0389199 0.0112035 0.0409185 0.030147 0.021783 -0.0388492 0.0625072 0.0576708 0.0138448 -0.0790276 -0.0670268 -0.0479418 -0.0149216 0.0592767 -0.00656786 0.0213372 0.0576914 0.00931354 0.0352881 0.00780767 0.0700708 -0.064918 0.00737591 -0.0299997 -0.0503345 0.0166137 0.0186231 -0.0376946 -0.0482027 0.0262016 -0.00688615 0.0962611 -0.0750424 -0.0842385 0.019737 0.058712 0.0299336 0.00518957 0.0840994 0.044888 0.0737683 -0.0353052 0.0541614 -0.0367895 0.0438175 0.0280472 -0.0447694 0.0332808 0.024678 -0.0888397 0.00854382 0.0476722 -0.0889432 -0.00319218 -0.0134998 0.0101741 -0.0432992 0.0256134
d -0.0358041 -0.0517735 -0.0681754 0.0275593 -0.0474994 0.0311593 0.0574073 0.00493812 0.040729 0.0254459 0.0419398 0.0409223 0.0392292 0.0421094 -0.0612557 -0.0804389 -0.0268335 0.0377072 -0.0531459 0.0428027 -0.0412355 0.0769253 0.0040348 -0.0317741 -0.103259 0.0540089 0.0514969 -0.0209036 -0.027979 0.0709495 -0.0282459 0.0161668 -0.0694681 0.0806585 0.0466378 -0.0571653 -0.00314043 -0.0379943 -0.0470829 -0.0302875 -0.0223935 0.0190298 -0.0384717 -0.0775384 -0.0924597 0.0876043 0.0860838 0.0369641 0.0355555 -0.0155224 0.0711268 0.0554402 -0.0380884 -0.016895 -0.0744113 -0.0353045 -0.0370979 -0.0951041 0.00370976 0.0456051 -0.0987824 -0.113746 0.0321929 -0.0271293 -0.0160769 -0.0621677 -0.061953 0.00710299 -0.00595504 -0.0369407 -0.0860427 0.0523013 0.0889079 0.0217322 0.0116238 0.0219874 0.09462 0.0692678 -0.0154599 -0.0346937 0.00233029 0.0361873 -0.0841397 -0.0225467 -0.0329257 0.0718782 -0.0853797 0.0576746 -0.0289971 -0.0781944 -0.0225342 0.00494179 0.0827653 -0.149029 0.0265466 0.0262354 0.00240003 -0.00971775 0.0146819 0.0708968 -0.025318 -0.0295035 -0.0372315 -0.0263322 0.0342835 0.0268793 0.0368165 0.119803 0.0172698 0.00644409 0.053749 0.0132082 -0.103656 -0.0348942 -0.0215278 -0.0222562 -0.0251439 0.0523735 -0.00354358 0.100001 0.0143214 -0.0710667 0.0128339 0.0874056 -0.0251826 0.0666717 0.0509437 0.0388256 0.0351777 0.0749364 0.014073 0.0560413 -0.110465 0.0437717 0.119288 -0.00233733 -0.0752879 0.0211583 0.0901616 0.0236851 0.0958683 -0.027054 -0.0332403 0.0774286 0.0230116 0.120646 -0.0564856 0.095856 -0.064277 -0.0169657 0.0940488 -0.105289 -0.0609315 -0.0331279 -0.0362785 -0.125002 0.0426667 -0.0165781 0.00189847 -0.0227238 -0.0738234 -0.0347824 -0.0475254 -0.0213679 0.0198028 -0.0373828 -0.00316388 -0.0448314 0.126737 -0.0886489 -0.0684552 0.062285 -0.146473 -0.080121 -0.00522585 0.0776274 0.0511167 0.12499 -0.00307639 -0.0343298 -0.050195 0.0198656 0.010608 0.048095 -0.0232581 -0.00876915 -0.0750325 0.0803122 -0.0605284 -0.00471131 -0.0200012 -0.0732204 -0.00366959 0.0599917 -0.0283524 -0.0209472 -0.00524701 0.0904342 -0.0408 0.030181 0.106369 -0.0597956 -0.081399 0.0202098 0.00174704 -0.0747772 -0.0342832 0.0364212 0.0599066 0.0651626 0.0506534 0.0625106 -0.101697 -0.00789998 0.0175903 -0.13049 -0.0461575 -0.120426 -0.043725 0.0548362 0.0548091 -0.0880114 -0.0155663 0.0736814 -0.0722409 -0.034625 0.0341945 -0.00688999 0.0431559 -0.0696806 0.112017 0.0161721 -0.00473809 -0.0126591 0.0541475 0.0448462 0.000209589 -0.0119129 0.0103293 0.0838378 -0.00660501 -0.0278178 0.0678545 -0.0070578 0.011707 -0.0268746 0.0880096 0.0993 -0.0401059 0.121862 0.0116715 -0.0592699 -0.0416413 -0.0492478 -0.0449903 0.0632533 0.00742985 -0.0606367 0.0544256 0.0617998 -0.0621236 -0.063863 -0.00844371 -0.0107426 -0.0733891 0.0812338 0.0010131 0.0236905 0.0330259 -0.130254 -0.0673776 -0.0123441 0.043139 -0.00822023 -0.115303 -0.0993334 0.0612408 0.0907358 0.0389451 0.0697613 -0.0529863 0.0113178 0.0132563 0.0232447 0.0440189 -0.0396247 -0.0311103 0.00320784 -0.0542254 -0.00419055 0.0340089 -0.0336937 0.0438072 0.0361489 0.0488222 -0.0886915 0.0537793 0.0710546 0.0417069 -0.0595803
du 0.0170739 -0.0641063 -0.013062 0.0592554 0.0254934 -0.029487 -0.078469 -0.126695 0.0103245 0.0262833 0.0830267 -5.54735e-06 0.0270473 -0.119645 -0.0859622 0.0481743 -0.156757 -0.00865285 0.0400369 0.182754 -0.0263539 -0.0375223 -0.0537203 -0.0225991 -0.0741387 0.0485391 -0.0499933 -0.0722443 0.00640859 -0.0640903 -0.0692256 0.033982 0.0134029 0.0791754 0.0142352 -0.0531511 0.00912593 -0.0376698 -0.0368447 -0.000260667 0.063343 -0.00254293 -0.0404101 0.00129285 -0.0405496 -0.0774698 -0.0104271 -0.0250621 -0.0201812 0.0292848 -0.00117542 0.00726084 0.000201554 0.0469034 -0.0808308 -0.0744997 0.0395199 -0.0258086 -0.0135202 0.0939352 -0.100718 0.0230558 0.0619415 -0.068923 -0.0170761 -0.00558757 -0.0505506 -0.0954126 -0.0870345 -0.0407345 -0.105037 -0.108564 0.120495 -0.0912002 -0.00345667 -0.0443155 -0.0219796 0.140158 0.0266937 0.0357609 0.0675399 0.0809938 -0.0424137 -0.0303985 -0.0827335 0.0652372 -0.0254824 -0.0176146 -0.0238166 -0.0376122 0.0287829 -0.00949675 0.0707892 -0.056818 -0.00816433 -0.00652196 -0.00681732 0.0425833 -0.00436449 0.0102161 -0.0334981 -0.0527792 0.0583117 0.0187474 -0.0761463 0.000552354 0.0232433 0.0629401 0.011347 0.0294445 0.0107206 0.00394585 -0.0403332 -0.0605928 0.0479866 0.0189059 0.0588111 0.0151297 0.00628006 0.0872917 0.0774149 0.0389952 -0.0186493 0.0799251 0.0616945 0.0192959 0.0541294 0.00736119 0.0764847 0.0172706 -0.00300487 0.119114 0.00404173 -0.0337268 0.00597327 0.0447836 0.0385686 -0.00539364 -0.0152951 0.0186614 0.113797 0.108292 0.0641086 -0.0702238 -0.0103157 0.176444 0.0999878 0.00537648 0.0419448 0.0510889 -0.00873843 -0.0437741 -0.0365152 0.0265654 -0.0887828 -0.0392915 -0.0609754 -0.0887778 -0.0260077 -0.00565934 0.0134733 0.014067 0.0025915 -0.0125883 0.0603212 -0.00184884 -0.0189846 -0.02703 0.0849073 -0.0417502 -0.10305 0.00460554 -0.0491846 -0.0124755 7.59216e-05 0.076459 0.0777493 0.00705692 -0.0284214 -0.104517 -0.0158976 -0.0025025 -0.0308738 0.0792569 -0.0427484 0.0907976 0.0254 -0.0749469 0.027838 -0.0209081 0.0480616 -0.077782 0.103931 0.0516095 -0.108673 0.0556268 -0.0631295 0.0722618 -0.130897 -0.0580416 0.0258623 -0.059854 -0.100354 0.057189 0.00730674 -0.0525109 0.0226218 0.04665 0.0367868 0.0385125 0.0152158 0.00865671 -0.0228084 0.0214504 -0.0550416 -0.108636 0.00678096 -0.149509 -0.0637143 0.00661629 0.0418027 -0.0531822 -0.00107668 0.0859855 0.00204556 0.0490398 -0.0185472 0.0830908 -0.0241564 -0.041353 -0.0269398 0.0760724 -0.0379785 0.062887 -0.0321364 0.105139 -0.0144299 -0.0112395 0.0352723 0.00903247 -0.0474956 0.0650782 -0.036704 0.00926061 0.0341624 -0.0431108 0.0246016 0.0738793 0.134276 0.038155 -0.00541199 0.0362806 0.00283969 -0.0412022 -0.0541427 6.27974e-07 -0.111193 -0.0329438 0.0612548 0.103179 -0.00241042 0.0645967 0.00810224 -0.0253143 0.00199265 0.0259401 0.0421379 -0.00708965 -0.0743257 0.019259 -0.111025 0.0193242 0.00447671 0.0136307 -0.0140957 0.00605814 -0.0186389 0.0415987 0.128175 0.0243474 -0.00813895 -0.0258664 -0.0762295 0.0706626 0.0942406 -0.0497021 0.0610641 0.0556822 -0.0840136 0.144275 -0.0202786 -0.0652662 -0.0364881 0.0633839 -0.0575773 0.0327943 -0.0355114 0.0387211 0.0199387 -0.00708005
des 0.0744386 -0.10945 0.0156632 0.0568441 0.0101438 0.0149272 0.0446397 -0.0367978 0.0316932 0.150838 0.0571726 -0.0217552 0.038283 -0.036954 -0.0746306 -0.0300631 -0.0234534 0.00925603 0.028281 0.0191928 -0.106773 -0.0220915 -0.0390639 0.0111852 -0.0125952 0.0157117 0.0264596 -0.034643 0.02044 0.0141248 -0.0228066 0.0460719 0.0448149 0.120466 0.016389 0.000801707 -0.037389 -0.0144317 -0.0415671 -0.0649667 0.0149876 -0.010736 -0.0116094 0.0542529 0.0183343 -0.0444291 0.0276314 -0.0318455 0.00273876 -0.099656 0.00803724 -0.03564 -0.0156678 0.022795 -0.0719679 -0.0138359 0.0491562 -0.00778791 -0.138449 0.0543351 -0.0513436 -0.0455872 0.147247 -0.0543115 0.0942333 -0.0261739 -0.0929419 -0.0408417 -0.124824 -0.046045 -0.109939 -0.00899474 0.017928 -0.135337 -0.0636842 0.0126557 0.0337847 -0.0535215 0.0320974 0.0792628 0.0949969 0.0831444 -0.132149 -0.0137544 0.048363 -0.0396227 -0.0436077 0.0770731 0.00853261 -0.0314656 -0.0545568 0.0410452 0.0451138 -0.140451 -0.0764175 0.00794176 0.0247764 -0.0182202 0.0141921 0.0414888 -0.0038507 -0.0649962 0.0603684 -0.141691 0.000921715 -0.024897 -0.0376975 0.00336587 -0.00377914 0.017691 -0.0293008 -0.140938 -0.036677 -0.0164115 -0.0143514 0.0318229 -0.00169376 0.0232135 -0.0221205 0.0131577 0.117825 0.0598674 0.0770237 0.0680202 -0.0222692 0.0447621 0.0537091 0.0554607 0.0155555 0.150564 -0.0297634 -0.0358056 -0.00724704 -0.0260537 0.0313979 0.107002 -0.076477 0.0679815 -0.0522977 0.0281123 0.091103 0.109248 0.00386072 0.0117646 0.0281936 0.02578 -0.0122846 0.0445803 -0.0398619 -0.00866863 0.0319285 -0.134254 -0.0979904 0.0278417 -0.0710393 0.00752201 0.0220183 -0.00274062 0.0950026 -0.0137583 -0.0635282 0.0431437 -0.000809813 0.0491599 0.0453397 0.0437203 -0.0501893 -0.0769535 0.0683875 0.0622648 -0.0738967 0.00759878 -0.0861129 -0.0389464 -0.0183165 0.143091 -0.0575527 0.0320833 0.00302717 0.00713749 -0.0386687 0.0115119 -0.00944253 0.0664391 0.01244 0.0666241 0.0590222 0.0253338 0.0389106 -0.0190927 -0.00331799 -0.104283 0.0308814 0.0549618 -0.0214914 -0.0490173 -0.0482457 0.0492222 -0.0526019 0.0374273 0.0921052 -0.0555848 -0.00488825 0.0883933 0.026312 -0.0712317 0.00767028 -0.000266976 0.0865057 0.0753856 0.0426658 -0.00193288 0.0229084 -0.0330951 -0.0158591 0.0160927 0.0466288 -0.176959 0.00253861 -0.0148053 -0.0245183 0.00124278 -0.0384496 0.0354329 -0.0684597 -0.00569821 0.00658795 -0.0396174 -0.0355272 -0.0334266 -0.0204222 -0.00153834 -0.0620637 -0.095654 -0.0477013 0.0426817 -0.0399087 0.0526759 0.00291055 0.0219416 -0.0544616 -0.0127621 0.0609547 0.0126444 -0.069355 0.17465 0.133236 -0.0375178 0.0679675 0.0494014 0.0408926 0.0374495 -0.0178267 -0.0720239 -0.103579 0.031964 -0.0329919 -0.0494903 0.0616158 0.0269982 -0.0280725 0.0470649 0.0184368 -0.0147902 -0.0216342 -0.0231535 0.0206422 0.0415309 -0.00138419 -0.013961 0.00730587 0.0826411 -0.0391614 -0.00454049 0.0235793 0.0485027 -0.0853677 0.0743178 -0.0071295 0.0297891 0.0616004 -0.0800767 -0.0120006 0.00176423 0.0926116 0.0238161 -0.0356093 -0.00201404 -0.120441 0.14704 0.0387406 -0.0766295 0.0224291 0.0681328 -0.013893 -0.00860211 -0.0579727 0.0929121 0.0124831 0.0402623
les 0.0549723 0.00843771 -0.00606814 0.0917682 -0.0593837 0.0259266 0.0468748 -0.0857643 0.00917613 0.118602 -0.0124728 -0.0136824 0.00519613 0.00804165 -0.003264 -0.0520609 0.00858049 -0.0341021 0.0217376 -0.0331663 -0.0619018 -0.0226436 -0.0806111 -0.011683 -0.0130904 0.0356081 0.0796955 -0.0638645 -0.00641468 0.00432197 0.00129893 0.032168 -0.065868 0.117575 0.0414012 -0.0073764 -0.0221748 0.0221007 -0.0472079 -0.0426015 0.000614671 -0.00821207 -0.0446734 0.00314124 -0.00273019 -0.0141144 -0.00730741 0.000289656 -0.022088 -0.0894308 0.086951 0.00480623 -0.0216955 0.000170806 -0.0745604 0.0309084 0.0138801 0.0496421 -0.13134 0.0919819 -0.0243982 -0.069135 0.199548 -0.0462607 0.068829 0.0107668 -0.0807844 -0.0259737 -0.109747 0.0391592 -0.0618223 0.0751344 -0.0588916 -0.0973067 -0.0381378 -0.0175673 0.12363 -0.0272811 0.034556 0.0302211 0.0103553 0.0624728 -0.10168 0.0612232 -0.0205892 -0.0772363 -0.0293096 0.124585 0.0701991 -0.0440123 -0.107483 -0.027731 0.120011 -0.11169 -0.0385564 -0.00555834 0.0447636 -0.0317206 0.00953924 0.021388 -1.43447e-05 -0.046675 0.0452 -0.0504835 -0.0747914 -0.0435392 0.0321659 -0.0588959 -0.0517432 0.0117821 -0.0459371 -0.0661821 0.0355633 -0.0627457 -0.0229002 0.0118238 0.0233819 0.075406 -0.0278929 -0.0216809 0.107685 0.108849 0.0453469 0.0349897 0.0192786 -0.0122922 0.118259 0.097699 -0.0268958 0.143066 -0.0209936 0.0486123 -0.0517623 0.0555661 0.00941545 0.0470509 -0.0722789 0.0571061 -0.0433808 0.0181378 0.0603348 0.0912156 0.0367006 0.052545 0.0722982 0.0214374 -0.000307716 -0.0186223 -0.018514 0.0782264 0.0801382 -0.0753561 0.0127682 0.0485364 0.00847173 -0.0172939 0.00539996 0.011003 0.148565 -0.0412889 -0.0407091 0.0820197 -0.0306817 0.00869719 0.0550186 0.0840468 -0.0663897 -0.0159084 0.0769496 0.0716681 -0.0383492 -0.00572898 -0.0638298 -0.0303105 -0.0133033 0.148474 -0.0400301 -0.00435492 0.00463309 -0.0405234 0.0492033 -0.0371898 0.0264497 0.0416976 0.0105304 0.080294 0.0429093 -0.0297906 0.0515442 -0.0402444 -0.0550196 -0.0729713 0.0378054 0.0832203 0.0014937 0.00302116 -0.00321442 0.0371655 -0.072633 -0.0245397 0.0892634 0.000728101 0.0435929 0.0999743 0.0812563 -0.0227138 0.01517 0.00648021 0.0408383 0.114101 0.0987878 0.0285111 0.0336451 -0.0194308 0.0294999 0.000560998 0.0400752 -0.0884307 0.0282569 -0.0518723 0.00173864 -0.00696473 -0.0074852 -0.0293302 -0.0695896 0.0242964 -0.0193796 -0.125487 0.0156194 0.00281677 0.00591329 -0.00656099 -0.0442906 -0.065966 -0.0574987 0.04097 0.0125946 0.0312415 0.0301345 0.0455408 -0.025028 -0.0622467 0.0775212 -0.0378894 -0.019639 0.190913 0.0760294 -0.0132717 0.101437 0.0479614 0.0594231 0.0721846 -0.0543457 -0.0450519 -0.036746 0.0280209 0.0320546 -0.0465474 0.0262364 -0.0485129 0.00986594 0.0304535 -0.0256239 -0.0170295 -0.0887624 -0.116068 -0.0376483 0.0170509 -0.0214852 -0.0371991 -0.0227556 0.0540389 0.0206804 -0.00915072 0.00310425 0.00835392 -0.0214135 0.0522549 -0.0465995 0.0641341 0.0233014 -0.0326097 0.0125859 0.00229314 0.113619 0.0104495 0.0416348 0.00315871 -0.16458 0.0765522 0.0870113 0.0172768 0.0389662 0.099337 0.0075314 0.068725 -0.083896 0.0507295 0.0796413 0.0765688
est -0.00922439 0.0480598 0.0490164 0.0138463 0.00753877 0.000150146 -0.00075342 -0.00224513 -0.0675307 0.0300443 0.00556859 0.0319552 -0.0234396 -0.0606313 -0.0330345 0.0393839 -0.0375111 -0.0141651 -0.070547 0.0374011 -0.0703213 0.0874928 -0.122431 -0.102077 -0.0545308 0.0323944 -0.0139823 0.0314151 0.00134059 -0.00315555 -0.0540713 0.12389 -0.0956338 0.00239517 0.00282266 -0.077017 -0.0202626 -0.0173521 0.0191897 0.041706 -0.0617857 -0.00472834 -0.0681926 -0.00885719 -0.0687202 0.0725582 0.0706374 -0.00190649 -0.0202816 0.0358672 0.0139525 -0.034794 0.0643994 -0.0172945 0.000231603 0.0114563 0.0796845 0.0506253 0.0204504 0.0820985 0.0667366 0.0008106 0.0340658 -0.0117063 -0.0727014 0.021684 -0.149424 0.0172628 -0.00174724 -0.0260823 -0.0449887 0.0539823 0.0630296 -0.0135909 -0.0963807 0.0341932 -0.0155601 0.0929364 0.0581166 -0.0742504 -0.00329053 0.0124993 0.0573154 -0.0617967 -0.0533831 -0.00484303 -0.0247749 -0.00104414 -0.0111146 -0.087492 0.0509958 0.00755092 0.0356697 -0.0997859 0.0707542 -0.0190762 0.00293048 0.0389039 -0.00548787 -0.0146358 -0.10077 -0.0225205 0.0596739 0.0121289 0.00958591 -0.0335689 -0.0795072 0.0217817 -0.00741161 -0.0486401 0.00204993 0.0721231 -0.103834 0.0116323 0.0124928 -0.0509655 0.0767889 0.11793 0.0819027 0.0222793 0.0305492 0.0343217 -0.0927096 0.205115 -0.00506757 0.0747727 0.0384801 0.0500067 0.0311902 -0.0010011 -0.0414211 0.0272939 0.039211 0.0179304 0.0256418 -0.0104885 0.0271049 0.00924432 -0.0297959 0.0475054 0.0261365 -0.00961162 0.0911236 -0.0230034 -0.00666795 0.104969 -0.0654451 0.0146306 0.0531479 -0.0436138 4.74368e-05 -0.0976349 0.0141232 0.00564576 -0.0970217 -0.0598351 0.0306978 -0.0278679 0.192543 -0.0233405 0.0904585 0.0644077 -0.0738859 -0.00860564 0.0987541 -0.0337227 0.0316554 -0.0452441 0.0680071 0.0176795 -0.035325 -0.0408125 -0.0490491 -0.0251018 0.0185508 -0.0552081 0.087863 0.0358843 -0.0449272 -0.00887449 -0.0591711 -0.0387226 -0.00895064 0.112262 0.0232564 0.057973 0.00813087 0.0708433 0.0697104 -0.0350053 0.00880259 -0.0953335 -0.00208624 0.130816 0.0224209 -0.0838475 -0.0081481 -0.0148224 -0.0892411 -0.00482916 0.00942763 -0.0554795 -0.119602 0.0251171 -0.0803218 0.00908921 -0.0591793 0.0328586 0.1086 -0.0394625 0.0941589 0.00359475 -0.00647047 0.101595 -0.0305515 -0.0629692 -0.0349481 -0.134369 -0.0756284 -0.0239521 0.0501571 0.00926169 -0.0606558 0.00400624 0.0386285 0.0115314 -0.0315128 0.112193 0.00538453 -0.00430202 0.0134155 -0.00655699 -0.0845204 0.0097398 -0.0666456 0.045244 -0.0223664 -0.062638 -0.00336306 -0.0124296 -0.0874451 0.0581254 0.0438533 -0.0354547 0.0849003 0.0857219 0.141002 -0.0524137 0.0210903 0.00205571 0.018358 0.07223 -0.0639868 -0.0467391 -0.0910118 0.0465409 -0.0253942 -0.0197987 0.109646 0.0124525 0.0351557 0.0699914 0.0537685 -0.0765728 -0.05511 -0.0273285 -0.0291672 0.110062 0.0734758 -0.0759069 -0.0504216 0.0533149 -0.026135 0.0318526 -0.0161255 -0.0908437 0.122617 0.0834609 0.0332797 0.00554444 -0.0370181 0.00907465 -0.00103764 -0.0370088 -0.0765778 -0.09849 0.0350446 0.0631981 -0.0723217 0.0726558 0.024543 -0.085502 -0.0356302 0.0146643 -0.0811417 -0.0704291 0.046936 -0.0476081 0.0297397 -0.0800368
un -0.0213863 0.0996301 -0.0366709 0.0993246 0.0371841 -0.0635404 -0.0377228 0.0493323 0.010456 0.0381134 0.079661 0.0194819 -0.0116565 -0.0178966 0.00778066 -0.00844433 0.0324622 0.00228352 -0.0694539 0.0544303 0.0428613 0.0503997 -0.125946 -0.0520881 -0.058667 0.0127246 -0.0146537 0.0567176 0.0268293 0.00463986 0.0757161 0.0843704 -0.0113628 0.0649713 -0.0216573 0.013845 -0.0504057 -0.0699972 0.0345068 -0.0442502 -0.0364614 -0.0140265 0.00629875 0.00209772 -0.042181 0.0659334 0.0764393 -0.0357252 -0.0455137 0.0190248 -0.0208235 -0.0112947 0.0834511 0.0471768 -0.0444327 0.0135658 -0.0016008 -0.0385454 0.0741148 0.0736818 -0.0604044 -0.043989 0.0622933 0.0130292 -0.00302678 -0.0645434 -0.0961362 -0.0258989 0.0518815 0.0460024 -0.0828892 0.0327509 0.0968514 -0.0177397 -0.0401721 -0.0158567 0.0893017 -0.0202531 0.0369639 0.0249564 0.108143 0.0120775 -0.0144681 -0.0717532 0.00394891 0.00366567 0.030547 -0.0165525 0.030798 -0.0728596 0.00919276 -0.0715776 0.0410718 -0.162937 0.0885943 0.0808596 0.0577956 0.00956424 -0.0918596 0.0241025 -0.0647299 -0.0680204 0.095775 0.0896315 0.0128705 0.0353073 -0.0815987 0.0596377 -0.0383669 0.0353845 -0.0372799 0.0739166 -0.0150441 0.0542037 0.120602 -0.0745996 0.0466631 -0.030324 -0.00896298 0.0624856 0.0459316 -0.0123038 -0.0193644 0.182097 -0.0363546 -0.044553 0.032224 0.0503724 0.0410921 0.0880654 0.0400132 -0.0035003 8.06394e-05 -0.0173504 -0.0155405 -0.0705882 -0.0809169 -0.0688573 0.026128 -0.0123061 0.0378206 0.0480941 0.0644942 0.00933211 -0.0144599 0.172041 -0.0605753 0.0308689 0.0116069 -0.0328401 0.0344929 -0.0181986 -0.0149443 -0.0809652 -0.123649 -0.117922 0.0801379 -0.0713758 0.0087578 -0.0226638 0.00567853 0.0992152 -0.0757009 -0.0168725 0.089949 -0.0820748 0.0409928 0.00850472 0.121118 -0.101432 -0.137922 0.0203152 -0.0508075 -0.0462659 -0.062324 0.0416924 0.0105308 0.140518 -0.0272333 -0.0249226 -0.0097574 0.0409652 -0.0414869 0.11212 -0.03371 0.0527461 -0.0192906 -0.0752817 0.0550447 -0.0454854 0.012933 -0.0995569 0.10191 0.0962611 0.00203168 -0.0504391 0.0346805 0.0585766 -0.0346525 0.017482 0.0705661 -0.0180633 -0.014697 0.0386087 0.00583107 -0.14342 -0.0328073 -0.0647292 0.00274028 0.00188534 0.10902 0.0264644 -0.048998 0.00316105 0.0453076 -0.0630327 -0.0170762 -0.120208 -0.0896126 -0.0661207 -0.0318797 0.0156847 -0.00465555 0.0688732 -0.0103437 0.0452203 0.0351666 0.0530068 -0.0143437 -0.0037135 0.0188597 -0.0358649 -0.000615307 -0.00132518 0.025842 0.0234625 0.00763711 -0.0186987 -0.0225997 0.011329 -0.028818 0.0130794 0.014462 -0.00249833 0.0201203 0.081356 0.0822473 -0.0237337 0.0179033 0.0100613 -0.0354535 -0.0389434 -0.134379 0.00742661 -0.0471062 0.000514142 -0.142558 0.0379222 0.0619649 0.0115739 -0.01741 0.0404317 0.00941353 -0.108785 -0.0454322 -0.0330219 -0.0429675 -0.0413003 0.0215969 -0.0750797 -0.128609 0.0406982 -0.0109459 -0.000997516 -0.109273 0.0387145 0.0273467 0.0489534 0.0529879 0.0134159 0.0325163 -0.0282067 -0.0670882 -0.00289877 0.0257474 -0.104272 0.143105 0.0923303 -0.0390563 0.0215859 0.0345367 -0.0430349 -0.0603179 0.012793 -0.041684 0.0133601 -0.0257766 0.00160889 0.0435711 -0.00905312
une 0.0160942 0.108125 -0.0199992 0.0718032 -0.0506444 0.00836325 0.11299 -0.0275725 0.0551164 -0.0132751 0.013181 0.0255437 0.00778128 0.00448406 -0.0535263 -0.006843 -0.010915 -0.0365872 0.0826157 0.0791982 -0.0430477 0.0702149 -0.053702 -0.0607662 -0.0371612 -0.103847 -0.0282059 0.0755943 0.0476169 -0.0136554 -0.0681313 0.0180995 -0.0625801 0.0944863 0.0983005 0.0307789 -0.0616857 -0.0597515 -0.0223705 0.00223209 0.0752215 -0.0328371 -0.0243942 -0.0134962 -0.0116702 0.0300356 0.106859 0.0140921 -0.00525405 -0.0884483 0.0428882 -0.0443031 0.0679902 0.0172835 0.0506587 -0.0323811 -0.0530564 0.0354447 -0.00478573 0.0209454 -0.034972 -0.0846444 0.106847 -0.102963 -0.0122336 -0.161731 -0.114374 0.0225454 0.101387 -0.0332592 -0.0536384 0.0172772 0.00827001 -0.0733567 -0.0359744 -0.00751718 0.0647421 0.0680331 0.0156301 0.00687355 -0.0137008 0.00283574 -0.0776767 0.0158265 0.00883873 0.076313 -0.00672397 0.0266772 -0.0446515 0.00149603 0.0699098 0.0633441 0.0888703 0.00867136 0.0603179 -0.0735362 0.0123706 0.0358823 -0.0459862 -0.00367844 -0.0469847 -0.00667825 0.0592373 0.0275656 0.0400071 0.0146803 -0.0477928 0.0255389 0.0202699 -0.0461037 -0.0370106 -0.0314323 -0.0395398 0.00497508 -0.0387397 -0.0289009 0.0503189 -0.019601 0.0239337 0.0573005 0.111232 -0.0209534 0.0155805 0.179472 0.0797781 0.0189415 -0.014176 0.0687281 0.0328504 0.0669237 -0.038308 0.0838622 -0.0456424 -0.0179888 0.0565793 0.0650389 -0.0709828 -0.0315568 0.0831438 0.0381566 -0.0326983 0.00847496 0.0646284 -0.0163052 0.0765453 0.0851282 -0.0599315 0.00837201 -0.0481454 -0.0197384 0.0182867 -0.0396948 -0.0463713 -0.0918831 -0.0508463 0.0401716 0.0318159 0.0160051 0.101846 -0.0564055 -0.0668713 0.0715552 -0.0676654 -0.0358857 0.101101 -0.122692 0.00702153 -0.00235025 0.0670589 -0.0221334 0.000335519 -0.0102855 -0.0503639 -0.0667369 -0.0201508 0.0841045 -0.0150776 0.0334473 -0.046313 0.00977687 0.0476196 0.0735629 0.0181131 0.0522458 -0.00856741 0.0404934 -0.0267729 0.0154537 0.0415206 0.0621212 -0.0965916 -0.102387 0.147193 0.108866 0.0138126 -0.0871531 0.0429218 0.0297274 -0.0922361 0.0163085 0.0695062 0.017566 -0.0475661 0.0500884 -0.0885153 -0.046251 -0.00798461 -0.0592819 9.25974e-05 -0.034659 0.112083 0.0439452 -0.0349033 -0.00711289 -0.0555843 -0.0751348 -0.00213152 -0.122104 -0.0322031 0.00566983 -0.0558521 -0.00282567 -0.0580456 0.178566 0.0709922 0.00692075 -0.051321 0.053062 -0.00551435 -0.00939657 0.133231 0.00768356 0.0113054 0.0808095 -0.0308372 0.0679407 -0.00869191 -0.0578441 -0.0150208 0.00427382 -0.0703989 -0.0272209 0.00300737 -0.0262235 -0.00537267 0.0536019 0.111115 0.042953 -0.0901133 -0.0184843 0.0271551 -0.00734169 -0.0778526 -0.0732013 -0.0783558 0.145051 0.0522885 -0.0423281 0.0572288 -0.0495376 -0.0487214 0.0229429 0.0227029 0.058369 -0.0926294 0.067729 -0.0561722 0.0282469 0.00273757 -0.0384047 -0.0533585 -0.0392778 -0.0168361 0.0972086 -0.040154 -0.0325215 0.0362863 0.0458364 -0.0215154 -0.0437343 -0.024041 -0.0606934 -0.00260162 -0.0041406 0.0684535 -0.0315584 -0.0445727 0.0163586 -0.0203949 0.0613553 0.0519353 -0.164551 -0.0422538 -0.0237607 -0.029937 -0.132745 -0.0223038 0.0362011 -0.0374426 -0.041445
il -0.0378026 -0.0953866 -0.0306371 0.0850359 -0.0171334 0.0120542 -0.0128673 0.046227 -0.0270556 0.111558 0.0495559 -0.0464411 0.0593469 -0.102083 -0.00803058 -0.144596 0.0315522 0.0188019 0.0118133 0.0851803 -0.0619722 0.0609473 -0.0924124 -0.111129 -0.0317228 -0.000990493 0.0475316 -0.0949114 -0.0251981 0.0342549 0.0422676 0.0604096 -0.045839 0.0764572 0.0376665 -0.0196226 -0.0446385 -0.0736916 -0.0599976 -0.0526704 0.00307095 0.0839106 0.0347017 -0.0338422 -0.0137734 0.0357943 0.0366394 0.0142219 -0.0816016 -0.0335832 0.00320394 -0.068057 0.0160745 -0.0055793 -0.0412295 0.0200488 -0.0210952 0.0171381 -0.0284245 0.0886089 -0.00259277 -0.014705 0.0836589 -0.042972 -0.0228031 -0.127096 -0.0498682 -0.0144903 -0.0300331 0.00142049 -0.0498538 0.017213 0.0519174 -0.0180981 0.0347035 0.0155837 0.0323553 0.0349506 0.0348361 -0.00130904 0.0454433 0.0370966 -7.86644e-05 -0.0370466 -0.0267474 0.00170719 -0.0921372 0.0253227 -0.0374533 -0.0652081 0.111617 -0.044661 0.186439 -0.0581001 0.0721263 0.088553 0.04466 0.062679 -0.095218 -0.039932 -0.065834 -0.0286296 0.0592458 0.0232155 -0.0670735 0.0238447 -0.0902117 -0.00437055 0.0395081 0.0453499 -0.0484463 -0.0101316 0.0161699 0.0356912 -0.0351941 -0.0901088 0.116975 0.0444259 0.0189922 4.66771e-06 0.0332074 0.0395168 -0.0130845 0.125107 -0.0633307 -0.0472626 0.0448576 0.089273 0.0620725 0.017256 -0.0739059 0.0105803 -0.0577924 -0.104873 -0.0552199 -0.0386395 -0.027503 -0.0416973 -0.0667091 -0.00833034 -0.0215505 0.0576462 0.0720472 0.0129055 0.103834 0.108381 0.00206094 -0.0265257 -0.028125 0.0173614 0.0344456 -0.0827078 0.0255356 0.0334257 -0.0650816 0.00807681 0.0217801 -0.0269191 0.036495 0.0305234 -0.0949848 0.0820796 -0.064695 0.0540976 0.0477755 -0.0279804 -0.050769 -0.0506714 0.0873851 -0.0602035 0.0304603 -0.0106763 -0.0152915 0.0658232 -0.0365225 0.0291829 -0.0810722 0.0232768 -0.0250998 0.0439312 0.0507967 -0.0478284 -0.0468495 0.0728843 -0.100479 0.111705 -0.0151121 -0.0161263 0.00436881 0.000339414 -0.0466007 0.00838752 0.0700965 0.0829868 -0.0440709 -0.0447321 0.0370981 0.0466395 -0.182834 -0.0248834 0.0970315 0.00969178 -0.0581106 0.138427 0.00411941 -0.00411035 0.0105413 0.0384736 0.112518 0.0761705 0.0617479 0.00645377 0.0779272 0.0307129 0.0144731 0.00789424 -0.0448256 -0.0886985 0.048391 0.0155751 -0.00298763 -0.00655276 0.0299616 -0.0663056 -0.0153185 -0.0121082 0.0165924 -0.0244021 0.0880718 -0.00488749 0.117617 0.00454788 -0.119843 -0.00894928 0.0628964 0.0195054 0.0104511 -0.0402704 0.0434296 -0.0329068 0.0315402 -0.00484418 0.109125 0.0898628 0.0109403 0.0450329 0.113704 -0.0902756 -0.0660244 0.0280837 0.0635967 -0.040674 -0.0799496 -0.0302552 -0.0853954 -0.00103008 -0.0790303 -0.0193575 0.020197 0.0064651 -0.041615 0.0222481 0.0971365 -0.133408 0.0120432 -0.0612461 -0.00717649 0.0732608 0.0722519 -0.0964465 -0.113145 -0.035425 -0.0490521 0.0510254 -0.0398794 -0.0649416 0.0857902 -0.0613679 0.0547489 -0.0134599 0.0672195 -0.0421963 -0.0101693 -0.102942 0.0121001 0.021918 0.0240314 0.0565727 -0.00274368 -0.023068 0.102188 -0.0147954 0.00855946 0.0109109 0.0226178 -0.0550256 -0.0226277 0.0125536 0.0104302 0.0703136
dans 0.0516484 -0.0732164 0.0226336 0.0108591 -0.0720704 0.0640411 0.0169155 -0.0403302 -0.0127248 0.0389291 0.0391548 0.00179473 0.0323667 -0.0492623 -0.0719556 -0.0166331 0.0152664 0.00554951 0.0426783 0.0823754 -0.00688702 0.0722481 -0.0706568 -0.0118184 -0.0663411 -0.0158798 0.0132353 0.0303987 -0.027469 0.0767481 -0.0322588 0.0449323 -0.0182937 0.170049 0.0249708 -0.0957566 0.0407869 0.0520929 -0.00693095 0.0133025 0.0141374 0.0258381 -0.0959312 0.0114095 -0.0284575 0.0734778 -0.0541347 -0.0156698 0.0514657 0.0053543 -0.0284739 0.0491829 0.0313946 0.0051316 -0.0742277 0.0846678 0.0628246 0.125405 0.000510031 0.100356 0.00530688 -0.0661663 0.106468 -0.0346685 -0.00320961 -0.0230231 -0.11495 0.0220745 -0.0180266 0.123511 -0.0752183 0.00470576 -0.0190918 -0.000524083 -0.0852472 0.014181 0.104471 0.0691226 -0.0613831 -0.00342232 -0.0162567 0.0715965 -0.0121977 0.0323039 -0.0640165 -0.0167948 0.0356735 -0.092966 -0.0440542 -0.0635621 -0.0284697 -0.0157313 0.101879 -0.13977 0.10157 -0.0284196 -0.0459535 0.0967085 -0.115949 -0.0189267 -0.0565017 -0.0726159 0.0237892 0.0722967 -0.0795723 -0.00277422 -0.0287661 -0.000582039 -0.0531287 0.0721781 -0.00587419 0.10386 0.0184684 -0.0619094 -0.0440603 0.0304519 0.0820823 -0.0416857 0.0548948 -0.0271313 0.102436 0.0126471 -0.0890746 0.114296 0.00442834 -0.0832436 0.0420707 0.0277166 0.079423 0.0110452 -0.0765581 0.0209978 -0.0532038 0.00917836 -0.0494108 0.0933331 -0.0791807 0.0256486 0.00575057 0.0418002 0.0640398 0.090973 0.0507023 0.0129128 0.0971952 0.0620129 0.00462697 -0.00362747 -0.00802264 0.0232207 -0.00768097 -0.117617 -0.0264003 -0.0138174 -0.0686616 -0.0570906 -0.0696967 -0.027512 0.0554203 0.0101582 -0.0964055 0.0887755 -0.0478053 0.0460302 0.0508979 -0.0165113 0.00262784 -0.0986726 0.00833754 -0.010689 -0.126769 -0.0594417 0.0233903 -0.0982099 -0.0224562 0.102906 0.119267 0.0381911 -0.0154937 -0.060419 0.087846 -0.0608821 0.0616047 0.0549621 -0.072553 0.0010891 0.0666521 0.00222527 0.0849353 0.0403211 0.0801532 -0.0875168 0.0213607 0.0799955 0.022478 -0.0408366 -0.0197619 -0.0056952 -0.0467977 -0.12177 0.0669134 -0.0143477 0.0126588 0.0659334 0.0271541 -0.0588985 -0.0217653 0.00942654 -0.0119883 0.0380277 0.00787154 0.0470502 -0.0887163 -0.0527533 0.019497 0.0448197 -0.0285056 -0.0926643 -0.0479592 0.0154749 -0.0329755 0.0312412 -0.0155149 0.0459559 -0.0268414 0.0139044 -0.0768004 -0.0920273 0.070638 0.000614758 0.0260748 -0.000734585 -0.023364 0.00415649 -0.0577106 0.027451 -0.0382467 -0.142006 0.0623704 0.0796361 -0.035126 -0.0563099 0.0418602 0.00310926 0.0227464 0.14028 0.0146296 -0.0240608 0.0449475 -0.0340735 0.0439375 0.0603771 -0.0273678 -0.0242411 -0.115169 0.116006 -0.0708912 -0.0136248 0.0537588 0.0603596 0.08836 0.00529822 0.0738268 0.0280939 0.0134516 -0.0130902 -0.104968 -0.0114584 -0.023235 -0.0345311 0.0409893 -0.0429676 0.0443332 0.0736691 -0.0323452 -0.0336207 0.0158788 0.047497 0.085733 -0.0422311 0.0903058 0.0556995 0.0698389 0.0202162 0.0107501 0.0183377 -0.0289332 0.0350477 -0.0526111 0.0282294 0.0378975 -0.104014 0.0616025 -0.0268615 -0.0334399 -0.0430915 -0.0241473 -0.00324165 -0.0484151 0.00235883
catégorie -0.0411631 0.0829679 0.132518 0.0765273 -0.0176031 0.0220585 -0.0898219 -0.0675597 -0.0885881 -0.00396667 0.0623738 -0.111698 0.0263274 -0.0874891 -0.0167351 0.0156494 -0.0932711 -0.0194322 -0.00101616 0.0102341 -0.0702196 0.0933466 -0.0635435 -0.0159139 0.00300037 -0.0506502 0.0326267 -0.00286262 0.0809442 0.0112633 -0.0223136 0.0282574 -0.027011 0.012672 0.053439 -0.0319816 0.0451543 -0.0058164 0.00255911 -0.0126568 -0.000453567 -0.0957598 -0.0127822 -0.028026 0.0418236 -0.00529911 -0.0148888 0.0119307 -0.0182067 0.0548377 0.0466501 -0.0350484 0.0403286 -0.0757738 -0.0192149 -0.0701631 -0.000863619 -0.0427359 0.0344847 0.108003 -0.0312567 0.00597014 0.0610717 0.121482 0.0832632 0.0437115 -0.0846901 -0.0619477 -0.103221 -0.0193234 -0.0175625 0.0492732 0.0168098 -0.0668034 -0.0127292 -0.0456405 -0.00317065 0.0685759 0.00230914 -0.0295043 -0.0283845 0.0465956 0.0708551 -0.0469774 -0.0750747 -0.0191829 0.0307268 -0.0254565 0.0353411 -0.0546942 0.0286781 0.0383301 -0.0169347 -0.0785431 0.00705114 -0.0211013 0.00284873 0.0823739 -0.032185 -0.0710507 -0.0792878 -0.13795 -0.0524394 0.0660058 0.0711585 0.034763 0.00926734 0.0682618 -0.0170748 0.0639793 -0.0336641 -0.0262903 -0.0836766 -0.0383171 0.00611132 0.0299451 0.00126484 -0.0349556 0.0160365 0.0902922 0.0385328 0.000600038 -0.11611 0.071519 0.0473441 -0.0319346 -0.0148717 0.115915 0.0335614 -0.0193837 -0.013911 0.0148287 -0.0854756 0.107556 -0.0499131 0.0214567 -0.0640882 0.00743049 0.040419 0.0407703 0.0161632 -0.049484 0.0426651 0.000961984 -0.00259085 0.0900087 -0.0152931 0.0227727 -0.0312548 0.0525495 0.0240756 -0.0136234 -0.0718986 0.0556932 -0.176337 -0.0649344 -0.00741824 -0.0158506 6.62637e-05 -0.000724313 0.0157607 0.0687898 0.0209108 -0.0843548 0.104516 -0.115649 0.0270813 -0.0390216 0.0800856 -0.112552 0.0191494 0.0279643 -0.00767174 0.0624141 0.0169334 0.000582225 -0.00578009 -0.00877367 0.0470034 -0.0530508 -0.0391532 0.0299239 -0.0440673 0.0280742 -0.0749945 0.0626183 0.0441698 0.117724 -0.0418377 -0.0129915 -0.0140598 -0.000626727 0.0206911 0.0100213 0.017286 -0.0505425 -0.0638916 -0.0062413 -0.0705991 0.0629912 -0.0261066 0.00169064 0.0310898 0.0105002 -0.0287022 0.059447 0.0270847 -0.0675708 0.0473701 -0.0288785 0.0587909 0.0314108 0.0672478 0.0151726 -0.0986841 0.00524301 0.109932 -0.15128 -0.124867 0.0620453 -0.0439232 0.0153294 -0.0384289 0.0823002 -0.046594 -0.0284929 -0.0567565 -0.145524 0.00400042 0.0486293 -0.1007 0.0754349 -0.0210104 -0.0399432 0.0213693 0.0565451 0.00956512 0.0123016 0.0104833 0.0181615 -0.0996447 0.0443815 -0.00836032 -0.0575167 0.0787815 0.0115599 0.0107515 0.0235611 0.0371851 0.121447 0.0386132 -0.078948 -0.0564621 -0.0700367 -0.0691847 -0.0364724 -0.0798756 0.0285949 0.0835302 -0.0842873 -0.054848 0.0065072 0.0684326 -0.0797847 0.0144675 -0.0453748 -0.000725171 -0.0792743 -0.0169626 0.0433684 -0.0535492 0.0367236 -0.0648182 0.132438 -0.0277737 -0.0569498 0.0145128 -0.0159868 0.134212 0.0957378 -0.0504716 0.0637856 0.0236332 0.0832961 -0.00224587 -0.0011302 -0.0898767 -0.0183174 -0.109378 0.0194727 0.00309165 -0.0620598 -0.0594179 0.0359956 -0.0891168 0.0139814 -0.0302367 0.0260568 0.114244 -0.149674
par -0.0649556 -0.0377936 -0.0874549 0.06354 -0.0504492 0.0139041 0.0662247 -0.0946975 0.0266264 0.023665 -0.0183185 0.059826 -0.0760714 -0.00683605 0.0191354 0.0208923 0.0302452 0.0334313 -0.0168682 0.0217231 -0.0420519 0.0283472 -0.0940948 -0.061069 0.0274772 -0.017801 -0.067587 -0.00528924 0.0420736 0.022305 -0.0481353 0.0777365 0.0262479 0.0537457 0.0859423 0.0302154 -0.0335595 0.0391576 0.0854401 -0.0230919 0.0297321 -0.035551 -0.0234464 0.0622598 -0.0369774 -0.0190376 0.0424001 0.00345192 0.0326305 -0.0233179 0.00380238 -0.0461421 -0.147787 0.0328495 0.0860386 0.0395082 0.00250138 0.0778494 -0.0294428 -0.00980606 0.010898 -0.0474432 0.019167 0.0165463 0.0181674 0.0683431 -0.0492292 -0.0941358 0.0248374 -0.00520274 -0.073769 0.0140804 -0.029988 -0.0854231 -0.0620888 -0.00874501 0.0655026 0.0624597 0.0685581 -0.0209153 -0.034897 -0.0270919 -0.0177354 0.0112784 -0.0454818 -0.0353656 -0.0478927 0.0182029 0.0137941 -0.030675 -0.0667198 -0.0677556 0.000910411 -0.12568 0.0674484 -0.0152661 0.035143 -0.0495372 -0.134873 -0.0220257 -0.00146916 -0.0199741 0.0994192 -0.0124351 -0.0295773 -0.0019604 -0.00595376 -0.0125457 0.0974639 0.0303602 0.00566949 -0.030673 0.0579993 -0.0132032 -0.0132744 0.0367213 0.0383017 0.0858303 -0.0402492 -0.028232 -0.0187778 0.0975251 -0.140214 0.129488 -0.0361043 0.022888 0.0378251 0.0534464 0.0559215 0.119482 0.0567225 0.0771398 0.096256 0.121352 0.149032 0.0166562 0.0710286 -0.00496238 -0.0560792 0.0330616 0.0599904 -0.00285455 0.0535546 -0.047993 -0.0409946 0.0192406 -0.0522645 -0.00453254 -0.0114051 0.0478947 0.0839393 -0.0692869 -0.017942 -0.0784497 -0.0318819 -0.103179 -0.0750411 -0.0360493 0.12547 0.0194163 -0.000665443 0.00158599 -0.0426877 0.00395816 0.111028 -0.0709363 0.061728 0.025233 0.0775854 0.013959 -0.0422313 0.0213637 -0.0532853 -0.0665557 -0.0910797 0.0380353 -0.00557375 0.0619352 -0.0279965 -0.0385089 0.00161168 -0.182602 -0.0643229 0.115609 0.0370055 0.0816433 -0.0405477 0.000421016 -0.0207838 -0.0407607 -0.0544179 -0.192838 0.0700767 0.00525384 0.0258812 -0.0877422 -0.0973502 -0.0250177 -0.0832261 0.00228945 0.0722692 0.050048 -0.103327 -0.0100762 -0.0773499 0.0105844 0.00401534 0.0771705 0.10233 0.0549467 0.193091 0.00810204 -0.0155798 0.0349838 -0.0544523 0.000853059 0.104701 -0.0648975 0.0120825 0.00305957 0.0280973 -0.128008 -0.0588821 -0.0082883 -0.0476856 -0.0224846 -0.0858963 -0.00647038 -0.0210463 -0.0090331 -0.0740423 0.0296028 -0.0930315 -0.00101578 -0.0124124 0.0577288 0.031519 -0.00885526 0.0753715 0.0426487 -0.0043914 -0.0284303 0.0341649 -0.0736943 -0.0468647 0.00511399 0.0698571 -0.010546 0.022886 -0.00507635 -0.0367001 0.0731273 0.0021808 -0.0533671 -0.0845225 0.0180451 -0.0111044 0.00135762 -0.0959755 -0.0290912 0.0475249 -0.0733988 0.0046904 0.00180252 -0.0221301 -0.00675965 -0.0514657 -0.0251586 -0.00704132 -0.00241745 -0.0822489 -0.0437494 -0.0504076 -0.0283945 -0.0676912 -0.00798737 0.108616 0.102997 0.0579264 0.00021332 -0.0499542 0.0357754 -0.0419668 0.0220992 -0.0350911 -0.0404986 0.0140805 0.0529984 -0.0652232 -0.0322513 0.0969324 -0.0954377 0.0247444 0.0399816 -0.0355949 -0.0298837 0.0517533 0.0487837 -0.0110529 -0.0138288
au -0.0448091 0.00126614 0.0320159 0.067648 0.0290911 0.0605926 -0.123581 -0.118624 0.00950274 0.0456384 0.117867 0.0309898 0.0589337 -0.0728769 0.0043256 -0.0283668 -0.0863731 -0.0326376 0.0689725 0.133894 -0.0194111 0.0637644 -0.0676918 0.00288323 -0.0872366 -0.0369891 0.0373157 -0.100034 0.0349655 -0.012632 -0.06794 0.030857 -0.0341462 0.0815093 0.0129168 -0.137908 -0.0641239 -0.036246 -0.0112288 0.0258693 -0.00684738 -0.0477436 -0.035476 -0.0357848 0.0213703 -0.0323112 0.056453 -0.00816931 0.0570181 -0.0563006 -0.0602006 -0.0485484 0.00760403 0.110334 -0.0295236 -0.0386266 -0.022323 0.0126958 -0.0335869 0.110541 -0.0497573 -0.0480117 -0.016212 0.0720245 -0.077894 -0.0984055 -0.0864078 -0.0109499 -0.0187935 0.0510833 -0.125652 -0.0483136 0.0759988 -0.0130548 -0.0493466 0.0135648 0.101685 0.126404 -0.0560718 -0.00971746 -0.0187905 0.0416736 -0.000585636 0.0107976 -0.0445425 0.0401967 0.00534882 -0.107244 -0.0370554 0.000414879 -0.038681 -0.027704 0.0572672 -0.0802973 0.0871193 0.0214168 0.0480457 0.0592638 -0.069782 0.00894929 0.0113231 -0.00439546 0.0702597 0.0481515 -0.00797443 -0.0558601 0.00787726 0.0184355 0.0113375 -0.0338795 0.0301288 -0.0209973 -0.0497879 -0.0425328 -0.0270524 -0.00784796 0.147274 0.0430622 0.0710754 0.0253214 0.055168 0.0706891 -0.118079 0.0707084 0.123057 0.000278174 0.113627 -0.0289174 0.0992569 0.0730048 -0.024004 0.0224814 -0.0288407 -0.0570565 -0.0600215 -0.00679032 -0.00202763 -0.0315789 0.00710879 -0.0413885 0.0328194 0.0648794 0.117736 -0.0517597 0.0303457 0.108555 0.0468335 -0.0319134 0.0477761 0.0921102 -0.0487862 -0.115723 -0.00654675 -0.0183813 -0.0402782 -0.0849261 -0.0898996 -0.0278477 0.0476139 0.0314197 -0.0147309 -0.0133175 -0.0288686 0.0484896 0.0691636 0.0439645 -0.0639544 -0.0578739 0.0694236 0.0452349 -0.154388 0.0640557 -0.00570721 0.00183826 0.0122947 0.0766279 -0.0103718 0.0266408 -0.151387 -0.0356199 -0.0115587 -0.0646814 0.0174917 0.0669 -0.0717393 0.0581771 -0.0533619 -0.124992 0.0129905 0.00239223 -0.110642 0.0404693 0.0253925 0.030021 -0.118537 0.00719047 0.00133408 0.10854 -0.0423567 -0.0166967 -0.0162877 -0.0599356 -0.105121 0.105115 -0.063797 -0.0451849 0.0245965 0.0130453 0.116757 -0.00509216 0.0447188 -0.0187176 -0.0488724 0.0274472 -0.0487863 0.00762884 0.00457081 -0.0851054 -0.0583213 -0.0405738 0.0156727 -0.0563098 0.0273789 0.0289215 0.0207794 0.0907995 -0.0490814 0.0547263 -0.0216482 0.000528319 0.00545463 -0.0085559 0.00515196 0.043486 0.00934705 0.0718651 -0.0661514 -0.00182732 -0.0388944 0.0270072 0.00655445 -0.00521894 0.0215686 0.0369362 0.00996244 -0.0273 0.0433388 -0.0416643 0.0837377 0.0212399 0.0278488 -0.0152504 -0.0690808 -0.0755085 -0.0865869 -0.0271826 -0.136311 -0.0387887 0.00440852 0.133675 -0.0401649 0.053641 0.0215453 -0.060889 0.0360359 0.00264712 0.0201316 -0.0148411 -0.0317583 -0.0113472 -0.0723332 0.0419783 -0.00829129 -0.0378058 -0.0184354 -0.0505219 0.0410427 0.138083 0.0602632 -0.0350469 0.0254622 -0.00936173 -0.0630032 0.0708689 0.0472114 -0.0147528 0.055329 0.00617359 -0.0791091 0.0651656 0.0141249 -0.025753 -0.0356598 0.0101728 -0.00692014 0.0888737 0.0319509 0.0159024 0.00993972 -0.0313532
pour 0.0426481 0.0395683 -0.00825683 -0.0214458 -0.0976271 -0.0144324 0.00742169 0.0264068 0.0554076 0.0464889 0.0425416 -0.0557506 0.0450769 0.0608323 0.0841049 -0.0507056 0.0283021 -0.00561817 -0.00546588 0.0172127 0.110725 0.0628608 0.0428071 -0.08899 -0.0956659 -0.0201975 0.0376238 0.0327214 -0.0264604 0.0314554 -0.121948 -0.0173471 -0.147582 0.0140394 0.0734896 -0.0191581 -0.0241349 -0.0811081 0.00813638 -0.0200434 -0.0802132 0.00125489 -0.050056 -0.0107404 -0.0464121 0.0123461 0.0452658 -0.000240643 -0.0134565 -0.00354343 0.084348 -0.082065 -0.00223655 -0.0434445 -0.0275976 0.099554 0.0447863 0.0120762 -0.0540745 -0.0118797 0.0654048 -0.0451831 0.10371 -0.133128 0.0836723 -0.0174079 -0.0663028 -0.0386111 -0.055313 0.021467 -0.0880908 0.0719022 -0.0389588 -0.0527113 -0.0748358 0.0147861 0.0962819 0.0454524 0.0691084 -0.00478454 0.0335995 0.0953831 -0.0553521 -0.0149258 0.0356994 -0.0318362 -0.0955003 -0.00902288 -0.0997413 0.00882702 -0.0163464 -0.0658689 0.109824 -0.0976444 0.0536049 0.11721 -0.0270452 0.110067 -0.112283 -0.0333161 0.0343059 -0.094008 0.0837176 -0.0633029 -0.0826709 0.0243121 0.0089531 0.0207928 -0.0913206 0.0882218 0.00815903 -0.0114903 -0.0148922 0.0175146 0.0473624 -0.0720104 0.00638468 -0.0250312 0.0567269 0.0018331 0.0497186 0.069098 -0.0346888 0.0935453 0.013925 0.0245237 0.0360219 0.0389704 -0.00841662 0.0500745 0.0107697 0.101396 -0.0923398 0.0350419 -0.00808009 0.0232972 -0.0214087 -0.0681402 0.0469852 0.0756764 0.0161446 0.0313984 0.0654754 -0.0759681 0.0517984 0.0744449 0.0121989 0.0305925 0.0707672 0.013034 -0.0418576 -0.0530907 -0.0193929 0.0192738 -0.00754097 -0.0742098 -0.0241725 -0.0236703 0.131083 -0.0434533 -0.0648 0.0209981 -0.0180024 0.0155586 0.0531888 -0.011887 -0.0702974 0.00489596 0.0478546 -0.0041365 -0.0539198 -0.0459121 -0.0870105 0.012944 -0.0863782 0.106317 0.0113423 0.0506461 -0.0755538 -0.0686886 0.00278012 -0.0733041 0.00455653 -0.0128725 -0.117157 0.0431083 -0.0295954 -0.0175865 0.0376629 -0.00881159 -0.0386312 -0.128965 0.0562415 0.0486156 -0.0804725 0.0225128 0.0562359 -0.000807229 -0.10775 -0.0794343 0.0116811 0.0340387 -0.00639235 -0.0253864 -0.012751 -0.0339828 -0.052502 0.0331008 0.0829293 0.096141 0.130853 0.0162058 -0.018635 -0.0731568 -0.0280098 -0.0581721 -0.0445138 -0.0800153 0.0077373 0.00630056 -0.0472006 -0.0497252 0.0215001 0.00175543 0.00593377 0.0772246 -0.0311449 -0.057329 -0.0274827 -0.000118485 0.131402 0.0502009 -0.0295022 -0.032545 -0.115024 0.0538323 0.00651948 0.0116923 0.0107276 -0.0357004 -0.036963 0.0470192 0.0685488 0.0143817 0.0553421 0.153892 0.0740818 -0.0702737 0.0153919 0.0899094 0.0404588 -0.0119716 0.0214522 0.0406433 0.0166146 -0.0151152 -0.0475442 -0.0434249 -0.0120432 -0.0295465 -0.0514079 0.0285186 0.0479932 0.0694446 -0.120972 -0.0247986 -0.108914 -0.0494989 0.0287606 -0.0472037 -0.117782 -0.0432481 -0.0247842 -0.000596641 -0.0377301 0.0111521 0.0285767 0.073041 0.0841231 0.0486217 0.0755608 0.058945 0.0128297 0.000529613 0.132263 0.0154104 0.00415293 0.0810893 -0.055256 0.0221846 0.0706987 0.0505281 0.0218441 0.0290019 0.0599151 -0.083449 -0.0112539 0.0295259 0.0713421 0.0626402
sur 0.101941 -0.00842826 -0.035859 0.0662661 0.0177989 -0.000629935 0.0856563 -0.0613306 -0.0409995 -0.068555 0.0339649 0.0148975 -0.035512 0.0151637 0.0247221 0.0166179 -0.103877 0.054253 0.0529301 0.0827095 0.00254272 -0.0027127 -0.102112 -0.0358338 -0.0457825 -0.0399177 0.0195402 -0.0922252 -0.0239292 0.0358582 0.0468751 0.101939 -0.126287 0.0355859 -0.0333949 0.0133308 -0.107883 -0.00612254 0.0471608 -0.00180234 0.00318194 -0.0464039 -0.00829917 0.0178725 -0.0381445 -0.00276287 0.0413974 -0.0844115 0.069748 -0.072627 0.0343441 -0.0312041 0.00334263 -0.0361275 0.0471534 0.0417847 -0.032742 -0.0223679 -0.115805 0.089284 -0.0233495 0.0214779 0.0293976 -0.0669264 -0.0743547 -0.00206402 0.0461115 0.047746 0.00805157 0.11333 0.0388841 -0.00915283 0.00506231 -0.0156739 -0.0431608 0.0452293 0.0571708 -0.000782742 -0.0603329 -0.0111486 -0.00476012 -0.00434221 0.0483609 -0.00152044 -0.0637443 -0.122166 -0.0442979 -0.096971 0.0892356 -0.0033641 0.0504155 0.0211923 0.0246976 -0.0883317 0.0731041 0.0304946 0.0561463 0.0142145 -0.0431765 0.027797 0.00720451 -0.0171751 -0.00602584 0.0754413 -0.0580373 -0.0598738 -0.0787885 0.00905914 -0.0445227 0.0687195 0.0712098 -0.0441889 0.0540963 -0.031254 0.0161253 0.0364889 0.0497778 0.0340236 -0.0350927 0.0151734 0.123299 -0.0025716 -0.0155011 0.0593408 0.0462293 0.044519 0.0928098 0.0491297 0.0257088 0.0057826 -0.0110655 0.0281286 -0.0130923 0.0665944 0.0109496 0.0686777 -0.0224369 -0.00805726 0.107991 -0.0112549 -0.0358624 0.101836 0.0132696 -0.0345612 0.0489031 0.0522532 0.0233789 0.0633066 -0.0165269 0.0595793 -0.0983596 -0.052781 -0.0517744 -0.00696006 0.020695 -0.130251 -0.0643628 -0.0515991 0.0697239 -0.00410263 -0.102658 -0.0418233 -0.0381989 0.0284861 0.0537122 0.0527703 -0.0543155 -0.0444322 0.0496762 -0.106919 -0.0211872 -0.0389491 -0.095397 -0.040363 -0.0975462 0.0652628 -0.00793122 0.0687237 -0.04091 -0.0745129 -0.0250114 0.0569368 0.0366495 0.00600401 0.0605718 0.0541818 0.129932 0.0294214 -0.0091596 -0.0189282 0.00957754 -0.081672 0.120381 0.042988 -0.0776842 -0.0589259 0.0353043 0.00813449 -0.0557077 -0.127884 0.0316857 0.0542485 0.00239097 0.0660686 -0.110249 -0.0384024 -0.0419656 0.0169649 0.0316686 0.0659497 -0.00748057 -0.0343955 0.0134522 -0.0247235 -0.00670325 -0.0459859 0.0624567 -0.143231 -0.00453498 -0.0429873 0.0312566 0.0538764 0.0301332 0.0205177 -0.0701833 0.00601702 -0.0748711 -0.0489233 0.0122576 -0.0130962 0.0993361 0.0399755 0.0425037 0.0601136 0.0252725 0.0154539 0.0630571 0.0301479 -0.0811891 -0.0387709 -0.0174015 -0.0955964 0.134096 0.0316322 0.0574769 0.133844 0.0651655 0.0178385 0.0744475 0.119296 0.0376298 0.0205439 -0.0354621 0.0264689 -0.0785799 0.118193 -0.00967342 -0.0798344 0.0120884 -0.00303198 0.0987414 0.0566291 -0.0105136 0.0542929 -0.0219618 -0.0541102 0.00652642 -0.0199817 -0.0470986 0.0246792 -0.140127 0.0979634 0.100975 0.0778396 -0.0964263 -0.0942888 -0.0718851 0.18465 -0.0243566 0.0119337 0.0295431 0.0668979 -0.0408883 -0.036358 0.0057211 -0.041351 0.023376 -0.0138021 0.00416763 0.0302655 0.0663936 -0.051188 0.0277105 0.0022902 -0.000329098 -0.103603 -0.0274316 0.0279834 -0.0444461 -0.0363326
a -0.00608801 -0.0341192 -0.0816486 0.0146184 -0.0386522 0.0447532 0.0236869 -0.0365544 -0.057983 0.0506264 0.094417 0.0354962 0.0195177 0.0344923 0.0133105 -0.0060439 -0.0601941 0.110952 -0.0322476 -0.0417318 -0.00635741 0.0510663 -0.0265093 -0.196438 -0.0135952 -0.0104012 -0.0237736 0.0364761 -0.0455287 0.0106152 -0.0444375 0.153619 -0.0946735 0.0126266 0.0554128 -0.0220874 0.00412325 0.0147554 0.11582 -0.083028 -0.0290667 0.0244145 0.0552884 -0.0238105 -0.0786936 0.0543368 0.104274 0.0380698 -0.0614445 0.0446452 0.0304395 -0.077295 -0.0614837 0.0252193 -0.0212774 0.00229592 0.00156587 0.0965618 0.0339593 0.00383153 0.113482 0.0221699 0.040485 -0.0173845 -0.0216262 -0.00529694 -0.0724206 0.0495969 -0.0881228 -0.0293871 -0.0406214 -0.0299058 0.0741977 -0.0411514 -0.00216955 -0.0607316 -0.0382994 0.0694736 0.00818891 -0.129691 -0.0282521 0.0472712 0.0759428 -0.0422122 -0.0210325 -0.0657839 -0.0817838 -0.0193039 -0.102078 -0.00826988 -0.0459341 -0.0147306 0.099162 -0.0819242 0.0778772 0.00285881 -0.0627295 -0.0262496 0.0358089 -0.0924108 -0.104629 0.0493603 0.0521433 -0.0190733 -0.0721768 -0.113533 -0.0861903 0.0146387 0.0654141 0.00321041 3.34761e-06 0.0468088 0.0556928 0.0404687 0.0348083 0.0055446 0.0784752 0.0674236 0.0311828 0.0642328 -0.0134309 0.0266256 -0.026725 0.0664314 -0.0306673 0.0164511 -0.00516915 0.115187 -0.0119588 0.102449 -0.0519014 0.079193 0.0648354 0.00427534 -0.0116059 -0.0200658 0.0240295 -0.0773705 -0.0534005 0.0107801 0.00573762 0.0398659 -0.0341248 0.0524122 -0.0568322 0.120719 0.00798127 -0.066256 0.00844675 0.039494 0.0363751 -0.0536713 0.0128448 -0.0209234 -0.0174145 -0.00947112 0.0860867 -0.0306363 0.128694 0.024447 0.012844 0.12468 -0.112765 -0.0126762 0.0534283 -0.0308233 0.036416 -0.0934295 0.0222065 0.0474998 0.0393273 0.0170149 -0.0784666 -0.0727132 0.00477931 -0.0822017 0.0169275 0.0276773 -0.0532861 -0.102104 -0.0306533 0.0321259 -0.0238565 0.0738135 0.00438483 0.00452017 0.0917653 -0.0625256 0.0128228 0.0699254 -0.0514038 -0.0402652 -0.0748665 0.0566682 -0.10098 -0.153331 0.0666553 -0.0148215 -0.0987171 -0.0525569 0.0224676 -0.0130172 -0.0554544 -0.0110368 -0.0739057 0.0600263 -0.0383294 0.0102437 0.118819 -0.0123872 0.121475 -0.0484438 -0.00653259 0.00143448 -0.0846312 0.00163298 -0.018487 -0.0645541 -0.0264787 0.0172108 -0.108365 -0.0527519 -0.0334432 0.00205009 0.00146164 0.068602 -0.0456063 0.0120651 0.0330471 -0.00505491 0.0458171 0.0401586 -0.0777936 0.00867519 -0.0566232 0.00498817 0.0137745 0.0387082 -0.0596229 0.0608947 0.011962 0.0345939 0.0919431 0.0147019 0.0429846 0.0302967 0.0738557 -0.0514402 0.01721 0.0432618 0.0664512 -0.0284859 0.0290104 0.0461198 0.000158598 0.0783673 -0.0443902 -0.0221576 0.0370852 0.00202586 0.102975 -0.0501614 -0.0314481 -0.0336314 -0.0707213 -0.0125887 0.0323412 0.0595559 0.0487687 -0.021867 -0.044595 0.057769 0.0104206 -0.0140289 -0.0229669 -0.0918227 0.13342 0.11441 0.126019 -0.0363369 0.00935977 0.0417596 0.0609951 -0.0311629 -0.0222959 -0.0407443 -0.0238311 0.0131085 0.0120865 0.0375669 0.0595656 -0.0625326 -0.0300581 0.012227 -0.0521813 -0.131092 0.054728 0.0788394 0.102437 0.00740026
qui -0.0373722 0.0460564 -0.038997 0.102113 0.00930077 0.0250598 0.0398083 -0.0564665 0.0588724 0.105903 0.00271276 -0.0269915 0.0405049 -0.00839887 -0.045681 -0.117461 -0.0279263 -0.032989 0.0482984 0.0983413 -0.0416025 0.0356636 -0.130043 -0.0888392 -0.0159957 -0.0304795 0.0212329 0.00407836 0.0273516 0.00121962 -0.0360354 0.0797519 -0.0628878 0.0650194 -0.0242824 -0.00898796 -0.0632433 -0.109996 -0.037457 -0.0231597 0.0302939 0.0741143 0.0233533 -0.038713 0.0841109 0.00550708 0.0423817 0.0242319 0.0498598 0.00407388 0.0783373 -0.0270586 -0.0198823 0.00904071 -0.114775 0.0302279 -0.063667 -0.0109798 -0.0279744 -0.0122906 -0.0259039 -0.00930339 0.119885 -0.00378384 0.0269412 -0.172801 -0.00529223 -0.0559387 0.0396375 0.0386225 -0.0744994 -0.0222917 0.0307669 -0.108837 0.0228089 -0.00780663 0.120372 0.0632482 0.0483695 -0.112691 -0.0500407 -0.00408962 -0.0655645 0.0884252 -0.0160002 -0.0155493 -0.0100833 0.10088 0.0129279 -0.0432379 0.0157269 -0.00709659 0.0944837 -0.0369853 0.044116 0.0239489 0.131254 0.0336589 -0.0489564 0.00327393 -0.052702 -0.0626394 0.117888 -0.00271137 -0.0394246 -0.0713675 -0.0017564 -0.0654667 0.0433358 -0.0110523 -0.0308617 -0.0335772 -0.00614423 -0.0345429 0.0473525 -0.0824953 0.0796981 -0.0194675 -0.0536012 0.0216578 0.0457212 0.0662947 -0.0243307 0.105094 -0.0136271 -0.0232607 0.122265 0.0611466 -0.0103966 0.136272 -0.00683841 0.0253506 -0.0524319 -0.0489497 0.0166683 0.0103417 -0.058186 0.015923 0.0351678 0.0568079 0.06541 0.0514532 0.0798059 0.0349465 -0.0104158 0.145867 -0.0642781 -0.00336348 0.0281016 -0.0192057 0.045147 -0.0424202 -0.0195636 0.0404739 -0.0681647 -0.0603322 0.0224499 0.0241749 0.0218076 -0.0390501 -0.133627 0.0420061 -0.0646257 0.0386093 0.0465356 -0.00956092 -0.0309157 -0.0345655 0.150998 0.0605545 -0.0673655 -0.0696926 -0.0467051 -0.072012 -0.0726054 0.0560903 -0.0377405 0.0998284 -0.0305583 -0.0676374 0.102663 -0.0403327 -0.0229573 0.0683686 0.0310352 0.116889 -0.00682257 -0.0427581 0.0843287 -0.0960808 0.0244718 -0.0570123 0.129553 0.0700554 -0.0877463 -0.033762 0.0117276 0.030009 -0.0701372 0.00878378 0.0501559 0.0790168 0.0120103 0.0558606 -0.0374859 0.0523754 -0.00569947 -0.0427371 -0.027332 0.0435452 0.13382 -0.0309691 0.0124488 -0.000422374 0.0504417 -0.0466661 0.06909 -0.0483542 0.0377096 0.0368475 -0.0652482 -0.0220887 0.0123643 0.0745826 -0.0773768 0.0405052 -0.0161602 -0.0346945 -0.0754262 0.0324446 0.0793789 0.0841182 -0.0120033 0.0370176 0.0322784 0.0917151 0.0977625 -0.0581918 0.0196198 0.00975683 0.0331609 -0.0219483 0.000163754 0.0228031 0.0320915 0.0978992 0.0121144 0.00532694 -0.0372352 -0.00112973 0.0297657 0.0054594 0.000321975 -0.0198257 0.0497304 0.000840753 -0.0430285 -0.0185672 -0.0160316 -0.0367243 -0.0136311 -0.022263 -0.118166 -0.0815117 0.0030707 -0.140653 0.0272364 0.0168418 -0.0436619 -0.0172401 -0.151396 -0.0247349 0.0362643 -0.0129777 -0.102403 0.0239062 0.0727131 0.0487527 0.00786193 -0.0597058 0.0221588 -0.0124811 0.00855114 -0.0325274 0.0400316 -0.0128291 0.0265496 0.114427 0.00683534 0.0270294 0.0604951 -0.065615 0.125467 0.0109962 -0.0358906 -1.08572e-05 -0.0365276 0.0331837 0.0474671 -0.0230932
que -9.99919e-05 0.00217085 -0.0842464 0.0754874 0.0231027 -0.00618989 -0.0254572 -0.0520623 0.00233098 0.137987 -0.0294185 -0.035579 0.00618984 -0.0243511 0.0606026 -0.00872231 0.0400104 0.00312791 -0.0180784 0.0681409 -0.0110307 0.0286897 -0.0353892 -0.107736 -0.0368343 0.0634442 0.0796248 0.0110144 -0.0403214 0.0202331 0.0214645 0.010626 -0.127681 0.0967933 0.0239115 -0.0813712 0.00353937 0.0345926 0.0180956 -0.121943 0.0236252 0.0204453 0.0208845 0.0349699 0.0421321 -0.0336092 -0.0354767 0.0068155 0.0597396 0.0219953 0.00663589 -0.0411958 0.0103309 -0.0606298 -0.103464 0.0249483 -0.0334329 0.0534414 0.0155157 0.0808828 -0.111697 0.0104273 0.069435 -0.0294395 -0.0234456 -0.0610548 -0.0431943 -0.0290769 0.0549875 -0.0355853 -0.0346123 -0.0492526 0.0567071 -0.0824146 -0.0616992 0.0444035 0.0887126 0.0865426 0.158781 0.000439339 0.0738799 0.0310426 0.0124548 0.0753133 -0.035441 -0.0243045 -0.0910187 0.108107 0.010365 -0.015164 0.0755846 0.0603443 0.164342 -0.0138251 0.0708862 0.00524924 0.0338728 0.0670002 0.0434399 0.00402374 0.00896636 -0.0587632 0.0310106 -0.0929756 -0.0548663 -0.0211958 -0.0387626 -0.0256433 0.00648951 -0.0308979 -0.0466966 -0.0197533 -0.0374991 0.0239095 0.0587105 -0.0384807 0.142358 0.0397086 -0.0634547 0.00836535 0.0221244 0.0440147 0.0209079 0.140865 0.0186367 -0.0396139 0.0454781 -0.0125014 -0.0207172 0.0358103 -0.0916021 0.0562325 -0.0722483 -0.0109713 0.0816626 0.0147214 0.0325084 0.0117743 -0.0312397 0.0135385 0.0550651 -0.014204 0.0330476 -0.0292165 -0.0057271 -0.000608287 -0.021774 -0.0219046 0.0072683 -0.0714903 -0.0668256 -0.0397884 -0.0257336 0.0518029 -0.0395522 -0.0306709 -0.036266 0.017388 0.0293024 0.0927658 -0.0550679 0.116661 -0.042283 0.0460822 0.0283115 0.102047 -0.0114319 -0.0520577 0.0748651 0.0137217 0.00560468 -0.0767381 -0.143258 -0.0171234 -0.0355096 0.0612365 -0.0549195 0.0926196 -0.00326772 -0.0220317 0.0917759 -0.055807 0.054844 0.118357 0.013503 0.0531398 -0.00513771 -0.0812647 0.116494 -0.134075 -0.0166273 -0.096343 0.0304083 0.029728 0.00293564 -0.0402912 0.0318514 0.0114498 -0.175348 -0.0124695 0.0673271 0.0432943 0.117693 0.0618298 0.0145981 -0.0578026 -0.0504709 -0.00810185 0.0710033 0.0613161 0.103117 0.018408 0.0733231 -0.0889599 0.0720829 0.0042444 -0.0341942 -0.0642206 -0.0294442 0.0501295 -0.0792774 -0.0348995 -0.00676917 -0.0111001 -0.0782136 0.0113052 -0.0770885 -0.00694625 -0.0351207 0.0409565 0.0715452 0.0485618 -0.0262737 0.0286127 -0.0218165 0.117127 0.0774546 -0.0282599 0.00542346 -0.0105628 -0.0142358 -0.0615698 0.0136693 0.00917769 -0.014696 0.125485 0.0946505 -0.0252516 0.000509301 -0.0310286 0.0913965 0.0873767 -0.148139 -0.0012278 -0.0255006 -0.00689534 0.000955149 -0.0562101 -0.0280454 -0.00951262 0.0305675 0.0523079 -0.0547732 -0.0555409 -0.0494642 -0.0494287 -0.0457346 0.075626 -0.0475668 -0.0133035 -0.0941901 0.0195637 0.077987 0.0250778 -0.085878 -0.0619561 0.0896617 0.0612306 0.000568961 -0.0283694 0.0456646 0.0353921 0.0669699 -0.0826745 0.0167641 -0.0408407 0.0359699 0.0684547 -0.0820918 0.0403051 0.0333058 0.021518 0.00216818 -0.00327756 0.0393394 -0.0472703 -0.0811304 0.0732035 0.0478168 -0.00210833
