999 300
</s> -0.00307973 0.0197205 0.0583793 0.100324 -0.0839055 -0.0652861 0.000972579 -0.0560111 -0.073419 0.00869276 -0.0139827 0.00506485 -0.0599172 -0.0296937 0.00426807 -0.0352714 0.0077992 0.0370291 0.1014 0.176273 0.0208721 0.0396524 0.00284531 -0.0824418 -0.0907135 -0.00651125 -0.0443946 -0.00238593 0.00044151 -0.0212961 -0.0228399 0.156037 -0.0638524 0.0262175 0.000216968 -0.0842905 -0.106263 -0.0596934 0.0185993 -0.0036923 0.0317446 -0.0174971 0.0384888 -0.0302753 0.0391991 0.0243611 0.0109981 0.00225337 0.0736981 0.0460995 0.0192746 -0.0585141 -0.0426916 -0.000136274 0.0201934 0.0592832 0.0687296 0.0387459 -0.0693407 0.0630192 0.0583458 0.0345732 0.0118076 -0.000856952 -0.017031 -0.00604914 0.00306518 0.024576 -0.0362168 -0.0272992 -0.0231332 0.048273 0.0278165 0.0396275 0.0191643 0.0272848 -0.00425859 0.0548071 -0.0586075 0.0216169 0.017651 0.0320785 -0.039236 0.000943719 -0.0372898 -0.0611549 0.0678126 0.0351186 -0.0280132 -0.0261467 -0.0773494 0.0761503 0.0131138 -0.020111 0.00904956 -0.000245639 0.058294 -0.0285173 0.000814683 0.0327908 -0.00762134 0.00743 0.0303495 -0.0450713 0.138533 -0.0340359 -0.0226341 -0.0413661 -0.0203482 -0.0790323 0.0579117 0.0604815 -0.0148268 -0.0109955 -0.0661447 -0.0355795 0.0848267 0.0696377 0.00238775 0.0721738 0.0935035 -0.0332076 -0.0748781 0.0972379 -0.0639878 -0.0237307 -0.0577018 -0.0638562 -0.0563357 0.0381566 -0.0280023 0.100495 0.0763649 0.113728 -0.0151267 0.0149005 -0.00085065 -0.0533549 -0.0412868 0.150597 -0.0575442 0.0651967 0.0188535 0.063908 -0.0334837 0.0438609 0.083566 0.0353273 0.0565883 0.0249609 0.114345 -0.00345215 -0.031201 -0.0260396 -0.0342506 -0.0393509 0.0547745 0.0136343 0.0303199 -0.0973434 0.0438558 0.0937853 0.0339477 -0.080662 0.0434987 0.0136428 -0.0262371 0.0756691 -0.0291123 0.0600042 0.0194963 0.0514158 -0.118887 -0.00281335 -0.0598195 0.0288293 -0.121131 -0.00187407 0.0180505 -0.0346956 -0.0350065 0.0172073 -0.0107845 -0.0495512 -0.0291032 0.0685942 -0.0410231 -0.0536484 0.0520813 0.0471812 -0.0544695 -0.105099 0.0477981 0.0226397 -0.158144 -0.0434917 0.0233469 0.0679848 -0.0324276 -0.0429036 0.0282895 0.00474474 -0.0528987 0.0174652 -0.00447172 -0.0455902 0.0297178 -0.119911 0.0680632 0.0164011 0.0316995 0.0215238 0.0255996 -0.0204742 -0.13903 -0.0360201 -0.0170151 -0.167439 -0.0160648 0.040094 0.106102 0.127742 -0.00297622 -0.0397352 0.115235 -0.0276022 0.0377708 -0.209129 0.131241 -0.0112302 -0.0512446 -0.0608984 -0.0649279 -0.00140116 0.0511371 -0.0221953 -0.0179503 -0.0670436 0.0497199 -0.0926492 -0.0360126 -0.0995086 0.0234539 -0.115166 -0.0864549 -0.0137769 -0.0197624 0.0615904 -0.0858675 -0.0595398 0.0947589 -0.0302423 -0.0284428 0.0671747 -0.0076511 0.0234603 0.0456026 0.0158605 -0.0674114 0.0375674 -0.0412445 -0.00934517 -0.055863 0.0287066 -0.101608 0.000661481 0.00372609 0.0485845 -0.0523252 0.0292401 -0.058932 0.0610789 0.0377198 -0.0330092 0.0127388 -0.0306237 0.0333013 0.0503528 0.00940663 -0.0606911 -0.0269602 0.0576181 -0.0607304 -0.0440524 -0.0677148 -0.0246944 0.0660854 0.0157406 -0.00322207 0.0772281 0.0645191 -0.00603985 -0.0617624 0.0305381 -0.0711309 -0.00579053 -0.088189 0.133555 0.0434548 0.0182087
, -0.0559594 0.0384091 -0.00170461 0.0104089 0.0281233 0.0233125 0.0475826 -0.107938 -0.0225413 0.0775176 0.101952 -0.0416881 -0.00405991 -0.0641784 0.0221178 -0.00200401 0.00585102 0.00739059 -0.0736764 0.0751132 -0.0304195 0.0811663 -0.0995309 -0.00782028 -0.0765843 0.0419189 0.0313575 -0.0551361 -0.0729527 -0.027223 -0.119392 0.149677 -0.0594807 0.0989503 0.0693339 -0.121719 0.0734356 -0.0874541 0.116735 -0.0138629 0.0701826 0.0366729 -0.00215823 -0.00473035 -0.0433627 0.0321829 -0.0031165 -0.0615149 0.0304839 -0.0774404 0.0147183 0.0094223 -0.121521 0.0200781 -0.0733114 0.00476093 0.0548243 0.0925623 -0.0256887 0.111072 -0.0114008 -0.0140193 0.0222749 -0.0441024 -0.0601509 -0.0803185 -0.0511383 0.0344104 -0.0827127 0.000315187 0.00802584 0.0174889 -0.0298862 -0.0892365 -0.0451936 -0.00862004 0.0986949 0.0361224 -0.0417991 -0.00412436 -0.0136319 0.0537832 0.000852974 0.04202 -0.00751379 -0.0224429 0.0153463 -0.0803183 0.0567287 0.0131796 0.0405452 -0.016344 0.0686034 -0.124207 -0.00273391 0.00808875 0.0285063 0.0348964 0.0410705 -0.0196743 0.0105231 -0.105129 0.0103226 0.00492748 -0.0331794 -0.034445 -0.0396154 -0.0513809 0.091628 -0.0414982 -0.0196306 0.10189 -0.0628944 0.0227911 0.057208 0.0854798 0.0361296 0.0101823 -0.0152541 0.00364895 0.108852 -0.039534 0.0352006 0.126243 0.0363731 -0.0666543 0.00140755 0.0381614 0.0413505 0.0953324 0.0396951 0.0363162 0.0128288 0.0129845 0.0163371 -0.0506376 -0.0370557 -0.0926446 -0.0499562 0.0923857 -0.0125393 0.0766688 0.136586 0.0606469 0.0402757 0.0442107 0.026903 -0.0998503 -0.00987793 0.0150125 0.115419 -0.128076 0.00732465 -0.0266607 -0.047761 0.0218452 0.00472942 0.00341568 0.136197 0.085447 -0.0448444 0.0887812 -0.00634059 0.0406627 0.0592249 -0.0218744 -0.0202602 -0.00343355 0.0460892 0.00835469 -0.10594 -0.021461 -0.0714314 -0.00525499 0.0193988 0.0646527 0.0290785 0.0215959 0.0465164 0.0192912 0.00650361 -0.0818187 0.00613741 0.0294436 -0.0675326 0.0992325 -0.0570638 0.0636612 0.00526191 -0.053733 -0.0393519 -0.0739294 0.123551 0.0649556 0.0160438 0.0469668 0.0668041 -0.0171085 -0.107966 0.038232 0.0926721 0.00811022 -0.0502358 0.0184432 0.061555 -0.0257033 -0.0596189 -0.0736607 0.134618 0.0524761 0.0823563 0.0435806 -0.0470336 -0.0187053 -0.0469464 -0.0145211 -0.0774625 -0.00942277 -0.106444 -0.0251804 -0.0773701 -0.05193 0.00738294 0.019933 0.0168643 -0.0693084 -0.0521243 -0.0586654 0.0768879 0.0851191 -0.0130777 -0.0671424 0.0362969 -0.0936012 0.0300634 -0.0538536 -0.0307376 -0.002142 -0.059239 -0.0791449 0.01872 0.0289207 -0.00120923 0.00580319 0.0408643 -0.011781 0.0174677 -0.0783005 -0.0151989 -0.0128707 -0.0522955 -0.0509207 -0.011656 0.0238074 -0.107713 0.00937872 -0.0255845 0.0448759 0.0504206 0.0159315 0.0860367 0.0387556 0.122058 -0.0633638 -0.0709312 0.0221993 -0.0173759 -0.0567203 -0.0396616 0.00563431 -0.0675713 0.0676261 0.0446978 -0.00658828 -0.107179 -0.0746962 0.12322 0.0163884 -0.00662999 0.0140472 -0.00540824 -0.0142832 0.00722801 0.0115668 0.0701873 -0.0956844 0.053264 -0.00121642 0.0119142 0.0184478 -0.0341202 0.025701 -0.0550947 0.03639 0.110818 0.0469005 0.00705065 0.0820067 0.0478128 -0.0145575
. -0.0138939 -0.0313604 -0.0113813 -0.0043554 -0.050717 0.0454117 0.0220837 -0.0917874 -0.0707667 0.0215724 0.110229 -0.0669236 -0.0375005 -0.0215923 0.0252209 -0.0240575 -0.0723559 0.0585693 -0.00537607 0.13945 -0.005148 0.0792594 -0.00673504 -0.0785999 -0.0689726 0.0350244 0.00595117 0.00412393 -0.0508778 0.0534451 -0.106374 0.149524 -0.0143621 0.104334 0.0608042 -0.077257 0.0138185 -0.033097 0.108027 -0.0139782 0.0590812 0.0111268 -0.037116 -0.012967 -0.0273421 0.0139384 -0.0424175 0.0126253 0.0171819 -0.0667763 0.000419961 -0.00853593 -0.0837287 -0.0416223 -0.046539 0.0364208 -7.50996e-05 0.0329609 0.0203108 0.0650309 -0.0694361 -0.0563759 0.00563109 -0.00514167 -0.0737993 -0.0519836 -0.130327 -0.0144084 -0.0633228 -0.0263256 0.0370707 0.0581913 -0.0995487 -0.0520766 -0.000596611 -0.0143825 0.113434 0.0563428 -0.0559945 -0.0557556 0.0705509 0.0900745 -0.0100629 0.0129262 0.0441839 -0.0729142 -0.0349542 -0.029355 -0.0127907 0.0276798 -0.0515656 0.0301639 0.029248 -0.106797 0.0717372 -0.0256909 0.0141405 0.00497908 -0.0202604 -0.0433458 -0.00857413 -0.0478494 0.0277882 -0.0748536 -0.0555722 -0.0649958 -0.0239028 0.0092798 0.0990629 0.0604837 -0.0459288 0.0942289 -0.00977482 -0.057644 0.0582668 0.0536553 0.103147 0.0734607 0.0389222 0.107166 0.0973034 0.0541801 0.0192636 0.148251 -0.0387977 -0.052276 0.00742615 -0.046933 0.00930019 0.0117645 -0.0465558 0.0388904 0.0228433 0.0449538 0.0453407 -0.0278089 -0.0389638 -0.0307145 -0.0729673 0.125036 -0.0388432 0.0707493 0.095904 0.104092 0.00722999 0.0536619 0.029971 -0.104583 -0.0397093 -0.0261049 0.0915664 -0.0921843 -0.00678026 -0.0564574 0.0322639 -0.045892 0.040694 0.00409227 0.0903071 0.121574 0.0210306 0.115794 0.00962079 0.0469752 0.0924744 -0.012501 0.0568235 0.0609068 0.0638224 -0.0280155 -0.0633749 0.0130174 -0.0969692 -0.00414023 0.0253241 0.111235 0.0369463 -0.0209519 0.0741642 -0.0656446 -0.0267746 -0.0248922 -0.0379244 -0.0714336 -0.0233213 0.0872984 -0.0692662 0.057862 0.000774727 -0.0598428 0.00853841 -0.161971 0.0783947 0.0221222 -0.0513768 0.0195412 0.025489 -0.00378656 -0.0455218 -0.00793599 0.0185122 0.0315535 -0.00408511 -0.0525682 0.092902 -0.0636113 -0.0354786 -0.0477616 0.0458694 0.0595162 0.0586182 0.0200251 -0.00109265 -0.106086 0.0111173 0.0105512 -0.00114245 -0.00975786 -0.137554 0.0693161 0.00446144 -0.0896728 0.0300234 -0.00331518 -0.0179542 -0.00622456 0.0297543 -0.0796247 0.0681091 0.064867 0.0235007 0.0107153 -0.0140482 -0.0762366 0.0950824 0.0499633 -0.055824 0.00434117 -0.0235421 -0.0238197 0.0279856 0.050295 0.0138236 -0.02875 0.0518423 0.0305092 0.0172992 -0.0055627 0.0135016 -0.0113659 0.0135259 0.0295976 0.0375722 0.0183493 -0.0492356 0.0978182 -0.0657976 -0.111411 -0.0265637 0.000809933 0.0294702 -0.0373157 0.138309 -0.0666572 -0.00651498 0.0789994 -0.0440124 -0.0711812 0.00568725 0.0434228 -0.074856 0.054037 0.0273514 -0.0244261 -0.0113387 -0.10148 0.148118 0.00663279 0.0240939 0.0213237 0.0272419 0.0450831 -0.0209485 -0.0229312 0.106962 -0.121067 0.048998 -0.0276274 -0.0295192 -0.0492437 0.0257388 -0.0639476 0.0208097 0.0648805 0.0421871 -0.0357331 -0.0532079 0.0816022 0.000542002 -0.020911
- -0.0458417 0.00614579 0.127848 -0.0490762 -0.0469031 0.0375138 -0.0281094 -0.0519409 -0.0645292 -0.0148559 0.0391773 -0.0629684 0.00129369 0.0146041 0.0223151 0.052428 -0.0929282 0.13936 -0.029271 0.0956486 -0.0562978 0.0889049 -0.0366613 -0.0542139 -0.100346 0.0197119 0.0457326 -0.0268948 -0.00206726 -0.00862612 -0.0575572 0.0509101 -0.135283 -0.0273804 -0.00424373 -0.0612957 -0.0356566 0.0159791 0.076072 0.00984163 0.0463971 0.00422825 0.0138905 -0.0105684 0.10775 0.0223162 -0.0346371 -0.0824196 -0.0158671 0.00105168 -0.0196383 -0.0881732 -0.0680771 -0.074131 0.0429567 -0.106243 0.0776054 -0.0684939 -0.0431979 0.0350895 0.0294661 -0.0706595 0.094188 -0.0352764 -0.0553965 -0.0205298 0.0145569 0.0435857 -0.120458 0.0449333 0.0819133 -0.0361835 -0.0418405 -0.116602 0.0153088 0.00318039 0.0285383 -0.0754382 -0.0567282 0.0627687 -0.0411807 0.0403259 -0.00613793 -0.0222809 0.0107738 -0.0601417 0.0227654 -0.050808 -3.39311e-05 -0.0466592 -0.0136975 0.0575623 -0.095598 -0.0327575 0.066904 -0.0240018 0.0199255 0.00454922 0.0384489 -0.062092 0.0122684 -0.0619293 -0.0432141 -0.0769379 0.0637844 0.0614728 -0.0119918 0.0306146 0.0758357 -0.0226117 0.10262 0.085078 -0.00102773 -0.0781237 0.0209244 0.00417925 0.0877404 -0.0199639 0.0405154 0.00866097 0.100678 -0.00932139 0.0197049 0.0991171 -0.0382369 -0.0540898 -0.00415672 -0.00488507 0.00868056 0.0315115 0.0308631 0.0286425 0.0799779 0.0212337 -0.0273112 -0.0151473 0.0082664 0.0298519 0.03443 0.0680348 -0.0182476 -0.0262144 0.0669336 0.094865 -0.0480367 0.06789 0.0228821 0.0120641 -0.0090892 -0.0203344 0.0885472 -0.0287134 -0.0906795 -0.044237 -0.0495121 -0.0242268 0.0183731 -0.0489958 0.120231 0.0871519 -0.00513296 -0.0135087 0.0373808 0.0305612 0.161639 -0.0402514 -0.0137634 0.00632434 0.0718522 0.0476067 -0.141801 -0.00593336 0.0087909 -0.0350079 -0.0053066 -0.0122522 -0.0261273 -0.0219843 0.0430678 -0.096988 -0.0160346 -0.00983986 -0.0422288 -0.0394673 -0.0501342 0.192775 -0.0146364 -0.0674181 0.0312878 -0.0243422 0.000192005 -0.120979 0.0400024 0.113498 0.0417134 0.00561469 0.0403542 -0.00431772 -0.0479544 0.0561301 0.0458358 -0.0177322 -0.0755226 -0.0095781 0.0679313 0.0356292 -0.0153459 -0.101471 0.104215 0.0296738 0.100865 -0.0944932 -0.0275893 -0.019873 -0.109308 -0.0134399 -0.00120448 -0.0556222 -0.0325436 0.0151652 0.00258548 0.0576881 -0.033326 0.0785591 0.053551 -0.0249767 -0.0596373 0.0477485 0.0627657 0.122023 0.0111773 -0.0378026 -0.0891005 -0.157045 -0.0475537 0.0155507 0.0572567 0.0103437 -0.029629 0.00187618 -0.106468 0.0265102 -0.0138421 -0.036391 0.122759 -0.0744217 0.00826889 0.0100204 -0.0756443 -0.0239916 0.0037074 -0.00513777 -0.0781669 -0.0154469 0.0670777 0.0778315 0.015631 -0.020791 -0.0628001 -0.0925562 0.0138097 -0.0320659 0.0617761 -0.0545177 -0.123226 -0.00420829 0.00967992 -0.00546919 0.0382206 -0.0629313 -0.139686 -0.0562068 -0.0524744 0.00340201 0.0110285 -0.0858778 0.0668048 0.0685953 0.00733372 0.0385388 -0.0623269 0.0963566 -0.0013521 -0.0317625 -0.0584978 0.0265915 0.0423087 0.0459796 -0.00848228 0.0344787 -0.0127163 -0.0733915 0.04656 0.046273 0.0558096 -0.0396924 0.00368767 -0.0610905 0.0687285 -0.00956071
je -0.0634431 0.00536176 -0.0372143 0.0265895 -0.0132098 0.0382205 0.00508709 -0.0709036 -0.0439789 0.0708848 0.121219 0.0205768 0.0321789 -0.0257955 -0.0523537 0.0478334 -0.0442286 -0.0382379 -0.0117079 0.11351 -0.0141615 0.0471198 -0.0862997 -0.0969588 -0.107218 -0.0470761 0.00703509 0.0461605 -0.0198815 0.127769 -0.0496814 0.0935226 -0.0702468 0.0691438 0.00918043 -0.0623497 -0.0219912 -0.0338601 0.0827679 -0.0777747 0.0428004 0.0568927 0.0533614 -0.0546764 -0.00807319 -0.0569425 0.0965001 0.107015 -0.00303528 -0.0122429 -0.0198125 -0.0198141 -0.00472097 -0.0100118 -0.0385106 0.0290823 -0.0125571 0.0609901 0.0445579 0.0396955 0.0492248 -0.064713 0.0191606 -0.036542 0.00181875 -0.0663193 -0.079041 0.0868458 0.0602994 -0.10092 0.00259078 0.0294966 -0.0334422 -0.0728409 -0.0212917 -0.0153933 0.0261846 0.0531352 -0.0116679 0.00564141 0.0105081 -0.00903111 -0.00826621 -0.0259732 -0.0636967 0.0189011 -0.101829 0.0437311 -0.060655 -0.0848331 0.00138152 0.0385175 0.0813431 -0.0901702 0.0713109 0.0540851 -0.0166849 0.0692528 -0.0769906 -0.0306608 -0.0519381 -0.0399214 0.101555 0.0152034 -0.0816778 -0.0818866 -0.0813722 0.0497895 -0.015824 0.0224339 0.0611844 0.0304234 -0.0238273 -0.0211541 0.0204732 -0.0274264 0.0795646 0.081491 0.111126 0.0457817 0.059883 0.0870069 0.0186682 0.127809 -0.00101814 0.0609079 0.0164256 -0.00172367 0.0736254 0.121044 -0.0531133 0.0252883 0.0151055 -0.0548681 -0.0478011 -0.0115428 -0.0294455 0.0227577 -0.0647606 0.0526275 -0.0236466 0.0426733 0.159862 -0.00576167 0.0547429 0.0881763 -0.0034831 0.0222818 -0.0314781 0.00379319 -0.0298565 -0.0131551 0.0199936 0.0232683 -0.0816888 -0.0451283 -0.0769345 -0.0426666 0.102423 0.0254748 -0.113182 0.125091 -0.00117787 0.00683034 0.132903 -0.0326488 0.00196945 -0.00640247 0.0789405 0.0305886 -0.0402461 0.0406207 -0.133776 0.0356643 -0.0295375 0.00898275 -0.0333299 0.0782876 -0.0757674 -0.0185412 -0.0410821 0.0161408 -0.0623158 0.070925 -0.0519339 0.0338512 0.00105765 -0.00969497 0.00329525 -0.0546145 0.027577 -0.0855918 0.0781648 0.108191 -0.0322415 0.0021297 0.0314572 -0.00555006 -0.0740055 -0.0615791 0.057803 -0.0108614 -0.0371899 0.0388058 -0.0196949 0.0200474 -0.124925 0.0196893 0.145238 0.0655778 0.127205 -0.0925834 -0.0851754 0.0685819 -0.0430825 -0.0256619 -0.0463975 -0.0945647 -0.0265584 0.0142542 0.029139 -0.0966715 -0.0682164 0.0276442 0.0390048 -0.0652176 0.0222825 -0.0468593 -0.0419436 0.0454173 0.0209333 0.000833685 -0.0490706 0.0170098 0.0490347 -0.0271363 0.0264696 -0.0151018 -0.0514509 -0.00624585 -0.0196908 -0.015137 0.0392386 0.0660729 0.016245 0.06444 0.0808231 -0.0544934 -0.0355038 -0.0303625 -0.0154326 0.0375613 0.0548701 -0.0384511 -0.0891427 0.0338891 -0.0401633 -0.0195482 -0.00868898 0.0135001 0.0229868 0.061463 0.062892 -0.0872427 -0.0407427 0.0481569 -0.0222261 0.0255916 0.0902136 -0.0908764 -0.175528 0.021965 -0.0345989 0.0399153 0.0109604 -0.0749553 0.153684 0.0390226 0.0719996 0.0124259 0.103722 0.0117368 -0.073053 -0.0327572 0.039378 -0.0403939 -0.000209573 0.0886739 -0.0103188 -0.0506515 -0.0123968 -0.0108945 -0.0547626 0.0690604 0.0562969 -0.0339622 0.0216343 0.0246104 0.0234943 -0.000502618
' -0.146773 -0.0142273 0.0258414 0.0164333 0.0543781 0.0365505 0.0946493 -0.0797432 -0.0697601 -0.0868332 0.0502425 -0.0345367 -0.0606818 -0.01084 -0.0087032 0.115414 -0.0324253 0.0285672 -0.0917607 0.0825628 0.0307723 0.0329946 -0.00300736 -0.0243909 -0.0582087 -0.0189524 0.0189253 -0.0412709 -0.00175436 0.0534938 -0.0744337 -0.0387003 -0.142987 -0.0315726 0.0318612 -0.0607139 0.0676018 -0.00958615 0.0225489 0.00439231 -0.0146414 0.0266066 -0.0769807 -0.0891405 0.0404911 0.0148121 -0.0142224 -0.015167 -0.032786 -0.0199643 0.0838957 -0.0233911 -0.0016263 -0.156801 -0.00881491 -0.0577024 0.0333968 -0.0154347 -0.00638113 0.0180106 0.0751041 -0.0362822 0.103546 -0.0303656 0.1099 0.0703767 -0.00615569 -0.0353382 -0.0705129 -0.041368 0.0524549 -0.00289073 -0.0218895 -0.0662378 -0.0102853 0.0313037 -0.00676814 -0.0141824 0.0334892 0.101229 -0.0303303 -0.00857863 0.102257 -0.122546 -0.0159081 -0.018037 0.0871946 0.0249291 0.0213011 0.0048287 -0.0764938 0.0744193 -0.0109296 0.0360429 0.0604076 0.00897685 -0.0357111 0.0531147 0.0221872 -0.093445 -0.0327252 -0.0845771 -0.00106116 0.0683943 -0.0194398 -0.00364196 -0.00756037 -0.00401523 0.0273814 -0.0197463 0.0272783 0.0490209 -0.0427145 0.000966622 0.0139488 0.0165942 0.0493004 0.0329992 0.0185273 0.0557932 0.117969 -0.0150755 -0.0791076 0.0893015 -0.0605306 -0.0194594 0.0344347 0.0152845 0.0202371 0.0391879 0.00713562 0.0609878 0.0920782 0.079532 0.125465 4.78437e-05 -0.0470902 -0.0505314 0.0625202 0.115022 0.0604928 -0.028002 0.161084 0.0266093 0.069848 0.0940502 0.0366253 -0.0102267 -0.0108851 -0.0245891 0.0722538 0.0419715 -0.0831395 0.00818842 -0.107077 -0.0527942 -0.0140437 0.0234329 0.125317 -0.00343052 -0.0146023 0.0451361 -0.0220916 0.0218786 0.0815261 -0.0884654 0.0213045 0.00885069 0.0493308 0.0496736 -0.0582636 -0.0510568 -0.0207324 0.0376327 0.0223208 0.015015 0.0423937 -0.0351016 0.00118835 -0.0760553 -0.0674868 -0.0267993 -0.0297336 0.00964267 -0.0298247 0.111923 -0.0372154 -0.013258 0.0688505 -0.0841398 0.0588243 -0.0795607 0.125937 0.0934851 0.000273137 -0.0183443 0.0588968 0.0183679 -0.0598968 0.0190427 0.0416636 -0.0108606 -0.0064583 -0.00655928 0.0933767 -0.0406495 0.0367505 0.0445863 0.0791552 -0.0397159 0.133696 -0.0800667 -0.0140629 -0.00296945 -0.0810226 -0.100659 -0.0648071 0.0191161 -0.028682 -0.0557989 -0.0468037 0.056979 -0.0541688 0.115665 -0.0435871 -0.110185 -0.03033 -0.0345977 0.0916784 0.105675 -0.00639019 0.0470406 -0.0367411 -0.0528353 -0.111228 0.0397617 0.00741465 -0.0256356 0.00193799 -0.0255755 -0.0336166 0.0825134 -0.0398266 -0.00608706 -0.00137313 -0.0465768 0.0415966 -0.0227526 0.0415984 0.0225368 0.0548772 0.02029 -0.0648154 -0.0880675 0.0188335 0.058699 0.00799274 0.000679128 0.025321 -0.0791324 0.0428911 -0.0210061 0.0554991 -0.0697327 -0.0780377 0.0141422 0.0520505 0.0145997 0.132717 -0.0919224 -0.0746768 0.00236613 0.0248618 -0.0267464 0.0247739 -0.0412221 0.0853181 0.0855264 0.0211066 0.0467487 -0.0424773 0.0830581 -0.100856 -0.0520729 -0.0309589 -0.0203538 0.0414398 0.0786109 -0.0469063 -0.07586 -0.107574 -0.0305618 0.028413 -0.0851343 -0.0699502 0.00478576 0.0912294 0.00155724 0.0738216 0.0282412
v 0.10243 -0.0818574 -0.00986062 0.0229234 -0.0915994 0.00286995 0.00567879 -0.101637 0.0455573 0.0867811 0.0454145 -0.0504086 0.0855722 -0.0497904 -0.01661 -0.0613391 0.0304254 0.0195176 0.0451803 0.0228508 -0.094374 0.0284881 -0.104145 -0.103186 -0.059853 -0.0587793 0.0342024 0.0331186 -0.0504231 0.0730588 -0.0185233 0.0584257 -0.072454 0.0333018 0.0486876 -0.132901 -0.0879921 -0.0341527 0.0739176 -0.0205046 0.00232328 0.00468452 0.0505289 -0.0198372 -0.0113102 0.0209087 0.0844961 0.0781617 0.0120317 -0.0468805 -0.021912 -0.0161498 -0.0326367 0.00620764 -0.0515476 0.0258484 0.0225088 0.0539961 -0.0255074 0.0226209 -0.0408898 -0.0705357 0.0681772 0.00932188 -0.0526072 -0.0462735 -0.130829 0.047388 -0.0825809 0.0796545 -0.0277153 -0.0880974 -0.0718139 0.0295116 -0.0451317 -0.00344206 0.026898 0.0369766 -0.0312687 -0.0738493 0.0735373 0.0202786 -0.0550777 -0.0368628 -0.0166744 -0.0347878 -0.0340983 0.0121479 -0.0815214 -0.0882152 -0.0760506 0.051392 0.176199 -0.10482 0.0822507 -0.0469594 0.0274404 0.134066 -0.0571141 -0.034127 -0.00462924 -0.095731 0.0335506 -0.0484813 -0.0862242 -0.0674302 -0.132289 0.0195923 -0.0643268 0.194261 0.0382663 0.0189746 -0.0429047 -0.00482827 -0.00146034 0.00623572 0.0984228 0.00698455 0.0464691 0.0275019 0.0643678 0.0353796 -0.0105493 0.127951 -0.0282666 -0.0101172 0.06298 0.0532548 0.0286815 0.0441765 -0.0520978 0.0630101 -0.00667245 0.0559925 -0.0542111 -0.0257736 -0.022617 0.0275965 -0.117891 0.0665173 0.0365715 0.0700171 0.0320048 0.101503 0.0691926 0.0741874 0.0487534 0.0983741 -0.0285321 0.0765626 0.0144102 -0.0173506 -0.0328734 0.0378527 -0.0369682 -0.0694622 -0.00961235 -0.0255335 0.108572 -0.0462422 -0.0614192 0.147981 -0.0632892 -0.00613112 0.0283731 0.0169015 -0.0384979 0.087843 0.106301 0.0148462 -0.0272479 -0.0542765 -0.0592316 0.0281132 -0.132829 0.0662865 0.0395871 0.0304591 0.0204887 0.0113522 -0.0231651 -0.11968 -0.0858126 0.0279564 -0.063065 0.0351696 0.0186138 0.0546396 0.0173118 -0.0402938 0.0308778 -0.0220921 0.0326053 0.000982384 -0.0111709 0.0180882 0.0346597 0.0438264 -0.0833274 -0.0486737 -0.00656682 0.0712379 -0.0270379 0.060613 0.0646595 -0.11264 -0.0515959 0.0187934 0.0162382 0.118275 0.122445 -0.0190534 -0.0449167 0.0016223 -0.0684707 0.024191 0.00903545 -0.0494456 -0.00827145 -0.0207548 -0.0246209 -0.021438 -0.00794922 0.0407904 0.0284781 -0.00543903 -0.038329 -0.052641 0.059823 0.00267365 0.0624301 -0.0346108 -0.0479576 -0.0672243 -0.0522038 -0.00857476 0.0636069 0.0414084 0.00811599 0.0186441 -0.0121111 -0.0623454 0.073971 -0.0430369 -0.0254102 0.0382095 0.0493493 0.0237426 0.00436747 0.0418839 -0.000802728 0.0552667 0.0404588 -0.0558005 -0.100669 0.0405724 -0.0326892 -0.0264634 0.00440367 -0.0317861 -0.0352786 0.0610885 0.0210464 -0.101978 0.0579299 -0.0675599 -0.0229386 0.0472462 0.0684215 -0.0050154 -0.0211896 0.0397074 0.00106567 0.0290524 -0.00326796 -0.0636404 0.0792099 -0.0251647 0.0469453 -0.0207679 0.0704571 0.0614627 0.0157665 -0.0125349 0.0374329 -0.0997748 -0.0245866 0.132101 -0.0211921 -0.0739857 0.025695 -0.0538997 0.0400547 0.0488227 0.0579992 -0.0196225 -0.0301073 0.00958799 0.0513229 0.0760626
) -0.0606419 -0.0468141 0.0304678 -0.00307672 0.00185986 -0.0154778 0.0619977 -0.0915421 0.00351316 0.0171461 0.00340827 -0.109084 0.0204464 0.010883 0.0113916 0.125342 0.0085829 0.0327173 -0.0674187 0.0581912 -0.0543533 0.0212962 -0.0881137 -0.0369905 -0.136939 0.0493529 0.0398464 -0.0356091 0.0116208 0.00431717 -0.0390975 0.0858749 -0.032389 0.0107353 0.0387427 -0.0781366 0.00393805 -0.105639 0.046926 -0.013076 0.0444484 0.0374802 0.0159117 0.00823561 -0.0123092 -0.00529083 0.000431115 -0.044905 0.0373353 -0.0525027 -0.0240147 -0.112408 -0.105814 -0.100702 -0.0711226 -0.105223 0.0661563 0.0113304 0.00978232 0.0976472 -0.016032 -0.0353356 0.0997323 -0.0323384 -0.0249393 0.00777484 -0.0623566 -0.0373886 -0.086465 -0.0316352 0.0421129 -0.000364336 -0.038516 0.0325653 -0.049598 0.00553824 0.0663828 0.0304652 0.00799288 0.0811886 0.0320671 0.0297954 -0.0292316 0.0132003 0.00402181 -0.033951 0.052831 0.0330517 0.0202975 -0.0225884 -0.00356986 -0.00178136 -0.00299968 -0.061573 0.0171706 -0.0700986 -0.0221919 0.00562775 0.0521126 0.0272003 0.0236371 -0.0876236 0.0282179 -0.0150202 0.0384715 -0.0178326 -0.00723025 0.0243219 0.0852114 -0.056261 0.0224185 0.0394303 -0.0796283 -0.0524046 -0.0370527 0.00519715 0.0185074 0.0554677 0.0274483 0.0768798 0.129809 -0.078797 -0.0144871 0.132072 0.00358538 0.016312 -0.0497152 0.039518 0.0652998 0.0113262 0.0734162 0.0508321 0.0805491 0.0968299 0.0292078 -0.0277835 -0.0103773 -0.116955 -0.0444952 0.126077 0.0145489 0.0149696 0.125791 0.0690121 0.0467875 0.0726093 0.05939 -0.0564363 -0.071638 0.00786465 0.0363067 -0.0735931 -0.060934 -0.0315075 -0.0523075 0.00388192 -0.0429691 -0.0222322 0.104026 0.110638 -0.00444623 0.0827958 -0.0132202 -0.0329524 0.0263432 -0.0770679 -0.0229459 0.0537771 -0.0311205 0.0115257 -0.135058 0.0199004 -0.0571292 0.00550733 0.0117349 0.0553588 0.0763289 -0.0365069 0.0617898 -0.0183545 -0.110158 -0.114169 -0.0480729 0.0256003 -0.0766716 0.0842983 -0.0185704 0.0380739 0.0568578 -0.0644212 -0.0456519 -0.105994 0.13542 0.120472 -0.0223156 -0.0223469 0.0288451 0.0135164 -0.191725 0.0405447 -0.00761271 -0.0719747 -0.108669 0.021102 0.0801675 0.0219628 -0.0470616 0.0434803 0.0568319 0.00147854 0.145251 -0.0245153 0.0152751 0.0141779 -0.0659398 0.0270465 -0.0102912 0.0130705 -0.15478 -0.0217733 -0.0328705 -0.0194814 0.0481937 0.0162083 -0.0371492 -0.0745275 -0.0247754 -0.0399788 0.0388733 0.0631949 0.00779939 -0.053283 -0.0252335 -0.0683913 0.0251774 -0.01885 -0.0104495 -0.0390947 -0.0364176 -0.0514078 -0.0300786 0.0524507 -0.023571 -0.0615102 0.0473477 -0.0812652 -0.00363986 -0.0975737 0.0174647 -0.0411845 0.0637875 -0.00597301 0.00297964 0.0464859 -0.0214452 0.0407838 -0.0832784 0.0516797 0.0317228 -0.000416002 0.0598465 -0.0827017 0.121894 -0.0599701 -0.0393845 0.0161426 0.0923452 0.00256618 0.0428261 -0.0150337 -0.102708 0.0457178 0.0552586 -0.0236992 0.0200649 -0.0283123 0.0925062 0.0501901 -0.0032295 0.126476 0.0695097 0.0344708 -0.0142919 0.114882 0.103642 -0.0392933 0.0831793 0.00297279 0.0227202 0.0301011 -0.0763532 -0.0270288 0.000153961 0.0255915 0.0181698 -0.00279897 0.0304454 0.0799963 0.0486471 0.0314959
in 0.00357241 -0.0290592 -0.03635 0.0473048 0.0121516 0.06304 0.0374615 -0.0127546 0.0320835 0.10841 0.0728963 -0.00366457 -0.0143003 -0.0546454 0.0491783 -0.1168 -0.010784 -0.0771738 -0.0054312 -0.0104939 -0.0302758 0.0353856 -0.095235 -0.0220871 -0.0368933 0.00124287 0.0687097 0.0120996 -0.0206864 0.00417951 -0.121467 0.140151 -0.0274956 0.00704921 0.124664 -0.075297 0.0342936 -0.0656324 0.091691 -0.016083 0.0223433 -0.114105 -0.00549961 -0.0276018 -0.0370777 0.0779217 0.026758 0.00228062 0.047821 -0.0721533 0.0521306 0.0521631 -0.0763416 -0.0388464 -0.135808 -0.00112241 0.0557094 0.0237155 -0.128467 0.0328796 -0.0220932 -0.0898193 0.0593899 -0.0421697 -0.00477567 -0.0708317 -0.0958338 0.0654128 -0.0300906 -0.0595147 -0.0933287 0.00689152 -0.065794 -0.127865 -0.102586 0.00476257 0.0787468 0.0952172 -0.0235339 -0.0408773 0.13371 0.0151611 -0.0348883 -0.0598244 -0.0464882 -0.0554315 -0.00134081 -0.0197727 -0.0371224 0.0660738 -0.013703 -0.0139825 0.0819649 -0.153273 0.0295695 -0.0432011 -0.0634749 0.0486965 0.0113314 -0.00506621 0.0148 -0.0894216 0.116715 -0.0685026 -0.0751711 -0.0317375 -0.040894 -0.046558 -0.00531855 -0.0215719 -0.0309643 0.0559916 -0.0503048 -0.0466233 0.0552093 -0.0150904 0.00567755 0.0164907 -0.00557041 0.118676 0.0587026 0.00327035 0.00656102 0.0546815 0.0645961 0.0801175 0.0908982 -0.0495865 -0.00950299 0.0701678 0.0163975 0.0415439 -0.019501 0.0113146 0.0421327 0.0590204 -0.0744294 0.0516388 -0.0989837 0.0357598 -0.0451558 0.023094 0.0459769 0.0497297 0.0283033 0.105768 -0.0117421 -0.0429238 -0.0565399 0.0591082 0.0310497 -0.0646842 -0.0889678 0.00798667 -0.0593398 0.00747456 -0.0962576 0.0304684 0.0707494 0.0484804 0.0199354 0.0295956 0.0177571 0.0307934 0.0881988 -0.0697023 0.0144338 -0.0226348 0.0427786 -0.0596141 -0.0816068 -0.00736758 -0.0355161 0.0166755 0.0156922 0.131795 0.0777986 0.107618 0.0122603 -0.0807444 0.0166295 -0.090796 0.0325715 0.041407 -0.0188117 0.123389 0.0465327 0.0209753 -0.00638537 -0.0197899 -0.0401563 -0.0953505 0.0219591 0.0219899 -0.0212213 0.04071 0.0139675 -0.0208267 -0.045179 0.0569447 0.103767 -0.0394716 -0.022057 0.0370456 0.0323851 -0.0474672 -0.118064 -0.0112388 0.120159 0.0981922 0.13989 -0.0674207 -0.0354118 -0.0265889 -0.0460073 0.0750489 -0.0283139 -0.0657596 -0.0900532 -0.0325185 -0.0528185 -0.0595435 -0.00770545 0.0195268 -0.0330578 -0.0093133 -0.10406 -0.109979 0.0155286 0.0643349 0.046905 0.0464826 -0.0674945 -0.0759674 0.00100725 0.0331923 -0.0114576 -0.0428024 -0.0491968 0.00795367 0.030287 0.038132 0.0031916 -0.0569373 0.0285545 0.0581719 0.0766539 -0.0469818 0.0196588 0.0450667 -0.0521159 0.0114584 -0.0593504 -0.00297779 -0.07046 0.0642012 -0.00919409 0.000538096 0.0189773 0.0162028 0.0837039 0.0574832 0.0184426 -0.0811409 -0.00256514 0.047655 -0.0314955 -0.00648309 -0.0360881 0.0092807 -0.113185 0.00519102 0.0471739 0.0139828 -0.0241107 -0.0541911 0.0387703 0.0236965 0.0566724 0.00378244 0.0425109 0.0307585 0.0270639 0.0176671 -0.00737038 0.00385558 0.000788743 -0.00597691 -0.112105 0.0172162 0.0839134 -0.0338303 0.101554 0.0503997 0.0302287 0.00348263 0.00402363 0.130087 0.01886 0.041129
( -0.0568912 -0.055795 0.0273399 0.00594429 0.0255559 0.00109293 0.0626578 -0.095835 0.030744 0.0131407 0.0106004 -0.108362 0.0509684 0.00293027 -0.00178582 0.103796 -0.00197238 0.0301021 -0.059435 0.0462533 -0.0305226 0.00970299 -0.0677023 -0.0047406 -0.125962 0.0337814 0.0581232 -0.0358161 0.00992305 -0.00149857 -0.0299915 0.095229 -0.0281995 0.0263709 0.03336 -0.0729926 -0.00168681 -0.0919877 0.0225687 -0.009127 0.0745035 0.0163083 0.0154964 0.0264759 -0.0235972 -0.0220106 -0.0239628 -0.067934 0.0484401 -0.0840291 -0.0134418 -0.102098 -0.114626 -0.107132 -0.0688586 -0.0976376 0.0582487 0.00689479 -0.0175565 0.104053 -0.0157394 -0.047619 0.102794 -0.0267425 -0.021482 0.00973026 -0.0373355 -0.0200639 -0.0855011 -0.0381758 0.0363687 -0.0273049 -0.0291949 0.046861 -0.0592381 0.00766648 0.0796062 0.0245894 -0.00505727 0.09034 0.0222826 0.0417449 -0.0313677 0.0295635 0.00564185 -0.0639538 0.0326187 0.0433179 0.0158558 -0.00613071 -0.0220042 0.00765376 0.00379543 -0.043472 0.0165111 -0.078015 -0.0206498 0.00678655 0.0678068 0.0319302 0.0381511 -0.0769461 0.0229423 -0.015571 0.0217322 -0.00217166 0.0136177 0.0346454 0.0814182 -0.0383766 0.0414202 0.0121326 -0.0558012 -0.0649297 -0.0252213 0.0108953 -0.00340258 0.0606543 0.00745224 0.0726161 0.110193 -0.0853924 0.00954441 0.154014 0.0169944 -0.0018618 -0.0436292 0.0270983 0.05629 0.0121052 0.0859393 0.0520258 0.0586873 0.116449 0.0342297 -0.0187319 0.00689004 -0.122921 -0.0248615 0.152108 0.0151213 -0.000619876 0.0883197 0.0868015 0.035041 0.0882137 0.0346488 -0.0547496 -0.0537198 0.014544 0.0504155 -0.0515585 -0.0609624 -0.0219018 -0.0653623 0.0126355 -0.0613583 -0.0117703 0.091822 0.112896 0.0113542 0.0612979 -0.040405 -0.0283406 0.0376119 -0.0814928 -0.0364332 0.067933 -0.0198768 0.0219005 -0.12625 0.0142363 -0.0316297 -0.0266323 0.0379145 0.0502864 0.085663 -0.0219324 0.0528431 -0.0284564 -0.111317 -0.100788 -0.0404017 0.0240475 -0.0691577 0.105293 -0.000884622 0.0508209 0.0523141 -0.0580724 -0.0326509 -0.121174 0.106394 0.126829 -0.0131799 -0.0275476 0.0438119 -0.0184871 -0.194518 0.0158256 -0.0190553 -0.102544 -0.109282 -0.00731889 0.0692638 0.0291798 -0.0388315 0.0425644 0.0447762 -0.00584152 0.156884 -0.0115499 0.0235835 -0.00644783 -0.052012 0.00680631 -0.00232144 0.00472771 -0.156652 -0.0233938 -0.0395073 -0.0393376 0.0450428 0.0165132 -0.0326403 -0.0478115 -0.0413064 -0.0279935 0.0631712 0.0646645 0.0149264 -0.0398889 -0.02229 -0.0395564 0.0189033 -0.0228288 -0.0195236 -0.0320625 -0.0218459 -0.0634748 -0.00391635 0.0726691 -0.0180533 -0.0443627 0.0490989 -0.0901248 0.0134633 -0.11008 0.0112654 -0.0527502 0.0551236 0.00402754 -0.0173664 0.0335146 -0.0186831 0.0591323 -0.0836575 0.0499207 0.0214489 -0.0108444 0.0852015 -0.0927648 0.13901 -0.0477584 -0.0267611 0.0150233 0.0572628 0.00841987 0.0641218 0.0315284 -0.114855 0.0365542 0.0528388 -0.0219794 0.00995816 -0.0370061 0.092867 0.0616706 -9.84846e-05 0.117437 0.0570316 0.0319885 -0.0102987 0.135081 0.0802736 -0.0329227 0.0865282 0.016807 0.024798 0.0465443 -0.0720355 -0.0249973 0.00600317 0.0597937 0.00116509 -0.00184902 0.00787579 0.063595 0.0396089 0.0108406
rd -0.0764321 0.00270601 0.121674 0.0941149 0.0240758 -0.0609779 0.0703417 -0.0479332 -0.0954914 -0.00869265 -0.00236666 -0.0373506 -0.0733177 -0.0230501 -0.0671218 -0.0251343 -0.0390811 0.0919955 0.0176169 0.0987633 0.0786361 0.0266266 -0.0170832 -0.0117355 -0.052932 -0.00584527 0.0701765 -0.0323441 0.0474285 0.131058 0.0262484 0.0337975 -0.068883 0.0582587 0.065474 -0.0179268 0.0936857 0.00820294 0.0190898 -0.0594214 -0.000712768 0.00615754 0.066738 -0.0044217 0.0882677 -0.0755958 0.0698347 -0.0187592 0.0425701 0.0185889 0.0604276 -0.0318603 -0.00275597 -0.0623099 0.0716405 -0.0241396 0.0824748 0.065843 -0.0192378 0.0576539 0.0383993 -0.0641594 -0.014202 0.0493168 0.0492345 0.0557208 0.00789926 0.0237348 -0.107651 -0.0289902 0.0916763 -0.0156275 0.0868181 -0.016113 -0.00213667 0.037797 0.00360384 -0.0759849 -0.0333531 0.0151691 -0.082608 0.00744933 -0.025858 -0.0157266 -0.0220502 -0.0746301 -0.0010274 -0.102697 0.066605 -0.00782624 0.0811686 0.0685881 -0.0527189 0.000469553 0.0477958 0.0384401 0.042415 0.0433395 0.00674596 -0.0697751 0.0131421 0.0188632 0.0700513 0.0156089 0.126385 0.121016 -0.00449629 0.00274954 0.0293774 -0.0404659 -0.0111094 0.0853442 0.0683908 -0.0418064 0.0249637 -0.0686552 0.0557392 -0.00798928 -0.0468018 -0.00410938 0.0664467 -0.0319641 -0.00190874 0.0353734 -0.0559715 -0.0700304 -0.0179552 0.0737521 0.00633986 0.0383128 0.0156978 -0.0311872 -0.0671273 0.0300766 0.0821529 -0.0511462 -0.0877019 -0.0602171 0.0500162 0.0302629 0.0121544 0.0294078 0.0399204 0.0317892 -0.0340619 0.0564114 -0.00915483 0.00590969 -0.0117574 -0.00903124 0.100963 -0.0573744 -0.155275 0.0764143 -0.0784711 -0.0275674 -0.0326434 -0.0698133 0.0514644 0.0188603 -0.0182315 0.0044467 0.0421023 -0.0375513 0.0587475 -0.0166463 -0.0190624 0.0568848 0.0647998 0.0947772 -0.00222562 -0.0070314 -0.0798079 0.0525114 0.00994429 0.0754337 -0.0891197 -0.0964969 -0.0682272 -0.0988381 0.0680747 -0.0651427 -0.0534869 -0.0136082 0.035948 0.0875578 0.0313191 -0.081723 0.0494826 -0.0943498 0.00809613 -0.0107871 -0.0388878 0.105908 0.0111112 -0.0606392 -0.0131769 0.043377 -0.0112595 -0.0392381 0.0538493 0.00624709 0.00420183 -0.0313184 0.00675227 -0.0368238 0.0929128 -0.0341918 0.151349 0.00475948 0.0117848 0.0195513 -0.0260844 -0.0192768 -0.0468564 -0.0532079 0.0136345 -0.0284099 0.099267 0.0163822 -0.020867 0.0347466 0.0251691 0.0529862 0.000169903 -0.0793337 -0.00496791 -0.0287999 0.0457066 0.0883441 -0.0760987 0.0230936 -0.0558915 -0.0633817 0.00235832 0.0429854 0.0618994 -0.0174253 0.0516587 -0.0414903 -0.0662982 0.0183618 -0.0323618 -0.0462889 0.0230536 -0.0742502 -0.0233227 -0.00737373 -0.0226663 -0.0479564 0.0260349 0.0881443 -0.143157 -0.0850389 0.115944 -0.0303108 0.0613164 -0.141904 0.0739734 0.0273692 -0.0149288 -0.0371609 0.0536392 -0.0234489 -0.156254 -0.130203 0.0758422 0.0494276 0.00605857 0.0496063 -0.0438142 -0.0562973 -0.00580863 0.0860213 0.0360039 -0.107785 0.0689325 0.0977069 -0.0125255 0.0564553 -0.0769814 0.0960868 0.0681053 -0.0933679 0.000986012 0.0774208 0.0398607 0.131332 -0.00106858 -0.0323146 0.0101162 -0.0750874 0.0501509 0.0168556 0.084634 0.065216 0.0103412 0.00923122 0.0235374 0.0544887
align -0.0703389 -0.0325731 0.0334045 0.0467761 -0.0607368 -0.0108366 0.0125103 -0.0113989 -0.152782 0.0126519 0.0133096 -0.0435635 -0.0237523 -0.0984307 -0.0119337 -0.0413385 0.0461625 0.0162152 -0.0535338 0.0917333 -0.00600643 -0.00554211 -0.0264407 -0.0827044 -0.117973 -0.066912 0.0805126 -0.0453227 -0.0486053 0.0392654 -0.0584039 0.113756 -0.0168107 0.0458098 0.0255247 0.0107106 -0.00430077 0.0701242 -0.0243807 -0.0350258 0.0583244 0.0128675 -0.0372261 0.0403207 0.0185949 -0.0565753 -0.0498169 -0.0179702 0.0411247 -0.028136 -0.012571 -0.152237 -0.0573269 -0.0377588 -0.126323 -0.0134853 0.0662691 -0.00183338 0.0487927 0.165627 -0.0279752 -0.00992715 0.0481849 -0.00777299 0.0486334 0.0215669 0.023988 0.0516602 -0.027853 0.106383 0.0286875 0.0117671 0.0702221 -0.0033256 -0.0114902 0.0603953 -0.0177705 0.0103566 -0.0616467 0.00495689 -0.0827859 0.0910241 0.0291779 0.0668687 -0.00275592 -0.0510743 0.025068 -0.00236083 0.0958454 -0.0304946 -0.00229987 0.000249862 -0.0447711 -0.0663727 0.029696 0.106707 0.0312577 0.0503359 -0.00372644 -0.0469056 0.00423355 -0.0735993 0.0152606 0.0125252 0.0705604 0.0539191 -0.0872184 -0.0447317 0.0428905 -0.00147679 -0.0286881 0.0508715 -0.0677952 0.0103804 0.015892 -0.0214458 0.0215022 0.0480893 0.0552294 0.021345 0.0354793 -0.018855 -0.0373151 0.114057 0.0170109 -0.0312935 0.0102019 0.0783025 -0.0784235 0.0268297 0.0153309 0.0157939 -0.0829105 0.0256308 0.0530628 -0.122867 -0.0295832 -0.103929 0.116014 0.070538 0.0270468 0.0851801 0.0893079 0.0965677 -0.0525798 0.0408112 0.0229982 0.0187701 0.00650913 -0.0406332 0.0914748 -0.027131 -0.0231965 0.0479631 -0.0680784 -0.0231359 -0.00239416 0.038808 0.0273025 -0.0427819 0.0222538 -0.00823311 0.0254193 -0.00852497 0.0768575 -0.081443 -0.0492556 -0.0273773 0.0811291 0.014872 0.00175267 0.0472117 -0.0927981 -0.0213037 0.070588 0.0444693 -0.0629839 -0.0854114 -0.0149991 -0.0315849 0.0230077 -0.0211387 -0.0637741 -0.105192 -0.0534788 0.0417828 -0.0583935 -0.0642212 -0.0308969 0.00285066 -0.0304773 -0.0460198 -0.0559812 0.0506094 -0.0284633 0.029654 0.0223584 0.0447891 -0.0728085 -0.105823 0.0318039 -0.00791609 -0.0197134 -0.0211255 0.0231654 -0.105876 0.130835 -0.0605435 0.149933 -0.000246476 0.119679 0.0226179 0.00889222 -0.00580452 -0.028586 0.0238312 0.0341138 -0.103924 -0.0546888 0.0281157 -0.0332771 -0.0287737 0.0731821 0.0514757 0.0252007 0.00938507 -0.0543118 -0.062527 0.120629 0.0280434 0.0127669 -0.0494778 0.0603045 -0.00438424 0.0870666 -0.0110169 -0.000202101 -0.021312 0.028152 0.0228348 -0.0245729 0.00401208 -0.0434674 -0.0960925 -0.0840712 -0.0977722 -0.0873639 -0.0346938 -0.0748398 -0.0165231 0.0395306 -0.128857 -0.03944 0.0263414 0.0157871 -0.00997532 0.075126 0.000915628 0.0556278 0.0562883 -0.0157994 -0.00943025 0.0427856 0.0773029 -0.0503207 -0.012336 0.00724283 0.103426 -0.0819413 0.00131175 -0.0524632 0.0110044 0.0228429 0.062578 -0.107686 -0.116051 0.083186 0.154036 0.0627705 0.0149899 -0.106687 0.0298541 0.0667946 0.107223 0.00336124 0.101818 -0.000859628 0.0438356 0.0585321 -0.0375993 -0.0155015 0.0170381 0.0249508 -0.0280235 0.0632539 -0.012918 0.0407258 0.0894883 0.140613 -0.00274192
right -0.0867898 -0.0319514 0.0194257 0.045777 -0.0674169 -0.0384436 -0.0105703 0.00616377 -0.160935 0.0204677 0.0104754 -0.0322974 -0.0238385 -0.107986 -0.0143046 -0.0614712 0.0548557 0.0164608 -0.0450488 0.106527 -0.024058 0.00601686 -0.0297329 -0.0731376 -0.111081 -0.0592416 0.0733612 -0.0406389 -0.0199411 0.0384122 -0.0439133 0.120603 -0.00766622 0.0425361 0.00899477 -0.0121393 -0.0243217 0.061825 -0.0277311 -0.0199711 0.0448111 0.012518 -0.0137109 0.036011 0.00443634 -0.0643853 -0.035127 -0.0258529 0.0273702 -0.00187773 -0.0162326 -0.141338 -0.0417773 -0.0603018 -0.110999 -0.00546016 0.0816171 -0.0285186 0.039742 0.182651 -0.00861062 -0.01671 0.0156876 0.00992424 0.0493255 -0.0191396 0.00466071 0.0540068 -0.0357848 0.0958554 0.0310394 0.00369445 0.0797392 0.0187388 0.0075596 0.0658493 -0.00994868 0.0172844 -0.0547672 -0.0156841 -0.0742004 0.108498 0.0183723 0.0410205 -0.0277878 -0.0695043 0.0192292 -0.0206895 0.0846629 -0.0259409 0.00368856 -0.00638782 -0.0235138 -0.0585373 0.0225796 0.0977478 0.0227506 0.0584737 0.00884094 -0.0609379 -0.00814165 -0.0617885 0.00673701 0.00838203 0.061215 0.0601961 -0.0750587 -0.0329233 0.045221 -0.0202862 -0.0475051 0.0840656 -0.0603801 0.0188413 0.033706 -0.0161771 0.0265602 0.0078883 0.0424414 0.0275458 0.0431042 0.000424848 -0.0559213 0.114767 0.0105406 -0.0338346 -0.0101957 0.0627489 -0.0654971 0.0220901 0.0188368 0.0279961 -0.0753171 0.0357724 0.0603779 -0.137884 -0.0381026 -0.0977832 0.0848378 0.0672648 0.0143632 0.0836154 0.0962021 0.0933256 -0.0575056 0.049256 0.0356262 -0.0151964 -0.0150176 -0.0246309 0.0940686 -0.0590837 -0.0213872 0.0499125 -0.0767136 -0.034861 0.000725162 0.0459355 0.0328231 -0.0377692 0.0223308 -0.0252729 0.028544 -0.00632708 0.0597205 -0.0840533 -0.066015 -0.0292474 0.0915876 0.00313596 0.00646633 0.0320024 -0.112423 -0.00757839 0.0553269 0.0661595 -0.0622795 -0.112301 -0.0151007 -0.0332014 0.0334543 -0.00280183 -0.056739 -0.113764 -0.0550138 0.0429013 -0.0549201 -0.0527027 -0.0164885 -0.000167065 -0.0494792 -0.0553927 -0.0366171 0.0565024 -0.0440403 0.0255964 0.0124253 0.0177153 -0.100259 -0.104234 0.0334557 -0.00912018 -0.0255718 -0.00882676 0.0157781 -0.0976549 0.147112 -0.0782254 0.160308 0.00716728 0.103847 0.0235717 0.0200033 -0.00630163 0.00462574 0.0426346 0.0385319 -0.0995758 -0.0501327 0.043506 -0.0463485 -0.00477316 0.0786399 0.0526894 0.0157853 -0.00267968 -0.0405403 -0.0648681 0.141766 0.0159849 0.00119261 -0.0463637 0.0581093 -0.00111742 0.0852949 -0.00522032 0.0314805 -0.0601733 0.0123605 0.012559 -0.0191984 -0.00476859 -0.0379179 -0.0872549 -0.0866083 -0.102453 -0.0811717 -0.012511 -0.0593917 -0.0164851 0.0398148 -0.111815 -0.0395884 0.0342537 0.0113573 -0.0245613 0.0683638 -0.0114457 0.037544 0.0544917 -0.0400314 -0.000640083 0.0532303 0.109322 -0.0820113 -0.00494556 0.0106109 0.0864594 -0.0810079 -0.0110905 -0.0351297 -0.000734635 0.0235046 0.0752687 -0.113385 -0.129961 0.0907939 0.110135 0.0537826 0.0108878 -0.0952969 0.0195909 0.0504104 0.079568 0.00789896 0.0795455 -0.00618106 0.0571136 0.0642624 -0.0258235 -0.0110971 0.0319921 0.000280421 -0.00881278 0.086755 -0.0196809 0.0284214 0.0643357 0.139917 0.0243875
na 0.0277496 -0.000881189 -0.0703808 -0.0341418 -0.017191 0.0694358 0.000272528 0.0362051 0.103918 -0.049513 0.0603112 -0.0351256 0.0851812 0.0278372 0.0278427 -0.0342958 -0.0511193 0.00469724 0.0559366 0.0852043 -0.0458666 -0.0302206 -0.117322 -0.0347805 -0.066568 -0.0377332 -0.00816154 0.0242362 -0.0379506 0.0081627 -0.0234187 0.041423 -0.100648 0.0316543 0.127492 -0.0678479 0.0042031 0.0134272 0.144175 -0.0217739 0.0665192 0.0556396 -0.0509738 -0.0562256 -0.00961819 0.0385316 0.0572638 0.0534633 0.0371007 -0.0997376 0.0193007 -0.0754551 -0.0485547 -0.00338279 -0.00666252 0.0985603 0.0157979 0.0398171 -0.0387812 0.0285309 0.0263133 0.00988123 0.0939001 -0.0415765 0.000762281 -0.0158609 -0.0643488 -0.0483354 -0.0258613 0.00463214 0.00378313 0.0180205 0.0383058 0.0021807 9.2872e-05 0.0565234 0.0771252 0.0192664 -0.0181655 -0.109101 -0.0479147 0.0415594 -0.0225921 -0.0180002 -0.0275069 -0.00796102 -0.00386886 -0.0305582 0.0755533 -0.0928593 0.00673948 0.107589 0.131743 -0.107183 0.0759921 -0.0686284 0.0536873 0.0188528 -0.100507 -0.0664482 -0.0778387 -0.128231 0.0436014 0.0635247 -0.126338 -0.0364905 -0.0214268 0.0317691 0.176281 0.0714625 0.0200169 0.0327773 0.0353892 -0.0452433 -0.0236866 -0.0754344 0.0637058 0.0407244 0.0154221 0.0359127 0.0475755 0.0452519 0.0139514 0.0738365 0.0420487 -0.0192671 0.0107295 0.0127726 0.00576502 0.110869 0.0185526 0.12506 0.0100799 -0.0518259 -0.0561181 -0.0449957 -0.0199836 0.0631465 -0.035641 0.0741472 -0.0324923 0.0677531 0.0265 0.00652805 -0.00882044 0.0826854 0.00331117 -0.00579669 -0.0218086 0.00716462 0.0509821 -0.072689 -0.0565073 -0.0441721 -0.0215754 -0.0858303 -0.0772909 0.0555766 0.0500075 0.0057603 -0.114347 0.0109593 -0.0387366 -0.0412133 0.105163 -0.031324 -0.0997593 -0.0658216 0.103268 -0.0995024 -0.084276 -0.0675438 -0.0798772 0.0167247 -0.0486028 0.0313911 0.0155277 0.0959994 -0.0979623 -0.0640677 -0.0886658 -0.00869981 0.0192064 -0.0248255 -0.059003 0.0608068 0.0498468 -0.0449165 -0.0163183 -0.0388371 -0.0890346 -0.0468105 0.134921 0.0138436 -0.0222369 0.0231866 -0.0195301 -0.0142506 -0.0191942 0.0213856 -0.0373693 0.0371083 -0.0248182 0.063152 0.0638477 0.00866368 -0.0598369 -0.0127261 0.0475804 0.111089 0.157684 -0.00190733 -0.0418955 -0.00448889 -0.0583468 -0.0210772 0.00631342 -0.0599965 0.0675935 -0.0275222 0.0115221 -0.00619918 -0.0150785 0.0520227 -0.0765411 -0.0220598 -0.0114355 0.00231348 -0.00847703 0.00904053 0.00237088 0.0095221 -0.154369 0.0784032 0.100234 0.0607853 0.0387324 -0.0626355 -0.0325819 0.0178058 0.0359342 0.0165335 0.0880945 0.0192028 0.00898179 0.10234 0.1142 -0.0368099 0.0994463 0.0925928 0.00973646 -0.102922 -0.0241099 0.000683542 -0.164558 -0.0215147 -0.00501918 -0.108969 -0.0363116 0.023278 -0.0104823 -0.055492 -0.07373 -0.0106612 -0.0340132 -0.0305325 -0.00190479 0.0226263 -0.016653 0.011724 -0.0602285 0.0023896 -0.00596792 0.0581432 0.017161 -0.0644963 0.0979816 -2.30994e-05 -0.0010448 0.0205349 0.0363243 -0.00130402 0.0212078 0.0600519 0.103164 -0.00456078 -0.00788068 -0.0242768 0.0566628 -0.0226932 0.114623 0.0153696 0.0344048 0.00494839 0.0281032 -0.00190976 -0.0485052 0.028074 -0.0142846 -0.0127972
score -0.078823 0.00373353 0.0377775 0.0684093 0.0299095 -0.103506 0.0744035 0.00259439 -0.0790539 -0.0259459 -0.000690181 0.0191749 -0.0839957 0.00988216 -0.0228373 0.0647014 0.00929516 0.0996914 0.0903641 0.106489 0.0173541 -0.0213861 -0.00971081 -0.0404654 -0.099345 -0.0306424 0.00146394 -0.0216378 0.080422 0.0929416 -0.0726342 -0.00535056 -0.0838133 0.0967688 0.0853467 -0.0594238 0.0802739 0.00908486 -0.0243837 0.0166767 -0.103828 -0.00156989 0.0730193 0.0381156 0.125999 -0.00589824 0.0763093 -0.00675438 0.0378616 -0.0658996 -0.0237642 -0.0915467 0.00847227 0.0178512 0.0806919 -0.0364001 0.128502 0.0191875 -0.10227 0.0318286 -0.0211972 0.0521845 0.108311 0.0308705 -0.0239014 -0.00348702 0.0111857 0.0654078 -0.115545 -0.0458815 0.0263206 0.00296966 0.129157 0.0481504 0.0495854 0.130117 -0.0355164 -0.034626 -0.0181705 0.0253821 -0.0560724 0.0123845 0.0479105 -0.0256402 -0.0611609 -0.0167579 0.0922641 -0.00917357 0.0557319 -0.0152215 0.0118419 -0.0793645 -0.0386819 -0.00656937 -0.0405664 0.0260477 -0.0447334 0.0200688 0.0107054 -0.105556 0.0500817 -0.0317737 0.0717387 -0.0166249 0.140844 0.0388949 -0.0408401 -0.0259505 -0.00450469 -0.0489745 -0.0739703 -0.000317238 0.0483996 -0.0477714 0.011336 -0.0667023 0.0826258 -0.0121049 -0.0187856 0.0512604 0.0442229 -0.0647603 -0.0562062 0.0386505 -0.0633609 -0.0955721 -0.0473846 -0.00722744 -0.0555149 0.0659614 -0.0376351 0.0290045 -0.0323707 0.0588301 0.0472375 -0.0593993 -0.0356133 -0.01168 0.0719199 -0.00963265 -0.00163654 -0.0339221 0.00967825 0.0545992 -0.066675 0.127283 0.00142657 0.0964011 0.0182822 0.0462503 0.0831705 -0.0613545 -0.0913352 -0.00354148 -0.0687806 -0.0185716 -0.00134896 -0.0221075 0.0479818 -0.00811538 0.0108227 -0.0383452 -0.00946675 -0.029442 0.0511388 -0.0213783 -0.0320319 -0.0339789 0.0724368 0.0559766 -0.0889452 -0.0113864 -0.0469242 0.086064 -0.0593335 0.0412656 -0.117887 -0.0409319 -0.0488477 -0.132968 0.0463438 -0.0410323 -0.0163988 0.0272064 -0.0226699 0.0351017 -0.00408697 -0.0402826 0.0754853 0.0449353 0.0646397 -0.0383173 -0.0373379 0.106521 -0.0209784 -0.0749124 -0.0628593 0.0602428 -0.077356 0.0257939 0.104019 -0.00350531 -0.0292778 0.00112345 0.0481043 -0.0292958 0.0240919 -0.0593168 0.145226 0.0626223 0.111493 0.0226099 -0.00119914 -0.0448463 -0.0253657 -0.000212519 0.0693161 -0.199289 0.0333862 0.0373688 0.0279815 0.0325534 -0.04534 0.0699931 0.000486086 -0.00588182 -0.0233996 0.00810661 0.00865809 -0.0152696 -0.00597452 0.0881978 -0.0326085 -0.0225869 -0.0728896 0.102232 -0.0218811 -0.0679445 -0.0418287 -0.0265965 -0.0602867 0.0123448 -0.0318361 -0.0969131 -0.0399241 -0.00240116 0.0444332 -0.00860391 -0.142218 -0.0321385 0.0495998 0.038017 -0.030675 0.0114458 0.0994769 -0.000251646 0.026559 -0.117717 0.0247757 -0.0267003 -0.053739 0.0765907 0.0542858 0.0151162 -0.12585 -0.00345932 0.0109867 0.0364806 -0.0477778 0.0252282 -0.116049 0.00574366 -0.0286762 0.0228811 -0.0376356 -0.0358957 -0.0250585 0.0623391 0.0213325 0.0517761 -0.00798379 0.0978491 0.0743756 -0.0220759 -0.0760287 0.0210523 0.0982969 0.0869806 -0.077601 -0.0176917 0.0424096 -0.0265606 0.0672151 0.0205685 0.0302526 -0.0247285 -0.00586027 0.0118226 0.0312887 0.0096358
se 0.0221645 0.048066 -0.0605826 0.062511 0.00588991 -0.0778521 0.0671183 -0.0368755 0.0390828 0.0360197 0.0539405 0.0352363 0.0516553 0.00965791 -0.000153476 -0.0259686 -0.024272 -0.070864 0.0355522 0.0634815 -0.0265016 0.0559658 -0.0369905 -0.0428314 -0.0623741 0.030356 0.00327368 -0.000166612 -0.0905818 0.0643759 0.00509357 0.1407 -0.18314 0.0134429 -0.0360087 -0.0634796 -0.0249311 0.00947946 0.0693723 -0.0185888 0.0550251 -0.0213805 0.0163734 -0.0740243 -0.00305547 0.104732 0.0071437 0.0471333 0.0373316 -0.0564671 -0.0459862 -0.0371396 -0.0611634 0.0324468 -0.0462672 0.0460663 -0.00239958 0.0596759 0.0623572 0.0638244 -0.0593679 -0.0503985 0.0204828 0.0935286 0.0345212 -0.0907688 -0.10257 0.0172925 -0.0660411 0.0634831 -0.0382475 -0.0127307 0.0332775 -0.00401669 -0.0583579 0.0363117 0.0838932 0.0386381 0.0212809 0.00650606 0.0321719 -0.00670044 -0.132228 -0.0447115 -0.0375306 0.0559754 -0.0208514 0.0197122 0.0381144 0.0258235 0.0351796 0.0602531 0.19944 0.00685895 -0.00436258 0.0617695 0.0878199 0.0763093 -0.0250785 -0.0166248 0.0603366 -0.0385079 0.0870746 -0.040453 -0.0779699 -0.114359 -0.114159 -0.0135518 0.0820895 0.085567 -0.0573768 0.0222142 -0.036477 -0.0197678 -0.0444138 -0.0375577 0.146838 -0.0239062 0.00894252 -0.0549499 0.0536532 0.0266854 -0.0246575 0.0659862 -0.00273095 0.00504606 0.130818 -0.0423311 0.0213414 0.0700404 -0.0996235 -0.0468566 -0.0531652 -0.076689 -0.0315774 0.00638783 -0.0275739 0.0831467 -0.00777828 0.0829952 -0.0169316 0.0303237 0.0649717 -0.0619318 0.021763 0.115109 -0.00885434 0.0249446 -0.000488842 0.00489676 0.0248656 -0.0865208 0.0037771 0.0191998 -0.0556358 -0.123356 -0.0101213 0.00567811 0.0576234 -0.00632257 -0.085341 0.125294 -0.00758738 0.133582 0.0588542 -0.0107227 -0.0296795 -0.121194 -0.0160385 0.00138177 -0.0769297 -0.0543286 0.0597337 0.0146231 0.0541482 0.150175 -0.0261185 0.0407473 -0.0186244 -0.0832385 0.0393062 -0.0115671 0.0584187 -0.00263969 -0.0690038 0.0295786 0.0294409 0.0321682 -0.00453545 -0.035878 -0.00680983 -0.11868 -0.0166348 0.00435183 -0.0628456 -0.0125849 -0.0166473 0.0758303 -0.0882784 0.00746236 0.00454365 0.0956785 0.0877717 0.0668224 0.0629156 -0.0147766 0.00863924 -0.00241004 0.0829054 0.0660238 0.0941705 0.0376078 -0.066436 -0.016427 -0.0333787 0.0326334 -0.0822034 0.0247275 -0.00823225 -0.0191965 -0.100922 -0.0802622 0.043485 0.0338217 -0.0178439 0.0595741 -0.0779215 -0.0556252 -0.084808 -0.0325721 0.144909 -0.0367487 -0.103569 -0.0288648 0.0408816 0.041446 0.044094 -0.00396989 0.0578732 -0.113979 0.0251889 0.00299938 0.0142049 0.0396935 0.0372309 0.0231558 -0.0225462 0.0273636 0.0652501 0.0529475 0.0466227 0.024368 -0.0176495 -0.0600512 -0.0766585 -0.0453695 -0.00503663 -0.128926 -0.00806292 -0.00881879 -0.0233283 0.0710329 0.00643677 -0.0677671 0.036853 -0.066527 -0.00232269 0.0973189 -0.0300774 -0.0271808 -0.0616329 0.020262 0.0490294 0.0393916 -0.0178012 0.0537478 0.0790492 0.0281888 0.0586671 -0.00101801 0.0168302 -0.0220634 -0.0388671 0.0101865 0.088136 0.0317455 0.0879404 0.0926551 -0.03687 -0.00510506 -0.0227193 0.0295193 0.010608 0.034318 0.0238353 0.0548626 0.0444436 0.0197545 0.0536043 0.0217513
so -0.0449031 -0.0342804 -0.0771348 0.0634136 -0.0182375 0.0662157 0.0296474 -0.131106 -0.0225765 -0.0103407 -0.018425 0.0666526 -0.007836 0.00892137 0.0292336 -0.134222 0.09825 -0.0199065 0.00631341 0.0254904 -0.104786 0.00820823 -0.110161 -0.0971171 -0.0762969 0.0571069 0.0052157 0.0276588 -0.00727634 0.0169288 -0.0327371 0.0335811 -0.0564435 0.0875004 0.11812 -0.0197377 0.0106525 0.00914704 0.0149426 -0.0345716 -0.0138324 0.00826277 0.0248242 -0.0093877 0.0160613 0.0091472 0.000931837 -0.00733224 0.0244657 -0.0163818 0.0147276 -0.0255043 -0.0187633 0.0806046 -0.0966403 0.0270696 -0.0226628 0.0546345 -0.0875946 0.0702094 -0.0213431 0.0340237 0.100677 -0.0100401 0.0780792 -0.0473524 -0.143162 0.0350803 -0.0937981 0.0309316 -0.0213402 -0.024469 -0.0234562 -0.0886324 0.000870939 0.0600101 0.0622943 -0.0401531 -0.0148112 -0.175407 -0.0399462 -0.0272593 -0.0126417 0.122308 0.0265929 -0.0295678 0.0493585 0.0733781 -0.00147386 0.00207414 -0.0936512 -0.00321403 0.0597497 -0.182576 0.0226609 0.0381667 -0.00377382 -0.0569155 0.0585566 -0.0453391 -0.0376744 -0.00900945 0.0368388 -0.026227 -0.0808857 0.00842259 -0.0368892 0.0953796 -0.057898 0.000592437 -0.0075646 0.0271389 0.0667892 -0.00357951 0.0372899 0.0939334 0.0545669 0.0671682 -0.113436 0.0432064 0.085763 0.0440037 0.0206827 0.0926468 0.0478899 -0.0391123 0.116866 0.00217142 -0.0183001 0.143749 -0.0145533 0.0562049 -0.0664536 0.056369 0.0184049 0.0069858 -0.05972 0.0137804 -0.0348162 0.0090407 0.0531287 0.0562587 0.0271967 0.00296372 0.0949915 0.0859298 -0.0408531 -0.0761514 -0.0392889 0.00748071 0.0385031 -0.117895 -0.0411694 0.028518 -0.0613591 -0.0889917 0.0657308 0.09797 0.1417 -0.0141083 -0.0699316 0.0791736 -0.0498606 0.0515082 0.0613058 0.0478427 -0.0234162 0.0171928 0.136498 0.043555 -0.0141391 -0.0517298 -0.00731368 0.0123279 -0.0130158 0.136121 -0.012757 0.0208636 -0.0124197 0.0411389 0.0109599 -0.0295442 0.0195167 0.0138311 -4.1874e-05 0.0455418 0.00029755 0.0218534 0.0222424 -0.00699036 -0.00722968 -0.105231 -0.060354 0.074188 -0.0251458 -0.0367701 -0.0304054 0.0118589 0.00903607 0.0607286 0.0212109 0.00481777 0.0064957 0.0448253 0.0847949 -0.0402217 -0.0827311 -0.0308185 0.0219117 0.0104349 0.123369 -0.0466351 0.000415779 0.0296555 -0.020027 -0.10778 -0.0156067 -0.00732988 -0.00354727 0.000638411 -0.0387382 -0.0755047 0.0653524 -0.0265886 -0.01145 -0.029904 0.0131333 -0.143133 -0.0410981 0.0289816 0.00418642 0.00560809 0.0341141 -0.0277245 -0.0762763 0.0500214 0.0149983 0.0222853 0.0135693 0.00344933 -0.0504001 -0.139321 0.0793785 -0.0189384 -0.0370339 0.0677411 0.064803 -0.106455 0.0323311 -0.00999796 -0.0378089 0.0584813 -0.0470011 -0.101265 -0.0603349 0.06669 -0.0174882 -0.0247256 -0.0573981 -0.0313739 -0.036091 0.01032 -0.13673 -0.0555133 -0.093617 0.0116216 -0.0918056 0.0753734 -0.0560588 0.0328905 -0.0690408 0.0429087 0.0676721 -0.0225385 -0.0605404 0.0277765 0.0304895 0.0221665 -0.0549652 -0.0110629 -0.0207722 -0.0444499 0.0569393 0.0859358 0.0300223 -0.0363886 -0.0106519 0.0353842 -0.059984 0.0846791 -0.0590295 0.00876644 0.00363136 0.0893813 0.0181648 0.0215707 -0.0916397 0.0465797 0.0682337 0.00904244
za 0.0430931 0.00193875 -0.0314789 0.118387 -0.0349041 0.09868 -0.0261089 0.0504689 -0.0461611 -0.0199623 0.0275035 -0.062334 0.0175101 0.0553382 0.058578 -0.0283914 0.0267949 -0.033051 -0.0119208 0.0731415 0.0331128 0.054197 -0.00490925 -0.0861702 -0.037151 -0.0427529 0.0680849 0.00121695 0.0124803 0.0169737 -0.095517 0.0808375 -0.114279 -0.0268629 0.102175 -0.066271 0.0473839 0.0932073 0.0554212 -0.0173504 -0.0137681 -0.044242 0.0455844 0.0386405 -0.0132875 -0.00402052 0.0325316 0.0352437 0.0282862 -0.045009 -0.101981 -0.0385993 -0.0680725 -0.0462363 -0.0876332 0.0120972 0.0401577 -0.00844025 -0.0139785 -0.0382337 -0.00828043 -0.0520098 0.0847712 -0.088623 -0.0634987 -0.0142098 -0.00226971 -0.00615702 -0.062485 -0.0642006 -0.0658346 0.0758478 -0.0211171 -0.113388 -0.0171909 -0.030014 0.00743059 0.0524976 0.0463855 -0.0772237 0.137837 0.0672455 -0.092267 0.0474135 0.0347995 -0.0726118 -0.0315718 0.0259649 -0.0753996 -0.0584653 0.0298727 -0.102681 0.116487 -0.099713 -0.0604973 0.0414883 0.0218145 0.0857239 -0.0468822 -0.0430291 0.0351239 -0.101371 0.0703252 -0.0370305 -0.132651 0.00184365 -0.0386929 0.00337843 -0.0210899 -0.0621707 -0.0494872 -0.0627486 -0.0730027 -0.0142721 0.0476531 0.00904811 -0.00840103 0.0393878 -0.01504 -0.0504781 0.0522998 0.0266028 0.0322419 0.129734 0.0486716 -0.0605831 0.011717 -0.0822556 0.0109656 0.0331838 -0.00251209 0.0976889 0.0100372 0.0241116 0.0162718 0.0697103 -0.0346072 -0.0161776 0.037706 0.0421374 0.0422464 0.0741891 0.0560432 -0.00235085 0.0234236 0.0511929 -0.00400214 -0.0241185 -0.0215639 0.0385229 -0.0161531 0.0141253 -0.0438832 -0.0589099 -0.11895 0.0133049 -0.0959083 0.0830739 0.0555523 0.0182847 -0.0145147 0.0713196 -0.0154968 0.0562046 0.0917793 0.021063 -0.0297878 0.0320711 0.0342727 -0.0697163 -0.0106067 -0.0409883 -0.0168877 0.040732 -0.0732514 0.0673825 -0.0180595 -0.00847036 0.00317234 -0.0866143 -0.0381953 -0.00578283 -0.0902169 0.0492878 -0.0104267 0.0421162 -0.00784601 0.0325833 0.0537276 -0.0374331 -0.0988035 -0.0775608 0.0444483 -0.00619864 -0.0523586 -0.0511734 0.0617831 -0.0284984 -0.0351155 -0.00465224 -0.0382499 0.0158578 0.0668681 -0.0434651 -0.0318972 -0.0408283 -0.0778203 0.00555303 0.101157 0.0609271 0.0812609 -0.0547399 -0.0356204 0.107468 0.0228023 -0.0205867 -0.116208 -0.0175368 0.0486243 0.146366 -0.00556336 -0.0891735 -0.0115044 -0.00228808 -0.0435331 0.0323273 -0.0480831 0.0260075 -0.053255 -0.0472444 0.0301469 0.0176817 -0.0571264 -0.0902369 -0.0800079 0.0310195 0.00769608 -0.0366198 0.0418747 -0.0206351 0.0360114 0.0533142 0.0671896 0.0405264 -0.03307 0.0380389 0.118501 0.0152279 -0.0118106 0.0751627 0.0235299 0.00793958 0.0186305 -0.0555454 0.0216058 0.080865 -0.131949 -0.0325502 0.0240874 -0.00837192 -0.0192782 0.0369315 0.135094 -0.0791401 -0.11305 0.0363002 -0.120972 -7.65042e-06 0.0115952 0.0617612 -0.152893 0.0257576 -0.0635988 0.0348923 0.0139957 -0.0390188 0.0363578 0.0886426 0.0684933 -0.0172287 0.0368655 -0.000914573 -0.0247032 0.0884651 0.0958795 0.0478871 0.0313913 0.0166225 -0.0896307 0.0381517 -0.000547297 0.0865697 0.0413789 -0.0285772 -0.0152985 -0.0811756 -0.0659463 0.0965158 0.137907 -0.0914921
ki -0.0353829 0.0432629 -0.0667466 0.0509873 -0.0327208 0.0807947 0.052777 -0.0726171 0.00950306 -0.0321255 0.0477722 -0.00949897 -0.0277644 0.0220589 -0.0414925 -0.00648498 0.0455664 0.0189748 0.00854413 0.0645539 -0.0315672 0.0248265 -0.0738851 -0.112042 0.000503541 -0.0306426 -0.00842175 0.00722389 -0.0347814 0.0485329 -0.00909427 0.0556186 -0.058765 0.0772135 0.0538684 -0.0351552 -0.00264936 -0.141903 0.0310633 -0.0377925 0.060116 0.0564502 0.0567997 -0.0476453 0.0572072 0.0308753 -0.00170142 0.0311713 0.0676061 -0.0605006 0.00302931 -0.100717 -0.00910279 0.0418567 -0.0523752 0.0252758 0.0243929 0.0147326 0.0053348 -0.0298737 0.0197401 0.00823212 0.110685 -0.00782379 0.0652325 -0.0486793 -0.0793182 -0.0231019 0.0471467 -0.0572873 -0.0124212 0.00927295 -0.0423356 -0.188654 -0.031861 -0.0313723 0.10546 0.0120403 0.0082705 -0.0521021 -0.0398859 -0.0432795 -0.0269963 0.0126022 -0.0660451 0.0461538 0.00924174 0.0293336 -0.00872967 -0.030925 -0.0259263 0.0504991 0.105902 -0.101935 0.0292271 -2.29613e-05 0.0168868 0.0457557 0.0488799 -0.0119803 -0.02055 -0.102903 0.0905175 0.0322999 -0.119568 -0.0856402 -0.0440437 -0.049159 0.062106 -0.000324878 0.00349379 -0.0717781 -0.0395719 -0.0269033 0.0504815 0.0210036 0.0509243 0.0487282 -0.0285228 0.0317955 0.0499787 0.016359 -0.0341586 0.147541 -0.023093 0.0171477 0.0353576 0.0828793 0.0751602 0.109842 -0.00342238 -0.00522991 -0.0868626 -0.0330777 0.00290493 -0.0859354 -0.0479882 0.0552351 -0.0115066 0.0406892 0.0485717 0.17063 0.1628 0.0272307 0.10745 0.124603 -0.0491848 -0.0101338 0.0395444 -0.0275427 -0.0132028 -0.0206193 -0.0660701 0.0193351 0.023422 -0.0469809 -0.0266979 0.00310254 0.0725506 -0.00998014 -0.0750551 0.0475965 -0.0178913 0.0968716 0.0810854 -0.0494399 -0.0329159 -0.0467911 0.148631 -0.0260319 -0.0706788 -0.00129964 -0.0916505 0.0723955 -0.0147175 0.0615482 0.0661548 0.0354117 0.0197298 -0.00769744 -0.0703022 -0.0243814 -0.020937 0.0981162 0.00878724 0.0750521 0.0423939 0.00278135 0.00176549 -0.0672573 0.035364 -0.0897564 0.0707014 0.0437484 -0.0320095 -0.0687583 0.0050769 0.000488687 0.0309426 -0.00164292 0.0622331 0.0112353 -0.0255742 0.0767908 0.0389767 -0.071153 -0.0158357 -0.0283522 0.0567814 0.0469047 0.163136 0.0135613 -0.0144536 -0.0101176 0.0430066 0.0107952 0.00237379 -0.0883202 0.0928831 -0.0688501 -0.0954445 -0.0511609 -0.110146 0.0710687 -0.00758102 -0.0988115 -0.0257042 -0.0885125 -0.00633307 0.0117926 0.108619 0.0111238 -0.0195498 0.027878 0.0157165 0.035855 0.00266689 -0.0257425 0.00624037 -0.0292265 0.0317939 -0.00731869 -0.00576434 -0.0449881 0.00226276 0.0548849 0.0392953 -0.0491403 0.0205378 0.081994 -0.0540677 -0.000938128 -0.00457084 -0.0576538 -0.119658 0.0271527 -0.075766 -0.00635357 0.0908353 -0.06571 -0.0275971 0.0525215 0.0203466 -0.0160179 0.00225371 -0.0248266 -0.0643917 0.000788361 -0.0178782 -0.0675164 -0.157685 0.0910888 0.0443196 -0.00857898 -0.0814467 0.033318 0.0616205 -0.0022261 -0.0239956 -0.0411323 0.0697885 -0.035361 -0.0852358 -0.0896889 -0.00126459 -0.0980062 -0.0094599 0.161815 -0.0354556 0.0419097 0.0566305 0.00718615 0.0544751 0.0731976 0.0196739 0.031459 0.0590197 0.0687843 0.0677596 -0.0529647
tudi -0.0579189 0.0228276 -0.0520627 0.0472281 0.0195171 0.00691949 0.0652778 -0.080255 0.0695996 0.0469547 0.0645602 0.0404142 0.0413091 -0.00745029 0.0102878 -0.0308016 0.0130051 0.0543854 -0.0455262 0.00809082 -0.000161011 0.139702 -0.0234961 -0.0314467 -0.0285931 -0.0513251 -0.00122035 0.0417197 -0.0221134 0.0801131 -0.0307525 0.0251114 -0.0261654 0.0823246 0.0461318 0.0111101 0.0175409 -0.00788246 0.00798326 -0.00603321 0.0376449 0.0224184 0.05839 -0.0131271 0.0264976 0.0185571 0.00485177 0.0076747 0.0414777 -0.0705618 -0.0209026 -0.0460616 -0.0224097 -0.0167651 -0.126409 0.0347259 0.0701742 0.036208 -0.12358 0.0474104 0.0279015 -0.0263737 0.105351 -0.0330828 -0.0314675 -0.0186904 -0.114687 -0.0538323 0.0719579 -0.0316244 0.00599995 0.070257 -0.0805656 -0.110005 -0.064967 0.0191719 0.0597567 0.138729 -0.0390808 -0.0259269 0.0698851 0.0368573 -0.0778998 0.00722861 -0.0591743 -0.0829413 0.0170907 0.0524535 -0.070774 -0.0392425 0.0502056 -0.00749527 0.153193 -0.117664 0.0123705 0.013189 0.00316527 0.0300158 -0.0743417 -0.0521158 0.0632131 -0.043209 0.127187 -0.037101 -0.0228445 -0.0421752 -0.031812 0.0372018 0.0663991 -0.0337033 -0.016238 -0.0213049 -0.100612 0.0192509 0.00506447 0.0412288 0.0527596 0.0819195 -0.00903567 -0.00549219 0.170576 -0.0016603 -0.0629333 0.121758 0.00653405 0.0410979 0.198045 0.00277586 0.0200234 0.0693874 -0.0259791 0.0555616 -0.0248056 -0.0250727 -0.0393821 0.0758044 -0.0998955 0.0402178 -0.0643819 0.0345223 -0.00186936 0.0267111 0.0324835 0.00826658 0.0286698 0.147404 -0.0369669 -0.0142811 0.00258647 0.0838363 -0.0361789 -0.0830408 0.0912382 -0.0447881 -0.010274 -0.0404547 0.000675931 -0.0538141 0.127775 0.0338011 -0.0463528 0.0869973 -0.00909688 -0.011614 0.137693 -0.0270258 -0.0682317 -0.00975023 0.0585185 -0.0111392 -0.0467646 -0.0145668 -0.0869219 0.0305265 -0.00785983 -0.00455925 0.0483764 -0.0338937 -0.0295211 -0.0423461 0.0373583 -0.00539683 0.0217883 0.0929958 -0.0839078 0.0653773 0.00825671 -0.0110787 0.113765 0.0205746 -0.0696594 -0.0843753 0.00569224 -0.00880676 -0.0346753 0.014548 -0.0411254 0.0488019 0.0138519 -0.0642009 0.0174371 0.0428227 0.0706342 0.00602431 -0.00720104 0.00380029 -0.0959426 0.0108532 0.0740866 0.108771 0.100964 0.0457941 0.0631282 0.0301346 -0.00467646 -0.0257263 -0.0197601 -0.0258265 -0.0177493 0.0494015 -0.0667551 -0.0980757 -0.129056 0.00407272 -0.0589959 0.00775883 -0.0777269 -0.00301364 0.0178749 0.0734484 0.0313531 0.05422 -0.0342372 0.0114637 -0.020558 0.0553686 0.0311346 -0.0578545 -0.029455 -0.0192138 -0.0433777 -0.0432299 0.0217435 0.0425932 -0.0935257 0.076638 0.118847 0.0183497 -0.0424851 -0.0157313 0.0116728 -0.0630651 0.0011615 -0.0672239 -0.0560149 -0.0107742 -0.062737 -0.00656052 -0.0178577 -0.0522437 0.0210298 0.0440046 -0.00148349 -0.0841068 -0.0962738 0.00445003 -0.0627242 0.146944 0.0421307 -0.00998742 -0.111123 -0.0598991 -0.0158169 0.038459 -0.0458995 -0.110282 0.0146723 0.0161636 0.0453985 -0.00624183 0.105256 -0.0457051 -0.0651694 0.0786276 0.101299 -0.0478445 -0.00561802 0.0393375 -0.0730623 0.0316298 -0.0405948 0.0390284 0.0534782 0.0429957 -0.0132731 -0.00724012 0.0443863 0.0820356 0.0591148 0.0448373
z -0.0488036 -0.00885483 -0.0207191 0.0978261 0.0203173 0.0364247 0.0808112 -0.0553049 0.0205171 0.0435767 -0.023582 0.0575202 -0.077037 -0.0640122 -0.0636655 -0.0256532 0.0238442 -0.0821575 -0.00209545 -0.0201716 -0.0347562 -0.00260683 -0.0465687 -0.140585 -0.000602634 0.000934821 -0.0192668 0.0260895 -0.0424641 0.0086982 -0.124586 0.162656 -0.0126483 -0.0101865 0.0338443 0.0270152 0.0133041 0.0372105 0.0414453 -0.10124 0.140905 -0.0307669 0.094128 -0.0267314 -0.0432396 0.0107883 0.00854109 0.00540107 0.0622154 -0.0629942 -0.0231022 0.0418002 -0.0366753 -0.0137898 -0.037727 0.0078076 0.0717626 -0.0165705 -0.103544 0.0282708 -0.0285445 -0.131525 0.0107317 -0.0492125 0.00753745 -0.0224986 -0.0797864 0.0117964 0.0507968 -0.0469865 -0.0943634 0.129454 -0.0224336 -0.0356423 -0.0355566 0.0947067 0.116907 0.087218 -0.0324803 0.104352 -0.010372 -0.0376509 -0.0260598 0.00995163 -0.0240084 0.0143019 0.0552116 0.0327952 -0.0170466 0.00826586 -0.03983 -0.00335682 0.00297615 0.00703517 -0.0200833 -0.0892228 -0.0188995 0.0115646 0.0530751 -0.139202 -0.0270452 -0.0505312 0.00273765 -0.1603 -0.0309258 -0.0563594 0.0477979 -0.0404593 0.113971 0.097141 0.014205 0.0915961 0.0445515 -0.024759 0.0268613 -0.0136875 0.042818 0.0697585 0.00678064 0.0555271 0.0585458 0.0296675 -0.112324 0.14257 0.102914 0.0142904 0.0552713 0.101563 0.0698741 0.0346574 -0.0527632 0.126741 -0.037234 0.0203523 0.0611798 0.0637464 0.103154 0.0696686 -0.0638666 0.0695234 0.0279237 0.110962 -0.0014645 -0.00816459 0.0422871 0.1464 0.00847745 0.0117066 -0.0640797 -0.0273403 0.0362454 -0.0229912 -0.0199585 -0.066449 -0.0424609 -0.0953255 -0.0342894 -0.0265936 -0.0548423 0.0384392 0.00317131 0.0314167 0.005723 0.0167841 -0.100953 -0.00461028 -0.0176863 -0.0123223 0.0520923 -0.0551197 0.0297577 -0.0560068 0.0186933 0.00864468 -0.00982377 0.0720773 -0.0131408 0.0366271 -0.00665271 -0.00692178 0.0981406 -0.00689064 -0.0531983 0.018683 0.00970792 0.128907 0.0505465 0.0378539 -0.0794838 0.0520909 0.0257834 -0.0902313 0.0670854 -0.0253297 -0.0247279 -0.0605966 -0.0726753 -0.00758048 -0.0424553 0.0810871 0.0659584 0.0885829 0.0791932 0.00524497 0.035848 -0.0222323 -0.0819897 -0.0308906 0.154637 0.061528 0.12381 0.0428548 -0.0990724 0.0208599 -0.029522 0.0398053 0.099208 -0.092966 0.00311611 0.0644156 -0.029319 -0.0270117 0.0281604 0.0279805 -0.0721622 -0.0521051 -0.0547103 -0.0102825 -0.0291656 -0.0498672 -0.0275913 0.0440519 -0.0211798 -0.0139327 0.00462555 0.0221906 0.0181817 0.0236276 -0.0352298 0.0184503 0.0237788 -0.0364169 -0.00022361 0.0871471 0.0162806 0.0607894 0.0399043 -0.0111935 0.0493919 0.0346303 0.00539108 -0.0199 -0.0218597 -0.0251262 -0.0389633 0.0649705 -0.0851062 -0.0186187 -0.0141797 0.00330129 -0.0384113 0.0434315 0.135229 -0.0169964 -0.0353546 0.0167063 -0.0689146 0.116121 -0.0224257 -0.0357964 -0.0721614 0.00913461 0.000867317 0.00796887 -0.111512 0.0133599 0.0413988 0.0239184 0.0679999 -0.0343805 0.0478549 0.0478441 0.0941265 0.0150917 0.0394916 0.0205426 0.0648118 0.113577 -0.0240616 0.108783 -0.0028495 -0.0123658 0.0201981 0.0612483 0.022342 0.0250894 -0.0202755 -0.0185253 0.00265294 0.00772573
s 0.0147047 -0.072688 -0.00114547 0.0678632 -0.0118393 -0.0467027 0.0627033 -0.0366871 -0.0161637 0.0675527 -0.0397029 0.0211335 -0.0208451 -0.0385654 0.0316677 -0.0619399 0.00800169 -0.127727 0.000767906 0.0619357 -0.019759 0.0183969 -0.0683137 -0.00179757 -0.0420748 -0.00865871 0.00522216 0.0775147 -0.0797726 0.0853887 -0.012303 0.136728 -0.0379307 0.0237385 -0.0337137 -0.0701702 -0.0419725 -0.0233742 0.0427768 -0.0658918 0.140115 -0.0179892 0.0776388 0.0384151 -0.0125666 -0.0297281 -0.00145146 -0.0421726 0.0700143 -0.0394144 -0.00153775 -0.0202905 -0.0258349 -8.76402e-05 -0.00691209 0.140345 0.0659952 -0.0195647 -0.0881377 0.0100623 -0.0297505 -0.0672233 -0.0482348 0.0587539 0.00804505 -0.0567649 -0.00804705 -0.0566384 -0.0497925 0.0458248 0.0108702 0.0632995 -0.0679929 -0.0659705 -0.0175626 -0.0172029 0.103975 0.0949893 -0.0471963 0.0240483 0.0126712 -0.0116333 -0.0665752 -0.0614475 -0.0155241 -0.0322217 0.0971436 0.0931931 0.00476108 -0.0463645 -0.0711844 -0.00811322 0.056261 -0.172737 0.00866644 0.0377352 0.0465476 -0.0261294 -0.042205 -0.0985715 -0.0637615 0.0336975 0.0266081 -0.0757609 -0.0567592 0.0624738 0.0591366 0.00718282 0.101783 0.0213314 -0.0358975 0.0636208 0.0301552 0.0261056 0.0815696 0.00888972 -0.0214931 -0.0284975 0.0548965 0.201695 0.0161806 0.0800523 -0.0384231 0.0946008 0.0347614 -0.047546 0.0258479 -0.00776267 -0.00554749 0.117994 -0.00518284 -0.0112946 0.0255844 -0.0272269 -0.0303426 0.0894885 -0.00703704 0.00734287 -0.0162425 0.0523934 0.017833 0.00341494 0.073798 0.0160013 -0.0319858 0.10502 0.0170822 -0.0121067 -0.0669572 -0.0478977 0.0592711 -0.0821986 -0.0314812 -0.0542194 -0.0841861 0.0237681 -0.0139458 0.0527835 0.0143921 0.0648248 -0.00205851 0.044013 0.0479198 0.0597822 -0.0106173 -0.0200437 -0.00161918 -0.0116876 0.0156646 0.050701 -0.0704405 0.0119919 0.00173455 0.0718332 0.0236338 -0.0101445 0.0248473 -0.00508203 0.0492011 -0.0793669 0.0782899 -0.0726402 -0.0862228 -0.035154 -0.0612504 0.0326972 0.00844839 -0.0224024 -0.0799664 -0.0365009 0.0551414 -0.0930145 0.145125 -0.042898 -0.0396856 -0.0577046 -0.0731027 0.019923 0.033413 0.0616183 0.114577 0.146487 -0.00220591 -0.09277 0.0444983 -0.0751187 -0.0633658 0.0221524 0.144097 0.0401598 0.000953697 -0.0423554 -0.0793696 0.0746552 -0.0716822 0.0445038 0.0689377 -0.0428803 -0.0567781 -0.0195218 -0.0335424 -0.0580325 0.0155509 -0.0106246 -0.0847761 -0.021391 -0.0923905 -0.0271841 -0.0552965 0.0287124 -0.047 -0.0677364 -0.0574111 0.0130877 0.0235496 0.0156808 -0.0253324 -0.00823559 -0.0474207 -0.0420109 0.00861551 -0.0494274 -0.0135576 0.0429087 0.0229958 0.00370736 0.125305 -0.0202039 0.00673549 0.0125111 0.0403412 -0.017448 -0.080894 -0.00639764 -0.013749 0.106532 -0.0925825 -0.12536 0.0942697 0.0386718 0.0385994 0.0388733 0.0849325 -0.0249009 -0.0636919 0.00489468 1.38831e-05 0.0246814 0.0324536 -0.0634868 -0.00725048 -0.00948137 0.012303 0.00906458 -0.167125 0.0675744 0.0257175 0.00196529 0.106958 0.00171507 0.0380509 0.0339486 0.0499719 0.00717227 0.0337892 -0.0178916 0.157239 0.0753121 -0.0679426 0.0097172 0.00563048 -0.0570166 0.0375993 0.142356 -0.0092529 0.045471 -0.0355968 0.0221359 0.0102828 0.0255666
leta -0.00693212 -0.00680775 -0.0187133 0.0678972 -0.0758717 0.0229934 -0.043728 -0.042114 0.00086387 0.172762 0.133368 0.0110297 -0.0427434 -0.0016778 -0.0294966 -0.0612585 -0.0340672 -0.0283747 0.01009 0.050519 -0.0845747 -0.00399166 -0.0880097 -0.139132 -0.0472542 -0.0760844 0.0109767 -0.0425585 0.0889393 0.0426228 -0.0906293 0.0104799 0.0562346 0.0439995 0.0602651 0.0664258 0.0326652 -0.0333491 0.131143 -0.0356033 0.0492406 0.0175441 0.019497 0.016592 0.0953367 -0.0899367 0.0314693 0.0329232 0.0426395 -0.0269201 0.0690566 -0.0348413 -0.0502925 -0.0194778 -0.0608396 -0.101564 -0.0227111 0.102741 0.0754071 0.0215644 0.0114426 0.0661813 0.00727938 -0.012706 0.0381137 -0.0169845 -0.146646 0.0451611 -0.0463884 -0.0063589 0.0699598 -0.0319899 -0.117843 -0.0452445 0.00994921 -0.0510617 0.109266 0.0513066 0.0250012 -0.0189227 0.0731928 0.0478326 -0.0210801 0.0403618 0.0104751 -0.0383082 -0.105488 0.090753 -0.0713589 0.00145644 -0.0109866 -0.0160625 0.110839 -0.0637012 0.0658902 0.0258667 -0.0229885 -0.0128698 -0.0576707 0.0212825 -0.0312999 0.0266159 0.0944416 -0.102488 -0.0284336 -0.0862089 -0.061769 0.0784603 0.0765686 0.0228326 0.0204873 0.000529057 0.0150797 -0.0171227 -0.0280168 0.0349661 0.0860202 0.108745 0.0418306 0.0104596 0.149438 0.123724 -0.0273 0.126074 0.031797 -0.0117882 0.025523 0.0712989 0.100968 0.0762996 -0.0506487 0.0571681 0.0223134 0.0303269 -0.0217846 0.0165877 0.0631205 0.00698998 -0.0839109 0.0764882 0.0116881 -0.0198787 -0.0170751 -0.0212982 0.00524071 0.140705 0.0331551 -0.0535781 -0.0174654 0.00289118 -0.00144797 0.0194317 0.00818847 0.0191463 -0.064324 -0.0502338 -0.0700745 -0.0468299 0.0997557 0.0433511 -0.029851 0.102114 0.044086 0.00871699 0.117074 -0.028064 -0.0704074 0.0259395 0.140674 0.0154631 -0.0481883 0.058305 -0.0757612 0.069855 -0.0487275 0.0324745 -0.0673517 0.0724129 -0.0656849 -0.0265917 0.00261434 -0.00577947 -0.0400996 0.0442636 -0.0848685 0.00770967 -0.0765471 -0.0262689 0.0313107 0.0196039 -0.00896455 -0.0736684 0.102533 -0.0267691 0.016641 -0.0176604 -0.077624 -0.0268381 -0.000766785 -0.0478508 0.0114333 0.0218696 -0.0342351 0.00570302 0.0363557 0.0268021 -0.0469773 0.0398273 0.112862 0.0845887 0.116808 -0.175986 -0.0960927 0.0603135 0.00235352 0.000852634 0.00255573 -0.0643617 -0.0216852 0.0354163 -0.00225286 -0.0535011 -0.07301 0.0058558 0.037519 -0.0155721 0.0211561 -0.0956077 0.0421097 -0.00622195 0.0730855 -0.036603 -0.0821987 0.028579 0.0291901 -0.0149228 0.0721004 -0.0734306 -0.128445 0.0160081 -0.0718845 -0.0503963 0.0510827 -0.00523916 -0.0150821 0.0115803 0.0544043 -0.080143 0.0300755 0.0272333 0.0684243 0.00355449 0.0777646 -0.00383109 0.0117504 0.0562501 -0.00724715 -0.0116547 -0.0538131 -0.00426464 0.00207792 -0.0169561 0.0325898 -0.0371211 -0.00721497 0.0275944 0.0335635 -0.0239714 0.090596 0.0158086 -0.0313388 0.0692713 -0.0598317 0.051601 -0.0249155 -0.0313274 0.11475 0.0901745 0.0932985 -0.0069419 -0.0386711 -0.014966 0.0367984 0.0511709 0.0234643 0.0669433 -0.028218 0.0369812 0.00920592 -0.051404 -0.03552 -0.0125985 0.0541291 -0.0137826 -0.00850154 0.0275018 -0.0292559 -0.00644655 0.0226676 -0.0105837
pa -0.00203413 0.041013 -0.0126155 0.02526 -0.00757841 0.0336808 0.0787787 -0.038806 -0.0119991 0.0477807 0.0837122 -0.0391272 0.0217487 -0.0593832 -0.0427823 -0.0931022 -0.0390821 0.0343806 -0.0116043 0.0394807 0.00914531 0.0478611 -0.0409151 -0.0993668 -0.0834214 0.0255267 0.0274961 -0.0198731 -0.0561567 0.0566769 -0.0997531 0.0725457 -0.087551 0.0182658 0.0472704 -0.0074663 -0.0215513 -0.12946 0.0475444 -0.0956658 0.0429683 0.0538357 0.024928 0.0367185 0.00542092 0.0973898 0.0059818 0.0640978 0.0456836 -0.0649382 0.0157254 -0.103998 -0.069507 -0.00304861 -0.137363 0.0204608 -0.105291 0.0942123 -0.0414883 0.0354045 -0.0290068 -0.0874408 0.0146054 2.00178e-05 -0.0668586 -0.0500995 -0.0697991 -0.0736742 -0.00708029 -0.019538 -0.0310296 -0.00774436 -0.0355487 -0.0283244 -0.0488394 0.0353886 0.0818291 0.109279 -0.0416133 -0.00734487 -0.0124905 -0.0358453 -0.0991319 0.0624954 0.0229287 -0.0271018 -0.0305577 0.00692876 -0.062097 -0.0408635 0.0234931 0.00897712 0.0834958 -0.0869374 0.0253144 0.0508956 -0.009047 0.00285886 -0.00540904 -0.0308529 0.00393655 -0.0929592 0.0902903 -0.077413 -0.0655295 -0.105842 -0.0555435 0.0161454 0.0624269 -0.0360649 0.0514325 0.109853 -0.0558347 0.00599216 0.0320207 -0.0459873 0.0928815 0.0609932 0.0109696 0.0368841 0.00281426 0.0477104 0.0443853 0.120608 0.0711754 -0.0375091 0.128418 0.0300119 0.037879 0.0522997 0.00945455 0.100974 0.0356225 -0.0465382 -0.053497 0.0213601 -0.0308616 0.00480605 -0.10001 0.0179484 -0.075126 0.0838927 0.104088 -0.0597911 0.0686899 0.0702601 -0.0507506 -0.0222807 -0.0178774 -0.0536843 0.0274516 -0.0756266 0.0123721 0.00352878 0.019086 -0.0396513 -0.0454936 -0.00994172 0.103888 0.0815095 -0.0706541 0.138102 -0.0501092 0.0622994 0.160775 -0.0310641 -0.0494312 -0.0554033 0.046365 -0.0202939 -0.120454 0.0176509 -0.136652 0.00461832 -0.0293125 0.0475676 0.00737492 0.00320994 0.0125633 -0.034565 0.0155096 0.00827959 -0.00418795 0.0418155 -0.0679795 0.057977 -0.0674942 0.00431667 0.0687091 0.0209928 -0.0712974 -0.0706015 -0.0221985 0.0872621 -0.0339522 -0.0161858 0.032774 -0.0452262 -0.00122842 -0.039954 0.0412451 0.0316132 -0.00986905 0.0802819 0.066623 -0.0554568 0.0519876 -0.0398092 0.0111776 0.0309004 0.145298 -0.0252958 0.00793311 0.0296198 -0.0130526 0.0102415 -0.0770252 -0.0991462 -0.0141558 0.0391798 0.013979 -0.117547 0.0156339 0.0359179 0.00623771 0.0328774 -0.0567077 -0.0078234 0.0364205 0.0519969 0.0757243 0.0520174 -0.0741461 -0.0179145 0.0114526 0.03614 0.038298 0.0498503 -0.0149126 0.0185833 0.000995822 -0.0304242 -0.00183724 0.00937129 -0.010878 0.110403 0.052247 -0.0350145 -0.0571801 0.0558547 -0.0672433 -0.0251628 0.0121555 -0.100282 -0.0307601 0.0432051 0.00852804 -0.0632869 -0.0507021 -0.050767 0.0270065 0.093856 0.00326453 -0.114303 -0.00855497 -0.0263129 -0.0683654 0.068742 -0.0164478 -0.00738536 -0.137079 -0.0104591 0.0197365 0.0514949 -0.0455593 -0.0012381 0.104212 0.0404684 -0.00370214 -0.0590104 0.109303 0.0122371 -0.0978945 0.0158437 0.12419 -0.0871056 0.00151112 0.044223 -0.103479 0.0822882 0.0939207 -0.0377867 0.0802534 0.0486685 0.0355254 0.0183307 0.0268543 0.0390678 0.023488 0.0209171
da -0.102913 0.0942067 -0.0528989 0.0649542 -0.0107761 -0.0172329 -0.108747 -0.0657695 -0.0369242 0.101051 -0.0276115 -0.00509387 -0.0280386 -0.0288183 -0.00607822 -0.0522945 -0.0267195 0.0447748 -0.0597266 0.0603183 0.0363303 0.0101124 -0.0338952 -0.051362 -0.0631231 -0.046016 0.0500415 0.0340934 -0.0544375 0.0773417 0.0103697 0.0619956 -0.071708 0.0609376 -0.0101799 -0.0028746 0.0137017 0.0189416 0.0473951 -0.0843813 0.0471331 0.0935601 0.0119217 -0.00657951 0.0171633 0.0637606 0.0826608 -0.0154602 -0.018662 0.0268593 -0.0406737 -0.0348134 -0.0624914 0.0427976 -0.147203 0.022354 -0.00256846 0.094347 0.00449374 0.0358944 -0.0545689 -0.0469336 0.0743807 -0.0695595 -0.0676705 -0.0878963 -0.0385192 0.0263552 0.0178472 0.0513 -0.0317884 0.0507031 0.0166043 -0.113631 -0.00293166 -0.026099 0.141072 0.056947 0.0676176 0.045733 0.0535569 0.00733095 0.0504304 -0.0164935 -0.0407128 0.0526356 -0.0481279 0.0663555 -0.124794 -0.0606549 -0.00404235 0.00146224 0.0526922 -0.0622783 0.0173405 0.0706002 0.0378892 -0.0152592 -0.0258802 -0.0308516 0.000453202 -0.0451235 0.0143755 -0.0815033 -0.111707 -0.0796581 -0.107209 -0.0835487 0.076428 0.0190992 -0.0262948 0.0130182 0.0495028 -0.0184713 -0.0259009 -0.0581108 0.116587 0.00805377 -0.0324653 -0.0200425 -0.00801638 0.0712022 0.0214543 0.119066 0.03699 -0.0649373 0.0130245 0.0837597 0.0144664 0.0985052 -0.0368819 -0.0590347 -0.0383935 -0.0339813 0.0234322 -0.0121667 -0.0214382 -0.0085156 0.0489877 0.0185259 0.0353468 0.0748914 0.0687605 -0.0709104 -0.0134482 0.0190201 0.0606164 -0.0562929 0.0390541 0.148754 0.0381217 -0.0631908 0.04238 0.0385108 -0.0178448 -0.0206572 -0.0106956 -0.0203006 0.096692 0.0316036 -0.0455417 0.0720631 -0.0390909 0.082298 0.0331509 0.0106195 0.0444232 -0.0592708 0.0756799 0.0268559 -0.0697176 -0.0872917 -0.0670555 0.0191778 -0.0237757 0.0727716 -0.120798 0.116925 0.0368134 -0.0980625 0.0980566 -0.043912 0.0634601 0.138778 -0.0713346 0.015195 0.0054183 -0.056486 0.0520964 -0.0617091 -0.0452207 -0.1599 0.034693 0.0701479 -0.0794639 -0.0138702 -0.020665 0.0215831 -0.117783 0.00698066 0.0256089 0.047614 0.131883 -0.00216851 -0.00357915 -0.0320244 -0.0936924 -0.0171298 0.0746861 -0.0109459 0.105329 0.00902542 0.0953434 0.0133733 0.0441465 -0.0570397 -0.0387563 -0.0705329 -0.00327263 -0.0275251 -0.13435 -0.0565267 -0.000765133 0.0212438 -0.0456066 0.0303508 -0.0740203 -0.0127695 -0.052727 0.0647068 0.058697 0.0330094 0.02809 0.0590421 0.0595419 0.0620261 0.0413461 -0.0333764 0.0654525 -0.0223539 0.0855877 -0.0650606 0.0173976 0.00898362 -0.0255776 0.0442281 0.0102255 0.0192556 -0.0270804 0.0221319 -0.0179696 0.0483457 -0.0689189 -0.047376 -0.033703 -0.0194297 0.0588416 0.00746441 -0.0109651 -0.0280968 0.0344695 0.0358249 0.0275637 -0.0622106 -0.0837851 -0.0796184 -0.0791105 0.0908073 -0.0626031 -0.0278539 -0.104706 0.0351655 0.101937 0.0775245 -0.102241 -0.0556451 0.0748881 0.0198913 0.0309161 -0.00913401 -0.0133389 -0.0438303 0.013687 -0.0659464 0.0544088 -0.0663578 -0.00491683 0.0980428 -0.00354627 0.0184995 -0.0480937 0.0825152 0.00149543 0.00105991 0.0438829 -0.0338369 -0.0287912 0.0627675 -0.00545025 -0.0469501
po 0.0541841 -0.0719708 -0.117105 0.0190014 0.0700137 -0.0121702 -0.0276908 0.00260311 0.0622714 0.0935978 0.018477 -0.00607747 0.0605952 0.0128965 -0.0212643 0.00401969 -0.0132795 0.026949 0.0826538 0.0985153 -0.0186752 -0.0120958 -0.0587644 -0.0360431 -0.088593 -0.0419862 -0.124347 -0.0239622 0.0452718 0.0464672 0.00992939 0.016538 -0.0578242 -0.0212624 0.0626448 0.0174157 0.0562352 -0.113238 0.0197162 -0.0220049 -0.00569305 0.0354624 -0.0137555 0.0435029 -0.0097289 0.0254584 0.0874615 0.0246472 0.00502207 -0.17506 0.0367837 -0.0691696 0.0271468 -0.0182798 -0.00121412 0.0105815 0.0234824 -0.0114297 0.0495099 0.0258027 0.028231 -0.0866577 0.0022303 -0.0416074 0.0675058 0.0340096 -0.173848 0.0108325 0.00783218 0.100001 -0.0113385 -0.0355714 0.0418098 -0.0987562 -0.0255051 0.0484736 -0.00363378 0.0135038 0.1159 -0.0425563 -0.00453454 0.0407767 -0.0160814 -0.0482593 -0.0216511 -0.0205542 -0.0549476 -0.0272421 -0.0454766 -0.100121 -0.113306 -0.00224286 0.0937803 -0.0830147 0.0180233 -0.0597421 0.0143162 0.0239812 -0.0991265 0.0768677 0.0784162 -0.0183729 0.105246 -0.00935114 -0.132267 -0.0640601 -0.0456223 0.00857862 0.0601832 0.11701 0.0602168 0.0852257 -0.0208465 -0.0834925 0.0128382 -0.0623791 0.0879564 0.0854671 -0.0567485 -0.0421933 0.0554845 0.0128311 -0.0206037 0.0420571 -0.0229797 -0.0513898 0.0587239 -0.0891284 -0.0509107 0.0142259 -0.0221292 0.0591187 -0.0378085 -0.0286135 0.059158 -0.0502192 -0.0378287 0.0521413 -0.103586 0.0858982 -0.0755208 -0.0116898 0.0462274 0.00781417 -0.0325641 0.0110084 0.013465 0.048933 -0.0525564 0.0534207 -0.0118954 -0.0162134 -0.0664865 0.00754031 -0.0709948 -0.0897143 -0.0587127 0.0457523 0.108799 -0.0209677 -0.112892 0.0658602 -0.0898666 0.0817836 0.129123 -0.0989815 -0.0448105 -0.0195501 0.157385 0.00891352 -0.107622 -0.0949358 -0.0623335 -0.112145 0.0751648 0.0671445 0.0500256 -0.0418148 -0.00222159 -0.0543357 -0.099288 -0.0985657 0.000725404 0.0023352 -0.0716508 0.0790196 0.0833823 -0.0417334 -0.0157859 0.0223202 0.0298534 -0.114652 -0.0141541 0.00398072 -0.0726682 -0.0513359 -0.0119917 -0.00252593 -0.0151099 -0.121839 0.00714113 0.00241146 0.0659766 0.0347869 0.024868 -0.0777467 -0.0600214 0.024798 0.0993948 0.0401712 0.0443149 0.0103935 -0.0398584 -0.0378111 0.0359003 0.0645451 -0.032663 -0.151285 -0.0478521 0.0491408 0.0449242 -0.0837254 0.0785696 -0.010097 0.0371267 0.0163222 0.0066476 -0.0300951 0.0474351 -0.0425136 -0.0128592 -0.0555679 -0.0021803 0.0259696 -0.000878484 -0.0333707 -0.00206399 -0.0198714 0.0242571 -0.0999445 0.0678244 -0.0587452 0.0227256 0.0130061 0.0167962 0.132659 0.00242075 -0.0459156 0.0105727 0.0265919 0.0145931 0.043669 0.0297052 0.0303694 -0.0950054 0.0350099 -0.00881551 -0.0182154 -0.0053778 -0.11211 0.0225496 0.082338 -0.00329039 -0.0161439 -0.0365428 -0.0107397 0.0100578 0.0107553 -0.0233844 -0.0654143 -0.0240108 -0.0313164 0.0889084 -0.0393777 -0.0662177 0.00562725 0.0303809 -0.00313407 0.0261742 -0.0295581 0.0567779 0.000838635 0.0150578 0.0297692 0.0423095 0.0159724 -0.0400749 0.0342181 -0.0164503 -0.0641654 0.0992859 -0.0732215 0.061306 0.012809 -0.0249806 -0.0362411 0.0200953 -0.00751322 0.0470622 0.0684517
kot -0.00718679 0.0350311 -0.0153698 0.0473573 0.0228674 0.0506826 0.0875625 -0.055408 0.0270529 0.0791937 0.0300915 0.0118079 0.0470166 -0.119106 0.0215565 -0.0371487 -0.0355909 0.0262933 -0.0743105 -0.000800785 -0.00966461 0.074512 0.0265804 -0.122501 0.00565478 -0.0384628 0.0722794 -0.0177823 -0.0528831 0.0362637 -0.00495426 0.0168478 -0.0849133 0.123718 0.020035 -0.0111723 -0.0662559 -0.0644574 0.0186869 0.0169248 -0.022704 -0.0404255 0.0311457 -0.0112786 0.0308806 0.0358699 -0.00839409 0.026484 0.0191113 0.00862598 0.0417164 -0.023399 0.0151366 -0.0157607 -0.132948 -0.0357306 0.0806204 0.0139883 -0.0558181 0.0645139 -0.0407866 -0.0800513 0.0504665 0.0153664 0.0464732 0.0270207 -0.00468595 -0.0733614 0.0545242 -0.0850915 -0.0711365 -0.0175299 -0.0276489 -0.0128457 -0.0314618 0.0322707 0.064443 0.0770801 0.0423404 -0.091549 0.112236 -0.0352314 0.000187356 -0.0584302 -0.0667218 -0.0561794 -0.00480743 0.0944342 -0.101286 -0.0184037 0.088806 -0.0174125 0.0968081 -0.0233812 0.0626756 -0.018296 -0.0156245 0.0918751 -0.148266 0.034852 -0.012189 -0.144436 0.118468 0.00588148 -0.105701 -0.00498425 -0.0412939 0.0119681 0.015289 -0.0759225 -0.0796405 -0.0279018 -0.0151825 -0.0335705 0.00511269 0.0277379 0.112334 0.0503213 -0.0249238 0.039034 0.123836 0.0849394 -0.105135 0.141474 -0.0262469 -0.0169358 0.060011 -0.0237707 -0.0146751 0.0786439 0.0222218 0.0245484 -0.0880534 0.032253 0.00898182 0.0649323 -0.0454227 0.0107102 -0.00177873 0.0601571 -0.0656209 0.0156704 0.0780054 0.000910024 0.0742113 0.106277 -0.0239412 -0.0431735 0.0245174 -0.0697141 -0.0499606 -0.079406 0.0229616 -0.00173612 -0.0869009 0.00439082 0.0275173 0.0504248 0.132854 0.0265956 -0.00808054 0.0348138 -0.0427845 0.0429066 0.069601 -0.041043 0.06033 -0.0537371 0.0460221 -0.016708 -0.0336105 0.0289146 -0.100702 0.0136482 -0.059796 0.016809 -0.00116506 0.0864758 -0.018971 -0.05248 -0.0413123 -0.00717332 0.0725672 0.0323349 -0.0703259 0.0430932 0.0249089 0.00520127 0.0422359 -0.114204 -0.0781813 -0.149698 0.00107398 0.025759 -0.0228279 0.0174603 0.0408034 0.0255676 -0.0965593 -0.0646344 0.00644699 0.0249127 -0.0191609 0.119526 0.0252324 0.0364289 -0.085879 0.0772752 0.0155436 0.0814099 0.18695 0.0273041 -0.0411325 0.0584059 -0.0300163 -0.010141 0.00566674 -0.0675821 -0.00303309 -0.0143629 -0.0853062 -0.0551215 -0.0535037 -0.0468285 -0.0563929 -0.0163099 0.054625 0.0123914 -0.0191871 0.034503 0.0402343 0.0106603 -0.0664114 -0.0602702 -0.0777058 0.0687442 0.0196387 0.00846814 0.0441583 -0.0193416 0.0507699 -0.00454333 -0.0527653 0.00919397 0.0109716 0.0445385 0.0124903 -0.0467779 -0.00916731 -0.0576659 -0.0195056 0.00334337 -0.0439471 -0.0201461 -0.0223979 0.0317315 -0.0184064 0.00428632 -0.0346731 -0.0237547 0.0176743 0.0142479 0.077622 -0.0868104 -0.107397 -0.0948764 -0.112899 0.0209718 -0.012529 -0.0163572 -0.0428599 0.0433126 0.0107299 0.0102717 -0.0157234 -0.0821368 0.187202 -0.00742317 -0.0185245 -0.0451999 0.125171 -0.0181216 0.0141695 0.116206 0.0659472 -0.0481037 -0.00281025 0.0272565 -0.0104577 0.109414 -0.0569821 -0.00603675 0.0469789 0.0610822 -0.0795198 -0.0500033 0.0253509 -0.0443293 0.064359 0.0162957
/ -0.0868736 -0.0392741 -0.0438082 0.0100479 0.0831323 0.0850016 0.0161872 -0.0292316 -0.0748262 -0.0205341 0.0469261 0.0137402 0.0196047 -0.0250687 -0.036244 -0.0292818 -0.00183601 0.0524945 0.0648918 0.053466 0.0981016 -0.00309242 0.0361048 -0.0868346 -0.103298 0.0212206 0.0131989 -0.0578688 0.00721576 -0.00479077 -0.00772277 0.0470847 0.0179919 0.0738893 -0.0122582 -0.0628198 -0.00399049 -0.0118723 -0.0238193 -0.0386445 0.0184679 -0.0506501 0.0279894 -0.00579191 0.0690683 0.0191187 0.0160078 -0.00153198 0.0035704 0.0830279 0.109698 -0.0677655 -0.0882062 0.00485787 -0.0225698 0.0215673 0.0647758 0.0876269 -0.0542493 0.108903 0.0621167 0.0336459 0.0513621 -0.00243622 0.0551861 0.0515102 -0.0413398 0.0458896 0.00122671 0.0111918 -0.10484 0.0626933 -0.0781867 0.000169206 -0.0258235 -0.0299667 0.032689 -0.0499963 -0.130119 0.0461122 0.0424639 0.0898694 -0.122418 -0.00985669 -0.0383131 -0.0510552 0.0117998 0.0668159 -0.0528119 -0.0153057 -0.0451879 0.0665032 -0.00519318 0.108627 0.0539834 -0.0258845 -0.00120745 -0.0283171 -0.0835321 -0.0467995 -0.0197247 -0.0657929 -0.0243474 -0.100562 0.0380738 0.0133964 -0.0406119 0.015435 0.028785 0.0387333 -0.0188871 0.0327593 -0.0549554 0.0394276 -0.0412027 0.00041403 -0.0600464 0.10729 -0.0310236 0.0779528 0.0757247 0.0409013 -0.00869658 0.0466617 -0.0203445 -0.0682548 0.03757 -0.0551572 -0.0653383 0.124555 -0.00616485 0.0252822 0.0187959 0.094571 -0.0698403 0.0651685 -0.012163 -0.0849378 0.0332169 0.0939342 -0.0636414 0.00774977 0.0301381 0.0592344 -0.077118 0.0614288 0.0238569 0.0103047 -0.0256263 0.0279331 0.0383221 -0.00885251 -0.0583536 -0.0332153 -0.0178082 -0.0133391 -0.00214156 0.0680027 0.00526046 0.105712 0.0626228 0.116853 -0.0499409 -0.0727984 0.0134885 2.09715e-05 -0.114984 0.104095 0.0455074 0.0539577 -0.0134643 -0.00740703 -0.108805 -0.120613 -0.0127292 0.0489642 -0.0867784 0.00186848 -0.0910076 -0.0563174 -0.0164743 -0.0763401 -0.0727775 -0.0680273 -0.123942 -0.00861927 0.0261814 -0.0131637 -0.00129208 0.0568128 -0.0416889 -0.0554558 0.00540407 0.0338083 -0.0473914 0.00400084 0.054064 0.0313551 -0.0550708 -0.0282934 0.0151065 -0.0943863 -0.0699146 -0.110911 -0.00511878 -0.0242492 0.0357692 -0.0362221 0.165009 -0.0027922 0.152786 0.0298896 0.0309384 0.0104956 -0.0790883 -0.02347 -0.0384154 -0.045851 -0.0249214 0.0229888 -0.0245792 0.117797 -0.0212187 -0.0497099 -0.0194119 -0.0461218 -0.0327809 -0.0313736 0.0913581 0.103487 -0.0240228 0.101658 -0.0337341 -0.0652952 -0.0310012 0.0118492 0.107593 -0.00845302 -0.0223128 -0.0523295 -0.0676894 -0.00355004 -0.0160108 -0.0400578 -0.0415491 0.184854 -0.0417943 0.0620031 -0.0428497 -0.0914326 0.0465014 -0.0394082 -0.0217016 0.0188779 -0.00922316 0.0121404 -0.00509804 0.00982851 -0.0215702 0.030032 -0.0122664 -0.0650645 0.121401 -0.0727397 0.0680676 -0.0425571 0.0652349 -0.0842589 0.0784032 0.0107638 -0.0142538 -0.00626745 0.0016685 0.0317094 -0.0373256 -0.0765358 0.0271004 0.164539 -0.05399 -0.0410871 -0.00484172 0.104617 0.0215563 0.0751778 -0.030339 0.0049842 -0.00604763 0.0618961 0.0335973 -0.0317847 -0.0230978 -0.000438418 0.0673993 0.0935344 0.0428346 0.10585 -0.07895 -0.0338772 0.0352767 -0.0419712
team -0.0946115 -0.0191159 0.101921 0.0941557 -0.019432 -0.0501646 0.0521122 -0.0560451 -0.0913173 -0.0472855 -0.0203784 -0.0277861 -0.095537 0.0241002 -0.015401 -0.0511608 -0.0804734 0.121947 0.0321249 0.0849154 0.0700386 0.0246207 -0.0422539 -0.00197672 -0.0422483 -0.032304 0.0258981 -0.0349433 0.0465669 0.140918 0.0187533 0.000188871 -0.0757679 0.0437411 0.0522546 -0.0512834 0.116469 0.0303005 -0.0227962 -0.0527352 0.00514837 0.0296571 0.0761385 0.00089517 0.0862816 -0.05774 0.0274735 -0.00481251 0.0196523 0.018166 0.0402321 -0.0397329 0.0215322 -0.0943837 0.0312372 -0.0462713 0.0575908 0.0620517 -0.0331523 0.0452564 0.064922 -0.0487765 -0.021654 0.0487028 0.0555335 0.0720678 -0.020498 0.0312511 -0.0846093 -0.0220156 0.107943 -0.032401 0.0760994 -0.0502649 -0.00740614 0.0160825 0.0221303 -0.0414318 -0.0627825 -0.00939812 -0.083293 -0.0126732 -0.0136293 -0.0218684 0.00440733 -0.0838942 0.0094021 -0.0786628 0.055906 -0.00838856 0.0379784 0.0656623 -0.0678311 0.0511112 0.068488 0.0636813 0.0412633 0.0284014 -0.0122907 -0.0567114 0.00564203 -0.0433633 0.0533414 -0.00537757 0.0549065 0.0960236 -0.00236684 -0.0307448 0.0493056 -0.0182502 -0.0191939 0.0788476 0.106289 -0.0081245 -0.00449133 -0.0826154 0.0021752 0.00183359 -0.0262366 0.0338525 0.0878956 -0.0302328 -0.0596387 0.0127977 -0.0164639 -0.0681901 -0.0115582 0.0608302 -0.0314721 0.00511227 0.0162978 -0.065009 -0.0839934 0.0148654 0.0892841 -0.00474319 -0.0870422 -0.0344855 0.0557954 0.0124397 -0.0039447 0.051321 0.0195238 0.0324859 -0.0216031 0.0613837 -0.00699494 0.00751482 0.00449166 -0.0422927 0.0323495 -0.0568901 -0.113687 0.116874 -0.113245 0.0161629 -0.0240887 -0.0373664 0.0506135 0.0585059 0.00391131 -0.020829 0.0228934 -0.0315215 0.0428742 0.00310868 -0.0244635 0.0595027 0.037384 0.0564328 0.0118882 0.000915136 -0.0517701 0.0418634 0.00759409 0.0952905 -0.0753327 -0.0955329 -0.0769658 -0.080231 0.0859174 -0.0569657 -0.0194452 -0.0394466 0.017098 0.0700631 0.0248607 -0.0941816 0.0296133 -0.108688 -0.00535759 0.00496516 -0.0734978 0.123933 0.0282754 -0.090773 0.000530557 0.0358999 0.0274388 -0.0482457 0.0851466 -0.00144774 0.0272749 -0.023234 -0.0291224 -0.0766985 0.116083 -0.0131769 0.146591 0.0359949 0.0531355 0.0439577 -0.00192196 -0.0603341 -0.0803101 -0.0494057 0.00756421 0.00276895 0.0853759 0.0140262 -0.0379994 0.0469742 -0.0155337 0.0928242 -0.0151183 -0.0671139 -0.0301974 -0.0265969 0.0773166 0.0750969 -0.085579 0.0176712 -0.0374555 -0.0433826 0.00554234 0.00744835 0.0660395 -0.0431079 0.0390026 -0.0318052 -0.0821936 0.0204405 -0.0335641 -0.04446 0.0351885 -0.0803431 -0.00892549 -0.0148922 -0.0587143 -0.054993 0.0786724 0.0693647 -0.139089 -0.0853077 0.109258 -0.0550711 0.0513344 -0.111979 0.0632812 -0.00525598 -0.0188884 -0.0528935 0.0380229 -0.0311521 -0.170688 -0.0558641 0.0758691 0.0515752 0.0396082 0.0173788 -0.0463886 -0.0345312 0.0433024 0.0929775 0.0597449 -0.0910104 0.0790359 0.0978867 0.00558587 0.0690084 -0.0627495 0.0790383 0.0749666 -0.0787384 -0.0497305 0.106733 0.035524 0.117924 0.0166197 -0.0422036 0.00898949 -0.0809639 0.108847 -0.00468305 0.07557 0.0129486 0.0385254 -0.00605996 0.0199122 0.0647535
seed -0.0532184 0.00394592 0.057138 0.0665892 0.0338518 -0.023706 0.072914 0.0127289 -0.0217231 -0.00392668 0.0655284 -0.0358624 0.012326 -0.0661526 -0.0379853 0.0332374 0.0444611 0.0115973 0.0749613 0.0570338 0.011641 -0.07524 0.0169423 -0.0559448 -0.110648 0.0166305 -0.0676113 -0.0143282 0.0315671 0.105538 -0.0506207 -0.0139253 -0.0871423 0.0349416 0.0938486 -0.0271618 0.0441137 0.0291098 -0.00458502 -0.0104444 -0.0528057 0.0167669 0.0106719 -0.0037974 0.202791 -0.0911468 0.0494633 -0.0708688 0.0361812 -0.0446344 -0.00850944 -0.057176 -0.0464166 0.015174 -0.0521104 -0.0303921 0.0417806 0.0405112 -0.0519304 0.045139 -0.059656 -0.0115025 0.13308 0.0336609 0.0348116 -0.00070012 0.0256213 0.0748316 -0.143708 -0.0291863 0.0476728 -0.0307881 0.0458795 -0.00100725 0.0186582 0.0947481 -0.0141585 -0.0416889 0.034313 -0.0104342 -0.091762 -0.0459 -0.000983701 0.0388932 0.00354498 -0.0734441 0.0670042 -0.030464 0.081471 -0.0300662 0.0127421 0.00451945 0.000531131 -0.0462843 0.0244282 0.0089763 -0.0111119 0.0866486 0.0361134 -0.126996 0.0136172 0.0164697 0.0315159 -0.0495783 0.0506093 0.0405058 -0.0118201 -0.0391168 0.015212 0.00977194 -0.0489217 -0.0402801 0.0167376 0.0120025 0.0481774 -0.0923165 0.0614606 0.0189848 -0.0390753 0.0536645 0.0735327 0.0405035 -0.105178 0.053282 -0.0624989 -0.0286117 -0.036678 0.00454555 -0.0570241 0.0717497 -0.12715 -0.00678823 -0.0374258 0.0544662 0.0322801 -0.103058 -0.0583534 -0.0552094 0.0110218 0.020312 -0.0195411 -0.00484908 0.0266845 0.105768 -0.0116256 0.153314 -0.0103308 0.0429895 0.0272184 0.0162651 0.144546 -0.043933 -0.123719 -0.0394046 -0.0355311 -0.106236 -0.064768 -0.0318444 0.0424047 -0.0788479 -0.00712352 -0.0158722 0.0342288 0.0149587 0.0329034 -0.041288 0.0247131 -0.06962 0.0319462 0.0499213 -0.00754073 -0.0234497 -0.0759403 0.0510985 -0.112219 0.0291863 -0.0846611 -0.0910956 -0.00897596 -0.161034 0.0359316 -0.0308251 0.0429976 -0.0398204 -0.0774198 0.0495965 -0.0181323 -0.0171143 0.0749144 0.00786006 0.0912552 -0.0879194 -0.0613092 0.107477 -0.0211879 0.0200267 -0.0750372 0.0448037 -0.0594554 0.019941 0.040616 0.0403027 0.0107122 -0.0161512 0.0767352 -0.0287718 -0.00971272 -0.0839904 0.126092 -0.00558752 0.0028468 -0.090418 0.0492446 0.0147938 -0.0293344 0.00489558 0.0153421 -0.145137 0.0388589 0.109882 0.0568103 0.0150557 0.0247002 0.0291128 0.0133579 -0.0644546 -0.0613205 -0.0378573 0.0361182 -0.0163287 0.012502 0.052375 -0.0661139 -0.0994219 -0.0223346 0.0562788 -0.0145235 -0.0200934 -0.0303642 0.000999981 -0.0231051 0.0045915 -0.00831207 -0.0699238 -0.026205 -0.0317704 -0.0821718 -0.0104241 -0.0375758 -0.0938755 0.030195 0.0792811 -0.0669357 -0.00926762 0.0408881 0.0301349 0.0558088 -0.116136 -0.0150165 -0.0450382 -0.0341884 0.0512948 0.0116231 0.0949374 -0.0955637 -0.0547821 0.0946441 0.0505906 -0.0191646 -0.00661469 -0.0616072 -0.0573627 -0.0343036 0.0561523 -0.025023 -0.113062 0.0529322 0.0355566 -0.0363811 -0.00741246 -0.0652967 0.139384 0.020684 -0.0625425 -0.0215678 0.0443772 0.09042 0.108044 -0.089307 0.00475554 0.00330592 0.00733031 0.09037 0.00744259 0.0586531 0.0311908 -0.00907334 0.0570427 0.11837 -0.0250535
pri 0.0427291 0.0285322 -0.047649 0.0339416 -0.0382872 0.0406107 0.0275634 0.0313248 0.108784 0.0591927 -0.00682824 -0.0224893 0.0074966 -0.0536515 -0.00446472 -0.0916889 0.0179719 -0.0264031 -0.0165081 0.04963 -0.060111 -0.0577904 -0.0203966 -0.0300173 -0.125542 -0.0290769 0.0462735 -0.0105665 -0.0696642 0.0607752 -0.0324837 0.105031 -0.0807243 -0.0488049 0.0560505 -0.106546 -0.00996265 0.0399129 -0.0248026 0.0415264 -0.00440487 -0.0617518 0.0160538 -0.0258801 0.108651 0.0615569 0.109551 0.0519143 0.118324 -0.0140274 -0.0746672 -0.0365171 0.0195035 -0.0206088 -0.0563093 0.00992322 0.192979 -0.022248 -0.0422583 0.0151344 -0.0598909 -0.0155237 0.0237961 -0.0496623 -0.00558006 -0.145959 -0.106382 0.0618078 -0.00256506 -0.0579288 0.0577061 -0.0210112 0.00561114 -0.00744026 -0.0691808 0.0774986 0.00211913 -0.0296888 0.00160299 -0.0152046 0.0268553 0.0180504 -0.000753088 -0.0380674 -0.0561716 0.00588689 -0.0734876 -0.0461756 -0.0293179 -0.00340892 -0.0175077 0.0445083 0.126472 -0.150559 0.0604719 -0.0467832 -0.0208698 -0.0433339 -0.0190117 0.0438997 -0.0272952 -0.00673485 0.0725038 -0.0327066 -0.0469818 0.0409323 0.0276582 0.0120016 0.037028 0.101999 0.00324958 0.0743778 -0.00985671 0.0526906 -0.0118217 0.028741 0.0790943 0.0246981 0.00204961 0.0183303 0.13444 0.00358637 -0.0735554 0.0632205 -0.0637215 -0.0497701 -0.0781756 -0.0132458 -0.0705752 0.107622 -0.0489669 0.0411832 -0.0738178 0.0180114 -0.0181335 0.0576403 0.0479034 0.0284337 0.00516453 0.00281646 0.0443584 -0.0220671 0.0932456 -0.0595819 -0.0245163 0.01438 0.0409673 0.0281584 -0.0102975 0.0646857 -0.0530264 -0.0892873 0.0186624 0.0205148 -0.0854203 -0.0822511 0.0473531 -0.0450325 0.0203496 0.0859757 0.0316108 0.00441266 0.0040594 0.112438 0.134364 0.0564504 -0.0936403 -0.0014156 0.0584502 0.0235862 -0.0721473 -0.00202551 -0.119593 0.0131856 -0.0278899 0.0335123 -0.0100644 0.0782834 -0.0567722 -0.0663604 -0.070434 -0.0629956 0.0281447 0.0497686 -0.108822 0.0525956 -0.0879884 -0.0112325 -0.057889 -0.0319426 -0.107924 -0.0516581 0.0625446 0.0129934 -0.0010584 -0.121886 -0.000547297 0.024275 -0.100102 -0.0931262 -0.0317097 -0.0707417 -0.0556255 0.0288523 0.0941518 -0.0021349 -0.0956267 -0.112884 0.0348703 0.0635623 0.0861636 0.0263159 -0.0616785 -0.040173 0.0655774 -0.000762346 -0.0982864 -0.0450729 0.0151114 -0.0149354 -0.00510738 -0.0800671 0.0287791 0.0396567 0.0221543 -0.0204513 -0.025363 -0.0138766 0.114739 -0.0357437 -0.00195427 -0.121454 -0.0194553 0.0240867 -0.062507 -0.0372129 0.00311781 -0.00130659 -0.00364459 0.0375976 0.0752574 0.0589054 -0.0579558 -0.0190639 -0.0693766 0.0860229 0.0213834 0.00582249 0.0339494 -0.00635611 -0.0149277 0.054205 -0.0264272 0.0283251 -0.0825782 -0.0225597 -0.0236688 0.03542 -0.080314 -0.0177253 0.046361 0.0864798 -0.0561714 -0.06606 0.0347903 -0.0262775 0.0354486 0.0750655 0.00166361 0.0921007 0.0179692 -0.0336941 -0.0916319 -0.0133976 -0.026022 -0.0356534 0.0723816 -0.0770678 0.0151152 0.0254255 0.119703 0.0128604 0.0135758 0.0405925 0.119773 -0.105799 0.0339407 0.0746565 0.0485886 0.0113141 0.0480837 -0.0495457 0.0334395 -0.00723083 0.0121094 -0.029309 0.0355086 0.126357 -0.00698527 0.0449072
