999 300
, -0.0112864 -0.00206967 -0.0515041 0.0208428 -0.069744 -0.0384644 0.0380908 -0.094775 0.0108655 0.152033 0.027994 -0.0564587 0.0470772 -0.0454188 -0.0166755 -0.0713809 -0.0540472 -0.0540862 0.0329954 0.0488296 -0.0328419 0.115758 -0.0638443 -0.00409125 -0.0516065 0.119485 0.0321063 -0.115655 -0.0524103 0.00278089 -0.0396624 0.127952 -0.0255577 0.0989258 0.0246608 -0.0919104 -0.0559959 -0.125457 0.0227993 -0.0246145 0.0305215 0.0751857 -0.0274226 -0.0235973 -0.0485655 -0.0172129 -0.0446481 -0.0395347 -0.000528293 -0.0409909 -0.0634594 0.00729788 -0.0420315 -0.0258402 -0.0518549 -0.0206143 0.0421255 0.11017 -0.078328 0.0918081 0.025868 -0.104621 0.0813534 -0.0703578 -0.077607 0.0030427 -0.0373322 -0.0446096 -0.141203 0.0131917 0.0103646 0.0116625 0.0726037 -0.16107 -0.0476511 -0.0164733 0.0343882 0.0113483 0.0318525 0.0911797 -0.0654958 0.0703042 -0.0130563 -0.0111578 0.0475259 -0.0160324 -0.0135566 -0.0335035 0.083078 -0.0289674 0.00995006 -0.0377994 0.0592405 -0.0377254 0.0519572 0.0248883 0.00372099 -0.0316352 0.0439968 0.0289611 0.00238136 0.0381502 -0.00592551 0.0302804 -0.0354001 0.0869948 -0.111436 0.032347 -0.0191435 -0.013503 0.0299959 0.035478 -0.0450695 -0.0428636 -0.0621294 -0.000911261 0.0910481 0.00249302 -0.000659245 0.0210684 0.0529413 -0.0594792 -0.00446623 0.11662 -0.0289874 -0.00050939 0.0421816 0.00985945 0.105649 0.0803595 0.0181502 0.060132 0.0862592 0.0369167 0.0151131 -0.0630794 0.0150712 0.0472058 -0.0525808 0.0615984 -0.02752 0.0400614 0.100743 0.0568972 0.068034 0.128429 0.0183192 -0.00151268 -0.0436026 -0.00374974 -0.0567754 -0.139171 0.0227102 -0.00399786 0.0761016 -0.0713273 0.0314525 -0.0551969 0.132166 0.0707963 -0.0106073 0.113536 -0.0787762 0.0765108 0.0674494 0.010921 -0.0535016 -0.0240815 0.0374418 -0.022069 -0.0927045 0.00544808 -0.00506321 0.000824105 0.0435569 -0.0248566 -0.0419292 0.0408901 -0.00399298 -0.00376689 0.0165596 -0.0978832 0.0162132 0.030314 0.00785375 0.132234 -0.0962365 -0.0741578 -0.0074757 -0.0311339 -0.048034 -0.0982242 0.068224 -5.61859e-06 -0.0922125 0.0596936 -0.00342864 0.0420919 -0.147395 -0.0190388 0.0221747 -0.0801354 -0.11472 0.0257136 0.0674591 -0.0975422 -0.00778213 0.0132205 0.0890897 -0.0116386 0.107529 -0.0208072 -0.0369956 -0.0425723 -0.0240358 0.0232987 -0.0287813 -0.073958 -0.103422 -0.0267673 -0.00557962 -0.0584415 -0.0745719 -0.0267108 -0.025926 -0.0236504 0.0140579 -0.0460561 0.132239 0.0266183 0.0290975 0.0300938 0.00451075 -0.0586169 -0.0810952 -0.0141705 0.00140073 -0.0783183 -0.0667917 -0.0925048 0.0111354 0.0899081 -0.00888412 -0.00295043 0.0696758 0.0158502 0.0698268 -0.0150396 -0.0741383 0.0452162 0.032328 0.0089231 -0.117619 0.00264979 -0.0314126 -0.0418776 0.0148325 0.0400248 0.0127119 0.028736 0.00248873 0.0434204 -0.00884905 -0.0379124 0.0016677 0.0676783 0.0224617 -0.0263903 0.00411171 -0.0748398 -0.0717852 0.0317594 -0.011148 -0.0706306 -0.0824154 -0.0936107 0.0516941 0.00081748 -0.0795606 -0.0355979 0.0563954 0.0407118 -0.0293849 -0.031527 0.0745621 -0.0582125 0.0812803 0.0687355 0.0224276 -0.029422 0.0226999 -0.0563077 0.0215253 -0.0112654 0.0125983 -0.0567705 0.00532775 0.0435525 -0.00774608 0.0724234
. -0.0469256 -0.000585261 -0.0750844 0.0272415 -0.101507 0.0131279 -0.0127297 -0.155756 -0.0185198 0.104861 0.0332065 -0.0678715 0.0444594 -0.0406334 -0.0328302 -0.11935 -0.0549535 0.00236837 0.0819509 0.0814484 -0.0462626 0.0971621 -0.0840835 0.0795438 -0.0923183 0.000739231 -0.0392808 -0.105844 0.0144945 0.0719889 -0.0398682 0.0608952 -0.0782643 0.071157 -0.0700253 -0.0260608 -0.00436908 -0.0332842 0.0869763 -0.0518834 -0.0270418 -0.017307 -0.089831 0.0412314 -0.0247335 -0.018948 0.0119113 -0.0532896 0.00509417 -0.0809839 -0.018929 -0.0345291 -0.031133 0.015731 -0.0319362 0.00361524 0.0264408 0.0935134 -0.0454603 0.0682854 0.0275181 -0.161165 0.169958 -0.171609 -0.0662795 -0.0110063 0.0349071 -0.0907389 -0.0805616 0.0066309 0.000815582 0.0120629 -0.0473859 -0.136448 -0.0465962 -0.00154172 0.041671 0.0189514 -0.016 0.0233771 -0.0350726 0.0586148 -0.00609417 0.0155194 0.0103205 -0.0992102 -0.0115469 0.0336777 0.014266 -0.0609417 -0.0548775 0.000586317 0.0546283 -0.0108771 0.060114 -0.0164987 0.0187542 -0.0452998 0.00431038 -0.108623 0.00456081 0.0584163 -0.0507052 0.0425253 -0.0137217 0.0164704 -0.0951308 -0.00346934 0.038005 0.0541976 -0.0177614 0.0145241 -0.0265481 -0.073467 -0.0507685 0.0438217 0.101246 0.00709459 0.00555912 0.0755067 0.0674366 -0.0420439 -0.000141271 0.0626393 0.00100958 0.00548352 0.00790244 -0.00589273 0.00756291 0.0761106 -0.0260844 0.0582136 0.0465709 0.0286951 -0.0394704 0.0275616 0.0343289 0.031448 -0.0632939 0.114915 -0.101529 0.0461402 0.0785937 0.108273 0.112327 -0.0142605 0.015141 0.0195207 -0.0409362 -0.00936697 -0.00393196 -0.0727026 -0.00220338 -0.0368281 0.0691638 -0.0738175 0.0450802 -0.0503124 0.0488978 0.118682 0.0132884 0.037826 -0.0322669 0.0388255 0.0463344 0.0457136 0.0189383 -0.0433361 0.00472761 0.0516596 -0.0905573 -0.00362335 -0.0845396 0.0322626 0.0292373 -0.000114818 -0.0619552 0.000879349 0.0462246 -0.0110477 -0.0150591 -0.087255 -0.00725041 0.061195 -0.00765751 0.112154 -0.0302753 -0.135295 0.0380903 0.0164514 -0.0560135 -0.035027 0.118948 0.0404353 -0.0915413 0.0155274 0.00102491 0.0310832 -0.1472 -0.0097521 -0.034709 -0.0445861 0.0123302 0.0390831 0.112517 -0.0550675 -0.0623479 0.0886401 0.0746705 -0.0329852 0.0670734 -0.0523057 -0.0154776 -0.0151672 -0.0341663 -0.0221039 -0.018236 -0.0644594 -0.0535303 0.0563977 0.0194214 -0.0269907 0.0538175 -0.0444256 -0.0518327 0.0344214 0.0234109 -0.0783783 0.0452998 0.0416076 0.0279645 0.0950675 -0.0821452 -0.0248488 0.0256748 0.0377322 -0.0212208 -0.032046 -0.0569172 -0.0819129 0.000377854 0.102656 -0.0179459 0.00713724 0.0638428 0.0158256 0.0557474 0.0223201 -0.063391 0.0106567 0.0105194 0.0170355 -0.170004 0.0126731 0.00608868 -0.00377381 0.0154489 0.00940413 -0.0315042 0.0463978 0.0076347 0.0816131 0.0161706 0.0338454 0.0227622 0.055076 0.00183192 -0.0650844 0.0392166 -0.0250735 -0.0141972 0.0186119 0.0279468 -0.0703884 -0.0263737 -0.0987752 -0.0109903 -0.0119759 -0.108002 -0.0447043 0.041986 0.0662373 -0.0534586 -0.0970227 0.063353 -0.0686359 0.040206 0.129738 0.0221136 -0.0462964 0.0402584 -0.0925421 -0.0180574 -0.0577913 0.0411613 -0.0921367 -0.0245916 0.0267626 -0.0513555 0.0166127
the -0.0324474 -0.0462027 -0.00872643 0.0993624 0.0146613 -0.0198258 -0.0810911 -0.0362278 0.0445008 0.0401815 -0.0198814 -0.117326 0.0906365 -0.0304146 -0.0319765 -0.037376 -0.0248697 -0.00993326 0.00173625 0.071948 -0.0833905 0.0381676 -0.114113 -0.0287737 -0.0665892 -0.0365456 -0.000624522 0.00978774 0.0282418 0.0310399 -0.0772521 0.0755238 -0.0527877 0.122521 -0.0138329 -0.0879198 0.00357867 -0.0593036 0.0416396 -0.0588169 0.0266258 -0.00114942 -0.0418562 0.0141145 0.0388292 -0.059681 -0.0202956 0.0444183 0.0252516 -0.0316458 0.0351938 -0.031766 -0.047344 0.0346892 -0.024958 0.0289366 0.0426498 0.0218352 -0.0254174 0.0485806 -0.025182 -0.0903633 0.160737 -0.0379248 0.0230897 -0.0987615 -0.121324 -0.092628 -0.11157 0.0344627 -0.185628 -0.0408986 0.0305586 -0.0653029 -0.0376571 -0.0301196 0.0361289 0.121165 0.0104522 -0.035387 0.0552013 0.0363226 -0.0427432 0.0555291 -0.00308546 -0.0830081 -0.0325407 0.041505 -0.0461163 -0.0614689 -0.0411753 0.00597207 0.168042 -0.134708 0.0270638 -0.0438065 0.0364006 0.0121269 0.00179654 -0.0138085 -0.062492 -0.0160732 -0.000860326 -0.0372806 -0.100937 -0.0582805 0.00380385 0.0108739 -0.0067801 0.0319279 -0.00429016 -0.0411564 -0.0506422 -0.0673888 0.0426046 -0.00305348 0.0787569 0.0924194 0.0559314 0.0449169 0.136362 0.113209 -0.0377922 0.106017 0.0130159 0.0348615 0.0637584 0.102019 0.045864 0.0634405 -0.0869911 0.0446686 -0.012407 0.0166697 -0.060272 0.0296508 -0.0298062 0.0690724 -0.0280054 0.0748583 0.0474294 0.0275028 0.0254666 0.0184317 0.00850046 0.111624 0.0232536 0.0176376 0.0326713 0.0471344 0.066177 -0.0353393 -0.0386831 -0.0335559 -0.0354103 -0.0348263 0.0157385 -0.0293796 0.0709845 0.0299031 -0.0602124 0.0731896 -0.0344279 0.0419451 0.0773117 0.0119258 -0.0549927 0.0376705 0.0808378 -0.0424492 -0.0976788 -0.0385813 -0.0333711 -0.0383653 -0.0519533 0.0641259 0.00494627 0.12256 -0.00106191 -0.0130795 0.0224391 0.0137877 -0.0242573 0.0543968 -0.0163632 0.119417 0.0915652 -0.0755138 0.0565075 0.0235357 -0.000859482 -0.0818311 0.0952651 0.0873189 -0.0215312 0.0239941 -0.0271477 0.0133839 -0.0870209 0.0596959 -0.00732442 -0.0229839 -0.0220115 0.0562194 -0.00690774 -0.0795863 -0.0118359 0.00591446 0.0220542 0.0509153 0.117505 0.0507564 -0.00442912 -0.0265269 0.0327935 -0.0524549 0.049343 -0.130914 -0.0674385 0.0147963 -0.00244783 -0.0163409 -0.0241316 0.0725539 -0.0165167 0.036789 -0.0913616 0.0197319 0.001773 -0.0148669 0.0653923 0.0911728 -0.0637634 -0.013522 -0.027694 -0.00776345 0.00917837 -0.047716 0.00540889 -0.0153352 -0.0411236 -0.0176694 0.0874033 0.0221386 0.104041 0.100415 0.059532 -0.0609971 0.0649702 -0.0235387 0.0257209 0.120822 0.0129111 -0.00860525 -0.0846023 0.110179 -0.0337957 -0.0553205 0.0165544 -0.0602025 0.0128028 0.0791542 -0.0180503 0.00456763 -0.0547941 -0.0393576 -0.0545954 0.0424899 0.00484421 -0.117246 -0.092469 -0.035676 -0.0123231 0.037078 -0.0142381 0.0156669 0.0441665 0.118557 0.0834352 -0.0292853 0.0313498 -0.0287121 0.0095424 0.00800034 0.0566465 -0.0370065 0.0257363 0.103216 -0.0431097 0.0543968 0.0322537 -0.107636 -0.0187148 0.0406548 -0.0198114 -0.0254944 -0.0504833 0.0826505 -0.0649553 0.0175795
</s> 0.0101791 -0.0148314 0.088268 0.0354097 -0.0375626 -0.0808551 -0.102822 -0.102606 -0.0315088 0.00637001 -0.0481918 -0.0903824 -0.0533505 -0.0534963 -0.0545535 -0.127325 -0.0274925 0.0141169 0.0538102 0.10439 0.0320293 0.0161234 -0.0666754 -0.10076 -0.115916 -0.0671656 0.0028815 -0.137916 0.0405055 0.062572 -0.0297548 0.152041 -0.0536441 -0.0325903 -0.0567794 -0.0408782 -0.0242741 0.0459862 -0.00922498 -0.0306521 -0.00236746 -0.0560989 -0.0493584 -0.0314561 0.0502334 0.0913242 0.0573688 0.00302531 0.0188299 -0.0221171 -0.00175493 -0.134951 0.0092422 -0.135731 -0.0718178 0.0652455 0.0260099 -0.0498668 0.00914134 0.0328374 -0.0866011 0.0096256 0.0453198 -0.0154431 -0.0673276 0.0668354 0.0448641 -0.0149149 -0.0618996 -0.0153694 -0.0619097 -0.0152487 0.0969589 -0.000337286 -0.0778049 -0.0306784 0.00659078 0.0203773 -0.0454231 -0.0181012 -0.0200897 0.00780722 -0.0210072 0.0226214 0.0198017 -0.0253496 0.0704933 0.00840086 -0.019792 0.0260099 0.0429198 0.07231 0.0033597 0.019828 0.010934 0.0215034 0.0580838 0.00162397 -0.0791619 0.022666 -0.0132468 0.0507641 0.0452692 -0.0507722 0.0678461 0.0285274 0.0373419 -0.0497493 0.0236787 -0.0123911 0.0283188 -0.0125268 -0.129205 0.0522871 -0.0916179 -0.0460712 0.0223703 -0.0395941 -0.0775557 0.0247359 0.0425106 -0.00481655 -0.00596149 0.137039 -0.0278327 -0.00359889 -0.0454333 0.00737176 -0.0615269 0.0539317 -0.0687575 -0.0591228 -0.0250843 0.116579 0.0900726 0.0126106 -0.00922276 -0.126353 0.0735982 0.0848694 -0.0781593 -0.0164128 0.0665944 0.0170994 -0.000760995 -0.0228726 0.0325782 -0.0829048 0.0440114 0.0517038 -0.0132391 -0.0351362 -0.016951 0.0509868 0.152393 -0.108265 0.0344233 0.0191643 0.0244119 0.045413 0.000226012 0.033838 0.104994 -0.0353226 0.00515499 0.0441674 0.0927278 -0.0938053 0.0612697 0.051396 0.00418443 -0.0555703 -0.0485584 0.0671514 -0.0278186 0.0880148 -0.0276768 -0.0714229 -0.0512704 -0.188269 0.0237354 -0.0291371 0.0435173 0.0076138 -0.101516 0.0843752 -0.0116963 -0.0492977 0.0479549 -0.000374188 0.070629 -0.124553 0.00463264 0.0659605 -0.169872 -0.0327038 -0.0352314 0.0432681 -0.0885637 0.0289204 0.0541545 -0.00950752 0.0276059 0.0426544 0.101866 -0.0029212 0.0187742 -0.00459153 0.0809077 -0.0203773 -0.0279016 0.0420043 0.0262914 0.0546143 0.0299938 -0.0452935 -0.00578488 -0.0719758 0.00577658 0.00108293 0.046766 0.0334775 -0.0126155 0.0344415 -0.0767294 -0.0731971 0.0555399 -0.0626996 0.106523 -0.0869616 0.0101431 -0.0197468 -0.00532917 -0.0288434 -0.019809 0.00270712 0.026421 -0.0502537 -0.00724964 -0.0119046 -0.012993 0.0820055 0.0104029 -0.0416681 0.0207439 -0.0153029 -0.0371677 0.0364487 -0.0488946 -0.061695 -0.0603218 -0.0422514 -0.0937547 0.00385672 0.046687 -0.0338846 0.0284464 -0.0836562 0.055627 0.0234012 0.0204766 -0.0334349 -0.00915572 0.06736 -0.12449 -0.0719535 0.011601 -0.0381824 -0.0313447 0.0790808 -0.0262894 -0.0310004 0.0649721 0.0611623 0.000383849 -0.0229495 -0.105889 0.0395981 0.0334775 -0.0369793 -0.0171292 0.0269638 0.0750422 -0.042859 -0.00807133 0.0935906 0.014814 -0.0135558 -0.00436995 0.0733592 -0.0196164 -0.0966571 -0.00557201 0.0525869 -0.00212016 -0.0603866 -0.0478171 0.0415709 0.152274 0.0196778
of 0.0211915 -0.123873 0.00805774 0.0893485 0.0263586 0.037102 -0.0157477 -0.0296886 0.0629916 0.0775162 0.0633043 -0.0591836 0.101381 0.0129214 -0.0955318 -0.00197633 -0.0486191 -0.0179622 0.0365744 0.0332926 -0.106213 0.0232709 -0.0474988 -0.054138 -0.0881023 0.0323773 0.0462874 0.0235948 0.0383273 0.097946 -0.0126274 0.129396 -0.0700346 0.158137 0.0321224 -0.0388888 -0.017848 -0.105415 -0.00251888 -0.0272852 0.0268198 -0.0275206 0.0281745 0.0332961 0.023765 -0.0527398 -0.0473599 -0.0402904 0.0145762 -0.0824315 0.0386886 0.00565175 -0.0223929 0.0121754 0.0551323 -0.0336752 0.0682674 0.0336413 -0.0709638 0.0718496 -0.113326 -0.126452 0.131055 -0.0727702 -0.0245414 -0.0560051 -0.0855491 -0.0656447 -0.058072 -0.0651454 -0.102149 -0.0691054 0.0566304 -0.0118732 -0.05396 -0.0189453 0.0539035 0.151493 0.0214663 -0.00439079 0.0879156 0.0357333 -0.065814 -0.0987276 0.0523838 -0.0266191 -0.0337442 0.04759 -0.0417264 -0.0883108 -0.0099609 0.0692357 0.101281 -0.100334 0.0228762 -0.0420955 0.0249122 0.0614111 0.0332379 0.00793095 0.0278293 0.019478 0.0382665 -0.0507772 -0.10838 -0.0566608 -0.0360473 -0.0260885 0.0104451 -0.0090091 0.016993 0.0189175 -0.0443247 -0.0671471 0.0559791 -0.0105037 0.0197004 0.0554841 0.0573686 0.0834041 0.107412 0.0538688 -0.0879113 0.0597567 -0.0100525 0.0181224 -0.00606469 0.0790012 0.0703863 0.0271758 -0.034729 0.057247 -0.0336031 0.00882022 -0.0180147 0.00891184 -0.0491098 0.0635648 0.0347863 0.0160008 0.059227 -0.00425336 0.0511462 0.0588232 0.0993919 0.0921883 -0.0346413 0.0600564 -0.0330499 0.0124025 0.0496786 -0.067108 -0.0361558 -0.0248228 -0.0431402 -0.0740902 -0.031158 -0.0223608 0.115362 0.00816282 -0.118193 0.0550585 -0.00913807 0.0255453 0.13119 -0.0153083 -0.0416638 -0.01697 0.0884454 -0.07759 -0.113712 -0.0477898 -0.0681458 -0.0125067 -0.103656 0.0677116 0.00378571 0.104442 0.0527094 0.0596091 0.00691575 -0.00581241 -0.0299804 0.0447372 -0.0312943 0.121415 0.0831827 -0.0599652 0.0309999 -0.0136986 -0.0153274 -0.0323964 0.0886451 0.0311984 -0.0298184 -0.0178971 -0.0378015 -0.0506512 -0.087959 0.0317794 -0.0319135 -0.121368 -0.0755231 0.027792 -0.0218819 -0.0192905 0.0036851 0.0282878 0.0327316 0.0483021 0.108428 0.0724966 0.0175736 -0.0631045 0.00727875 -0.0489491 0.00757055 -0.0832695 -0.0195228 0.0371853 0.0344511 -0.0200664 -0.0879503 0.114086 -0.0395366 0.0337477 -0.0671037 0.0183764 0.0509856 -0.0373603 0.0380421 0.0927702 -0.0590403 -0.0130208 -0.00914154 0.011386 -0.0276773 -0.0363217 0.00719321 0.0189062 -0.0169396 -0.00433117 0.0583021 0.0274463 0.0991097 0.064455 0.014297 -0.0825531 0.0861397 -0.0971297 8.18366e-05 0.0755752 -0.0164581 0.00897133 -0.0364971 0.0799782 0.0123825 -0.0425557 0.0865782 0.0346547 0.0538861 0.041359 -0.0153456 0.0365306 -0.0357372 -0.0329101 0.0717975 0.0502865 0.00565305 -0.0351254 -0.00451584 -0.0341884 -0.0482935 0.0125905 -0.0274902 -0.0147329 0.00893268 0.114859 0.000751367 0.00825096 0.0613633 -0.0343508 0.0666781 0.0316426 0.0378497 -0.0024112 -0.00871601 0.0652279 -0.00666564 0.0727007 0.0736256 -0.146231 -0.0261771 0.0373847 -0.0282244 0.00209861 -0.0438384 0.0603994 -0.0595483 -0.0172405
- -0.0393461 -0.0117763 0.066425 -0.00585706 -0.000523889 0.00760613 -0.0118955 -0.0916773 -0.0611695 -0.0220118 0.01979 -0.0167973 0.0540521 -0.035507 -0.0362377 -0.0877805 -0.0987883 0.0583366 0.0309546 0.0952569 -0.016256 0.0075007 -0.108357 -0.0339656 -0.0360486 0.0213818 0.0475627 -0.09966 -0.0300335 0.000887836 -0.0538566 0.0671525 -0.0755998 0.0226838 -0.0813937 -0.0359236 -0.0403267 -0.0363658 -0.0442908 -0.119407 0.0548628 0.0291744 0.0407658 0.0105967 -0.0105989 0.0121903 -0.0577309 0.0139262 0.0317932 0.0118708 -0.00115161 -0.114997 -0.0335202 -0.0786154 0.0394294 0.0359845 0.000631595 0.0526388 0.016529 0.026057 -0.00111479 -0.0559716 0.0963272 -0.0742923 -0.00560389 0.0918023 0.12811 0.0326741 -0.101275 -0.0256538 0.0436788 -0.0894758 -0.0225649 -0.134776 0.0731002 -0.00156132 0.0906711 0.0427398 -0.0434705 0.115866 -0.0675434 0.0304758 -0.0250475 -0.0625731 0.0385033 -0.110001 0.0294433 -0.0474602 0.0483094 -0.0103159 -0.0269802 0.00401665 -0.0877677 -0.0118634 0.0185444 -0.0247229 0.0288206 -0.00275186 -0.0559428 -0.00633294 0.0170158 0.0574553 0.030546 0.00490625 0.0983974 -0.0323921 -0.10307 -0.00987371 -0.0397435 0.0312337 0.0576412 0.0476461 -0.0489792 -0.0298124 0.00283341 -0.0617015 -0.00518505 -0.0760196 -0.00406632 0.0258887 0.0544462 -0.10563 0.0698091 0.0718376 -0.0369267 -0.0470436 0.0528535 -0.00439223 0.0197945 0.0775707 -0.000984583 0.0422783 0.107806 0.0264079 -0.028927 -0.0200345 0.0658097 -0.00217381 0.0746961 0.136333 0.0409677 0.0138394 0.100756 0.0960292 0.120621 0.0352603 0.0252699 0.022512 -0.039641 -0.0517031 0.0310145 -0.0859731 -0.109187 -0.0782885 0.0752633 0.0011442 0.00722798 -0.0376573 0.0702898 0.0380066 -0.0627558 -0.00421822 -0.0491266 0.0189514 0.118308 -0.021218 -0.0395865 -0.0591378 0.0241486 0.0175305 -0.0703507 0.0171225 -0.00797594 0.0838517 0.0755165 -0.0132645 0.0217436 -0.0308684 0.120512 -0.0184742 0.0077936 0.0179701 -0.0741097 0.0755806 0.0524978 0.172459 -0.0424738 -0.191824 0.0145178 0.0602049 -0.0178269 -0.0842811 0.0686939 -0.052219 -0.0344944 -0.018945 0.00537508 0.00473929 -0.0419675 -0.0346322 -0.0309908 0.0429 -0.0601056 -0.00456592 0.030478 -0.0327158 -0.0527093 -0.0303662 0.0467584 0.0524562 0.0661687 -0.0234814 -0.0181595 -0.0172549 -0.0541995 0.0048287 0.0639222 -0.0574553 -0.167043 0.0888316 -0.0762023 0.0639286 -0.0657425 -0.0626853 -0.099269 -0.0214555 0.021684 0.0382982 0.0508122 0.0597082 0.0470115 0.0348981 -0.0276041 -0.0118308 0.0109421 0.0375804 -0.00122653 -0.00617944 -0.0433327 -0.0573848 0.0392788 0.00325684 -0.0225194 -0.00629769 0.113164 -0.00918664 0.080176 0.0783814 -0.0769169 0.0504982 -0.000612881 0.0017276 -0.0701039 0.0563882 -0.0254311 -0.0260175 0.00665468 0.0256561 -0.00662103 0.0296205 -0.0107524 0.0741353 0.000359012 0.0562344 -0.102643 0.0479184 -0.0263649 -0.0541162 0.0914274 -0.0865692 -0.110081 0.0462232 0.0536707 -0.100727 -0.100823 -0.0179201 0.017019 -0.000488157 -0.0215305 -0.0283739 0.00704628 0.09493 -0.0551256 -0.0423232 0.0341707 0.0432333 0.0933758 0.0500848 -0.0275532 0.0288764 0.0456143 -0.0528632 0.114552 0.0345969 0.0102932 0.003867 0.00585385 -0.0222528 0.0913601 0.0198301
in 0.0543293 -0.0613494 0.0197148 0.0831127 -0.0483107 -0.00283169 0.0221846 -0.0897902 -0.00692394 0.0661115 0.0605103 -0.0299788 0.0750251 -0.059434 -0.0804989 -0.000156249 -0.0437402 -0.063915 0.0295141 0.0124206 -0.0442999 0.0461186 -0.108127 0.00387953 -0.0809953 0.0219703 -0.0144264 -0.0303689 0.00191798 0.0483722 -0.141774 0.116966 -0.0547598 0.141268 0.0298651 -0.0995956 0.0359543 0.0502349 0.0272666 -0.0320576 -0.00589332 -0.0213034 -0.0501954 0.0306387 -0.0311632 -0.0276263 -0.00689363 -0.0147884 0.0458682 0.00220151 -0.000778279 0.00514869 -0.0378543 0.00536879 -0.0650923 0.0155397 0.0175148 0.131371 0.0108377 0.0794972 0.0311285 -0.155339 0.0397653 -0.0566927 -0.0045877 -0.0821375 -0.0933882 -0.0196125 -0.11129 0.044067 -0.0763035 -0.0164099 -0.0135882 -0.0404041 -0.0299753 0.00982557 0.0552167 0.0604005 -0.0349457 0.00314057 -0.0664102 0.120977 0.061345 0.00386596 -0.00144497 -0.0936298 -0.026597 -0.0541272 -0.0653471 -0.0982381 -0.0923602 -0.0390119 0.128375 -0.114075 0.0981019 -0.0199169 -0.0139744 0.0891005 -0.0319654 0.0370029 -0.0598294 -0.0287268 0.0200702 0.0583929 -0.070487 0.0300166 -0.0377164 0.0499933 -0.0163866 0.0652373 0.0502085 0.0330149 -0.036326 -0.05588 -0.0112318 0.00307845 0.114418 -0.0289113 0.014372 0.0869655 0.0709659 0.0202785 -0.0795587 0.0975704 -0.0428774 -0.0744452 0.062127 0.0435069 0.0682509 0.0846855 -0.0338588 0.0572858 0.0343996 0.0321846 -0.0652724 0.0676535 -0.0469533 0.0242028 0.00379505 0.0849007 -0.0118007 0.114471 0.0231639 -0.0503579 0.0785 0.171695 0.110583 0.0621182 -0.0291617 0.0431005 -0.0553704 -0.0234608 -0.0561568 0.00663927 -0.0699027 -0.0863109 0.0783331 0.00526731 0.0347102 0.0167587 -0.0655448 0.163967 -0.114752 0.0562886 0.0563896 0.0235373 -0.0336102 0.0336822 0.0594209 -0.0058428 -0.0708297 -0.0476562 -0.0111211 -0.0778938 0.0334582 -0.0264349 0.0616613 0.103703 0.00573034 -0.00168787 0.0825416 -0.0389763 0.0142854 0.100079 -0.0103497 0.0371844 0.0537801 0.00389038 0.0336106 -0.00222224 -0.0435768 -0.0297877 0.0263176 0.0155533 0.00822341 -0.0117805 -0.00192584 0.0360347 -0.0526555 -0.091363 0.0815796 -0.0411948 -0.00716029 0.0704826 0.014632 -0.06786 -0.0570662 0.0546763 0.0455782 0.0667134 0.0787065 -0.0172209 -0.0770723 0.00516363 -0.0367112 -0.00079673 0.0556692 -0.0883757 -0.0745814 -0.0649429 0.0193981 -0.0786669 -0.0205473 -0.000870314 -0.0164354 0.000609321 -0.0463954 -0.0677721 0.0615735 0.0180806 0.0844439 0.00530377 -0.0293251 -0.0110956 -0.068743 0.010731 -0.00820364 -0.0733865 -0.0222378 -0.0330742 0.0189175 0.00271572 0.0464481 -0.00127922 0.0314734 0.0585334 0.109339 -0.00571013 -0.0338891 0.0770986 0.074555 -0.0153209 0.0373144 -0.0860473 -0.114725 -0.02325 -0.10119 -0.0592144 0.0612088 0.0180582 0.0201274 0.0488203 -0.0308834 0.00567806 0.0614021 -0.027947 0.0192817 0.0122369 -0.017401 -0.0420853 -0.0553001 -0.0372142 -0.00186842 -0.0259565 -0.040998 -0.14918 0.0279071 0.0361445 0.0274106 -0.0439111 0.00629353 0.0187343 0.0352444 0.0393822 0.0772304 0.0150037 0.000242353 0.051342 -0.0391011 -0.00372942 0.0110332 -0.139718 0.0550585 -0.0358067 -0.048939 0.00772392 -0.0164121 0.0284408 -0.0640555 0.0710581
and -0.017061 0.0250389 -0.0678157 0.103693 -0.0684974 -0.00695416 0.0559558 -0.00530692 0.0821806 0.149233 0.0740973 0.0048045 0.0764617 -0.0649264 -0.0343239 -0.0821211 0.0530719 -0.0649805 -0.0373792 0.00793509 -0.0124664 0.0164643 -0.068519 -0.034239 -0.0444995 0.0198664 0.122808 -0.0519547 -0.00632979 0.035795 -0.100322 0.104007 -0.0333749 0.14635 0.0406418 -0.029719 -0.0465452 -0.104894 0.0794104 -0.0325336 0.0369372 0.0387465 -0.051083 0.0195634 0.00150521 -0.04421 -0.00723335 -0.028685 0.0282576 -0.0431122 -0.000171882 0.0164464 -0.0911513 0.0118101 -0.105922 -0.0271117 -0.00524167 0.0462796 -0.152225 0.0919845 -0.0266166 -0.0904696 0.102898 -0.0256459 -0.000197008 0.0142384 -0.119762 -0.0333197 -0.118242 -0.0117241 -0.160314 -0.0389283 0.00575573 -0.103098 -0.0610958 -0.0536033 0.104732 0.0763697 0.0369788 -0.000248598 0.0392919 -0.011466 -0.0671989 -0.022688 -0.0153583 0.0265565 -0.0398075 0.039781 0.0476858 -0.0174133 0.0161791 -0.0378873 0.0829056 -0.093256 0.0397685 0.0715922 0.0487982 0.00427557 -0.0150884 -0.0254138 0.0212082 -0.0679942 0.107145 -0.0411174 -0.115531 0.0172942 -0.0938512 0.0302362 -0.0299765 -0.00454074 -0.0130416 0.00129279 -0.0571894 -0.0573733 -0.033179 -0.0224391 0.00327321 0.0302427 -0.0385977 0.0743949 0.0512816 0.026036 -0.0385425 0.142097 0.0392643 -0.000110072 0.100852 0.0360899 0.0298818 0.0609118 0.0257796 0.0462503 -0.0783933 0.00530655 0.0446829 0.0212385 -0.0543434 0.089447 -0.0166866 0.0558097 -0.0252044 0.0606575 0.0834088 -0.0272199 0.0803627 0.123739 -0.0303185 -0.0394785 0.000982932 -0.0084913 -0.0325822 -0.103038 -0.0406185 -0.00177547 -0.0428817 -0.0423775 -0.0599109 -0.0506994 0.142211 0.00559449 -0.0514001 0.0935752 -0.0291893 0.081461 0.123441 -0.0897554 -0.0433243 -0.0412543 0.0726256 -0.0506567 -0.0353762 -0.00767268 -0.0367576 -0.0207132 -0.0457266 0.0599596 0.0372267 0.104975 -0.0375345 -0.0234806 0.0833331 -0.055036 0.0269364 -0.00541324 -0.0182389 0.157003 0.0137455 -0.0513563 0.0507919 -0.0299868 -0.0321489 -0.0446596 0.050885 0.0321505 -0.0176189 -0.00335545 -0.00515483 0.0500145 -0.0919521 0.000210491 0.103812 -0.0135523 -0.0640824 0.015084 -0.0184088 -0.025357 -0.0487435 -0.0186214 0.138153 0.0523621 0.112761 0.0160655 -0.00862602 -0.0193584 0.00116646 0.0434174 -0.0169647 -0.122689 -0.0626486 -0.0322354 -0.0402652 -0.069639 -0.0551821 0.0351517 -0.0380837 -0.021713 -0.0797513 -0.0534772 0.062838 0.0858706 0.037495 0.017258 -0.0155488 -0.0457915 -0.0804222 0.0616693 0.0393281 -0.0355754 -0.00719385 0.0460783 0.013555 0.00912595 -0.0244865 -0.0232247 0.0667065 0.0704019 -0.00828894 -0.0754391 0.0485671 0.0444595 -0.044322 -0.00632383 -0.0635305 0.0158215 -0.0356089 0.0162094 -0.00591967 -0.00990128 0.0309374 0.0370275 0.00391025 0.0031156 0.0386669 -0.0449962 -0.00812121 -0.0422346 0.00180133 0.0536357 0.033106 -0.0529232 -0.0757908 -0.00142319 0.00120487 0.0451758 -0.0775546 -0.0202608 0.0333094 0.116521 -0.0199302 0.0209004 0.0705047 0.0248582 0.0149877 0.0333716 0.0340436 0.0370367 -0.0142254 0.0938295 -0.0780253 -0.00710079 0.0838308 -0.058358 0.0990885 0.0751036 0.0149168 -0.0189764 -0.00964644 0.0603978 -0.0315061 0.0064802
' -0.065462 -0.0512609 0.0499509 -0.0272568 0.0145207 0.04976 0.000572835 -0.0265965 -0.0749581 -0.0170073 -0.000713199 -0.0670491 0.0682768 -0.0220499 -0.00330316 0.0226536 0.0700697 0.0844056 -0.0435615 0.030075 -0.125819 -0.0133956 -0.0805427 -0.0235404 -0.049483 -0.036038 0.0245229 0.0614532 -0.00542441 0.0416937 -0.0936696 0.0947101 -0.0768746 -0.0102735 -0.0675881 -0.0491012 -0.137879 0.020623 0.0897132 -0.0637589 0.0987901 0.113758 -0.0696767 0.0513246 -0.00468292 0.0448304 6.68844e-05 0.022228 -0.0213503 -0.0173643 0.00467281 -0.0250918 0.0748758 -0.129184 -0.0603266 -0.0310242 -0.0160999 0.0118598 -0.00560707 0.0441791 0.0255331 -0.0696056 0.0430562 -0.00770804 -0.0581406 0.0116412 0.0484349 0.0143302 -0.0281031 -0.0357127 0.0507519 -0.0503364 -0.0346819 -0.146941 -0.060525 -0.0245618 0.0260519 0.0980939 -0.014864 0.146679 0.0607046 0.019941 -0.024725 0.0379507 -0.0287013 -0.0223987 -0.0259677 0.0806663 -0.0110618 -0.0460394 0.00433669 0.0636279 0.0655331 0.034031 0.0404211 0.0320277 -0.00159259 0.0363191 0.0674196 -0.0903458 -0.0598512 0.00693922 -0.0395265 -0.0195914 -0.0127334 -0.0498835 -0.0594732 0.0126193 0.0296018 -0.00626211 0.0232899 0.0616067 -0.00793225 0.00545398 -0.00668432 0.0667609 0.0486782 0.103858 0.0210913 0.0505797 0.157395 0.00898741 0.0694222 0.0112325 0.0445422 -0.0217096 -0.0345213 0.00940776 0.0011405 -0.00926926 0.041267 0.0815683 0.0451822 0.0984719 0.0496514 0.0220293 -0.13795 -0.0155299 0.0396725 0.094231 -0.0107751 -0.016399 -0.0136378 0.00335874 0.0250529 0.0637065 0.0623216 0.0352692 -0.0526009 -0.0687297 -0.0131291 0.0437374 -0.0329126 -0.0660759 -0.0926889 0.0459832 0.00201885 -0.0182163 0.0896758 0.0672175 -0.0808908 0.0326505 -0.0658962 0.0654021 0.0530838 0.0303677 -0.0327213 0.0267788 0.0802845 -0.0228344 -0.0269349 -0.0886539 -0.0444636 -0.00267983 -0.0267938 0.0184891 -0.0100164 0.0258244 0.00275761 -0.0143044 0.0631226 0.0619585 0.00567819 0.0594208 -0.0394516 0.0215113 0.0516876 -0.00745651 0.134873 0.0811641 0.0236133 -0.0415178 0.132141 0.115637 0.0470463 -0.00316699 0.0943658 -0.0275024 -0.165442 0.00830506 -0.0158331 -0.00707884 -0.0568231 0.0728957 0.0161782 -0.0861947 -0.0936097 0.00421691 0.0553858 0.0823656 0.152986 -0.0502578 -0.0689356 0.00444374 -0.0735882 -0.0696093 0.0517101 -0.0852178 -0.0670304 0.0393468 -0.0216445 0.0266022 -0.0891293 -0.00254119 0.0138478 -0.0111876 -0.063714 0.0541094 0.0151713 -0.010908 -0.00460431 0.0865017 -0.0535854 -0.0848397 -0.073416 0.0577514 -0.00863819 0.00596117 -0.0288323 0.02435 -0.114376 0.0495766 0.0257345 0.042244 0.0548655 0.0860151 0.0678838 0.0829645 0.0402751 0.00168819 0.0683105 0.0401029 0.0103649 0.0508492 0.0267552 0.0123887 0.0114073 -0.0518336 0.0889309 -0.098528 0.0358419 0.0589342 0.0371261 0.00497188 -0.0115952 0.0384298 0.011511 0.0841697 -0.00547719 -0.0617078 -0.115626 0.0206242 -0.0590165 -0.0417012 0.0128936 -0.0203902 0.125557 -0.00160928 0.101964 -0.0564001 0.0360608 0.0532485 0.0366286 0.000310002 -0.00345842 0.0388827 0.0685201 0.148419 0.0805689 -0.00463388 -0.0150702 -0.0552473 -0.000679399 -0.0150223 -0.0644102 -0.0842184 -0.0698152 0.0507818 0.0760511 0.0392907
) -0.0803973 -0.0614514 0.0729513 -0.00951759 -0.0202873 -0.0230551 0.0172344 -0.0801856 -0.0489531 0.0633006 -0.0345308 -0.0692831 0.0922111 -0.0706975 0.0545688 0.0223475 -0.0540886 -0.0142545 -0.0135325 0.0450845 -0.00420819 0.0806015 -0.10227 0.0293329 -0.00685873 0.0602791 -0.0165019 -0.095123 0.0261393 0.00874198 -0.113596 0.106063 -0.0784876 0.069771 0.0102406 -0.0044608 -0.0722063 -0.0867656 0.0588307 -0.106063 0.0126881 0.0515095 -0.0611035 0.00775346 -0.0391625 -0.0816226 -0.0421651 -0.0211858 0.0392986 -0.00871513 0.0128519 -0.101794 -0.0118856 -0.101661 -0.0371038 -0.067018 0.0303264 -0.016694 -0.0242784 0.0814373 0.0631456 -0.0950398 0.0805902 -0.0637657 0.0317895 -0.0251803 0.0640569 -0.103288 -0.106982 0.0104959 0.019579 0.0214671 0.00897569 -0.0743165 0.0482308 -0.00588459 0.0999294 0.104229 0.0326952 0.14439 -0.055034 0.0776178 -0.00916552 0.0205289 0.0970932 -0.0673848 0.028091 0.0169088 0.0333604 -0.0125781 0.0721799 -0.0749405 0.0129918 -0.0323942 -0.00183099 -0.0215235 -0.0390642 0.00236919 0.0661482 0.0105379 0.0318435 0.0254881 -0.0813919 0.0156412 0.0671427 -0.00847311 -0.0688634 -0.00441996 0.0567773 -0.0628279 0.0291885 -0.006248 -0.072974 -0.0511881 -0.0234964 0.0273147 0.0223679 0.000393516 -0.0637544 0.0296578 0.130515 -0.0460375 -0.055363 0.109304 0.00415449 0.0365921 -0.0183666 0.0952213 0.0466312 0.0236616 0.0577341 0.0669764 0.0959928 0.12797 0.0348995 7.34467e-05 0.0351706 -0.0650818 0.0398092 0.0745774 0.0264873 0.0415185 0.0555596 0.0353915 0.0515851 0.0864328 0.0842622 0.0337366 -0.0263765 0.0305661 -0.0607707 0.0238904 -0.0387995 -0.0566336 0.0242682 -0.0035354 0.0851319 0.0653502 0.074585 0.0718736 0.0221633 0.0523263 -0.10269 0.0465821 0.0053128 -0.0415941 0.0325409 0.0239955 -0.00533058 0.0278679 -0.0730534 0.0279511 -0.0561836 0.0286087 -0.0129574 0.0241517 0.0112106 -0.05351 -0.0242837 -0.0243351 0.0313413 -0.0824999 0.0585622 0.0848407 -0.0402062 0.13292 0.00788355 -0.0417075 0.0323794 0.00505301 -0.00511087 -0.0946654 0.115623 0.0466085 -0.0907817 -0.0832865 0.0410306 0.0576736 -0.174859 -0.00902712 -0.00707164 -0.104354 -0.0844285 0.0239354 0.0252843 0.0020473 -0.0828062 0.0461056 0.0977323 -0.0452169 0.113747 -0.032747 0.0266945 -0.0105961 -0.0790738 -0.0448954 0.0522507 -0.0385158 -0.135507 -0.086153 0.0024025 -0.0149665 -0.019402 0.00569097 -0.00354217 -0.0170687 0.00229484 0.0289366 0.0908913 0.026761 -0.0100466 0.0609484 -0.00391965 -0.0821444 -0.0569475 0.0113611 -0.0232903 -0.0690789 -0.0207328 -0.0481552 -0.0264891 0.137035 0.0205966 0.0155376 0.0351286 0.00604909 0.0611413 0.0625216 0.0145819 0.0538465 0.0504317 -0.0713895 -0.0465442 0.0687877 -0.0190424 -0.0514263 0.00560059 0.0395331 -0.0396428 -0.0607556 0.0620413 0.00226841 -0.0173301 0.0367506 -0.00477695 0.0999294 -0.00613379 -0.0450316 -0.0322599 0.0141641 -0.064212 0.00244301 0.0244577 -0.026283 -0.0499855 -0.0180561 0.0562479 -0.0153806 -0.00640305 -0.0580215 0.0222726 0.0677554 -0.0370758 -0.00841941 0.0502956 0.0130122 0.148217 0.0298465 0.125811 0.0711286 -0.0744904 -0.0575072 0.0427437 0.0360169 -0.00478867 -0.0615232 -0.00280256 0.0502238 0.0511087 0.103942
( -0.088463 -0.0580518 0.0704926 -0.0200483 -0.00942242 -0.0212419 0.0196699 -0.0798592 -0.0407456 0.0562073 -0.0277306 -0.0702042 0.0933323 -0.0623974 0.0464422 0.0178235 -0.041554 -0.00853092 -0.0169647 0.0525601 -0.0202904 0.0766105 -0.0800034 0.0388897 0.00664127 0.0651527 -0.000764739 -0.0987595 0.0147266 0.00549246 -0.105151 0.119607 -0.0833318 0.0775897 0.0114874 -0.0174129 -0.0864933 -0.081495 0.0879089 -0.108847 0.011736 0.0567045 -0.0552737 0.00847626 -0.0456111 -0.083719 -0.0413035 -0.0235771 0.0425331 -0.0134473 0.0148204 -0.114005 -0.00943911 -0.11257 -0.0272657 -0.068261 0.0317695 -0.0180004 -0.0411137 0.0833888 0.0581998 -0.1115 0.0643557 -0.0616915 0.0174281 -0.029728 0.0696349 -0.0947517 -0.110278 0.0042518 0.00390453 0.0198843 0.00365287 -0.0701282 0.0493835 -0.0043945 0.095636 0.0902506 0.0347188 0.152318 -0.0534027 0.0784018 -0.0232868 0.0265571 0.108392 -0.0752366 0.0215189 0.00827777 0.0222852 -0.00855672 0.0549435 -0.059031 0.0204654 -0.0276623 0.00639079 -0.0283701 -0.0442713 -0.0143035 0.0727811 -0.00794379 0.0270273 0.0229771 -0.0880835 0.0058826 0.0684394 -0.0168971 -0.0662913 -0.00049171 0.0663064 -0.0640673 0.0235577 -0.0136864 -0.068614 -0.0553762 -0.00428405 0.0508333 0.00829144 -0.000902278 -0.064572 0.0250235 0.13415 -0.0404533 -0.052211 0.10676 0.00658169 0.0563516 -0.0268547 0.10797 0.0558658 0.0135292 0.0547082 0.054287 0.0894118 0.125182 0.0444421 -0.0170034 0.017195 -0.0441309 0.0334732 0.0705609 0.00920153 0.0520098 0.0454061 0.0517973 0.0531066 0.0866033 0.0783297 0.0462373 -0.0397702 0.0153688 -0.0794683 0.023582 -0.0286418 -0.0539947 0.0262687 0.000454175 0.0702611 0.0515051 0.0710391 0.0674071 0.0173662 0.0364236 -0.105154 0.0261366 -0.00769597 -0.0357363 0.0235691 0.0263765 -0.0273628 0.0239718 -0.0805537 0.0326283 -0.057881 0.0210559 -0.0104061 0.0403357 0.00486928 -0.0537746 -0.0217417 -0.0280327 0.0213812 -0.0811724 0.0664127 0.0645682 -0.0355947 0.1241 0.0176922 -0.0423661 0.049467 0.0163286 -0.00225683 -0.0967024 0.108172 0.0472468 -0.0827853 -0.0780641 0.0396753 0.0381041 -0.162838 -0.0026707 -0.00701207 -0.120738 -0.0825994 0.0178839 0.0103435 0.00064572 -0.089222 0.0558202 0.112521 -0.0408632 0.125766 -0.0297117 0.0341221 -0.0337479 -0.0802046 -0.0359013 0.0528789 -0.0341066 -0.130267 -0.0745801 0.00224662 -0.00951957 -0.0342174 0.00886793 -0.00702611 -0.0270061 -0.00245069 0.0316089 0.0802425 0.0133729 -0.0142955 0.0667315 0.00407076 -0.0969643 -0.0542983 0.00529624 -0.0269476 -0.0594485 -0.0375056 -0.0446167 -0.0177571 0.123876 0.0192976 0.0155737 0.037473 0.0188369 0.0650199 0.0529966 0.0257609 0.0547006 0.0632627 -0.0553876 -0.0522603 0.0721853 -0.0193124 -0.0545336 0.00364642 0.0372282 -0.0375136 -0.0541959 0.0685039 0.0100088 -0.0110836 0.0326196 -0.0138059 0.101629 -0.00977537 -0.0394552 -0.0178956 0.00776276 -0.072747 -0.0053137 0.023787 -0.0346937 -0.0361222 -0.0251016 0.0503855 -0.00563364 -0.00339126 -0.058902 0.0242397 0.0684659 -0.0378817 0.0126692 0.0683938 0.027498 0.140522 0.0214985 0.125645 0.0742612 -0.0737527 -0.0640521 0.0433757 0.0383432 -0.00331039 -0.0626023 0.00640483 0.0377253 0.0714793 0.100243
to -0.0876181 0.0630336 0.0217105 -0.0451413 -0.0308944 -0.00168047 0.0153169 -0.0505279 -0.0679029 0.0777934 0.00775224 -0.0155299 -0.0133289 -0.000399884 0.0419718 -0.0370274 -0.0635427 0.0381757 -0.0141841 0.0466153 0.0432158 0.0967203 -0.0745212 -0.0234632 -0.13753 -0.0391061 -0.0179855 -0.047617 0.0383716 0.0577045 -0.0979027 0.0943924 -0.176846 0.0719593 -0.0393516 -0.0685188 -0.0520018 -0.136467 -0.0122828 -0.0183349 0.028126 -0.0604841 -0.0798462 0.0334699 0.0392239 0.0549086 0.0938094 0.0293211 0.0311703 -0.00496165 0.0471203 -0.100612 0.0362227 -0.0516364 -0.116419 0.0983954 0.0553849 -0.0179054 -0.0241994 -0.0614366 0.0199611 -0.10478 0.144251 -0.00430475 -0.00504622 -0.0936082 -0.102259 0.0700666 -0.093522 0.0505854 -0.0955297 0.0281925 0.0256503 -0.116797 -0.0238409 -0.0094183 0.133659 0.0614489 0.0163063 0.0520757 0.0258564 -0.00438481 -0.0476129 -0.06569 0.0309063 0.0263992 -0.00805565 0.0476663 -0.0188752 -0.0553479 -0.0167657 -0.021369 0.107181 -0.170318 -0.0047695 0.0327399 0.0107838 0.000371941 -0.00717211 -0.057762 0.07494 -0.0349602 0.0337281 -0.0607386 0.0130378 -0.0179958 -0.0367301 -0.0106451 0.0263039 0.0475431 0.0260568 -0.0431871 0.012406 -0.0515133 -0.07533 -0.0745089 0.0657639 -0.0272338 -0.023308 0.0279626 -0.0185841 0.00876674 -0.0338024 0.120504 0.0908698 -0.0584271 0.0281884 0.0246436 -0.0325092 0.111152 -0.0150623 -0.00305754 0.0117318 -0.000909806 0.00496165 0.108405 0.00841201 0.0160013 -0.0815746 0.0270721 -0.0470135 0.0647293 0.0651809 -0.0416844 0.0622495 0.110117 0.0960223 -0.0471859 0.0402741 0.021991 -0.0415202 0.0227082 -0.0861114 -0.0146944 -0.0610629 -0.0823137 -0.00934276 0.0236102 0.0839477 -0.0764755 -0.0882832 -0.00184363 -0.118472 0.0127471 0.0668067 0.0278973 -0.0625943 -0.00786802 0.12805 -0.0044234 -0.106566 0.00680056 -0.0147072 0.0317258 -0.0411712 0.129446 0.0131536 0.103864 -0.0726285 -0.0598846 0.036965 -0.0244987 0.0461472 0.124277 -0.0324952 0.0868216 -0.000884269 -0.00975578 0.0989496 -0.0090763 -0.0612313 -0.0717581 0.0798831 0.0471244 -0.0232604 0.0693933 -0.0418897 0.0378202 -0.0121354 0.0217976 0.0392748 -0.0473584 0.0102801 0.0481302 -0.0500804 -0.054847 -0.083648 0.0233676 0.0079452 -4.2875e-05 0.053952 -0.0490745 0.0134742 0.0605374 0.0197743 -0.055274 0.0421032 -0.0373468 0.0514312 0.043963 -0.0691387 -0.0513449 0.060755 0.0196146 0.0111246 -0.00921507 0.0263327 -0.0738109 -0.0791113 -0.00737452 0.135826 0.0524124 0.0422674 0.057138 -0.101959 0.0592647 -0.0495672 0.0483027 -0.0357165 -0.00145064 0.0571503 0.0527819 0.0257431 -0.0192541 0.00242417 0.0963877 0.0433061 0.00734291 -0.0169242 0.0321052 0.062077 -0.0293786 0.0264205 0.0118694 -0.00423413 -0.0886733 -0.0752027 -0.00402758 -0.0387867 -0.0825395 0.0160949 0.0386532 0.0192529 -0.0148057 -0.0296742 -0.0458064 -0.043807 0.0455314 -0.00915595 -0.0288252 -0.0287459 -0.104439 0.0424316 0.0232534 0.0102058 0.00525356 0.0316429 0.0444064 -0.0212893 -0.0230527 -0.00115668 0.00247007 -0.0464387 -0.0249109 0.0547115 -0.00623767 -0.0129898 0.0563168 -0.0229131 0.0250423 0.0113886 0.00849413 0.00321713 0.0745376 0.120406 -0.0883941 -0.099159 -0.0106488 -0.0297686 0.0615392
a 0.0495577 0.129444 -0.0491547 0.00429166 -0.0137998 -0.0461106 0.0260132 -0.0449188 0.0749775 0.00347774 -0.00970231 0.0280398 0.0485759 0.0234678 -0.0266203 -0.0127858 -0.0712046 0.0524088 0.0194008 0.0914924 0.0119896 -0.0134276 -0.108865 -0.0863733 -0.0844097 -0.00653867 -0.115922 0.0450645 0.0318234 0.00666257 -0.00601861 0.0708102 -0.074493 -0.00717834 0.00596759 0.00479756 -0.0540166 -0.0513412 0.034118 -0.015901 -0.0307254 -0.0365082 -0.0478899 0.00863562 -0.0690266 0.000820259 0.05935 0.0662184 -0.0113174 -0.00625184 0.00025882 -0.0830978 0.0483058 0.0150208 -0.00604648 0.0489918 -0.0402211 -0.0206235 -0.00246146 0.0798951 -0.0590242 -0.111077 0.0911452 -0.081177 -0.0285539 -0.156622 -0.131751 -0.0232161 -0.00761951 0.0230266 -0.0893916 0.0188408 0.00505995 -0.0186209 0.0243081 -0.0373546 0.0212941 -0.00420651 0.0423133 0.0191744 0.0389863 -0.0377567 0.0247484 -0.0853786 0.0550112 -0.032704 -0.049742 -0.0184901 -0.116123 -0.0413302 0.0197665 -0.0247098 0.0532448 -0.0403681 0.0378965 0.00677533 0.0247317 0.0767868 -0.0714618 -0.00238322 -0.120621 -0.00520315 0.0568591 0.0676161 0.00998142 0.021406 -0.0591228 0.0763323 0.0137646 -0.00388067 -0.0654424 -0.025148 -0.0376092 0.0123909 -0.0178637 -0.130555 0.0951367 -0.00155631 0.0330972 0.054814 0.0555 0.0315456 -0.0116265 0.15567 0.0113808 -0.0259707 0.00713933 0.0226476 -0.0168069 0.0432681 -0.0260175 0.0596759 0.0325 0.0181677 -0.0583339 -0.040023 -0.0302847 -0.03071 0.0682506 0.0544882 -0.0229786 0.0431052 0.0627456 -0.0123686 0.052859 0.135459 -0.0320468 -0.00591314 -0.0351543 -0.0360696 -0.0422975 0.0174899 -0.060469 -0.0838095 -0.0520744 0.00748875 0.0939019 0.0136291 0.0714318 0.0144107 -0.113302 0.120818 -0.0928515 0.0308442 0.134207 -0.0186779 0.0351234 0.0119197 0.0557229 -0.0983394 -0.111111 -0.0121898 -0.0320678 -0.0900004 -0.0313325 0.0110138 0.0443828 0.0727395 -0.0225263 -0.0213434 0.0470153 0.0883584 -0.0144844 0.0915696 -0.0414794 0.0735541 0.070643 -0.0630415 0.012986 0.0236354 -0.0190814 -0.17137 0.170577 0.153338 0.0215042 -0.0707416 0.0676461 -0.0127656 -0.0702185 -0.0320412 0.0596287 0.0337862 -0.0335015 0.0766581 -0.0873594 -0.115446 -0.0718734 0.0567347 0.0317222 -0.00980221 0.0852972 0.0154508 -0.0389246 -0.00422842 0.0221408 -0.0986995 -0.0441556 -0.108702 -0.107403 -0.0322131 -0.0766624 -0.000842596 -0.0342998 0.0924056 0.0650908 -0.00887957 -0.0535578 0.0499436 0.00849328 0.0314706 0.0666214 0.0115738 -0.0511612 -0.0131524 -0.0709817 0.0395557 0.00211869 -0.0316378 -0.023749 -0.0354741 -0.0557829 0.00579867 0.00779915 -0.00237683 0.0252136 0.0702571 0.0650608 0.00297711 0.0163705 -0.0262803 0.0195924 -0.0110237 0.00392787 0.00924914 -0.0260423 0.0462393 -0.0378656 -0.053382 0.075642 -0.0296922 -0.0238708 0.0881054 0.0653566 0.00718263 -0.0669858 0.0169184 0.0336378 0.038263 0.0102048 -0.108908 -0.0960671 0.0339671 -0.0638389 -0.00056186 -0.0983522 -0.0515728 0.0766024 0.0305651 0.0521087 -0.0496306 0.0567905 0.00623555 0.0185532 -0.0326616 0.0189257 -0.0639847 0.0446529 0.0942664 -0.0383715 -0.0030785 -0.00868492 -0.0801481 -0.0281226 -0.0867034 -0.0523831 -0.127755 0.0146937 0.0473668 0.0560531 0.0176485
is 0.0137334 0.0554924 0.0455881 0.0301357 -0.0182521 0.0385928 0.0347148 -0.0847695 -0.036347 -0.00864285 0.00292431 0.0167314 0.0195147 -0.0372235 -0.014314 0.0173197 0.000334988 -0.0477708 0.0113374 0.0266912 -0.0615091 0.0665893 -0.125759 -0.069915 -0.0024989 0.022528 0.00747391 0.0752322 -0.0552592 0.0327767 -0.0275065 0.144234 -0.130117 0.0105687 0.00473044 -0.0610046 -0.0559855 0.0619029 0.0353677 -0.0334999 -0.0226966 -0.00395828 -0.0283532 0.0217597 -0.0418534 0.109104 0.0736382 0.00400721 -0.0209592 -0.0116593 0.0260413 -0.0188025 0.0445063 -0.0389139 0.0402938 0.0368409 0.116023 0.0378068 0.0615779 0.0601903 0.0328234 -0.0483939 0.0331058 -0.00478472 -0.0229684 0.0221889 -0.0747123 0.0113791 0.0517195 -0.0209997 -0.0373122 0.0159027 0.0738867 -0.0272447 -0.15535 -0.0287317 0.0143244 0.093508 0.0261212 -0.0315336 -0.0178931 0.049338 0.0325233 -0.101776 -0.0343944 -0.0715855 -0.0756756 0.0464864 -0.0495292 -0.028531 0.101704 0.0813674 0.0523961 -0.084437 0.0233384 -0.0965087 0.0465284 0.0650641 0.0544679 -0.0228411 -0.0875562 0.0265608 0.0288188 0.0208174 0.00985346 -0.0303444 -0.0890547 -0.0215269 0.0327438 -0.0529924 0.00414673 0.0457334 -0.110981 0.0217876 0.0403129 -0.0348963 0.0596399 0.0637683 0.0753927 0.0261392 0.0963978 0.0493342 -0.0457792 0.139566 0.0176336 0.0570405 0.0442731 0.0580038 0.025341 0.0158113 -0.0421707 0.0131787 0.0332905 0.0258399 0.00777283 -0.0308482 0.0425262 0.0304446 0.0451829 0.0545712 -0.0620749 0.0183671 0.0777092 -0.0712911 0.0261243 0.0453817 -0.0835004 0.030951 0.0442502 -0.0329491 0.00636268 -0.0280386 -0.00686612 -0.0137984 -0.00504542 -0.03038 0.0423121 -0.0174176 0.204825 -0.00423121 0.0312328 0.0658707 -0.0933092 -0.0154333 0.124245 -0.00172716 -0.00903085 -0.0510735 0.043738 0.0508174 -0.0500682 -0.0769485 -0.0323516 0.0213243 0.00939705 -0.0118726 0.0653929 0.00626215 -0.002706 -0.0148779 -0.0157559 0.051838 0.0172559 0.151172 0.0323375 0.0495406 0.0283223 0.0191622 0.0516239 -0.0264136 0.00160694 -0.0751252 0.0199661 0.08394 0.0292538 -0.0523349 -0.0344334 0.0151347 -0.0753545 0.0338726 0.0202455 -0.0582905 -0.132062 0.0284675 -0.106914 -0.0284862 -0.0819485 0.0557218 0.0720403 -0.0460812 0.0737643 0.0343738 0.0423733 0.0914132 -0.0222386 -0.0583173 -0.0191118 -0.113936 -0.0627973 -0.0202704 0.021929 -0.0464596 -0.104777 -0.0475453 0.116076 0.00148308 -0.0448274 0.114979 -0.00536576 0.00198231 0.00550757 0.0214129 -0.0920783 0.0133217 -0.0657102 -0.0161932 -0.0667728 -0.0910844 -0.00707751 -0.00573922 -0.0809584 0.0643034 0.0480154 -0.0452708 0.112357 0.116573 0.140782 -0.00062847 0.0514061 -0.0682063 -0.0157249 0.111057 -0.0129283 -0.0190529 -0.0416547 0.0220406 -0.00198602 -0.0466087 0.0705343 -0.0166271 0.0500376 0.123882 0.0188373 -0.0474459 -0.0897274 -0.0248861 -0.0506492 0.139134 0.00869064 -0.0600451 -0.0222352 0.0452746 -0.00452899 0.0167024 0.01515 -0.0995897 0.124891 0.0685312 0.0421631 -0.0172826 0.0846549 0.0579083 0.0233793 -0.0212448 -0.0287898 -0.038436 0.0443993 0.0742001 -0.0387648 0.0815203 0.0154142 -0.104777 -0.0444681 -0.0341807 -0.0278108 -0.0995515 0.0322037 -0.000614747 0.0652897 -0.0135747
was -0.0422937 -0.00247886 -0.0445384 0.0760957 -0.0241759 0.0271023 -0.0351552 -0.0581791 -0.0135616 0.130505 0.0868509 0.0224757 -0.0346984 0.0345653 0.00550875 -0.0815182 -0.0287665 -0.0579206 -0.0701335 0.0986928 -0.000275123 0.0756722 -0.0580405 -0.0671505 -0.089208 0.0269723 -0.0485857 0.0259732 0.0768751 0.0772424 -0.0529889 0.037244 -0.0731352 0.0395318 0.0191026 -0.0567963 -0.0514075 -0.00401427 0.129403 -0.013954 -0.0140304 -0.0435866 -0.0826012 0.0548439 -0.0335449 -0.0711303 0.0278574 0.0810348 -0.0187522 0.0298211 0.0100544 0.00298177 -0.0586925 0.0105813 -0.000224495 0.00159109 0.0622564 0.111955 0.0637066 0.0451717 0.0860864 -0.0185622 -0.0110943 0.0327043 0.0455502 0.00373549 -0.0659101 0.00525954 -0.116253 -0.031682 -0.0196445 0.00994273 0.00435079 -0.0466182 -0.0259024 0.0123658 -0.0558445 0.0597755 0.0652468 -0.0722208 0.0187035 -0.00400302 0.0900587 0.0286076 0.017915 -0.062841 -0.122129 0.0305728 -0.0635492 -0.0526367 -0.0232357 -0.0672929 0.0386662 -0.0786627 0.0364117 -0.0183366 -0.0512876 -0.0279387 -0.0575908 -0.0386287 -0.0414505 0.086656 0.0377518 0.023872 -0.0312938 -0.0264045 -0.0431594 0.0727979 -0.0186548 -0.0136564 0.073064 0.0298649 -0.0173454 -0.021878 0.0541281 0.00803378 0.0281565 0.122987 0.0202733 0.0660713 0.0682335 0.0972013 -0.065318 0.164284 0.0310281 -0.000117082 0.0106499 0.0787189 0.0226736 0.0331139 -0.0825975 0.0321257 0.0626948 0.0186199 0.0234141 -0.0415742 -0.0187998 0.00913553 -0.0543792 0.11348 -0.00205454 -0.0260556 0.0221107 -0.0548589 0.0306819 0.0948067 -0.0372987 -0.0406486 0.0345803 0.0585351 -0.000368854 0.0365241 -0.0170831 0.0483795 -0.0517897 0.005867 -0.0289427 -0.026062 0.149943 -0.076047 -0.0709092 0.0307294 -0.0528278 0.0261819 0.122403 0.0155444 0.0626498 0.0391496 0.130351 0.0532437 -0.0595619 0.0280028 -0.032876 0.066401 -0.00831821 -0.0699461 -0.0361546 0.0429158 -0.0867909 -0.0185993 -0.0273099 0.0732101 -0.0923296 0.0992512 -0.0643174 0.0687357 -0.0151704 -0.0221943 0.0042927 0.0369472 -0.0403713 -0.128331 0.00304611 0.117681 -0.00950728 -0.0283877 -0.0140867 -0.00405212 -0.0511189 -0.0790637 -0.0263228 -0.0407198 -0.101593 0.0376619 -0.0631557 0.0129763 0.00969989 0.0733525 0.160402 0.0518197 0.141676 -0.06615 -0.015951 0.05873 -0.00922584 -0.0251176 -0.0858503 -0.0639764 -0.102748 0.0408959 0.0714301 -0.0282981 -0.113589 0.0146023 0.0686832 -0.00401277 0.00678775 0.0477163 0.000742894 0.0213125 0.0154058 -0.0481397 -0.0350165 0.0248744 -0.0535997 -0.0408734 0.0167683 0.0479224 -0.0512089 0.0475514 -0.0110906 0.0361258 0.0537309 0.0515686 0.030113 -0.0435566 0.074473 -0.087027 0.0460524 -0.0655991 0.029244 0.0474127 0.0633843 -0.0040345 -0.0269295 -0.0245289 -0.0801691 0.0188448 -0.0632232 0.0814995 0.0442574 0.0146847 -0.0184985 -0.0646285 -0.107739 0.0713439 0.00479149 0.042245 0.0476001 -0.0475326 -0.11447 -0.027522 -0.0439463 -0.00419227 -0.0377443 -0.128065 0.13966 0.113098 0.0966317 -0.0699611 0.0402513 -0.0436653 -0.0341644 0.0192454 -0.0244854 -0.0143917 -0.0191836 0.0927831 -0.0254853 -0.0781081 0.0462622 -0.0202411 -0.100874 -0.000126596 -0.00823989 0.0239166 -0.0317892 0.0346122 -0.0238589 0.020346
on -0.0107518 0.0298299 -0.0147365 0.0223541 -0.0068417 -0.0253112 0.0375495 -0.0395745 -0.0189679 -0.0770916 -0.00369211 0.00404111 0.0158959 -0.0456137 0.049811 -0.0383178 -0.0111456 -0.0131858 0.0136522 0.0514555 -0.0572864 -0.00373268 -0.109999 0.000649629 -0.078255 -0.070442 0.0562093 -0.0937659 0.0244186 0.00196767 0.00656128 0.0976401 -0.0229009 0.0181593 -0.0140852 -0.0807791 -0.0775512 0.0100925 0.0992163 -0.0689628 0.029832 0.0238686 -0.0177967 0.0446587 -0.0796194 -0.00879027 0.0033182 0.014274 0.0108914 -0.109277 0.0214184 -0.0670095 0.0188964 0.00145182 0.00766536 -0.0293667 -0.00463246 0.0186031 -0.0373663 0.0908217 -0.00299868 -0.0763664 0.0694726 -0.089802 -0.0615699 -0.0906422 -0.0101827 0.00350971 0.00372155 0.0753718 0.0337906 0.0165116 -0.0388528 -0.0462133 0.00641371 0.00590602 0.126264 0.0850231 0.0312815 0.000511108 0.0274067 0.0103037 0.067286 0.0349708 0.0257399 -0.0720039 -0.0545038 -0.0662627 0.0886854 -0.0876621 -0.0358519 0.0791059 0.102049 -0.0959418 0.0648947 0.0506261 0.00875831 -0.038562 -0.0453265 -0.0100118 -0.0513478 -0.0347654 -0.0464252 -0.0113173 -0.0454593 -0.013217 -0.022027 0.105988 -0.0133674 0.0879816 0.0371473 -0.0490893 0.0335148 -0.0192849 -0.0201205 0.0382173 0.0305361 0.00947497 -0.0435169 0.00744993 0.12971 0.048698 -0.0400018 0.0987926 -0.00787433 -0.0119729 0.093809 0.117654 0.0593833 0.0953996 -0.0410825 -0.0386841 0.00987424 0.07395 -0.093353 -0.0639684 -0.0252053 0.00105439 0.0109859 0.0132737 -0.0408491 0.0939562 -0.0718926 -0.0312334 -0.0154158 0.0469925 0.0937013 0.00241253 -0.102965 0.0973744 -0.0906099 -0.0924554 -0.142755 0.00618859 0.0539329 -0.0641443 -0.0221652 -0.0282626 0.0484179 -0.0428383 -0.0522059 0.0394129 -0.0902257 0.0464503 0.0855832 0.062367 -0.0167159 -0.0298292 0.0452475 -0.0507481 -0.0978627 0.0705928 -0.0953529 -0.0640725 -0.0676415 -0.0159113 -0.0185686 0.0237706 0.0510354 -0.0170542 -0.0645393 0.00879745 0.0322061 0.00849405 0.0440555 0.125488 0.052152 -0.0610457 0.0466478 -0.0129728 0.0048996 -0.105381 0.00760899 0.00983869 -0.0129125 0.0108993 0.0132619 0.0374633 -0.122465 -0.0822476 -0.0392944 0.0679251 -0.0238481 -0.0169138 0.0136608 -0.0499546 0.0234015 -0.0225853 0.112544 -0.0324431 0.158776 0.0316032 -0.0307386 0.0113844 0.000985629 0.0786176 0.00202713 -0.162388 -0.042946 -0.0454737 0.0845671 -0.0321188 -0.0111402 0.0505291 -0.0489062 0.00924985 -0.0840931 0.0149796 0.00954248 0.0535021 0.126856 0.0574983 -0.0308065 0.0361743 0.0429532 0.0301534 -0.00305821 -0.0363861 0.00928755 0.000715264 0.0427377 0.0326387 0.111683 0.033443 0.0959956 0.105895 0.0113963 -0.022139 0.0930263 0.0917481 0.0759247 -0.0131893 0.0455635 0.0144212 -0.0545541 0.0463067 -0.178782 -0.00110832 -0.0226079 0.03233 0.123201 0.0644459 -0.0407342 0.0505507 0.0264254 -0.0549383 -0.0165335 0.052091 -0.0921897 -0.0467483 -0.0371078 -0.0190735 0.015339 0.0863767 -0.0655195 -0.0531358 0.00460302 0.0951447 0.0137785 -0.0150216 0.0808294 0.0297563 -0.0772568 0.0362282 0.0399228 -0.0346706 0.0271514 -0.028035 0.0555379 -0.0688694 0.053836 -0.0159964 -0.0418976 -0.0644028 0.130188 -0.0596634 0.049452 0.0130572 -0.0172832 0.000528019
s 0.015129 -0.0444108 -0.0681364 -0.0119611 0.0621106 -0.00752871 0.000756922 -0.0434117 -0.0300727 0.0501612 0.0463381 -0.0546806 0.0390021 0.0433448 0.0253921 0.0340658 0.00128756 -0.00343907 -0.0684313 0.0212877 -0.110254 0.0720303 -0.0274827 -0.0784573 -0.0694658 -0.00690213 -0.01955 -0.00599394 -0.00660674 0.0749645 -0.0664647 0.204826 -0.0568203 0.0226982 -0.0275515 -0.0519233 -0.033763 0.00770452 0.0710431 -0.148458 0.0804475 0.00731159 -0.09174 0.0617448 0.0537562 -0.0485761 0.0120575 0.0817495 0.0632748 0.0686949 0.025037 -0.02578 0.0378992 -0.0371031 -0.101023 0.073997 0.0225897 -0.0287649 0.00305856 0.0470382 0.0509125 -0.102151 0.0538152 -0.0063027 -0.145905 0.0262236 0.0322766 -0.0413035 0.0443872 -0.0152439 0.0661618 -0.0285659 -0.0202143 -0.151864 -0.0535675 -0.0456379 0.0505782 0.0673418 0.0155798 -0.0319647 0.0770531 0.0220701 0.0360388 0.0171889 -0.0734266 0.0130868 -0.0530915 0.163271 -0.0995083 -0.0724708 -0.00587869 -0.0149776 0.065328 -0.00252206 0.0259955 0.00891676 0.0172306 0.0238168 0.0314691 -0.0676211 -0.0529578 0.00217826 0.0268962 0.0187303 -0.0935611 -0.0478996 -0.0676565 0.0890024 0.0693281 0.0575479 0.00170197 -0.0143612 -0.049347 -0.00652847 0.00101841 0.0583897 0.0571703 0.091799 0.0229645 0.0333393 0.0389628 0.0591527 0.0723568 -0.0159526 0.0645059 0.00690292 0.0472899 0.0543344 -0.0617684 0.0157084 0.0633259 0.100492 0.071401 0.00817259 -0.0370712 -0.0406938 -0.112555 0.017642 -0.0275814 0.00503854 -0.0200771 -0.0371676 -0.0602501 0.0161277 -0.0366854 0.0638451 0.0878303 0.0133964 -0.0217413 -0.0156364 -0.0286371 0.0222227 -0.0552942 -0.0173781 -0.0648521 0.0207803 0.03403 -0.0302344 -0.0157033 0.109381 -0.0488908 0.0802115 0.000471759 0.0994689 0.0585981 0.0133543 0.0609778 0.0210215 0.102816 -0.0179936 -0.0332257 -0.0566197 -0.074347 -0.0526589 -0.0496617 0.0515575 -0.00767227 -0.00951226 -0.0144658 -0.0534809 0.0875511 -0.0160647 0.0376144 0.0855136 -0.0843218 -0.00916928 0.0577013 -0.065623 0.0919524 0.0373367 0.0080774 -0.0239864 0.03375 0.0423497 -0.0302611 -0.0241264 0.00265819 -0.0198639 -0.136894 0.0197239 0.00604192 -0.0243683 0.004198 0.0282166 0.0237492 -0.123391 -0.0171755 0.0226703 0.0558488 0.0233154 0.201093 -0.0585391 -0.0142173 -0.0478052 0.0164195 -0.0447136 0.0546806 -0.141854 -0.0567102 0.0131915 -0.0919052 -0.0286693 -0.0834014 0.0260089 -0.0779774 -0.0118392 -0.0360978 -0.0242613 -0.0214171 -0.0273611 0.0123045 0.0733598 0.0159558 -0.0599433 -0.0533079 0.0987019 0.0654224 -0.0238212 -0.0147608 -0.0403713 -0.0297797 0.0251813 0.0222467 0.0216543 0.0509833 0.0319654 0.0388904 0.0523599 0.00777808 0.0369175 0.0542754 0.0263204 0.0475495 0.0551644 0.0224406 -0.00847073 -0.0440607 -0.0595264 0.0047286 0.000332835 0.0739222 -0.00902139 0.0500472 0.0560415 -0.00599315 -0.0296417 0.059255 0.0471365 0.0653634 -0.140387 -0.0973096 0.0361693 0.0168042 0.0830593 -0.0283228 -0.0254983 0.157269 0.108181 0.102584 0.0142609 -0.000364714 0.0382072 0.0453783 -0.0344639 0.057131 0.0754169 -0.011801 0.0848607 0.0129181 -0.112602 0.00240399 -0.0426998 0.0159196 -0.0507984 -0.0593887 -0.121157 0.00371696 0.071755 -0.0282666 0.036993
for -0.0174178 0.0454353 -0.0361571 0.0432188 -0.0499323 0.00423411 -0.0215441 0.016308 -0.0288492 0.0520566 0.0736159 -0.0764216 0.0929187 0.101243 0.0709025 -0.0272544 -0.0128334 -0.0368597 0.0541087 0.0563292 0.0442249 0.0869227 -0.0292492 -0.0618282 -0.0133308 0.0104418 0.0671549 0.0122691 -0.0452229 0.0354572 -0.117981 -0.00721249 -0.0738965 0.0347049 0.0811992 -0.0370028 0.018698 -0.0409984 0.0286424 0.0279734 -0.0523131 -0.00577601 -0.0225926 0.0633994 -0.00803495 -0.0425535 0.0940209 0.0014053 -0.0576679 -0.0074638 -0.0279109 -0.0862934 -0.0457279 -0.0407659 0.0119372 -0.0187377 0.0821932 0.00271894 -0.0546979 0.00282917 0.0172667 -0.0391755 0.133007 -0.100101 0.0446617 0.0110209 -0.00837403 -0.0622651 -0.0825699 -0.0105813 -0.0468101 -0.0165168 0.0208936 -0.0567059 -0.0993236 -0.0186102 0.122418 0.0197405 0.0718444 -0.0192703 0.0321815 0.109424 -0.0577881 0.00845098 0.00540566 -0.09851 -0.103243 0.0108141 -0.0919969 -0.0605216 -0.0519965 -0.018797 0.145031 -0.0852714 -0.0115204 0.0882213 -0.0428742 0.0141809 -0.100189 -0.0505335 0.00803895 -0.0974879 0.166082 -0.0741089 -0.0829186 0.0751711 -0.0593593 0.077652 -0.0961252 -0.0289842 0.0203914 -0.0274684 -0.0952153 -0.0268051 0.0111624 -0.0426537 0.0263109 -0.0487339 0.00684976 0.00295458 0.104045 0.10439 0.0202936 0.136001 0.0242315 0.0332039 0.0805098 -0.00299017 0.0143312 0.0897243 0.0391956 0.10041 -0.120799 0.0343983 0.00944338 0.0269169 -0.042818 -0.0819006 0.00872674 0.0555075 0.0356276 0.0259854 0.0999689 -0.0493552 0.0877684 0.0372356 -0.0267029 0.00175192 0.0418521 -0.00468301 -0.0744977 -0.061219 -0.0421647 0.0227277 -0.0311077 -0.0393022 0.0330063 -0.0788625 0.0294564 -0.0664014 -0.0511869 0.027268 -0.0200968 -0.00267894 0.0921131 -0.00390793 0.00528262 -0.0685978 -0.0343538 -0.0377643 -0.0868265 -0.0759045 -0.0614274 -0.0258123 -0.0518963 0.0519724 -0.0178639 0.0681209 -0.0471908 -0.11637 -0.0541087 -0.0530626 -0.00822493 0.0277041 -0.141665 0.0166182 -0.0219369 0.0330841 -0.0121352 -0.00947704 -0.00311434 -0.085115 0.0784857 0.00860209 0.00556037 -0.049267 0.00365587 -0.01474 -0.0312007 0.0846301 -0.0822172 0.000814076 -0.0250139 -0.0348348 -0.0282804 0.0652511 -0.0623493 0.0206908 0.129645 0.0342019 0.109368 0.0021783 -0.0328881 -0.0633553 0.0513592 -0.00710267 0.00894037 -0.0634114 -0.00836962 0.00155749 -0.0151308 -0.0212631 0.0173008 -0.08859 -0.0152005 0.08162 0.00276844 -0.00799046 -0.00568302 -0.0321474 0.0242467 0.0914478 -0.13146 -0.1077 -0.0218671 0.0727061 0.00396617 -0.0222716 -0.0400461 0.022912 0.0536197 0.0511147 0.0136346 0.0337402 0.0693073 0.108153 0.0762492 -0.0384124 -0.0193461 0.104991 0.0107901 -0.0232976 -0.0141665 0.0588823 0.0378601 0.0494995 -0.130827 -0.0415194 0.023078 0.0543091 0.0138454 0.0648303 0.0555757 0.0312356 -0.0360873 0.0343482 -0.0304865 -0.0436116 -0.0317374 -0.0103496 -0.125564 -0.0143745 -0.0475516 -0.0114077 -0.0918365 -0.0366777 0.026587 0.122482 0.0200415 -0.012342 0.0964258 0.0228006 0.0176038 0.0556158 0.0462169 -0.00200018 -0.00376733 0.0422449 -0.0755999 0.0963216 0.0287185 -0.0210936 0.0376456 0.000767021 -0.0214319 -0.0924858 0.0570827 0.0466658 0.0361214 -0.0271389
as -0.0436824 -0.0149531 -0.0435268 0.0259883 0.0454063 0.0232572 0.081145 -0.000195191 0.0471302 0.0522731 0.010532 -0.0393776 0.0347424 -0.0820335 0.0655605 -0.0555489 0.0528751 -0.0149383 -0.000556021 0.00215558 -0.0765589 0.0625754 -0.0348063 -0.0692949 -0.0186093 -0.012907 -0.017355 -0.0487394 -0.0220062 0.00317304 -0.0412706 -0.000611669 -0.098265 0.0840031 -0.00981135 0.0159981 -0.0205772 0.00560485 0.0306735 -0.130994 -0.0324883 0.0591973 -0.06208 0.00195052 -0.0391037 -0.0503937 -0.0349283 0.102872 0.112543 -0.0090526 -0.015919 0.0342752 -0.00935642 0.0323609 -0.0346818 -0.00647907 0.012461 0.00192214 -0.0959637 0.088364 0.0175725 -0.067616 0.0321173 -0.119443 -0.00883517 -0.0186314 0.00321001 -0.0798551 -0.0443458 -0.00567528 -0.102994 -0.0151046 -0.0156852 -0.0899404 -0.00663098 -0.0551558 0.0519251 0.0473472 0.08361 -0.042282 0.110471 0.0166401 -0.0324371 -0.0609703 0.0161348 -0.0771485 -0.0332581 0.0853912 -0.173501 -0.0380162 0.0116577 -0.0262934 0.0500456 -0.0353276 0.0673499 -0.0120348 -0.036782 0.0507704 -0.0878316 0.0244221 0.00655195 -0.111597 0.0705233 -0.0224677 -0.0201419 -0.00307918 -0.0365077 -0.00201513 0.0420691 -0.0877375 0.00814275 -0.0435596 -0.0909641 -0.0112289 0.0362956 -0.00536735 0.0688403 0.0238595 -0.0118804 -0.0563105 0.0837205 0.0674031 -0.104542 0.101545 -0.0717967 -0.0439363 0.0507171 0.0679559 -0.0102761 0.0249139 -0.0264764 0.0555694 -0.0145219 0.0346347 0.0475069 0.0507499 -0.0469254 0.00377778 0.0100194 0.0882493 -0.0354697 0.0240364 -0.0125503 -0.0461966 0.0877948 0.0858089 -0.0219817 0.0725092 -0.0167355 -0.028206 -0.016177 -0.0336737 0.0109173 0.000899609 -0.0703022 0.0703226 -0.0701138 0.00110398 0.134581 0.0483258 -0.0828852 0.0263241 -0.111769 0.0710106 0.0443744 -0.0778774 -0.0360925 -0.130613 0.0534033 0.10392 -0.0744092 -0.00140899 -0.0849244 -0.0699541 -0.0770175 -0.0274403 -0.00318745 0.0492103 0.0227703 0.0257566 0.0212704 0.0133308 0.0264953 0.0656915 0.00446078 0.109333 0.0642133 -0.0778733 0.0730661 0.0154133 -0.0385382 -0.114324 0.00255936 0.0857188 0.0653885 -0.00211533 0.0121363 -0.013974 -0.0645081 0.0366272 -0.0531781 0.0639062 -0.00258962 0.0639799 0.0731357 -0.0493618 -0.0832497 0.081534 0.0346876 0.0429986 0.216357 -0.0313528 -0.0419258 0.0462662 -0.0122223 -0.0316341 0.0260731 -0.0849899 -0.0258172 -0.0174021 -0.0170332 0.00934824 -0.0877416 0.0188897 -0.0205043 -0.0901615 -0.00864149 -0.0263806 0.0058837 0.0238267 0.0827829 0.0468272 -0.0298194 -0.0502258 -0.0832578 0.111118 0.0570107 0.0226851 -0.00272245 -0.000805144 0.0590908 0.06891 -0.0272847 0.0851496 0.0535466 0.0334399 0.0312443 -0.0578952 0.0105705 0.00850309 0.0622397 0.00796873 -0.0326009 0.0486657 -0.0133389 0.0519742 -0.063161 -0.0786513 -0.0368438 -0.0744911 -0.031198 0.0394354 0.0347035 -0.0315776 -0.0630873 -0.167486 -0.0986007 0.113534 0.0286691 -0.0968073 -0.108354 0.0369548 -0.0342011 -0.0228313 -0.00181617 -0.0765794 0.139663 0.0703349 0.0159731 0.00606345 0.0821687 0.00604052 0.0139179 0.0189778 -0.022706 -0.0195645 -0.00343837 0.119512 0.0854567 0.0171446 -0.0349287 0.00720506 0.015937 -0.0172789 -0.0450787 -0.0489974 -0.0131461 -0.00359577 -2.35033e-05 0.0555899
by -0.0476651 -0.0147759 -0.0867217 0.0834926 -0.0459601 0.0422748 0.0383037 -0.0738959 0.00290939 0.0855995 -0.0195873 0.043922 -0.0543296 0.0416631 0.043064 -0.0912576 0.037529 -0.0235516 -0.0290946 0.0460035 -0.00530626 0.0821387 -0.103359 -0.0349982 0.0229254 -0.0122017 0.00636765 0.010193 0.0559984 0.01213 -0.0843723 0.0330448 0.00837859 0.0476832 0.0728352 -0.0289621 -0.0915943 0.00119353 0.0847959 -0.0341931 0.0238108 -0.00104159 0.000123921 0.0713764 0.0121098 -0.0740009 0.000381661 -0.00393245 -0.0555351 0.0238387 0.0454713 -0.0147064 -0.0983855 -0.00879055 0.0290812 0.00826347 -0.0352505 0.0682559 0.00400159 0.0137724 -0.00776137 -0.0795468 0.00127074 0.0740697 -0.00273335 0.0605742 -0.0375073 -0.0682921 0.0113257 -0.0296195 -0.042702 -0.00327617 -0.0605669 -0.099562 0.0172444 -0.0119809 0.0428794 0.0519548 0.0548255 -0.017071 -0.0358514 0.0152266 0.0648784 0.0820374 -0.0293281 -0.024002 -0.0691718 0.0335317 0.000902875 -0.0236269 -0.0542861 -0.0411056 -0.0282888 -0.048657 0.108142 -0.0219454 0.0381552 -0.0403816 0.00975312 0.0177002 -0.0365733 -0.00393209 0.0903671 -0.0318365 -0.0358837 -0.0415581 0.052563 -0.0417934 0.120276 -0.0525739 0.0280933 -0.0360589 -0.0246764 -0.0182211 0.0179891 0.0618376 0.102447 0.136222 0.000729294 0.0534137 0.0255104 0.114042 -0.171861 0.140559 0.0213503 0.0226615 0.0508399 0.0469881 0.0440161 0.0456487 0.0723827 0.0853389 0.0477628 0.0914097 0.137207 -0.00178924 0.0387562 -0.00592565 -0.0466298 0.0180531 0.0917753 0.0445917 0.0642051 -0.0735411 -0.0764444 0.0360024 0.00648422 0.00721764 -0.00570012 0.075782 0.0257443 -0.053468 -0.0528236 -0.0406748 -0.0342608 -0.0611208 -0.0609687 -0.0260828 0.0638467 0.0365624 -0.0383254 -0.0311787 0.0087558 0.00413952 0.111099 -0.0258858 0.0648096 0.0434079 0.102501 -0.000376919 -0.067112 0.0690632 -0.0339701 0.0223244 -0.0380322 -0.0103164 0.00544454 0.0639915 -0.00170091 -0.0447799 -0.0432848 -0.12151 -0.129616 0.0644404 0.0328808 0.0770562 0.00505539 -0.104587 0.0203566 0.00795178 -0.0341464 -0.133185 0.0848429 -0.0298657 0.049591 -0.151238 -0.0794889 -0.0397625 -0.0598465 0.0118317 0.0315787 0.0873154 -0.0775992 0.00718397 -0.0230694 -0.0265993 -0.0783558 0.0731429 0.0765313 -0.0112294 0.207428 -0.0116363 0.0144248 -0.0215718 -0.00132906 0.0254941 0.0578664 0.0114028 -0.0661816 -0.0130474 -0.00537938 -0.143147 -0.148176 -0.00977918 -0.0153001 -0.0172412 -0.102259 -0.0703302 -0.00696351 0.0883109 -0.0793043 0.00412866 -0.0457248 0.0524435 -0.0132407 -0.0226788 -0.0030694 0.0276734 -0.00201455 -0.0449428 -0.0284246 -0.0531639 0.0469266 -0.0406024 -0.000441066 0.00999059 0.00634919 -0.0785187 0.0559767 0.0529069 0.0457754 0.00210524 0.0491602 -0.0812446 -0.0794889 0.0763467 -0.0356574 -0.0242159 -0.062967 0.00626376 0.0717818 -0.0357027 -0.0134412 -0.0159347 -0.0859688 -0.0764806 -0.00850601 -0.0482009 0.00425427 0.000615769 -0.0568274 0.0282895 0.00986932 -0.0621959 -0.0569179 -0.0858783 0.0832501 0.127053 0.0334883 -0.00791269 0.000151325 0.0466985 -0.0101415 0.0112985 -0.0243354 0.0316544 -0.00978896 0.0891037 -0.0627064 -0.0131324 0.116363 -0.0866421 0.0503005 -0.00519078 -0.0247948 -0.0240432 0.0685238 0.119125 -0.0430025 0.00112373
that -0.108891 0.0389705 -0.0991198 0.0873604 0.0114393 0.0560957 -0.00316751 -0.0805544 -0.013512 0.0636508 -0.0187561 0.00984932 0.0143788 -0.030195 -0.00458845 -0.0180619 0.0264937 0.0353973 0.0497211 0.0775624 0.0138802 0.0341305 -0.0868428 -0.122198 -0.0325042 -0.00151206 0.0752423 0.109603 -0.0171783 0.0422187 -0.0437342 -0.0242281 -0.0625157 0.0918508 0.0555191 0.00250122 -0.0556689 0.0299552 -0.0426014 -0.00217536 0.0274699 0.0156514 -0.0407789 0.0225572 0.0495576 0.0873695 0.0442527 -0.0268388 -0.0143297 0.00388842 -0.00442119 -0.0711015 -0.0138244 -0.016949 -0.0965 0.00750561 -0.0497983 0.0671741 -0.00364447 0.0286676 -0.0793603 -0.0363866 0.0732082 -0.0326803 0.0563273 -0.122584 -0.0780799 -0.0267239 0.0209699 -0.034511 -0.0337133 -0.0181104 0.0262163 -0.0882412 -0.0486677 0.0344002 0.074652 0.0285872 0.00771764 0.0445288 0.0235697 0.0036141 0.0225958 0.0339702 -0.0742933 0.0306354 -0.0474555 0.0333973 -0.0488312 -0.0646996 0.0404606 0.0719233 0.146289 -0.0483772 0.0379653 -0.0419944 0.0995194 0.021888 -0.0279175 0.0223388 -0.02854 -0.0634329 0.0269041 -0.052586 -0.099592 -0.0621162 -0.0510105 -0.0437447 0.0212746 0.0159234 -0.0525997 -0.0107247 0.0366227 0.0129367 0.0313419 -0.086198 0.120877 0.0798144 -0.0159243 -0.0143647 -0.0119038 0.0646361 0.0180528 0.17493 0.0173885 -0.00461706 0.0532535 0.0541751 -0.0231384 0.103024 -0.0796918 0.00746838 -0.0213382 -0.0380021 0.031612 0.0064686 -0.0491808 0.055796 0.00729721 -0.0153912 0.0486814 0.0910517 0.0636553 -0.0454532 -0.0360093 0.0559686 -0.00142766 -0.04061 -0.0390704 -0.0471876 0.014836 -0.0657257 -0.0258004 -0.0157649 -0.0431535 -0.0774761 -0.0163079 0.0391821 0.0809313 0.0289482 -0.0567359 0.0955829 -0.129781 0.0692536 0.0597098 0.0346826 0.0134562 -0.0424992 0.0551014 0.00898303 -0.0507063 -0.0672967 -0.125876 -0.0128355 -0.0439322 0.0673512 -0.059728 0.0872832 -0.00815306 -0.0456711 0.0495486 -0.0705566 0.00233427 0.111342 -0.0964183 0.0522773 0.0380938 -0.0442468 0.0994649 -0.083937 0.01125 -0.159647 0.061812 0.0593057 -0.0390663 -0.0108505 0.0272946 -0.00158857 -0.134212 -0.0251947 0.0868473 0.0436983 0.0200237 0.0442173 -0.0335662 -0.0592013 -0.0289319 -0.00192106 0.0482409 0.0163329 0.140637 -0.0168814 0.0703478 -0.0295275 0.0868201 -0.00209958 -0.0112614 -0.0994376 0.00553829 0.0824886 -0.0993468 -0.0708245 0.0118988 0.0174739 -0.0919688 -0.013749 -0.0846634 0.0226953 -0.0854262 0.00833513 0.0927861 0.0327998 -0.0156954 0.0257968 0.012505 0.0904705 0.0831424 -0.0320038 0.104909 0.00630651 0.0208401 -0.0321555 0.0484498 -0.0223661 -0.0630424 0.0943343 0.0555372 0.0418804 0.00401828 -0.0266939 0.0902707 0.0887043 -0.0686134 -0.0079996 -0.0182866 0.0131402 0.0178267 -0.0250172 -0.00373805 -0.0525951 0.0369142 -0.00214934 -0.0389224 -0.0681003 -0.0431231 -0.0621389 -0.0684681 0.0586247 -0.0563363 -0.0500026 -0.0831606 -0.0229182 0.114048 0.0667745 -0.0723001 -0.0573216 0.0877327 0.030126 0.0644771 -0.0149091 0.0226835 -0.028728 0.0522137 -0.127964 -0.00242362 -0.0282358 0.030718 0.10514 -0.0214558 0.0164496 0.0804137 0.0200723 0.0262767 0.0140873 0.0154907 -0.100382 -0.0506428 0.093122 0.0281259 -0.0714829
it -0.133483 0.0550787 -0.0270976 0.00313864 -0.00794039 0.0370505 0.0403781 -0.0853009 -0.0747285 0.0600715 -0.0566452 -0.0451171 0.0442605 -0.0929704 0.0112077 -0.0246036 0.0862764 0.0379301 0.0673365 0.0284253 -0.0215632 -0.0182756 -0.0871925 -0.109031 -0.100485 -0.043511 -0.00279256 0.0133126 0.0511409 0.0747443 -0.102373 0.0676577 -0.15445 0.138044 -0.0162778 -0.049396 -0.0342334 -0.0758468 0.00895956 -0.0504627 -0.051696 0.0389172 -0.0927562 0.00323636 0.0740265 0.0832744 0.0252663 -0.0113052 -0.0216984 -0.044086 -0.00417383 0.00278162 -0.00164451 -0.0146011 -0.00146447 0.031093 0.00151733 0.104756 -0.0249161 0.0877159 0.0248455 -0.0577992 0.0751369 -0.0391801 -0.0152388 -0.0955441 -0.0430946 -0.0354996 0.0512202 0.0237054 -0.00599723 0.0580292 0.0127741 -0.061511 -0.0685976 0.0351276 -0.032335 0.109392 -0.0162349 0.0615824 -0.0330936 -0.0278003 0.0613881 0.0788924 -0.0375673 0.043848 -0.0726822 7.81548e-05 0.0128951 -0.0301539 0.0204246 0.0717106 0.0995058 -0.0631845 0.058969 0.05009 0.0631686 0.070287 0.00522949 -0.0332717 -0.0874621 -0.00759419 0.0458428 -0.00435189 -0.0507007 -0.075355 -0.0901588 0.00538573 0.0417661 0.0211828 -0.01246 0.018115 -0.0313904 0.0297498 -0.0760688 -0.0161901 0.135518 0.0707946 0.0434792 0.00395973 0.0822473 0.0432016 -0.0701363 0.19016 0.0622645 0.0450734 0.0613682 0.0390885 0.0357827 0.0725275 -0.0249407 0.00510853 -0.0447681 0.0189224 0.0173739 0.00258397 0.0129046 0.112196 0.0244985 0.0675943 0.018652 0.0682843 0.0397833 0.0444389 -0.00767708 0.0280684 -0.00986214 0.0146368 -0.0340609 0.0727456 0.0434079 -0.0225446 0.0382541 -0.0653339 -0.0221287 -0.0608289 0.0289492 -0.0322077 0.0942037 0.02751 -0.0667099 0.0904086 -0.14908 0.013785 0.0598256 0.0126159 -0.0276587 -0.0355361 0.0515057 -0.00512479 -0.00951832 -0.100783 -0.0777027 -0.059893 -0.0858323 0.0178715 -0.0635771 0.00176376 0.0410443 0.05632 0.0733801 0.00261788 0.054476 0.0546822 -0.0172811 0.012713 0.0270413 -0.0555467 0.0423649 -0.00383977 -0.0173223 -0.0644178 0.0447126 0.126028 -0.027838 0.0467866 0.076977 0.0105994 -0.118303 0.046513 0.0256529 0.0311065 -0.0236578 0.086895 -0.00519142 -0.104732 -0.0435903 0.0494237 0.0520649 0.0262026 0.072591 0.0417026 0.0606584 0.0158915 0.0666465 0.0171895 0.0151178 -0.083667 0.0287009 0.0423292 -0.0226057 -0.064858 -0.002659 -0.0517476 0.0982725 -0.0329314 -0.0954648 -0.0441534 -0.003753 0.0391377 0.0816802 0.069823 -0.0828461 0.0011954 -0.0502962 0.0345574 -0.0144885 -0.0580371 -0.0449386 0.0174187 -0.00916935 -0.0162841 0.117938 -0.0665077 0.0551462 0.0521362 0.070969 -0.00678164 0.0209616 -0.023707 0.0456921 0.103027 -0.0751211 -0.0246758 0.0136731 0.0028689 0.0309375 -0.0599327 0.0703068 -0.0452995 0.0348425 0.0310006 -0.0448633 -0.077778 -0.0203996 -0.0149774 -0.0628276 0.0979711 -0.00327562 -0.122947 -0.135371 0.0426068 -0.00955163 0.0324338 -0.000986571 -0.0939023 0.0846386 0.0723134 0.0423768 -0.0908408 0.0739115 0.00629386 -0.0952427 -0.0824615 0.0247844 -0.111284 0.0208148 0.0557529 0.00202997 -0.0191544 0.0593854 -0.0238815 -0.0250129 -0.0307523 0.0180964 -0.0596353 -0.0106521 0.0575692 0.0115218 0.0297379
with -0.0255791 0.036538 0.0475759 0.166767 0.069579 0.0475719 0.126923 -0.0652565 0.0819291 0.0350959 -0.0184109 0.0610773 0.0628462 -0.0384463 0.00905424 -0.0563245 0.00392244 -0.0105924 0.00843912 0.0915184 0.0169432 0.0108534 0.00921758 -0.0318203 0.0197204 -0.0243533 0.0420143 0.0338254 -0.0405961 0.0101371 -0.0900085 -0.00376555 -0.0450819 -0.0181172 -0.0394845 0.000822957 -0.0972074 -0.082714 0.111123 -0.0121912 0.101343 -0.0172902 0.0561732 0.0164018 -0.0106896 -0.0301845 0.0397857 -0.0432533 0.0210127 -0.00256719 0.0058432 0.00959764 -0.0590535 -0.0299351 -0.0702722 0.00235246 0.00275663 -0.0212406 -0.0446437 -0.0241357 -0.00510817 -0.126684 0.0350178 -0.0248664 0.0191889 -0.00235605 -0.00720012 0.0942633 -0.0609937 0.00131154 -0.0511415 0.0300502 -0.0785827 -0.0984504 -0.0202614 0.0400702 0.0511574 0.100721 0.0387539 0.00419147 0.0731486 -0.0786783 -0.0161125 -0.0445601 -0.0505877 -0.0404447 0.0107777 0.038048 0.0587468 -0.077495 0.0219737 -0.0597746 -0.0158074 -0.0158544 0.137811 0.117043 0.0976815 -0.0395818 0.0242282 -0.103594 -0.0245979 -0.0220191 0.0438788 0.0468747 -0.0858374 -0.0616192 -0.036642 0.0465998 0.0051261 0.0184344 0.0132903 0.0150516 0.0079244 -0.0255723 0.0315645 -0.0483926 -0.00875026 0.023476 0.0155839 0.112701 0.0882516 -0.0387412 -0.0999324 0.142293 0.0561851 -0.0365221 0.0469703 -0.00688858 0.00392391 0.109797 0.0617666 0.00326617 -0.0973031 0.0531892 -0.0164615 0.0162277 0.0706228 0.0278029 0.0405483 0.0419506 -0.0586711 0.080726 -0.0236612 -0.0114601 0.0252943 0.0727144 -0.000559381 0.0409307 -0.0656588 -0.0265775 0.0551453 -0.108621 -0.0782201 -0.0639418 -0.0295626 0.000724395 0.0408749 -0.0173487 -0.00287403 0.0220334 -0.00585316 0.0887177 -0.00498547 0.0766226 0.00871122 -0.0468309 0.0163006 -0.0761326 0.0376424 -0.0452054 -0.0021598 -0.0469703 -0.0635314 0.0610694 -0.0609499 0.0370516 0.00227772 0.0976736 -0.0914746 -0.0436597 0.0686388 -0.0731367 -0.00505797 0.0232334 0.016038 0.123916 0.0403371 -0.0411936 0.0344202 -0.0204291 0.0943629 -0.071555 0.0823913 -0.0303204 -0.000402933 0.0221876 -0.0597786 0.0763118 -0.106976 -0.0253377 0.0584599 -0.0336888 0.0478468 -0.00640175 0.0621052 0.0128091 -0.0794352 -0.0422494 0.114836 0.119422 0.0318717 -0.0115023 -0.0600176 -0.0568783 -0.0322518 -0.0291375 -0.0439226 -0.127868 -0.0663879 -0.00967692 -0.0636988 -0.0371484 -0.0425203 0.0845665 0.0234358 -0.0160834 -0.060416 0.0481735 0.0102781 0.0553604 0.056201 -0.0138513 -0.0393539 -0.0147708 -0.0693997 0.0616231 0.0807579 -0.0803157 0.00226111 0.0884787 0.0261221 -0.0192144 -0.000796065 0.11055 0.0213191 0.06687 -0.0290487 -0.00996974 -0.0121151 0.0399865 -0.0337465 -0.0607586 -0.0181419 -0.0305694 -0.0720132 0.0077758 -0.115864 -0.0719216 -0.0211996 0.0136465 0.113713 0.0793675 0.0958649 -0.00705949 -0.00701368 0.0975023 -0.00436995 0.0569938 0.0254652 0.0294885 -0.0505877 -0.0269763 0.011776 0.0100279 -0.0976457 -0.018575 0.0580695 0.0757541 0.0902236 0.0741486 0.0350118 0.0110952 0.11345 -0.0199447 0.0640892 -0.0173292 0.0301347 0.160432 -0.0153205 0.0769054 0.0253867 -0.141903 0.0700651 0.0883034 0.0301204 -0.0219454 -0.0122334 0.0352002 -0.00636749 -0.102526
from 0.0266449 -0.0878865 -0.0754633 0.0243385 -0.0248231 0.00865241 0.0142533 -0.0271553 0.0537945 0.0818582 0.0862617 -0.056167 -0.0490495 -0.0583525 -0.0488877 -0.0170367 -0.0816785 -0.00739715 0.0785547 -0.0207568 -0.0912331 0.0266941 -0.155039 0.0254457 -0.0475793 0.00326261 0.014873 -0.0621629 -0.0492041 0.0171603 -0.034633 0.128453 -0.0230326 0.113233 0.0155513 -0.0143169 0.094871 -0.00279792 0.0447898 -0.022332 0.0178462 -0.0699131 -0.0370109 -0.0475469 0.0428271 0.0412346 0.0690971 -0.0379024 0.0688059 -0.0688886 0.0599019 -0.025913 -0.00615554 -0.0086578 -0.0197431 0.0652831 -0.150085 0.0049772 -0.0350654 0.0513968 0.0656821 -0.0342117 0.0918982 -0.00138302 -0.0234417 -0.00349098 -0.183739 0.0868908 -0.0305387 -0.0386033 -0.0823255 0.00350938 0.0461558 -0.0442326 -0.0259145 0.0452823 0.0800213 0.0452176 0.0547471 0.021865 0.0136447 -0.00465224 -0.0324938 -0.00123075 0.0268969 0.046943 -0.0895688 0.0217026 -0.0719225 0.107625 0.00930772 -0.0387831 0.033225 -0.00102689 -0.070064 0.0831595 -0.0101403 0.0890404 0.0546824 -0.0311084 0.0126993 -0.0206446 0.0513717 -0.0125789 -0.0336736 -0.0766926 -0.14777 -0.0609048 -0.0161427 0.0387471 0.0880518 -0.00122705 -0.0586078 0.013323 -0.0211371 0.028443 0.0915243 0.060362 -0.0389017 0.0282621 0.112287 0.00777351 -0.0663579 0.115019 -0.07739 0.00716601 0.0792808 0.0534925 0.111824 0.0499625 0.0638848 0.0195307 0.0321976 0.0870346 0.0428594 0.0224294 -0.0176168 -0.0777567 -0.0816713 -0.0191126 0.0215523 0.000876744 0.074978 0.0344119 -0.0195928 0.0836232 0.0581944 -0.022062 0.0132683 -0.00817072 -0.0284059 -0.112553 -0.0294301 -0.00921714 -0.0823579 -0.149489 -0.0275615 0.0157907 0.00262707 -0.0109875 -0.0692588 0.0454117 -0.0892165 -0.00724833 0.123765 -0.0123499 2.23162e-05 -0.0259145 0.117917 -0.101758 -0.0746976 0.0103031 -0.11122 0.0273692 -0.0308762 0.10733 -0.00466051 -0.0190486 -0.0538448 -0.0161581 0.0265989 -0.0596287 -0.101575 0.0695824 0.014657 0.0500416 0.042234 0.0106518 0.0106054 0.00910211 -0.0141623 -0.0313058 0.112553 0.0526226 -0.037719 0.0264386 -0.0349231 0.0818187 -0.0629322 -0.0759809 -0.068353 -0.0426581 -0.112632 -0.0140574 -0.0667677 0.0396494 0.0176808 0.077257 -0.0850934 0.10174 0.0373811 -0.0418853 0.0256625 -0.00470616 -0.0412922 -0.0609371 0.0424928 -0.0610917 -0.00912188 0.0104138 -0.00409147 0.00322993 -0.0360583 0.0701827 -0.0951945 -0.0428343 -0.085345 -0.104379 0.0276852 0.0478561 0.0648913 0.120311 -0.0679108 0.0204886 -0.0805641 0.0206303 -0.033377 -0.0263278 -0.0238817 -0.0351269 -0.00963556 0.0205911 0.055635 0.0144675 -0.0561274 0.0127489 -0.0198714 -0.000608652 0.0545098 0.0504874 0.00812507 -0.00881022 -0.0107582 -0.00891087 -0.0831523 -0.00175439 -0.0356233 0.0075625 -0.0571879 0.0732381 -0.0456274 0.0487224 0.141954 0.000161236 -0.100874 -0.0509367 0.0114811 0.00841265 -0.0125476 -0.0338842 -0.0446316 -0.072796 -0.0365364 -0.0210882 -0.0072814 0.018467 0.0822033 0.0749384 0.0751829 -0.0264389 0.0852013 -0.0260899 -0.00246822 -0.0176294 0.0665341 -0.0776129 -0.0386033 -0.00245578 0.0344299 0.0253691 0.024858 -0.0095554 0.0314093 0.0511236 0.0161157 0.0246358 -0.0616381 0.0349396 -0.131034 -0.0293844
at 0.0293546 -0.0783094 0.0334441 0.034966 -0.111746 0.0210961 -0.0488845 0.0147458 0.0873006 -0.0524941 0.10037 -0.0770612 0.0510239 0.076066 0.00611697 -0.0263119 -0.0189123 -0.00692351 0.00802235 0.118993 0.0668148 0.0210164 -0.142846 -0.0493664 -0.0391409 -0.0676296 0.0378683 -0.0226215 0.0617696 0.078091 -0.0500183 0.0662565 -0.0177705 0.121847 -0.0116216 -0.0360305 -0.0550149 -0.0161168 0.0932543 -0.0189508 0.00910836 0.0085019 -0.0530524 0.00309323 -0.0357531 -0.0214588 -0.0265824 0.0569429 0.0665824 -0.054956 -0.0362143 -0.111521 -0.00611871 0.0683578 0.0221499 0.0521127 0.0968778 0.0707469 -0.0406353 0.0391894 0.0753864 -0.0824669 0.0768011 -0.0344611 -0.0551641 -0.0797797 -0.0585865 0.0166761 -0.12028 0.0267894 -0.092325 -0.0563361 0.0185458 -0.0225039 0.00598763 -0.0589159 0.0635553 0.0717108 -0.0271722 -0.0668598 0.0347857 0.0811458 0.0753621 0.0565025 0.019715 -0.0247942 -0.0411104 0.0226086 -0.00246555 -0.0226156 -0.0103861 0.0179671 0.147333 -0.0642038 0.0565545 0.0238392 0.086302 0.00302353 -0.0574456 0.0338363 0.033863 -0.0181956 0.0487735 0.0321858 -0.0219467 -0.0356872 -0.0908201 0.0504552 0.0293484 0.024056 0.0752442 -0.0276437 0.0333661 -0.0971586 -0.0306792 -0.0426881 0.104555 -0.0303792 0.00933964 0.0100706 0.153457 0.0274145 -0.00963091 0.0449939 0.0227688 0.0339826 0.0910455 -0.020963 -0.0265858 -0.0101476 0.0276573 0.0181436 0.0310672 0.024299 -0.0718773 -0.0397407 0.0871376 0.0236735 0.0160957 -0.00749425 -0.032864 -0.00392137 0.022824 -0.0130335 0.0752962 0.0265404 0.0241308 -0.0448934 0.0271829 0.0675499 0.022894 -0.114156 0.0417588 -0.0187646 -0.0152278 -0.140984 0.045684 0.0148054 0.0444669 0.126594 0.00492035 0.100401 -0.0489018 0.0501778 0.0607814 0.0928867 -0.0692004 0.0250386 0.0187046 -0.0709549 -0.0955948 -0.0157101 -0.140374 0.0424072 -0.025349 0.0383399 -0.0687461 0.100578 -0.0674008 -0.0950227 0.000688051 0.0236842 -0.0618077 -0.0464538 -0.0392414 -0.0284534 -0.0456562 -0.00592522 0.0208718 -0.0980602 -0.0376464 0.0296639 -0.0370569 0.0669153 -0.0222078 0.0135939 -0.024953 0.00495849 -0.0656497 -0.0801368 0.0320363 -0.00157749 0.0273397 0.0374765 -0.0468976 -0.00741519 0.060504 0.0139049 0.0754453 0.146376 0.0975886 -0.0453684 0.0320956 -0.00877028 -0.0721582 -0.005325 -0.10427 -0.0024437 -0.00298352 0.015061 0.0462457 0.0193513 -0.0360479 0.0147714 -0.0664541 -0.0198756 -0.0718287 -0.0089759 0.0132835 0.0142465 0.0831604 -0.0116025 0.0124597 0.0398378 0.0609374 0.0125849 -0.011857 0.0458712 -0.0554172 -0.000425598 0.0494289 -0.00893187 0.0547722 0.0470883 -0.0228247 0.0671338 0.0768496 0.0442068 0.04739 0.10048 0.0661386 -0.0469011 -0.049571 0.0114666 -0.181952 -0.0278386 -0.0743496 -0.0977828 -0.0492381 0.0839926 -0.0288938 0.0056506 0.0124947 0.081184 0.00561176 -0.000663328 -0.0689611 0.0272627 0.00832402 0.0623105 -0.0420847 0.0722414 -0.12253 -0.00715583 -0.0352989 -0.0519913 0.136958 0.0885628 0.061832 0.0249745 0.0382879 0.0665027 0.0237858 -0.0021663 0.0303082 0.0166539 0.0843151 -0.0366893 0.011719 -0.0342684 0.0392102 -0.140981 0.000105314 0.00177604 0.0110973 0.0151369 -0.100002 0.0162032 -0.0328096 0.0720507
he 0.00534689 -0.0977572 -0.0190672 0.0838804 0.0113552 0.0483463 0.0569764 -0.0130105 -0.0250814 0.137619 0.0947966 0.023829 0.0384473 -0.0305694 0.00249537 -0.127837 0.0318203 -0.030822 -0.0290927 0.0525246 -0.0362353 0.0827574 -0.0912636 -0.125474 0.011874 0.074069 0.0846789 -0.0672728 -0.0385749 0.0469243 -0.0750935 0.0202814 -0.066817 0.0596927 0.000636341 -0.0954565 0.00570311 -0.0766103 -0.0359381 -0.0101564 0.00329972 0.0554779 -0.0530205 -0.0221186 -0.00440367 -0.0390453 -0.00925069 0.0851347 -0.0490755 0.0158299 0.0147124 -0.047916 -0.0393625 0.0542091 -0.0886968 -0.0770113 0.0201315 0.0894005 0.0434497 0.067415 -0.0567613 0.010055 0.0410688 -0.0143737 0.0165099 -0.0932689 -0.0554743 0.0882484 -0.064819 -0.00756003 -0.0415063 -0.0679181 0.0406349 -0.0282082 0.0098501 -0.0335937 0.079724 0.0605605 -0.0847482 -0.0471321 0.0794979 0.0238669 0.0531335 -0.00829653 -0.0446784 0.00593682 -0.105888 -0.0384145 -0.0475733 -0.0792937 0.0323891 -0.130076 0.160042 -0.0481567 -0.0158547 0.0760852 0.0148736 0.0184212 -0.0949935 -0.0931304 -0.0137386 0.000799682 0.0834575 0.046093 -0.0447294 -0.00801797 -0.0501547 -0.0458123 -0.00590474 -0.011159 0.00168016 -0.0894771 -0.000780978 0.0384182 -0.103959 -0.103405 0.09678 0.0644362 -0.0709297 -0.0336513 0.00855102 0.0730554 0.0188113 0.115626 0.00484119 0.00661389 0.0579207 0.0512704 0.00325065 0.0424798 -0.0771973 0.0491593 -0.051099 -0.128249 -0.12305 0.00232522 0.0036978 0.00919892 -0.0775619 -0.0196368 -0.0167863 -0.00546138 0.0261682 -0.0390927 0.0172329 0.0643961 0.0130458 -0.0994672 0.00348472 0.0339252 0.0153341 -0.0473655 -0.0138604 0.0704959 -0.161603 0.0288156 -0.0561269 -0.0368941 0.055055 -0.00369634 -0.0998281 0.125197 -0.0824147 0.104903 0.0403834 0.0183074 -0.0103252 -0.0555946 0.0977791 -0.0313806 0.0283766 0.0270331 -0.0459545 0.00351364 -0.0231636 0.0876978 -0.0401172 0.0589744 -0.038152 -0.0550112 0.0621939 0.030005 -0.051934 0.0792099 -0.0614647 0.0759394 0.0122827 0.0276434 -0.00936408 0.0307061 0.000781124 0.0119174 0.00915407 0.114015 -0.0814959 -0.051223 -0.000820756 0.0426876 -0.111813 -0.0235376 0.0779374 -0.0239639 -0.0636268 0.0811058 -0.0179155 -0.00694896 0.015053 0.0365806 0.0755274 0.0515621 0.0640789 -0.00313095 -0.010875 0.0195547 0.0238439 0.0302387 -0.0272967 -0.0807995 0.0108538 0.0323552 -0.0454805 -0.00639257 -0.00589526 -0.050924 -0.0656649 -0.00674514 -0.0458196 -0.0611584 -0.00270732 0.0245837 0.0970681 0.085729 -0.0585953 -0.058763 0.0396396 0.00244801 0.0105571 -0.00978119 0.000892802 -0.0406714 -0.0315698 -0.0537387 0.0468004 0.139369 -0.0886531 -0.00778754 0.07 -0.0821413 -0.0444049 0.0287642 -0.0346438 -0.0762602 -0.0215119 -0.0201089 -0.0828413 -0.0123101 -0.0793192 0.0029904 0.0881062 -0.0375249 0.030934 0.0484702 0.0650013 -0.119863 -0.0496187 -0.0191106 0.00945268 -0.00977936 0.0413094 -0.0649794 -0.110278 -0.0304337 -0.104561 -0.00563311 -0.0704849 -0.109454 0.0611147 -0.00764899 0.027946 -0.0493198 0.0300713 0.0249085 -0.0232511 -0.0254055 -0.0373754 -0.00581249 0.0358966 0.0572025 0.00109731 -0.0452617 0.0132489 -0.0853498 0.00645127 -0.0200032 0.026888 0.0203109 -0.0738283 0.056229 -0.0283351 0.0833736
this -0.0736414 0.0313968 -0.0203576 0.048477 -0.0126386 0.04311 0.00896246 -0.134974 -0.0590968 0.0481045 -0.0188512 -0.0716569 0.0475401 -0.0484623 0.0190511 0.00779425 -0.0551278 0.0435268 0.097548 0.0794216 0.0220541 0.0537261 -0.0498456 -0.0304042 -0.111982 0.0501702 -0.0576287 0.0285812 0.0827194 0.0847334 -0.0535712 0.0760502 -0.0703363 0.0515497 -0.0248722 -0.0147408 -0.00430952 -0.0109237 -0.0701999 -0.0647295 -0.00984591 -0.0390192 -0.0418005 0.0511477 -0.0151613 0.0471602 0.0310977 -0.0594547 0.00814504 -0.0135944 -0.0184727 -0.0140116 0.0255358 -0.0391299 -0.0132956 0.106666 0.0145918 0.0355319 0.0533609 -0.00495542 -0.0336647 -0.0148393 0.130189 -0.123531 0.0391594 -0.131034 -0.0287469 -0.00186881 -0.0293411 0.0435784 -0.0497681 -0.0177615 0.0486799 -0.099289 -0.067378 0.0193362 0.054486 0.0929887 -0.0335547 0.023216 -0.0564779 0.0681379 0.0162325 0.014179 0.0220069 -0.0747148 0.00967254 0.00903292 -0.00621843 -0.10162 0.0381191 0.0381523 0.164015 -0.0765592 0.00828116 -0.0267251 0.0383294 0.0488533 0.0292135 -0.0013781 -0.035599 0.0129581 -0.00435379 0.0275698 -0.0429403 -0.000236944 -0.0584993 0.0454228 -0.0230205 0.0396536 -0.0191795 0.0293928 -0.022548 0.00986435 -0.0436633 -0.02762 0.211747 0.0244853 -0.0197224 0.0478647 0.0449691 -0.0242529 -0.0385507 0.140533 0.0315566 0.0682522 0.0162657 0.00206616 -0.000203772 0.109049 0.00992116 0.0578538 0.0450539 0.0388716 0.0254772 0.0782708 0.0119271 -0.00370088 0.0285285 0.0468134 -0.00385655 0.0213901 0.0635786 -0.0338849 0.0145545 0.00759026 -0.0104346 0.0565553 -0.0307008 0.0437149 0.0224351 0.0487758 0.0539068 -0.10535 -0.00520514 -0.0869245 0.102926 0.0120444 0.00662788 0.0672526 -0.0459761 0.0454523 -0.0700044 0.0111772 0.0334514 0.0312729 -0.023247 -0.0462343 0.0558545 -0.00573336 -0.133181 -0.0730402 -0.0784183 -0.0698421 0.0125213 -0.0509964 -0.0146726 0.021105 -0.0106899 -0.0793184 0.0301534 -0.0236937 0.0411254 0.145317 -0.0209342 0.0884369 0.0658361 -0.0611699 0.042671 -0.0173665 -0.0508784 -0.0587833 0.102491 0.067105 -0.033073 -0.0629073 0.00885365 0.0372966 -0.125409 -0.0150119 0.0640951 0.058503 0.0379347 0.107589 0.0231459 -0.0581083 -0.0623909 0.075626 -0.0399672 -0.0131156 0.080425 -0.0254418 0.0375363 0.00201872 0.121812 -0.0753456 0.0899603 -0.0055611 -0.056227 0.0545376 -0.0427522 -0.0565627 0.0720516 -0.040218 0.0699638 0.0141071 -0.00412619 -0.0225779 -0.00710409 -0.00241312 0.113845 0.0346591 -0.0569574 0.0333382 -0.0255119 0.0139957 0.107607 -0.0131458 0.0185638 -0.0962975 0.0692113 0.0310623 0.0556737 0.000124184 -0.0332899 0.0577173 0.101148 0.105921 6.45598e-05 -0.0145708 0.0264226 0.0423243 -0.0581046 -0.0170599 -0.053158 -0.0766699 -0.0443383 -0.110263 -0.0264462 -0.0465552 0.0200223 0.081384 -0.140385 0.0207778 0.0319701 0.0200334 -0.0163628 -0.0243639 -0.0788536 -0.0820923 -0.0626269 -0.0402918 0.0922621 -0.0093531 0.0128043 -0.112159 -0.0569758 0.00482225 -0.0611736 -0.0654156 -0.0333555 0.00645561 0.0146449 -0.0998313 0.103018 -0.0472745 0.00912292 0.120127 -0.0199604 0.0132506 0.00687428 -0.0917493 -0.0266303 -0.0338779 -0.0128102 -0.0442424 -0.0136305 0.136929 0.0141248 0.0495246
be -0.0861167 0.0769737 -0.0331425 -0.00908482 -0.0463583 -0.00309079 0.0225064 -0.162368 -0.0175688 0.0177254 -0.0578929 -0.0106498 0.0190722 -0.0445552 -0.00215877 0.0373702 0.0418436 0.042697 0.0202997 -0.0232721 -0.0028846 0.0326934 -0.0351335 -0.0356841 -0.0526555 0.00727653 -0.0126092 -0.0138683 0.0484781 0.0541765 -0.00304822 0.00959995 -0.0477967 0.0183018 -0.0423392 -0.0316319 -0.0533059 0.0971523 -1.63724e-05 -0.127775 -0.069861 0.00342058 -0.0606148 0.0224965 0.0234617 0.0172915 0.0263195 0.0242318 0.0232776 -0.0116625 0.00515922 -0.103267 -0.0411898 -0.0249716 -0.0270225 0.010495 -0.0166521 0.0871387 -0.13071 0.0279895 -0.000190912 -0.060663 -0.00892033 0.0457837 0.000585949 -0.0198004 -0.0620669 0.0229968 0.00621529 0.0127234 -0.107562 0.0804939 0.00994853 -0.104065 -0.0385161 0.0358114 0.0704941 0.0238051 0.0606457 -0.0665541 0.0414961 -0.0462276 0.0688562 -0.0459489 -0.0491215 -0.0341673 0.0261017 0.032274 -0.11251 -0.125634 -0.0319598 -0.0349821 0.0159422 -0.122093 -0.0339322 0.027771 0.0482337 0.075088 -0.0301288 -0.0097228 -0.0114939 -0.0436915 0.0292179 -0.0364411 0.0214287 -0.0451299 -0.0695685 0.0734879 -0.0465235 0.0223574 -0.00291557 -0.051341 -0.0645342 0.0792207 0.0442249 -0.0700468 0.0946781 0.0582232 -0.0215164 0.0590594 0.00927786 0.0708417 -0.100659 0.18936 0.0596237 -0.0182543 0.0682127 0.0602431 -0.0205292 0.0760928 -0.1089 0.0119674 0.00492351 0.12604 0.0314701 0.0465201 -0.00745168 0.0291567 -0.00277383 0.0085105 -0.0613236 -0.0231905 0.0348204 -0.0578826 -0.0385092 -0.0296061 -0.0494278 -0.03747 -0.0343816 0.036885 0.0193162 -0.00614785 -0.00195388 -0.0343913 -0.0771389 -0.0650779 -0.0118728 0.0197777 0.0826653 0.0343651 0.00171841 0.0758519 -0.107238 -0.0195843 -0.00690626 0.0322592 0.0574524 -0.0698575 0.0310579 0.103274 -0.0373978 -0.0723179 -0.0783639 -0.0319767 -0.129874 0.0257118 -0.0432166 -0.00891345 0.00924896 -0.0637049 0.0057153 -0.0591626 0.0878097 0.100359 0.0498132 0.0676724 0.120834 0.00809447 0.0866569 0.0291959 -0.0517781 -0.162698 -0.0366166 0.101443 0.0134144 -0.087617 -9.23382e-05 -0.00412965 -0.125156 0.061623 0.0543107 0.0154498 0.00970215 0.00519983 -0.013614 -0.0841002 -0.0726689 0.0911303 0.12709 0.0221241 0.109526 -0.051138 0.116298 0.0761995 0.111508 -0.00193475 0.0406461 -0.0832227 -0.0324316 0.0757797 0.0405876 -0.086946 -0.0627138 -0.0322647 -0.0499164 0.0079675 -0.0765436 -0.0144701 -0.0223027 -0.039662 0.034958 0.0673283 -0.0433749 0.0113115 -0.0324526 0.0743275 0.0627792 -0.0787975 -0.0053712 0.00259148 0.0556975 0.0486226 0.0961268 0.0269592 -0.0296918 0.0308039 0.0802462 -0.023823 0.0375836 0.0752635 0.0427383 0.0194459 -0.0455153 -0.00517024 0.050436 -0.00800604 -0.0134571 -0.0847575 0.0265969 -0.00177774 -0.0118084 0.0297754 -0.0304172 0.0504601 -0.11166 -0.0581372 -0.111161 0.125541 -0.0355843 -0.0768326 -0.115479 0.00332688 0.00547752 -0.024536 -0.0573285 -0.0941895 0.0618398 -0.00342206 -0.0184625 -0.0407631 -0.0372257 0.0402917 -0.0478105 -0.0262128 0.00381548 -0.0756076 0.00114936 0.0492041 -0.00965329 0.0475524 0.0497685 0.0109791 -0.063636 -0.0493487 -0.00727308 -0.0519811 -0.0682953 -0.00801946 0.056162 0.0675073
i -0.119938 0.0418675 0.0386209 -0.0354402 -0.0730377 -0.0213934 -0.0377741 -0.0315323 0.00634625 0.0525259 0.0959493 -0.0229371 -0.0347071 0.054399 0.0282456 -0.0553835 0.0200543 0.0567419 -0.0349315 0.00226046 0.0619933 -0.0255149 -0.0246316 -0.144741 -0.05828 0.00498448 0.0390099 -0.0246232 -0.0380045 0.0232955 0.0324509 0.014522 -0.0415473 -0.00698749 -0.0181997 -0.0952701 -0.00585104 -0.0564038 -0.0094938 -0.103382 0.0161483 0.0321547 0.0569394 -0.0388842 0.0257848 0.0701532 -0.00958117 0.0081428 -0.0245765 -0.0577234 0.0123313 -0.163242 0.0267441 -0.0457843 0.00363139 0.0911558 -0.0599526 0.00419932 -0.0392044 0.0311373 -0.0496563 -0.0157527 0.0106518 -0.050931 0.0613141 -0.0600963 0.0800904 0.0292196 0.0292345 -0.0328578 0.061727 -0.0942857 0.0870654 -0.00790641 -0.0247025 0.0967154 0.0182443 0.0258566 -0.00745189 0.0754794 -0.0514517 0.0789055 0.0232737 0.0268755 0.0645966 0.0556707 -0.0239095 0.0364845 -0.0155208 -0.0140704 -0.0262193 -0.084115 0.118786 0.0133619 0.0318345 0.0534146 -0.0255801 0.00522506 0.0360057 0.0723824 0.0161883 -0.0284518 0.00245343 -0.0493451 -0.0723974 -0.111659 -0.0301947 0.0367119 0.0541327 0.0588934 -0.0378758 0.0202752 0.0237821 0.00176168 0.0292381 0.0228952 0.0859403 0.109881 -0.0741598 0.10065 0.0762005 0.0194981 0.00115821 0.153565 -0.00117505 0.0307633 -0.0188464 -0.0437077 -0.0250008 0.0811976 -0.0158718 0.0153454 -0.0907847 0.00870474 0.0437975 -0.00311702 -0.0285885 -0.00481841 0.0650065 0.109361 0.0310206 0.0213733 0.046299 -0.0132907 -0.0136886 -0.0123089 -0.0774333 -0.0277432 0.00494558 -0.0367268 0.0373133 -0.0336777 0.0961648 0.0019753 0.0194038 -0.0325826 0.00324629 -0.00847883 0.0500513 0.145094 -0.116255 0.12545 -0.0516701 -0.0201417 -0.0337615 -0.00715446 -0.0345604 -0.0961588 0.0601651 0.0625349 -0.0624003 -0.054028 -0.0672627 -0.106021 0.0173466 0.0703088 0.0329117 0.0809732 -0.064073 -0.102116 0.0434354 -0.0600544 -0.0407065 -0.00731245 -0.0841539 0.0536899 0.082574 -0.125821 0.0187279 -0.0314276 0.0561435 -0.0750455 0.00767451 0.0498747 -0.040138 -0.125701 0.0108657 0.0516521 -0.213709 -0.0442703 0.174173 -0.0476455 0.00494947 -0.027251 0.00556378 0.0137147 -0.0840252 0.0553625 0.00964939 -0.000456766 0.0495187 -0.00609072 0.0311612 -0.0590729 -0.0752101 -0.0393391 -0.0202093 -0.0354671 -0.000140983 0.110333 -0.0414097 -0.00737708 -0.00407215 -0.0321996 0.0422296 0.00889535 -0.00919367 0.069465 -0.00196579 0.031242 0.0331601 0.00496623 -0.0718318 0.00512272 0.0298803 0.0940523 -0.00759911 -0.0322773 -0.0725949 0.090677 0.0461644 0.0250469 0.0189083 0.0458053 -0.00344258 0.0541626 0.13062 0.0192967 0.0318495 -0.118376 0.00990433 -0.0289811 -0.0237842 0.0591447 0.0554493 -0.0689204 -0.0192015 -0.0839714 0.057885 0.0100354 0.00604254 0.0369752 -0.0516162 -0.0720383 0.0046679 0.0348896 -0.00983132 0.0881875 0.00991959 -0.0117721 -0.107808 -0.0226369 0.0452457 -0.006445 0.0209433 -0.0233051 0.0468765 0.0114522 -0.0441326 -0.0709042 -0.051329 0.0924664 -0.0888757 -0.0675769 0.0184218 -0.0158344 0.0224233 0.0788786 -0.0757068 0.00796655 -0.0296113 0.058654 0.000987172 -0.0512272 0.0566163 -0.069839 -0.169732 0.069438 0.0237626 0.0413319
an -0.0208273 0.000440177 -0.0576485 0.0511745 -0.0761426 0.0851677 -0.0464788 0.0556777 0.0121138 -0.0323142 -0.0367336 -0.0776043 0.0301876 -0.0575709 0.0245882 -0.0944752 0.0331987 0.0155879 -0.0165792 0.0476861 -0.0257834 0.106101 -0.0493558 -0.0840907 0.0239309 -0.139812 0.0382978 0.0742152 0.0717976 0.113907 -0.0968153 0.0629059 -0.0869119 -0.00620493 -0.0300356 -0.0456626 -0.0335432 0.0161295 0.0383196 -0.109813 0.0179987 0.0136066 0.00483378 0.0146764 0.0811393 -0.000316531 0.0176189 0.0294502 0.0255894 -0.0706306 -0.0501348 0.116299 0.010828 -0.0381365 -0.0131994 -0.0373916 0.0325004 -0.0489927 0.057183 0.00505414 -0.0582599 0.0258237 0.0656867 -0.0217246 0.0417117 -0.082359 -0.064107 -0.00427701 0.032699 -0.0418266 -0.0557801 -0.024055 0.123717 -0.046274 -0.077086 0.00952232 0.0609165 0.0755808 -0.0234036 -0.003989 0.040731 0.0625955 -0.062099 -0.0565498 0.0279525 0.0321125 0.0024208 0.0241168 0.0232434 -0.0275388 0.0976316 0.0434684 0.139461 -0.0875047 0.0672974 -0.0308167 -0.038003 0.00172738 -0.0410414 -0.0184202 -0.147624 0.0308437 0.0373637 -0.0116951 -0.00175407 -0.0140808 -0.0284378 -0.00508765 0.0195232 -0.00214657 0.0692092 0.0125415 -0.121439 0.0225665 0.10729 0.00712607 0.0851335 -0.0190962 -0.012264 -0.0142788 0.137543 -0.0065218 -0.0786937 0.192057 0.0217795 -0.00141497 0.00125238 0.076245 0.00822069 0.0293391 -0.00887895 -0.0054126 -0.0516307 -0.0733773 0.0393748 -0.0589861 -0.0555877 -0.0397472 0.00751184 -0.0159104 -0.0721731 0.0463485 0.0182166 -0.0362774 -0.0102333 0.085056 -0.095577 0.110846 -0.0299158 -0.035545 0.0482789 -0.0277479 0.0498617 -0.0250469 -0.0864805 -0.0790754 0.00109875 0.0484589 0.0358274 -0.0348901 0.0235715 -0.0322242 -0.0838952 0.0402965 0.066146 -0.111157 0.0865084 0.0258247 0.0450015 0.0258988 -0.0496103 0.065066 -0.0554263 0.00504607 0.000992982 0.0829145 -0.0506624 0.120266 -0.0880416 -0.0124058 0.0673285 0.0388565 -0.0411314 0.0589892 -0.0154554 0.0522607 -0.0330808 -0.00111259 0.0256512 -0.0149905 -0.0234098 -0.0874084 0.0437973 0.100027 0.0292758 -0.0503086 0.0141494 0.0339156 -0.0728714 0.116433 0.0400079 0.00933735 -0.0369478 0.0118366 0.0359516 -0.0996551 -0.0589178 -0.0842739 0.0757608 0.0416186 -0.0144563 -0.0380744 -0.0158132 0.00773995 0.0207832 -0.0722942 0.00771574 -0.0753325 -0.0738397 0.0607427 0.0282895 0.00647277 -0.00546349 0.0767943 0.0568229 -1.74258e-05 -0.0295402 0.0732718 -0.0655098 0.0371961 0.0791034 0.015411 -0.0162983 -0.00190397 -0.0270152 -0.0178169 0.0893358 -0.0321652 -0.00657332 0.0116672 -0.0682347 0.0421276 0.0256062 -0.0479095 0.0282448 -0.0318393 0.12494 -0.107048 -0.0327983 -0.0347008 -0.00450077 0.0223273 -0.160938 -0.0138716 -0.0840163 0.0512024 -0.00876412 0.0188708 -0.0438097 0.0520745 -0.0329659 0.0582413 -0.00834421 0.0233977 -0.0304136 0.0186688 -0.105338 0.0367988 0.0886002 -0.0982274 -0.0450481 -0.0220355 -0.0712079 -0.000805061 -0.0875636 0.00621021 0.0478413 0.0124806 -0.0108683 0.0237962 0.100794 0.00813162 0.0127634 0.0209648 0.0381365 -0.115039 0.0545977 0.0995589 0.0890844 0.0222736 -0.00604293 -0.118131 -0.0571519 -0.0601965 -0.0143257 -0.126771 0.0220681 0.0325966 -0.0665309 0.0293053
utc -0.119967 -0.0797071 0.0492794 0.113994 -0.10581 -0.0119781 -0.00649429 -0.129829 -0.0584377 0.0679155 -0.0884591 -0.0997231 0.0479739 -0.065634 0.0447287 -0.0318521 -0.0718469 -0.0143208 0.0328802 0.102582 0.0110209 0.0139468 -0.0112198 0.00488657 -0.0460392 0.0212791 0.0265484 -0.031654 -0.00680344 0.0839011 -0.0828433 0.0525023 0.022789 0.0925193 -0.0640734 -0.0174939 -0.0647199 0.0818673 -0.105478 -0.0698849 -0.0219192 -0.0435768 -0.0582915 -0.00409212 0.00289191 0.013409 -0.00691938 -0.00321568 -0.0171493 -0.0367124 -0.0103238 -0.0842082 -0.0703878 -0.101338 -0.0836013 0.0128598 0.10414 0.0144459 -0.00178291 0.0685447 -0.0169383 0.00283196 0.115875 -0.0126338 0.0260307 0.0379387 0.0723126 -0.0259241 -0.0449839 0.00840076 0.00254634 0.10083 -0.0159991 -0.0528144 -0.0150875 0.0949569 0.0551132 0.048338 -0.00540406 0.0608084 -0.00626762 0.0946943 0.0791175 0.0545261 0.131823 0.0106389 0.0400047 -0.00511869 0.0227974 0.0561264 0.0524131 -0.0397371 0.0454397 -0.0331849 -0.0162679 -0.00673111 0.00345919 0.0113657 0.0161428 0.0743836 0.0434158 0.0165538 -0.0130835 -0.0297836 0.0646431 -0.0208446 -0.0328306 0.0709254 0.0149307 -0.0287754 -0.0436412 0.0392764 0.0331304 -0.0187025 0.0191715 -0.0513181 0.0491109 -0.0559803 0.0419369 -0.0457939 0.119469 -0.086403 -0.10876 0.18383 -0.0257433 -0.0220138 -0.0483901 -0.000679428 0.041439 0.0815675 0.0202515 0.00363062 0.0171875 0.0829473 0.089123 -0.0621213 0.00853007 -0.0777972 0.0762018 0.105042 -0.0677917 -0.0324987 0.0364796 0.0823032 -0.037089 0.0527178 0.015853 -0.0757733 -0.117705 0.00614797 0.0701797 0.0110378 0.0326473 -0.020989 0.0181625 0.045078 -0.0121136 0.0385604 0.121783 0.0746214 -0.0293724 -0.0376835 -0.133381 -0.0715323 -0.0138881 0.000763207 -0.0110915 -0.0690501 0.0732564 0.0225643 -0.0316193 0.0649008 -0.0877928 0.0467353 -0.0170264 0.0113387 -0.0148512 -0.120745 0.0452886 -0.170334 0.0124604 -0.0507335 -0.000941568 -0.0472332 -0.0395835 0.0662459 -0.0325135 -0.0165394 -0.00194524 -0.00721342 0.0196939 -0.094454 0.0146109 0.00516724 -0.0789317 -0.0185886 -0.0749756 -0.00825931 -0.136379 -0.0358429 0.0344284 0.0202523 -0.0153501 -0.0244742 0.00563345 0.0423134 -0.0734224 0.0228068 0.0191598 -0.0159114 0.104019 0.00728923 0.0593865 -0.055953 0.0229267 -0.0229396 0.0205951 -0.0577317 -0.0231363 0.0287928 -0.0210784 -0.0495568 -0.0103481 -0.0437651 0.0538746 0.0295458 -0.0492175 -0.0276408 0.0213606 -0.00452861 -0.0080096 0.0282205 0.0120963 -0.045296 0.0102473 -0.00123656 -0.00170475 -0.0521802 0.0849341 -0.0430591 0.0835443 0.0397495 0.0847557 0.00802447 0.0278539 -0.0296251 0.0487195 0.111918 -0.00733407 0.00950832 0.0406636 -0.108126 -0.0533123 0.075481 0.000267218 -0.0807178 0.0724439 -0.00169824 0.0655473 0.0251265 0.0393234 0.030289 -0.0308439 0.0294517 0.0396826 0.0155161 -0.0656736 0.0428411 -0.141105 0.00831703 -0.0150756 -0.0434084 0.100323 0.06145 -0.0747106 -0.0313022 -0.0236795 0.0280422 -0.0124723 -0.155416 0.0100679 0.0311932 -0.0325408 -0.0314657 0.0724711 0.0167537 0.0368363 0.0805543 0.0553857 0.103256 -0.0307349 0.0585442 -0.0322757 -0.0217562 0.0779483 -0.0310049 -0.0242515 0.100095 0.126893 0.0267912
