999 300
. -0.0462662 -0.0162351 -0.0123162 0.0222278 -0.0730516 0.00385644 0.0306611 -0.103499 -0.00860646 0.101114 0.023774 -0.00513188 0.0159296 -0.0815755 0.0621263 -0.132186 -0.092016 -0.00668473 0.00284921 0.0346009 0.0319719 0.100391 -0.0582063 -0.0441119 -0.0379744 -0.041266 0.0224788 -0.0990971 0.0412436 0.0553432 -0.116528 0.0516342 -0.0981096 0.100704 -0.0666893 -0.0834974 -0.0662807 -0.0891189 0.0744756 -0.0783711 0.0406358 0.00326095 -0.0612255 0.0266109 -0.00350155 -0.0124234 -0.00618882 0.0357973 -0.0181312 -0.0158366 0.0223413 -0.0416478 -0.100531 -0.00428009 -0.0841191 0.00402159 -0.0313518 0.161012 -0.0414491 0.0746417 0.0398985 -0.165438 0.122477 -0.0914783 -0.0111468 -0.0190823 0.0508602 -0.0207073 -0.0691494 -0.02012 -0.103171 0.0155036 -0.0188867 -0.102382 0.0051802 -0.0100294 0.091734 0.138619 -0.0271601 -0.0117658 0.0177814 0.0556021 -0.014902 0.05017 0.0440799 0.0115758 0.0291442 -0.000363233 -0.0199671 -0.00853227 -0.0201308 -0.024167 0.00762838 -0.0482436 0.0358133 0.0227494 -0.0299271 0.0238722 -0.0276705 -0.0498995 -0.0194591 0.0366111 -0.0546146 -0.0258754 -0.0192431 -0.0179823 -0.135738 -0.0325626 0.0383007 0.00528442 -0.0272383 0.0252857 -0.0609495 -0.0392151 -0.0571686 -0.0349386 0.0343083 0.0980187 -0.0254376 0.138234 0.12247 -0.028864 -0.0189057 0.121385 0.0659713 0.018502 0.0234898 -0.00711103 0.0379117 0.0245019 0.0271161 0.0960644 0.0577707 0.0486227 -0.0265519 -0.00116684 0.000941748 -0.0190146 -0.0564416 0.140288 -0.00439162 0.0520943 0.0400103 0.103839 0.0460892 0.0724814 0.0445886 0.0169217 -0.030173 0.0156624 -0.00513788 -0.102977 0.00727394 -0.0256478 0.0643624 -0.0122398 0.0409325 -0.0322887 0.0927389 0.0562096 -0.0297307 0.109137 -0.035629 0.072496 0.0638954 0.056273 0.0592241 -0.00679034 0.0457552 0.0192442 -0.0652638 0.0531775 -0.141025 0.0162869 0.00806408 0.0406836 0.039868 0.0100366 -0.023305 -0.00846033 -0.00844368 -0.132673 -0.0348107 0.0307416 -0.0122005 0.096057 -0.0417418 -0.0352499 0.0563673 0.0115079 -0.00578439 -0.139336 0.107783 0.043751 -0.113234 -0.0359288 0.0410285 0.00913756 -0.111154 -0.0864293 -0.0153551 -0.0125651 -0.0526632 -0.0220404 0.0701722 -0.0510398 -0.0865353 0.021806 0.0871481 0.0664448 0.0342442 -0.0299112 -0.0515076 -0.0370929 -0.0399215 -0.013691 0.00465437 -0.107173 -0.0679255 -0.0163295 0.0134679 -0.0239241 -0.0573327 -0.0286444 -0.022478 0.0192564 -0.0128298 -0.0375145 0.0210369 0.0512226 0.0117506 0.0745374 -0.0603556 -0.0300452 -0.0268028 0.0933871 -0.0252698 0.0196355 -0.0457204 -0.0201608 0.014797 0.0268407 0.088269 0.00834834 0.0978577 -0.0217781 0.0214111 -0.00391835 0.035141 0.042174 -0.00628955 -0.0283592 -0.0818299 0.0249471 -0.0916834 -0.0300413 0.00673924 -0.0229984 -0.0348674 -0.0607136 0.0284103 0.0737391 0.0500458 0.0402923 0.00547835 0.0232075 -0.00059907 -0.0834665 0.027164 0.0241055 -0.0312888 0.0390787 0.0845117 -0.00387463 -0.0688915 -0.116361 0.0522138 0.0552235 -0.0639995 -0.0825566 0.0192852 -0.0240795 -0.0572593 -0.0830807 0.0895759 -0.0510008 0.0635374 0.0552677 0.0253932 0.00347652 -0.0169043 -0.110568 -0.0722234 -0.0187597 0.0124535 -0.103509 -0.0268471 0.0093685 -0.0590932 0.0279698
, -0.0633525 0.0608377 -0.0359991 0.0179942 -0.0635491 0.0512149 0.00304361 -0.0452791 0.0227597 0.132639 0.0400651 -0.00462335 0.0501576 -0.0315139 0.0447674 -0.101184 0.00480426 -0.0210071 -0.0275109 -0.0107957 0.0308904 0.0711829 -0.104703 -0.0708009 -0.0647335 0.0424923 0.0204048 -0.124567 -0.029183 -0.0263313 -0.142525 0.146578 -0.056725 0.0353582 0.0273798 -0.0780084 -0.0917606 -0.161663 0.102477 -0.0282756 0.0663208 0.0683965 -0.0580891 0.0268011 0.0170655 -0.00699513 -0.0197632 -0.0251648 -0.0320075 0.019199 -0.0231684 -0.0478228 -0.0787101 -0.0202589 -0.0594044 -0.0396628 -0.0213043 0.108765 -0.0670669 0.0509083 0.0127977 -0.111388 0.0578255 -0.088062 -0.0219448 -0.0115132 0.0348369 -0.00430274 -0.0515602 -0.036733 -0.06401 -8.83683e-05 0.020397 -0.0933416 0.0203665 -0.0304696 0.122098 0.0762698 0.00558436 0.0694556 -0.0405182 0.0154916 -0.035581 0.0147231 0.0310226 0.0269296 -0.0196041 -0.0359817 0.0798084 -0.0572198 -0.00798175 -0.0054741 0.00102485 -0.0165025 0.0205896 0.00431971 0.0412211 -0.0545618 0.0309376 -0.0352233 0.0650409 0.000670572 -0.0316721 -0.0369376 0.00680169 -0.00840763 -0.120476 -0.0224539 0.012947 -0.0913816 -0.00645177 0.0843012 -0.0518508 -0.0525789 -0.0722548 0.00591571 0.0365153 0.0667501 -0.053298 0.108989 0.0749156 0.0444654 0.0149432 0.108752 0.0721552 0.00568914 0.0625831 0.0155801 0.0426256 0.0272155 0.0447867 0.106742 0.0533531 0.0294787 0.0470048 -0.0254994 -0.00513325 -0.0153777 -0.0720132 0.0814575 -0.0204673 0.0635085 0.0956319 0.0259576 0.0617904 0.131717 -0.00286475 0.0136957 -0.0176179 0.000126347 -0.0145973 -0.109134 0.0305013 -0.0265933 -0.0335934 -0.0348335 0.0457462 -0.057591 0.0944603 0.0979586 -0.071282 0.156477 -0.0732763 0.0572229 0.0617606 -0.0253067 -0.0118059 0.0497238 0.00937457 0.0607549 -0.0959134 0.00749631 -0.107849 -0.0384823 -0.0695774 0.0499503 0.0349363 0.0637987 0.00707916 0.0527882 0.0241984 -0.117468 0.00923581 0.0818661 -0.015373 0.125424 -0.0576188 -0.0174995 0.0107579 -0.0173666 0.00317496 -0.121133 0.0904826 -0.00992781 -0.0603417 -0.0420097 0.0295081 0.0087818 -0.120414 -0.0139826 0.0613768 -0.0915078 -0.11176 0.00179711 -0.0157111 -0.0420379 -0.130347 -0.00874477 0.136787 0.0399228 0.112546 -0.0283251 0.0370279 0.0142321 -0.0420128 -0.0386473 -0.0783482 -0.116466 -0.0985932 -0.0912613 -0.0780675 0.0297701 -0.113211 -0.0121976 -0.00339589 -0.0126999 -0.0193538 -0.0241017 0.0333054 0.0838933 -0.0285126 0.0244006 -0.0283496 -0.0250731 -0.0935405 0.011904 0.00948383 0.00897039 -0.0583085 -0.0101275 -0.0165764 0.0628924 0.0463161 0.0515047 0.0322375 0.0653954 0.0451974 -0.00722632 0.000262951 0.0528817 0.0169611 -0.0787209 -0.0777129 0.0238981 -0.0692309 -0.0429787 0.0403684 0.0170765 0.0570801 -0.0170472 0.0248618 0.0804513 0.0673372 -0.0167737 0.0144058 0.0128336 0.0378308 0.0133204 0.0546232 0.0101224 -0.0517254 0.0259875 0.056363 -0.00480599 -0.0579946 -0.0181082 0.119192 0.0427704 0.00103335 -0.031454 0.0648214 -0.00234866 -0.00876867 -0.0155407 0.0422638 0.00906913 0.08104 0.0398719 -0.0243726 0.0204899 -0.0084073 -0.035583 -0.0142758 -0.0111286 -0.00122091 -0.0693917 -0.026037 0.00609655 0.0254388 0.000215463
</s> -0.0466448 0.0202358 0.0835648 -0.0941113 0.0409271 -0.0923896 0.0173658 0.0205024 0.0170996 -0.0725252 0.00842834 -0.121293 -0.0430044 -0.0427676 0.0125359 -0.0689873 -0.0438106 0.032474 0.116512 0.0604804 0.0160885 -0.0219107 -0.0545582 -0.0661755 -0.040638 -0.00679184 -0.0362336 -0.0634421 0.0393758 0.0240285 -0.0666548 0.0409002 -0.0390923 -0.060286 -0.00834645 -0.0118415 -0.0250581 0.0509916 -0.0103008 -0.00258169 -0.00797645 -0.0502637 0.0202449 -0.0521216 -0.0475271 0.0808022 -0.0141983 0.0344836 -0.0211957 -0.0163962 0.061024 -0.0591763 -0.0297865 -0.159184 0.0482399 -0.0162096 0.0518928 -0.0582162 0.0762812 0.0121881 0.0350082 -0.036082 0.0272322 -0.00871771 -0.0418947 -0.0222648 0.00871409 0.00705151 -0.0188357 0.0321683 -0.0112911 -0.116846 0.0436711 0.0713156 -0.0399884 0.0357224 -0.0265327 -0.0258019 -0.0220575 0.00782592 -0.0346921 0.0936936 0.0266408 -0.000160433 -0.0190206 -0.00808176 0.0477792 0.00554461 0.0655911 -0.0302554 0.0114495 -0.0718027 -0.0489819 0.0110997 0.0137288 -0.0212057 -0.0403454 -0.0714704 0.0565167 -0.0940128 -0.039454 -0.0283261 0.0574313 -0.0434448 0.0526714 -0.0444677 0.0168575 -0.0527238 0.0370226 0.0111645 0.0647803 -0.0258174 -0.109313 -0.0541734 -0.0487782 -0.0351548 -0.0479468 -0.0348436 0.000971336 -0.0364878 0.097922 0.0169039 0.00840731 0.0882878 -0.0418203 -0.0236837 -0.02282 0.00668062 0.00504176 -0.0704845 0.0947865 -0.00978458 -0.0535221 0.0196854 0.0608378 -0.00910317 -0.00643871 -0.0810675 0.0668766 0.0776768 -0.0829484 0.0403323 0.0630993 0.00278716 -0.0433352 0.0534512 0.0578286 -0.0807315 -0.0256475 0.0587248 0.0156562 0.000107429 -0.0402947 -0.0547005 0.0559106 0.0031656 0.0240753 -0.0395282 -0.0385676 0.00577191 -0.0558102 0.00256848 -0.0100069 0.0318856 0.0391008 0.0432646 0.0839199 -0.0194134 -0.00141947 0.021474 -0.0529972 0.0951975 -0.0311286 0.0467813 0.0642146 0.116312 0.0423709 0.0128223 0.02029 -0.0807874 0.0434331 0.0279795 -0.0470114 -0.0053185 -0.091141 0.147956 -0.0774315 -0.0591678 0.0455889 -0.0451088 -0.00738134 -0.0749917 0.021802 0.0808707 -0.161009 -0.0143883 0.00735986 0.0508202 -0.156314 -0.0651325 0.0521437 -0.0220085 0.0339723 -0.0282754 0.0604229 -0.0164216 -0.000198245 -0.0378059 0.104451 -0.0478933 0.0589431 0.102867 0.0478768 0.0391526 -0.0599623 -0.0205745 0.0227613 0.000827325 0.00786467 0.0579295 0.0918017 -0.00383098 -0.0560713 -0.0419972 -0.0556801 0.0239234 -0.0773342 -0.125701 0.0365163 0.00893479 0.0114589 0.041559 -0.0184823 -0.0378148 0.0306825 -0.0584933 0.0297654 0.0226359 -0.0178623 -0.112274 -0.0198478 0.031261 0.0951715 0.0242281 -0.0896737 0.0423657 -0.0175545 -0.00526967 -0.0199734 -0.0930711 0.0113776 -0.0283483 -0.14321 -0.037486 -0.0118704 -0.0011746 0.0755232 -0.0399197 0.0861494 0.0686733 -0.0225916 -0.0536368 0.172093 0.00893962 -0.112165 -0.0515226 0.0183523 0.0200442 -0.0745255 0.000333365 -0.0130993 0.0302973 -0.0237556 0.0953241 -0.0747783 -0.087358 0.0300376 0.0750115 0.0883752 -0.0925921 -0.0962733 -0.0142488 0.00174872 -0.0325879 -0.117544 0.0319858 0.0405871 0.00220349 0.108973 -0.0397754 0.0848525 -0.141641 0.0509986 0.0529554 -0.039899 -0.0676212 -0.142578 -0.0896967 0.154301 -0.0755498
- -0.0379924 -0.00794372 0.0145106 -0.0341077 -0.0577986 -0.018671 0.00689468 -0.059647 0.00473606 0.0145845 -0.0579311 -0.0478712 0.0416434 -0.0453062 -0.0393934 -0.096814 -0.0344294 0.0596033 0.00651613 0.0935181 -0.0130682 -0.0208965 -0.143291 -0.0574387 -0.00944591 -0.0194067 -0.0598817 -0.0944773 -0.0427647 0.0284859 -0.0790705 0.0858553 -0.118243 0.0432961 -0.00441195 -0.0730094 -0.0946279 -0.00955875 0.000853085 -0.111312 0.0634527 -0.00246926 -0.0244994 0.0423559 -0.0348839 -0.0274786 -0.0573652 -0.0314101 0.025416 -0.052383 -0.0445543 -0.106539 -0.056628 -0.0678714 0.0542311 -0.0539232 -0.00287776 0.0909827 -0.0247443 0.00548653 0.00528767 -0.0447019 0.0372493 -0.104555 -0.0558495 0.0631197 0.0846209 -0.0820028 -0.18754 -0.00480433 0.0623058 -0.0453368 -0.0267363 -0.159617 0.0229273 0.026225 0.119449 -0.00645847 -0.0110972 0.126462 0.00379287 -0.00763121 -0.0221433 -0.0441707 0.117733 -0.0374362 -5.27767e-05 -0.0156073 0.0533876 -0.0157057 0.00606596 0.042685 0.00337906 0.00381319 0.01481 -0.0275825 -0.00577475 -0.061808 -0.0656355 -0.0348519 0.0346394 0.0403061 0.0136141 0.0189075 0.0563826 -0.071206 -0.119586 0.0148987 -0.0514155 0.0295053 0.018641 0.0239082 -0.0256484 -0.0199712 -0.0279211 -0.0357046 0.00790314 0.0199168 0.00950274 0.0066805 0.11795 -0.0980881 -0.0116239 0.0726748 0.00732852 0.0610861 0.0375245 -0.0103699 0.0470172 -0.01585 0.0244831 0.0392866 0.101002 0.00632707 0.0130469 -0.0294014 0.00881604 0.0614252 -0.00237091 0.12778 0.0726848 0.0755194 0.123066 0.121093 0.0371414 0.0739931 0.0240616 -0.0193968 -0.00953578 -0.0163476 0.00286883 -0.051678 -0.0461836 -0.0544084 0.0188979 0.0363804 0.0471106 -0.0300037 0.108122 0.0723649 -0.0247692 0.0212673 -0.0540615 0.0350843 0.105995 -0.0118414 0.00938997 0.0434152 0.0839441 0.017786 -0.0752987 0.0699582 -0.0334789 0.0871681 0.0241339 0.0546691 0.12452 0.0136645 0.0699197 -0.0810375 -0.0369014 0.0129716 -0.075732 0.0362989 -0.00398452 0.146512 -0.0635586 -0.0748928 0.0172608 0.0627938 0.028341 -0.130827 0.0773461 0.00374458 -0.0567152 -0.0209364 0.00137969 0.0631437 -0.0735466 -0.0697554 0.0233575 -0.0590381 -0.030452 -0.0270928 0.042032 0.0101927 -0.0328 -0.0433018 0.116973 0.0944129 0.0679289 -0.0274614 -0.00134872 -0.0153478 -0.0629749 -0.0809289 0.0632592 -0.0507494 -0.112136 0.0700037 -0.117724 0.0665699 -0.047746 -0.0885541 -0.0696895 -0.0321031 0.00691685 0.048446 0.0580988 0.0366833 0.0183975 0.0370271 -0.0400654 -0.0548556 -0.0273831 0.0991528 0.0150581 0.0055694 -0.0419238 0.0245295 -0.026246 0.00783666 0.00760368 0.00870986 0.0327545 0.0243406 0.11038 0.0593127 0.0205733 -0.02344 -0.018388 0.000460212 -0.0884706 0.0712792 -0.0269522 -0.0882389 0.045869 -0.0377453 0.0901833 -0.0344708 -0.0193079 0.0444637 -0.00931966 0.0776126 -0.0124207 -0.0476289 -0.0894134 -0.00941406 0.0983974 -0.0246409 -0.106938 0.0527833 -0.0224339 -0.0623965 -0.0379236 0.0146668 0.0509354 0.0816657 0.0205856 0.0100533 0.0750986 0.021165 -0.110742 -0.0101301 0.0353243 -0.00758914 0.0338669 0.010485 -0.0629904 0.0272895 0.0770411 -0.0630482 -0.000740132 0.0253775 -0.0478346 -0.0439247 -0.0128631 0.0173952 0.0795283 -0.0171537
der -0.0188775 -0.0514633 0.0293461 0.0707881 -0.0538046 -0.0102724 -0.042492 -0.103225 0.038231 0.0511245 0.0511254 -0.0784174 0.0362845 0.0303046 -0.0441175 -0.0386936 -0.0949081 -0.0366806 -0.0293516 0.0710446 -0.0801125 0.132124 -0.15269 -0.0417671 -0.0324332 0.00844278 0.0117946 0.0238863 -0.0045635 -0.0318002 -0.0474184 0.0668366 -0.112075 0.1292 0.00282512 -0.0816413 -0.01637 -0.0313194 0.0132063 0.00607266 0.0783431 -0.0146535 -0.0151996 -0.0264563 -0.0477501 -0.108327 0.00174747 0.0675468 0.0294979 -0.0245447 0.0580111 -0.0610842 0.0132639 0.0283094 -0.0250329 0.0301959 0.0399515 -0.0105782 0.0130004 0.0513541 0.0122656 -0.163156 0.15685 -0.0123234 -0.0430071 -0.131408 -0.0868659 -0.091188 -0.0747994 -0.00715782 -0.0859558 0.0133362 0.0173437 -0.0786629 0.0419381 -0.0601482 0.0344036 0.103303 0.0167871 -0.0283573 0.0307273 0.0802717 -0.0558957 0.040638 -0.0433453 -0.0438967 -0.0393169 0.00971146 -0.0477932 -0.0484899 0.0322071 0.0384698 0.146571 -0.0826836 -0.0268473 -0.0852841 -0.0130184 0.0320402 0.0316243 -0.0469189 -0.028137 0.00866862 0.0238213 -0.0723009 -0.0900552 -0.0611425 -0.030797 0.0358235 0.0424677 -0.0283379 -0.0357797 -0.0254836 -0.0625631 -0.059926 0.0841762 0.0263631 0.0103712 0.0363622 0.0785384 0.0464289 0.0770179 0.025061 -0.0467742 0.125819 0.0449027 -0.057226 0.0339459 -0.0363403 0.0708521 -0.0797703 -0.00213957 0.0995143 -0.0136779 -0.0123553 -0.0691583 0.0350957 0.00408878 0.0220764 0.0091578 0.133443 0.0325834 -0.0164923 0.0813361 0.00678468 0.0415339 0.133333 -0.039683 0.0010338 0.0503599 0.0155068 0.031405 -0.0035106 -0.0701315 -0.0179292 -0.0197162 -0.0630648 0.00256449 0.00351534 0.0585467 0.105625 -0.0466088 0.0981297 0.0364826 0.0104454 0.166896 -0.0184853 -0.079684 0.0123245 0.0547134 -0.0969456 -0.0510784 -0.0800845 -0.0865174 -0.0111894 -0.0863904 0.0380957 0.0788773 0.0312171 -0.0236799 -0.0599592 -0.0429233 -0.0226063 -0.065063 0.0518507 0.0437349 0.0800302 0.0377935 -0.095358 0.0464974 0.0231299 -0.0667916 -0.102586 0.102352 0.0492416 0.0134408 0.00507124 -0.0955135 -0.0237788 -0.0853647 -0.0487198 -0.00026941 -0.0500547 -0.00252292 0.0715919 -0.0193977 -0.031701 0.00361466 0.011044 0.035535 0.0478757 0.0762228 0.0259695 0.0566194 -0.00388869 -0.0264266 -0.0516243 -0.0144609 -0.0792843 -0.061478 -0.0443684 -0.00223901 -0.00223882 -0.0747752 0.12328 -0.0541247 -0.0175575 -0.0448498 0.0550177 0.04352 -0.0998022 0.0186367 0.0453847 -0.0372515 0.00235261 -0.00224515 0.0202955 0.0356283 -0.0149336 -0.00230289 -0.00832358 -0.0721853 -0.00122183 0.0264361 0.0106537 0.0501981 0.0671798 0.0166952 -0.0535751 0.0572415 0.0464266 0.0219145 0.0841647 0.0202402 -0.0149698 -0.092269 0.0449456 -0.0466435 -0.0119323 -0.0333064 -0.0409995 0.0200325 0.060035 0.000221712 -0.0346976 -0.0272568 -0.00536281 0.042188 0.0345472 -0.0230758 -0.117902 -0.0645474 -0.0531721 -0.000186801 0.0574095 -0.0211539 -0.0168194 0.0260176 0.0755137 0.137731 -0.0203273 -0.00363615 0.00564809 0.00895266 0.0551163 0.0368459 0.00424009 0.0889657 0.0278047 -0.0935335 0.0344209 0.0121239 -0.1005 -0.0132915 0.107308 -0.0256439 -0.0141678 -0.0377216 0.0992837 -0.0636748 -0.0246564
) -0.0636375 -0.0505187 0.0259484 -0.0793069 -0.0351983 -0.0357339 0.0204186 -0.0424233 0.0142634 0.0497993 0.0366261 -0.0328314 0.0522598 -0.0615989 0.0486199 -0.0853221 -0.0150616 0.0220456 -0.0560987 0.000809722 0.0156382 0.0965811 -0.0820367 -0.065328 -0.0761255 -0.00493372 0.0359194 -0.120335 0.00968262 -0.0343615 -0.143038 0.0931253 -0.0575782 0.0313149 0.0621368 0.000390371 -0.0336471 -0.0963286 0.0487865 -0.0508008 0.0570863 0.0360491 -0.103644 0.0171735 -0.0495247 -0.0017709 -0.0738533 -0.0255287 0.0188193 -0.03959 -0.00313827 -0.128022 -0.0678214 -0.0629302 -0.0200951 -0.132523 0.026741 0.0313536 -0.0393677 0.0389651 0.0654949 -0.0663226 0.0392473 -0.0381406 -0.0449181 0.0482062 0.000372786 -0.0673483 -0.0418499 -0.0217626 -0.0136141 0.0180118 0.0223668 0.0116819 0.0224815 -0.0661696 0.12932 0.0750026 0.0667646 0.104246 -0.0520042 0.0467936 -0.0376924 0.00565127 0.0774152 0.0222819 0.0344352 0.0216538 0.0623172 -0.0353357 0.0164814 -0.00165098 -0.00153067 0.00225541 -0.0252692 -0.0439352 -0.0195645 -0.0143464 0.00821486 -0.0180803 0.0388596 0.00268707 -0.0838475 -0.0443613 0.0634319 -0.0473875 -0.0977907 -0.00964015 0.0878227 -0.0931247 0.0188775 0.0388733 -0.0802232 -0.054359 -0.0410753 -0.00808856 -0.0331803 0.0654675 -0.0183644 0.065136 0.180757 0.0203507 -0.0213494 0.146023 0.000102421 0.0275172 -0.00921506 0.0402756 0.0492807 -0.0250322 0.0335216 0.058424 0.103904 0.0909311 0.0332915 -0.0066357 -0.0149359 -0.057254 0.0333628 0.152755 0.00362229 8.40115e-06 0.0811568 0.0941441 0.00791719 0.123861 0.0135915 0.0336218 -0.00849875 0.0312586 -0.0114554 -0.0686259 0.014796 0.0116322 -0.0120289 0.00536574 0.0468877 -0.0166178 0.101493 0.0229028 -0.0163706 0.0620857 -0.0896051 0.0269602 0.0638466 -0.0591697 -0.0097058 0.0505454 -0.0130981 0.0314682 -0.0958757 0.0190734 -0.105133 -0.0217992 -0.0479227 0.0355928 0.0755083 -0.0108132 -0.0120924 0.00154636 -0.0153978 -0.0901378 0.0233978 0.0677907 -0.027889 0.102401 -0.00101239 0.03006 0.0245117 -0.00385107 0.0166379 -0.126725 0.0522666 0.050403 -0.0396866 -0.12322 0.0830135 0.0116494 -0.149243 -0.033805 0.0112557 -0.0842235 -0.1177 0.0269277 0.029932 0.0297614 -0.107793 0.0258412 0.132955 0.0126319 0.184146 0.00448801 0.0522193 -0.0226815 -0.0883003 -0.0360249 -0.0113063 -0.0487553 -0.124137 -0.0986634 0.000962314 0.0270482 -0.103937 0.00895114 0.000724178 -0.0434965 -0.00309683 0.018728 0.0847694 0.0530737 -0.0621774 -0.000385218 -0.0235342 -0.117257 -0.0682125 0.0351488 -0.00270995 -0.0016765 0.00654851 -0.0623691 -0.0194483 0.0918042 -0.00290358 0.0149229 0.0310066 0.0292643 -0.012089 0.0129814 0.0623252 0.0383133 0.0773792 -0.125158 -0.00372686 0.0886737 -0.00117374 -0.0251926 0.0925679 0.0679545 -0.00460866 -0.0765191 0.0907087 0.0551857 0.0639307 0.0215577 -0.00911857 0.0440328 0.0310765 -0.0135724 -0.00407437 -0.0282483 -0.0316297 0.015683 0.0780267 0.000401967 0.0339226 -0.0143888 0.0923243 0.0246972 0.0314561 -0.0542257 0.000602705 -0.00631043 -0.00860503 0.0280116 0.0296057 0.0213832 0.0734865 0.01158 0.0418202 0.0417247 0.0221442 -0.0397718 -0.00220535 -0.00191577 -0.00632783 -0.0421155 0.0311894 -0.00249301 0.0738529 0.0871343
die -0.0266604 -0.0314876 -0.00144552 0.0977237 -0.0079977 0.00630665 -0.0848241 -0.0515148 0.0219815 0.0280097 0.0234709 -0.0742464 -0.00216079 0.0327262 -0.0259232 -0.0802837 -0.05293 -0.0133077 0.0548774 0.0875027 -0.0758067 -0.00251509 -0.116979 -0.096383 -0.0278228 -0.00285748 0.0835136 0.0466742 -0.000858343 -0.0315097 -0.0116849 0.0336698 -0.0837107 0.123859 0.0105711 -0.0915675 -0.0520512 -0.0518686 0.0386021 -0.0140926 0.0957313 -0.0500557 -0.0315054 0.0903829 0.0112149 -0.0173392 0.0297675 0.0191252 -0.0150437 -0.0763946 0.0267115 -0.0185462 0.0680819 0.0377265 -0.0542685 -0.0107065 -0.0784717 0.041107 -0.0558811 -0.00748609 0.00556115 -0.135111 0.0890593 -0.0203428 -0.00913895 -0.0845859 -0.0609388 -0.0753434 -0.0253664 0.0355539 -0.101635 0.0301644 -0.033488 -0.119328 -0.0171198 -0.0285131 0.077777 0.102386 0.0134858 -0.0712464 0.015071 0.092387 -0.0861785 0.165709 -0.0550321 -0.00752058 0.0470749 0.0409764 0.00188718 -0.040207 -0.0128094 -0.036235 0.142663 -0.112705 0.0128685 -0.0270313 0.101218 0.0366981 0.0763409 -0.0104514 0.0464613 -0.0500793 0.0638217 -0.146478 -0.15748 -0.0743472 -0.0239492 0.0381011 -0.00441309 -0.0328961 -0.0418222 -0.0353747 -0.0101924 -0.0341216 0.0152397 -0.0344359 0.0271562 0.104263 0.00388904 0.0686102 0.119117 0.0378968 -0.0422072 0.106116 0.00805912 -0.0222107 0.094103 -0.0309192 0.0339333 0.0200936 0.034695 0.0544511 -0.0718931 0.0193185 -0.0531499 0.0515662 -0.0421339 0.0187037 0.0435831 0.119347 0.0575149 0.0190339 0.0750847 -0.0299326 0.0687008 0.0661382 -0.00823901 0.0211017 0.0331058 0.051366 0.0367438 -0.0950858 -0.0183741 -0.00195016 -0.00465965 -0.0142106 -0.003581 -0.0129812 0.0988097 0.00383017 -0.0357019 0.0922804 -0.00152838 0.0301914 0.165862 0.0010705 -0.00474728 -0.0386476 0.0326685 -0.0673458 -0.0403973 -0.0937556 -0.0254691 -0.0184347 -0.060345 0.0820476 0.022583 0.0549537 -0.0350062 -0.0465225 -0.00336924 -0.0741842 -0.0477278 0.0706172 0.0180665 0.0216126 -0.0671139 -0.104491 0.0593642 -0.0785121 -0.0615752 -0.113576 0.0575902 0.0019561 -0.0419823 0.0383051 -0.0281608 -0.0533792 -0.0245122 -0.0257275 0.0587681 -0.00504481 -0.0405625 0.0240712 -0.00612592 -0.0245019 -0.0310691 -0.00957846 0.0325656 0.0812445 0.0338364 0.0578828 0.0188989 -0.032878 0.0477665 -0.0703198 -0.00214604 -0.0942739 -0.038546 0.0162204 -0.0155106 -0.0535809 0.00794575 0.0698855 -0.0481841 -0.00236024 -0.0979693 0.00830403 0.042919 -0.0555549 0.00368212 0.0313094 -0.052834 -0.0177904 -0.0536745 0.0538129 0.0239541 -0.0611528 0.013027 0.0341816 -0.0405212 -0.0642529 0.078661 0.0150704 0.0315155 0.0331667 -0.0427947 -0.0810982 0.0618879 0.0573042 0.00561361 0.0373659 -0.054849 0.00647071 -0.063021 0.0560448 -0.0361089 -0.0371458 0.0385894 -0.0954029 0.0127933 0.0429832 -0.0187704 -0.065339 -0.023601 -0.0390936 0.0470233 0.0195719 -0.0286599 -0.0424132 -0.13514 0.00332563 0.0426514 0.08112 -0.0514886 0.0102192 -0.00167543 0.127681 0.0796411 0.0381888 0.0156269 0.00999731 0.0115491 0.00526873 0.132432 0.0465724 -0.00297426 0.0235897 -0.0936855 0.0852738 0.0174597 -0.0864239 0.0160474 0.113337 -0.00834192 -0.0405694 -0.0395237 0.112788 -0.0107922 -0.0272405
( -0.0569706 -0.0686539 0.0251522 -0.0710445 -0.0348164 -0.0312032 0.0135095 -0.0326666 0.0155316 0.0435572 0.0609115 -0.0303361 0.0503515 -0.0559247 0.0368858 -0.0900895 -0.0226195 0.0297711 -0.0623089 7.40963e-05 -0.00209457 0.100048 -0.0788011 -0.0654829 -0.0720034 -0.00337988 0.0411796 -0.118517 0.000208332 -0.0421318 -0.125071 0.10271 -0.0598692 0.0064908 0.0600569 -0.0108212 -0.0359733 -0.0963402 0.046616 -0.045928 0.0622412 0.0334222 -0.0889136 0.0302501 -0.0419259 -0.00519579 -0.0731716 -0.0293402 0.031044 -0.039892 -0.00659374 -0.129752 -0.0517323 -0.0665195 -0.0232856 -0.13098 0.0185148 0.0151222 -0.0339225 0.0349771 0.0587774 -0.0721738 0.0471922 -0.0215415 -0.0547565 0.0505766 0.0123864 -0.0716373 -0.0460086 -0.0256946 -0.0111634 0.018943 0.0274619 0.0210664 0.0106103 -0.064747 0.117635 0.0687448 0.0666968 0.114788 -0.0394955 0.0507373 -0.0494868 0.0190003 0.0881047 0.00342919 0.0485274 0.025783 0.0466443 -0.0384567 0.0104159 0.0112723 -0.0158151 -0.00399485 -0.018203 -0.045376 -0.0241522 -0.015231 0.025738 -0.0147698 0.0477483 -0.00471656 -0.0828369 -0.044661 0.0448755 -0.0412147 -0.0970622 0.0131708 0.0927092 -0.0924489 0.023777 0.0344781 -0.0811291 -0.0464938 -0.0339455 -0.00846903 -0.0368747 0.0702453 -0.0185047 0.0538815 0.184059 0.0241455 -0.0211603 0.131179 -0.0141143 0.0337882 -0.0167045 0.046106 0.0563988 -0.0303201 0.0405808 0.0524952 0.0878804 0.0940239 0.0352412 -0.00295406 -0.0141677 -0.0517536 0.0286809 0.145352 0.000165188 -0.00397291 0.0862976 0.101248 0.0102041 0.120405 0.0290039 0.0436302 -0.0246436 -0.00131473 -0.0133509 -0.0468524 0.011498 0.019315 -0.0217269 0.00369748 0.0350873 -0.00907948 0.106308 0.0230417 -0.0260293 0.0543501 -0.0916567 0.0251893 0.0543328 -0.0624448 -0.00398529 0.0574852 -0.0223653 0.0259623 -0.102108 0.0264477 -0.105162 -0.0291662 -0.0382871 0.0460047 0.0723021 -0.0179943 -0.0159071 -0.0125739 -0.0247167 -0.0831645 0.0254573 0.0599054 -0.0291775 0.0990403 -0.00282417 0.0253781 0.037206 0.00245176 0.0210496 -0.118135 0.0451927 0.0748305 -0.0408895 -0.122417 0.0896889 0.0164676 -0.146324 -0.0255669 0.00387582 -0.103209 -0.119903 0.0305512 0.0179806 0.0274141 -0.124118 0.0282396 0.138747 0.00843776 0.190961 -0.00942344 0.0443089 -0.0349765 -0.0905666 -0.0343947 -0.0170418 -0.0378885 -0.13006 -0.0917089 -0.00664605 0.0363542 -0.10497 0.0160658 0.0121959 -0.0367338 -0.0106781 0.00609728 0.086935 0.0461719 -0.0562103 -0.00646593 -0.0218409 -0.125002 -0.0747013 0.0558711 -0.00836491 0.000315445 -0.00219691 -0.0704185 -0.00404279 0.0743191 -0.00425887 0.00463804 0.0447722 0.0345349 -0.0167743 0.011191 0.0637261 0.0349081 0.0829937 -0.116892 -0.00493938 0.0986291 -0.0083576 -0.0138213 0.0881675 0.0637874 -0.0189982 -0.0710114 0.0875441 0.0525509 0.0563919 0.0250298 -0.010339 0.0488234 0.0188124 -0.0122115 -0.00468896 -0.0247135 -0.0298159 0.00637349 0.0868773 -0.0213888 0.0474603 -0.0139808 0.0834817 0.0311474 0.0300043 -0.0430356 0.0110884 0.000328689 0.00704845 0.0505787 0.0292776 0.0355602 0.0802388 0.015292 0.0412673 0.049053 0.0173634 -0.0291619 0.012905 0.00717412 -0.0151098 -0.0452024 0.0412176 0.00484697 0.0746819 0.0723867
und -0.0189981 0.0387775 -0.0293393 0.0605646 -0.0500035 0.0293161 -0.00972157 -0.047887 0.0506738 0.100059 0.0699792 -0.00976709 0.0652666 -0.040595 -0.0337257 -0.0641916 0.0187784 -0.0759209 -0.0243189 0.0288524 -0.0355808 0.00184215 -0.104924 -0.0318771 -0.0692424 0.0207068 0.0551774 -0.0863316 0.00335092 -0.0445974 -0.112971 0.132291 -0.0711453 0.0977579 0.0598805 -0.0358183 -0.0458429 -0.0965138 0.0869707 -0.0486213 0.025396 0.0387213 -0.0713222 0.02216 0.0209851 -0.00203564 -0.0507081 -0.0122514 0.0380969 -0.0503493 0.00968099 0.0120725 -0.1006 0.0369748 -0.0556356 -0.0549421 -0.00365918 0.0443941 -0.129412 0.0729086 0.0082991 -0.148958 0.0844893 -0.0792192 0.0253968 -0.0161194 -0.09084 -0.0133125 -0.098328 -0.0285522 -0.153108 0.00266264 -0.0074646 -0.0804965 -0.0119892 -0.0148857 0.111962 0.0917271 0.00508129 -0.00716923 0.00112584 0.0237987 -0.0738726 -0.0193961 -0.017738 0.030402 -0.0958032 0.0284854 0.0667617 -0.0446016 0.0564478 -0.0187858 0.073286 -0.0929445 0.0145843 0.0435234 0.0302437 -0.0132995 -0.0170997 -0.0476602 0.0477672 -0.0817996 0.088634 0.00366941 -0.082035 -0.00134139 -0.125772 0.0139968 -0.0165852 -0.0710551 -0.0222957 -0.00825315 -0.0503725 -0.0415745 -0.046306 -0.0162953 -0.0103904 0.0182874 -0.0244661 0.0754071 0.0883772 0.0290385 -0.0610836 0.105959 0.051453 0.00212254 0.134531 -0.0105289 0.0251362 0.0603873 0.0976473 0.0963615 -0.0283445 -0.0308057 -0.00328337 -0.00446108 -0.0238322 0.059132 -0.0544931 0.0896341 -0.0981688 0.094069 0.0458349 0.00148851 0.0478821 0.14711 -0.0399131 -0.025337 -0.00548519 0.00876203 0.0398535 -0.0943469 -0.00162281 -0.00702412 -0.0793298 0.00230311 -0.0447214 -0.0490085 0.147881 0.0295988 -0.00750148 0.109109 0.0107413 0.07935 0.130753 -0.108614 0.0146516 -0.0572343 0.0618961 -0.0189558 -0.0483202 -0.00895669 -0.000224098 -0.0429212 -0.0769043 0.047317 0.092695 0.0774445 -0.0247572 -0.0628735 0.0495917 -0.0900331 0.0132891 0.059708 -0.0280434 0.144108 -0.0130336 -0.0604279 0.0473322 -0.0234192 -0.0363746 -0.0518216 0.0311043 0.0307981 -0.0183418 0.00282169 -0.082092 -0.00306241 -0.0676167 -0.0284575 0.0874025 -0.0745256 -0.0482355 0.0290353 0.0454544 0.00392132 -0.0910922 -0.00878789 0.097145 0.0419509 0.0885577 0.0150683 0.02507 0.0414122 -0.0257438 0.0721867 -0.0591364 -0.127424 -0.0860773 -0.0552271 -0.0412115 -0.0814723 -0.071133 0.015701 -0.0889954 -0.0534061 -0.0210497 -0.0250647 0.0467157 0.0847067 0.0217659 0.00550722 0.012461 -0.0115307 -0.056453 0.0496913 0.0131278 -0.018716 -0.0477128 0.0160054 0.00726584 0.0440824 0.00414522 -0.0430629 0.0074018 0.0431143 0.0300282 -0.0858719 -0.000256993 0.0338497 -0.0681603 -0.0343543 -0.0281096 -0.0297381 -0.0883869 0.00450837 -0.0204963 0.0248149 0.0570924 0.00762743 -0.0467144 0.0984484 0.0121339 0.0602538 -0.0022657 -0.00285349 -0.000156465 0.0677914 0.0367419 -0.00322985 -0.0607988 0.031559 0.018848 0.0515575 -0.0659161 -0.00200911 0.0304566 0.0918304 0.00730133 -0.00966366 0.0528507 0.0256414 0.0331539 0.0366081 0.0555056 0.0403727 0.0160975 0.0254583 -0.124684 0.014952 0.0824981 -0.0149598 0.0752964 0.054881 0.0625426 -0.0454829 0.0192228 0.0152179 0.0111404 0.0174239
in 0.0350678 -0.0770658 0.0156048 0.0346365 -0.076703 0.0776396 0.0725727 -0.0275031 0.018895 0.114146 0.0231469 -0.0300403 0.0108245 -0.0476094 -0.0441486 -0.0306863 -0.0500234 -0.0281707 0.047234 0.0190792 0.0590579 0.0875112 -0.127074 -0.0320588 -0.046131 0.00356315 0.040729 -0.0912568 0.0299877 -0.0419943 -0.0552047 0.0770665 -0.0723471 0.0998922 -0.00845897 -0.135082 -0.0205133 -0.0160315 0.0973858 0.0613078 0.069427 0.0122059 -0.062991 0.00821231 -0.0184484 0.00302098 0.000507051 0.0660209 0.0134986 0.00717829 0.0363687 -0.06862 -0.00878775 0.00263396 -0.00363793 0.021151 -0.0442959 0.106541 0.0321877 0.0734162 0.0277038 -0.0658213 0.146387 0.0196308 -0.0921157 -0.0774118 -0.0389748 -0.0527974 -0.0306868 0.0444188 -0.0392291 0.00115973 -0.0194986 -0.0525219 -0.0228462 0.0156537 0.128183 0.0164088 -0.0569409 -0.0229449 -0.0321546 0.0877333 -0.0585359 -0.000121436 -0.0276046 -0.0332811 -0.0221239 -0.0579075 -0.0714742 -0.0498365 -0.0288786 -0.0497715 0.122756 -0.104442 -0.0422944 -0.0790805 0.01545 0.102066 0.0297673 -0.01444 0.0326701 -0.0451453 0.0425447 0.0477222 -0.00924555 -0.0105268 -0.0749229 0.0132721 -0.0460973 -0.061697 -0.000353969 0.0130357 -0.023255 -0.0714032 0.0393345 0.0387958 0.0313171 0.0406676 -0.0475822 0.113017 0.0774193 0.0232987 -0.0290284 0.116176 0.0310081 -0.171976 0.05627 0.0125962 0.0462532 -0.00053936 0.0389217 0.0453565 -0.0545045 -0.066645 -0.112285 0.097914 -0.0216817 0.0630105 -0.0178308 0.132415 -0.0243999 0.0730743 0.0501085 0.0956507 0.016435 0.178129 0.0884321 0.000426276 -0.0110524 -0.0121454 0.011513 -0.0863913 0.0141613 -0.0391132 -0.0550912 -0.0435517 0.0142128 -0.0520807 0.0316222 -0.0142248 -0.134766 0.162334 -0.133026 0.0100295 0.0615194 0.0305426 -0.0307586 -0.0743609 0.0561504 -0.10436 -0.104565 0.0190978 0.0252967 -0.11141 -0.0388974 0.0793885 0.117356 0.0194448 -0.000722123 -0.0363734 -0.0373026 -0.0632191 -0.0438549 0.0748718 0.0592595 0.0453071 0.0288534 0.0665806 0.00775395 0.00663696 -0.00465873 -0.0526014 0.0450427 0.0668246 -0.0746654 -0.00629646 0.0135508 -0.00449863 -0.103982 -0.126916 0.01208 0.0106451 -0.00274789 0.0595052 -0.00933468 -0.0314934 -0.0694059 0.0144483 0.0770761 0.0437202 0.0731926 -0.00316172 -0.0863736 -0.0123078 0.00166925 -0.0112762 -0.0139353 -0.0330712 -0.0386678 -0.0407995 -0.0610352 -0.0230547 -0.0490233 0.0745874 0.0482321 0.0127049 -0.0501992 -0.0427122 0.129587 0.035935 0.04452 0.043055 -0.0493151 0.022322 -0.0296192 0.00534198 0.0153912 -0.0111838 -0.0125883 0.0871473 -0.0684302 0.000775151 -0.0093125 0.00133628 0.0210324 0.0257172 -0.00728751 0.0231243 -0.00872037 0.074791 0.00793871 0.00781712 -0.00471741 -0.0927538 -0.0949285 0.0447536 -0.0815163 -0.0104241 0.0622956 0.0462688 0.034664 0.077181 0.0749446 0.027894 -0.0235038 0.00203163 0.035996 0.00774668 0.0223557 -0.00255947 0.0119885 0.042824 0.0249349 0.0576096 -0.0063025 -0.0627072 0.0297494 -0.0160026 0.13874 -0.015551 0.0479684 -0.0116045 -0.0409268 0.0562782 0.049817 0.0219594 -0.00694454 0.00866222 -0.046764 0.0247961 0.0624852 -0.0742874 -0.00593833 0.087608 0.0146062 -0.0202514 -0.085345 0.00751012 -0.0157087 0.0744333
von -0.0367256 -0.0222961 -0.0131705 0.0291927 0.0383422 0.0836049 -0.0177477 0.00993167 0.0085877 0.102095 0.0758999 0.0366035 -0.0518213 0.0390573 0.0023647 -0.0465425 -0.0451438 -0.046936 -0.0454587 0.0215122 -0.0820512 -0.00969847 -0.116307 -0.03071 -0.0784731 0.0222575 0.0520293 -0.0290973 -0.0131702 -0.0855106 -0.0646654 0.148734 -0.0525931 0.0815292 0.0120895 0.0191058 -0.0463606 -0.0304958 0.0726745 -0.00608666 0.0285705 -0.0190527 -0.0297379 0.0442145 0.0881921 0.066467 0.0360125 -0.129509 0.0554111 0.0575068 -0.0382114 -0.0515186 -0.00354121 0.0177076 0.0223022 -0.0607676 0.0980936 -0.0255354 0.010156 0.0887901 -0.0267191 -0.0941417 0.0874609 -0.0777339 -0.00839145 0.0372739 -0.0505264 -0.0700608 -0.025723 -0.0442876 -0.0749449 0.0172952 -0.0660721 -0.0495222 -0.0321541 -0.019004 0.0573113 0.116074 -0.00880324 0.0120505 -0.00269918 -0.0224076 -0.0970516 -0.0743554 0.0377598 0.00955432 -0.109243 0.024642 -0.0233124 -0.0514537 -0.0317376 0.0274049 -0.00420373 -0.102299 0.0132239 0.0137774 -0.041158 0.00884178 0.0182562 0.0374276 -0.00970579 0.0949258 0.0754519 -0.0602062 -0.119313 0.031727 0.0170363 -0.00773139 0.108808 -0.0560162 -0.00599388 0.0185343 -0.00302008 0.0159678 0.0142485 0.0415928 -0.0355224 0.0905234 -0.0701185 0.020522 0.0654103 0.0927455 -0.0907089 0.103208 -0.0157356 -0.0668855 0.046537 0.045409 0.0747228 0.0901473 0.0712224 0.0523703 0.081319 -0.0138689 0.0345343 0.0794884 -0.00815054 0.0245362 -0.0579107 0.00394064 -0.0245433 0.0178923 -0.0211564 0.0713448 -0.00187613 0.0987089 0.0878316 0.00260979 -0.0271938 0.0373778 0.03573 -0.0688772 -0.0783259 -0.0944674 -0.0605854 -0.109772 0.0422383 -0.0119868 0.110808 0.0697721 -0.144433 0.00665413 0.0128094 -0.00748423 0.118824 -0.0124892 -0.00156667 -0.0248967 0.122502 -0.0144877 -0.125273 0.0657102 -0.0136974 0.00541178 -0.0232505 0.036173 -0.0209691 0.145012 -0.0353465 0.00121395 0.0250641 -0.017032 -0.0502678 -0.0210082 0.00421939 0.126957 -0.0646583 0.00665193 0.142014 -0.0625007 0.0321992 -0.133353 0.0688901 -0.0343066 -0.0196045 -0.0502157 0.00167383 0.0225933 -0.112946 0.00851278 0.0162471 -0.0958748 -0.0707329 0.0546585 0.0229101 -0.00224894 -0.0207145 0.0462122 0.0342948 -0.0382674 0.161797 -0.0160495 -0.0309036 -0.0701046 -0.010967 -0.0220345 -0.0485359 -0.0135467 -0.0316103 -0.0829416 0.0566473 -0.0592492 -0.147256 0.0241921 -0.0131073 -0.0270131 -0.0898459 -0.0297732 0.0479941 0.026308 0.014921 0.0319712 0.0108014 -0.013314 -0.00609031 -0.0011075 -0.0037186 0.0226348 -0.0325452 0.0498642 -0.0269099 -0.00585377 0.145301 -0.0337953 0.0340052 -0.0172753 0.0150304 -0.0182614 0.064373 0.0483032 -0.0114896 0.0138969 -0.0349514 -0.00111693 -0.0637272 -0.0402455 -0.0228204 -0.0308969 -0.0641459 0.00759282 0.0226625 0.0289857 0.000229212 0.0215958 -0.0228326 -0.0172551 -0.00742283 -0.0361489 0.0579767 -0.0266345 -0.0262178 0.026098 0.0735752 -0.0206966 -0.021936 -0.0505441 0.108086 0.0639856 0.0103539 0.0136611 0.013904 -0.0730794 -0.0247229 0.012757 0.0699496 0.0548375 0.0170191 -0.0161594 -0.0109621 -0.00555409 0.106688 -0.159197 0.062578 0.0655983 0.0268522 -0.034617 0.0810996 0.113406 -0.0576374 -0.00698171
' -0.113298 -0.102402 0.0973924 -0.00141624 -0.0575847 0.0283708 0.0236336 -0.0467241 -0.104835 -0.0778133 0.0691342 -0.090348 0.0217877 -0.0236032 0.0246181 0.00849082 0.0321822 0.0818054 -0.0573405 0.0340118 -0.0295356 -0.0360523 -0.0123173 -0.000842052 -0.0629497 -0.00336992 0.0402361 -0.0322833 0.00663014 -0.00673082 -0.0189899 0.0964726 -0.0620465 -0.0293499 0.0239769 -0.0498236 -0.0917075 0.00366506 0.0507032 -0.00354574 0.0788905 0.0575852 -0.0854784 0.00789612 -0.0148619 0.0205188 -0.0075101 -0.00478716 -0.0369049 -0.0330586 0.0284778 0.00283395 0.0816922 -0.120876 -0.0321343 -0.0747264 0.000690773 -0.0268425 -0.0143866 0.0487474 0.0577319 -0.0160542 0.0372806 0.0193421 0.015724 0.000156075 0.0954543 -0.0356298 -0.107178 0.00526174 0.104194 -0.0324227 -0.00974446 -0.0177759 -0.101743 0.040448 0.113248 0.0752771 -0.0524018 0.196884 -0.00105346 0.0665423 -0.0121592 0.0169282 -0.00347891 -0.0220437 0.105479 0.035295 0.0306704 -0.0217443 -0.126349 0.072683 0.0295545 -0.0373166 0.037324 0.000761189 0.0260944 0.0808802 0.0771956 0.0180618 0.0198871 0.016626 -0.0668128 0.0242735 0.0386812 -0.0287593 -0.0313859 0.0197371 0.108976 -0.0756579 0.0227172 0.057738 -0.0695393 0.0079783 -0.00331075 0.023788 0.0309284 0.0468236 0.0145893 -0.00772944 0.161457 0.0338643 0.0228722 0.106617 -0.00942591 -0.0219821 -0.0519187 0.00520497 0.053503 -0.0597173 0.0240383 0.098256 0.0269132 0.0817432 0.0700507 -0.00656665 -0.132141 -0.014213 0.0305813 0.132588 -0.0561525 -0.0506632 0.0912175 0.0536512 0.0121155 0.0594866 0.037816 0.0873961 0.0223043 -0.0611226 -0.0198636 0.0372296 -0.0813785 -0.0538783 -0.062471 0.0142392 -0.0336407 -0.0543661 0.108486 -0.0107828 -0.0901553 0.0323547 -0.112505 0.0675504 0.0931004 -0.0659232 -0.0321384 0.0162423 0.0423911 0.0092589 -0.0331879 -0.00480287 -0.106097 -0.0135526 0.0118175 0.084304 0.0367703 -0.0355395 0.01945 0.0120179 -0.0168021 -0.000720756 -0.039905 0.0793443 -0.0727287 0.0445706 -0.00472132 -0.0157198 0.0998065 0.01729 0.0665444 -0.0323532 0.13574 0.0733681 -0.0113456 -0.0247045 0.0661406 0.0760635 -0.12426 -0.0280302 -0.0697609 0.00180472 -0.0941575 0.0966055 -0.0387514 -0.0123475 -0.0828202 0.00928153 0.0758281 0.0425237 0.138658 -0.0449942 -0.0656849 0.0541306 -0.042693 -0.0654567 0.0139753 -0.0035343 -0.0987011 -0.0438913 -0.0451072 0.00553667 -0.111287 0.0280243 0.0102614 -0.0366367 -0.0315353 0.0289668 -0.00119754 0.00653542 -0.00992151 -0.0347192 -0.040192 -0.0893396 -0.0894436 0.0741198 0.0169629 0.0376746 -0.0163137 -0.00180653 -0.0544247 0.0215141 -2.44259e-05 -0.00681618 0.100542 0.0563019 0.052547 0.0820886 -0.0440397 -0.054324 0.116261 0.0540139 -0.0137136 0.00432566 -0.00430783 -0.0143574 0.0254404 0.000711877 0.0360216 -0.047823 0.00273827 0.00717725 0.111437 0.0427285 -0.0103096 0.00527358 -0.0211468 0.0466098 -0.014631 -0.0127318 -0.0444637 -0.00164856 -0.112672 -0.0847504 0.0476697 -0.0465055 0.0799003 0.0122301 0.0858541 -0.0555168 -0.0124339 0.0652522 0.0801672 0.0538468 0.0425297 0.0418141 0.0156047 0.0492627 0.00189415 -0.00559059 0.0017672 -0.0680906 -0.0270584 0.0332702 -0.0678726 -0.115313 -0.00227574 0.0101647 0.0765445 0.0545346
den -0.0688101 0.0383596 -0.0101148 0.0211558 -0.0541239 -0.00761133 -0.0253266 -0.0863588 -0.0228003 0.0763317 0.0785882 0.0206756 0.0323409 -0.0146386 -0.0164675 -0.0714458 0.0016681 0.00443201 -0.0298474 0.0169797 -0.0692397 0.0586695 -0.0841821 -0.0635486 -0.0720711 -0.14945 0.00615494 0.0268627 -0.0201266 -0.029164 -0.0252763 0.0476104 -0.0511211 0.129224 0.0111194 -0.00678604 -0.0779849 -0.00343108 0.0667176 -0.0598957 0.107813 -0.0130802 -0.0210821 -0.0611964 0.0537341 -0.0491937 0.00592888 0.084745 0.0234492 0.04581 0.0730566 -0.0513581 -0.0324814 0.0500338 -0.0788029 0.0995885 -0.0517278 0.0187213 -0.0781861 0.0546359 0.06387 0.00729505 0.145283 -0.0573953 0.0431723 0.0281661 -0.0957469 -0.0383469 -0.0497826 0.0101315 -0.0456307 -0.0402754 0.00963548 -0.0694305 -0.055131 -0.0665623 0.107367 0.0627941 -0.0193823 0.0646795 -0.0399473 -0.0191995 -0.0222519 0.057898 -0.0350335 0.0116061 -0.138271 0.00751954 -0.0117875 -0.107512 0.0336794 -0.0160481 0.12566 -0.081423 -0.00359518 -0.0425135 -0.0618006 -0.100294 0.0273991 -0.0858755 -0.0581287 -0.0730342 0.0667824 -0.031137 -0.112946 0.0162315 -0.0644788 0.00669787 -0.0298732 -0.0667246 0.0124171 -0.0322038 -0.0327902 -0.0584557 0.111747 0.0686634 0.0141131 0.0321177 0.017888 -0.0789429 0.11104 -0.0149762 -0.100415 0.122065 0.0338986 -0.0223442 0.0383691 -0.0081322 -0.00151858 0.0659712 0.0120581 0.0151772 -0.0786174 -0.0717663 -0.121097 0.0639771 -0.00869568 -0.0132764 -0.141826 0.00287168 0.0789011 0.149162 0.0673504 0.0340169 -0.0823141 0.113447 0.0451681 -0.0805399 0.046944 0.0449402 0.0137566 -0.0368361 -0.0276154 0.0300451 -0.0481252 2.10475e-05 -0.0540611 0.00365904 0.0852263 0.0161362 -0.0512715 0.0847725 -0.00688503 0.0914031 0.0954794 -0.000503286 -0.0659114 -0.0220265 0.0590847 -0.0352845 -0.0467348 0.01961 -0.0257075 -0.0100256 0.0165014 0.0966131 0.0563271 0.108393 0.00656346 0.0205202 -0.0255322 -0.142847 -0.0508557 -0.0173484 -0.0327784 0.0511838 -0.0495766 0.000736016 0.0908593 -0.0108391 -0.00898432 -0.0853112 0.00592646 0.117614 -0.0197333 0.0524541 -0.0101168 0.0276449 -0.0507121 -0.0294876 0.0395368 -0.0101079 0.0158455 0.0177786 0.0691712 -0.0699242 -0.0372138 -0.0370631 0.0253846 0.012574 0.0455539 -0.0214419 0.0246679 0.0384283 0.0482765 0.0303055 0.0115926 -0.0615303 0.0749405 -0.0328247 0.024498 -0.134746 -0.0684075 0.0989979 -0.00935926 0.0337958 -0.0688937 -0.0894264 0.0678453 0.00634541 0.0102767 0.0660662 0.0225846 0.017896 -0.0325015 0.00285216 -0.00475691 0.0697417 0.00304596 0.0187628 -0.0554955 0.00895655 -0.0729331 0.00825272 -0.00577717 0.114227 0.0229253 0.0102066 -0.028846 0.0447619 0.0406306 0.0823552 -0.0371672 -0.0305488 -0.0995486 0.0660706 -0.02756 0.0258488 -0.0798573 -0.0630815 -0.0526616 0.0928444 -0.0379278 -0.0109488 -0.0942321 -0.0382719 -0.0741075 0.0113862 -0.0469065 -0.0564277 -0.0652793 -0.0311385 -0.0462123 -0.0388247 0.0173326 0.0445807 0.0405472 0.066388 0.0355512 -0.0747275 -0.042541 0.00222327 -0.039573 -0.0364408 -0.00169609 -0.00754267 -5.58896e-05 0.00197827 -0.0826732 0.0572832 0.0646164 -0.0263881 -0.0462741 0.0901697 0.0810681 -0.0192137 -0.0300302 0.070751 0.00183203 0.00342413
im 0.0431013 -0.0438746 0.00575792 0.0251678 -0.0705254 -0.069758 0.0415429 -0.0437707 0.054371 -0.00806744 0.00583477 -0.0726971 0.0991146 -0.0752444 0.00174955 0.00641256 -0.117766 -0.0353118 0.00690446 -0.0016228 -0.0489325 0.072453 -0.0984843 -0.0490562 -0.0797064 -0.0534303 0.0147978 -0.0648841 0.0202125 0.0792873 -0.056941 0.154273 -0.0311254 0.0371087 0.0675032 -0.115495 -0.0641682 0.0313119 -0.00878193 0.0489752 0.0197864 -0.106483 -0.0149452 -0.00839481 0.0481179 -0.00522285 -0.121317 0.0899891 0.0981673 -0.0015463 -0.0678705 0.00647267 -0.0744259 0.0779541 -0.00584223 0.03055 -0.045631 0.114297 0.00271857 0.10579 -0.0310949 -0.0939647 0.120247 -0.154378 0.0201802 -0.112438 -0.0904368 0.0194342 -0.0437052 0.0548269 -0.0523111 -0.013757 0.0183647 0.0505008 -0.0548465 -0.0179368 -0.00286855 0.0320188 0.0706527 0.0591591 0.044536 0.0453001 0.0844191 0.0596153 0.00226982 -0.0226061 -0.0408541 -0.0251858 -0.0765548 -0.0580292 -0.0140105 0.0303112 0.0550132 -0.0787438 0.0620376 -0.0159127 -0.035687 0.0472431 -0.0351794 -0.0116263 -0.0556837 0.00229991 0.0447236 0.00840087 -0.060763 -0.0320676 -0.0770008 0.00660128 -0.0549543 0.0617827 0.0999575 0.0374358 -0.0145601 -0.0927518 0.00833226 -0.0137925 0.0630143 0.040523 0.0381371 -0.00491738 0.0958661 0.0277547 -0.171072 0.126206 -0.00406878 -0.0521245 0.022171 -0.0383656 0.0782036 0.0143172 -0.0586157 0.0221378 0.0681294 -0.0220322 -0.0117151 0.0132283 0.0175173 -0.00178796 -0.10827 -0.0196985 0.0725718 0.104973 0.13458 -0.0254818 0.0671081 0.0397156 0.063514 0.0464254 0.00265023 0.0095976 0.0269867 -0.0398526 -0.00467994 0.012218 -0.106727 -0.0404799 -0.0213057 -0.0295015 0.00455528 -0.0224181 -0.0206419 0.180402 -0.0222557 0.0987743 -0.0206473 -0.0515992 -0.025813 0.0554398 0.0600514 -0.0131717 -0.0579824 -0.0450661 0.0117623 0.00878215 0.0358361 0.130683 0.0398541 0.0693499 -0.0185217 -0.031753 0.0643836 0.0233212 -0.0543685 0.0604268 -0.0365329 0.124282 0.0586717 0.00341186 0.0194546 0.0410728 -0.0137323 -0.0323983 0.00505034 0.103766 0.0386289 -0.0427027 0.0231118 0.0314821 -0.00253948 -0.0958937 0.0538112 0.0165123 -0.0664589 0.0145639 -0.00711217 -0.0394935 -0.120224 0.036395 0.0512195 0.0376879 0.115454 -0.0534181 -0.0444955 0.0116664 -0.0267025 0.0401759 0.0920929 -0.0929233 -0.00921181 -0.0375524 0.0498889 -0.0640404 -0.0716804 0.0487585 0.0205163 -0.0526689 -0.0166595 0.0202961 0.0416387 0.0114788 0.0209602 0.00589864 -0.069106 0.050234 -0.0201864 0.0390917 -0.0459561 -0.0593552 -0.00411278 -6.36502e-05 -0.056953 0.0296002 0.000828785 -0.051478 0.0192813 -0.0350759 0.133248 0.00406824 0.0183965 0.0376966 0.0887136 0.0767531 -0.0239435 -0.0676448 -0.0761286 0.0142723 -0.0755746 -0.0260124 0.0591474 -0.00850977 -0.0177425 0.115523 -0.0293143 -0.0218119 -0.0181224 -0.00990092 -0.0373369 0.030235 0.0336243 -0.0461354 -0.107815 0.010814 -0.0351014 -0.0284953 -0.0296463 0.0183511 0.0852385 0.0175342 0.000638122 -0.0314534 -0.0354364 -0.0025102 -0.0382014 0.0713579 0.0289237 -0.0352409 0.0529258 0.0883089 -0.0240546 -0.0134136 0.0558679 -0.105607 -0.0195618 0.0799674 -0.0283789 0.034673 -0.0640141 0.00239742 -0.0555399 0.0871753
das 0.0550395 0.0428362 0.00959408 0.00144199 0.015082 0.00111459 -0.099678 -0.0150457 0.0755864 0.0349615 -0.00453143 -0.119413 0.0574704 -0.0669362 -0.00980526 -0.07713 0.0349186 0.0363287 0.0996908 0.0476465 0.0398337 -0.0705985 -0.0459081 -0.08868 -0.0631202 -0.0578287 -0.0184664 -0.00160691 0.0548754 0.0733198 0.0226585 0.0971627 -0.089161 0.0361919 0.0657592 -0.0730006 -0.012071 -0.0795028 0.0177053 -0.0471846 -0.0354813 0.0463818 -0.116902 0.0044969 0.0553855 0.0889374 -0.0348517 -0.00232633 0.051286 -0.123068 -0.0157622 0.0165134 0.000313413 0.0770624 -0.00717075 0.0196751 -0.126225 0.0413287 -0.0184499 0.0422321 0.0459233 0.00101021 0.113316 -0.0259692 0.0273063 -0.092598 -0.0337623 -0.0062529 0.0692672 0.037468 -0.0766006 -0.0100587 0.0875631 -0.0699087 -0.0356941 0.0448575 0.0824202 0.102584 -0.0294499 0.0201332 0.00785382 -0.00973002 0.0364974 0.0407401 0.0187424 -0.044105 0.0143848 0.0665957 -0.0862337 -0.0786062 0.0214051 0.0795314 0.0276882 -0.106882 0.0345157 0.119487 0.0727885 0.077016 -0.0398823 -0.0265276 -0.0812064 -0.0397299 0.0121447 -0.0320022 -0.09657 -0.0346566 -0.0839711 -0.0665154 -0.0418435 0.0354236 0.0789887 -0.0015517 -0.04731 0.0211227 -0.0418143 -0.0666391 0.0604716 0.102979 0.0166667 0.0445398 0.0891494 0.0816544 -0.0587417 0.0731479 0.101763 0.0478917 0.0913597 0.0339018 0.00793507 0.0773189 -0.0264361 -0.0527692 0.0110001 0.0152024 -0.0239655 -0.0011538 0.000560877 0.0465161 -0.00259553 0.0680619 -0.0500683 -0.0281534 -0.0115851 0.0530369 -0.0428709 0.0370046 -0.0583596 0.0811891 0.0736774 0.0881211 0.0265485 -0.0145729 -0.00342276 0.0121585 -0.0878893 -0.0727307 0.0345104 -0.105597 0.051193 -0.0432883 -0.053749 0.0849145 -0.11972 0.0308283 0.0167031 -0.0066082 0.0413218 0.0294757 0.129451 0.0478207 -0.0766349 -0.0454849 -0.0111924 -0.0617344 -0.0222654 0.0299536 0.00462099 0.0510641 -0.0971617 -0.00428921 0.00610008 -0.0405121 -0.0043763 0.082749 -0.087855 0.0278568 0.0347191 -0.0635181 0.0483355 -0.00939958 0.0277104 -0.0301063 0.0210096 -0.0221403 -0.0235747 -0.0672014 0.0719384 0.0395749 -0.0481779 -0.0132474 -0.0431689 -0.063327 -0.0329234 0.00821034 0.0280959 -0.0541281 0.00338553 0.0112171 -0.0645325 -0.00251072 0.192982 -0.0116508 0.0491362 0.0326355 0.0151881 -0.00354928 0.0856256 -0.115657 -0.0700127 0.0433297 -0.0469073 -0.0875338 0.0132218 0.00821617 0.0199752 -0.0201168 -0.0788965 -0.000867959 -0.0474104 0.0824914 0.0879288 0.0361692 -0.079289 0.00171637 -0.00648521 0.0917645 0.047628 -0.107839 -0.0762109 -0.0386844 0.0364378 0.014768 0.101635 0.0144096 0.0523509 -0.0170094 0.100698 -0.0156469 -0.0447694 0.00846791 0.0547806 0.0262843 -0.0444624 -0.0310692 -0.00899929 0.100051 0.0423381 -0.0454002 0.0336241 -0.00888488 -0.0541619 0.0152862 0.031618 0.0399616 0.0220097 -0.0850403 -0.089273 -0.0590637 0.039531 -0.071711 -0.126684 0.0631426 -0.0431115 0.0387087 -0.00709572 -0.115033 0.108146 0.0905417 0.0178726 0.0508014 -0.0418859 0.037613 -0.0706983 0.00140205 0.094355 -0.0684813 0.0345863 0.104308 -0.0524492 -0.0346298 0.0352675 -0.0502308 0.0140375 -0.0234345 -0.0305523 -0.00774494 -0.0257742 -0.00873978 -0.0151012 0.00360869
des 0.000460927 -0.0955403 -0.00496994 0.0153682 0.00261888 -0.0549285 -0.0831827 -0.0109902 0.0494831 0.00752001 0.06778 -0.0557673 0.0302823 0.0195705 0.00900271 0.00635066 -0.0124727 -0.123428 0.00196068 0.126337 -0.0327223 0.0485728 -0.131431 -0.00439913 -0.0492236 -0.0826214 -0.0255704 -0.0161072 -0.0107446 -0.0592792 -0.0356567 0.0988898 -0.0415302 -0.0459162 0.0613134 -0.0207408 -0.0331158 0.0329969 -0.0541219 -0.124454 0.00923284 -0.0138308 0.0878816 0.0193623 0.0460991 -0.0440551 -0.0706319 -0.0308879 0.0836278 -0.0262276 0.0825762 -0.0601608 -0.0265676 0.0480518 -0.0529908 0.03055 0.07835 0.0723369 0.0016592 0.058408 -0.0583665 -0.111827 0.0823353 -0.0654798 -0.0302009 -0.0609622 -0.029925 -0.0979607 0.0105868 -0.0284453 -0.171564 -0.032112 0.0500017 -0.00445184 -0.0226607 0.0187094 0.081121 0.0858448 -0.0253262 -0.0434239 0.0856218 0.0466601 -0.0960932 -0.0668578 -0.0497789 -0.0675208 0.00386584 -0.0840599 -0.027099 0.0490946 -0.0216246 0.0383495 0.0620166 -0.0603168 0.00392733 0.015726 0.00405174 0.0145331 -0.0273176 -0.0517869 -0.0158142 -0.0601837 0.0115537 -0.00229395 -0.0756485 0.0110886 -0.0459574 -0.0117063 0.00991835 -0.0368179 0.0774254 0.0314008 -0.070415 -0.0308311 0.117638 0.0753916 -0.0624639 0.0770358 0.143452 -0.0282367 0.0937373 0.00496012 0.0639771 -0.0286202 -0.00239272 0.00581231 -0.0335957 0.0411907 0.0411574 0.046177 -0.0992685 0.0760153 0.0155115 -0.050367 -0.0835832 -0.0148935 -0.0479783 -0.064676 -0.000457072 -0.0233919 0.00564103 -0.0391285 0.0529967 0.0874095 -0.0454798 0.0924473 -0.0352405 0.0336391 0.0975614 0.0826434 -0.0282184 -0.00785715 0.0175513 0.0276872 -0.0111157 -0.0243763 -0.0574478 -0.0177489 0.0304692 0.0802776 -0.0661773 0.0749509 0.00799751 0.0207021 0.0634084 -0.0283277 0.0338379 0.0181362 0.0889011 -0.0323434 -0.109995 -0.0725386 -0.0553054 0.0480655 -0.0669719 0.0881387 0.061731 0.0859501 -0.0202294 -0.00641068 0.00941219 -0.0207278 0.0672371 -0.0408092 -0.0275082 0.0897828 0.067921 -0.0658655 0.0945577 0.0828959 0.0090737 -0.0575751 -0.0516474 0.010624 -0.0539225 -0.0530693 -0.0230968 -0.0951195 -0.014094 -0.0207974 -0.0716531 -0.0769366 -0.0391892 -0.0107935 0.0798272 -0.0281031 0.0641926 0.0317854 -0.0171493 0.125355 0.117581 0.0893399 0.132122 -0.018525 -0.0860224 -0.0671721 0.0390359 -0.0850496 -0.0264845 0.0589555 0.0170817 0.0583225 -0.147671 0.129799 -0.0236254 0.0724868 0.00367779 -0.0324754 0.0271273 -0.00968468 0.0238454 0.0335389 0.0185231 0.0773879 -0.00469811 0.0849486 -0.0445247 -0.0345408 -0.0557934 0.0076525 -0.0376493 -0.0442378 0.0227751 -0.0688844 0.0203239 -0.0208409 -0.011239 0.0240737 0.00364912 -0.0261622 -0.0338874 0.10008 0.00542929 -0.0212649 -0.105591 0.0925395 -0.0164421 -0.0193386 0.016953 -0.0475893 0.0174191 0.124729 0.0301706 0.0297518 -0.030334 0.0160331 -0.0830034 -0.0379128 0.0126321 -0.0548319 -0.108861 -0.0427928 -0.0100067 0.046811 0.000598089 0.076689 0.0537007 0.116007 -0.0114964 0.00795345 -0.0528232 0.0595807 -0.0349602 -0.0108682 0.103455 0.00595514 0.0176103 0.0989006 -0.034056 0.0296092 0.0268638 0.0019779 -0.0322574 0.0374297 -0.0168802 0.0286614 -0.0654866 -0.0102626 -0.0872253 0.00667643
mit -0.026827 0.0921495 -0.0260073 0.122039 -0.00802847 -0.0014282 0.0648161 -0.0828799 0.0798384 0.0567389 0.0994373 0.083364 -0.0417195 -0.00946748 0.0121802 -0.0513841 -0.0614068 -0.0220804 0.0194008 0.0339005 0.0394071 -0.0070443 -0.00111077 -0.0473783 -0.0876376 -0.0060981 0.0822216 -0.014981 0.01835 -0.0194477 -0.0539653 0.068707 -0.0627564 -0.0100227 0.0265935 -0.0644013 -0.099457 -0.0259856 0.0726336 -0.0603526 0.0757056 0.0438942 0.0270368 -0.0123427 -0.0158001 0.000210187 0.0369818 -0.0143339 0.0387062 0.0337227 0.0414603 -0.0433887 0.0129752 0.070964 -0.0463703 0.0633364 0.0138692 -0.0942943 -0.0633603 -0.0220979 0.0646523 -0.144077 0.0539627 -0.00882092 -0.0198152 0.0420949 -0.0244548 0.0420634 -0.0181758 0.0265749 -0.0493073 0.0546395 0.0105812 -0.0647266 -0.0115134 -0.0746157 0.0694798 0.113804 0.0235678 0.0465769 0.0253573 -0.00802959 -0.0427713 0.00437809 -0.0153623 0.0240743 0.00166647 0.0743538 0.0581169 -0.0511102 0.00776401 -0.0157239 0.00798804 -0.0551277 0.101733 0.0763169 -0.0206588 -0.00891533 -0.0673258 -0.0284124 -0.0605971 -0.00264994 0.0160243 0.0574431 -0.0965635 -0.0242799 -0.0454662 0.0445808 0.06919 -0.00209638 0.0874049 0.00470267 -0.0215953 0.0363869 0.0186781 -0.0395317 -0.0504501 0.0422715 0.0197457 0.0510009 0.020097 -0.0492206 -0.110651 0.117707 0.0350432 -0.0320231 0.107598 0.0537833 0.0422823 0.113704 0.114254 -0.0376501 -0.0324246 0.0245899 -0.0978456 -0.0321627 0.148426 0.0897319 -0.00317323 0.100653 -0.0610494 0.110935 0.0606007 0.0761875 -0.0317357 0.161362 0.0675861 0.0414784 -0.0680957 0.022587 -0.02509 -0.0179311 -0.117993 -0.012338 -0.00328541 -0.00897806 -0.000876635 -0.00886153 0.0294945 -0.0802607 -0.0160472 0.085108 -0.0406831 0.0121602 0.0219021 -0.0502866 -0.0134394 -0.00272266 0.0307771 -0.0782534 -0.0371635 -0.0442827 -0.07702 0.0315374 -0.0181764 0.0509924 0.0184079 0.0956272 -0.0732445 -0.0275501 0.0121411 -0.0669949 -0.0384007 -0.0083565 0.0433123 0.118035 -0.0397853 -0.00630893 0.00383822 -0.0813253 0.0184945 -0.088658 0.0690937 -0.0428789 -0.00546555 -0.0604447 -0.0735675 0.0520146 -0.0824161 -0.041516 0.122524 -0.0254751 0.0416633 -0.0112226 0.059755 -0.0309276 -0.0896929 -0.117015 0.133477 -0.000897352 0.0754872 -0.0550438 -0.0680257 0.00867197 -0.0230611 0.0364801 -0.0346046 -0.0674894 -0.0615887 -0.00222474 0.00254052 -0.102181 -0.100945 0.11992 0.00804444 -0.0478035 -0.131191 -0.000503984 0.03696 0.131534 0.0255053 0.0257984 -0.0042671 -0.0117978 -0.0320808 -0.00234102 0.00505743 -0.110457 -0.0886784 0.0695343 -0.0407081 -0.0115066 0.0181966 -0.00605547 0.00957097 0.0543691 0.0219542 -0.0382337 -0.074267 0.00762204 -0.0282285 -0.0219405 -0.0540959 -0.0776598 -0.0758091 0.0669693 -0.0384769 -0.134086 -0.0249956 -0.0346886 0.040996 0.0337938 -0.00933937 0.0960561 -0.025871 0.0618611 -0.00151806 0.0290103 0.057966 -0.112915 -0.0329486 -0.0559151 -0.068168 0.0408211 -0.0654462 -0.0594427 0.0146643 0.0681524 0.0885556 0.0449491 -0.0167111 -0.000777589 0.0310539 0.0172729 0.0631298 0.00628952 0.0135733 0.00458382 -0.0384489 0.045475 0.03545 -0.0639749 0.0503731 0.0740347 0.0704708 -0.0414192 0.0463412 0.0142358 0.0632333 -0.0666867
ist 0.0359655 0.0329927 0.117775 0.0594549 0.0161907 0.0122296 0.0105312 -0.0521072 -0.121178 0.0533734 0.0214719 -0.01766 0.0622521 -0.0283522 0.0249933 0.0544578 -0.0571039 -0.0213928 -0.0616891 0.0601819 -0.0754809 0.0413302 -0.0640743 -0.0348745 -0.0255049 0.0493642 0.0494315 -0.00321109 -0.0525687 -0.0263247 -0.055961 0.113572 -0.100902 0.0021179 0.00827996 -0.0315625 -0.0900437 0.0199389 0.00738039 -0.00355695 -0.00251356 0.0132055 -0.12799 0.0196297 0.00451323 0.110676 0.0765045 0.0602452 0.00734836 0.000173074 -0.00914212 -0.0231869 0.0983139 -0.0692035 -0.0594779 0.0303938 0.0576846 -0.0203496 0.00904471 0.104479 0.0645036 -0.0441088 0.0671654 -0.0272401 -0.012382 -0.000942197 -0.00562594 -0.0253491 0.0160193 -0.00761886 0.00462272 0.0304391 0.0580789 -0.0312241 -0.0917988 -0.0112338 0.0280313 0.103091 0.0177743 -0.0188978 0.0252743 0.0904685 -0.00233746 -0.0531993 -0.0724654 -0.0435645 -0.00919008 0.0947564 -0.0135929 -0.0346244 0.0828746 0.0291743 0.0448313 -0.0389235 0.0217791 -0.0460287 0.0884999 0.116678 0.0224049 0.00655934 -0.0524972 0.0013659 -0.0237027 0.0167722 0.0133853 -0.0666945 -0.125909 -0.00470742 0.0236214 -0.0820714 0.00257679 0.0314159 -0.113667 0.00553844 0.0441922 -0.0118854 0.0255775 0.0848551 0.0997674 0.0467319 0.077064 -0.00882162 0.0573828 0.161626 0.0523752 0.0275562 -0.000951105 0.0017595 0.0876666 -0.0357063 -0.0374375 0.0499704 0.056474 0.024164 0.0174115 -0.0329646 -0.00157437 0.0239527 0.0305976 0.117699 -0.058829 0.016373 0.0594079 -0.00576109 -0.0443881 0.00248454 -0.0713794 0.0229316 0.0649798 -0.00808522 -0.0205804 -0.0124046 0.0100259 0.00192385 -0.0852754 -0.0528791 0.0310633 -0.0179126 0.169079 0.0544751 0.00544041 0.121709 -0.104499 0.00331749 0.121753 -0.0242146 -0.0105194 -0.0581691 0.0382076 0.0129234 -0.0212407 -0.0783689 -0.0676988 0.0114281 -0.0375788 -0.0619981 0.0818621 0.0135817 -0.0612358 -0.0229908 -0.0135633 0.0353861 0.0347111 0.113831 0.0418211 0.0454715 0.0162522 -0.0175581 0.0493301 -0.0699108 0.0177524 -0.0979714 0.0418695 0.0949088 -0.0414696 -0.0412343 -0.00850255 0.0467298 -0.0461863 0.00382606 0.0114339 -0.0844659 -0.0740147 0.0502354 -0.118199 -0.0165192 -0.0593059 0.0443807 0.0677565 0.00514842 0.0623764 0.0132629 0.0104384 0.0882112 -0.0590526 -0.0473239 -0.0659749 -0.147583 -0.085037 -0.0823428 -0.0060768 -0.0574881 -0.0862307 -0.00528238 0.0852907 -0.0855406 -0.00723564 0.0693425 0.00271294 0.0095224 -0.0415024 0.0124271 -0.0402113 -0.0334391 -0.0960699 0.0133768 -0.0431257 -0.0559653 -0.0286737 -0.00738645 -0.0527723 0.0692063 0.0038152 -0.049654 0.06254 0.152835 0.123904 -0.00817151 0.021045 -0.0701538 -0.0236859 0.055446 -0.0422364 -0.0707402 -0.043819 0.00953563 0.0438765 0.00549696 0.0680181 -0.0423724 0.0523473 0.0748553 0.041689 -0.00445204 -0.0582492 0.0032588 -0.00327701 0.0509874 -0.00861584 -0.0123252 -0.062109 0.05829 -0.0130968 0.110624 0.0491621 -0.11288 0.127177 0.0521553 0.0940258 -0.011527 0.0354713 0.0945026 -0.013956 -0.0482549 0.0497181 0.00192076 0.0322185 0.104485 -0.0905387 0.0613492 -0.0326162 -0.0493837 -0.0310828 -0.0204959 -0.0287862 -0.0797828 0.0754638 -0.0455135 0.0825921 -0.0367224
er 0.0138564 -0.0860606 -0.000916249 0.027261 0.0138678 -0.000199232 0.0337124 -0.00677905 -0.0418545 0.0848272 0.109653 -0.000994451 0.0017315 0.00323168 -0.0235318 -0.131017 -0.00674156 -0.0315308 -0.0145344 0.0727018 -0.048032 0.0280126 -0.092968 -0.118506 -0.0239877 0.0201718 0.0484023 -0.0645779 -0.0315224 0.00135156 -0.0417339 0.0683566 -0.122451 0.0811772 0.0100927 -0.107114 0.035739 -0.0976695 -0.0199707 -0.00611631 0.022932 0.0493441 -0.032931 -0.0497033 -0.0298387 -0.0616111 -0.0240451 0.0728728 0.0250439 0.0186502 0.0158305 -0.0795524 -0.0587992 0.0739083 -0.0857051 -0.030028 0.00692642 0.0729655 0.0720685 0.0226688 -0.0117744 0.0168691 0.0738563 -0.0359296 0.0183107 -0.0548109 -0.0851056 0.0433108 -0.0347419 -0.028109 -0.0722304 -0.0850464 0.0284527 -0.0547863 0.044409 -0.0233297 0.057127 0.0894741 -0.052107 -0.0298653 0.069737 0.0169406 -0.0270199 -0.0534493 -0.0341991 -0.0190543 -0.117011 -0.0180875 -0.0752205 -0.037543 0.0833439 -0.103364 0.128704 -0.0661523 -0.00146377 0.0622204 0.00136657 0.0346946 -0.121718 -0.103977 -0.0444388 -0.0491102 0.120061 0.0398499 -0.0946476 0.0490042 -0.0715309 -0.00313633 0.0101094 -0.0138792 0.00984896 -0.0367902 -0.0313512 0.00467545 -0.0392903 -0.0373962 0.084798 0.0818319 -0.0285028 -0.0335345 0.0129802 0.0500721 0.0221226 0.109363 0.014374 -0.00599149 0.0801214 0.038443 0.0245904 0.0438279 -0.0254195 0.0984308 -0.0237867 -0.140783 -0.163464 -0.0115708 -0.0243153 0.0250953 -0.0550048 0.00722185 -0.0428469 -0.00776983 -0.00488029 0.027857 -0.00399593 0.135155 0.0485769 -0.0755189 -0.0209186 0.073611 0.0363167 -0.0797084 0.0120448 0.0577595 -0.0950084 0.0655405 -0.0761968 -0.0485029 0.0250221 0.0659661 -0.130143 0.143723 -0.0953765 0.100389 0.0604979 -0.00431902 -0.0149694 -0.0470757 0.0755512 -0.0762439 0.0142746 0.0433264 -0.0532186 0.0343573 -0.0310717 0.0513555 -0.00752577 0.0943909 -0.083454 -0.0427157 -0.00137056 -0.0128148 -0.0412611 0.0305828 -0.0628903 0.0655404 0.0206202 0.00880367 0.0101251 0.0224755 -0.0534915 0.0133548 0.034986 0.134876 -0.0374912 -0.0459331 -0.0341951 0.00894621 -0.14787 -0.0157493 0.0368644 -0.0109516 -0.0327328 0.0614581 0.0206915 -0.0829322 -0.0087807 0.000937412 0.0667379 0.0303213 0.0548157 0.00760922 -0.00463606 0.0628711 0.00503382 0.0368289 -0.024175 -0.0607214 -0.00265691 0.0101804 -0.0251965 0.0228729 -0.0860568 0.0122994 -0.123659 -0.0239034 -0.0173466 -0.0405869 0.0427194 0.0191725 0.0824845 0.0825892 -0.0418901 -0.0517733 0.0306198 -0.0128355 -0.00220213 -0.0123126 -0.0156387 -0.0374772 -0.020763 -0.0131363 0.0758613 0.070478 -0.056272 -0.0612036 0.0470942 -0.0619934 -0.089666 0.0179066 -0.0171756 -0.0653992 0.00653523 -0.0264924 -0.0484252 0.013501 -0.0455937 0.0210259 0.0428932 -0.0102424 -0.0333924 0.113545 0.105825 -0.082789 -0.0351818 -0.00433513 0.0347308 0.0280224 0.0555954 -0.11688 -0.124148 -0.0464078 -0.101107 0.0513335 -0.0246923 -0.107367 0.0885934 -0.0103045 0.0480891 -0.0504968 0.00159954 0.0454488 -0.038647 0.0183593 -0.0146949 0.0715164 0.0724682 0.0133915 -0.0401621 -0.0392243 0.0251511 -0.0144523 0.0185595 -0.0116054 0.0840309 0.0200243 -0.00775835 0.0850646 -0.0291197 0.0223507
zu -0.0371878 0.0111813 0.00465864 -0.0550918 -0.0088728 0.00753913 0.0253831 -0.0425817 -0.0536307 0.0871728 0.0385059 0.0682073 -0.0178515 -0.0216916 -0.034505 -0.0456122 -0.000393587 0.030038 -0.0412224 0.0163929 -0.00362547 0.0151786 -0.103509 -0.107091 -0.0702309 -0.0323811 0.0264713 0.0170173 0.00569878 0.014109 -0.0882744 0.0416585 -0.118192 0.102597 -0.0158329 0.0194545 -0.0793495 -0.0553349 -0.0428263 -0.0872381 0.0598607 0.00288363 -0.0138245 -0.048709 0.0171781 0.0775096 0.0194558 0.0266411 -0.00675413 0.0333248 0.0159211 -0.140509 -0.0168855 0.00657935 -0.11188 0.106024 0.0506522 0.0432021 -0.0120133 -0.000818399 -0.00663322 -0.0874607 0.108194 -0.0479105 -0.0134759 -0.0509619 -0.0614155 0.0593207 -0.0566542 0.101278 -0.0451427 0.0161834 -0.0439138 -0.127236 0.0173831 -0.000785083 0.106823 0.118986 -0.0203079 0.00316264 0.0051947 0.0162434 -0.105526 -0.11151 0.012508 0.0607882 -0.0289885 0.0309616 -0.0298096 0.00647806 0.0268599 -0.016887 0.0513728 -0.153241 0.0346619 0.0635619 -0.0367554 0.0158317 -0.0472792 0.0163679 0.0758776 -0.0436963 -0.0033224 -0.0945905 -0.0642436 -0.0445612 -0.0442461 -0.0121683 -0.0459535 0.0414549 0.104171 0.0107533 0.0242685 -0.0519615 -0.0472244 -0.0865159 -0.0154059 0.0226812 -0.0158834 0.0787688 -0.0447462 0.00066354 -0.0626264 0.0894823 0.0363259 -0.0415161 0.0370759 0.0269421 -0.047366 0.0253471 -0.0218894 -0.0469186 -0.0719564 0.0135805 0.0500028 0.075395 -0.0273014 0.0340927 -0.067129 0.00844836 -0.0550953 0.0669501 -0.00356519 -0.0218307 0.0236652 0.126438 0.0540065 -0.0403851 0.0230533 0.0574314 0.00999554 -0.0191963 -0.03384 -0.0682747 -0.0233295 -0.0771459 -0.0159512 0.0227685 0.177851 -0.0643454 -0.133169 0.0606463 -0.0938157 0.0187045 0.04687 -0.00911995 -0.0981654 -0.0222079 0.0554418 0.0170595 -0.0163641 0.0169567 -0.102108 0.03865 -0.0985214 0.179055 -0.0134186 0.137997 -0.0508877 0.0447905 0.0798797 -0.0364292 0.0204435 0.0100183 -0.0635196 0.0498809 0.0274566 0.034617 0.0591021 -0.0699365 -0.0603736 -0.0945435 0.0346796 0.0285125 -0.0896491 0.0952728 0.00668917 0.0507401 -0.0259413 -0.0163972 0.0827952 -0.0473869 0.0217796 0.0267659 0.0180567 -0.0302941 -0.0980599 -0.0525235 -0.0225019 0.0742846 -0.0115746 -0.0115215 0.0638787 0.00266079 0.0369469 -0.0373841 0.0716288 -0.0976196 0.0233989 -0.0662091 -0.0686349 -0.064669 -0.107356 0.0229151 0.0501727 -0.062057 -0.0512397 -0.115021 0.0543051 0.0266691 0.12507 0.0271421 0.0387522 0.0955015 -0.101681 0.0229268 0.0504913 0.0255906 0.0607992 -0.010984 0.0620263 0.0302211 0.0837448 -0.0161706 0.0341916 0.0917742 0.031589 0.0435897 0.00630228 0.0316321 -0.0231784 -0.0851397 -0.0100801 0.0197914 -0.0485244 -0.0639777 -0.0356449 -0.0288151 -0.0407494 -0.0850892 -0.014958 0.0146729 -0.0576599 0.0246566 -0.0424624 -0.067225 -0.0126467 0.0297089 0.0134232 -0.0138801 -0.0304729 -0.030519 -0.00393312 0.0795416 0.0205853 0.0182187 0.0217545 0.114509 -0.0435191 -0.0162655 -0.0087767 0.00429466 -0.0245396 -0.0337281 0.0870018 0.0584075 -0.02032 0.0579206 -0.071726 0.0293465 -0.0145519 -0.00164101 0.0375373 0.0326218 0.108585 -0.108657 -0.0694225 -0.0130732 0.0461476 0.00230219
fr -0.0164407 -0.0181625 0.0143716 -0.00778808 -0.0723939 0.024559 -0.041986 0.0646931 0.020505 0.0608855 0.0274784 -0.126153 0.052188 0.0814671 0.0290064 -0.0292139 0.0333304 -0.0415731 0.0115668 0.00515092 0.0406772 0.00918578 0.00180066 -0.0918772 -0.0607474 -0.0325645 0.070276 0.0289592 0.0422857 0.0705579 -0.0863027 -0.020756 -0.140504 0.0157794 0.0787436 -0.00165413 0.020658 -0.0156358 0.0425286 0.0108021 -0.0175264 0.0115765 -0.0152584 0.0384431 -0.0204767 0.0148112 0.0311821 0.00792259 -0.0240522 -0.0312444 -0.0388418 -0.0674966 -0.000668447 0.0161064 0.00344682 0.0129797 0.0154688 0.0677563 -0.0271168 0.0414174 -0.0148852 -0.0256495 0.0951939 -0.161943 0.0591225 -0.0480172 -0.0364936 -0.0752343 -0.107285 -0.0542419 0.0203154 0.0711189 -0.00358855 -0.0413094 -0.00160247 -0.0912381 0.109924 0.0343765 0.0236314 0.0779622 0.0270365 0.0980153 -0.0302858 0.0619312 0.0186705 -0.108591 -0.0819068 0.047957 -0.100822 -0.0336886 -0.00968177 -0.0187012 0.0969431 -0.0578864 0.0193802 0.039508 -0.0112317 0.0719558 -0.0698963 -0.0793748 -0.0324683 -0.0852569 0.112865 -0.0509426 -0.0894115 0.122908 -0.0639579 0.0519468 -0.0515127 -0.0669308 -0.066951 -0.0463642 -0.0612187 -0.0228987 0.065783 -0.0656852 0.0196549 0.0204581 -0.000448766 -0.0609328 0.0980115 0.041161 -0.0424376 0.162169 0.0320264 -0.00660119 0.070966 0.032914 0.0236436 0.0702854 0.0920632 0.0613787 -0.061639 0.0206986 -0.0149196 0.0068855 -0.0625921 -0.0938326 0.0342321 0.0305979 0.0435923 0.0441544 0.0622187 -0.0814219 0.0741341 0.0245118 -0.0873609 -0.0278191 -0.0499884 -0.026979 -0.0444932 -0.0286101 0.0148989 -0.0293737 -0.0757431 0.0144821 0.0209386 -0.00883901 0.0204704 -0.0333401 -0.0763135 0.0615872 0.0120569 -0.00337549 0.176579 -0.0496204 0.0349609 -0.0211921 0.0106572 -0.0576664 -0.0813084 -0.0299897 -0.00229416 0.0364747 -0.0436896 0.0551347 0.0259039 -0.0207622 -0.0492265 -0.0362474 -0.0657005 -0.0563954 0.0257125 0.0536225 -0.0491183 0.0395584 -0.0304164 -0.0484689 0.0149894 -0.022039 -0.126236 -0.117321 0.0306185 -0.0211745 -0.0397793 -0.000210332 -0.0026616 -0.127124 -0.0352571 -0.0207342 -0.03772 -0.011945 0.00545183 -0.0434133 0.0015384 0.0321535 -0.107504 -0.00518855 0.076297 -0.0490073 0.0933409 -0.0259804 0.0269942 0.0162622 -0.0378626 -0.0151021 -0.0382939 -0.0909256 0.0445398 -0.0639447 0.00536 0.0233111 -0.0590163 0.0296861 -0.0808204 0.0510961 -0.0106184 -0.0572995 -0.027423 -0.0160818 0.0561414 0.075449 -0.161333 -0.0530977 -0.0295993 0.0611485 0.0890812 -0.00249728 -0.00397306 -0.0490913 0.0277158 0.077357 0.0096216 0.025075 -0.0605482 0.120954 0.0851392 -0.0245211 -0.0210502 0.00363767 0.063822 -0.0175674 -0.0710178 0.062378 -0.0167924 0.0206756 -0.138486 0.011594 0.0213385 0.0578451 -0.0655121 0.0304128 0.0832316 0.0567514 0.0336706 -0.0725276 -0.0481929 -0.0438952 0.0384413 -0.0186122 -0.113361 0.0761585 -0.0649677 0.0263075 0.0280144 -0.0503665 0.0207947 0.12801 -0.0156676 0.0656202 0.0232775 -0.0603342 0.0125717 0.0843138 0.0918965 0.010811 -0.0390833 0.0355724 -0.0994126 0.0251094 0.0151377 0.00956649 -0.00186757 -0.0337833 -0.0584433 -0.117629 -0.0452623 0.00567236 0.116553 -0.061849
auf -0.0187165 0.0167076 0.0222189 0.0124992 0.0219332 0.0166284 0.0212705 -0.012944 0.0930038 0.000519045 0.0213051 0.00325761 0.0813099 0.0992115 0.01562 0.0537108 -0.0784859 -0.0221544 0.0613126 0.115528 -0.0461809 -0.0445912 -0.0980057 -0.024713 -0.0973924 0.00165806 -0.0122616 -0.0158532 -0.0345782 -0.0208042 -0.0297424 0.1058 -0.0791457 -0.0197679 -0.0736588 0.0290086 -0.0491447 -0.04286 0.0897539 -0.0438142 0.0350916 -0.0412352 0.0331559 0.030553 -0.0509964 0.000360549 0.0237134 0.0195989 0.0480404 -0.0693437 0.0893101 -0.0972329 0.00501179 -0.00732281 0.0251884 0.0683704 -0.045913 0.0112672 -0.0516275 0.0546833 0.0775393 -0.0917477 0.0700466 -0.0632573 -0.0491363 -0.0621754 0.0169149 0.0545057 0.00688588 0.00353877 0.0136879 0.000667172 0.0236786 -0.0300948 -0.065487 0.0741966 0.112292 0.0245884 -0.043374 -0.0787998 -0.0206538 -0.0160726 -0.0205591 -0.0651287 0.0514697 -0.00655989 -0.0843156 0.0469159 0.0452389 -0.111023 0.0784024 0.0520422 0.103391 -0.0952901 -0.0196016 -0.0377084 0.00593951 0.00273356 0.0634026 -0.0548236 -0.00920095 -0.0600245 0.0320732 -0.0132603 -0.0421302 -0.0203131 -0.0880419 0.100934 0.03438 0.0693464 0.0543844 -0.10477 -0.0124391 -0.12591 -0.0177737 0.0206066 0.0291918 0.0474474 0.0146436 -0.0295602 0.141745 0.0176851 0.0391603 0.0849793 0.049085 0.0413226 0.115179 0.0106025 -0.0261944 -0.0103069 0.0591424 -0.0161569 -0.000883586 0.151171 -0.0445796 0.0489203 0.0490034 -0.00802229 -0.00886262 -0.0549121 -0.0326134 0.140409 -0.0754517 -0.00767195 -0.0509365 0.0223755 0.0389052 0.00384884 -0.0326645 0.0764905 0.0271418 -0.0866171 -0.053005 0.0469983 -0.0564463 -0.0371267 0.00106056 0.0492061 0.0558159 -0.0712337 -0.0291062 0.131098 -0.0158959 0.0237794 0.070877 -0.0156832 0.0174311 -0.0470657 0.109119 -0.038156 -0.102579 0.0623019 -0.118857 -0.00623292 -0.0625019 0.0646591 0.0154965 0.0903003 -0.113967 -0.121481 0.00595458 -0.0778652 -0.0175077 -0.00121371 0.0164738 0.0818134 0.0954973 -0.0421595 0.0459389 -0.0469772 -0.0335018 -0.0427499 0.0699939 0.0231278 -0.0445033 -0.0258469 -0.00270532 0.0628403 -0.161337 -0.100985 0.000445285 0.0513957 -0.0109005 -0.0190477 -0.0226473 -0.0233084 -0.0214438 0.0616626 0.0631245 0.0795843 0.091777 -0.0836027 0.0136742 0.0201717 0.0661425 0.00162686 0.0036991 -0.0570995 -0.0259845 -0.016548 0.0277856 0.0457534 -0.0177776 0.0299217 -0.0818939 -0.00679159 -0.0400836 0.0176555 -0.0720992 -0.0585204 0.0427596 0.0312726 -0.0489168 0.0157862 0.0401941 0.0796704 -0.0366471 -0.0340604 0.0298404 0.066935 0.00416554 0.00311172 0.096704 0.0811486 0.00665918 0.0662274 -0.0680195 -0.0588556 0.0789326 0.105494 0.0428363 -0.0332994 -0.0193072 -0.00916895 -0.0822771 0.0797838 -0.111902 -0.0936356 -0.0210398 -0.013246 0.0542959 0.0709931 -0.0294099 0.0406301 -0.0215626 -0.110041 0.0117681 0.0114452 -0.0986698 0.0112662 -0.0234258 0.0130186 0.04397 0.0562897 -0.0669996 0.00661037 -0.0549757 0.110362 0.117899 0.0101022 0.00605657 0.0179477 0.0169834 -0.00212822 0.0539427 -0.0952515 -0.0334726 -0.0197584 0.0425371 -0.0361728 0.0729595 -0.0338339 -0.102428 0.022396 0.076717 -0.0257071 0.0137644 0.0531744 -0.0415827 0.021696
ein 0.0238674 0.0602862 0.0313245 0.0629496 -0.0266783 0.0215823 -0.0112998 -0.0239851 0.0288442 0.0251538 -0.0591109 -0.0732469 0.0209868 -0.0420884 -0.0115831 -0.0110988 0.0191435 -0.00665113 -0.00938174 -0.0400866 0.0461276 0.0332468 -0.112387 -0.00281 -0.0651999 0.00165341 -0.0595121 -0.0488085 0.0196093 0.0282006 -0.0472753 0.106474 -0.104939 0.00669994 0.0125258 0.00165491 -0.111714 -0.0558235 0.0156157 -0.00118682 -0.00246339 0.0700574 -0.13806 -0.0150557 -0.0862849 -0.00450047 0.0973122 0.12174 0.0360203 -0.0341801 0.047604 0.0243547 -0.0261592 0.0231495 0.0234731 0.041765 -0.0372622 -0.0647144 0.0652362 0.0917383 -0.0405967 -0.0555881 0.0846398 -0.0420465 -0.0483849 -0.0730962 -0.0123645 -0.0475845 0.00704567 0.035065 -0.0542577 0.00291924 0.0637244 0.00768367 0.0334631 0.0069852 0.0968012 0.0179698 0.0511412 0.0719265 0.01167 -0.00453975 0.0312421 -0.191599 -0.00372007 -0.00509887 -0.0892028 0.0317937 0.000473226 -0.112973 0.0420178 -0.012314 0.0388239 -0.0353651 0.0160455 0.0602858 0.0224536 0.0933108 -0.0398557 0.0252017 -0.115893 0.0240903 0.00769731 0.0852814 0.0897984 0.0581744 -0.105395 -0.0188044 -0.017468 -0.0676419 -0.00294827 -0.00864576 -0.0484546 -0.015112 0.0577575 -0.0189303 0.0975036 -0.01631 -0.0123372 0.0472823 0.0701382 0.0257335 0.0752952 0.142696 0.0694447 -0.0178129 0.0446025 0.0344941 0.0323244 0.111958 -0.0162227 0.018905 -0.00790674 0.002186 0.00956866 -0.0315136 -0.00691761 -0.0167738 -0.0223463 0.0686527 -0.10682 -0.0232177 -0.0092318 0.00141002 -0.0146421 0.0800852 -0.155384 0.010814 -0.0313712 0.065449 -0.0127851 0.0184954 -0.0640865 -0.0301089 -0.0998335 -0.0478449 0.0997322 -0.057165 0.0496968 -0.00409405 -0.0633991 0.0297469 -0.0539584 0.0464283 0.0793993 -0.0727483 0.0179343 0.0167899 0.0418199 0.0110618 -0.0603132 0.0154533 -0.0907298 -0.0866659 -0.121722 0.0399423 -0.00940249 0.0471505 -0.0317367 -0.0221056 0.0195195 -0.00604831 0.0278222 0.116535 -0.0218 0.0915459 0.0593038 0.0154356 0.047841 0.0722844 -0.0758655 -0.0830865 0.117901 0.0863509 0.0432384 -0.0897383 0.0224464 0.0904001 -0.108711 0.034438 -0.089402 -0.0102202 0.0265821 0.0400962 -5.61225e-06 -0.0736626 -0.0413266 -0.059688 0.0365299 -0.0127362 0.198619 -0.0763139 -0.00805874 0.028832 -0.0128156 0.00681017 0.0385548 -0.0940975 -0.115637 -0.0516242 -0.0149763 -0.0539368 0.00860842 0.0637717 0.0183898 -0.0574383 0.0425785 -0.0219023 -0.0428879 0.0699345 0.0664352 -0.0219323 0.0385165 0.0278005 -0.0228118 0.0363581 0.0230482 -0.0482107 -0.0530663 -0.0455983 -0.0758418 -0.056335 -0.0026534 -0.0626138 0.0224494 0.0732487 0.0849449 0.00318588 8.64894e-05 -0.0330102 0.0222117 -0.0198156 -0.101851 -0.0596274 -0.0112141 0.0607146 -0.0208372 0.0108223 0.0326733 0.0380437 -0.0739456 0.106735 -0.00888826 0.0657092 -0.0334101 0.0139969 -0.00343958 -0.0231045 -0.0438289 -0.109958 -0.0475166 0.00114132 -0.104441 -0.0140197 -0.0352646 -0.105173 0.114983 -0.0371136 0.101486 -0.0479359 0.0530642 0.0446946 -0.0386138 -0.0200207 0.0482178 -0.0633076 -0.0150399 0.0550047 -0.0840612 -0.033029 0.0415819 0.0400969 -0.0787398 -0.0331949 -0.0380692 -0.0790402 -0.00166005 -0.0333517 0.0332184 0.0497307
als 0.00774744 -0.0106944 -0.0162702 0.0390461 0.00492463 0.0644386 0.0311636 -0.0667824 0.00636616 0.0927399 0.0340027 -0.0388214 0.0360437 -0.0398047 0.0273006 -0.0633156 0.0347527 -0.0829872 -0.0206377 0.0402024 -0.0483101 0.00784539 -0.0120122 -0.0671781 -0.0470529 -0.0480308 0.0411659 -0.0499046 -0.0126473 0.0116216 -0.0415448 -0.0272523 -0.0815756 0.115949 0.00944912 -0.0365803 -0.0646972 -0.116345 0.00963691 -0.0798483 -0.051583 0.0877521 -0.0359864 0.0650746 0.00827019 -0.0654054 0.0307409 0.0748548 0.0144867 0.00883546 0.0237637 0.0464623 0.0589755 -0.0173877 -0.120359 0.0129283 0.0879901 -0.0355849 0.0137157 0.0860857 -0.0671283 -0.14395 -0.0370169 -0.0866868 0.0187194 0.010428 -0.0559226 -0.0510769 -0.0475325 0.0396072 -0.109418 -0.0219934 0.0399108 -0.0444977 -0.0239124 0.0188502 0.0442413 0.0791761 0.0415356 -0.0660604 0.0770095 0.0300066 -0.050112 -0.108888 -0.0360043 -0.0682142 -0.0803477 0.0215684 -0.16371 -0.0319088 0.073062 -0.100294 0.0822127 -0.0263986 0.00764582 0.0237948 -0.0721519 0.106226 -0.0989248 0.0348713 -0.0682318 -0.125172 0.112846 -0.0103389 -0.0266757 0.00865301 -0.0675043 0.0221002 -0.0112013 -0.0344448 -0.0161674 -0.0727544 -0.0993984 -0.0451543 0.0794586 0.0115364 0.0831359 0.0271118 -0.0126175 -0.0326257 0.0497199 0.0801366 -0.0352237 0.214151 -0.0708605 -0.036923 0.118925 0.00983706 0.0252588 0.0116428 0.0138906 -0.00449633 0.0693994 0.0649497 -0.0321327 0.0628837 0.0713323 -0.0719536 0.0433808 0.0825918 -0.0921362 -0.0388814 0.0335004 0.021458 0.0599638 0.109279 -0.0751805 -0.00815236 0.0270681 -0.0558098 0.0247781 -0.0877724 -0.0035119 0.0331225 -0.0920069 0.0165485 -0.0175796 -0.0125136 0.111679 0.0192135 0.0114062 0.0359279 -0.00236429 0.0286603 0.0663238 -0.0231046 0.0425668 -0.0503158 0.0223368 0.00317088 -0.0581139 -0.0233666 -0.0953895 -0.0523212 -0.0419789 -0.0254582 -0.00442781 0.0549169 -0.0376248 -0.0181482 -0.0306502 0.000455615 -0.00551468 0.0730353 -0.0753204 0.0669515 -0.00900744 -0.0135179 0.0862171 -0.0650204 -0.0533593 -0.0793973 0.0410155 0.0474215 0.0155807 -0.00557538 -0.0418381 0.0376892 0.0088418 -0.0347335 -0.0255857 0.0187476 -0.0181013 0.0476883 0.0986653 0.0232885 -0.0373436 0.0977391 0.0645152 0.0378395 0.112157 0.0229149 -0.0367355 0.0827775 0.00775246 -0.0803918 0.0194857 -0.0899955 -0.0335979 0.0245485 -0.0295059 -0.0104458 -0.0771456 -0.00858085 -0.025737 -0.0477844 0.0202992 0.00309155 0.0313541 -0.035817 0.0965615 -0.048011 -0.0346275 -0.0581566 -0.0476916 0.0606239 0.08036 0.0302094 0.00318015 0.0096274 0.0100584 0.0282404 -0.0621048 0.0739801 0.00522143 0.0564719 0.0306669 -0.0587679 0.00903957 -0.0152274 -0.020992 -0.0336289 -0.0650102 0.0414534 -0.0564825 -0.0241308 -0.0765597 -0.0368201 0.0178971 0.0335712 -0.0805689 0.0247642 0.0209797 -0.00163296 -0.0332249 -0.104208 -0.0532545 0.0711093 0.0331317 -0.103922 -0.106688 0.080098 0.0168679 0.0616923 -0.0304977 -0.0819419 0.132506 -0.0784727 0.0213653 0.0693822 0.0539067 0.039778 0.000811621 0.105158 0.0796645 -0.00759548 -0.0450985 0.103955 -0.0256171 0.00188693 -0.0751295 0.0585843 0.00683801 0.0590243 -0.0954342 -0.0501007 -0.016743 0.0284662 -0.0284472 0.0270426
dem -0.0124774 0.0895754 -0.0476742 -0.0101379 -0.0385937 -0.00712604 -0.012499 -0.127124 0.0940635 0.0332857 0.0970566 0.0107227 0.0114594 -0.0344668 -0.0656784 -0.0392996 0.014746 -0.0310252 -0.00902959 0.0766222 0.00343696 0.0338675 -0.132647 -0.0680273 -0.0796126 -0.0594426 -0.0265006 -0.0207535 -0.0250316 0.000946957 -0.0177052 0.0646039 -0.0946615 0.0147664 0.0853508 -0.0670964 0.0107613 -0.0292114 0.0794258 -0.0690963 0.013215 0.0539491 -0.0383019 -0.0911221 0.0637154 0.00146541 -0.048408 0.0322489 0.0557719 -0.0365003 0.101879 0.0329571 -0.0515599 0.0714283 -0.0452054 0.065741 -0.0515043 -0.0036339 -0.0419419 0.0689333 0.0820926 -0.0484074 0.136193 -0.029953 0.00188375 -0.13731 -0.0334907 0.0067249 -0.0267384 -0.0130161 -0.0155239 -0.0316651 0.0592755 -0.0203687 -0.00213467 -0.0581909 0.0573325 0.04942 0.0313451 0.0580784 -0.040911 -0.00860048 0.0396261 -0.0280426 0.0743733 -0.072973 -0.0718699 0.0143454 -0.053453 -0.0308868 0.00610721 0.0497936 0.0887566 -0.0299504 0.064504 0.0603697 -0.0347681 -0.0253793 -0.00959853 -0.0277866 -0.162472 0.00515093 -0.00688 0.0449326 -0.105455 -0.0448742 -0.0520414 -0.00230307 0.0914218 0.0707301 0.0761864 -0.0545693 -0.0986781 -0.047526 0.0591344 -0.0196695 0.012523 0.01703 0.0451747 -0.0239612 0.12554 -0.00172473 -0.155469 0.126528 0.0471246 0.0275494 0.0682096 0.0523532 0.062744 0.0400942 -0.0487718 -0.0293483 -0.0327881 -0.0242888 -0.0473077 -0.00359313 0.087827 -0.00126152 -0.0183531 -0.0463228 0.0368541 0.0812662 0.0849769 0.0850098 -0.0387482 0.125303 -0.0235204 0.00250546 0.0436602 0.0543537 0.0322077 -0.00104557 -0.0880274 0.0893173 -0.05889 -0.034584 -0.0895877 -0.0180073 0.0114466 -0.0207825 0.02241 0.0408176 -0.0474103 0.0610307 0.0209733 -0.100713 -0.028072 0.0606756 0.128938 -0.00182407 -0.0960362 0.0218179 -0.0435553 0.0619623 0.037778 0.0927285 -0.0189227 0.085002 -0.0488075 -0.039034 -0.0150351 -0.0565183 -0.0491126 0.0414967 0.0362705 0.100677 0.10223 -0.0436574 0.062293 0.0586025 0.0168293 -0.088132 0.0830563 0.0294615 -0.00107329 -0.0550211 -0.055548 0.0225192 -0.0479725 -0.0397299 -0.0233554 -0.0481634 -0.0161242 0.051293 -0.0274268 -0.0499253 0.00752114 -0.027807 0.0296015 0.00131229 0.0985454 -0.0957121 0.0297226 0.0661758 -0.0173531 0.0251008 0.0415203 -0.105854 -0.0368882 -0.0126821 0.00416423 -0.0937754 -0.0524543 0.0868373 0.0358192 -0.0304554 -0.0874613 -0.00710707 -0.00682632 0.0108134 0.0696198 0.0425688 -0.0645542 -0.00147469 0.002509 0.0246303 0.0142468 -0.0324248 -0.039239 -0.0362858 -0.028347 0.0529885 0.0191303 -0.0303445 -0.0171766 0.0212571 0.0862741 -0.0173409 -0.0111594 0.0198532 0.0302869 0.0620093 0.0622418 -0.0439487 -0.12846 0.109117 -0.0452978 -0.0559103 -0.0698594 -0.0952143 -0.0424846 0.00291094 0.0814919 0.0359404 -0.0790621 -0.0367797 -0.086839 0.00153821 0.0157253 -0.0972905 -0.0732326 -0.114422 -0.0528908 0.000807297 -0.00329484 -0.0184644 0.128928 0.0820185 0.0763729 0.0247843 -0.0714956 0.010117 -0.0134138 0.0485763 0.0197466 -0.11189 0.000863152 0.0752052 0.020056 0.0204132 0.0222292 -0.0173594 -0.0328229 0.0197226 0.0957168 0.0141348 -0.0423815 0.014486 -0.047483 0.0628046
eine 0.0125605 0.0286255 0.0167632 0.0305923 -0.00948247 -0.0276336 -0.0466471 -0.00128672 -0.0102712 -0.094758 0.0484213 -0.00159994 0.0507008 0.0774622 0.000216085 -0.00341384 -0.0451837 -0.0123068 0.0541657 0.147426 0.0302836 -0.0767124 -0.0536815 -0.130369 -0.039106 0.0501429 0.0309503 0.0800289 0.0463037 -0.0330131 -0.0157045 0.0329997 -0.0652273 0.0318658 0.0753895 -0.00316832 -0.0602921 -0.0668036 -0.0349249 -0.0258659 0.0554704 -0.0282365 0.0178314 0.0217948 -0.0396722 0.0538888 0.118364 -0.0345437 -0.0776993 -0.0438851 -0.0308056 0.0247123 0.0817099 -0.0119309 -0.0521756 0.0471911 0.000382096 0.0194449 -0.0384833 0.0265505 -0.0459827 -0.14675 0.0363031 -0.0644416 0.00503182 -0.0985895 -0.0435328 0.0328769 0.0225667 -0.0196465 -0.0111448 0.0434354 0.010039 -0.05673 0.0254251 -0.00805529 0.0322885 0.0664403 0.0422742 -0.0225396 0.0886207 0.0307115 -0.0493649 0.0656357 0.0472502 0.103584 0.0857857 0.0658161 -0.0421888 0.0115825 0.00208827 -0.035901 0.122261 -0.107203 0.0154681 -0.0740791 0.0480394 0.117808 -0.00277294 -0.0242628 -0.0376809 0.00336608 0.0370935 -0.0570231 -0.00556507 -0.0603802 0.0111544 0.0707455 0.0428709 0.00218653 -0.0197456 -0.0110562 -0.0310964 0.0236621 -0.0408451 -0.0468127 0.00430677 0.0420268 -0.0060109 0.0721652 0.0956931 -0.0321506 -0.0160256 0.162195 0.00533433 -0.0170095 0.0209385 0.050709 0.0549199 0.0177475 0.0384315 0.0583182 0.0357843 -0.0124095 0.0291023 0.0504837 -0.0312895 -0.0142376 0.0935529 0.00373344 0.0396847 0.0224173 0.00441835 0.0208618 0.120409 0.0904451 0.0550672 0.0595595 0.035665 0.0480781 0.00805836 -0.0865661 -0.0204798 -0.0343266 -0.0861783 0.0162894 0.0882989 0.0432567 0.0438575 -0.0311889 -0.0689997 0.108693 -0.0757906 -0.04517 0.143205 0.0212402 0.0868986 -0.0531576 0.0261864 -0.11087 -0.0170913 -0.00610528 -0.0627072 -0.016002 -0.0344901 0.00240182 0.0693557 0.0488506 -0.0676788 -0.0836604 0.0384471 0.0542802 -0.0505049 0.0680367 -0.0577381 -0.0226543 -0.00859846 -0.0857234 -0.0475363 -0.0470883 -0.0270324 -0.124931 0.119149 0.0958423 -0.034229 0.0134789 0.100067 -0.0307657 -0.0239032 -0.0459511 0.121295 -0.0167128 -0.0610957 0.088524 -0.0668571 -0.0765715 -0.0865595 0.0271793 -0.0375446 0.0673523 0.014725 0.016232 0.0707801 0.0577889 0.0626478 -0.151353 -0.0860101 -0.105371 -0.0736358 -0.0414448 -0.052549 -0.038587 -0.0188298 0.0666571 -0.0012957 -0.0539038 -0.0556482 0.0713771 0.0123745 -0.000541664 0.0409013 -0.0504332 -0.0314002 -0.0261132 -0.0610899 0.0256115 0.0198328 0.0154541 -0.0401291 0.0471849 -0.0528673 -0.016435 0.0774638 0.000797351 0.012783 0.0156548 0.0291235 -0.00950743 -0.00230452 -0.0176531 0.0381951 0.0240831 -0.0869365 -0.0284461 -0.0167511 0.132293 0.00660933 -0.0278097 0.153824 0.012005 0.0445562 -0.0173885 0.107959 -0.0291324 -0.0362796 0.00240207 0.0220984 0.0191097 0.00982726 -0.0625966 -0.106856 0.0194246 0.0179345 0.0990922 -0.0929127 0.0031812 -0.0347282 0.0462612 0.0773209 -0.0189532 0.00692038 0.0557994 -0.0167798 -0.0640485 0.0800508 0.0604709 -0.00363573 -0.00689353 0.00374007 0.08165 0.0165397 -0.123781 0.0453238 0.0379804 -0.101086 -0.112678 0.0052882 0.118596 0.0379901 0.0197458
wurde -0.0225557 -0.0454096 -0.0643703 0.113618 -0.0115895 0.0335214 -0.027973 -0.0491799 -0.0139887 0.113159 0.0436506 0.0136052 -0.0242844 0.0215645 -0.000218023 -0.04875 -0.0110796 -0.0926839 -0.10299 0.0791718 -0.0862714 0.0377056 -0.0883727 -0.105553 -0.0783111 -0.0639756 -0.00473975 0.0199734 0.0874773 -0.0538712 -0.0975895 0.0713469 -0.0272115 0.042041 0.0367034 -0.0345447 -0.0253301 -0.0157655 0.168054 -0.0778515 0.00705008 -0.0207744 -0.0459624 0.0191006 -0.0304915 -0.0222249 0.00190245 0.0304317 -0.0132718 0.0629919 0.0399644 -0.0562701 -0.0997959 0.012884 -0.0103449 -0.0369473 -0.010036 0.0629549 0.0118714 0.119524 0.0597231 -0.0182938 -0.00987718 -0.0275269 0.059692 0.0658796 -0.0288408 -0.0152484 -0.0744098 -0.0186239 -0.0340621 0.0315365 0.0221157 -0.0804402 0.00104253 0.0318941 -0.0425565 0.105955 0.00267263 -0.114333 0.0602855 0.0143958 0.0184737 0.00804642 0.0314936 -0.0701369 -0.0643747 0.0294698 -0.100017 -0.0143232 -0.0247568 -0.077984 0.0253019 -0.0604933 0.0266873 0.0584862 -0.0890415 0.0244975 -0.0411835 -0.0430235 -0.0911786 0.0172087 0.00588708 -0.00542479 -0.0442707 0.00188148 -0.0882382 0.116987 -0.0326545 -0.0469948 0.0238295 0.0727445 -0.0216007 0.022066 0.0398769 -0.00510033 0.0301561 0.188823 -0.0446528 0.038061 0.023029 0.079178 -0.097964 0.171168 0.0613933 -0.0116462 0.073533 0.0595358 0.0650397 0.0776772 -0.0459869 0.063135 0.0604678 0.00519052 -0.0233935 0.0260926 -0.0169211 -0.0231359 -0.117617 0.0567637 -0.0368933 -0.0425372 -0.0385448 0.0687579 0.019025 0.0920115 0.0393419 -0.00305657 -0.00210318 0.0635815 0.0280956 0.000568238 -0.00338963 0.0549446 -0.0629787 0.0500603 -0.0825368 -0.0400638 0.0915169 -0.00924951 -0.0392039 0.0166635 -0.090665 0.0416526 0.0816787 -0.0164722 0.0969248 0.0490764 0.099159 -0.00547535 -0.0417857 0.0977115 -0.0379293 0.0500722 -0.0297299 -0.08856 -0.017899 -0.0326437 -0.0856641 -0.0377791 -0.0187531 0.00263103 -0.0940245 0.0575914 -0.0489788 0.0464357 -0.00110222 0.00062983 0.0337354 0.0105634 -0.0045908 -0.0987535 0.0159977 0.0121711 -0.0684567 -0.0294007 -0.0420147 0.018569 -0.0332885 -0.0700886 -0.041452 -0.0414988 -0.0541803 0.0581225 -0.0354165 -0.0181137 0.00853446 0.104314 0.134678 0.114716 0.109518 -0.0749016 -0.068837 0.0587589 -0.0236126 0.0133978 0.039688 -0.0880315 -0.13363 0.0411528 0.0844494 -0.0106355 -0.097754 -0.0221945 0.0246725 -0.00328118 0.0236149 -0.0138461 0.000611478 -0.0320281 0.0350555 -0.00571274 -0.0764974 0.00959563 -0.0587934 -0.0786418 0.0599306 0.01779 -0.0128286 0.0301702 -0.0193737 0.0150777 0.028793 0.0335554 -0.0168699 -0.0634171 0.0498101 -0.0618758 0.111419 -0.0146437 0.0128208 0.0795531 0.00948301 -0.0359767 -0.066124 0.00886972 -0.043357 -0.00648842 -0.0343106 0.0568428 0.041257 -0.00934838 0.00753556 -0.0421894 -0.0532992 0.0662569 0.00065354 -0.0449721 0.034677 -0.0656008 -0.112312 0.0111817 -0.0203688 0.0276554 -0.0355432 -0.0736292 0.0954731 0.103236 0.0772791 -0.0806944 -0.0593979 -0.0844499 -0.0966541 0.00143107 0.030532 0.0143328 0.0457969 0.0714151 -0.0224233 -0.00594095 -0.00224582 -0.120436 -0.0467072 0.0593306 -0.0865429 0.0138537 0.00491374 0.050026 0.0169297 -0.013945
 -0.0648386 0.00772708 -0.019353 -0.103159 -0.0847177 0.0411438 -0.0253766 0.0148437 0.0425374 0.160836 0.0702143 0.0353785 0.00876372 0.0575594 0.0317611 -0.0478292 -0.0273682 0.0172001 -0.107891 0.050711 0.0187815 0.11363 -0.0934803 -0.0317353 -0.0577036 0.0228791 0.0636727 -0.195766 0.0769828 -0.0588923 -0.124881 0.133058 0.0424644 0.03113 0.0781543 0.0554404 0.0225811 -0.151765 0.043865 -0.0610985 0.0212345 0.016723 -0.0504662 0.0239645 0.0013219 -0.0235141 -0.0655191 -0.0747818 0.0449129 0.0643934 -0.00659647 -0.0713354 -0.075415 -0.0244017 0.000659494 -0.102679 0.00802862 0.0109984 -0.0341966 0.0704192 0.0462239 -0.0670211 0.000238927 -0.0131952 -0.0874941 -0.0080395 0.0412628 0.0112094 -0.106594 -0.0104372 -0.0268654 -0.00304299 0.00577875 0.00445904 0.0237545 -0.101 0.0960582 0.0681972 -0.020311 0.129395 -0.0283641 0.0410827 -0.0503752 0.0123812 -0.0103961 -0.0060611 -0.0226408 -0.0424819 0.0015797 -0.0702322 -0.00672894 -0.0475589 0.0325329 -0.0305959 0.00306129 -0.0508952 -0.0251328 -0.0604838 0.0555696 0.0207003 0.0903348 0.0361829 -0.0148482 -0.0605246 0.0409576 -0.0399958 -0.0263332 -0.02067 0.0638273 -0.0788406 0.0397637 0.0885197 -0.0929207 -0.129192 0.025151 0.0222181 0.0118981 0.0806808 -0.0968426 0.0792084 0.165019 0.064599 0.00848368 0.0144939 -0.0583301 -0.0211984 0.00855657 0.0612576 -0.0426892 -0.0546096 -0.0172 -0.0295396 -0.00586267 -0.00337887 0.0132667 0.00240722 -0.047635 -0.0468552 0.0100443 0.0608956 -0.0326608 0.0276256 0.113921 0.0635092 -0.0478491 0.141436 -0.0309452 -0.0327765 -0.0290968 0.0415045 -0.0326107 -0.0184676 -0.042329 -0.0226405 -0.0605038 0.000856153 -0.0104493 -0.0143549 0.00261678 0.0983278 0.0241792 0.0225042 -0.0857001 0.0241423 0.030389 -0.0942259 0.0393004 0.050328 0.0680038 -0.00178358 -0.0654402 0.0128814 -0.0539927 -0.00489542 0.0278458 0.0984283 0.0156354 0.00357565 -0.0120519 -0.0449275 0.0085809 -0.0584956 0.0101121 0.0348891 -0.0141784 0.160672 -0.0321153 -0.0248463 0.0475262 -0.03598 -0.000755825 -0.102863 0.0315608 0.0131054 -0.0151703 -0.0729005 0.0375196 0.0328013 -0.0573995 -0.0216407 -0.0166429 -0.0894578 -0.0530559 -0.0129078 -0.017501 0.0666663 -0.0532254 0.0466784 0.11547 -0.00651823 0.212562 -0.00403132 0.0522149 -0.0713641 -0.0777502 -0.0647424 -0.0505346 -0.0160772 -0.138364 -0.0947003 0.00952953 0.0718748 -0.0562763 0.0300328 0.00526029 -0.00806275 0.0181322 0.00151884 0.0413883 0.0259042 -0.0261548 0.0518257 -0.0339443 -0.0715557 -0.0789274 0.0227945 0.033522 0.0317377 -0.0269778 -0.0871398 0.00897408 0.0866103 0.0355921 -0.0320139 0.0540221 -0.0467135 -0.0551108 -0.0324473 0.0852396 -0.0326704 -0.0214341 -0.0712374 -0.0295093 0.103051 0.0535416 -0.00349423 -0.00937608 0.0945232 -0.0497828 0.0304563 -0.0164726 0.0398317 0.0647568 -0.026827 0.0202167 0.0160369 0.0336521 -0.0360479 0.0594631 0.0152714 -0.0478161 0.0303241 0.037883 0.0153479 -0.0381029 -0.0201591 0.0555329 0.0835005 0.0362417 0.0109927 0.022201 -0.0225138 0.0319526 0.140897 0.0318023 0.065227 0.0771055 0.0243301 0.00174667 0.0480987 -0.0203519 -0.00771612 0.0629331 0.0445692 -0.0517973 -0.0491681 0.0138943 -0.0173759 0.0350546 0.0276979
auch -0.0729274 0.05749 -0.0568932 0.0608685 -0.023971 0.00189889 0.0714364 -0.0829246 0.0495418 0.0620145 -0.0257791 -0.00847478 0.06642 -0.00924395 0.0533575 -0.0712645 0.00302182 0.098438 0.0117683 -0.00885371 0.0232992 0.0359879 -0.0588364 -0.0553923 -0.0703046 -0.0106351 0.0300054 -0.0336341 -0.00539979 -3.99201e-05 -0.0264865 -0.004108 -0.065798 0.096865 0.0322175 -0.0238045 -0.0257667 -0.0203323 0.0266772 -0.0506287 0.0415336 0.0207704 -0.003977 -0.00845899 -0.0192277 -0.00266608 -0.0249371 0.0515745 0.0545106 -0.018899 -0.0135471 -0.0407748 0.0153397 0.015002 -0.102913 -0.0503857 0.0263339 0.00948209 -0.11497 0.0687998 -0.0211949 -0.0600805 0.0641839 -0.0378791 0.00142666 -0.0269779 -0.0269139 0.00477534 -0.0080408 -0.064728 -0.053048 -0.0124197 0.0106959 -0.0971057 -0.103855 0.0570151 0.0979965 0.12305 0.023147 0.0328206 0.0541649 0.0631907 -0.0620211 0.0501087 -0.0221746 -0.0431987 -0.0503314 0.0272179 -0.0700969 -0.0745639 0.0784703 -0.0109042 0.179809 -0.119499 -0.00382231 0.00234745 0.0716508 0.0684695 -0.0352522 -0.0157879 0.0217837 -0.0525039 0.0728607 -0.0613184 -0.0924944 -0.0498732 -0.0524959 0.0605203 0.00681265 -0.0226681 0.00595789 -0.0186328 -0.096735 -0.024595 -0.0384327 0.0308202 0.108467 0.0628516 -0.0244935 0.040895 0.0825453 0.0591958 -0.0470165 0.142956 0.000212476 -0.0179022 0.157921 -0.0616259 0.00930346 0.0725029 0.0215579 0.0764048 -0.0360301 0.0227265 0.0507473 0.0670998 -0.0453308 0.0794045 -0.020878 0.0844642 0.000112124 0.0354657 0.0591108 0.00170355 0.0773037 0.130187 -0.0428001 0.0358628 -0.0385461 -0.0162914 -0.0561118 -0.117491 0.020998 -0.0144467 -0.0337514 -0.0207424 -0.00542093 -0.0409553 0.121577 0.0552788 -0.0928921 0.116102 -0.0682911 0.0424576 0.095279 0.011818 -0.0441164 -0.0413609 0.0225198 0.0319153 -0.0433813 -0.016048 -0.114763 -0.0102041 -0.0886018 0.0104655 0.0875261 0.0508054 -0.0127599 -0.0139372 0.0267857 -0.0239291 0.0480323 0.0417987 -0.00357837 0.0849446 -0.0341648 -0.0153993 0.11311 -0.055201 0.0248697 -0.123563 0.0155694 0.0670977 -0.068464 -0.0448183 -0.0154789 0.0386757 -0.103492 -0.0418836 -0.00787646 0.017357 -0.00602575 0.0673122 0.0220873 -0.0172971 -0.0915812 0.0275244 0.0214896 0.0784888 0.11554 -0.0159418 0.0217906 0.021982 0.0767762 -0.00178954 0.0369245 -0.0844063 -0.069174 -0.000179215 -0.044487 -0.124589 -0.102574 -0.0442811 0.00597518 -0.0547667 -0.0680776 -0.031782 -0.0315795 0.0194274 0.0444569 0.0731677 -0.0273506 -0.00925025 -0.0709024 0.0863043 0.0663692 -0.0215349 -0.0162686 0.0966837 -0.0473099 0.0453893 0.0305414 0.0309454 -0.0211455 0.132967 0.102957 0.016301 -0.0435285 -0.00960432 0.0656927 -0.022044 -0.0309591 0.0163873 -0.0134194 0.0199924 -0.00258766 -0.0446255 -0.0333463 -0.0730756 0.0273177 0.0557952 0.0238647 -0.0511765 -0.0580303 -0.109408 -0.0950486 0.128898 -0.0205309 -0.0439627 -0.145949 -0.0743511 -0.0432085 0.0370301 0.00651842 -0.107625 0.021165 0.0345009 -0.00253636 -0.0145479 0.0746533 0.00768547 -0.0764817 0.0407693 0.061785 0.00052818 -0.0202397 0.0876973 -0.0539832 0.0558249 -0.0241601 0.0158693 0.0261625 0.0115473 -0.0552289 -0.0153216 -0.0432299 0.0602612 0.0235051 0.0600958
sich 0.0850537 -0.00366424 -0.00192014 0.105197 -0.0242876 0.0162959 -0.0518707 -0.0434696 -0.0434641 0.054864 0.0629991 -0.0487943 -0.0388314 0.0533243 0.0337623 -0.0803547 0.0702147 -0.0400542 0.0453022 0.055141 0.00286528 0.0695664 -0.115241 -0.0951343 -0.0453971 0.0194208 -0.019389 -0.0758802 -0.0297694 0.0598006 -0.125429 0.046179 -0.0677402 -0.0288785 -0.0317542 -0.10402 -0.0188781 -0.0150072 -0.0349585 -0.063591 0.13652 -0.0482679 0.0125043 0.00710411 -0.0266587 -0.0049267 -0.00472016 0.0332559 0.073573 -0.057595 -0.00321986 0.0390768 0.0243384 0.0428486 -0.0162398 0.0140439 -0.0176274 0.01532 0.00980779 -0.0157987 0.0323724 -0.151554 0.112196 -0.0284392 0.0207967 -0.0100781 -0.0989664 0.0194247 -0.0521821 -0.0426086 -0.0413077 0.0629761 0.0260186 0.0308147 0.0172822 0.0280673 0.0814222 0.0703028 0.049489 0.0338294 -0.0194497 -0.0612917 0.0729373 -0.0581926 0.0226815 0.00912729 0.0193794 -0.0138077 0.0524301 0.00766244 0.0354455 0.0656965 0.106332 -0.127317 -0.0814625 0.039338 0.0848074 -0.0279923 0.00031924 -0.0359674 0.0325916 -0.0595061 0.0707758 -0.0277884 -0.115161 0.00908797 -0.0680357 0.0338543 -0.0256861 -0.00495968 -0.015103 -0.0200911 0.0152071 -0.0506607 -0.0514757 -0.0147228 0.131337 0.0979662 -0.00722219 -0.0516964 -0.0163773 0.00662264 -0.0340169 0.134012 0.0019739 -0.047551 0.0940245 -0.00957054 0.036694 0.0364139 -0.0401811 0.0322645 -0.0756702 -0.0467646 -0.0329043 0.0121366 0.0969656 0.0614894 -0.0372627 -0.0490788 0.0415638 0.0316684 -0.0495643 0.0649389 -0.0805338 0.0926864 0.0363997 0.0716642 -0.0147746 0.0996511 0.115432 -0.0900009 -0.0344339 0.0448531 -0.0386151 -0.0525401 0.103128 -0.0470825 0.0601431 -0.0315946 -0.0199405 0.0743575 -0.0116602 0.0690784 0.100648 -0.00972827 -0.0565597 -0.0385579 0.0450149 0.00991609 0.0386402 -0.0307455 -0.170866 -0.0531783 0.00780083 0.0843758 0.03167 0.090034 -0.0641423 -0.0257757 -0.00221799 -0.0488034 0.046873 0.025217 0.0822954 0.0792686 0.0865109 -0.0142165 0.0588172 -0.0832568 0.00879199 -0.0557062 0.0711286 0.0984613 0.0193231 -0.0134209 -0.0421704 -0.022311 -0.110581 -0.0423448 -0.0238803 -0.0757734 0.0413399 0.0494685 -0.0249193 -0.0866896 -0.00847352 -0.0164094 -0.0780504 0.068371 0.0867646 0.0730144 0.0113716 0.0217292 0.0504342 -0.0661707 -0.0101575 -0.0156899 0.0488683 -0.0321712 -0.00925037 -0.035785 0.0641416 0.0998307 0.0299927 -0.0263758 -0.0215131 0.0592318 -0.0164126 0.0534361 0.0300704 -0.0300511 -0.0552018 0.0483303 -0.0212374 0.0719354 0.143068 0.0473863 0.0644681 -0.0521379 0.0540905 -0.0842618 0.0963891 0.0641164 0.0682819 -0.00834446 0.0158917 -0.0869379 -0.0354186 0.0551086 0.0881082 -0.0287614 -0.0672499 -0.0775176 -0.0830274 0.00176823 -0.0140846 -0.0230613 0.0590195 -0.0116426 0.00103743 0.0722536 0.0236257 -0.00994535 -0.0486369 -0.0622413 -0.00103386 0.0680066 0.00954031 -0.0863655 -0.0450535 -0.0821312 0.0169896 0.0827941 -0.0666164 -0.0244405 0.0743757 0.0915989 -0.0212509 -0.0776196 0.0403881 -0.052071 0.0281582 0.066454 0.0133892 0.0442622 -0.00241951 0.0704366 -0.073325 0.0670731 -0.0795305 0.0793746 -0.0419621 0.0640154 -0.0156798 0.012737 -0.00389527 0.0730739 0.0395356 0.0216362
nicht -0.108428 0.057797 -0.0779995 0.0540149 -0.0923576 -0.0253359 0.02069 -0.126923 -0.0142289 0.0732569 0.00370772 -0.0470138 -0.0343997 -0.0294746 0.0770365 -0.0937126 -0.0448467 0.0595598 0.0123275 0.0220839 0.0216591 0.0469878 -0.0582347 -0.0820179 -0.0451539 9.31295e-05 0.0180081 0.0226672 0.0367629 0.0575852 -0.108783 -0.0291891 -0.0610459 0.0496876 -0.0383869 -0.0902289 -0.0342294 0.0477473 -0.0775813 -0.0752713 0.0112769 -0.0810505 0.00324937 0.000735233 0.0310199 0.131956 0.0437237 0.0174251 0.0199638 0.0228566 0.00659005 -0.142823 0.0121158 -0.0248999 -0.0782359 -0.0241997 -0.0346869 0.0696127 -0.0583655 0.0419433 -0.0516848 -0.0296421 0.111737 -0.00112468 0.0325184 -0.0613321 -0.0361281 0.0331443 0.0626429 0.000681344 0.000676698 0.0973279 0.0356336 -0.119708 -0.0243328 0.0853537 0.0318644 0.142951 -0.0210385 -0.0486549 0.0051283 0.0358797 0.00977394 0.0101543 -0.0840291 0.0425387 -0.0566665 0.0712544 -0.00974553 -0.0405567 -0.0092065 0.0232925 0.119245 -0.1031 -0.0161958 0.026298 0.0690206 0.0445713 -0.054216 0.0949414 0.0235827 -0.0309548 0.0450921 -0.108199 -0.0292628 -0.0701664 -0.045283 -0.0571008 0.0377952 0.0160505 -0.0180009 -0.0372122 -0.0595588 -0.00366366 0.0659039 -0.00368941 0.117229 0.047148 0.0347843 0.018213 0.0501109 0.0567995 -0.0075247 0.169524 0.0226009 -0.0115785 0.0972982 -0.0284067 0.0376972 -0.0355881 -0.0517383 -0.00337874 -0.050207 0.0038367 -0.00914628 -0.0280423 0.0163587 -0.0123257 0.0608457 0.0217246 0.0485165 0.000616083 0.0763216 -0.0190841 -0.0788747 0.0164438 -0.0281721 -0.0319448 0.0177318 -0.042194 -0.0520967 -0.0269034 0.0429501 0.044919 -0.0445492 -0.00402797 -0.00891489 0.0411682 0.0910991 0.0843728 -0.0618558 0.0936843 -0.0473108 0.0845254 0.00011802 0.0214266 -0.0467408 -0.0698086 0.0930309 0.0849194 -0.0590088 -0.102964 -0.138409 0.038743 -0.058237 -0.0125001 -0.0563627 0.0193816 -0.00990045 -0.0256289 0.0069772 -0.116961 0.0112144 0.00401563 -0.0229157 0.0757641 -0.00797115 0.0549802 0.0380379 -0.0584066 0.0307997 -0.13561 -0.000718616 0.0424372 -0.0915535 -0.0514245 -0.00955829 -0.0140464 -0.0998079 -0.0373699 0.0617422 0.039084 0.0326704 -0.0035376 -0.0351306 -0.0415252 -0.0644044 0.0757273 0.080961 -0.00216297 0.0649795 -0.00423197 0.0403028 -0.0187599 0.0644804 -0.0768227 -0.0328822 -0.106782 -0.0500582 0.0371455 -0.0591095 -0.125987 -0.0415873 -0.0352255 -0.0402328 -0.010318 -0.0626949 0.0126557 -0.0738189 0.0257984 0.0790543 0.116598 -0.0296621 -0.0449185 -0.037744 0.0810516 0.0730584 0.0056626 -0.0131634 0.00686785 0.0125975 0.0677286 0.0508147 -0.0163259 -0.0272532 0.0708046 0.0991387 0.0110384 -0.0221506 0.0101232 -0.00914685 -0.0478397 -0.0667824 8.36365e-05 0.0290032 -0.00287508 0.0149113 -0.0798852 -0.0385397 -0.0223566 0.000692881 -0.037208 -0.0726399 -0.078568 -0.0592085 -0.0772622 -0.0501909 0.0390341 -0.0379211 -0.0492165 -0.146771 -0.0208656 0.116834 0.057792 -0.028041 -0.0571406 0.0341901 0.0476934 0.0259772 -0.0538141 0.0360331 0.000858076 -0.115175 -0.0244162 0.0262996 -0.0329714 0.0306199 0.149564 -0.0512077 0.0568105 0.0119811 0.121616 0.00773712 0.0182064 0.0239733 -0.0615381 -0.0171759 0.0485633 0.0259532 -0.0175013
