999 300
</s> -0.0654528 0.00981313 0.0243369 -0.0150199 -0.0167493 0.0144426 0.027496 -0.00674403 -0.0708728 0.0259888 -0.0152576 -0.0979972 -0.0170244 0.00536287 0.0475653 -0.104536 -0.00519744 0.072869 0.0717618 0.0422979 -0.0294883 0.0779048 0.00682455 -0.0788286 -0.080114 -0.0306672 -0.0741892 -0.0536111 0.00442357 0.0325036 -0.0390256 0.0476201 -0.0466356 0.0723071 -0.092867 -0.00308617 -0.00638612 -0.00713272 -0.0304334 -0.0701168 -0.0130594 -0.0196329 0.0112787 -0.0152779 -0.00798035 -0.0563744 0.0236978 -0.0321122 0.002407 -0.00414475 0.056817 -0.137493 -0.0146249 0.00701563 -0.0394898 0.00324893 0.0948892 -0.0528891 0.00503392 0.0712318 -0.0416627 0.0583252 0.0292361 -0.0136402 -0.0593339 -0.0271199 0.00207579 -0.000888434 0.0240772 0.0151929 0.0440713 -0.0434248 0.11919 0.0334916 -0.0846197 0.0976354 0.0839127 -0.00934691 0.0398503 0.0247156 -0.0579956 0.124155 -0.0295919 0.0275759 -0.00334907 -0.101418 0.0568107 0.0204591 -0.0120747 -0.0527216 -0.034257 -0.0459139 0.0187556 -0.101155 0.0580033 -0.0476594 -0.0138443 0.0941424 0.0538472 -0.0425076 0.0707711 0.0331362 0.0584443 -0.0929838 0.0248605 0.0688715 -0.079847 -0.0160148 0.0112406 0.000304537 0.0241656 -0.0398581 0.0141138 -0.0220024 0.0438934 -0.0370593 0.0323745 -0.0179746 0.0635589 0.12486 0.0597195 -0.077865 -0.00440976 0.120642 0.0208549 -0.0268539 -0.0416522 0.0816621 -0.125399 0.115033 0.0453809 -0.0579144 0.0137572 -0.00495158 0.0330964 0.025989 0.0142579 0.0402967 0.015513 0.0581064 0.0181405 0.0359891 0.0946637 0.0360652 -0.0558615 0.088113 -0.0257494 -0.0232296 0.0858488 0.00815937 0.0703908 -0.0195947 -0.0593061 0.0716775 0.0276631 0.00659359 0.00892912 -0.0824093 0.0197641 -0.0588206 0.0787722 0.108329 -0.00032662 -0.0163925 0.0193937 0.040842 -0.0466439 0.011417 0.0648997 -0.0335047 -0.0177215 -0.0534478 -0.0571249 0.0588451 -0.00922793 0.0962468 -0.0526731 -0.0380702 -0.0738697 -0.0857419 -0.0879153 -0.00413529 0.0263406 0.040599 -0.109449 0.0459817 0.0286841 -0.0734191 0.0743488 0.0593364 0.0482579 -0.0363661 0.0774537 0.0833591 -0.0886298 0.0384796 -0.0193018 0.0474038 -0.149652 -0.0693938 0.040136 0.0237916 0.0214658 0.0751009 0.0992288 -0.0154753 -0.0184575 -0.0563569 0.175675 -0.0932087 0.111479 0.0414091 0.112696 0.0824872 0.016986 0.0528832 0.0440413 -0.140993 0.042662 -0.0968615 -0.00966657 -0.0319296 -0.0159872 0.0226937 0.0343469 -0.0445703 -0.0298888 -0.0544417 -0.0043677 -0.0260339 0.0112664 0.00996747 -0.00883146 -0.13683 -0.00118328 0.0076974 0.0488375 -0.0262757 0.0116641 0.0458093 0.0480474 0.0363725 0.056971 -0.0858885 -0.00626827 0.0074394 0.0623422 0.0739095 -0.0422052 -0.111411 -0.0319884 -0.045714 -0.116433 0.00697891 -0.0270882 0.0192423 0.0175833 -0.169334 0.00759431 0.0498194 0.020316 -0.0118937 0.0308863 0.0435089 -0.109768 -0.0479087 -0.0583016 -0.0109768 -0.0220578 -0.000256146 -0.115522 0.062039 0.0905858 -0.0146756 -0.0502397 -0.0212305 0.0697908 -0.0564459 -0.0408868 -0.00971041 -0.0223559 0.0639549 -0.0883532 -0.00702514 0.0200492 -0.0567023 -0.0162865 0.0105175 -0.00505839 0.000881939 0.0410581 -0.0117776 -0.0610357 -0.0361858 -0.143727 -0.0772342 -0.0669028 0.0287688 0.0666131 0.0347981
, -0.00184255 0.00452402 -0.00136423 0.0619717 -0.00221473 0.0145498 0.0726436 -0.0512208 0.0859479 0.0680742 0.0584496 -0.0500703 0.0470403 0.0114219 -0.0152423 -0.114211 -0.0324273 -0.0299249 -0.0588622 0.0470954 -0.0245632 0.0714673 -0.029098 -0.0246953 -0.0541333 0.0459554 0.029127 -0.0379377 -0.0281323 0.0946694 -0.0769481 0.153851 -0.0531595 0.140621 0.0276286 -0.0333251 -0.105602 -0.0952482 0.0602007 -0.10294 -0.00138876 0.0433352 0.010522 0.0107908 -0.0434749 0.0207423 -0.00532241 0.00217982 0.121601 6.7693e-05 -0.0804246 -0.00989832 -0.12677 -0.0379781 -0.0365791 -0.037536 -0.0788227 0.110104 -0.0734069 0.0254277 0.0369277 -0.0359225 0.0732107 -0.0434417 -0.0467546 0.0424016 0.008608 -0.0362461 -0.0700426 0.0148959 0.00207762 0.0134657 0.039264 -0.142977 -0.0418984 0.0150383 0.0503995 0.0364182 0.0892419 -0.0412928 0.0304745 -0.0591104 -0.0178789 -0.0267264 0.00441356 -0.00188252 -0.0468422 -0.0126443 -0.0530385 -0.0299822 0.0379979 -0.0410942 0.0558046 -0.031577 0.0966743 0.0261898 -0.0032616 -0.0384648 -0.0346725 -0.0186238 -0.00880474 0.0246306 0.00830099 -0.0323998 -0.0270715 0.0481822 -0.0478778 -0.026677 -0.010154 -0.0535279 0.00805606 0.0692547 -0.0926071 0.00227705 -0.0379556 -0.0198334 0.0450334 0.0340365 -0.0804493 0.00989255 0.0409723 -0.0172792 0.0243026 0.165458 0.00197025 -0.0678693 -0.0169698 0.00182609 0.0757477 0.0467034 0.0239011 0.0699484 -0.00394554 0.0533085 0.0385821 0.0463654 -0.0360147 0.0140793 -0.0517054 0.086984 0.0565046 -0.0336693 0.0843971 -0.0147694 0.0159114 0.204804 -0.103488 0.0371178 0.0288639 0.0220958 0.0176288 -0.0875406 0.019246 -0.0368698 -0.0161586 0.0174881 -0.0161106 -0.0116844 0.112516 0.0517412 -0.0518525 0.112446 -0.0597015 -0.015582 0.0211693 -0.0611886 -0.0459027 0.0071726 0.0720796 0.0646862 -0.00432998 -0.04136 -0.0642739 0.0365382 -0.028345 0.0705726 0.0532716 0.0648423 0.0324489 0.0397702 0.039628 -0.00683904 -0.0543465 0.0401033 0.0360785 0.0427219 -0.0237319 0.0454203 0.0319968 -0.0524323 -0.00255536 -0.105407 0.0261692 0.0338813 -0.00243579 -0.0915707 0.0198787 0.0484912 -0.148894 0.0243334 0.0802651 -0.114179 -0.0778302 0.0353853 0.0565805 -0.0701007 -0.0785738 -0.0327753 0.140336 0.0458388 0.196621 -0.00571631 -0.0422196 0.00709453 -0.0717184 0.00946788 -0.128039 -0.106588 -0.0803212 -0.0400482 0.0157281 -0.0374701 -0.093443 -0.0029833 -0.0199295 -0.093389 -0.0687867 -0.0492325 -0.0277095 0.0524941 -0.00724281 0.0451422 0.00266517 0.0282921 0.00937763 -0.0046612 -0.0255849 0.00613392 -0.0403717 -0.0202864 0.0200545 0.0697013 0.0544214 0.0501941 -0.00649801 0.088284 0.115891 -0.0265513 -0.00249082 0.0540946 0.0399707 0.0409461 -0.0577267 -0.0697158 -0.0564467 0.00623438 0.0093025 -0.00201878 -0.0177663 0.0392665 -0.0312494 0.0259816 0.052292 -0.00889281 -0.0456243 -0.00281765 0.0647941 0.0412508 -0.0801451 -0.0147621 -0.0385887 0.0213972 -0.0428705 -0.041492 -0.125742 -0.0742048 0.0936231 0.0480626 0.00841114 0.0687508 -0.0198131 0.0362821 -0.0260292 0.0335626 0.0842739 -0.126402 0.130634 -0.00514586 0.0160408 -0.0303158 -0.0101975 -0.0707185 0.0127176 -0.0408448 -0.0230255 -0.0164929 -0.0768864 0.0557899 -0.0163406 0.0239441
. -0.0204289 -0.0505275 0.0456607 0.0277486 -0.142946 0.0204669 0.0439214 -0.0825579 0.048777 0.141512 0.0925896 -0.0746189 0.0164706 0.103231 -0.0560045 -0.0966215 -0.111801 -0.00451532 0.0183899 0.0639718 0.0391816 0.0963707 -0.0380629 0.0213628 -0.0350948 -0.0257738 -0.00137491 -0.0293251 0.0212851 0.115526 -0.0949579 0.201377 -0.083767 0.0579665 -0.0125216 -0.0245991 -0.0854218 -0.00995785 0.078464 -0.0935549 -0.0135216 0.0164037 -0.025489 -0.0106684 -0.0586293 -0.0352302 -0.0181153 -0.00839497 0.0361153 -0.0346519 -0.0584324 -0.105802 -0.0303799 0.0162035 -0.11216 0.0232318 0.00139364 0.0594387 -0.0143601 0.0785623 0.0233264 -0.10425 0.0817045 -0.172296 0.00483072 -0.0296728 -0.0249131 -0.00566771 -0.0696002 -0.00784544 -0.0778328 0.0100224 -0.0199581 -0.0960251 0.00547792 0.003627 0.036964 -0.0277018 -0.00818092 -0.0756163 0.103358 0.000564209 -0.0287564 0.000236391 0.0556845 -0.0425289 -0.00963858 0.0210418 -0.0408565 0.0506331 0.00842357 -0.0739226 0.0632071 -0.00680434 0.0405657 0.0171791 0.0333747 0.0286454 -0.0558997 -0.123982 0.0203937 0.0411135 -0.0908169 -0.00763338 -0.0568082 0.024302 -0.0806088 -0.0898383 0.00753861 -0.00773499 -0.00275686 -0.0753822 -0.15761 -0.0292256 -0.0330398 -0.0190696 0.0557584 0.056685 0.00829947 0.0946019 0.101993 -0.0558939 -0.0162073 0.136831 0.0100292 0.00884396 -0.000563274 -0.000503616 -0.0237877 -0.00503329 0.0933676 0.0398562 0.0828609 0.0580747 0.0163733 0.0502081 -0.0246557 0.0570657 -0.0685093 0.0967443 0.0293921 -0.00647031 0.0520892 0.0139304 0.0425793 0.126916 -0.0175115 0.00865788 -0.0476732 0.0244869 0.0110795 -0.0678096 0.0258655 -0.00249657 0.00217257 -0.0411555 -0.0188467 0.0130799 0.00998266 0.0651645 0.00429325 0.0525903 -0.0196893 0.0299057 0.0796345 0.0542419 -0.0362415 -0.0089423 0.0178629 -0.0219661 0.0149257 -0.0442176 -0.07042 0.0157542 -0.00301104 0.104014 0.0482321 0.0110486 0.0224706 0.0313497 -0.0448766 -0.036992 -0.0331685 -0.00135024 -0.00919399 0.0671667 -0.037076 -0.0532713 0.0585642 -0.0277334 -0.0155568 -0.0874504 0.0335877 0.0832525 -0.0809419 -0.0847506 -0.0254783 -0.0130444 -0.16088 0.0206037 0.0596876 -0.0652202 -0.0455238 0.016387 0.0508218 -0.035904 0.0127133 -0.00627156 0.0536181 0.0219811 0.12741 -0.0152202 -0.0486004 -0.0327638 -0.0322938 0.0261408 -0.104774 -0.11974 -0.0259425 -0.0718642 0.0391541 -0.058972 -0.0448349 0.00740741 -0.0167448 -0.0113785 -0.0654276 -0.093155 0.0159982 0.0973147 0.0274742 0.0502384 -0.0326848 -0.0675607 -0.0179815 0.0113788 0.0241656 0.0275751 -0.103325 -0.063245 0.00970018 0.0572844 -0.0471271 0.0715463 0.044724 0.0943411 0.0851082 -0.0187095 -0.0201641 -0.00114011 -0.016751 -0.0234476 -0.0590403 -0.0255342 -0.107906 0.0506954 -0.00350832 -0.0290787 -0.0400028 -0.00428869 0.00603851 -0.0187695 0.0654773 0.031371 0.0145563 0.00401198 0.114704 -0.0365996 -0.0215222 0.00396334 -0.0502545 0.0718377 0.0334451 -0.055585 -0.00978664 -0.0364758 0.0359481 0.106279 0.0396935 0.0227961 -0.0475838 -0.0100304 -0.082839 -0.0164193 0.0528837 -0.103733 0.0405865 0.0234771 0.0640917 -0.0274843 0.0185215 -0.13456 -0.025361 0.0121107 -0.0398938 -0.00101595 -0.0164316 0.103726 -0.089501 -0.00388705
в -0.00222261 -0.111317 0.00685308 0.0158696 -0.10593 -0.0172139 0.0158709 -0.116733 0.016924 0.0616178 0.0701415 -0.0246854 -0.0517861 -0.0271411 -0.00795232 0.0105025 -0.0696798 -0.0362129 -0.00404568 -0.00228353 0.0376941 0.0759523 -0.0895082 -0.037133 -0.062903 -0.101122 -0.00043198 -0.0307959 0.0300343 0.130645 -0.0667874 0.0663711 -0.0792555 0.19125 0.00665632 -0.075439 0.0129784 0.0104529 0.0923551 -0.0384759 -0.00066229 0.0512442 0.00423607 -0.0526167 -0.00193762 -0.0161843 0.0277039 0.0753008 0.0161496 -0.0106808 -0.0649215 -0.0639708 -0.0665037 0.120511 -0.0486114 0.0578361 0.0252078 0.0431473 0.0476005 0.0558648 0.022565 -0.0540409 0.174061 -0.0872749 0.0246835 -0.11506 -0.0841493 0.0288055 -0.00326081 0.0276774 -0.0796559 -0.00316219 -0.039987 0.0185523 -0.0590305 -0.151898 0.0655338 0.107522 -0.0146417 -0.0814583 0.0546394 0.0378783 -0.0281623 -0.0159506 0.00343138 -0.0282456 0.0142548 -0.0332774 -0.0925454 -0.0169465 -0.101787 -0.00636724 0.167449 -0.0829501 0.0561191 -0.0710888 -0.0667182 0.0926972 -0.0805754 -0.00255283 -0.0214797 -0.00846345 0.0325328 -0.00684095 -0.102073 0.0439871 -0.0853127 0.122161 0.00773145 0.0604577 0.00438294 0.00751948 -0.0452333 0.0252264 -0.0358429 -0.00704671 0.0424452 0.0207203 0.0361693 0.0564529 0.0745836 0.108444 -0.082504 0.0792917 0.0872809 -0.148212 0.0411399 0.0171468 0.062349 0.0426129 -0.000303289 0.079907 -0.024475 0.000319511 -0.11653 0.0325053 -0.020602 -0.025125 -0.045718 0.0901544 0.0928015 0.0871654 0.055162 0.0238781 0.0729633 0.117016 -0.0341516 0.0461431 -0.0367806 -0.0076731 0.0268751 -0.00766371 -0.0537713 0.0415787 -0.0682579 -0.0518038 0.0483551 -0.0740111 0.0576124 -0.0273082 -0.0751003 0.130863 -0.048117 0.0145162 0.043544 -0.000621918 -0.034151 0.0258864 0.0436056 0.0383239 -0.0341598 -0.0550779 -0.0771007 0.0278245 0.0296447 0.0285053 0.0570831 0.0386972 0.0128059 0.0500976 -0.00467222 -0.0677129 -0.0169627 0.125244 0.0561107 0.0947085 0.0268911 0.0110526 0.00644495 -0.0389944 0.00689145 -0.00463494 0.0312874 0.00829597 -0.0486097 0.00356248 0.0607122 -0.0684164 -0.0531394 -0.0471877 0.00907537 -0.0273576 0.0276725 0.0807477 -0.0292546 -0.0957375 -0.0740522 0.0300303 0.00807305 0.0737452 0.118508 -0.0126839 -0.0550858 -0.0312914 -0.0809434 0.0259924 -0.0920534 -0.0612227 -0.00879864 -0.0790042 -0.0470182 -0.034619 -0.0310207 -0.024455 -0.0427159 0.0257365 -0.0283509 -0.0785728 -0.0223812 0.0284313 0.0877174 0.056344 -0.0278845 -0.00755674 -0.00214997 0.0369344 0.0592648 -0.00786118 -0.0153849 -0.042231 -0.0412339 0.0209567 0.0505385 0.0548722 -0.00219233 0.0544289 0.0428158 -0.0294473 0.0402038 0.00941412 -0.0482997 -0.0304433 -0.0471596 -0.0768679 -0.0873924 0.0560522 0.0370714 -0.0548054 -0.0134867 0.0152179 0.0140124 0.00775058 -0.000366133 0.00431313 -0.0270669 -0.0108147 -0.00341974 -0.0174929 0.0181532 -0.0356945 0.00955888 -0.0183148 -0.0171646 -0.0684009 -0.0112691 -0.0801786 0.0883202 0.0261174 0.0519215 -0.02216 0.013463 0.00956235 -0.0425676 0.0718779 0.0262749 -0.0382981 0.0876509 0.0637717 -0.00037705 -0.0566915 0.00785441 -0.127641 -0.0194064 0.0542739 0.100282 0.0662862 0.0288795 0.0176286 -0.00876105 -0.00398831
- 0.0190719 -0.128407 0.0412207 0.03567 -0.00876801 0.0562979 -0.0292943 0.00132447 0.017661 0.0078931 -0.02718 -0.0257212 -0.00267773 -0.0343318 -0.0384134 -0.0623792 -0.0152839 -0.011635 -0.0306577 0.100348 0.00163567 -0.00683283 -0.0394375 0.0222061 -0.0225373 0.0322257 0.0364235 -0.120731 0.00562687 0.0616523 -0.0155507 0.124553 0.00889601 0.0336144 0.0454371 -0.0439725 -0.10221 -0.0191701 -0.0259872 -0.100799 0.024861 0.0936044 0.00326633 -0.00908075 -0.117303 -0.0197795 0.0158249 0.0496787 0.0487815 0.0153845 -0.0254137 -0.183487 -0.0236197 -0.104284 -0.0668952 -0.0211011 0.0275846 0.0984832 -0.0282295 0.0886431 0.0209291 -0.0991806 0.0715021 -0.0274091 -0.0738751 -0.0141872 -0.0507845 -0.0217882 -0.121629 0.0366841 -0.0602554 -0.0765579 0.0592822 -0.132314 0.0283167 0.0778047 0.0923833 -0.042888 -0.00733038 0.0948087 0.0456511 0.0139289 0.0629216 0.0787035 0.0956457 -0.0140428 0.019687 -0.0172758 -0.0266364 0.0912307 0.00395403 -0.0605949 0.0726256 -0.0416246 0.0711304 0.0473903 -0.0857713 0.0605265 0.0113626 -0.0415421 0.00601199 0.010157 0.0432221 0.0445937 -0.017775 0.0460636 -0.0306874 -0.0145461 -0.0139775 -0.0166868 -0.0241737 0.0202594 -0.000780142 0.0512884 -0.0272703 -0.040996 0.0447726 -0.0221272 -0.0777507 0.0498561 0.027185 -0.11772 0.0685147 0.085236 -0.000359273 -0.081573 0.0113749 -0.0146367 0.00755534 0.0825815 -0.0185186 0.100516 0.0891673 0.0055848 0.000561071 0.0195522 -0.0166037 -0.00378082 0.00972998 0.0596976 0.106482 0.00517177 0.0597029 0.0884413 -0.0449455 0.149953 -0.0308019 0.0456876 -0.0446735 0.0352832 0.00559768 -0.0575407 -0.00183009 -0.0717853 -0.0424569 -0.0834476 0.0915608 -0.0100735 0.00463983 0.0394112 -0.0248333 0.0200321 0.00168962 0.00952877 0.127356 -0.042857 -0.0925567 -0.0742892 0.0647423 0.00656501 -0.0940673 0.0303556 -0.0419422 -0.00126604 -0.00107685 0.030725 0.021478 0.111331 -0.00953476 -0.0282749 -0.0854917 0.03304 -0.015993 0.145321 -0.0277417 0.0580886 -0.0728135 -0.134436 0.0411557 0.0127766 0.0272555 -0.00671266 0.0432781 0.0570013 -0.0297842 -0.00758974 0.109058 0.00777027 -0.0197671 -0.0111455 0.0338904 -0.0394174 -0.104487 0.0490472 0.00822771 -0.00101904 -0.000807575 -0.0180865 0.11232 0.103147 0.0846775 0.0367706 0.0119479 -0.00945797 -0.0467129 -0.0125483 -0.0315621 -0.0535378 -0.0442978 -0.00828639 -0.0203695 0.0237622 -0.0362288 0.0123549 -0.0668243 -0.0767805 -0.0573791 -0.0409494 0.0138634 0.0532593 0.0265924 0.0996348 0.043056 -0.0868054 0.0108897 0.00358686 0.000200271 0.0461965 -0.10661 0.00219322 -0.01745 0.0368244 -0.00798514 0.0521998 0.104504 -0.0176466 0.0435166 0.0157392 -0.00896352 -0.0431835 -0.0721891 -0.00560556 -0.111963 0.0985199 -0.0247552 -0.0336597 0.024096 -0.130511 0.0744545 -0.107603 -0.0163405 -0.0322421 -0.0204351 0.0881224 -0.0856419 -0.0554554 0.0389736 0.0204836 0.0391118 -0.0476251 -0.0883174 0.0427447 -0.0202729 0.0293534 -0.0285016 -0.0169369 0.0924751 0.0460486 0.0171704 -0.0624959 -0.0535412 0.0177299 -0.127727 -0.00356679 0.0571335 -0.0136992 0.0504022 -0.0451314 -0.063426 0.0325047 0.111363 -0.0292361 -0.116804 0.0412772 -0.0936356 0.0414456 -0.0150596 0.0280937 -0.00173055 0.00486862
) -0.0592828 -0.069053 -0.0204357 0.00959066 -0.0195878 0.0264991 0.0457775 -0.104347 0.0861362 0.0452331 0.0237161 -0.0446913 0.0454403 0.00617221 -0.0363653 -0.0597084 -0.0372494 0.0124781 -0.0357529 0.0522961 -0.00318202 0.0755368 -0.012223 -0.0210911 -0.115315 0.000196622 0.031666 -0.0769302 0.0160863 0.0493608 -0.0403701 0.0833172 -0.0685693 0.0949021 0.0838635 -0.0893273 -0.0308643 -0.0641754 0.0477364 -0.109748 0.0249206 0.00682119 -0.11426 -0.0221564 -0.0683976 -0.0381603 -0.0272513 -0.00911202 0.110255 -0.0101472 -0.0447517 -0.134596 -0.0740497 -0.0314145 -0.0311738 -0.127363 -0.00581195 -0.0153055 -0.0445808 0.0875787 0.0542545 0.017521 0.0236844 -0.0191141 -0.0220338 0.0487968 0.00424657 -0.126231 -0.097485 0.0289935 0.0460935 0.0129806 0.0353246 -0.0130887 0.076809 0.0280695 0.0053576 0.0550717 0.0420015 0.0165852 0.0788511 0.034631 -0.0209017 0.0549128 0.050176 -0.0529988 0.011706 0.0170583 -0.0258649 0.0286248 0.00374722 -0.0673966 0.04825 0.034881 0.0594208 -0.0198006 0.0194655 -0.0360006 -0.0496053 0.00531176 -0.0281581 -0.0126517 -0.0338315 -0.00635348 -0.0315062 0.0162769 -0.0513221 -0.0156109 0.115209 -0.0862795 0.0288305 -0.00606443 -0.0695781 -0.0571383 -0.0294185 -0.00154471 -0.0435771 -0.0553089 -0.0352559 -0.0089668 0.109876 -0.0443381 -0.0127077 0.193845 0.00386245 -0.00593836 -0.0615398 0.0436129 0.0818704 -0.0382834 0.0594538 0.0995236 0.0836937 0.0253712 0.00701087 0.00200172 -0.0587676 -0.054976 -0.0116352 0.123317 0.0609511 -0.0642687 0.0451723 0.0341094 0.0238723 0.20259 -0.0408632 0.0257166 -0.0266808 0.0404933 -0.0166093 -0.0314294 -0.0170569 -0.0361905 -0.0208312 -0.0260694 -0.0109292 -0.0381881 0.0830269 0.000565982 -0.0394261 0.0201797 -0.105196 0.0106868 0.0431874 -0.103196 -0.05211 0.010886 0.0244099 0.0380117 -0.0526395 -0.00209745 -0.0817681 0.0226247 -0.0148338 0.0243755 0.0736678 0.0554323 -0.00656578 -0.0436233 -0.0442923 -0.0246281 -0.0205331 -0.0304321 -0.0248769 0.0716701 -0.0264331 0.0632356 -0.00583525 0.0442064 -0.0343724 -0.17724 0.111136 0.0246018 -0.0488926 -0.133837 0.017014 0.0191305 -0.134661 -0.00687275 0.0105897 -0.0892696 -0.0475511 0.0313356 0.0815525 -0.00341304 -0.0544018 0.00258159 0.133822 0.0415873 0.150549 -0.0321164 0.0506192 -0.0330641 -0.117042 -0.0210612 -0.0666069 -0.0613784 -0.124739 -0.0354672 0.0931975 -0.0123302 -0.0779398 -0.0122603 0.00201624 -0.0421668 -0.0305553 -0.0441039 0.0718763 0.00597841 -0.0318202 0.0419706 -0.0137364 -0.0529138 -0.0117189 0.0274824 -0.0450589 -0.00600388 0.0445042 0.0115461 -0.0598574 0.104891 -0.0251894 0.0244112 0.0511035 0.0428106 0.0783207 0.00165958 0.0364925 0.00537724 0.00541442 -0.0417681 -0.0073774 -0.0530104 0.000900782 0.0462706 0.0792271 0.00890156 -0.0141552 -0.0501271 -0.0173533 -0.00033991 0.0863444 0.0467492 -0.0353913 0.0532651 0.0894712 0.0407702 -0.0615294 -0.0843992 -0.0478778 0.0102958 -0.0196012 -0.00690388 -0.0284914 -0.0377158 0.12211 0.0158543 0.00202746 0.0581699 -0.00382222 -0.0161725 -0.0660536 0.0500252 0.0996658 -0.0800637 0.152937 -0.0523111 0.0719101 0.0149585 -0.0497667 -0.0874408 -0.0545703 0.0361053 -0.0367565 0.0130181 0.0034026 0.0600205 0.0432044 -0.0300452
( -0.0534493 -0.0686296 -0.0152646 0.015307 -0.0108187 0.0238976 0.0312694 -0.107026 0.0978042 0.0400237 0.0436075 -0.0481989 0.0446903 0.0149942 -0.048661 -0.0462119 -0.032951 0.00196689 -0.0402994 0.0597888 -0.0193127 0.0572326 -0.0143054 -0.0272192 -0.103411 -0.00545464 0.0320688 -0.070555 0.0242072 0.044152 -0.0286197 0.0802889 -0.0663519 0.096368 0.103519 -0.0828437 -0.0427432 -0.0574078 0.0632346 -0.100377 0.0351307 0.0119023 -0.0979631 -0.020981 -0.0768191 -0.046995 -0.0081854 -0.0200676 0.107036 -0.0298987 -0.0424218 -0.128496 -0.0413145 -0.0256836 -0.0188055 -0.136238 0.01128 -0.0277814 -0.0387386 0.0678458 0.0469691 0.0218028 0.0182182 -0.00850016 -0.0400551 0.0507968 0.00184174 -0.122866 -0.095032 0.0193765 0.0491328 0.0235705 0.0356468 -0.0169301 0.0733372 0.0144748 0.00217091 0.0515361 0.0322071 0.02098 0.0725898 0.0387325 -0.0174221 0.0523244 0.0582219 -0.0709445 0.0236096 0.0249725 -0.0244679 0.0386922 -0.0199145 -0.033785 0.040133 0.0431423 0.0704304 -0.0252786 0.00117912 -0.0372583 -0.0431389 0.00821999 -0.0235519 -0.00257948 -0.0421335 -0.0208819 -0.045727 0.00215422 -0.0455964 -0.00714945 0.116259 -0.0924398 0.0138269 0.00742887 -0.0442625 -0.0528529 -0.0337077 0.00867219 -0.0445764 -0.041092 -0.0228525 -0.023518 0.113141 -0.0403523 -0.00896423 0.178567 -3.3715e-05 0.00108973 -0.0608519 0.0598787 0.0851681 -0.0388425 0.0634365 0.0948909 0.0775665 0.0370664 0.017866 -0.000407566 -0.0647001 -0.0649517 -0.0109153 0.120144 0.0614904 -0.0549644 0.0289108 0.0392271 0.0181197 0.19894 -0.0327801 0.0290811 -0.0301409 0.0395503 -0.0252524 -0.0245855 -0.00789943 -0.0298606 -0.0357255 -0.00517708 0.0141105 -0.0374687 0.0781594 0.00699524 -0.0413531 0.0219516 -0.106863 0.0210337 0.0444395 -0.124492 -0.0575608 0.00693664 0.0167758 0.0324551 -0.0567691 -0.0176495 -0.0850399 0.0139716 -0.0183273 0.0411089 0.06979 0.0528168 0.0029846 -0.0424749 -0.0445744 -0.0325717 -0.0301087 -0.0260692 -0.0196507 0.0780981 -0.0315627 0.0549529 0.0175391 0.0584352 -0.0311442 -0.174057 0.100394 0.025829 -0.0521697 -0.13374 0.02253 0.016884 -0.147171 -0.0235686 0.00598299 -0.0958883 -0.0452676 0.0395666 0.0833032 -0.0052328 -0.0665728 0.0114581 0.158171 0.0487045 0.163998 -0.0476811 0.0547876 -0.0387912 -0.110801 -0.0155731 -0.0634238 -0.0548892 -0.11921 -0.047091 0.0956231 -0.0171586 -0.0772475 -0.0219797 -0.0113066 -0.0417417 -0.037726 -0.0600031 0.0802424 -0.00455395 -0.030689 0.0427852 -0.0167992 -0.0545551 -0.0116192 0.0262808 -0.0458124 -0.0139753 0.0501133 0.0180361 -0.0472197 0.118259 -0.0156787 0.0322949 0.0536991 0.0456883 0.067697 0.00708183 0.0437445 0.00430115 0.0177373 -0.0249486 -0.00822099 -0.0479403 0.00455635 0.040058 0.07285 0.0124927 -0.0297232 -0.0533026 -0.0154513 -0.0112071 0.082429 0.0552493 -0.0318842 0.0516645 0.0746097 0.0438632 -0.0613298 -0.0887123 -0.0489565 0.014443 -0.024173 -0.00695857 -0.0252162 -0.0289936 0.129754 0.0175102 0.00311244 0.0638335 0.000794521 -0.0078312 -0.0573827 0.0486615 0.0929113 -0.0742287 0.148234 -0.0299749 0.063942 0.0235512 -0.0529919 -0.0858427 -0.0592242 0.0378035 -0.0252844 0.00780396 -0.00498786 0.0672905 0.0371004 -0.0219486
и 0.0616866 0.0109087 -0.0173823 0.132298 0.00965178 0.0357359 0.124874 -0.0490043 0.133347 0.137783 0.0815974 -0.0881467 0.00210889 -0.0555235 -0.0205887 -0.0966601 -0.0335258 0.00670366 -0.00487669 0.100755 -0.0171976 0.0181578 -0.112165 0.0305779 0.0155349 0.00883061 0.0665959 -0.053502 -0.0494218 0.0347239 -0.0936569 0.0985388 -0.0433486 0.124912 0.0207929 -6.11332e-05 0.0121354 -0.123191 0.0690194 -0.0669293 -0.00976319 0.0321675 -0.0801876 -0.00864596 -0.0237761 -0.00119838 0.00709288 -0.0161808 0.0459354 -0.0669542 -0.0612371 -0.010192 -0.0950374 0.014042 -0.0607105 -0.00456513 -0.0367827 0.0798244 -0.0759475 0.0412357 -0.0593211 -0.0897821 0.127227 -0.0754922 0.00510513 -0.0106535 -0.0364598 0.00526329 -0.0688396 -0.027581 -0.110294 -0.0455124 0.0376124 -0.0991366 -0.0206968 -0.0150168 0.0401026 0.0954903 0.0581816 -0.0339455 0.0705122 -0.0508135 -0.103719 -0.0166022 0.000271747 -0.00470158 -0.0933783 0.0886816 -0.0172248 -0.0311814 0.017931 -0.0148472 0.124141 -0.0331266 0.0153342 0.100387 -0.0095514 -0.0541649 -0.0281825 -0.0557256 -0.0091405 -0.0683925 0.0819432 0.0140108 -0.147151 -0.00845717 -0.0635695 0.0762416 0.0115349 -0.0301802 -0.0142837 -0.0472062 -0.029819 -0.0788605 -0.0411015 0.00110793 0.0190115 0.0320954 -0.037496 0.0574439 0.0536767 0.0123607 -0.0157826 0.133622 0.0607023 -0.00352327 0.0739034 -0.00881993 0.0321455 0.00867124 0.0212606 0.042058 -0.069359 -0.00682489 0.0594399 0.074763 0.000956353 0.0765824 -0.0888848 0.0598377 -0.0319892 0.0309874 0.0412895 -0.0336708 0.0331393 0.10779 -0.0950928 -0.0390689 0.0251628 0.0196151 0.008583 -0.0700013 0.00312885 -0.0016671 -0.000776479 0.00338184 -0.0480649 -0.0473389 0.115736 0.0259492 -0.00986253 0.0468098 0.0108236 0.0159751 0.0544978 -0.0966376 -0.0262814 -0.0507771 0.0810411 0.0110746 -0.0308519 0.00194499 -0.0841413 0.0680638 -0.0254751 0.0938564 0.0647013 0.0573431 0.0580546 -0.000430962 0.0251417 -0.0337441 0.0225836 0.0497081 0.0752274 0.159805 0.0209273 -0.0460537 0.0292341 -0.0223822 -0.0287679 -0.0607047 0.0486787 0.0175909 -0.0200425 -0.0703829 -0.0447545 0.0396775 -0.087887 -0.00423174 0.0562442 -0.0396471 -0.023197 0.0361352 -0.0282342 0.00129376 -0.0603034 0.0184824 0.0953966 0.074421 0.189444 -0.0461059 0.0394876 0.011325 -0.0424647 0.0195459 -0.10961 -0.150836 -0.112397 -0.029497 -0.0325725 -0.113663 -0.0522608 0.0322545 -0.0674769 -0.0336828 -0.0269198 -0.109217 -0.036877 0.066233 0.0592632 0.00961035 -0.0387828 -0.0141072 -0.0392239 0.049749 0.0106567 -0.0672091 -0.0269209 -0.0114868 -0.0196174 -0.0149816 -0.0132388 -0.003084 -0.0236775 0.112548 0.0690182 -0.0508386 0.041268 0.0852106 0.00796364 -0.0300677 -0.0355147 -0.00623747 -0.0967343 0.0287564 0.0196327 -0.0126423 0.0481344 0.0877523 -0.00991612 0.0250408 0.0238268 0.0128416 0.0358084 0.0218148 -0.0139344 0.0146061 -0.0155456 0.0241058 -0.0709702 -0.0109095 -0.00465348 0.0151313 -0.0621958 0.0113965 -0.00449167 0.106122 -0.0138418 0.0572836 -0.0047785 0.0224235 -0.0186553 0.0693645 0.0569338 0.00474119 0.0267682 0.0752366 -0.0945937 -0.0496028 0.06356 -0.00989302 0.0656141 0.0160861 0.0258943 -0.0282259 0.0325273 0.046982 0.030698 -0.0235388
на -0.017659 0.0468123 -0.0334445 0.0546593 -0.0441246 0.0262053 -0.017816 0.0564648 -0.00872089 0.0100367 0.0593245 -0.0275386 -0.0454591 0.019686 0.0249801 -0.027332 -0.088475 -0.0321142 0.0656596 0.0736413 0.0455589 -0.0139501 -0.00329987 -0.013928 0.0180716 -0.0859366 0.0821316 -0.0577286 0.0376021 0.0466779 -0.0363376 -0.00183439 -0.0505756 0.0630558 -0.0387853 -0.0455925 -0.0914609 0.0680803 0.123667 -0.00370582 0.0485508 -0.0644998 0.0381035 0.0583467 -0.0654154 0.071988 0.0926376 0.0063662 0.0360839 -0.0366189 0.0178282 -0.118224 0.0294128 0.0252492 -0.0552709 0.0101225 -0.0468804 0.142277 -0.0498448 -0.0846895 0.0541959 -0.0209858 0.121683 -0.0143284 0.00331294 0.0111193 -0.0490979 -0.00814814 -0.0198844 0.0739595 -0.0371301 0.0120964 0.113691 0.0342804 0.0173149 0.0681166 0.0714601 0.0785347 0.0156576 -0.0991354 0.0683587 -0.0332768 -0.00686088 -0.0587059 0.100054 -0.00935151 0.0294517 0.00261277 -0.0112932 -0.0455478 -0.0104162 -0.0108572 0.0880687 -0.0380615 0.0596755 0.0252929 0.0162727 0.01301 -0.0422585 0.00748145 -0.0763693 0.018006 0.0753343 0.0558658 -0.0156094 -0.0366689 0.0234447 0.0666924 -0.0118503 0.0789042 -0.0522364 -0.0739064 -0.0365541 -0.0410684 -0.083011 -0.023356 0.105695 -0.0177321 -0.0219999 -0.0157272 0.181271 0.0670745 0.0498898 0.057784 0.041175 0.0125297 0.0835217 0.00593609 0.0466671 0.014998 -0.0230942 -0.0333638 0.0336306 0.0319601 -0.011136 0.0432042 -0.0103708 0.0717566 -0.0163739 -0.0313416 -0.0339232 0.0502321 -0.0304782 0.0830009 0.00543433 0.0909235 0.00777998 0.000659192 -0.00189897 0.0922049 0.0233341 -0.00415383 -0.0930561 0.0631099 -0.0413199 -0.0331193 0.0802133 0.0713733 0.123156 -0.0998476 0.0113047 0.0913514 -0.00354514 -0.0796327 0.0483337 -0.0374114 -0.00579395 -0.0274849 -0.0181052 -0.0476593 -0.152308 0.0106338 -0.0615487 -0.000220446 -0.137151 0.0943296 -0.00647503 0.161994 0.0110504 -0.101165 0.0493213 0.000363686 -0.0399838 0.00125674 -0.00220335 -0.0421062 -0.0076473 0.0546258 0.086109 -0.0598411 -0.0344423 -0.0404301 0.041558 0.0806975 -0.0114256 -0.0633968 0.0282168 -0.0952433 -0.0901822 -0.0661127 -0.000533734 0.0126503 -0.0191759 0.0423647 -0.011488 -0.13635 -0.0517005 -0.0319068 0.0248525 0.116257 0.0804068 -0.120503 0.0294214 -0.0263012 0.0532982 -0.0114528 -0.13533 -0.0852158 0.0257414 -0.0152682 -0.0308389 -0.0232243 -0.0180779 0.0856353 -0.136351 0.00668511 -0.0841281 -0.0850429 0.020745 0.0620939 0.0482524 0.0259386 -0.070663 0.00668776 0.0535671 0.00488736 0.0292482 -0.0096571 -0.0178734 0.0292496 -0.0470113 -0.0118354 0.0919113 0.0549524 -0.0306183 0.0230802 0.064208 -0.016279 0.0932437 0.112712 0.0224466 -0.0394631 -0.0402647 -0.00278802 -0.120835 0.00489332 -0.042525 -0.0837625 -0.0297217 0.0856381 0.106793 0.117783 -0.00776155 -0.0525448 -0.0155191 -0.0347856 0.0588854 -0.0272617 -0.0337256 0.0315143 -0.0358591 0.0693965 -0.0320939 0.0590312 -0.033957 -0.0805395 0.0268658 0.0866186 0.0429724 0.0104284 -0.00505944 0.0566065 -0.0311308 0.0145424 0.047023 -0.0165725 0.0345842 -0.012219 -0.0459914 0.0200032 -0.00584052 -0.0915974 -0.0789363 0.0237693 0.0218671 -0.0660397 -0.0538 0.0448771 -0.0216986 -0.0430939
' -0.0935878 -0.0608377 0.0667615 0.0154574 0.00673176 -0.0427511 -0.0224298 -0.0315257 0.0021746 -0.0320567 0.0838569 -0.0132736 0.0174871 -0.0402303 -0.0317764 0.0702902 0.0420647 0.032533 -0.0191644 0.00518175 -0.0280623 0.0129052 -0.0185489 -0.0480486 -0.0325147 -0.000510109 -0.0254209 -0.00369757 0.000998091 -0.0147547 -0.0495962 0.0676915 -0.051718 -0.0157674 0.0168748 -0.0259203 -0.0249995 -0.0148635 0.0261706 -0.0722433 0.00793665 -0.0407311 -0.0593364 -0.0765951 -0.0571912 -0.0166126 -0.029371 -0.0117248 0.0994587 -0.0342906 -0.0733746 -0.077732 0.0110769 -0.00472974 0.0141614 -0.0993387 0.0385438 -0.0495004 -0.0752229 0.0852487 0.0510425 -0.0273947 -0.0168352 -0.0579593 -0.0284214 -0.0174796 -0.0224906 -0.0542935 -0.0823535 0.0389454 0.0196144 0.0206753 0.0588757 -0.000593106 0.0494766 0.0480807 0.00652002 0.0386003 -0.00345966 0.0274897 0.0369705 0.0145583 0.049106 0.0106012 -0.00736482 -0.00137092 0.0354223 0.0341548 -0.0407724 0.0444262 -0.0526773 0.0394255 0.060463 -0.00440889 0.00714855 -0.040848 -0.0645638 -0.014127 -0.0126256 0.0978822 -0.0449127 -0.0580313 -0.0115904 0.0307298 0.0353611 0.0489319 -0.0629575 -0.00809261 0.128611 -0.109318 0.0800718 -0.0405432 -0.0337375 -0.0652149 -0.0381039 0.0504456 0.110886 0.0327914 -0.0254655 0.00917773 0.123173 -0.0568608 -0.0163062 0.125387 -0.111138 -0.0644003 0.00974641 0.0205078 0.0713635 -0.107963 0.0344581 0.0583039 0.0161644 0.0354952 0.00696763 -0.0344581 -0.0534341 -0.0163122 0.0386232 0.0738373 0.00752589 -0.0225376 -0.00107452 0.0218866 -0.0503754 0.1987 0.0840721 0.031591 -0.0121288 0.0296065 0.0569242 0.065797 0.0486654 -0.0499961 -0.100592 0.019667 0.0822956 -0.0841179 0.120576 0.00523823 0.00517699 0.0343149 -0.0730483 0.0523365 0.0785468 -0.0933612 -0.135346 -0.0217444 0.0602581 0.060216 -0.0525771 0.000127636 -0.0425824 -0.013075 0.0571578 0.0102418 0.0508309 -0.0035107 -0.00520196 -0.00633902 0.00508907 -0.0110072 -0.00416973 -0.0278689 -0.0838939 0.099802 -0.0245955 -0.0307199 0.124439 -0.0233569 -0.0206347 -0.118138 0.020488 0.0765033 -0.0640722 -0.0452884 0.0989991 0.0631864 -0.104614 -0.0110604 -0.0775309 -0.0819544 -0.076704 0.055419 0.0340045 0.00888161 -0.0611429 -0.0643296 0.111189 0.0265344 0.0965793 0.0345627 -0.026893 0.0258781 -0.0653679 0.042567 0.00887289 0.0262054 0.0400058 -0.132466 0.0736264 -0.0906964 -0.137383 0.124074 0.0435927 0.00149933 -0.0757426 0.0590477 -0.0184259 -0.0409583 -0.0265194 0.0238797 -0.101784 -0.0591765 0.0016266 0.111414 0.0158442 -0.0312227 -0.0241815 0.0596599 -0.0344278 0.125961 0.035116 0.0180853 0.104815 0.017508 -0.00174433 0.0422772 0.0816489 -0.0182183 0.058075 0.00529095 0.0391387 -0.102029 0.0573162 0.0264178 0.0103704 -0.0882977 0.06625 -0.0520358 -0.00334999 0.0175728 0.0529649 0.0410412 -0.0929968 -0.112531 0.0399627 0.125162 -0.0770237 -0.0945839 -0.0839797 0.00473574 -0.112754 -0.0998132 -0.0355976 0.0258819 0.129711 0.0667306 0.0631373 0.00186236 0.000873912 0.054823 -0.0515448 0.074162 0.037506 -0.010432 0.0885713 -0.0155454 0.0607185 -0.0422454 -0.0114944 -0.00819522 0.00220235 0.036435 -0.00448538 -0.0340981 -0.0141715 -0.0186215 0.0213213 -0.0325691
с -0.0165558 0.0541372 0.0670433 0.0913261 -0.0556585 0.0046857 0.112611 -0.0404887 0.0870115 -0.00142076 -0.00989165 0.00739945 0.0490707 -0.00677102 -0.064762 -0.0326974 -0.143454 -0.0229408 -0.0115041 0.105159 0.00556796 0.00413194 -0.0512741 0.0757805 0.0554201 -0.12078 -0.0211871 -0.00608252 -0.0284629 -0.0654202 -0.0736116 0.0876815 -0.0468945 0.0808912 0.00647258 0.010132 -0.0629395 0.0175583 0.0483231 -0.0185671 0.170223 -0.00766563 -0.0132946 -0.0371494 -0.0506009 -0.134288 0.0498176 0.0209782 0.036706 -0.0104329 0.00270449 -0.110444 -0.0737201 -0.0557289 -0.0450772 -0.00277709 0.0204088 -0.0531367 -0.0923565 -0.0440244 0.0825102 -0.0579087 0.0685051 -0.0432389 0.0574221 0.016025 -0.0608143 0.105092 -0.070754 -0.000222196 -0.0998968 0.00155962 -0.0189255 -0.0811351 0.0313635 0.0251841 0.0456119 0.0565501 -0.0494169 -0.00218171 0.0968465 -0.104427 0.0286118 -0.11866 0.0540419 0.0651087 -0.00974626 0.012611 -0.0497293 0.000792582 -0.0139238 -0.0622907 0.049134 -0.0337196 0.077909 0.0416857 0.0786315 0.0277887 -0.0623272 -0.0943009 0.0720122 0.0476833 -0.0460749 -0.0116596 -0.12931 -0.0203528 -0.024417 0.0560662 0.000923547 -0.0371979 -0.0549996 0.0154552 -0.0774881 -0.0532106 -0.0242613 -0.0302631 0.0341837 0.0555882 -0.0121017 0.120984 0.0183103 -0.0646047 -0.112556 0.17349 0.0711047 -0.100698 0.0397609 0.0614789 -0.0295245 0.104192 0.098981 0.0130206 -0.0307411 0.0276791 -0.0276562 0.0433466 0.0930226 -0.00407642 -0.0441985 0.113396 -0.0139846 0.0521545 0.00199687 -0.00241814 -0.0512186 0.10416 -0.000326519 -0.0151534 -0.0583772 0.0611649 0.00529687 -0.0735967 0.0201143 -0.0349678 -0.0349231 0.00885741 -0.00898501 0.00165514 -0.0473173 -0.0189041 0.0579333 0.0568347 -0.00240242 0.000207699 0.0576972 -0.0147826 -0.0467883 -0.0410571 0.0467398 -0.0456305 -0.0509407 0.00871152 -0.0233374 0.00384324 -0.0330011 0.0537652 0.0983994 -0.0404072 0.0160139 -0.00864356 0.0165801 0.00407333 -0.0309075 0.0107729 0.0463521 0.116617 -0.0334507 0.0688163 -0.0232931 -0.0306251 0.00505714 -0.0817297 -0.00795839 9.48458e-05 0.0325878 0.018085 -0.128079 -0.00674955 -0.0965478 -0.0215348 0.0140569 0.0275679 -0.0637821 -0.00123113 -0.0610533 0.0197734 -0.0554637 -0.044307 0.0803564 0.0430529 0.157703 -0.0140841 -0.0338492 -0.0088845 -0.0121068 -0.0396747 0.0156024 -0.120424 -0.0569891 0.0299159 0.043746 -0.0811992 -0.0796538 0.0583147 -0.0715034 -0.0362179 -0.0196381 0.0686473 0.0152111 -0.0269272 0.138111 -0.0967635 0.0987413 0.0350212 -0.0343503 -0.00333424 0.104615 -0.018774 -0.0850357 0.0427431 0.0399342 -0.0366525 0.0368262 0.0666194 -0.0357298 0.0719659 0.0407735 0.0409584 -0.054667 0.00277048 -0.0841819 -0.0752249 -0.0193107 0.00694861 -0.0933104 -0.0241651 -0.0886447 -0.0405719 -0.0453175 -0.0263687 0.0557022 0.0388858 0.0800037 0.0194492 0.00272349 0.0470836 -0.0370475 0.0778625 0.0410501 0.0092766 -0.0269136 0.0955573 0.0848801 -0.0614383 -0.0832778 -0.0150059 0.0124743 0.0609999 0.0735851 0.00594516 0.0161423 -0.0436083 0.0146624 0.0264512 0.0351193 -0.00502277 -0.0188236 0.0199965 0.0453315 0.0425404 0.0835438 -0.065372 0.0397061 0.0680724 0.0148132 -0.00734869 -0.0416338 0.0205481 0.0046219 -0.0216317
— -0.0428501 -0.00402228 0.0391435 0.0105476 -0.0305874 -0.0175991 0.0341782 -0.0220123 0.0201873 0.0984901 0.12818 -0.0216424 0.0320854 -0.00237828 0.00391236 0.0709405 -0.0269649 -0.09133 -0.0901862 0.0561732 0.00898786 0.0743782 0.0224462 -0.0278807 -0.0653546 -0.0280934 -0.0189248 -0.0749094 0.0902573 0.0244991 -0.0394446 0.0662991 -0.0309784 0.0535872 0.0483478 -0.080768 -0.0399652 -0.036367 0.0341086 -0.0542249 -0.0143188 0.00582461 -0.0270798 -0.073079 -0.00620091 -0.0193548 0.0276999 0.0133056 0.0635073 -0.0566562 -0.11024 -0.129216 -0.0881579 0.0362016 0.0100252 -0.0711041 -0.0121258 0.00298102 -0.00904993 0.0769588 0.0341085 -0.0463443 0.0421691 -0.115369 -0.0287588 -0.0423973 -0.0505148 0.00275632 -0.0565918 -0.0466498 -0.0249006 0.0373413 0.0498709 -0.0178582 0.0420507 0.0225173 -0.0157958 -0.0360293 0.0129049 0.0450201 0.0750144 0.0847709 -0.003399 -0.0506724 0.0754411 -0.032979 -0.0329489 -0.0496914 -0.0463515 0.0469419 0.0523461 -0.037642 0.0187863 -0.0729196 0.027276 -0.0612492 0.0270953 -0.0345807 -0.0458673 0.0726268 0.092792 -0.0742218 0.0124834 0.0192452 0.0124195 0.0153155 -0.103245 0.0399663 0.217398 -0.120375 0.05179 -0.0183266 -0.0808607 -0.0778583 0.00597019 0.0359729 0.0834363 0.0274989 -0.0683294 -0.00181315 0.101807 -0.0464888 0.0132999 0.12996 -0.0532034 -0.0769662 -0.049034 -0.0512344 -0.000135949 -0.0738688 0.0685326 0.0693622 0.0679658 0.0519905 -0.0432362 0.00773394 -0.0125405 -0.0112236 -0.0217476 0.101949 -0.00844211 0.00219781 0.0182791 0.0525695 -0.00697101 0.174163 -0.0352222 0.00357188 -0.024907 0.10026 0.0565311 0.02568 -0.0238551 0.00945242 -0.0222137 0.00233347 0.0172847 -0.026267 0.133686 0.0465342 -0.0689749 0.0189556 0.019132 0.0217382 0.0427288 -0.0793305 -0.13169 -0.0370182 0.0195679 0.0228798 -0.0280718 -0.106349 -0.0863844 -0.0103431 0.0346655 0.0469602 0.08304 0.0826957 0.0204374 -0.00489967 0.00495959 -0.0902559 -6.16652e-05 -0.0643881 -0.0338861 0.0851448 -0.0448595 -0.0421905 0.0539723 0.00105477 0.0551344 -0.109856 0.0617128 0.00918075 -0.0555035 -0.14185 0.0460436 -0.0458268 -0.00861335 -0.0270414 -0.0621849 -0.139531 -0.145503 0.0508121 0.135335 0.024164 -0.0435394 -0.00876513 0.1569 0.0853581 0.0743757 0.0620414 0.0289007 -0.000845911 -0.0947321 -0.0326682 -0.0854392 0.0106437 -0.0109735 -0.0457936 0.0192675 -0.00694233 -0.144525 0.00763081 0.0231187 0.00213168 -0.041335 0.00991311 -0.0118261 0.00505947 0.0326553 0.0354737 -0.0223483 -0.0464149 0.00216536 -0.0234459 0.0519807 0.0502471 0.0149655 0.0197787 -0.0428044 0.0991432 0.0797252 0.0162125 0.00736682 0.0108702 0.147857 3.73379e-05 0.0145454 0.0190488 0.0169143 -0.0462964 -0.0670995 -0.010491 0.0531307 0.0168102 0.00967351 -0.00778573 0.0138573 -0.0267103 -0.0328009 0.0436246 0.0992269 0.0289014 -0.0274838 0.00849856 0.0930053 0.0133211 0.0270579 -0.0485564 -0.0123232 0.0289284 -0.0394896 -0.0429793 -0.0352471 -0.0526402 0.0872455 0.0264127 0.0430813 0.0572914 -0.0752351 0.0736169 -0.0389685 0.0610833 0.100436 0.0171496 0.0793145 -0.0364646 0.0720454 0.0229348 -0.0112055 -0.0515069 0.0361117 -0.00521441 -0.0193739 0.00383821 0.00107981 0.0102308 -0.0615832 -0.0458984
по -0.0446788 0.00909575 -0.0184791 -0.0163246 0.019272 0.0149017 0.0605123 -0.0454757 0.0153086 -0.0217663 0.101047 -0.0311835 -0.0694219 -0.00306929 0.0738202 -0.00193074 -0.0909975 0.0012607 -0.0108294 0.0844474 -0.0580744 -0.027148 -0.0392425 -0.0743817 -0.0746426 -0.0804312 -0.07044 -0.0431744 0.0979652 -0.0139528 -0.0474087 0.0911044 -0.0467871 0.0579168 0.0359979 -0.0485901 -0.0146442 -0.0054198 -0.031229 0.00177248 -0.0186438 0.0928265 -0.00723284 0.0118471 -0.0607299 -0.0628253 0.0840499 -0.00648721 -0.0118832 -0.0910127 0.0470366 -0.0894247 -0.0857462 0.019904 -0.0761581 0.0242643 -0.0355271 0.00632872 -0.00717842 0.0447282 0.0440832 -0.124187 0.0480322 -0.0422048 -0.0242751 -0.0544875 -0.0205549 -0.00442737 -0.0188591 -0.0363628 -0.0483181 0.0352195 -0.0543229 -0.0510878 0.012864 -0.134181 0.0698645 0.0900562 0.0451765 -0.0420305 -0.0136859 -0.0461431 -0.0655729 0.0190591 -0.134252 -0.069705 -0.116875 0.0873361 0.108304 -0.0372531 0.0813395 -0.0411976 0.0707296 -0.101325 -0.0229013 -0.100785 -0.0276377 0.0251727 0.0204597 0.0381676 -0.0120797 0.0271151 0.125851 -0.0158574 -0.0178896 -0.118192 -0.0140713 0.0615596 0.0644274 0.042775 -0.128583 0.00540152 -0.0743999 -5.45554e-05 0.0805971 0.0173067 0.0129954 0.104948 -0.0100014 -0.0564862 0.0930184 -0.0494687 -0.00848558 0.0754489 0.0468042 0.0449737 0.0348039 0.0908009 0.000502373 0.0327202 0.119663 0.0329312 0.0437958 0.00868075 -0.0132681 0.0211893 0.00248228 0.0830759 -0.00938086 -0.00614624 0.00427631 -0.0139357 0.0626253 0.0182291 0.00404833 0.0328244 0.031033 -0.161084 -0.0327438 -0.000296284 0.0729064 -0.0308523 0.0342041 -0.0640532 -0.0250131 -0.007114 0.024255 -0.00428725 0.132432 0.07004 -0.008848 0.0469036 -0.101135 -0.047764 0.0870455 -0.0480493 -0.0917743 -0.0198997 0.156593 -0.0150488 -0.0320467 0.0898362 0.00758213 0.00078425 -0.0725381 0.0561606 0.0617339 0.114079 0.0418621 -0.0983595 0.0381437 0.0223481 -0.0691577 0.0390737 -0.00923072 -0.0232276 0.0450141 0.039926 -0.069699 -0.0622169 -0.0484196 -0.140155 -0.0267118 0.0282753 -0.0741797 -0.0171074 0.0479037 -0.11485 -0.0600965 -0.0069715 0.011888 0.0356554 -0.0757738 -0.0183181 -0.0276402 0.015064 -0.0702558 0.0361088 0.0764614 0.0149308 0.141301 0.0146287 0.0270929 0.0433283 0.015813 -0.0331643 0.0736263 -0.126789 0.0302903 -0.0115091 -0.0384815 -0.0283261 -0.0855061 0.00653558 -0.0917007 -0.0487685 0.0376793 -0.0613335 0.151303 0.0442738 0.0607133 0.0293662 0.0439894 0.0455151 -0.0221009 0.0471472 -0.024805 0.00998482 -0.0424295 -0.00721442 0.0872473 0.0459145 0.0667438 0.0628019 -0.0395366 0.0293763 0.046591 0.0418967 -0.0104799 -0.00241415 -0.0147579 -0.0403235 -0.0415907 0.0252706 -0.0374694 0.103409 -0.0100099 0.0549013 -0.00524415 0.038147 0.0497286 0.0120254 -0.0122785 0.0335277 -0.0068687 -0.0232613 0.0668935 0.00486508 0.0739766 0.00729423 0.0244119 0.0453184 0.0432694 -0.0593231 -0.0684612 -0.0292447 0.0360333 0.0544035 -0.0239336 -0.0562832 0.0293269 0.0455569 -0.0335712 -0.0243984 0.086949 0.00729607 -0.00636155 -0.0311258 -0.0113915 -0.0361859 0.0954791 -0.104207 -0.0874349 -0.0295881 0.037227 -0.0783299 0.0558562 0.0378636 -0.0250841 0.0795643
категория -0.143481 0.000955116 -0.028507 0.0177597 -0.00440494 0.021036 0.0119602 -0.00711904 -0.0761004 0.0161099 0.0277705 -0.011961 0.0198545 -0.0424828 -0.0196297 -0.0202638 -0.00397171 0.0189747 -0.0595199 0.0922181 -0.0396501 0.0723105 -0.0834724 0.0677366 0.0247022 -0.0262216 0.0125244 0.0942561 -9.5681e-05 -0.0629809 -0.00146528 0.0545529 -0.0557821 0.0639235 0.117954 -0.0282164 0.0894575 0.073178 -0.0389991 0.11332 0.00453184 -0.00377605 -0.0638089 -0.0248109 0.0863846 0.025442 -0.08324 -0.0503789 0.0837474 -0.0402934 0.0404611 -0.0732106 0.0180062 0.0172967 -0.018727 -0.0843005 -0.00610639 -0.0549209 -0.00490221 0.0438075 -0.0429087 -0.0446585 0.0560424 -0.0047262 0.0222474 -0.00608544 -0.089187 0.00897394 -0.0935218 -0.0930695 0.00775402 0.0380415 0.0775037 -0.0142284 -0.0294641 -0.0432262 -0.079653 0.0216975 -0.0473794 -0.00943206 0.00779497 0.108882 -0.0536032 0.0238549 0.0622726 0.0131725 0.0360959 0.0346582 -0.069662 0.0369301 -0.0239696 0.012696 0.00802648 -0.0333919 -0.0137838 -0.0700199 -0.0313477 -0.00119166 0.0147008 0.00264778 -0.0113225 -0.136507 -0.0295619 0.0281137 0.0087374 0.0211476 0.00115668 0.025331 0.0245193 0.0177504 0.00273349 -0.0297139 -0.0496487 -0.0683656 -0.115166 0.00113097 0.00622358 0.0286275 -0.0100725 0.0164555 0.084683 -0.015376 -0.0236518 0.042172 0.0183728 -0.0132755 0.0232777 -0.000733491 0.00626824 0.0633246 -0.0189944 0.0059864 -0.0932796 0.0524801 -0.064977 -0.0234929 -0.0326526 -0.018252 0.0232849 0.154562 -0.0741107 0.0160256 0.0262211 0.0253412 0.0158631 0.048318 0.0186682 0.0261498 -0.115948 -0.0186475 -0.0482781 0.0401501 -0.0258486 -0.0413446 -0.118842 -0.139171 0.0289587 -0.0619341 0.0960514 0.0143916 0.0210949 0.0535034 -0.024395 -0.0764534 0.0834923 -0.0545779 -0.104295 -0.0696808 0.0592729 -0.0540753 0.0120966 0.0865031 -0.00678038 0.000520662 0.0177973 0.0588845 -0.082543 0.0545194 0.0306911 -0.0557498 0.0830458 0.0980594 0.0244025 -0.00480592 0.0113488 -0.00541466 -0.0336623 -0.00311058 -0.13285 -0.023977 0.0390357 0.0168215 0.0714279 0.0328308 -0.0140522 -0.109557 -0.0868408 -0.0321714 -0.0310073 0.0410331 -0.0236389 -0.0741551 -0.0402151 0.120256 0.0519186 -0.011312 -0.107049 -0.0459139 -0.00851422 -0.063362 0.0347887 -0.0583724 0.0448186 -0.0377175 -0.123713 0.0143118 0.144421 -0.0891376 0.0182788 0.0344359 0.0156519 -0.106248 0.00382225 0.0014673 -0.107436 0.0245381 -0.00997004 -0.136498 -0.0162319 -0.023743 -0.039024 0.148865 -0.0789435 -0.00447824 0.0681378 0.0453045 -0.00873046 -0.0503819 0.0588256 -0.00665391 -0.0772014 0.0193431 -0.0289838 -0.0434482 0.0352819 -0.0195652 0.0959302 0.053466 0.0631047 0.0328684 0.0225986 0.018726 -0.101528 0.0238545 -0.119138 0.0249709 -0.00296328 -0.056021 0.137717 0.00696449 -0.0531391 -0.0322296 -0.041049 -0.057132 -0.0700763 0.0210809 0.048216 0.0646033 0.0536232 -0.0242744 -0.0597706 -0.0595157 0.0123714 -0.039561 0.0427596 -0.0338299 0.0378205 0.0703988 -0.0137408 0.0928767 0.00924298 0.10794 0.0485153 0.0635304 0.0471321 0.0971376 -0.114166 0.0101371 -0.138823 0.0618678 0.0237375 -0.0522741 -0.0848665 0.0436618 -0.0124316 0.0199775 -0.00872723 -0.0255008 0.119019 -0.100161
не -0.115454 0.043238 -0.0584328 0.0670537 -0.0323289 -0.0279116 0.0371443 -0.0567539 -0.06003 0.0848128 -0.0542233 0.00245514 0.0175847 0.0455676 0.0681208 -0.084601 -0.0206204 0.0597896 0.00342995 0.0764077 0.0182672 0.0863049 -0.0353425 -0.0793061 0.00706568 0.11456 0.0154022 0.0567006 -0.020679 0.0124739 -0.0511323 0.0323034 -0.0110612 0.107483 -0.0588633 -0.0715581 -0.0350292 -0.0172736 -0.0309193 -0.0686422 -0.0202956 -0.074813 0.0262633 -0.0667553 0.072987 0.071826 0.0691983 0.0304083 0.0334248 -0.0425914 -0.0359566 -0.0919158 -0.0541478 -0.031504 -0.0614327 0.0545339 -0.0195843 0.0609291 -0.0548363 0.0307381 -0.0741543 -0.00377776 0.098875 0.010014 0.0747297 -0.0479981 0.02862 -0.01135 0.023379 0.0133806 -0.0251712 -0.0169198 -0.010483 -0.137109 -0.0441337 0.0937162 0.0591849 0.144248 0.0203123 -0.0438728 -0.0401096 -0.0398363 0.0538064 0.0439497 -0.0992183 0.101102 -0.0872981 0.00642879 -0.0438613 -0.0114044 -0.0851288 0.00453822 0.0648635 -0.0923156 -0.0496404 -0.00637491 0.0645198 0.00500934 -0.0443409 -0.00032642 0.0564546 -0.0152021 0.0889143 -0.0757789 -0.0711621 -0.10863 -0.0319405 -0.0393898 0.0937541 0.0328334 -0.0588789 -0.0308095 -0.0119709 -0.0431741 0.0221237 -0.0658191 0.0543414 0.0570583 -0.0251773 0.000765122 0.0783535 0.0522432 -0.00772873 0.180948 0.0326079 -0.0875042 0.0718413 0.0269281 0.0353423 0.0198657 -0.0473432 0.00992518 -0.0596258 0.073536 -0.0257621 -0.0204476 -0.00608509 -0.0467299 0.0542813 0.0671524 0.00380881 0.0456437 0.0689218 -0.0355181 -0.0168826 0.0438682 -0.0490863 -0.0395254 -0.0320044 -0.0751652 0.0306886 -0.0376985 0.0559684 -0.00582185 -0.0329819 0.0111232 -0.0501839 0.0697689 0.102461 0.0661876 -0.0611225 0.0741257 -0.0557946 0.0364983 -0.0479093 0.0677393 -0.0522003 -0.0726825 0.10027 0.0323552 -0.0410065 -0.0966178 -0.109396 0.0420178 -0.0636478 -0.0022278 -0.0160389 0.0174991 0.00222378 -0.0536887 0.000575184 -0.028083 0.0564669 0.0451593 -0.0352007 0.0383251 -0.015296 -0.0141242 0.0621118 -0.010154 -0.0172764 -0.135594 -0.0344658 0.0960355 -0.111464 -0.0535199 -0.0116549 -0.0426228 -0.0851819 -0.00509386 0.0690512 0.0452345 0.0536663 -0.0454321 -0.0307179 0.0432919 -0.0888493 0.00392026 0.0729163 0.0136309 0.17654 -0.0237421 -0.00770954 -0.0847993 0.00112818 -0.0218842 -0.0873374 -0.0842347 -0.0721326 0.019364 0.00857649 -0.0770443 -0.0591654 0.024332 -0.00327939 0.0193841 -0.0864675 -0.0325774 -0.071755 0.0575746 0.00801076 0.0793873 0.0153518 -0.0172816 0.01732 0.0797378 0.100897 -0.00955121 -0.0536141 -0.0468043 0.0215436 0.00586395 0.0390654 0.048338 -0.0382903 0.0882375 0.122548 0.0314508 -0.00912127 0.036332 0.0279728 -0.0831437 -0.0677768 0.000971269 0.0157506 0.0243557 0.00564854 -0.0495426 -0.0530119 -0.00143467 -0.00340619 -0.00158369 -0.166939 -0.092094 -0.0564674 -0.0467423 -0.0245458 0.0622166 -0.0359446 -0.025027 -0.082412 -0.0104901 0.0820975 0.0404138 -0.0650844 -0.0650908 0.0207604 0.0592764 0.0221388 -0.0126638 0.0781635 -0.0362411 -0.0598919 -0.0488531 0.00231939 -0.067991 0.0577574 0.0942143 -0.124933 0.0359438 -0.0201982 0.0664632 -0.0135473 0.00568269 0.0351623 -0.0567643 -0.00948006 0.00514659 0.0296582 0.0302326
 — -0.0831577 -0.00691484 0.068186 -0.00360428 -0.0780308 0.0343916 0.0215362 0.0525455 -0.0218496 0.0431611 0.122524 -0.0646232 0.0528403 -0.0168161 -0.0467632 0.0487043 0.0224996 -0.0566361 -0.0248305 0.0062847 -0.00132183 0.0549409 -0.0516086 -0.023743 -0.0384729 0.00495288 0.02722 -0.0227606 0.0278737 -0.0378573 -0.0441715 0.116142 -0.0110286 -0.00808652 0.0492584 -0.00728194 -0.00951298 -0.0300357 0.0357702 0.00305418 -0.00594728 -0.0137331 -0.0859157 -0.0336429 -0.0307226 -0.0848848 -0.0496434 -0.0267928 0.0730338 -0.0215521 -0.0265974 -0.0626711 0.0201756 -0.0293018 0.0397627 -0.111271 0.033357 -0.052431 -0.0261562 0.0898296 0.0235318 -0.0850732 -0.000469302 -0.0417887 -0.0167039 -0.0656781 0.000108778 -0.0501932 -0.065749 -0.0164594 0.0336184 0.0587799 0.0429442 0.0333496 0.0126884 0.0050875 -0.00210264 -0.0128286 -0.0679782 0.0390757 0.106742 0.0186735 0.0287171 -0.00364353 0.00240204 0.0104512 0.0617118 0.00500975 -0.116625 0.0169042 -0.0613092 -0.0651826 0.0689389 0.0181804 0.0195123 -0.00885956 -0.026362 0.0491087 -0.03509 0.0350757 0.0302757 -0.0175233 0.0553179 0.0838296 0.065921 -0.00435818 -0.067317 -0.00146997 0.130034 -0.0766969 0.104329 0.0280315 -0.0633553 -0.112601 -0.015061 0.045665 0.0292175 -0.0343007 -0.0639669 0.0196761 0.0727384 -0.060224 -0.0568506 0.115472 -0.100698 -0.0357147 -0.0137663 -0.0123298 0.0777168 -0.145028 0.0954982 0.036016 0.0282913 -0.0260426 -0.0449047 -0.0399075 0.0500656 -0.0450782 0.0394998 0.0426749 -0.0362958 -0.0517318 0.0806372 0.059753 -0.0119008 0.174221 -0.0117486 0.00515745 0.0201473 0.0539226 0.118598 0.00489279 0.00188981 -0.0467715 -0.0243922 -0.000683801 -0.0675738 -0.0163094 0.119441 0.00359495 0.0319402 0.0236603 -0.0969152 -0.00120998 0.026999 -0.043217 -0.0531074 -0.034812 0.11197 0.0744526 -0.0125855 -0.00848376 -0.0575334 -0.0652392 0.0311789 0.0529783 0.101263 -0.0126728 -0.00356754 -0.0314867 -0.03184 -0.0383575 0.00949408 -0.00258604 0.00289257 0.0864812 -0.0753308 -0.0494922 0.0676542 -0.0152064 -0.00298364 -0.146719 0.0159603 0.045901 -0.0868711 -0.114752 0.0217107 0.0129519 -0.0894084 0.0159284 -0.0613282 -0.0922007 -0.149483 0.0219439 0.0932308 0.00150092 -0.0913087 -0.00381129 0.0857909 -0.012723 0.146294 -0.00898762 0.0472652 -0.00473193 -0.109641 -0.0755726 -0.0504132 -0.0283466 -0.0398613 -0.0575851 0.0124426 -0.0146671 -0.0965319 0.165296 -0.0616735 -0.0113818 -0.0555069 0.021235 0.0591959 -0.0168319 0.00641207 0.0335321 -0.077828 -0.103787 0.0393024 0.0329345 0.0111393 -0.0456132 -0.046659 -0.0207789 -0.0730467 0.0913993 0.00892542 -0.0769585 0.00362525 -0.0561807 -0.00180634 -0.049962 0.00215536 -0.0147416 -0.0274066 -0.0621473 0.0337793 -0.150219 -0.0252552 0.0339912 -0.0472591 0.0156578 0.033339 -0.00160545 0.0181808 0.0464492 0.0917328 0.081698 -0.0401927 -0.0340176 -0.0160835 0.0323601 0.0695018 -0.115551 -0.0997004 -0.00520095 -0.0563881 -0.0328912 -0.0125267 -0.0327621 0.0533882 0.0244697 0.0630769 0.042888 -0.0375479 0.0478579 -0.117116 0.159166 0.0778682 0.0316647 0.0274598 -0.0280014 0.0968073 0.00911774 0.00881401 -0.0598256 0.0179403 0.00672675 -0.000250765 0.031704 -0.0637196 0.00388226 0.0260183 -0.0701222
года -0.023304 -0.0758782 0.0215527 0.0625527 -0.030014 -0.044258 -0.00386245 -0.00498926 7.4672e-05 -0.0219195 -0.0244095 0.0178284 -0.0168695 0.00381907 -0.0177369 -0.0916616 -0.090076 -0.0564217 -0.0280967 0.091875 -0.0122184 0.0701138 -0.0337859 -0.00967299 -0.0645143 -0.102921 0.0202181 -0.0824126 0.0624371 0.00505601 -0.123226 0.0295773 -0.0353099 -0.0327211 0.0281623 -0.00823638 0.00326981 0.0275355 0.0620013 0.0122053 0.0537902 -0.0324656 -0.0207284 -0.0519259 0.0206215 -0.101866 -0.0360229 -0.0453571 0.0210585 -0.0698323 0.019451 -0.0320345 -0.0426867 0.0992603 -0.0653386 -0.0718583 0.0186601 0.110338 0.0981322 0.0306901 0.00843031 0.0134768 0.126855 -0.00733174 0.0298163 -0.0604227 -0.120238 -0.00846206 -0.115346 0.0337978 0.0670704 0.0331404 -0.0938629 -0.0290854 0.0120717 0.0241171 0.0312287 0.000633602 -0.0315367 -0.0786789 0.0998765 0.0899945 -0.0265089 0.0279524 0.0022386 0.0272238 -0.0530362 0.010745 0.000547549 -0.00997992 0.00333873 -0.0331745 0.0646511 -0.00513386 -0.00810748 -0.0517399 -0.0141989 0.0269155 -0.0337991 0.0476389 -0.0365158 -0.00734727 0.0405688 -0.0153072 -0.0469766 -0.0419838 -0.0655956 0.163383 -0.0377696 0.0164994 0.0127638 0.0223908 -0.0560115 0.0227943 -0.0681944 -0.0376023 0.0513104 0.0944834 0.0885291 0.0164369 0.088102 0.0803365 -0.058986 0.128223 0.0186112 -0.118654 0.0177663 0.0466393 0.0312718 0.0758684 -0.0167085 0.0168175 0.0771987 -0.047741 0.0683915 -0.0152761 -0.0306711 -0.00334969 -0.0215813 0.0860166 0.0100217 -0.0365924 0.0233417 0.0359031 0.0367662 0.169209 0.0547951 -0.0393224 -0.104174 -0.00287039 0.0398618 0.0257171 -0.0126563 0.0657843 -0.132798 -0.0387108 -0.0706728 -0.0108433 0.122062 0.0372567 0.0437784 0.0608023 -0.0484499 0.038601 0.0985718 -0.0815715 0.0250295 0.0762841 0.0506458 0.0072699 0.0158424 0.0414955 -0.09177 -0.0341535 0.0888407 0.00335501 -0.0633789 0.0700711 -0.0580066 0.00591655 -0.0236102 0.0157793 -0.0566402 -0.00178888 -0.0546527 0.0319671 -0.100998 -0.0155831 -0.0760086 -0.0254221 -0.04008 -0.11558 -0.0201511 0.0635552 -0.054925 0.0592888 -0.0322959 -0.0487763 0.0177007 -0.0408188 -0.00257619 -0.039415 -0.0243378 -0.0610369 -0.016784 -0.0225917 0.000346496 -0.0589269 0.145748 0.0810688 0.175418 -0.132171 -0.0335345 0.00159565 -0.0882846 -0.0217206 -0.0673283 -0.112715 -0.0053361 -0.107845 0.026898 -0.0404577 -0.0450823 0.0545725 -0.00209621 0.0191399 -0.00542668 -0.052842 0.0325904 0.0414779 0.0763229 0.0249086 -0.041211 0.0286292 0.0606313 0.0560119 0.0233715 -0.0538908 -0.0181063 -0.0034373 0.0390436 -0.0248209 0.0181121 0.0661106 -0.0362849 -0.0765035 0.0105683 -0.0500057 -0.0126278 0.0102614 0.000546176 -0.0612964 0.011857 -0.0183012 -0.0347234 0.0766721 -0.000588961 0.0445637 -0.0706509 0.0748317 0.117375 0.0381259 -0.0222644 -0.0383187 0.103788 -0.0182861 0.0365065 0.0180826 0.00731143 -0.0285462 -0.00852132 0.0440275 -0.00416116 0.0394548 -0.12268 -0.0762837 0.0841308 0.127344 0.0898399 -0.0700338 -0.0408561 -0.0163973 -0.0496274 -0.044506 0.101821 0.0378789 -0.0367847 0.0358974 0.0572231 0.0055285 0.0824578 -0.0347977 -0.0738102 0.0263959 0.0550166 0.0830434 -0.0743126 -0.0435905 -0.00619174 -0.0529764
utc -0.0792307 -0.0763996 -0.0312713 0.0770726 -0.141292 0.0179526 -0.0114306 -0.144845 -0.0448103 0.0203736 -0.0515164 -0.04838 0.0362365 -0.0404048 0.0359993 -0.074844 -0.0352203 0.0140011 -0.011081 0.0747085 -0.00386187 0.00208631 -0.0229679 -0.0178047 -0.06935 -0.0466852 0.0669618 -0.00800747 -0.0433784 0.106301 -0.0275226 0.0319572 -0.0612741 -0.00235319 -0.0300196 -0.0205583 -0.079575 0.0958415 -0.0270941 -0.0397534 -0.017534 -0.038275 -0.0823377 -0.0132501 0.0302191 0.00508068 0.0258232 0.00964169 -0.0469513 -0.0259842 -0.00431845 -0.0953219 -0.0976114 -0.0885178 -0.0778656 -0.0664374 0.0460126 0.0214512 -0.0921496 0.0887438 0.0175807 0.0281051 0.0847657 -0.0346109 0.0456034 0.0312544 0.071588 0.0297988 -0.0171282 0.0232352 0.045527 0.0516858 -0.00406887 -0.0272966 0.0377198 0.0999188 0.0847716 0.047879 -0.00985519 0.076084 -0.0214541 0.0503724 0.0554737 0.105917 0.0562025 0.025056 0.0392761 0.0253638 0.0360829 0.0492092 0.0197686 -0.0603316 0.0233578 -0.0249686 0.00596323 0.053004 0.028046 0.0270713 -0.0107316 0.0515118 -0.00928747 -0.031516 0.0159889 -0.0317776 0.0116388 0.0167549 -0.0529828 0.0170292 0.0293865 -0.0192856 -0.121623 -0.0418586 -0.0250364 -0.00991903 -0.0223645 -0.0529579 0.0271661 -0.0284951 0.0417478 0.0085632 0.0642013 -0.0472571 -0.0306794 0.176234 0.0231366 0.00371392 -0.0434671 0.0221317 0.074108 0.0894325 -0.0198279 0.0885647 0.0380219 0.0323105 0.0725812 -0.0693691 -0.0562129 -0.0718144 0.0333568 0.126115 0.0359749 -0.0258655 0.00247842 0.0465867 -0.0398439 0.0117992 -0.0485301 -0.0244102 -0.0832081 -0.0516585 -0.0039526 0.0121033 0.0173576 -0.0117735 -0.068377 -0.000155174 -0.0855677 -0.036008 0.0649975 0.078016 -0.0889642 0.0320851 -0.105735 0.00981404 0.030738 -0.0388653 -0.0546607 -0.106937 0.0665463 0.0346359 -0.0591336 0.0309415 -0.165748 -0.0712712 -0.0673456 -0.0476118 -0.0170108 -0.0386599 -0.0238411 -0.149875 -0.00395407 -0.00794632 -0.0183198 -0.117348 -0.084339 0.0504282 -0.0711759 -0.0379555 0.0202488 0.0756611 -0.0240347 -0.121467 0.0428503 -0.0160449 -0.0485731 -0.0431327 -0.0346536 0.0222149 -0.156252 -0.0629087 0.0583757 0.031017 0.071314 -0.075702 0.0260127 -0.00719643 -0.0568827 -0.0143296 0.0584862 0.0517709 0.11956 -0.0191152 0.0662783 -0.0753782 0.0569101 0.0574016 0.0452325 -0.117255 -0.0280747 0.0273055 -0.0247647 -0.0687971 0.0145465 -0.0512949 0.0153616 0.0675346 -0.0280463 -0.0389292 0.0302902 -0.00958967 -0.042335 0.0888743 0.0135009 -0.0274199 -0.00672571 0.0429962 0.0392126 -0.00834368 0.0220394 0.0202322 0.012339 0.104527 0.031119 -0.0105399 0.0270212 0.0449333 0.0560639 0.097976 0.000475108 0.00886563 -0.00767105 -0.117813 -0.0806145 0.0447972 0.0434312 -0.0273598 0.143769 -0.0467637 0.0690626 0.00608589 0.0523344 -0.0500565 -0.00826473 0.0117909 0.0262623 -0.0470229 -0.0252478 0.0389691 -0.136699 -0.0470268 -0.0234437 -0.0140553 0.0728641 0.075084 -0.0302426 -0.00823279 0.0352067 0.0131034 -0.0313069 -0.0914211 -0.0206538 0.0452286 -0.113832 -0.0180565 0.0292069 -0.0731781 0.0465645 0.0427589 0.0254804 0.0598104 0.0752944 0.084178 -0.0742533 -0.00169674 0.0803405 -0.0760549 -0.0827707 0.080084 0.118967 0.0425765
из -0.00197628 -0.0803745 0.00408056 0.0469776 0.0250692 0.0163144 0.0181498 -0.110982 0.0200287 0.141224 0.0739299 0.0449282 -0.0753183 -0.0628212 -0.164603 -0.00803276 -0.0279011 -0.0804041 0.088392 0.0679973 -0.0895459 0.056237 -0.103551 0.0444376 -0.0572606 -0.000369418 0.0431543 0.0797502 -0.0453206 -0.0412217 -0.00680882 0.105465 -0.0333537 0.0808709 0.0302032 -0.0994194 0.14506 -0.0229079 0.0249289 -0.00785192 -0.0435875 -0.056229 -0.0134066 -0.0551148 -0.0300935 0.00106524 0.0375785 -0.0880928 0.0503887 -0.0700819 0.0180831 0.0238229 -0.0341278 -0.0563774 0.00600841 0.024621 -0.103931 -0.0374315 -0.0697534 0.0547195 -0.00109808 -0.0694609 0.0706958 0.000785198 -0.0208519 -0.0230471 -0.0994315 -0.000675774 0.0565213 0.0211533 -0.0162994 0.00130598 0.114061 -0.105507 0.0279698 0.0459449 0.0584231 -0.0317837 -0.0608141 -0.118308 0.15323 0.0344294 0.0552126 0.00623437 -0.0763656 -0.0974767 -0.0313319 -0.0341546 0.0182564 0.0304204 -0.0704895 -0.0272201 0.0225761 -0.0741017 0.0527685 0.023471 -0.0609529 0.0224511 -0.0465569 0.0663306 -0.00581865 -0.0169337 0.09078 0.060617 0.00535124 -0.0728236 0.0296647 0.00535149 0.012384 0.0117253 -0.0387473 -0.0253173 0.0698629 -0.0301987 0.0280171 -0.0832593 0.0428688 -0.0382983 0.00502032 0.108568 -2.23911e-05 0.0443894 0.0225037 0.13199 0.0058681 0.00897534 0.126385 0.0273676 0.0654071 0.05531 0.0610239 0.00422595 0.0241882 0.0414036 -0.0398129 -0.0695104 -0.0490569 -0.0434299 -0.0683857 0.0332782 0.113374 -0.0521535 0.115008 -0.0596349 0.0217154 0.0946347 -0.0374365 0.0363068 -0.0159503 0.0347932 -0.021794 -0.0859513 0.0103821 -0.0161489 -0.147392 -0.0562913 -0.0356255 0.0226338 0.0615072 -0.00631384 -0.00277463 0.0320687 0.0420041 -0.00522623 0.0527917 -0.0581191 -0.0539541 -0.0167175 0.058495 -0.0313809 -0.0919638 -0.0508443 -0.0624006 0.0543676 -0.109002 0.123035 0.059892 -0.0400407 0.0735137 0.0152426 0.00091416 0.0146198 -0.0456865 0.0493606 -0.0563927 0.00238384 0.0722516 0.0143429 0.042718 -0.0791701 0.0954059 -0.0969641 0.0435765 0.0729825 -0.0332396 0.01944 0.00651321 0.0289706 0.0716201 -0.0344519 -0.0307574 -0.0707025 -0.0421298 -0.126394 0.0175702 -0.0454823 0.0484205 0.085338 0.0508149 -0.0198684 0.16285 -0.061726 0.0359103 0.00854514 0.0865446 -0.00461001 -0.0234607 -0.102931 -0.0259697 -0.0120268 -0.000373846 0.0602916 0.0191371 0.107408 -0.0704328 -0.0380695 -0.109585 0.00435744 0.0396247 0.0263442 -0.0181371 0.047396 -0.0484642 0.00625909 -0.0559789 -0.0230083 0.0101557 -0.0651756 0.0642161 0.0202488 0.0359946 -0.0825011 -0.00167843 0.0282881 -0.00352425 0.0750355 0.0113349 0.00955973 -0.0342152 -0.00499334 0.0311143 0.00667378 -0.00859141 -0.00984102 -0.0668229 0.0370765 -0.00221951 0.0330629 -0.0931691 -0.00530929 -0.0268943 0.0018692 0.00590318 -0.0226452 -0.160635 -0.0237622 0.0159409 -0.0247855 0.00124304 -0.0332151 -0.00576634 -0.11016 0.0273573 0.0152608 0.00596692 0.0181179 0.0656166 0.055585 0.00655961 0.0056839 0.11323 0.0138997 -0.0404514 -0.0156331 0.0567244 -0.0467471 0.0845363 0.071832 -0.00581081 -0.0304529 0.055677 0.0384822 0.0419121 0.0209023 0.0120587 0.0409901 -0.019546 0.0202703 -0.0381037 -0.0651464
а 0.0259697 -0.000284988 0.0143651 0.0748486 0.0440599 0.0996035 0.0199248 -0.0776873 0.0140997 0.0748865 0.0824453 -0.142953 -0.0197623 0.0390837 -0.0347233 -0.0232851 -0.0715433 0.0223869 -0.0223964 0.0769243 0.0621875 0.0332151 -0.0892005 -0.000156758 -0.04646 0.0192929 0.0566171 -0.0402958 0.00492309 0.108184 -0.0503413 0.123684 -0.0616254 0.042273 0.0285196 -0.0894643 -0.0838751 0.0257477 0.0790837 -0.0868293 -0.0377467 0.063829 0.0189469 0.0514446 0.00513719 0.0724514 -0.00236658 -0.0613486 -0.0122187 -0.0685724 -0.0594704 -0.114074 0.00219791 -0.0763426 -0.0756447 0.0297936 -0.0640158 0.0688123 -0.0883997 0.121627 -0.0259903 -0.123038 0.0137369 -0.0589521 -0.025441 -0.0840735 -0.0124501 0.0124161 -0.00809107 0.0463878 -0.116747 -0.0109054 0.0281622 -0.00197248 0.0172984 0.0428697 -0.0220692 0.0652637 -0.0503449 -0.0173447 0.0750663 -0.01251 -0.124306 -0.00274344 -0.0445793 0.0494009 -0.0949672 0.0134893 -0.0481042 -0.0550938 -0.00107244 -0.032984 0.0549404 -0.0641555 0.0407586 0.116607 -0.000414454 -0.0310198 -0.0445712 0.000114117 0.000578533 -0.016627 0.0252494 -0.0573092 -0.130712 0.0139231 -0.0381344 0.00879965 0.0300274 -0.00507154 -0.0134401 -0.0595425 -0.106867 -0.0141686 -0.0747785 0.0316144 0.141121 0.116234 0.0381084 0.0451811 0.0352488 0.0539246 -0.0734069 0.149679 0.0419212 -0.0617475 0.057777 0.0276781 0.00758685 -0.0202462 0.0583324 0.00983214 -0.00825046 0.0539866 0.0156269 0.0524726 0.0195965 0.0249936 -0.0795335 -0.0119396 -0.040442 0.0794582 0.00458332 -0.0440951 0.0888416 0.0811789 -0.0349586 -0.0472074 -0.016613 -0.0426931 0.0132107 -0.0619032 0.0668092 -0.0739957 0.0207042 0.004329 -0.0121059 -0.000608465 -0.0233131 0.0157776 -0.0419239 0.0480171 0.00705314 0.0842572 0.110159 0.0407465 -0.0220723 -0.0678628 0.0866886 0.0317651 -0.0497704 -0.0565502 -0.0825303 -0.0116662 -0.0064749 0.079961 0.0421156 0.0111828 -0.00655286 0.0777769 -0.0397648 -0.0749202 -0.0548261 0.0907612 0.0486012 0.087304 -0.00681877 -0.134258 0.0689508 -0.100748 -0.0709057 -0.0446396 -0.0355367 -0.0219783 -0.0486777 -0.037707 -0.0210228 0.0088202 -0.10913 -0.0494211 0.103614 -0.0216525 -0.00214179 0.0743283 0.0506859 -0.0514701 -0.0400479 0.00691537 0.063988 0.0320515 0.0846277 -0.0810957 -0.0306197 -0.0028497 -0.00984098 0.0397251 -0.0351959 -0.0912046 -0.154239 -0.0193855 -0.0101034 -0.0390695 -0.0798267 -0.0206248 -0.0592837 0.0557573 -0.0736404 -0.0875572 -0.0566895 0.0627519 0.0786885 0.0149754 0.0426892 0.0300926 -0.0246087 0.0380684 0.0504194 0.0081765 -0.030422 -0.0172709 -0.0108037 -0.00202967 -0.0427546 0.0621925 0.00748396 0.142339 0.0832073 0.0168745 -0.00642854 0.0444647 -0.0398737 0.023032 -0.0463339 0.0123935 -0.0433486 0.0570477 -0.0123671 -0.044456 -0.0879438 0.0207535 0.0199194 0.073406 0.087688 0.0038578 -0.0313 -0.0347641 -0.0713193 -0.0312812 -0.0486108 0.0272537 -0.0643334 0.00729798 0.0150256 -0.0574128 -0.0195577 -0.0738352 0.032698 0.092623 0.0381152 0.00830381 0.0435932 -0.0317473 -0.0465009 0.0213604 0.0541275 -0.0811996 0.00086142 0.101389 0.0328647 -0.110429 0.00173598 -0.101421 0.0646504 0.0472515 0.00656931 -0.00300959 -0.00547506 0.0743745 0.00698535 0.0277774
что -0.031426 0.0306067 -0.084511 0.0492025 0.0702013 0.0519809 -0.0215917 -0.114618 -0.00378971 0.108389 -0.00531294 -0.0210584 0.0320494 0.0238401 0.0335938 -0.0234962 -0.0103728 -0.00812481 -0.0192786 0.0205488 -0.00383493 0.126087 -0.0251724 -0.124771 -0.0290241 0.0925257 0.0615254 0.0791531 -0.101128 0.0805847 -0.0516861 0.0487091 -0.110252 0.0823468 0.0225346 -0.0020311 -0.0403761 -0.00427167 -0.026331 -0.052846 0.0359427 0.0670829 -0.0433401 -0.00685126 0.0659689 0.0530151 0.0146562 -0.0631624 -0.0319565 0.0758638 -0.00713939 -0.0531275 -0.0381136 -0.0270464 -0.0779968 0.0840231 -0.0471823 0.0857795 -0.00574185 0.0326768 -0.0631649 -0.0155979 0.0773459 -0.0452182 -0.00772587 -0.110569 -0.0153076 -0.00181712 0.0186426 0.0170871 0.0409515 0.013188 0.0676256 -0.059262 -0.0457571 0.0181433 0.0393663 0.0593148 0.0494068 -0.0224871 0.039922 -0.0659376 0.0140714 -0.00881103 -0.0370581 -0.00700115 -0.108012 0.0447828 -0.0553836 -0.0854569 0.0602116 0.0436837 0.114437 -0.036078 0.0112787 0.00647928 0.0990873 0.0172754 -0.0384986 -0.0309991 0.0558517 -0.027623 0.0315136 -0.0671064 -0.0157177 -0.0242501 -0.0351798 -0.0392203 0.0442192 0.00712212 -0.00834515 0.0237782 0.0301842 0.0329965 0.00835312 -0.0903161 0.0834265 0.107191 -0.0520127 0.0106162 -0.0306764 0.0550511 0.00864574 0.113758 0.0156743 -0.0182166 0.0654067 -0.00870323 -0.00101812 0.0663136 -0.0618361 0.00194605 -0.0128822 0.00346021 -0.0197409 0.0104814 -0.0480018 0.0630579 0.0825922 0.0361221 -0.0126636 0.0464771 0.103544 -0.0842802 -0.0353667 0.0332091 0.00404774 -0.041778 -0.0119704 -0.0204302 0.0810145 -0.0776127 -0.00149325 -0.00261462 -0.0576945 -0.0451191 -0.0361777 0.0014093 0.0631456 0.0436379 0.00294763 0.0949627 -0.065138 0.0275708 0.0071791 0.00718293 0.0164139 -0.0483989 0.0693996 0.0484622 -0.0534799 -0.078932 -0.125138 0.0323017 -0.0273939 0.1244 -0.0568844 0.080493 -0.0553275 -0.0517124 0.055272 -0.0595539 0.0226889 0.140853 -0.078382 0.0630306 0.0430872 -0.0428865 0.12239 -0.0517673 0.017471 -0.166568 0.00425215 0.0626674 -0.0408733 -0.0133313 -0.00590384 -0.0171756 -0.166481 0.0292408 0.0221374 -0.0428673 0.034209 -0.0116025 0.0473838 -0.000373966 -0.00134234 -0.0709263 0.070045 -0.0216149 0.109716 0.0298185 0.0948402 -0.0778343 -0.0252412 -0.0346111 -0.0569261 -0.0801911 -0.000401017 0.0875406 -0.0874526 -0.0338605 -0.0427652 0.0110775 -0.0540283 0.0333792 -0.0730799 0.0384041 -0.119893 0.0177443 0.102452 0.00886955 0.0247079 0.007839 0.03875 0.109183 0.0440327 -0.0477784 0.0235397 -0.00900766 0.0467823 -0.0653281 0.0264357 0.00325344 -0.0956065 0.0910036 0.128134 0.0250693 0.0247673 -0.011573 0.0640566 0.0250065 -0.0404399 -0.0121295 -0.0126967 0.0264355 0.00696344 -0.0245098 -0.0312367 -0.010223 0.0965281 0.0129262 -0.0598929 -0.129022 -0.0585021 -0.0341307 -0.0701313 0.096592 -0.0346429 -0.0647339 -0.0931002 -0.0259127 0.140159 0.0613685 -0.144881 -0.0442148 0.070536 0.0230236 0.0317482 0.0109496 0.023014 -0.0358278 0.026692 -0.120002 0.0503818 -0.0413457 0.0259237 0.0762072 -0.0211959 0.0407844 -0.0277498 0.0507345 0.00420232 0.00295114 -0.0339227 -0.0680765 -0.0533219 0.0495786 0.0265491 -0.0343964
к 0.0257829 -0.0499855 -0.0806831 -0.0420836 -0.0683396 -0.0200948 0.0125171 -0.0813245 0.024017 -0.0336915 -0.0179955 -0.0922178 -0.0206964 0.0948352 -0.0215944 -0.0797747 -0.0206902 0.0752282 0.0343827 -0.00685824 0.0325171 0.1433 -0.0802832 -0.0562036 -0.0583913 -0.0287772 0.0754444 -0.0591699 0.0157217 0.102534 -0.136737 0.143332 -0.108433 0.0600744 0.00575474 -0.117151 -0.0440073 0.0141433 -0.0742585 -0.100974 0.0181682 -0.00202774 0.0718836 0.0156725 -0.0495788 0.012392 0.0408211 0.0215013 0.0660696 -0.00936466 0.0609637 -0.0617178 0.0112846 0.0197094 -0.00314948 0.114059 -0.034011 -0.0484322 0.0491464 0.0730473 0.0282217 -0.147086 0.0360494 -0.0296781 -0.0049371 -0.0934284 -0.116971 -0.0050862 -0.0436835 0.0584239 -0.0129361 0.0159519 0.072687 -0.0912441 -0.0373269 0.0177272 -0.015894 0.050851 -0.00514096 -0.120501 -0.00446615 0.0359271 -0.0775369 -0.0253506 -0.0587256 0.0676858 -0.0252188 -0.0311133 0.0998559 -0.0443913 -0.0889162 0.0105781 0.0425488 -0.0987458 0.0200963 0.0786884 -0.0880652 0.0240282 0.00752046 0.0180146 -0.0562384 0.0575575 0.0399946 -0.0865282 0.0208053 -0.0277352 -0.037871 -0.00670507 -0.101864 0.0103678 -0.0450411 0.00382833 -0.0617426 -0.0465804 0.0560682 0.0190972 0.0955549 0.0754503 -0.0861113 0.080807 0.011995 -0.0367234 -0.0390383 0.133339 0.0846477 -0.0250656 0.0109181 0.0399006 -0.00756234 -0.00432445 0.02438 0.00131812 -0.0153697 0.031248 0.0126761 0.0693453 -0.0145296 0.00371925 -0.0363771 0.0194657 -0.0456819 0.0725339 0.0577115 0.0784975 -0.0966659 0.0247767 0.00528597 -0.0212508 -0.00598648 -0.102424 -0.106712 -0.0605879 -0.0341837 0.00172887 -0.0204377 -0.0827111 -0.0885836 0.00344669 0.041135 0.0765472 -0.00125393 -0.0279445 0.00641314 -0.00635581 0.0411231 -0.0330593 -0.0925409 -0.0569647 0.107622 -0.0159979 -0.0724433 0.012237 -0.00591596 -0.0478469 0.0489967 0.0672512 0.0383419 0.0955022 0.0907179 0.010013 0.0275546 -0.136251 -0.0910398 0.0741093 0.0534098 0.128965 0.0835999 0.0589818 0.0462148 0.0141097 -0.106214 -0.0235509 0.0676921 0.0293298 -0.00649779 0.0189848 -0.0422075 0.0483807 -0.00253878 0.000722209 -0.110396 -0.0835436 -0.0385214 0.0601793 -0.0369022 -0.0790434 -0.0530715 -0.0400396 0.0620865 -0.0091971 0.045171 -0.054888 0.0491632 0.0220756 0.0527172 -0.0632633 0.03642 -0.100681 -0.00758712 0.044423 -0.0292458 0.0205401 -0.0473892 -0.019746 -0.0319642 -0.0627244 -0.0387534 -0.0211289 -0.041994 0.113032 0.0417151 -0.00772605 0.0454868 0.0544939 -0.0189865 0.0356409 0.0500716 0.0159209 -0.0353585 0.0624429 0.0328635 0.00598267 0.0229085 -0.00927266 0.0161285 0.0285765 -0.0192019 -0.012395 0.0303393 0.0366974 0.0394717 -0.0331909 -0.0736088 -0.0628717 -0.0175381 -0.0552301 -0.0391483 0.0394073 -0.0440015 0.0372518 -0.0214301 0.0787184 -0.00729013 0.0725819 0.101543 -0.0396439 0.0326489 0.031979 0.0175049 -0.0416768 -0.034191 -0.0699899 0.0303486 0.0190272 -0.0345514 9.49467e-05 0.00843074 0.113809 -0.0982844 -0.0939952 -0.0146873 0.00620511 0.0900313 0.0484674 0.0452375 -0.0695542 0.0603581 0.0532024 0.0557937 -0.00756341 -0.0645768 -0.0594809 -0.00831103 0.0106027 0.041206 -0.110411 -0.00393318 0.0578193 0.0995108 0.0546943
году 0.00216492 -0.0164435 -0.0397374 0.0307214 -0.00276467 -0.00993463 -0.0153283 -0.0265068 0.0272139 0.111653 0.0782495 -0.0351626 -0.00237603 -0.035152 0.0224389 -0.0665694 -0.00569381 -0.0516266 -0.0481385 0.0590012 -0.0101486 0.0329862 -0.0130579 -0.149503 -0.110313 -0.0280682 -0.0229215 0.00248093 0.0714995 0.110039 -0.0882909 0.0602057 -0.00809801 0.0483813 0.0460123 -0.0419811 0.0310831 0.0171262 0.0444508 -0.029752 0.0369098 -0.0373011 0.0140794 -0.0188508 0.0506564 -0.0353336 0.0171125 -0.0269013 -0.0209718 -0.0595695 0.0489261 -0.02965 -0.00168118 0.116888 0.0067811 -0.0333388 -0.0237541 0.0546368 0.028562 0.0950539 0.0491431 0.0149607 -0.0123082 0.00858629 0.0584716 -0.0543276 -0.0972363 -0.0059687 -0.00355857 -0.0019647 0.0222206 0.0291739 -0.0426384 -0.0102717 -0.0198931 -0.0405198 0.0294051 0.0418373 -0.0236617 -0.03014 0.0518163 0.0346231 -0.0614927 -0.00175925 -0.026657 -0.0230821 -0.0363203 0.0441159 -0.0747329 0.00189516 -0.112028 -0.0516608 0.0535678 0.0292334 0.0408995 -0.033276 -0.0261604 0.0444751 -0.0877515 0.0513351 -0.0323093 0.0773919 0.0824941 -0.0384491 -0.0858493 -0.0264536 -0.0739641 0.159683 0.0118174 0.0332557 -0.0250155 0.0442696 0.0233833 0.0383979 -0.0270492 -0.0323508 0.0334518 0.0574195 0.0980164 -0.0272911 0.0751567 0.124692 -0.0944585 0.12039 0.00719672 -0.0182905 0.0132518 0.0563839 0.0302976 0.0944538 -0.0538614 0.0184394 0.0343117 -0.0133003 -0.00273455 0.0754514 -0.0290596 0.0290542 -0.0750291 0.10914 0.0158552 0.0248986 -0.0372808 -0.02105 0.0173468 0.163309 0.00690182 0.0557805 -0.101305 0.044222 0.0385065 0.0479086 -0.0997552 0.0893482 -0.206061 -0.0121441 -0.0336584 -0.0207874 0.0387534 0.0383312 0.0351321 0.0860618 0.024012 0.0179902 0.158511 -0.134322 0.0569468 0.0703364 0.135582 0.095786 -0.00908403 0.0327739 0.010235 0.0412593 0.0404452 0.0707686 0.00582657 0.0433739 -0.0105375 0.012564 -0.040408 -0.0650769 -0.0568403 0.0410344 -0.0271381 0.0641066 0.0376923 -0.0699112 0.0144963 -0.0257029 -0.0158161 -0.0283412 0.0563094 0.0105121 -0.00150734 -0.00525275 -0.0428985 -0.0362466 -0.0161844 -0.0361012 0.018973 -0.0747931 0.0332484 0.0305485 -0.0122393 -0.015566 -0.00547493 0.0402333 0.11288 -0.00104735 0.160452 -0.129505 -0.0660262 -0.024453 -0.0648747 0.00241527 -0.088276 -0.0592346 -0.0126113 -0.000278303 -0.00761816 -0.0761349 -0.00709564 -0.00487865 0.00737059 0.033138 -0.0486114 -0.128499 -0.0811845 0.0396804 0.0664176 0.000573452 -0.101516 0.0437111 0.0670688 -0.0061311 0.082871 -0.0466049 -0.0407645 -0.073746 -0.0702087 -0.0560775 -0.0296602 0.0480547 -0.00531326 -0.131504 0.00461402 -0.111074 -0.00268494 0.0244693 0.0307439 -0.0492252 -0.0355723 -0.0535888 -0.0852547 -0.0142425 0.0360444 0.0488483 -0.0367415 0.0742326 0.0698626 0.0623807 -0.0572787 0.0162451 -0.0549675 0.0611138 0.0337095 -0.0214264 0.117231 -0.083319 0.0483823 -0.0331175 -0.0421901 -0.00298196 -0.115702 -0.067688 0.0404065 0.0517016 0.113505 -0.052266 -0.0550975 -0.0279425 -0.00520844 0.0336466 0.114077 0.0687955 -0.0631806 0.0149729 0.00999433 -0.0584649 0.0074666 0.0275936 -0.0239522 -0.0343835 -0.020481 0.0478708 -0.059715 -0.024571 -0.01557 -0.0293865
для 0.0656243 0.0492739 -0.0672868 0.0647328 -0.0011508 -0.0222502 0.0253043 0.00413207 0.0386867 0.0615946 -0.0231434 -0.0229287 -0.0464789 0.0934252 0.115603 -0.0494227 0.0837687 -0.0390931 0.0115499 0.0916369 0.0142549 0.0616106 0.0756522 -0.0746861 0.0192617 0.0179043 0.0287899 0.00788732 -0.0788443 0.034358 -0.0919125 0.0254987 -0.0828842 0.0939912 0.0530187 -0.0775902 0.00466481 -0.00989818 0.0555191 -0.0036416 -0.00716963 -0.0568246 0.0154501 0.0510718 -0.0717939 -0.07531 0.010185 -0.00521505 0.0393189 -0.00139253 -0.0939607 -0.0265724 -0.000106243 -0.0634814 -0.0400254 0.0381323 0.10219 -0.00236516 -0.0568349 0.108952 0.0134044 -0.0768787 0.0376937 -0.118677 0.0381005 -0.0588142 -0.0525978 -0.0583993 -0.0129189 -0.046973 -0.0449476 0.0614966 -0.0476215 -0.126739 0.00776294 -0.0744636 0.0737178 0.0389919 0.0177221 -0.0720755 0.0496152 0.0900849 0.00075866 -0.0221606 -0.00387284 -0.0215471 0.0146264 -0.00233941 0.033344 0.0383577 -0.0520772 0.0219821 0.0558174 -0.0677507 0.0795911 0.086101 0.0100059 -0.0414134 -0.0277034 0.0822473 0.00218177 -0.113082 0.158972 -0.058434 -0.0663467 0.0535715 -0.0978989 0.0584948 -0.0554764 0.0237102 -0.0129467 -0.0355061 -0.0582068 -0.00605418 0.035424 -0.056476 0.023647 -0.0645334 -0.0265993 0.0347115 0.0923451 0.0807911 -0.0432321 0.101782 0.0140271 0.0836738 0.124678 0.0343814 0.0240857 0.0931931 0.113431 0.0318085 -0.028212 0.0207856 -0.0399229 0.109963 -0.000405746 -0.0390242 0.109157 -0.0235767 0.0392739 0.061634 -0.000977361 -0.0859902 0.0110226 0.035738 -0.0524213 -0.0131847 -0.0894622 0.0462648 -0.030319 -0.127274 -0.0213365 -0.0332345 0.00940074 -0.0146024 0.0289803 0.041989 -0.0595683 -0.0308037 -0.0153134 -0.00860921 -0.00568737 -0.0519877 0.0137922 -0.0314321 -0.0399522 -0.0784579 0.0293839 0.00664083 -0.0476813 -0.0217418 -0.0334074 0.0884869 -0.0616451 0.10789 -0.0147883 -0.114382 -0.0430573 -0.0248202 0.00473766 0.0578355 -0.000343848 -0.0216551 -0.0808804 0.0845753 -0.0488674 -0.00137646 0.023653 -0.0836087 -0.0649958 -0.144259 0.0278297 -0.0141903 -0.0452794 -0.00297813 0.00296289 0.0353214 0.0126029 -0.0579496 -0.0374835 -0.015774 0.0249846 -0.0286725 -0.0422729 -0.0494429 -0.00261726 -0.0180873 0.0412601 -0.00250046 0.137588 0.025282 0.0375385 0.0364894 0.0779351 0.0101858 -0.024457 -0.0968653 -0.0480268 0.00178782 0.0275775 -0.0524907 0.00372986 0.0646118 0.0274973 0.0455894 -0.00202096 -0.0291943 -0.019812 -0.036817 0.0174077 0.0785088 -0.0453848 -0.0288685 -0.109181 0.034409 -0.0184035 0.0238828 -0.041306 0.0334153 -0.00663209 -0.0560781 0.0322108 -0.0336246 0.0206245 0.0540607 0.0768541 -0.0206185 -0.0415629 0.0597293 0.0134526 -0.00768673 0.00192423 0.011985 -0.128403 0.0295379 -0.100696 0.00293435 -0.0125878 0.111383 0.0500798 -0.0384551 0.0129678 0.0371096 -0.128398 -0.0506365 -0.0269342 -0.0799478 -0.0301584 0.0617865 -0.0977125 -0.0346065 0.00612576 -0.0529521 -0.11601 -0.0105762 0.120441 0.0646247 -0.0412711 -0.0332923 0.0748236 0.0111243 -0.0303126 0.0685378 0.12033 0.0195708 -0.032324 0.0197925 -0.108938 0.00658507 0.0654598 0.028225 0.0461208 -0.046067 -0.0126621 -0.153408 0.0774641 0.0449956 0.0753836 -0.100611
как 0.0275306 0.0908897 -0.0703592 0.0779001 0.046159 0.00749469 0.0838381 -0.111342 0.00658957 0.125769 -0.0441658 -0.0582595 0.0262544 -0.098671 0.0623759 -0.129016 0.0293295 0.0346407 0.0838469 0.0648322 0.0576928 0.0756763 -0.0789893 -0.0433104 -0.0520348 0.0325651 0.0557066 0.0624528 -0.0164725 0.0420658 -0.0302217 -0.0303434 -0.103188 0.143807 -0.0322161 0.0483149 -0.0552744 -0.0556877 -0.0237462 -0.0992394 -0.077218 0.0187279 -0.0725654 -0.0224182 -0.0215502 -0.0123424 -0.0223609 -0.0374682 -0.000633238 -0.0310463 0.0213765 -0.0343741 0.0301052 0.000749392 0.00422649 0.0185473 0.00136914 0.0307551 -0.000681159 0.00268379 -0.0670081 -0.0535067 0.0596363 -0.0159249 0.0254193 -0.0720678 -0.0340261 -0.052878 0.0428273 -0.0241454 -0.00230732 0.0631435 0.0474714 -0.0442414 -0.0807225 0.0360203 0.029397 0.0700634 0.0220561 -0.120052 0.0187519 -0.0228344 -0.0371064 0.0360819 0.0401654 -0.0144137 -0.0854161 0.0479176 -0.120593 0.0156873 0.0379922 0.00239081 0.183208 -0.0940924 0.0298537 -0.0150352 0.013863 0.0598508 -0.0718662 -0.00963267 0.0324599 -0.0631139 0.0748738 -0.0472619 -0.0692427 -0.0389712 -0.0245198 0.0337693 -0.0112788 0.00560103 0.0404311 -0.0510883 -0.0899438 -0.0140406 -0.0190664 0.0336012 0.116636 0.0185238 0.0113506 -0.0122547 0.048296 0.0738338 -0.0202321 0.205501 0.0190378 -0.0515206 0.090823 -0.0360364 -0.046665 0.00107899 -0.0503065 0.0697749 -0.0201459 -0.00494433 0.0663354 0.0437196 -0.00846734 -0.00193032 0.0369644 0.0823864 -0.00638313 -0.0508985 0.131957 -0.0522332 0.0721734 0.0717059 -0.0499526 -0.0888198 0.0140283 -0.039924 0.026227 -0.109746 0.0155968 -0.0638623 -0.0698348 0.0349966 -0.0657417 0.0310302 0.14301 0.00777387 0.00998387 0.0346953 -0.04284 0.0109257 0.00807319 -0.0543708 -0.00804937 -0.0515273 0.0716808 0.0023282 -0.0614817 -0.0436011 -0.0537968 0.0494192 -0.0273877 0.0566782 0.0147221 0.0702419 -0.0243898 -0.0719345 0.00459722 -0.0266833 0.0858673 0.0639156 0.00496217 0.0643745 -0.0530576 -0.0667229 0.108746 -0.0463726 0.00937364 -0.0867736 0.103882 0.0497239 -0.0180717 -0.0674061 0.0672993 0.0187724 -0.123275 -0.0475417 0.0294993 0.0055731 -0.0213028 0.0622774 0.0112913 0.0370954 -0.0514159 0.0388365 0.0201911 0.0593433 0.161461 -0.0237878 -0.0353866 0.000575518 0.0176051 -0.0862874 -0.0630867 -0.0290785 -0.0781194 -0.0605874 -0.120008 -0.0529346 -0.0894276 -0.0158876 -0.00714339 -0.00376619 -0.0163296 -0.0117131 -0.0119721 0.0281142 0.0330345 0.0256143 -0.0734191 -0.0199526 -0.0133371 0.0749214 0.0438241 0.0375421 0.0332088 0.0462837 0.0448015 0.0210181 0.00134518 0.0418463 -0.0165872 0.0370809 -0.0269446 -0.0178836 0.0837359 0.0276288 0.0313004 0.00457256 0.0030378 0.0165846 -0.0259562 0.0088699 -0.0493631 -0.0115761 0.0296285 -0.0955868 0.0338562 0.0341008 -0.00838012 0.00256683 -0.047637 -0.11944 -0.0874875 0.11854 -0.0672284 -0.0087936 -0.0568697 -0.0319994 0.0475466 0.019515 -0.0810468 -0.0283137 0.106165 -0.00465145 0.0907194 0.0160129 0.042536 0.0401778 -0.00263454 -0.021105 0.0743848 -0.0499503 0.0142815 0.14194 -0.0745242 0.0785759 0.0137762 0.0789643 0.060862 -0.00331878 -0.0525173 -0.0649177 -0.0679387 0.0422925 0.0393228 0.0155056
от 0.0658727 -0.0170575 -0.0215436 0.067247 -0.0290954 0.0120824 -0.0333667 -0.0255011 0.0846241 0.0774516 0.0358341 -0.0584342 -0.0741649 -0.0104347 0.0275587 -0.0112284 -0.0362576 0.0415393 -0.0291389 0.113757 -0.0621865 -0.0463558 -0.022234 0.0364654 -0.00718065 -0.111691 0.0477789 -0.0328856 -0.0615958 -0.0650871 -0.0841292 0.143503 -0.0571587 0.0657447 -0.019285 -0.0911665 0.0292621 -0.0474529 -0.0443407 0.0789913 -0.0368584 -0.0726406 -0.00110598 -0.00185466 0.0583237 0.0322144 0.0689869 -0.0837425 0.139534 -0.0255532 0.0350398 -0.0756721 -0.0364178 0.0424221 0.00570707 -0.00683224 -0.00960235 0.0874675 0.064467 0.061472 -0.134218 -0.0801291 0.0419981 0.0330925 -0.00704704 -0.00148886 -0.0268019 -0.0436153 0.0135494 -0.0268943 -0.0478633 0.0733785 -0.0169422 -0.0023713 -0.127036 0.0717837 0.0550467 0.0451842 0.0350906 -0.0328993 0.12248 -0.0251093 -0.0592865 -0.0689452 -0.00331406 0.037995 -0.035693 0.0580316 0.0628279 0.0772805 -0.0219588 0.0210947 0.00702359 -0.0466717 0.00313161 -0.0127734 0.0848462 0.0430055 -0.0165477 -0.0998398 -0.00882991 0.0214528 0.0331096 -0.0737301 0.0459554 -0.0179811 -0.0479134 -0.0598587 0.0312322 0.0185901 -0.034773 0.0796578 0.00462765 -0.0447651 -0.0265862 0.0181658 0.00815561 0.0399477 -0.174701 0.00826885 0.162199 0.0512561 -0.00459743 0.0419649 0.0104022 0.00425074 0.0228424 -0.00448922 0.0694301 0.0670996 0.00801783 0.123749 -0.034448 0.0135917 0.0162852 0.0127589 -0.0606329 -0.0555122 0.010972 -0.00790126 0.0203602 0.00210065 0.115072 0.078917 0.0340203 0.0690757 0.0344302 0.0225407 -0.0372623 -0.0107955 0.0182231 -0.0851523 -0.140902 -0.0167366 -0.065114 -0.03724 -0.136745 0.0818382 0.0596212 -0.0566734 -0.0658066 0.0504175 0.0403153 0.045131 0.0634849 -0.00743278 -0.0332189 -0.0467183 0.056371 0.0339489 -0.0787538 -0.116626 -0.0891018 0.0534016 0.0141523 0.0859337 -0.0114597 0.0664392 0.00995884 0.0432226 0.0504624 0.0355366 -0.0182296 0.0338831 -0.0514915 0.0226 -0.0860299 -0.00140856 -0.0226563 -0.0550147 -0.0131358 -0.0131416 0.0672514 -0.0127891 -0.0387416 0.0780396 -0.0650887 -0.0358889 0.0058888 -0.0428975 -0.0464122 -0.083079 -0.0593231 -0.0190528 -0.00934674 0.0220552 -0.0618459 -0.0183845 0.0083656 0.0347836 0.0532568 0.0164721 0.0621071 0.0439887 0.0562606 -0.104134 -0.0406665 -0.142557 0.0304956 -0.0150984 0.00955037 -0.0738531 0.00502397 0.0476865 0.00848544 0.0470137 -0.0922419 -0.0523156 -0.00772168 -0.0272531 -0.0324272 0.0565998 0.00694449 -0.0540742 -0.00982796 -0.0168612 -0.0284275 0.0660082 -0.0568518 0.0315682 -0.0239491 -0.0441542 0.00890997 0.0511611 -0.0520402 0.0922073 -0.0712318 0.0191732 -0.0097427 0.00646023 0.00577596 0.00784287 -0.13411 -0.0796527 0.0214029 0.0622857 0.00240073 0.0365219 0.045061 0.0678913 0.0950504 0.0613969 -0.0534445 0.105693 -0.0330621 0.076242 0.0198214 -0.0801142 -0.0638442 -0.0358066 -0.0583792 -0.0523207 -0.0336741 -0.0206379 -0.0347494 0.0550159 0.0873796 -0.00284379 0.0195673 -0.0726148 0.060873 0.0699663 -0.0984334 0.0479519 0.101187 -0.0763895 0.0427557 -0.0670725 0.0661563 0.026682 0.0251891 0.0208055 0.0781901 0.159897 0.0644373 -0.0385668 0.106317 -0.0528938 0.012382 0.0224202
# -0.035991 0.0104864 0.0749649 0.060654 -0.0178921 -0.0614843 0.0112115 0.0427206 -0.0534149 -0.0123919 -0.0407439 0.01197 0.0780938 -0.00842377 -0.071745 0.0545861 0.0628492 0.0484388 -0.0364128 0.091506 0.0234802 0.00305343 -0.00264766 -0.0316951 -0.0953206 0.0406124 0.0636127 -0.0188821 0.00346359 -0.0473582 0.0244281 0.100939 -0.0619801 -0.0027836 0.060913 0.0177757 -0.0942402 0.0543287 0.0277939 0.0136669 0.0666166 -0.0203299 -0.0388925 -0.0335221 -0.0812836 0.0209898 -0.0663793 -0.0223368 0.0083236 0.0155015 0.0360265 -0.032415 0.0251079 -0.0818363 0.0106705 -0.071694 -0.0149014 -0.0912265 -0.0193335 0.0651778 0.0395695 -0.0428485 0.0549244 -0.0229402 -0.0854157 -0.0542964 -0.0488439 0.0238421 -0.0910017 -0.0479494 0.0314057 0.08295 0.0308582 0.00755697 0.0382603 0.00748244 -0.0105829 -0.0380021 0.0229336 0.010609 0.112586 -0.0981132 0.0367424 0.000513654 0.0387864 0.00586476 0.0897419 -0.0649454 -0.0872395 -0.0659658 0.0272626 0.102242 0.00504863 -0.0656538 0.0685825 0.0402719 -0.0171526 -0.000819982 -0.0207566 -0.0715537 0.119376 0.0217839 -0.0580077 -0.0264591 0.051506 0.0802427 0.0181195 0.0334909 0.114127 0.022279 0.0671816 0.0444138 0.0846741 -0.113192 -0.109388 0.0680176 0.0200096 0.00305641 0.00505705 -0.115217 0.123338 -0.0553552 0.0208481 0.120432 -0.0503729 0.0652945 -0.0221781 -0.0108224 0.0105585 -0.0414788 0.0446652 0.0437598 0.036685 -0.0354583 -0.0506923 0.00251509 -0.0514135 -0.0168434 0.0904532 0.0954072 0.0241058 0.00536515 0.0653789 0.067845 -0.0354081 0.070317 0.0272128 0.0398159 0.035453 0.109891 0.0164266 0.00872144 0.121352 -0.0791493 -0.0643672 -0.0305565 0.0451627 0.079675 0.0350219 0.0565512 0.0359324 0.0966139 -0.152411 -0.0790365 0.0364059 -0.0297533 -0.00987903 -0.0967521 0.105991 0.0615246 -0.0457073 0.0296758 0.0065475 -0.079121 0.0933114 -0.0578754 0.0772949 0.0164323 -0.0402339 -0.104629 -0.0360163 -0.0684279 -0.0151 -0.0148568 -0.0482758 0.0813595 0.0190529 -0.0220276 0.0891638 0.0569412 0.0449641 -0.109639 -0.0472959 0.0676993 -0.0218075 -0.0182558 0.0524454 0.0471623 -0.170458 0.0138056 -0.0338519 -0.0692972 0.0207702 0.102685 0.0573372 -0.0361922 -0.0754514 -0.0704202 0.0302325 0.0308662 0.157401 -0.0295051 0.0345451 -0.00358926 -0.0926393 -0.0722001 0.0100926 0.0126215 -0.137004 0.0036339 0.0603441 8.80797e-05 0.00327301 -0.00129507 0.0741077 0.0587965 -0.133232 0.0103539 0.0166087 0.00263066 -0.0573125 0.0567901 -0.0774398 -0.0219898 -0.0154472 0.046252 -0.0382512 0.000220983 -0.046127 -0.014029 0.0242201 0.0508603 0.0763649 0.0180089 0.0713355 -0.0138676 0.0448666 0.00975616 0.0485906 -0.0494122 0.0500919 0.0145217 0.0392659 -0.0507046 0.0437268 0.0173162 -0.0473342 -0.000503331 0.0338815 -0.0448164 -0.00244363 -0.0517096 0.113069 0.00483294 -0.0161157 0.0201143 0.0114086 0.0862214 -0.0210852 -0.00717474 -0.106819 -0.00318836 -0.0277204 -0.0592372 0.0419709 -0.0201368 0.0881914 0.122347 -0.0333151 -0.00101725 0.0144646 0.0151601 -0.00496259 0.0745596 0.0511768 0.0628144 0.0558728 -0.0046598 0.0157288 -0.0155423 0.0787949 -0.0264589 0.0237487 0.0317709 -0.0285249 0.0631366 -0.00524305 0.0305538 0.113907 0.0909762
за -0.0200179 -0.0123211 -0.0647315 0.102259 -0.0382854 0.0230412 0.0243245 -0.0744697 -0.039284 0.019549 0.0839085 0.0246947 0.0142481 0.0717665 -0.0927784 -0.0202567 -0.0324067 -0.00669485 0.0885411 0.11621 -0.029018 0.0601529 -0.092511 -0.0236582 -0.0125783 -0.0247457 -0.0811139 0.0346066 0.0091869 0.0227319 -0.129563 0.0402337 -0.112378 0.0303863 0.12639 -0.0230489 0.0147078 0.0298105 0.0131955 0.0579431 -0.000478882 0.0616756 0.0329521 0.0509395 -0.034087 0.0222063 0.0391215 0.00651179 0.0165112 -0.10915 0.00253674 -0.184988 0.0039708 -0.0703604 -0.0573773 0.0303639 -0.105892 0.0832562 -0.0860786 0.0376282 -0.0257178 -0.0380923 0.0390741 -0.00836035 0.00271658 0.032185 -0.0351244 0.0620454 0.00667152 -0.00175196 0.00258149 -0.00803943 -0.0707671 -0.0410472 -0.111891 0.00658365 0.0864193 -0.00362882 -0.0104164 0.0169204 0.114916 0.0407182 -0.0948709 0.0434739 0.0407366 -0.0627268 -0.144357 -0.0417012 0.0172994 -0.0180277 -0.0423079 0.0470392 0.0884547 0.00687004 0.0164302 0.0941299 -0.00477717 0.0523798 -0.0920554 -0.0975124 0.00783765 -0.0321361 0.101639 -0.0239296 -0.0460077 -0.0389292 0.0916224 0.114018 -0.025032 0.0437503 0.138253 -0.00903164 0.034641 -0.0233052 -0.0278467 -0.00642439 0.0587046 -0.0190319 -0.0296599 0.0517449 0.023235 -0.0213235 0.0624212 0.0366923 0.0448626 -0.0365676 -0.024616 0.0269896 -0.0139922 0.00994118 -0.00318629 0.0959207 -0.0763354 0.0208695 -0.000971554 -0.00153298 -0.0400873 -0.0186962 -0.0744224 0.0724795 0.0668798 0.0401043 0.0563411 0.00598505 -0.0857468 0.128967 -0.0164316 -0.108702 0.0902335 0.076325 -0.0778141 0.0437008 -0.0788002 0.116831 -0.0447801 -0.0131102 -0.108323 -0.0790548 0.0370648 -0.0747248 -0.0198789 0.0329476 -0.0550769 -0.0099459 0.0657136 -3.2988e-05 0.00366268 -0.0731716 0.0382899 0.0160303 -0.0300624 -0.0197211 -0.0437571 0.0711403 -0.040673 0.0210521 0.0222713 0.0249897 0.0208883 -0.12209 -0.0147828 -0.100505 0.097263 0.0347099 -0.0681824 0.000636373 0.025231 0.0612952 0.0218019 -0.051803 0.014087 -0.0781757 0.047709 0.0349132 -0.0433768 -0.0611543 0.0112793 0.0299649 -0.0177623 0.0112586 0.0119254 -0.0317227 -0.0253949 -0.0876474 -0.0643575 0.0271315 -0.0122503 0.0490041 0.0644512 0.0137119 0.0568215 -0.0237025 -0.101514 -0.0168774 0.00211201 0.0572261 0.0180136 -0.136422 0.0137217 0.0645134 0.0874132 -0.0182336 -0.0560372 0.0461467 -0.0521203 0.112855 -0.0328725 -0.0123583 0.0260462 -0.0600697 -0.0204311 0.140042 0.0186247 -0.0451171 -0.0227508 0.0117545 0.0839545 -0.138879 -0.0533669 0.0512807 0.0971168 -0.0237854 0.0170445 0.094468 -0.0368214 0.0626426 -0.00938751 0.0597875 -0.024681 0.0206821 0.0453887 0.0448476 0.0149925 -0.0118851 0.0537616 0.0367101 -0.0737517 0.00818001 -0.0208016 0.022138 0.00687595 0.122973 0.0610789 -0.0139671 -0.0581555 0.0995455 0.00675549 -0.0252303 0.0137468 -0.00278916 0.0264721 -0.0106453 0.00985413 0.0406106 -0.0443457 -0.0433744 0.0205635 0.0823904 0.0611282 0.0182347 -0.0521861 -0.0392603 -0.0985759 0.0071135 0.0600197 -0.00658478 0.115778 0.11715 -0.0378264 -0.0166726 0.0388132 0.020531 0.0138393 -0.0111981 0.0975325 0.036774 0.0185067 0.074856 -0.0137807 0.0123932
был 0.0370692 -0.0794716 0.0698331 0.00491012 0.0174706 0.0338131 -0.00262592 -0.0143303 -0.0359197 0.160341 0.0610728 0.0406706 -0.0737582 0.0179093 -0.0166959 -0.0167424 -0.0916103 0.00426776 -0.118916 0.104727 -0.0324245 -0.00983521 -0.075274 -0.0607386 -0.039232 0.0135612 -0.0123225 0.0841788 -0.0249222 -0.0109828 -0.0945499 0.0647562 -0.0495493 0.0535786 0.0715495 -0.0187596 -0.076638 0.0325513 0.0896852 0.00374014 -0.025066 0.00327182 -0.0419948 0.0862139 -0.0594789 0.0184128 0.0544838 0.0237278 -0.120472 0.0246645 0.0232798 -0.0202104 -0.0371006 0.0294231 0.0260567 -0.00907142 0.0233585 0.100793 -0.029889 0.129772 0.0321981 0.0524493 -0.0563121 -0.0325409 0.0830413 -0.0206291 -0.18655 -0.0150782 -0.0464153 -0.0264725 0.0349638 -0.00420347 -0.02532 -0.0463466 0.0210779 0.0630997 0.0296139 0.0439316 -0.0909394 -0.0788127 0.0963244 0.0620558 -0.016567 -0.00984497 -0.0290577 -0.0201825 -0.0477163 0.0131682 -0.00541348 -0.0662613 -0.127294 -0.00593749 0.0429131 -0.0474138 0.035774 0.0498064 0.0284777 0.01232 -0.0744204 -0.0179405 -0.074031 -0.0465824 0.0220506 -0.00172211 -0.0750337 -0.0326218 0.0542252 0.0461192 -0.0762169 0.0156414 -0.0551964 0.0648877 0.0353118 -0.0187169 0.0394786 -0.0942634 0.0231488 0.111645 -0.0101897 0.0143685 -0.0126731 0.0338505 -0.0422965 0.147855 0.038866 0.0466643 0.0388011 0.0631947 -0.0141222 0.0670056 -0.0578331 0.0345999 0.071876 -0.0423262 0.0324375 0.00412239 -0.0660299 0.0440238 -0.114225 0.0418315 -0.0182731 -0.0264779 -0.00634259 0.0028945 -0.05033 0.0644136 0.00661813 -0.066113 -0.0237263 0.0313873 0.128676 0.0415831 -0.0576887 0.0782095 -0.0371332 0.0226005 -0.0498909 -0.00368611 0.10638 -0.0543253 0.000271929 0.021118 -0.0354682 0.0207219 0.0642088 0.0188352 0.0504971 0.0423101 0.0504271 -0.048488 -0.101088 -0.00987414 -0.0389345 0.039752 0.00155358 -0.0400912 -0.0180693 -0.0045851 -0.0414201 0.0358822 -0.0826155 -0.0406258 -0.00446793 0.012185 -0.0375131 0.163397 -0.0562472 -0.0812278 -0.00102181 -0.0341217 -0.0156425 -0.0829934 0.0235179 0.0623307 -0.0207935 -0.0117671 0.0240073 -0.0864967 -0.0672924 -0.0538273 -0.0233437 -0.0824861 -0.0273302 0.115168 0.00525356 -0.080925 0.0451954 0.0651422 0.134069 -0.014365 0.14187 -0.0915966 -0.00633621 0.0756521 0.0102817 -0.000329216 -0.0435392 -0.0388366 -0.0455276 -0.00511115 0.0614528 -0.0756643 -0.10239 -0.0638581 -0.0382319 0.0282702 0.0359491 -0.0298899 -0.0687469 -0.0635698 -0.00189971 -0.0248057 -0.0346957 0.0296967 -0.0235173 -0.0445253 -0.00189634 0.0324505 0.00656635 0.0569823 -0.0334416 0.0381053 0.00325698 0.0647434 -0.0930962 -0.0724377 0.0195299 -0.0645772 0.0846574 -0.0216786 -0.0222036 -0.0365274 -0.0980097 -0.0311021 -0.136984 -0.0326082 -0.061348 0.0391923 -0.0327156 0.0142536 0.0565342 -0.0423692 -0.0568484 -0.0315633 -0.0943243 0.0589154 0.0190015 0.0161297 0.025029 -0.139374 -0.0253883 -0.0320137 -0.00853343 0.00895655 -0.00170078 -0.0284134 0.09988 0.0437753 0.0469577 -0.137858 -0.0605828 0.0436714 -0.044326 0.0657922 -0.0318655 -0.0190917 -0.0979216 0.122718 0.00208318 -0.0722643 -0.00711586 -0.0920237 -0.054313 0.0524511 0.044679 0.0179888 -0.0151061 0.0567579 0.0229662 -0.0704849
о 0.00587778 -0.0667369 0.0196106 0.0667146 -0.0530248 0.0894923 -0.0911113 -0.095057 -0.0384153 0.0732495 -0.009907 -3.80859e-05 -0.0148672 0.0394359 -0.109396 0.0427654 -0.0582192 0.0119676 0.0374807 0.0254984 -0.0324692 0.0156952 -0.143237 -0.0303532 -0.00379643 -0.0197837 0.0462232 -0.033472 0.0399181 0.0517584 -0.0145825 0.0035663 -0.172255 0.0564563 0.020413 0.00866945 -0.0404317 0.0726033 0.150052 0.00851096 -0.0322781 -0.0921896 -0.0524652 -0.0202211 0.0600784 -0.0248322 0.118605 -0.039839 -0.0114757 0.000206412 -0.0441358 -0.093832 0.0331728 -0.0224318 -0.077528 0.00928767 0.0541999 -0.0627972 0.0747935 -0.0217112 -0.0996715 -0.0331423 0.0591364 -0.0700116 0.0697293 -0.0706633 -0.100694 0.0737284 0.00591767 0.140557 0.0675419 -0.0500021 0.0577676 0.0406675 -0.0601094 -0.109614 -0.0289601 0.0469397 0.0612092 0.0461795 0.0742444 -0.00520032 0.0138993 -0.0271616 -0.025642 -0.0278385 0.0342504 -0.0366573 -0.0218026 -0.12832 0.0151073 0.0402555 0.0914985 -0.0116296 0.0114923 0.0739743 0.0228786 -0.0510849 -0.0285681 0.0512797 0.0661243 0.00821433 -0.0443868 -0.0565133 -0.0431214 0.0428662 -0.0971053 -0.0013831 0.0102934 0.0248764 -0.0322383 0.00881842 -0.00454969 -0.0480879 -0.0212006 -0.00176459 0.0345668 0.0645576 -0.0121825 -0.012559 0.0163369 -0.00153626 -0.0756787 0.0286663 0.0878941 0.0505294 0.0570742 0.0840046 -0.00252918 0.122667 -0.0400994 -0.0533722 -0.0415537 -0.0918252 -0.0114302 0.0606765 -0.0139543 -0.0111852 0.0512874 -0.0188767 0.0344639 0.0729853 0.0462251 0.0932706 0.0897942 0.10293 0.0151804 -0.0778985 0.0071556 -0.0554447 -0.058844 -0.136029 -0.0215426 -0.0489936 0.00592851 0.0469064 0.00132288 -0.0996703 0.0563548 0.0309348 -0.00652378 0.10654 -0.00497872 -0.0188322 0.0135477 0.0193738 -0.0553914 -0.0477477 0.115635 0.00542516 -0.0572061 0.0328336 -0.0698921 0.028788 -0.0412313 0.0858319 -0.100603 0.00977907 0.0912861 0.0224323 0.0291373 0.000468221 0.0277047 0.0702453 -0.08218 0.181161 -0.0196182 -0.066298 0.0223512 0.0356276 0.0292071 -0.0725968 -0.0493865 -0.0579776 -0.0777058 -0.0336522 0.0387872 -0.0590626 -0.0871946 0.027733 0.0232913 0.0347812 -0.0206995 -0.027308 -0.00824282 0.0488616 -0.0379469 -0.0924508 0.0663755 -0.00816914 0.0712036 0.028178 0.023467 -0.0643584 0.13325 -0.0155362 0.0227941 -0.0526159 -0.0264351 -0.0408901 -0.0166589 -0.150718 -0.0606626 0.0216663 -0.0589726 -0.011242 -0.0290303 -0.0429941 0.00738852 0.0413098 0.13717 0.0478224 -0.0528232 0.0542265 -0.03641 0.0018024 0.00512594 0.0535772 -0.0384739 -0.0272106 0.0355046 -0.0495401 -0.0095813 0.0542488 0.0469651 0.0108718 0.0374503 -0.0271045 -0.08023 -0.00101159 0.0350157 0.0275043 -0.0447021 -0.0248034 -0.0353019 -0.0218292 0.0321597 0.0132339 0.023296 -0.0397217 0.0539886 -0.011943 -0.063632 -0.0226558 0.0164267 -0.117213 0.0492951 0.0226746 -0.0804355 -0.00788099 -0.0152338 0.101799 0.0762672 0.00911215 -0.0559578 -0.0413072 0.0326176 0.0488251 -0.0208615 0.0163999 0.00961808 -0.00428165 -0.0256517 -0.0344959 -0.00417565 -0.00128952 0.142577 0.00646503 0.0700834 -0.096117 0.0168218 -0.114434 0.00227421 0.0339086 0.0624123 -0.148806 -0.0383245 0.0169512 0.0292175 0.0333772
его 0.0085547 0.0101884 -0.0860462 0.109011 0.00925207 0.00477311 0.0398566 -0.0180311 0.0782968 0.105707 0.0874685 -0.0105337 -0.0952951 0.0513804 0.0782631 -0.0430135 -0.049188 0.0254572 -0.0477258 0.104365 -0.0160005 0.0639769 -0.132214 -0.0932439 0.00245509 0.103205 0.0630488 0.0860466 -0.0180541 0.0497602 -0.0499253 0.0978867 -0.104498 0.0576967 -0.0400177 0.00149769 0.00440086 -0.101527 0.0482191 -0.0475148 0.0666141 0.0873903 -0.0306532 0.0123495 0.0456553 0.0643542 0.0297261 0.0138581 -0.0390461 -0.0894671 0.0224185 -0.0557673 -0.0951247 0.087369 -0.0753627 0.0657932 -0.0551097 -0.00666637 -0.064992 -0.0202962 -0.0148985 -0.076785 0.0809432 -0.0102366 0.0257135 -0.0580966 -0.0179223 0.0535239 -0.0287291 -0.0369902 -0.0365682 0.00931322 0.037312 -0.0473332 0.000855542 0.0440213 0.0458809 0.140654 0.051015 -0.0684445 0.0485397 0.0355843 -0.0628496 -0.0554114 0.0118993 -0.0392884 -0.022809 -0.0181307 0.0122897 -0.0178793 0.0730316 -0.0306296 0.030945 -0.0298842 0.0262469 -0.0158583 0.0209575 -0.0429676 -0.098595 0.0608534 -0.101411 -0.0177472 0.103531 -0.0162015 -0.108726 0.00365351 -0.0383282 0.0120376 -0.00244223 -0.0404959 0.0145462 -0.0487152 0.0338412 0.00973206 -0.00343947 -0.0292909 0.0623632 0.0173803 0.061085 -0.000500937 0.0357293 0.0485411 0.00231936 0.107598 0.0601272 -0.0106908 0.0810985 -0.000891736 -0.00930763 0.0465389 0.0271193 0.0580384 0.0447329 -0.0191562 -0.0523273 0.00311094 -0.0176366 0.0492483 -0.0792364 -0.0303107 0.0105423 0.0461613 -0.087637 0.0226332 0.000183963 0.10204 0.0409934 -0.0867154 0.0352022 0.0149004 0.0813175 -0.0664876 0.0380311 0.00230479 0.0180433 0.0117577 -0.0648161 -0.0902977 0.109524 0.0175648 -0.0609331 0.0622174 -0.0466896 0.142158 0.0543251 0.0048274 0.045056 0.0783643 0.0675306 -0.00750793 -0.0892639 -0.0917441 -0.0414502 0.0923455 0.0299614 0.109951 0.0383128 0.13543 0.00589734 -0.0359024 -0.0407976 -0.0456615 -0.02397 0.0143519 -0.0197842 0.137527 0.0466389 -0.0137874 0.0537294 -0.0367287 0.0141597 -0.0409845 0.0238306 0.100813 -0.0552182 0.0814176 -0.108128 -0.00627421 -0.115079 0.00903255 0.0847293 -0.065931 -0.0390592 -0.0435101 -0.033147 -0.0127481 0.0233395 0.0021711 0.0464091 0.0639065 0.135691 0.0466786 0.0428401 -0.0321823 -0.0452769 -0.0370857 -0.000461133 -0.031631 0.0134043 0.0544546 -0.0261266 -0.0858511 -0.0737566 -0.0183561 -0.0100028 0.0599244 -0.0535258 -0.056641 -0.0439383 0.00393337 0.0970944 -0.0212231 -0.0752371 0.0260278 -0.0947739 0.0887034 -0.0306985 -0.0157994 -0.000233296 -0.0458156 0.0346407 -0.0927573 -0.0406472 0.0658839 0.0182296 0.0176908 0.00213817 -0.0520691 0.0428877 -0.0466608 -0.0391711 -0.0734137 -0.0163243 -0.0101999 0.00971849 0.0895293 -0.00659258 -0.0349796 0.0571713 -0.0570103 -0.0411047 0.0435885 -0.0757074 -0.103569 -0.0215619 0.0134483 -0.105058 0.103628 0.0329504 -0.0531239 -0.141996 -0.0844479 0.0919769 0.0934954 -0.0364 -0.053413 0.0435935 0.0224244 0.0447278 -0.0173238 0.0174232 0.0376622 -0.000520532 0.0292434 0.0206624 -0.027231 -0.0293869 0.0755962 0.0350717 -0.0733794 -0.00330341 0.0120119 -0.00926334 0.0246391 0.0676821 -0.036751 -0.0776086 0.0868932 0.0369401 0.0649101
