999 300
. -0.0494553 -0.0233788 -0.031028 -0.0177473 -0.109799 -0.0570304 -0.0155225 -0.111969 0.0337877 0.0743418 0.0405046 -0.082622 0.0329522 -0.00570941 -0.023134 -0.0395534 0.00803606 0.0567232 0.0281028 0.062213 -0.0349566 0.0497777 -0.094474 0.0770525 -0.0723912 0.0263161 0.0195052 -0.0492935 0.0148699 -0.00979829 -0.016383 0.0683928 -0.12485 0.103762 -0.00724765 -0.0899969 0.0117255 0.0243952 0.0865344 -0.0913851 -0.0527325 -0.0502251 -0.0347882 0.0522171 -0.0465864 -0.0124051 -0.0309087 0.053156 0.031568 0.0108632 -0.043412 -0.0121635 0.0313983 -0.00350012 -0.0616754 -0.0172796 0.0231911 0.0509008 -0.00423042 0.0681456 0.0450825 -0.119731 0.15507 -0.065464 -0.0415385 -0.0271608 -0.0730421 -0.0290397 -0.155367 -0.0287502 -0.0767483 -0.0140847 -0.111375 -0.182116 -0.0428738 0.0287786 0.0756191 0.0574239 0.0141158 0.0558716 -0.0399086 -0.00464305 0.00119033 0.00847622 0.0236683 -0.0671709 0.0114892 -0.0790871 0.0593124 -3.09518e-05 -0.0133063 -0.0591778 0.035711 0.025005 0.0916859 0.0248797 0.0401813 0.0502049 0.0134688 -0.135312 -0.0711821 0.0224788 -0.128013 0.0530404 0.0249313 0.0305229 -0.110633 -0.0112291 0.0727002 -0.0345995 -0.0230208 0.0383497 -0.0649771 -0.0281407 -0.0586229 0.0266538 0.117766 -0.0482467 0.0368722 0.0207005 0.0745999 -0.00426897 -0.0146652 0.00864522 0.0394505 -0.0109054 0.0107694 -0.0229699 0.0354148 -0.00605452 0.0410566 0.0167719 0.0716781 0.0216015 0.00430667 0.0346344 0.0294629 -0.00772546 0.0266053 0.137007 -0.122286 0.0909725 -0.0337185 0.0918586 0.037773 -0.0302192 0.0281941 0.00724218 -0.0338973 0.0206661 0.127458 -0.153796 -0.0624627 -0.0804419 -0.0437185 -0.0470043 0.0689791 0.0323693 0.00382523 -0.0135396 0.0133651 0.0588771 0.00553704 0.0188978 0.109713 0.0475451 -0.0151439 -0.00225153 -0.00940481 0.0656648 0.0113247 0.0948784 -0.113543 0.0258142 -0.00874234 0.000670674 -0.0504715 0.000448975 0.0102432 -0.0175932 -0.0470224 -0.102242 -0.00841021 0.0713331 0.0526645 0.0636618 0.03167 -0.0837168 0.0172961 -0.00468654 -0.04209 -0.0578927 0.0809923 0.0343765 -0.0678965 0.0358303 0.0371269 0.0331058 -0.0732223 0.0458418 0.0709274 0.00290018 0.00960642 0.0248637 0.0280537 -0.103722 0.000568571 0.00816992 0.0770441 0.0273122 0.0122902 0.0134422 -0.034488 -0.00513572 -0.0470797 0.0364944 -0.0192362 -0.129359 -0.0863052 0.0200594 -0.0237972 -0.0220505 -0.0101783 0.0403692 0.00736435 -0.0106508 -0.0261131 -0.0191478 -0.00066272 0.0580615 0.0605918 0.0539033 -0.0490935 0.00588093 0.0548723 0.0366965 -0.0286855 -0.0953266 0.000664636 -0.0321259 0.0220558 0.0940605 0.0136932 -0.00577294 0.0419785 0.0143101 0.180107 -0.00795356 0.0342699 -0.047592 0.0572177 0.0202653 0.00164819 -0.0335848 -0.0461179 -0.0480535 0.0705669 -0.0181291 0.000930845 -0.00451831 -0.00911074 0.161925 0.0922266 0.0302462 0.0482832 0.0348123 0.0430003 0.0311445 0.0270294 0.0279489 -0.0640174 0.0935085 0.0114312 -0.0293122 -0.110025 -0.0747881 0.13203 -0.0515773 0.00973031 -0.00666485 0.034525 0.0263133 -0.0201602 0.00885945 0.084313 0.0162184 0.103863 0.102341 0.0454468 -0.0205639 0.0337756 -0.0844455 0.0356935 0.00907037 0.0622821 -0.107694 -0.0305885 0.0509117 0.00936277 -0.026737
</s> -0.122788 -0.0566523 0.00830867 0.0282529 -0.0297467 -0.012225 0.0226098 -0.0251402 -0.0623564 -0.0493209 0.0256605 -0.0321548 -0.00497068 -0.00814489 0.0437034 -0.0120768 0.000636378 0.104572 -0.0205367 0.0828531 0.0793938 0.0133591 0.0137804 -0.042857 -0.0310218 -0.0499015 -0.0257358 -0.0642919 0.0349541 -0.0327052 0.0614266 0.0875339 -0.131864 0.0648817 -0.0353065 -0.00513858 0.000952984 -0.0476567 -0.0659523 -0.0792726 0.0100977 -0.0466441 -0.00495358 -0.0255473 0.0629766 -0.032868 0.00341787 -0.0137673 0.0438437 -0.0339223 0.0151136 -0.0960662 0.0214966 -0.047581 0.0713153 -0.00275599 0.0144444 -0.0200479 -0.0431302 0.0422298 -0.00426639 0.0154912 0.0655422 -0.0438426 -0.0358286 -0.123782 0.084646 -0.037813 0.0184133 -0.0513955 -0.0257315 -0.0225239 0.0689697 0.123618 -0.00316271 0.10608 0.0492484 -0.0140122 0.00849157 -0.00589474 0.0600495 -0.0141066 0.0282858 0.0451994 -0.0674993 -0.0750144 0.0278566 0.104666 0.013171 0.0624883 0.128918 0.112091 -0.0432783 0.0691534 -0.0164686 0.0520858 -0.0366871 0.0576223 0.13775 -0.0379081 0.0634773 -0.0274759 0.0654674 -0.072064 0.0677484 0.000590164 0.00897442 -0.0195591 0.0238508 -0.00745118 0.00466457 0.0566891 -0.0879828 0.00920537 -0.0646223 -0.0674613 -0.0531199 0.0710942 0.0336748 0.102992 0.146925 0.0353946 -0.17842 0.0093955 -0.0338729 0.0381014 -0.0113334 0.054781 -0.0153452 0.0633016 0.0625471 0.0226798 -0.00943821 0.0599801 0.0170809 -0.063359 0.0277499 -0.0844223 0.110692 0.0766395 -0.0126178 -0.00481577 0.0754581 0.0677768 -0.0955226 -0.0213722 0.0259534 -0.0134628 0.0232425 -0.0435234 0.0318005 -0.0758736 -0.0655655 -0.0249384 0.0876269 -0.0274981 0.0212133 -0.0103465 -0.0411047 0.0239701 -0.00362088 -0.0384305 -0.0400477 0.0303672 -0.00154176 -0.0300956 -0.0785796 -0.0571451 -0.0228487 0.0548222 -0.0371316 -0.0621419 -0.0650714 8.45708e-05 -0.029233 0.0334197 0.0292474 -0.0387178 -0.0125822 -0.0334518 0.0284547 -0.0102524 0.0134169 -0.0381098 -0.0565535 0.140753 -0.0374472 -0.0596293 0.0685063 0.0514377 0.0067756 -0.110959 0.0774768 -0.0385423 -0.128992 -0.0622407 0.0215447 -0.0370565 -0.0236733 -0.084774 0.0100196 0.0606787 0.0730117 0.0313651 -0.0527773 -0.10056 -0.0260527 -0.0471314 0.0699284 -0.00640305 0.0595415 -0.00877935 0.000408033 -0.0917605 -0.0334957 0.0222616 -0.0476057 -0.143679 -0.0553919 -0.00598511 -0.00494056 -0.01761 -0.0341408 0.0912041 -0.0733194 -0.0560619 0.03279 -0.156822 0.027762 -0.0150252 -0.0596989 -0.00232575 -0.0921514 -0.00157781 -0.0360913 -0.0316935 0.0572783 0.059632 -0.109156 -0.0173505 -0.00999876 0.0017911 0.0503795 -0.0790206 -0.0727897 -0.0489173 0.0370757 -0.0332292 -0.0286725 -0.00311963 0.0663465 -0.00729695 -0.127778 0.0476086 0.0620834 -0.00243129 -0.00200285 -0.0484543 -0.0676456 0.0306865 -0.0680845 -0.00765166 0.0741914 0.0184098 -0.0731298 0.101471 -0.0617229 0.0298484 -0.0611637 0.0133768 -0.0513008 0.0137748 0.0914034 0.0132332 0.00163792 -0.0698281 -0.0383458 0.133718 0.0683031 0.00856922 -0.00392736 -0.00126726 -0.0568402 -0.107888 0.0679321 0.0684656 -6.48976e-05 -0.0122443 -0.0418755 0.0785339 0.0239463 0.0119761 0.045967 0.0974014 0.0564218 -0.097238 -0.0632598 0.057305 0.0975199 0.0502163
, -0.123928 -0.0845516 0.0225958 0.0304977 -0.0580926 0.0277204 0.0297591 -0.0464795 -0.00913842 0.0858537 0.0280542 -0.0434526 0.0811346 -0.0502064 -0.0786114 -0.0795141 0.00196295 -0.0226212 -0.0104485 0.0438376 0.0302332 0.078302 -0.0552608 0.0634453 -0.0485311 0.0518687 -0.00386724 -0.059863 -0.0736315 -0.0360379 -0.0436535 0.0868797 -0.0973343 0.0813514 0.0144471 -0.134283 -0.036988 -0.112131 0.080331 0.00567768 -0.0253146 -0.0737188 -0.0490404 -0.000498008 -0.0301719 0.0207965 -0.0344859 0.0297995 0.0948566 0.00500127 -0.0172684 -0.0116112 0.00425798 -0.0392359 -0.0585483 -0.0465728 -0.0116916 0.076432 -0.0149251 0.105666 0.0170656 -0.0720633 0.0630198 -0.00254836 0.0570739 -0.0174677 -0.0300745 -0.0197753 -0.183618 -0.0929374 -0.0350812 0.00953474 -0.0573138 -0.0923212 -0.0394072 -0.020493 0.082119 0.0150426 -0.0239139 0.0561966 -0.0480658 0.0257116 -0.0923613 -0.0617601 0.0537236 0.0147582 0.0327237 -0.0259421 0.125585 -0.00257175 0.025675 -0.0377345 0.0722682 -0.0428171 -0.0221397 0.0276558 0.0684125 0.0125414 -0.0256923 5.88529e-05 0.0218903 0.0271322 -0.0352108 0.0831712 -0.00632863 0.0424291 -0.10599 -0.00382743 0.023767 -0.0299331 0.00657691 0.0381737 -0.0324882 -0.0879818 -0.0438874 -0.00226012 0.103239 -0.0821902 0.0363837 0.0535533 0.0624269 -0.0336677 -0.0375681 0.0545564 0.0612482 -0.0740686 0.0691658 0.0166652 0.0592693 0.0772052 -0.0272825 -0.0108067 0.0373739 0.0483066 0.041174 -0.00285186 0.00617449 -0.0325543 0.00907435 0.0652473 -0.0840964 0.0451585 0.0498792 0.00498812 0.0759241 0.114837 -0.016891 -0.0553409 -0.0088139 -0.0519185 0.0962038 -0.0910897 -0.0809877 -0.0503618 -0.0799016 -0.0305982 -0.00427548 0.0171429 -0.00330862 0.0474632 0.0206017 0.037719 -0.0805854 0.0937334 0.0196557 -0.0412909 -0.0658295 0.0177461 0.0042912 0.0511368 -0.103193 0.047706 -0.0961493 -0.025121 0.00432881 0.0484179 -0.00989524 0.0978248 -0.0063232 0.0030133 0.0627516 -0.100148 0.0205551 0.0129487 -0.00589019 0.223046 -0.0298617 -0.0777941 0.0185219 -0.00460018 -0.02471 -0.121064 0.0581533 -0.0484564 -0.141478 0.0474679 -0.0308565 0.108088 -0.0332472 0.00140834 0.081173 -0.0287022 0.0144385 0.072196 0.0435678 -0.0927835 0.018005 0.0118357 0.0611718 0.0360597 0.0452601 0.00573006 -0.0359855 0.0206028 -0.0234442 0.0124022 -0.0190263 -0.124434 -0.114297 0.00114966 0.0311641 -0.000195636 -0.0685186 -0.00455084 -0.0312235 -0.0662129 0.0013602 -0.011105 0.0478046 0.0704479 0.0140491 0.00123242 -0.0380684 -0.0947821 -0.0795826 -0.012737 -0.144713 -0.0283113 -0.00324744 -0.019595 0.014429 0.102569 -0.0321191 -0.00594649 -0.0257701 0.076081 -0.00795518 -0.0205775 0.0315313 0.0082608 0.0484624 -0.0320323 -0.0774201 -0.0612498 -0.0419352 0.0454649 0.000414392 0.0523544 0.0994063 -0.0176606 -0.0290985 0.0928624 0.0453543 -0.0574834 0.0237412 0.0566686 -0.0663323 -0.00053168 0.0143169 0.0201649 0.0264513 0.0821615 0.0590765 -0.0343443 -0.126645 -0.00190328 0.113049 0.00488925 0.031672 0.0477282 0.0383896 -0.00388132 -0.0935984 0.057663 -0.00339464 -0.0304536 0.035163 -0.0288841 0.00258394 -0.0621526 0.0199592 -0.149402 0.0580408 0.035505 -0.0114589 0.00147395 -0.0372586 0.0612749 0.0404636 -0.0502626
i 0.00329696 -0.0905955 0.0988768 -0.0125084 -0.0967423 -0.0839647 0.00357761 -0.0869291 -0.00923877 0.0403823 -0.0286727 -0.0438762 0.0255927 -0.130943 -0.0773438 -0.0927501 0.0219366 0.0131641 0.0403119 0.0356858 -0.0768608 0.010908 -0.0729496 0.0424719 -0.0685669 0.000679673 -0.00532299 -0.0676726 0.0481306 -0.0539406 -0.0827106 0.0712751 -0.120786 0.0916405 -0.0115352 -0.0791535 -0.0244498 -0.0334008 0.108917 -0.0671003 -0.0806233 -0.0509368 -0.0448927 0.0245058 -0.0228505 0.0169377 -0.0689712 0.0529564 0.053355 0.00363803 -0.0233943 0.0128699 0.0802261 -0.0300957 0.0488266 0.0520853 0.0137685 0.0760615 -0.0174588 0.13882 0.0405948 -0.0321344 0.130086 -0.0546507 -0.069515 -0.0627194 -0.0894599 0.0413492 -0.160078 -0.0560845 -0.0762574 -0.0178145 -0.0899909 -0.0955203 0.00696154 -0.017947 0.103909 0.0730116 0.0309866 0.0358916 -0.109361 -0.00567631 0.0064073 -0.0332579 -0.0522487 -0.101066 0.0682763 -0.087191 0.0372651 -0.0816997 -0.0475732 -0.0459128 0.0377219 -0.0556807 0.0322731 -0.0065101 0.0178037 0.0678398 0.0108435 -0.0270929 -0.0776774 0.040528 -0.130665 0.0262087 0.026599 0.0483239 -0.106021 0.0127439 0.0236546 -0.00456141 0.0382726 0.0268159 -0.0289791 -0.0582389 -0.00468623 0.0287039 0.136824 -0.0197452 0.0835118 -0.0196968 0.025122 0.0314995 -0.058786 0.0896704 0.0258174 -0.0574169 0.0523074 0.0108277 0.0417558 0.00573792 0.00641534 0.0293832 0.0793004 -0.0309746 -0.0414576 -0.0635667 0.0292858 -0.053878 -0.0385037 0.0662244 -0.038568 0.051327 0.0101871 -0.00689167 0.0787493 0.125967 0.0574072 0.0625884 -0.013976 -0.00611109 0.108136 -0.0505329 -0.0814687 -0.0141222 -0.125907 -0.0399638 0.0777173 0.00560362 -0.0199021 -0.0611851 -0.0278135 0.0716844 -0.0257961 0.0547064 0.0309281 0.0269059 -0.0212318 0.00466407 -0.0093591 0.0238605 0.00384633 0.0571001 -0.0243467 -0.0474853 0.0363107 -0.00258837 0.0187595 0.0298802 0.0289735 -0.0492156 0.0518239 -0.0572728 -0.02596 0.01691 0.0495444 0.0292289 0.107728 -0.0138746 0.0257786 -0.0245194 0.00223956 -0.0348153 -0.000247741 -0.00410104 -0.0402761 0.0833733 0.0145475 0.0141911 -0.0246356 0.0394176 0.005466 -0.0640504 0.00131021 0.0513966 -0.00204067 -0.186071 -0.0529089 0.0324232 0.0146797 0.0162142 0.0390683 0.0115483 -0.0598257 -0.0493027 -0.0936377 0.0625081 -0.00782782 -0.0834679 -0.0669083 -0.00544364 -0.00867456 -0.0477854 -0.0567932 0.00514289 0.0156046 -0.010799 -0.0853376 0.0231466 0.0136334 0.0778097 0.0405873 0.0161717 -0.0431342 0.0252746 0.0268872 0.0810154 -0.0375259 -0.13043 -0.029074 -0.0728494 -0.00657811 0.0416194 0.014821 0.0289752 0.0627813 0.0276376 0.154286 -0.0123703 -0.0198404 0.0342391 0.1346 -0.0312276 0.0295732 -0.0402316 -0.0583447 0.0219656 -0.0129509 -0.0170176 0.0805142 -0.0191517 -0.0511039 0.134214 0.109495 0.00454375 0.0405414 0.0232544 -0.00925554 0.0385343 -0.0338607 0.00488676 -0.0456639 0.0295591 0.0232956 -0.0764645 -0.095165 -0.023912 0.112537 -0.00276237 0.0602866 -0.0364249 -0.000213412 0.00279832 0.0095778 0.0481886 0.0186274 0.0543744 0.0925915 0.0499106 -0.00933675 -0.0660576 -0.0404229 -0.157884 0.035216 0.0180575 0.0580929 -0.046627 -0.0392427 0.0396908 0.017157 -0.0201986
är -0.0351043 -0.0671885 0.089942 0.0304262 -0.018247 -0.0045806 -0.00555923 -0.0755736 -0.0355307 0.0562326 0.000333038 -0.0722504 0.0108256 -0.0719753 -0.0840785 -0.0147589 -0.00688141 0.00585922 -0.023325 0.0366258 -0.0819592 0.0569761 -0.060999 0.0264015 -0.0519336 0.0590739 -0.00491279 0.0269122 0.0230912 -0.0472146 0.0514379 0.0748685 -0.154808 0.0382283 -0.041114 -0.0267692 -0.0780696 0.0297672 0.0884165 -0.0237331 0.00261758 -0.0694861 -0.0970318 0.0400927 -0.0122117 0.0321726 -0.0186549 0.0185184 0.0640323 0.0435405 -0.0211008 0.0503337 0.0434762 -0.00690361 -0.0580173 0.0371167 -0.00329389 -0.0562699 0.0552724 0.130172 0.0221218 -0.0361492 0.0318547 0.0329206 -0.043869 -0.00105443 -0.0604324 0.0491745 -0.132443 -0.0838637 -0.0552648 0.00409008 -0.0432844 -0.0783444 -0.0958456 0.0212477 0.0738161 0.0580555 0.0311012 0.0372857 -0.0975334 0.0522376 0.0270144 -0.0615104 0.00673699 -0.050102 -0.00407319 -0.0455584 0.0805427 0.0116613 0.0798612 -0.00554545 0.00387207 0.0214733 0.0445304 -0.0560661 0.0113711 0.0818719 0.0467615 -0.110388 -0.155256 0.0583668 -0.0777959 0.0706164 0.0487636 0.0290839 -0.103656 0.0161036 0.0635034 -0.0882466 0.0289121 0.0413822 -0.0777846 0.0598761 -0.0106354 -0.0520615 0.0298856 0.00170982 0.078872 -0.011129 0.0747385 0.0433565 -0.0717691 -0.0144452 0.0363721 0.0365691 0.0451604 0.0710559 0.00323051 -0.000904743 -0.0120153 0.0132068 0.00846321 0.0727729 0.114983 -0.0264831 0.0186407 -0.0347256 0.00783703 0.0905335 -0.105673 0.0542854 0.0241356 -0.00608362 0.00379117 -0.0227178 -0.0160997 -0.0515452 -0.0252886 -0.0437097 0.106692 -0.10038 -0.12192 -0.0315127 -0.134586 -0.00222407 0.08944 0.0591005 0.0519137 -0.0136668 0.0180287 0.0323859 -0.0661221 -0.0270496 0.10928 -0.0206973 -0.0703139 0.0182476 0.0476677 0.0876372 0.0263585 0.0799766 -0.0593324 0.0190107 0.00194344 0.00859644 -0.0296541 -0.0123853 -0.0298251 0.0185001 -0.0483029 -0.0845838 -0.0209852 0.127834 0.0761279 0.0572858 0.0398426 -0.0471451 0.0209809 0.0234413 -0.0920758 -0.087173 -0.028081 -0.0168614 0.0126512 0.00519421 0.00461853 0.0781885 -0.124712 0.0508823 0.0120301 -0.00885861 0.00264804 0.0541178 -0.126892 -0.161975 -0.00951825 -0.00481014 0.0186294 -0.0220334 0.0704811 0.0355972 -0.00786427 -0.0297022 -0.0366253 0.00354906 -0.0116164 -0.144874 -0.0795293 -0.0186422 0.0148882 -0.0216391 -0.0535259 -0.00890915 0.0986233 0.00368932 -0.00803009 0.0258451 -0.0660133 0.00228302 -0.0322622 -0.0524374 -0.0763414 -0.0231841 0.0749108 0.0275557 -0.0510353 -0.109301 0.0291411 -0.0528297 -0.0252198 0.0799113 -0.010476 0.000570697 0.0608748 0.0279329 0.132663 -0.0234308 0.00285832 -0.0073041 0.0960306 0.0332591 -0.0662598 -0.0864013 -0.015012 0.0569711 0.10032 0.019602 0.0507883 0.0260722 0.000548308 0.094164 0.0571222 0.0667702 -0.0186611 0.0652781 0.0121497 0.0918862 0.00452453 -0.0275923 -0.061308 0.146087 -0.0341742 -0.005471 -0.0822108 -0.0522311 0.144842 -0.0182328 0.00432988 0.0508068 0.00187631 0.0345765 -0.0135518 -0.0138348 -0.0476212 0.00957857 0.0739424 0.0776189 -0.0388148 -0.0165177 -0.00330999 -0.109558 0.0189072 -0.0475783 0.017725 -0.045971 0.0176842 0.0169766 0.0580795 -0.0324027
den -0.134846 -0.117208 0.00260639 0.0630264 -0.0309768 0.0346236 -0.0831957 -0.0390858 0.0292674 -6.71424e-06 -0.076131 -0.0961172 0.0431432 -0.0626986 -0.0912338 -0.0210507 0.0196011 -0.0447147 0.112801 0.107749 -0.0471352 0.0991676 -0.114378 0.041025 -0.0782375 0.0596702 -0.00553179 0.0120289 0.0418615 -0.0128446 -0.0707419 0.0434369 -0.0952043 0.0391993 0.00171554 -0.0554929 -0.0658296 -0.0229852 0.0608679 -0.0132522 -0.0814687 -0.0537856 0.00761832 0.0214978 0.0377595 0.0627943 -0.0518133 0.0544281 0.0641342 -0.0181078 -0.0121043 0.065755 -0.0374939 -0.00255603 -0.0293598 0.0482925 0.0131584 0.0183859 0.0660718 0.0947717 0.045604 -0.0558357 0.0195868 -0.00310322 0.0285747 -0.0692676 -0.10506 0.012347 -0.160697 -0.0809189 -0.0234517 0.0183523 -0.0233451 -0.165881 -0.0448805 -0.038148 0.0194307 0.0383987 -0.0137762 -0.0511586 -0.0165588 0.060575 0.024494 0.00907362 -0.0366612 -0.0380557 0.0310249 -0.0393673 0.135034 0.0093633 0.0252109 -0.0418413 0.100914 -0.0404615 -0.0370432 0.00624275 -0.00211308 0.05192 -0.0151293 0.029955 -0.154031 0.012013 0.00285616 0.0510403 -0.00874149 -0.0312794 -0.0603083 0.035023 0.0169485 0.0526303 0.000494538 0.00352065 -0.0173785 0.0495645 0.0199621 0.0227814 0.0663406 -0.0127215 0.133835 0.0943029 -0.0215134 -0.00975712 -0.0134684 -0.000132923 0.152628 0.00434732 0.0304777 -0.00263654 0.0307737 0.0643994 -0.0296981 -0.0251514 0.0399543 0.037586 0.0415605 -0.00682418 0.0310522 0.00253286 -0.0630103 0.0575322 0.0145974 0.0510305 0.0264098 0.0204232 -0.00556047 0.058464 0.000248772 -0.0418247 -0.0534053 -0.024326 0.0727212 -0.000708982 -0.142569 -0.0132803 -0.0822798 -0.096245 0.0814499 0.00179685 -0.00368386 -0.0437916 -0.0111419 0.0305228 -0.00604087 0.0333961 -0.0371969 -0.0183488 -0.0891631 0.0526864 0.0293449 -0.0138206 -0.0115017 0.0473209 -0.0864272 0.00134538 0.00285624 0.09708 0.0264916 0.0627569 -0.068607 -0.00613796 0.0297025 -0.0245414 -0.0140627 0.0563474 0.0141971 0.0950218 0.0676615 -0.0515556 0.0538838 0.109787 -0.117017 -0.0627662 0.00460734 0.003677 -0.117604 0.0621871 -0.00929082 0.018728 -0.0436871 0.0643817 0.0644147 -0.043709 0.00399207 0.0657759 0.0166649 -0.100973 0.0611158 -0.0710064 0.064492 0.132113 0.0645047 -0.0488131 0.0319649 -0.070548 -0.0389899 -0.0493568 -0.0530417 -0.147736 -0.0584448 0.0381195 0.0744491 0.0121306 0.0337126 0.0662948 -0.00142944 0.0451922 -0.0569001 -0.0426202 -0.0184721 -0.0955844 -0.00748168 -0.0333005 -0.0176294 -0.014552 0.0715316 0.130858 -0.101525 -0.060699 0.00855598 0.0533932 -0.0157486 0.0912675 -0.0578301 0.0325315 0.0400105 0.0441464 0.103229 0.00474946 0.067919 -0.0139874 0.0503138 0.0298578 -0.107047 -0.104955 -0.0549038 0.0255348 0.0249842 -0.0439402 0.0379226 0.00900267 0.0257955 0.127037 0.0280387 -0.0236687 0.0220255 0.0538739 -0.0221963 -0.0160684 -0.0211627 -0.0499032 -0.119547 0.0393817 0.0333092 -0.000623235 -0.0887127 -0.0718394 0.128274 -0.00731158 0.0322646 -0.0282508 -0.0470599 0.0460879 -0.0226637 -0.0039063 -0.00401878 -0.029932 0.0405523 0.0402271 0.0206954 0.00460413 0.0391833 -0.0879423 -0.0200259 -0.00882468 -0.0112332 0.031711 -0.00792507 0.0962404 0.0415757 0.057102
och -0.0355611 0.0666466 -0.0131984 0.0593899 -0.0831487 -0.0588101 0.029644 -0.0771578 -0.0251203 0.14297 0.0345138 0.00127151 0.0176004 -0.090139 -0.0585877 -0.117702 0.0316844 0.0010063 0.025988 0.0310802 0.016714 -0.0155454 -0.0813571 0.0394613 -0.125824 0.00153168 0.0253022 0.0167949 0.0136858 -0.149428 -0.0779229 0.00140349 -0.0995961 0.0831329 0.00373661 0.00533147 -0.0104727 -0.0353386 0.074333 -0.0615029 -0.023832 0.0203582 -0.0351376 0.0566278 -0.0190949 -0.00923522 -0.0369806 -0.0177365 0.0522084 0.000972566 0.0229802 -0.0129076 0.0207113 -0.0793674 -0.0586909 -0.0452183 -0.00495601 0.0764267 -0.10083 0.0976209 0.0740521 -0.100674 0.151929 -0.0368852 0.0288243 -0.0409236 -0.0944809 -0.0621822 -0.0719483 -0.0485525 -0.124119 -0.0866276 -0.0400711 -0.0689479 -0.0811903 0.0079369 0.078139 0.0688797 0.0483516 0.02813 -0.0234332 -0.0169204 -0.103518 0.020694 -0.00917378 -0.0677984 -0.0221149 -0.0290988 0.0154544 -0.0341124 -0.0175992 -0.0317754 -0.0054233 -0.0203955 0.0718462 0.0492174 -0.00569458 0.0465357 0.0594824 -0.0682568 -0.0382685 -0.050768 -0.0206721 0.0248418 -0.0192095 0.00882518 -0.0479238 0.0378106 -0.0423972 -0.0579704 -0.0155426 -0.0039436 -0.00751238 -0.0879727 -0.0537208 -0.0180571 0.0735382 -0.00127109 -0.0209617 0.0126547 0.0273499 0.0514404 -0.0128443 0.0626413 0.0314679 -0.0149423 0.102451 0.0239358 0.0794415 0.0651049 -0.0569935 -0.00492008 0.0337035 0.0119527 0.0255004 -0.0119134 -0.00603808 -0.0658484 -0.00925903 0.0655304 -0.0843228 0.100449 0.00685887 0.0339125 0.0974306 0.0447794 -0.0320671 -0.0324456 0.0237612 -0.0463458 0.0848634 -0.0666577 -0.0562666 -0.0332369 -0.0190748 -0.0172816 -0.0349762 -0.0574573 0.0833113 -0.000585612 -0.0571764 0.10984 0.0125186 0.0765397 0.106377 -0.0211353 -0.0562575 0.0254528 0.00453856 -0.00119031 -0.0320616 0.0390288 -0.0200872 0.0140725 0.0607997 0.0300552 -0.053593 0.0456367 0.0624695 -0.0398605 0.0458356 -0.0522646 0.0312223 0.0458817 0.013071 0.100148 0.00318035 -0.0785291 0.101752 -0.026376 -0.00454137 -0.0586432 0.0833839 0.0933828 0.00328488 0.0863253 0.00743183 0.0413464 -0.109624 0.0832509 0.122595 -0.0290066 0.0123565 0.0171277 -0.00981088 -0.145831 -0.0362023 0.0659431 0.0112557 0.00984202 0.0426037 0.0087253 -0.036506 0.00565212 -0.00239367 0.0713765 -0.0966293 -0.142854 -0.0637891 -0.0473211 -0.0017083 -0.054692 -0.00754539 0.0399994 0.00437235 -0.0567858 -0.0297191 -0.0414691 -0.0138878 0.0914562 0.0205812 0.0187565 -0.0590077 -0.0229634 -0.0245551 0.113054 -0.0217244 -0.14927 0.0179926 -0.0172432 -0.0189803 0.0760205 0.0498538 -0.0466987 0.0667383 -0.0315878 0.083341 -0.0956533 0.0463431 -0.00816145 -0.0322165 0.031872 0.0332974 0.0435766 -0.0634405 -0.038395 0.00312689 0.0195396 0.0390061 -0.0430487 -0.0204684 0.106866 0.0563115 -0.002138 0.134778 0.0104107 0.0255981 0.0726872 0.0263044 -0.0778207 -0.0662882 0.00739403 -0.0483303 0.0322726 -0.0810101 -0.0280838 0.0864461 0.0171719 0.0459937 -0.095889 0.00165662 -0.0383392 0.0213087 0.0127464 0.0489433 0.125724 0.0832269 0.105128 -0.0501775 -0.0030321 0.0855714 -0.0282456 0.106217 -0.0314692 0.0969919 -0.0943757 -0.016845 0.0772558 0.0173258 -0.00985309
' -0.0278591 -0.00731577 0.0267605 -0.0991407 -0.104248 -0.119978 -0.00735096 0.0587651 -0.00368598 -0.0153361 -0.0084953 0.0115011 0.0418973 0.000248074 -0.0283013 0.0140832 -0.000272318 0.0617544 -0.0468758 0.0280116 -0.064764 0.0944665 -0.0259622 -0.0453595 -0.0368932 -0.0144847 0.0807766 -0.0460073 0.0131269 -0.0242212 0.000651164 0.00204399 -0.0737926 0.0179146 0.0650848 -0.0168905 -0.00639334 0.0488652 0.101335 -0.0107421 -0.0721464 -0.0343566 -0.0757649 -0.00643437 0.00153856 0.0619252 -0.101645 -0.0439212 -0.0195903 0.0315688 0.0166156 0.0061647 0.0662272 0.085451 0.05541 -0.0619802 -0.0376943 -0.0305194 0.0193555 0.145568 0.016771 -0.0695659 -0.0180289 0.0557341 -0.0924879 0.016464 0.0242166 -0.0612651 -0.124429 -0.0182572 0.000648886 -0.0165935 0.00382185 -0.0409259 -0.0645273 0.0151086 0.0444993 0.0297092 -0.050041 0.0258467 -0.0327753 0.0678074 0.0733895 -0.0084054 -0.0147192 -0.0527791 0.0337479 -0.0413369 0.0371393 -0.0146672 -0.0295287 0.00217078 -0.00223383 0.0392829 0.0411876 -0.0451284 -0.0537341 0.0614087 0.135022 -0.0139661 -0.0526546 -0.0310796 -0.0941391 0.0535229 -0.00356944 0.0184388 -0.0819459 0.0126507 0.134242 -0.105339 0.0777041 0.0594069 -0.0579637 0.0668782 -0.0310866 -0.0190879 0.0353385 0.112762 0.0194637 0.0621023 0.0397608 0.073192 -0.0994855 0.0606683 -0.0549349 0.00744638 0.0301902 0.0541951 0.0608198 -0.0783154 0.0341401 0.0707748 0.0477037 0.0730553 0.0707669 -0.00668366 -0.0468559 -0.12046 0.0153529 0.0410877 -0.00703907 -0.0603812 0.0671626 0.0137692 0.00077945 0.0658525 0.0630701 0.058195 -0.0465283 -0.0208187 0.106406 -0.0151084 -0.119141 -0.0567173 -0.155468 -0.0469617 0.0799697 -0.0174009 0.0269604 -0.100969 -0.0503999 0.00720231 -0.0261188 0.0199739 0.136761 -0.11389 0.00969531 0.0554146 0.0167057 0.0175072 -0.0380321 0.0364162 -0.0364144 -0.115913 0.0421404 0.0748991 -0.0374035 0.0453556 0.0028676 0.0574005 -0.0691731 -0.0514789 -0.096915 0.049729 0.0561559 0.0661109 0.0420097 -0.039369 -0.00351214 0.0182135 -0.0312723 -0.0669717 0.03236 0.0327157 0.0895871 -0.102769 0.0799547 0.0927949 -0.0696468 -0.0210526 -0.00767629 -0.10426 -0.0478119 -0.0346199 -0.0759219 -0.141979 -0.0945877 0.0170528 0.094715 -0.0384862 0.0959392 -0.0591942 -0.0207081 -0.0201057 -0.0293213 0.00411577 0.0594356 0.0260872 -0.0380988 0.0100919 0.0299138 -0.034755 -0.143285 -0.00584989 -0.0144481 0.0102636 -0.109452 0.0409709 0.0548059 0.0678759 -0.0367215 -0.0468406 -0.0009514 0.0108025 0.0332578 0.068036 -0.0215549 -0.0279028 0.0232876 -0.0279212 -0.0493268 0.0679038 -0.00994926 -0.0670912 -0.00144553 0.0740112 0.11422 -0.0346761 -0.045933 0.0286613 0.149269 0.0539604 0.0260748 -0.032207 -0.00387442 -0.0387529 0.0441476 -0.0800944 0.0765378 0.0154246 0.0453299 0.00607386 0.0148085 0.0305269 -0.0110122 -0.0438222 0.0144013 0.0626763 -0.048274 -0.0335096 -0.0128294 0.0265224 -0.00300267 -0.0267225 -0.0937508 -0.022166 0.0482642 -0.0119495 0.000196297 -0.0390977 0.0415015 0.13739 0.0257798 0.0143917 -0.0936703 0.0539296 0.144347 0.0192285 -0.0431564 0.00467598 0.0546514 -0.104714 0.0174103 -0.0281347 -0.060887 -0.0434929 -0.0122195 0.0121086 0.0449099 -0.0170313
- 0.00129104 -0.0529246 0.0160632 -0.0367199 -0.0125408 0.00132865 0.0361122 0.0124566 -0.0347598 0.0148222 0.0294171 -0.0057409 0.0834326 -0.108788 0.00641652 -0.104253 -0.0877145 0.0742246 0.011337 0.0715341 0.00770058 0.0182909 -0.100996 -0.048432 -0.0130335 0.0247428 0.0427143 -0.197433 -0.00706376 -0.0374873 -0.04556 0.0209581 -0.0473967 0.0852275 0.0192363 -0.132077 -0.0260867 -0.0685931 -0.0283795 -0.0514234 0.0862712 0.0547641 0.0220723 0.00894739 -0.0199505 0.00977073 -0.0472419 -0.0118098 0.0926461 0.00503698 -0.110747 -0.0836038 -0.058017 -0.0423049 -0.0266913 -0.0171153 0.039682 0.0299464 -0.0578926 0.0924391 -0.0102954 -0.0615928 0.0449515 -0.092028 -0.068648 -0.0215218 0.0608752 -0.0212949 -0.22713 -0.00263392 -0.0022504 -0.032514 0.010432 -0.0411917 0.00160247 -0.0146628 0.0801671 -0.0339219 -0.0200459 0.100905 -0.00581786 -0.0449699 -0.00143887 -0.0387467 0.0405197 -0.0461331 -0.00490078 -0.0246962 0.0130882 0.00585037 -0.0498257 -0.0319578 -0.000131009 0.0223631 0.102919 0.0270875 -0.0230369 0.0182596 -0.0794301 0.00562803 0.0305799 0.00285496 0.0149361 -0.0123732 -0.0032256 -0.085296 -0.0290159 0.0332943 0.00979392 0.0433464 0.0657504 0.0845992 -0.065995 0.0605856 -0.0118811 -0.0914425 0.0181091 -0.0145873 0.0141278 0.0640393 0.00198071 -0.0421378 0.00250136 0.0363651 -0.028268 -0.105008 0.0308851 -0.0322392 0.0285762 0.107499 0.025111 0.02748 0.045922 0.0336567 -0.130516 -0.0264175 0.0596354 -0.0334584 0.0391222 0.141162 0.0696327 -0.0255279 0.0751461 0.0963822 0.0441244 0.0791526 0.0669126 0.0237071 0.0145775 0.00281063 0.0704912 -0.142113 -0.143157 -0.0647511 -0.00995914 0.0670632 0.00987536 -0.128824 -0.000980017 -0.0115355 -0.0428281 -0.0484405 -0.0664332 0.0212719 0.0975534 -0.0497684 0.0319512 -0.0455867 7.76729e-05 -0.0251576 -0.0794218 0.0456459 -0.0221746 0.0575393 -0.0399215 0.041708 0.00148967 0.00382438 0.0540806 -0.0318677 -0.0165726 0.0463498 -0.0392093 0.0313199 0.0289696 0.140321 -0.0581423 -0.126712 0.0436329 -0.0417875 0.0380777 -0.123278 -0.0157152 -0.0583403 -0.0556597 -0.0202374 0.011039 0.084063 -0.0704801 -0.0242157 0.0166403 -0.056126 -0.0888095 -0.0336587 0.0578691 -0.0242019 -0.0279159 -0.0571274 0.0807376 -0.0119044 0.128865 -0.0661001 -0.11137 -0.0738076 -0.041178 -0.0274174 0.0258359 -0.0324251 -0.106408 0.0783967 -0.0553192 0.0494118 -0.0781524 -0.0156736 -0.0331559 -0.0558072 -0.0259683 -0.0540251 0.101814 0.057868 0.0375607 0.0738443 -0.0137976 -0.072971 -0.00949497 0.0245072 0.0494435 -0.0244262 0.00700604 -0.00650003 -0.0956292 -0.059444 -0.0460103 -0.0451237 0.0528466 0.0172422 0.102451 0.107881 -0.0683573 0.00136174 0.0370586 -0.00106619 -0.00685786 0.0258017 -0.00183637 -0.0232441 0.0637536 -0.0479844 -0.0401173 -0.00498995 -0.0158338 0.0140133 -0.032951 0.0170234 -0.05084 0.0342484 -0.101831 -0.0706138 0.128516 -0.0132438 -0.0645296 0.0438145 0.0831553 0.0202767 -0.093445 -0.00555198 0.0271907 0.0631481 -0.00990261 -0.0412987 0.00930837 0.0790425 -0.0196658 0.0148476 -0.0107319 0.00921355 0.0652999 0.0436636 -0.0157519 -0.011614 0.0402235 -0.0485831 0.10795 0.0493033 -0.0420839 0.0048039 0.0136986 0.00947007 0.0786758 -0.0272702
med -0.127546 -0.0751972 0.0240139 0.113808 -0.00387042 -0.0129313 0.0569661 -0.108216 0.0726049 -0.00087903 -0.000619524 0.0314968 -0.0525705 -0.0415723 0.00769082 -0.101178 -0.0353868 -0.00798575 0.0226359 0.0229272 -0.0531574 0.0893309 -0.0114756 -0.00731511 -0.0479755 -0.0680628 -0.00974973 -0.00724475 -0.0247609 -0.0171912 -0.0336875 0.0130363 -0.111568 0.00376792 -0.092418 -0.0510102 -0.094442 0.0772705 0.0595953 -0.0612964 0.0948336 -0.124677 -0.0159758 -0.0276252 -0.03857 -0.0654887 -0.0370378 0.0313728 0.0680638 -0.016359 0.0483809 0.0495217 -0.0485222 0.0622998 -0.111805 0.0268638 -0.00535394 -0.0266133 0.0310163 -0.000870764 0.00789993 -0.0619558 0.0256079 -0.033779 0.0135475 -0.0425743 -0.0580664 0.10455 -0.0674428 -0.00344642 -0.0780966 0.0498815 -0.0713506 -0.00690011 -0.0581337 -0.0566772 0.0506086 0.114149 0.0696046 0.0284306 0.0421007 0.0622672 0.00417038 -0.0251796 0.0396162 0.00159824 0.0709 0.0493008 0.0289318 -0.0183819 0.0592855 -0.0590795 0.100618 0.0160291 0.0127986 0.109815 -0.013345 0.0280644 -0.0665132 0.0488441 -0.0417223 0.00879756 -0.0175718 0.0835079 -0.0391341 -0.0429883 -0.0952882 0.0997591 0.0666529 -0.0210843 -0.0472811 0.0168584 0.0105151 -0.0446543 0.0375506 -0.0339126 -0.028183 -0.0250514 0.0416194 0.0275061 0.124757 -0.0608516 -0.0467392 0.103522 0.0660727 -0.0681164 0.0692629 0.0511762 0.0593817 0.0877983 -0.0617383 -0.00682653 -0.000917062 0.0717998 0.106492 0.022792 0.068519 0.0101648 0.0958138 0.0220169 -0.047098 0.0938771 0.0245529 0.068189 0.0455162 0.0109351 -0.0159267 0.018362 -0.0479923 0.0165946 0.0725349 -0.0585644 -0.0721338 -0.00399276 0.000153012 0.0334769 0.0378345 0.0479331 -0.0728176 -0.0333623 0.0035375 0.00171448 -0.0273317 0.0121486 -0.0181264 -0.0479982 -0.103647 0.00186396 0.0662448 0.0407133 -0.00568009 -0.0199899 -0.126583 0.0513971 -0.0371423 0.111273 -0.0112999 0.0976897 0.0156564 0.00630593 0.0358968 -0.135989 -0.0157122 0.00179913 -0.0201197 0.0997343 -0.057149 -0.0666162 0.0136049 -0.0353521 -0.0216354 -0.109906 0.0247381 -0.0613309 -0.0614046 -0.0288089 -0.0166708 0.0996854 -0.047086 -0.0626076 0.0037033 0.0806418 0.0770208 0.0909142 0.0302402 -0.00646782 -0.0858464 -0.0670795 0.0550334 0.0779303 0.124053 -0.0307863 -0.025932 -0.0951906 -0.064838 -0.000962191 0.0285099 -0.201314 -0.117153 0.0148634 -0.032274 -0.0269463 -0.0341789 0.0315516 0.0176377 -0.0430342 -0.0172575 -0.0327994 -0.0180146 0.0180706 0.0729236 -0.0124128 -0.0371145 -0.0900251 -0.037812 0.0459436 0.0101899 -0.054764 0.076482 0.0989305 0.0575089 0.0603371 0.0375958 0.0351045 0.0506119 0.0542559 0.0273551 -0.0843979 -0.0213715 0.0370332 0.0370461 -0.0710962 -0.0680768 -0.129495 -0.0561398 0.0781657 -0.00457163 -0.0395545 0.0211534 -0.00131522 0.0187921 0.0426848 0.0140799 0.0678345 0.0285151 -0.053129 0.0241244 0.00426868 0.0696907 0.0327901 -0.102548 0.0424727 -0.0202846 -0.00588269 -0.16317 0.00969829 0.0458276 0.016237 0.0772919 0.0514024 0.0236838 -0.0112383 -0.0677957 0.04984 0.0117538 0.0538402 -0.0304895 0.0266028 0.0156926 -0.0162385 0.0119773 -0.106231 0.0372748 0.019679 0.0348337 -0.0665915 0.00567108 0.0419522 -0.0192313 -0.0654988
av 0.0136634 0.0145012 0.0166206 0.0192376 0.0057798 -0.0910371 -0.0234121 -0.000274585 -0.0261868 0.146221 -0.0196905 0.00375396 0.0550588 0.00379252 -0.018075 0.00438177 -0.081157 0.0559629 0.0406986 0.0774043 -0.0897096 -0.00267436 -0.00830305 -0.00596411 -0.0914591 0.037857 0.00211834 -0.0477341 0.0712196 -0.0319531 -0.000129751 0.0512458 -0.0385682 0.0950345 0.103039 -0.0463416 -0.0472379 -0.0313254 0.102556 -0.118962 -0.0609603 0.0403921 -0.0314428 0.0383878 0.0161529 -0.0423166 -0.0362366 0.00328739 0.0182532 0.0382082 0.0652774 0.0103682 0.0849898 0.0344129 0.0429181 0.0380766 -0.0553757 0.00490051 -0.0991607 0.102922 -0.0137586 -0.0801945 0.0462067 0.0272578 -0.086371 -0.014227 -0.057026 -0.0746324 -0.0915172 -0.0341202 -0.0344576 0.0399926 -0.0357881 -0.145785 -0.0796388 -0.0147728 0.0630817 -0.0388909 0.102633 -0.0256386 0.00800003 -0.0524085 -0.0244225 -0.08288 0.0243245 -0.0723235 -0.0818155 -0.00619494 0.0150656 -0.0403278 0.0200847 -0.107382 0.00487901 -0.0645366 0.0241014 -0.0231948 0.0103235 0.0496786 0.0987333 -0.033274 -0.0615416 0.0203622 -0.0223414 -0.00262974 0.020454 0.0509891 -0.0274629 0.0602796 0.00627272 -0.0170716 0.0103949 0.0113155 -0.0244229 0.018658 0.0307915 0.0451428 0.097471 0.101875 0.0732759 0.0132624 -0.00286566 0.0947833 0.00565128 -0.00753806 0.0435829 0.00294304 0.0649239 0.0467064 0.0473928 0.00469579 0.0676678 0.00954706 0.0333648 -0.00482344 0.113767 0.0735031 -0.0267997 0.0430944 -0.0267703 0.0979979 -0.0363031 0.0480141 -0.024455 0.0346178 0.0491456 0.0468319 -0.0938075 0.0650614 -0.0486967 -0.026468 0.0989892 -0.0930627 -0.0824781 -0.0461789 -0.104297 -0.0671823 0.10917 -0.00723923 0.0324818 -0.0517932 -0.0851724 0.0249175 0.0482955 -0.035483 0.119538 0.00108047 0.0210571 -0.051848 0.0890454 0.0109588 -0.113635 -0.0295534 -0.0201093 -0.0284138 -0.031268 0.0423768 -0.0184558 0.0182024 0.0195794 -0.00857623 -0.0313881 -0.119817 -0.0438677 0.00337498 0.0139706 0.0409449 -0.047718 -0.0746191 0.015473 0.105009 0.0233166 -0.0568726 0.0586977 0.0119669 -0.0753273 0.017031 -0.035304 0.00994928 -0.0723936 0.0821879 0.105448 -0.103419 -0.0671677 -0.00831469 0.0153609 -0.1404 -0.0339124 0.0629993 0.0432381 -0.0363152 0.128621 -0.016051 0.0357647 0.00142857 -0.0778809 0.0432308 -0.0216554 -0.0779138 0.0157411 0.0245208 -0.0349569 -0.0210645 -0.0455589 0.0741363 -0.0204237 0.00272878 -0.112215 -0.0510506 -0.0144205 0.096988 0.0233779 -0.00344243 -0.0475193 0.0285092 0.0536377 0.110008 0.0136463 -0.115014 -0.0793056 -0.0305031 0.00252017 -0.00974064 0.111271 -0.0680003 -0.0167705 -0.0411688 0.0260946 -0.0928765 0.0978856 0.000624204 0.00747212 0.07067 0.00253268 0.0406491 -0.0187218 -0.0286049 0.0476581 -0.0363333 -0.0254814 -0.0757954 -0.0188745 0.0666832 -0.00410733 0.0733735 0.0496304 -0.0330093 0.0231457 0.0581365 0.0273319 -0.0961467 0.0274216 0.0445963 -0.0306974 -0.00907097 -0.0892055 -0.0182054 0.0666841 0.0606349 0.0414461 0.012911 0.0835345 0.0558404 0.0568515 0.0115509 -0.0352619 0.0386529 0.10154 0.148739 0.00434287 -0.0964739 0.0670871 -0.0172712 0.115849 0.0734898 -0.0217457 -0.0600081 0.0174286 0.101511 -0.0630891 -0.0549565
en 0.00208607 0.0751315 0.0101571 -0.0260533 -0.0270989 -0.049033 -0.0250394 -0.0559597 0.0297763 0.0464512 -0.00259266 -0.0200962 0.0657887 0.0592734 -0.0836119 0.0630394 0.00410963 0.00124371 -0.0398772 0.00212463 0.0188466 0.0633756 -0.0270885 -0.00408564 -0.119144 0.0183369 -0.0156947 0.101255 0.063467 -0.0306221 -0.0347503 0.0297868 -0.0812545 0.0769408 0.0271695 0.0186764 0.00698921 0.0113718 0.0350514 -0.011969 -0.0741788 -0.0299518 -0.085155 0.0149502 0.00809549 0.0417079 -0.0274037 -0.0482382 -0.0527896 0.0166904 0.0317076 0.0632446 0.0137408 0.0157721 0.0728464 0.00890319 -0.00649085 -0.0201031 0.0242783 0.122535 -0.0348813 -0.119913 0.0476841 0.020488 -0.101645 -0.0437088 -0.0606616 -0.000647191 -0.0902287 -0.014464 -0.0590215 0.0163441 -0.0257577 -0.119351 0.0217594 -0.0722957 0.103773 -0.04575 -0.0388415 -0.0660774 -0.133409 -0.0230667 0.00746146 -0.0281261 -0.0588361 -0.049321 0.0356065 -0.105113 0.0182021 -0.04704 -0.00682247 -0.0672435 0.0418408 -0.0447059 0.0246882 -0.000980856 -0.0391223 -0.00195253 0.0381203 -0.08127 -0.0993765 -0.0422207 -0.0055396 0.0373746 0.0623645 0.00243625 -0.0507182 0.106739 0.0114091 0.00709102 0.0530991 0.014209 -0.067463 0.0859404 -0.0586937 -0.00525387 0.0233147 0.0215591 0.0502315 0.0774205 -0.0807829 0.114844 0.0252839 0.0617034 -0.0716971 0.0336864 -0.00662413 -0.0299723 0.0728586 -0.0248254 0.0295327 0.045899 0.0306143 -0.0514093 0.0561303 -0.0379224 0.0127741 -0.042548 -0.00923875 0.0693247 -0.0726268 0.0540999 0.0806417 0.00755494 0.0475618 0.0785543 -0.0350509 0.0541865 -0.0312021 -0.0141519 0.121253 -0.0134627 -0.127577 -0.0954872 -0.153402 -0.0865757 0.192156 -0.0936563 0.0215078 -0.0551395 -0.0614831 0.0470051 -0.0415838 0.110439 0.132388 -0.0483338 0.0575521 0.0150519 -0.0211888 -0.00164272 -0.0235202 0.028239 0.0242519 -0.0822194 -0.013797 0.0427684 0.0112078 0.124644 -0.0177258 0.00532493 -0.0544756 0.0200373 -0.0088976 0.101188 0.0326182 0.0420435 0.11882 -0.0389824 0.0402054 0.113372 -0.0620711 -0.083467 0.0312195 0.0838998 -0.0716904 -0.0791045 0.0596193 0.0021773 -0.0215189 0.0228735 0.104182 -0.0355283 -0.0591853 0.0386452 -0.0570912 -0.136774 -0.083512 -0.00812614 0.052415 0.0397195 0.0273399 -0.0329066 -0.00450185 0.0225145 0.0077122 0.0199631 -0.0269169 -0.0933712 -0.0377581 -0.029865 -0.021488 -0.0445732 -0.021847 0.0685297 0.0148572 0.0678421 -0.135373 -0.0100528 0.0175092 0.0315936 0.00363482 -0.0722241 0.00529733 -0.0189727 0.0834032 0.100563 0.0169449 -0.103733 -0.0692429 0.0454192 -0.0599744 0.0339072 0.027671 0.0488151 0.045498 0.0383996 0.077563 -0.00391436 0.0475919 -0.0126109 0.104573 0.0125088 -0.0447033 0.00859159 0.0118408 -0.0316468 0.0516005 -0.0641696 0.0731933 0.0381234 0.0533739 -0.0266758 -0.0173195 0.0263994 0.0132121 0.0297424 0.0332862 0.0254337 -0.0456886 -0.11554 -0.0561666 0.0564068 -0.0415692 -0.0169117 -0.0841322 -0.0484278 0.121279 -0.0249627 0.0202009 -0.0545741 -0.0497803 0.0882813 0.040059 -0.0623424 -0.0199505 0.02901 0.103098 0.0587928 -0.0290378 0.0166971 0.0803048 -0.0596108 -0.00889928 -0.0410693 -0.0403199 -0.0454824 0.0100935 0.0624449 0.052188 0.0548125
) -0.0107762 -0.0723026 0.0146742 0.0164145 -0.11164 -0.0243797 0.0295884 0.0784997 0.0465877 -0.012482 -0.0016625 -0.0786807 0.0713022 0.0319431 -0.0280935 -0.00359458 -0.0294281 0.0157602 -0.0238135 0.0713518 0.0408048 0.0710997 -0.0511869 0.00346007 -0.0873875 0.0275381 0.0396318 -0.0921806 0.0179452 0.00461668 -0.0400109 0.0736214 -0.0269749 0.117531 0.112266 -0.0855518 -0.0152729 -0.0961457 0.071613 -0.0177092 -0.00765736 0.0382788 -0.0670219 0.0224141 -0.014702 0.0772638 -0.0328905 -0.0660364 0.0108547 -0.0260315 -0.0553918 -0.0696466 -0.0266143 -0.03259 -0.00317046 -0.0775581 -0.0206897 0.0988377 0.0170521 0.100761 -0.00856454 -0.0923887 0.0085952 -0.00513128 -0.0103057 0.00622285 0.0353772 -0.0961078 -0.112451 -0.0799316 0.0551756 0.0281405 0.00460473 -0.0614488 0.00419999 -0.0724595 0.0827693 0.0583938 -0.0706642 0.116506 0.00640238 0.0213011 -0.0284539 0.0497257 0.0867211 -0.0120523 0.0426624 0.0764877 0.078772 0.0135719 0.0174551 -0.0512283 0.0507429 -0.0343775 0.0330605 0.0339426 -0.0195955 0.00492234 0.0619922 0.0478457 0.0635917 -0.0360465 0.0268715 -0.00635825 0.0109219 -0.0363268 -0.0376095 -0.0045361 0.062395 -0.103751 0.0506847 -0.00303412 -0.0758254 -0.0379272 0.0172288 -0.0712704 0.0853298 0.0140721 0.0237079 0.0440965 0.0856301 0.00029211 -0.0540979 0.122853 0.0418143 -0.0524708 0.0102399 0.0487381 0.028841 -0.00359503 -0.00166393 0.00296314 0.00402359 0.0530323 -0.0432732 0.0156084 0.067388 -0.0566781 0.0279317 0.0513856 0.00527916 0.0648671 0.0480519 0.00654827 -0.000203941 0.175873 0.106199 0.0125319 -0.046933 0.0419303 -0.0727388 -0.0192407 -0.11828 -0.0375607 -0.0898387 -0.106956 0.0435139 0.0493783 0.0685348 0.0624578 0.114006 0.0422876 -0.066299 0.0237341 0.0280954 -0.0101153 0.0577878 -0.0676808 -0.0356496 0.0433645 -0.121128 0.0608868 -0.0491814 -0.0418555 -0.114241 0.0485387 0.00129557 0.0758341 -0.00637518 0.0428741 -0.0627047 -0.0889056 -0.0487073 0.0378438 -0.0568798 0.173137 -0.0458535 -0.0177973 0.0289449 0.0056786 0.0339326 -0.119439 0.068672 0.023174 -0.056544 -0.132425 0.0736624 0.017494 0.0184554 -0.0763213 -0.0124186 -0.149382 -0.0210001 -0.0129368 0.0292669 0.00141514 -0.0723712 -0.0267024 0.131423 -0.0151176 0.0729661 -0.0300952 -0.00993283 0.000813327 -0.0159454 -0.0808182 -0.0714517 -0.072066 -0.149586 -0.00692729 0.0524371 0.00803076 -0.0847172 0.0409983 -0.0799806 -0.0685632 -0.0338418 -0.0398792 0.120675 0.120771 -0.0424111 0.0823566 -0.0157099 -0.102657 -0.0923529 -0.0620151 -0.0635819 0.0146472 0.0208076 -0.0199735 -0.0317878 0.0448425 0.0213812 -0.0288671 0.00287194 0.0606959 -0.0269921 0.0350638 0.0167126 0.0503139 0.0163912 -0.00278564 -0.0283068 -0.0450317 0.0215359 0.0161977 0.0554986 0.0458789 0.0304249 -0.0387439 0.102075 -0.0387112 -0.0133397 0.0245766 -0.0650042 0.0635289 -0.0276939 0.0284898 -0.0382124 -0.0324113 0.00205508 -0.0154314 0.0835572 -0.0157758 0.0216172 -0.0318697 0.0553825 0.0424078 -0.00799769 0.013613 0.0552371 0.113333 -0.00796637 0.0473581 0.0298081 -0.0133875 0.0728339 -0.00852993 0.0397627 0.0231916 -0.00964022 -0.126484 0.071952 0.0131919 0.0157308 0.0259214 -0.00850975 0.0334629 0.053524 0.0497482
( -0.0153968 -0.0824543 -0.00231541 0.0236871 -0.119999 -0.0422523 0.00682049 0.0646023 0.0544973 -0.0255325 0.00579404 -0.0887915 0.0581303 0.0410001 -0.00756762 0.0120759 -0.0441821 0.0352085 -0.0413596 0.0600552 0.0211874 0.0859926 -0.0357398 0.000858245 -0.0867428 0.0472508 0.0499532 -0.118737 0.0234229 0.0143451 -0.0138489 0.100353 -0.0402557 0.100907 0.121175 -0.0951166 -0.0242571 -0.071853 0.113483 -0.0238963 -0.0133666 0.0348143 -0.0724978 0.0174126 -0.0113079 0.0958124 -0.052415 -0.0668762 0.00977661 -0.0243435 -0.0675593 -0.0700104 -0.0215645 -0.0277793 0.00464694 -0.0684519 -0.0250132 0.092728 0.00627571 0.0751042 0.00349604 -0.0919255 -0.00307449 -0.0183696 -0.0432463 0.0318722 0.0380131 -0.0759328 -0.124773 -0.110664 0.0465774 0.0587573 0.0204118 -0.0528289 0.0212979 -0.0645306 0.0986257 0.068447 -0.0397141 0.115371 -0.0134838 0.0300608 -0.0115585 0.0771126 0.087888 -0.0137202 0.0554047 0.0745657 0.0700637 0.0286488 0.0287852 -0.0244134 0.06536 -0.00861122 0.0214346 0.0245671 -0.0379569 0.0105448 0.0554639 0.0612499 0.0589356 -0.0546651 0.0203132 -0.00437547 0.00868346 -0.0352499 -0.0422718 0.0181197 0.0496048 -0.117355 0.0579298 -0.0022372 -0.0719838 -0.0268616 0.0245023 -0.0682772 0.0603373 0.00652435 0.00451135 0.0523261 0.0928006 0.00802948 -0.051579 0.0911803 0.0133704 -0.0385959 0.0195689 0.0426122 0.0261057 -0.00935471 0.00713516 -0.00975037 0.00318245 0.0650073 -0.0438702 0.0106626 0.0581572 -0.0543049 0.0313639 0.0378969 -0.0195378 0.0393286 0.0533435 -0.00559603 -0.0125753 0.172792 0.113581 0.0385072 -0.0615891 0.0508298 -0.0467902 0.00161096 -0.130422 -0.0195022 -0.0659647 -0.104447 0.0523142 0.0552089 0.0627754 0.0533773 0.120775 0.0491716 -0.0760503 0.0235217 0.0157846 -0.0154592 0.0530906 -0.0478698 -0.0256015 0.0628215 -0.0931572 0.0453478 -0.0649944 -0.0396371 -0.102179 0.0424361 0.00636989 0.0766933 -0.0150182 0.0440122 -0.0800192 -0.0855904 -0.0695959 0.0423385 -0.0605602 0.155032 -0.008466 -0.0160734 0.0509345 0.00351008 0.0234335 -0.104541 0.0492625 0.0127211 -0.0530305 -0.139408 0.0540755 0.019358 0.0294199 -0.100549 -0.0257473 -0.136126 -0.0169201 -0.00959548 0.0165065 0.00913051 -0.0667384 -0.0375581 0.106945 -0.00338459 0.0814535 -0.00765011 -0.0102989 0.00553223 -0.010684 -0.0834159 -0.0530253 -0.0531839 -0.167572 0.00948538 0.0430936 0.0110871 -0.0896353 0.035894 -0.0801765 -0.0804088 -0.0374275 -0.050497 0.0968909 0.113416 -0.0350772 0.0754927 0.0136605 -0.117342 -0.0839172 -0.0673337 -0.0685408 0.0194367 0.0218974 -0.0293741 -0.023042 0.0550848 0.0355211 0.00755053 -0.0046081 0.0611874 0.0148618 0.018222 0.0375285 0.0629323 0.0211396 -0.0120115 -0.0260978 -0.0617748 0.0232624 -0.0256855 0.0505255 0.0162642 0.0585373 -0.0329163 0.109681 -0.0542965 0.00051746 0.0454047 -0.0814638 0.0592406 0.00435096 0.0498429 -0.044949 -0.0167715 -0.00602772 -0.00199247 0.0715663 0.00505002 0.0131821 -0.0285459 0.0500203 0.0301962 0.00390693 0.0295705 0.0506518 0.0966357 -0.00655383 0.061017 0.0342868 -0.00564558 0.0588998 -0.0292615 0.0474409 0.0158516 -0.0351325 -0.13131 0.0230177 0.0020098 -0.00641266 0.0352872 0.00298064 0.020814 0.0467698 0.0580078
som 0.0128591 0.0983899 0.0651598 0.00652901 0.0275099 -0.0934176 0.0341971 -0.0689618 0.00945846 0.119764 0.0528275 0.00961415 0.0152054 -0.0242143 0.0108656 -0.0354754 0.00279727 0.0567521 0.0551492 0.0164189 -0.0117598 0.00324893 -0.0618018 -0.106091 -0.105287 0.00946024 0.0417435 -0.00278157 0.0440435 0.0475818 -0.0132297 -0.00573711 -0.103955 0.125831 0.023189 0.0434947 0.0258979 -0.0226772 0.0172756 -0.0498887 -0.035952 0.0892629 -0.0342782 0.00461073 0.0264984 -0.0157408 -0.0153763 -0.0335942 -0.0193315 0.0370984 0.0448322 0.0164077 -0.00671317 -0.00162313 -0.0368954 0.0141175 0.0130867 -0.0367685 -0.0474718 0.0878694 0.0382184 -0.108406 0.0844025 0.00930679 -0.0809901 -0.0622371 -0.0117731 -0.0295462 -0.0108273 0.00328507 -0.0253439 -0.00531503 0.0280072 -0.0956964 0.0108318 -0.0159673 0.117937 0.0320864 0.0122974 -0.0320768 -0.0247373 -0.068129 -0.0170263 -0.00299721 -0.0294925 -0.0735278 -0.0574111 -0.0258818 -0.0498519 -0.0354887 0.0577814 -0.0251808 0.0544834 -0.0289047 0.0782378 0.0128156 0.0359165 0.0107319 0.0137163 -0.103914 -0.0487654 -0.0515699 0.0169972 -0.0324075 -0.00154547 -0.0241168 -0.0434834 -0.0151169 0.00842922 -0.0444101 0.0115768 -0.0539575 -0.0416172 0.0396386 -0.027888 0.00537567 0.0970391 0.0775363 -0.0189876 -0.0632718 0.0409858 0.161164 -0.0567799 0.137512 -0.0940227 0.0531421 0.140423 0.0161324 -0.000476643 0.00127958 0.099191 -0.0132199 -0.0257647 -0.00598877 0.00816143 0.00187818 0.00843311 -0.0732357 0.0504204 0.0580656 -0.0310138 0.096047 0.0456847 -0.00282311 0.0275798 0.0325105 -0.079219 0.041975 -0.0194397 -0.0357013 0.0651265 -0.0867523 -0.00666998 -0.0306821 -0.143567 -0.0424352 0.0701497 -0.0673387 0.151305 0.00906738 -0.0542053 0.0525667 0.0115143 0.0363195 0.195567 0.0330834 0.140011 -0.0503001 0.0323164 0.0576053 -0.0608677 -0.0134205 0.0147382 -0.100263 0.0261124 -0.0279592 -0.0677398 -0.00161882 0.0289082 0.0115668 -0.0454122 -0.0134988 -0.0661364 0.149544 0.064168 0.0625124 0.0468804 -0.0846712 0.0603666 -0.00550897 -0.0475199 -0.0712128 0.0397394 0.0709944 -0.0242378 0.00295126 0.012863 0.0342526 -0.0758353 0.0574105 0.0319793 0.0262264 -0.0686492 0.046361 -0.0480639 -0.167851 -0.0766559 0.0010866 0.0813332 0.0274188 0.0753974 0.00249015 -0.00709369 0.00718197 0.024239 0.0598521 -0.038539 -0.0131969 -0.00366337 -0.0482765 -0.0994255 -0.0639397 -0.0263093 0.0796318 -0.00223924 0.0392637 -0.100755 -0.0541203 0.0223975 0.0331314 -0.00622535 0.00412325 -0.0304749 0.0326805 0.0513984 0.0969058 0.0535715 -0.0819893 -0.0416109 -0.0400939 -0.00409103 0.00329529 0.10117 0.0698358 0.023986 -0.0382618 0.141697 -0.0644448 0.0220257 -0.0370827 0.0591625 0.0836849 0.0195045 0.0795445 0.000212833 -0.0235078 0.0352149 -0.0426334 -0.0506118 -0.0164329 0.00360339 0.0386018 0.0324469 -0.00562911 0.030939 -0.0451962 -0.0484434 0.0480099 -0.0225329 -0.148991 -0.043624 0.0154208 -0.0400029 -0.0894216 -0.0913625 -0.057383 0.0529015 0.0277799 0.0478962 -0.0755322 0.014186 0.0875576 0.0851599 -0.0492047 0.0216821 0.0188133 0.0919803 0.148878 -0.00198362 0.00465534 0.0441355 0.00222496 0.0551863 -0.00404432 0.0505708 -0.000203207 0.00170605 0.0700911 0.121503 -0.00610303
°c -0.0280047 -0.0795864 -0.00858867 0.0625237 0.0258463 -0.0367568 0.105607 -0.0300595 3.44185e-05 0.0145843 -0.00823543 0.00108082 -0.0343546 -0.083576 0.0381445 -0.112705 -0.0223279 -0.0035196 0.00635874 0.0835806 0.00707401 0.0765264 0.0159008 0.104485 -0.0478005 -0.0152032 0.00925938 -0.0437617 0.0376164 -0.0254269 0.00864381 0.0416726 -0.0705566 -0.0574084 -0.0478485 -0.0137637 -0.092157 0.0717314 -0.0190473 -0.0649421 0.0353228 -0.0509886 -0.0143808 -0.0788811 0.0214818 0.0427127 -0.0222098 0.0740174 0.0143628 0.0125206 -0.0336236 -0.0264296 -0.00176061 0.004422 -0.0340889 0.0391937 0.0575025 0.0579693 0.083517 0.107435 -0.0815706 0.0565704 0.0643641 0.0876766 -0.0484402 -0.117386 -0.0134948 0.00827677 -0.0541338 0.00238953 -0.0650049 0.0443548 0.00163092 0.004499 -0.0453281 0.0421063 0.0433798 0.0473231 -0.029323 0.00776429 -0.0313866 0.105343 0.120488 -0.0430459 0.0363158 -0.0239181 0.0163546 0.031729 -0.0380107 0.0137805 0.0291514 -0.0623211 0.00158086 -0.0327707 0.00470163 0.0896248 -0.056869 0.0988919 -0.0214067 -0.0218048 -0.00337555 -0.0198561 -0.000730211 0.0809476 0.0954009 -0.00965105 -0.0342354 -0.0139701 0.0460487 -0.0914661 0.0357851 -0.0637574 0.0512195 -0.0373611 0.026136 -0.0587382 -0.00254454 -0.049914 0.00658211 0.00105214 0.0561836 0.0275072 -0.112158 0.0725495 0.107734 0.0220462 -0.0317615 0.0396987 0.011151 0.0630739 -0.131094 -0.029455 -0.0119661 0.113349 0.0838459 -0.0569905 -0.0322678 -0.0423852 0.0826131 0.0683815 -0.0214219 0.106667 0.0943585 0.0524848 -0.0661511 0.0177683 0.0626161 0.0209072 -0.0303421 -0.023706 0.151295 0.000610396 -0.0917729 0.00945871 0.0340946 -0.0096503 0.03993 0.0704765 -0.0565517 -0.0819348 0.0148456 0.0399788 0.0173301 -0.0267744 0.017646 0.000518644 -0.0750768 -0.0259426 0.0418228 0.021349 -0.0169682 0.0242263 -0.0637011 0.0883684 0.0552352 0.0168771 -0.127917 0.000326812 -0.0219133 -0.094185 -0.0539569 -0.126469 -0.117064 -0.0776405 -0.0747934 0.0826315 -0.0493781 0.0203148 0.012992 0.00548583 -0.103526 -0.098387 0.0111442 0.0174511 -0.000989196 0.0358066 0.00705726 0.0564489 -0.0254989 -0.0318955 -0.0678149 0.0163825 0.0366467 0.0179659 -0.0119212 -0.0751893 0.0596891 -0.0820866 0.075201 0.0311859 0.125412 -0.0179614 0.0408902 -0.0929948 -0.0482662 -0.0159852 -0.0333314 -0.20676 -0.103602 -0.0234596 0.0712739 0.0937053 0.0241281 -0.0209049 0.0746866 -0.0221808 0.0517066 -0.0600851 -0.0125371 -0.0447384 -0.0374361 -0.0294617 -0.0980718 -0.050707 0.116561 0.0178816 -0.0151358 -0.148349 0.105222 0.0396639 -0.00721091 0.0372429 0.00795571 -0.0824603 -0.0245573 -0.0353719 0.0398771 -0.0999572 -0.0647993 -0.00346815 0.0275727 -0.00122299 -0.0534772 -0.0498442 0.00847234 0.015052 -0.0284306 -0.053155 0.0115549 -0.000889344 0.0709192 0.0522189 0.0565521 0.0666591 -0.0489779 -0.0314577 0.0199577 -0.0222824 -0.0736779 0.00740313 -0.0941878 -0.074396 0.0258828 0.0063695 -0.104061 -0.0335205 0.0896156 0.0402317 -0.0019879 0.0401812 -0.0752871 0.0393762 -0.0913923 0.108678 0.0016892 0.0368291 0.0272836 -0.0374723 -0.0899569 -0.00245055 0.000552882 -0.0675148 0.017084 0.00674872 -0.0277601 0.0347517 8.22861e-05 0.109704 0.0496307 0.0225544
trakten -0.097974 -0.0960003 0.0433789 0.0425191 0.0489639 0.0549698 0.0224863 -0.0105078 -0.0367652 -0.00813804 -0.0360639 -0.039138 -0.117397 -0.0249469 0.0826751 -0.0320031 0.0467809 0.0409759 0.00588435 0.0606283 -0.123829 0.0643425 -0.0703461 0.0578604 -0.0632461 0.0411219 0.0215765 -0.0910983 -0.0194775 0.0222891 0.0510752 0.0243749 -0.0594871 0.00325447 -0.0649343 -0.0434908 -0.0512083 0.0732642 0.0502458 -0.0665319 -0.00927241 -0.0577022 -0.00300867 -0.0357875 -0.0677648 0.0147223 -0.0311569 0.0469215 0.102397 0.0411095 0.0231331 -0.00164863 0.0123683 -0.0824357 -0.0544866 0.0160435 0.031935 0.0341271 0.00679356 0.0580992 -0.0634897 0.0145042 0.0247267 0.0872554 -0.0271161 0.0386811 -0.0489321 0.0342395 -0.124471 -0.0384436 0.00833578 0.00789407 0.00429656 -0.00022686 -0.0771741 -0.0567604 0.0181109 0.0405411 -0.000847437 0.0491005 -0.0331714 0.029485 0.0672966 0.0103158 0.0266255 -0.0397715 0.0388627 0.0417916 0.0136529 0.0633933 0.0200767 -0.0407301 0.068861 0.00433497 0.0562226 0.0596722 -0.0270703 0.0617192 -0.078234 -0.000606392 0.000814901 0.045223 0.00565453 0.10889 0.111706 0.0168441 -0.0566091 0.0189782 0.0778676 -0.0752273 -0.00821876 -0.0336159 0.00755879 0.096812 0.0588628 -0.0451967 0.0735811 -0.102313 0.0293986 -0.0132157 0.13579 -0.0138626 -0.0503696 0.0330607 0.0657267 0.0226033 0.0367094 0.0725408 -0.0449161 -0.0138814 -0.0966047 -0.000686965 0.0181961 0.063454 0.116352 -0.0429449 -0.0238623 0.0209866 0.0435648 0.0413082 -0.0404479 0.14965 0.081408 0.0312992 -0.0409228 -0.0064174 0.0898796 0.0173758 -0.0274889 -0.00157633 0.0882648 -0.0658581 -0.109641 -0.010364 0.0514448 0.00773524 0.0173235 0.0643282 -0.0452986 -0.108272 0.0657087 -0.059674 -0.0165764 -0.00278552 0.0163266 0.0135457 -0.152614 0.039034 0.0563494 -0.0192522 0.0453803 0.0295383 -0.149305 0.0551043 0.0189309 -0.0333171 -0.0624858 -0.0196029 0.0201098 -0.138724 0.042581 -0.0934772 -0.0453512 0.0262162 -0.0159356 0.0516852 -0.0301752 -0.00778573 0.0374484 0.020561 -0.00820299 -0.0899765 0.0143548 -0.00724408 0.00862695 0.0925816 0.0302693 0.0242844 -0.00466405 -0.0334201 -0.0592704 0.0786331 0.0222481 0.10445 -0.0545554 -0.0646435 0.0862277 -0.0971379 0.0937907 0.0665898 0.111302 0.0239057 -0.0130164 -0.076346 -0.0163298 0.0144007 -0.0885268 -0.149109 -0.0662469 -0.0104961 0.0534021 0.0256866 -0.0443536 0.00194975 0.0252724 0.0478518 0.0788768 -0.0596288 0.00981888 0.0608236 -0.0199486 -0.049001 -0.0474014 -0.025565 0.104345 -0.0127607 -0.0141481 -0.0705758 0.114279 -0.0174865 0.0185498 0.0798169 -0.0462438 -0.116453 0.00645254 0.0161864 0.0502538 -0.0227268 -0.0749341 -0.0103105 0.132359 -0.00511233 -0.0850399 -0.0880538 -0.0243076 0.0398555 0.0157416 -0.0378808 0.0444037 -0.00773012 -0.0260294 0.0346342 0.0743596 0.0434769 -0.0195947 0.0245985 0.0702089 0.019803 -0.0156235 0.0466971 -0.0393356 -0.0691826 -0.0179566 -0.0866224 -0.100188 -0.0579106 0.0897229 0.0182609 -0.00165355 0.0839964 -0.0176595 -0.0195619 -0.132312 0.180458 -0.0295023 0.0265802 0.0547694 0.0125244 0.00865063 -0.0376489 -0.0320102 -0.0639434 -0.0111173 0.0127807 -0.0126461 0.00439105 0.0247134 0.100816 -0.0118428 -0.00662481
om -0.054717 -0.0139257 0.0486568 0.0497332 -0.00456937 0.0430469 -0.0998756 0.00585007 0.0397268 -0.0158919 -0.0198337 -0.0862055 0.00974896 -0.0481454 0.0113776 -0.0335424 0.013413 -0.0213903 0.0129728 0.0588753 -0.15888 0.0895332 -0.057619 0.0183444 -0.0463841 0.117377 -0.0258857 0.00334702 0.0255845 0.0365856 -0.0161275 0.0565323 -0.132218 0.0289005 0.0690227 -0.172382 -0.0413229 0.0485052 0.104348 -0.0590863 -0.035597 -0.00910367 0.0771011 0.0105567 0.0350375 0.0563769 0.0704085 -0.0707868 0.154358 -0.00745378 -0.0402857 -0.0200928 0.0699164 -0.0436026 -0.0705702 0.0408645 0.00163508 0.0258046 -0.0635651 0.0262987 -0.138388 -0.0326538 0.029223 0.0743003 0.00175127 -0.0390886 0.0270646 0.119416 -0.123933 -0.0297353 0.028448 0.0587313 0.0107426 -0.084233 -0.0304514 0.00592574 0.0783019 0.00550362 0.0105898 -0.0639745 0.00464484 0.0203778 0.045489 -0.0615458 0.0548404 0.0179129 0.0299426 0.0388692 0.0317893 -0.0438837 -0.00406414 0.0478505 0.136715 -0.0301516 -0.0146228 0.0794768 0.0372303 0.0830159 -0.0317107 0.0216054 -0.0884226 -0.0128114 -0.0386848 0.0586741 -0.0612807 0.0289039 -0.0473816 0.0499936 0.0495425 0.0448157 -0.0164267 0.0186333 -0.0815463 0.0639054 -0.030032 0.0309948 0.0993071 0.0274807 0.0692349 -0.00298855 0.0772713 -0.092986 0.0111485 0.0210849 0.129145 -0.0181983 -0.00138968 0.0246318 -0.0118429 -0.00268558 0.0724919 0.0042393 -0.00841099 -0.032187 0.0315372 0.0515595 7.53173e-05 0.00921449 -0.00150431 0.02227 -0.0730133 0.0282991 -0.0131791 -0.0180421 -0.000723635 0.0325987 -0.0105305 -0.091029 0.0189853 0.0387533 0.103403 -0.0978454 -0.0675849 -0.0480268 -0.0606735 -0.0945036 0.112573 -0.0442277 -0.0219152 0.0613793 -0.00442854 -0.0407652 -0.0835313 -0.000154024 0.0099802 0.00498277 -0.119565 0.0147016 0.0943243 0.0318565 -0.0390291 0.031667 -0.142916 0.0562834 -0.10076 0.138955 -0.0102316 0.117175 -0.00429122 -0.150077 -0.000988744 -0.0679999 0.0993932 0.0899183 -0.0392664 -0.0436742 0.0550912 -0.062479 0.0517431 0.109179 0.0307407 -0.0723117 0.00295007 -0.0239312 -0.0670607 0.0219935 0.0260552 0.0350747 0.00852457 0.0594904 0.0450041 -0.0351681 0.0160916 0.0326431 -0.0312114 -0.0714329 0.0169506 -0.0444307 0.0624374 0.123489 -0.0149799 0.00258387 0.00333205 -0.0601045 -0.0271899 -0.039198 -0.0132737 -0.119755 -0.0371303 0.087163 0.0111349 -0.0133948 -0.0451037 0.0316038 0.0455659 0.0862515 -0.0489147 -0.0190707 -0.00235621 0.00981159 0.0208589 0.0111809 -0.0368542 0.0312494 0.0450603 0.0352213 0.000592412 -0.0448596 -0.0106829 0.00941252 0.0238242 0.0687347 -0.0176052 -0.0543198 -0.00738511 0.0885167 0.0464552 0.0513844 0.010824 -0.0330045 0.00618908 -0.0408889 -0.0967512 -0.100364 -0.0405996 0.0340652 -0.061556 -0.0539607 0.119156 0.0268892 -0.0223143 0.0280037 0.0260396 -0.0416289 -0.0126261 -0.00869777 0.00568738 0.0168806 0.0547138 0.0436359 0.0133512 0.0621356 -0.0404202 -0.0627513 -0.163413 0.0121148 0.0909712 0.0307283 -0.0673619 0.0494756 0.023057 0.0620307 -0.0414735 0.0686665 -0.0793907 -0.0547668 0.000526161 -0.0158232 0.102767 -0.00818769 0.0133046 -0.0668079 0.0522408 0.0367742 -0.0263017 -0.0152472 -0.0317032 -0.00924453 -0.0646525 -0.0584153
det -0.105189 -0.0516144 0.0254886 0.101974 0.0278068 -0.00560388 -0.0372692 -0.0524402 0.0229831 -0.0823959 -0.0176866 -0.0718058 0.0049115 -0.0349946 0.00515523 -0.0386834 0.00549973 -0.0588284 0.0069634 0.104832 -0.158979 0.0793532 -0.0347871 0.00132978 0.0420164 0.0539282 -0.0322182 -0.056301 0.0692419 0.0062158 -0.00281256 0.0498581 -0.136978 0.0461445 0.0011914 -0.0996954 -0.0482576 0.0957163 0.0812514 -0.0915574 0.00100775 0.00403321 -0.0172227 0.00727094 -0.035011 0.0959217 -0.00573378 -0.0128075 0.0241868 0.0237841 -0.0794108 -0.0484586 -0.0339584 0.0144165 -0.0706531 0.0516831 -0.0358015 0.0134879 -0.0788832 0.0192461 0.0156156 -0.0591155 -0.034349 -0.0174268 -0.0475715 -0.1066 -0.0136937 0.0117733 -0.080534 0.0109754 -0.00851961 0.0956993 -0.0161836 -0.121393 -0.0745122 0.0161308 0.0508812 0.0516616 0.0530324 -0.0208396 -0.0209537 0.0630099 0.0374098 0.0361909 -0.0456258 0.0447927 0.0288088 0.110948 0.0298183 0.0131773 -0.0403213 -0.0428928 0.134205 -0.00655504 -0.0245728 0.0819595 0.0517492 0.0591886 -0.00209737 0.0348133 -0.098875 0.0228818 0.0639208 0.05392 -0.0781794 -0.0257107 -0.0919912 0.019416 0.0873315 -0.0218204 0.0654275 0.0496858 -0.0508153 0.040151 0.0355771 -0.0135182 0.107603 0.0738469 0.131376 0.0688713 0.0228079 0.0232449 -0.0175274 -0.0156835 0.0394141 -0.0407413 0.0332116 -0.0145518 -0.0070711 -0.00817592 0.0240053 -0.0580705 0.0204638 -0.00970635 0.0467802 -0.0297461 0.0110634 0.079888 -0.00285719 0.0456717 -0.0594633 0.0301974 0.00103346 0.0412995 0.09728 0.052737 0.0244167 0.0238256 0.0211848 -0.0277849 0.163513 -0.0328061 -0.0737023 -0.0405172 -0.156871 -0.0498288 0.0700781 0.0171857 -0.0440058 -0.0232045 -0.0139225 0.0937874 -0.0802847 -0.0549149 0.0356818 0.0303285 -0.0846087 -0.0228361 0.0176394 0.111659 0.0145185 0.0335279 -0.14197 0.0337604 -0.103088 -0.00664335 0.0296091 0.163441 -0.0187474 -0.0810995 -0.0278988 -0.063852 0.0718211 -0.0147365 -0.0560989 -0.0584843 0.0112007 -0.0643489 0.0108975 -0.0495279 -0.00248682 -0.0422002 -0.0603721 -0.057391 -0.036146 0.0523797 0.0233809 0.043516 -0.0285206 0.0547045 0.0818627 -0.01432 0.00265482 0.00160952 0.0356408 -0.0595494 -0.0875728 -0.0384251 -0.0131332 0.0882786 0.109922 -0.0119473 0.0521457 -0.000465183 -0.0608861 -0.0458337 -0.0129037 -0.208037 -0.0426114 0.103276 -0.0138239 0.0328371 0.0424943 0.0524589 -0.00637474 0.0425506 0.0135597 -0.0278952 -0.0514516 0.021425 0.00639446 0.0370801 -0.0818501 -0.10087 0.0305941 0.0230836 -0.0720714 0.00573762 -0.0145643 0.0120701 0.0599699 -0.00761941 0.0384022 0.0545168 0.0355419 0.0687253 0.103936 0.0306102 0.0120851 0.0669389 0.0776971 0.0650934 -0.0507587 -0.0809159 0.0166246 0.0431148 -0.027225 -0.0718041 0.0746101 -0.0214349 -0.0258908 0.0795323 -0.0548742 -0.0734791 0.0091268 -0.0189922 -0.0812384 -0.00376899 0.076242 -0.0444072 -0.0900338 0.0572411 -0.0643776 -0.0285009 -0.0818434 -0.0362894 0.0492189 0.00143072 0.0400208 0.0305976 0.022255 0.0550031 -0.0821199 -0.0256149 -0.0219152 -0.0512429 0.103778 0.0218284 0.0427221 -0.0174291 -0.0330426 -0.109732 -0.0399164 0.0181518 -0.038014 -0.0292876 -0.0362367 0.0173885 -0.0213867 -0.0163599
på 0.032556 -0.0533759 -0.0810434 0.0133247 -0.0350262 -0.00740947 -0.0996116 0.0799795 0.0459675 -0.0212805 0.00506297 0.000542951 0.112203 -0.00298572 0.0269069 0.0231797 -0.0176319 -0.0389171 0.0294902 0.143622 0.0322414 0.0544605 -0.12659 0.0161554 -0.0703444 -0.0482153 -0.00423375 -0.069454 -0.0669239 0.0993915 -0.0163417 0.126542 0.0155965 0.0514033 -0.049034 -0.0413413 -0.0497933 0.0149556 0.0895344 0.000104016 -0.0168635 -0.0175877 -0.0260836 -0.0269155 -0.00272378 0.0542447 -0.00987757 0.070011 -0.0233147 -0.0619992 0.0353274 -0.00212199 0.0811032 0.0704278 -0.0501634 0.0404422 -0.00834725 -0.0132973 -0.0784441 0.0918081 0.0703249 -0.0611406 0.0363379 -0.064939 0.000371411 -0.116156 -0.0183394 0.063037 -0.046559 -0.0396965 -0.0330475 0.0317019 -0.0163077 -0.0989633 0.00779796 0.025428 0.0529775 -0.0209827 -0.0584017 -0.0438375 -0.00369335 0.0308079 -0.0175395 0.00827247 -0.00129509 0.00598482 -0.0306462 -0.0110173 7.8993e-05 -0.0365079 0.0712881 0.0691593 0.158115 -0.112777 -0.0657359 0.0703233 0.00669594 0.00857373 -0.0525953 -0.0247184 0.0119937 -0.0250602 0.0167313 0.0727908 -0.106038 -0.0742738 0.0526293 0.0799354 0.110515 0.113924 0.0185027 -0.0131893 -0.0640314 -0.017079 -0.0278946 0.0268985 0.01445 0.0405425 0.0568839 0.102293 0.0622604 -0.0343662 0.0431217 0.0235922 0.0845525 -0.0571434 0.0501287 0.0053492 0.0480639 0.0155177 0.0153426 0.00395073 0.0363703 0.123094 0.0251237 -0.00425458 -0.0869941 -0.0383846 0.00175814 0.0824212 -0.103408 0.123028 0.0406643 -0.012278 -0.0109592 0.0343363 0.0425281 0.0576907 -0.00896383 0.059447 0.0472968 -0.136972 -0.0450192 -0.0223853 -0.0747563 -0.0194918 -0.0148565 0.00321883 0.0932361 -0.0681195 -0.0524749 0.0564957 -0.119627 -0.0178633 -0.00649534 0.010668 -0.0739344 -0.109604 0.0602269 0.0207447 -0.139792 -0.000846612 -0.0376767 0.00725686 -0.0887083 0.0996753 -0.0225998 0.0812085 -0.0436895 -0.0556585 0.0200493 0.0252399 -0.0229274 0.00544425 -0.0144102 0.00552401 0.0201796 0.0127184 0.00355779 -0.027228 -0.0563069 -0.0329057 0.0810673 0.0440446 -0.0430899 0.0106061 0.0942577 0.028087 -0.0688121 -0.0539096 0.0361946 -0.0264423 -0.00882543 0.0177996 -0.00780709 0.000524553 -0.00196923 0.0786221 0.136634 0.015032 0.0813739 -0.0930649 -0.0461194 0.0181004 0.0221471 -0.0426162 0.0432656 -0.0999853 -0.0428628 0.0233209 0.0704075 -0.00437253 -0.00993468 0.0359097 0.0335419 -0.0102575 -0.110409 -0.0324947 0.00453575 -0.0448672 0.131511 0.04041 -0.00255145 -0.0377536 0.0248773 -0.0566461 -0.0487729 0.00585981 0.0165505 -0.0304876 0.0413637 0.0152048 0.0934139 0.00104803 0.0641013 0.103526 0.130836 0.00523702 0.0792014 0.0243921 0.0306442 0.00211003 -0.0146494 -0.0611054 -0.0843928 0.00938442 -0.0982799 -0.169711 0.0654558 0.0487403 0.0149849 0.0588072 -0.0616649 0.0106127 -0.0177781 0.00291953 -0.112451 0.00309687 -0.00135063 0.0370901 -0.0551045 0.0791579 -0.00219899 0.0288476 -0.113162 -0.0369812 0.0165234 0.0913042 0.0618847 -0.0465949 0.119821 0.0414827 -0.010377 0.0750998 -0.061164 -0.0346074 -0.0471324 -0.0941861 0.0380993 0.000123868 -0.0911441 -0.0359918 -0.0309615 0.0173131 0.00163412 -0.0400285 -0.0588546 0.0256696 -0.053562 0.0108546
runt -0.0891284 -0.0484094 0.0525482 0.069572 0.0706533 0.046892 0.0288722 0.0120692 -0.0123657 -0.0543151 0.0328589 -0.0231584 -0.121312 0.0021026 0.0962751 0.00826332 0.0508162 -0.0195273 -0.00597216 0.0524937 -0.151137 -0.00369019 -0.0875264 0.0618772 -0.038791 0.0650194 -0.0193223 -0.0918803 0.0458365 0.0725259 0.0657049 0.0286993 -0.0715571 -0.0170459 -0.0410602 -0.0600967 -0.0351159 0.0729304 0.0693645 -0.03509 0.0317276 -0.01155 -0.0461073 -0.0224141 -0.100766 0.0343465 -0.0144005 0.0313111 0.131122 0.0342458 0.0160703 0.00042077 0.00828619 -0.0950949 -0.0277005 0.0737023 -0.0105641 0.0430305 -0.0619981 0.0160603 -0.0795482 0.0370058 -0.0358128 0.0796534 -0.0186929 0.063612 -0.0170522 0.0981492 -0.113815 -0.0513071 -0.0150537 0.00431609 0.047031 0.0169327 -0.0778366 -0.0646186 0.0715553 0.0576978 0.032924 -0.0163973 -0.0793799 0.0628009 -0.0032067 -0.00343652 0.0334331 -0.0155773 0.0410208 0.0550507 -0.0445664 0.0914647 0.00678397 0.0116562 0.0652245 0.0154135 0.0788132 0.097472 -0.032474 0.067837 -0.100967 -0.045425 -0.0338847 0.100853 0.105989 0.0406186 0.0488306 0.0321227 -0.0484529 0.0082056 0.0887173 -0.0198937 0.0352732 -0.027124 -0.0219849 0.0702683 0.11128 -0.0319871 0.0735481 -0.0340963 0.0292163 -0.0612868 0.0779339 -0.0359739 -0.0031996 0.0228219 0.0571335 0.0199033 -0.00477533 0.028082 -0.0806617 -0.0025319 -0.030218 0.0517277 0.0286328 0.0319094 0.0604011 -0.00284537 0.00285751 0.00917948 0.0449105 0.0190921 -0.0509136 0.156555 0.0625566 0.0315577 0.0115094 0.0129622 0.0703816 0.0195178 -0.00403359 0.0255704 0.1184 -0.0407059 -0.038055 -0.0235414 0.0169556 0.025536 0.0743535 0.00371369 -0.0425908 -0.0900779 0.0247831 -0.069108 -0.104628 -0.018658 0.0409683 0.0148062 -0.140887 0.0170549 0.0875725 -0.00326182 0.0286495 0.0523558 -0.131165 0.0399609 -0.0384551 0.00503148 -0.0364137 0.0903247 0.0492096 -0.157027 0.0708852 -0.0521669 0.0109573 -0.00879167 -0.00399221 -0.0222581 -0.0114927 -0.00385908 0.0625051 0.0279975 0.000304877 -0.0583661 -0.00726926 -0.005396 0.0172849 0.0721907 0.0507727 0.00203697 0.0163985 -0.016237 -0.046349 0.059988 -0.0190205 0.0631325 -0.0362934 -0.0654124 0.0615445 -0.0650858 0.0571655 0.107857 0.13703 0.0299954 -0.0331262 -0.0122332 -0.0558675 -0.0409704 -0.0228345 -0.145676 -0.0328171 0.0275916 -0.0248989 0.0337847 -0.0363831 -0.0351102 0.00104623 0.0803756 0.0680847 -0.0739137 -0.0242325 0.0908111 0.0164363 -0.0233642 -0.0333217 -0.0213238 0.0829102 -0.0285636 -0.0062147 -0.0180026 0.0685391 -0.0332947 0.0376689 0.0304144 -0.0429665 -0.0984103 -0.0209593 0.023159 0.0892816 0.0131306 -0.0773682 -0.0417222 0.145677 0.0252093 -0.111148 -0.119862 -0.00863821 0.0264211 0.0078277 -0.0399243 0.0704145 -0.00419776 -0.072716 -0.0134624 0.0266943 -0.00963642 -0.0592058 -0.0082857 0.0626773 8.9159e-05 0.0170448 0.0562909 -0.0543509 0.00974238 -0.0690348 -0.0565024 -0.0740243 0.0240812 0.0466135 0.000586379 -0.0436105 0.110559 -0.0265005 -0.0731782 -0.0974106 0.167421 -0.0539687 0.00454027 0.0618778 0.0154447 0.0472342 -0.0340022 -0.0646778 -0.122953 0.00322036 0.0219482 -0.056613 -0.0119219 -0.0472414 0.0804589 -0.0291273 -0.0470317
km -0.0474681 -0.0262079 0.045431 -0.0102696 0.0144597 -0.0196821 -0.073889 0.0437731 0.0378722 -0.0808567 0.00714031 -0.0648767 -0.00518177 -0.0264417 0.023294 -0.0295602 0.0200136 0.0151077 -0.00488147 0.0707685 -0.111752 0.0381297 -0.0909899 0.0149908 -0.0477976 0.105064 0.0491392 -0.0455789 0.0379587 -0.00617097 0.0191609 0.0448417 -0.0814982 0.017291 0.0433796 -0.160085 -0.00192809 0.0421878 0.041327 -0.0477855 -0.048719 -0.0238037 -0.0116051 -0.0172797 0.0110467 0.060817 0.00946038 -0.0065879 0.163026 0.101506 -0.0446172 0.00811859 0.000495762 0.000139954 -0.0201239 0.0360777 -0.0439361 0.057903 -0.0598579 0.0692722 -0.0844609 0.0396349 0.0153112 0.100958 0.0507861 0.0118489 -0.0146748 0.0878932 -0.119692 -0.0453709 0.0256799 -0.0365375 0.02227 0.0033836 -0.0149686 0.00523393 0.0408356 -0.0284455 0.00290992 -0.0352074 -0.0338225 0.00803657 0.0679827 -0.059886 0.0373993 0.0303726 0.0621698 0.0455001 0.0167446 0.00509948 0.00650428 0.0235929 0.0815703 0.0250855 0.036469 0.0327988 0.0125801 0.122509 -0.0388775 -0.0419192 -0.0708631 0.00265559 0.0323075 0.0682916 -0.0251137 0.00166724 -0.0600981 0.0102174 0.0796578 -0.0490866 -0.00186372 -0.0188279 -0.0254609 0.0810236 -0.0216548 -0.0275982 0.134396 0.0267097 0.0749772 -0.0501989 0.122121 -0.0249346 -0.0574764 -0.0138931 0.14478 -0.000369645 0.00289669 0.00809367 -0.0109512 -0.034707 0.0101545 0.00658803 0.0393881 -0.010126 0.01665 0.0161044 0.0615806 -0.0250521 0.00229813 0.0363205 -0.0482475 0.0249065 0.021655 -0.0167875 -0.063439 0.0800116 0.0329084 -0.0246815 0.00550893 0.0581309 0.147232 -0.0622179 -0.0908992 -0.0218243 -0.0546722 -0.100937 0.0328839 0.0539674 -0.0389281 -0.0242562 0.0429664 -0.0523125 -0.0304757 0.0191197 0.0803708 -0.0224275 -0.132079 0.0605436 0.0822678 -0.0272248 -0.022169 0.00377994 -0.124129 0.00825853 0.0108091 0.0766269 -0.0233576 0.0239083 0.0101545 -0.124007 0.0274569 -0.0405629 0.00371606 0.060429 -0.00688522 0.0524769 -0.00719781 -0.0760938 0.0131367 0.0863381 0.0180357 -0.025625 0.0271322 -0.0277907 -0.00904964 0.0494851 0.0323796 0.0702226 0.00284183 0.0188603 -0.0276745 0.000822471 -0.0123323 -0.0112308 -0.0436245 -0.0900811 0.0868259 -0.0109026 0.129822 0.0686704 0.0504635 0.00769892 0.0329502 -0.0736874 0.00550529 -0.117203 -0.0577834 -0.0944131 -0.00624442 0.0874249 0.0459761 0.0310306 -0.0660385 0.0209069 0.0607408 0.0521973 0.0357748 -0.0347196 0.0438219 0.0299712 -0.0494043 -0.0295033 -0.0600851 0.103573 0.0856099 0.0146558 -0.0213542 -0.0531055 0.0611553 -0.0772764 -0.0173246 0.0797239 -0.137539 -0.11804 -0.0745947 0.0682112 -0.0216047 0.000476772 -0.068847 -0.0407397 0.0702694 -0.0319147 -0.0862893 -0.119873 0.0158825 0.0487378 0.0149729 -0.0646304 0.103408 0.0652975 -0.0446981 0.0490886 0.0647419 0.0121846 -0.0713036 0.0314599 0.0555053 0.00466183 0.0647292 0.0538644 -0.0567085 0.0207153 -0.0162644 -0.0303817 -0.141539 0.0039401 0.116612 0.0459783 -0.0633801 0.0945472 -0.046626 0.0536247 -0.122606 0.107444 -0.131439 -0.0227241 -0.00576572 -0.0309062 0.084839 0.0530257 -0.000192273 -0.135295 0.0731627 0.0755711 -0.0232407 0.0179822 -0.0452815 0.0287636 -0.0446672 -0.0683995
månaden -0.0268801 -0.0917933 0.00940293 0.0722294 0.020046 -0.0338036 0.0901 -0.0488805 -0.02455 0.0258944 -0.0358468 0.000573657 -0.0343656 -0.0785816 0.0291813 -0.0913026 -0.0244374 -0.0238966 0.0322298 0.0775625 -0.0322906 0.101716 0.00580965 0.0957361 -0.0612534 -0.00429892 0.0144368 -0.0630966 0.076537 -0.0297397 0.0118055 0.0503704 -0.0933869 -0.0227809 -0.0530934 -0.0305009 -0.0998357 0.0496634 0.0155596 -0.0389804 0.0553757 -0.0761905 -0.0324743 -0.0511913 0.0119823 0.0567522 -0.0369727 0.0446292 0.00698566 0.00305822 -0.0472129 -0.0143539 -0.0439614 0.0256069 -0.0542577 0.0316147 0.0627328 0.0412001 0.0674351 0.121588 -0.0723226 0.0303128 0.0333238 0.0726978 -0.0469559 -0.094085 -0.0244005 0.020742 -0.0847518 0.011895 -0.0399716 0.0450421 0.00491892 -0.0122286 -0.0226715 0.0322923 0.0356783 0.0319276 -0.011176 0.0243944 -0.00657494 0.0985483 0.103867 0.000887382 0.0404049 -0.0237238 0.0402168 0.0163121 -0.0273808 0.0123667 0.0400563 -0.0391807 0.0104806 -0.0240892 -0.0232529 0.0882593 -0.0607964 0.0785917 -0.024171 -0.0074759 -0.037375 -0.0261754 0.0157715 0.0717196 0.0985826 0.0208198 -0.0366376 -0.0036943 0.0302615 -0.0760428 0.0112832 -0.0499096 0.0255994 -0.0314948 0.0348312 -0.0563366 0.00251423 -0.0514275 0.030855 -0.0124865 0.0405829 0.0156251 -0.0995211 0.0823689 0.104959 0.0151387 -0.0285605 0.0278274 -0.00103968 0.0324348 -0.16083 -0.0298903 0.000620734 0.101896 0.0981813 -0.0543257 -0.0414343 -0.0397814 0.0712904 0.0638434 -0.01443 0.116869 0.106041 0.0443674 -0.0550679 0.0241502 0.0411179 -0.00593024 -0.0689517 -0.028578 0.139097 0.0143712 -0.099888 0.0401481 0.00765966 0.00463608 0.0333185 0.039056 -0.0424089 -0.0653291 0.00135888 0.029005 0.0639492 -0.0369687 0.0202896 -0.0239845 -0.0969491 -0.0264229 0.0390445 0.0170732 -0.00711314 0.062999 -0.0657303 0.0875565 0.0631725 0.035634 -0.12727 0.00409224 -0.00288149 -0.0768506 -0.0516886 -0.125862 -0.113955 -0.0422891 -0.0517929 0.0799563 -0.0468463 -0.00216149 0.0529426 0.0373568 -0.0929378 -0.0860165 0.0292166 0.0179491 0.0133883 0.0305322 -0.00507437 0.0450434 -0.0514468 -0.0334456 -0.0601938 -0.0035536 0.0490909 0.0258309 -0.0151967 -0.0850263 0.0729506 -0.0916406 0.0617891 0.0383366 0.137182 -0.0231052 0.0548001 -0.123927 -0.0584597 0.0140443 -0.0112911 -0.251941 -0.105759 0.011099 0.0535962 0.0740602 0.0218999 -0.00641102 0.0545879 0.00361982 0.0567941 -0.044087 0.00200632 -0.0548924 -0.032177 -0.0377203 -0.0738611 -0.0621371 0.127678 0.0257281 -0.00260453 -0.135069 0.102195 0.0106214 -0.0123478 0.0450215 0.0184182 -0.0758713 0.0195512 -0.0183434 0.066821 -0.0732467 -0.053377 0.00626989 0.0656132 -0.00113247 -0.0528855 -0.0678863 -0.00702576 0.00236453 -0.0245299 -0.066453 0.0351369 0.0287735 0.0902422 0.0819921 0.0757148 0.0525951 -0.0553712 -0.0251925 0.0237068 -0.0360908 -0.0552433 -0.00246047 -0.0866833 -0.060615 0.0344634 -0.00884444 -0.0876193 -0.035971 0.0821429 0.0348791 0.0168713 0.0624332 -0.0943243 0.0141153 -0.0911521 0.100135 0.0351521 0.0469963 0.0402186 -0.00298335 -0.0596739 -0.0323749 -0.00635305 -0.0810687 -0.00654619 -0.00650435 -0.0381696 0.0525025 -0.00626726 0.101453 0.0387429 0.00847108
mm -0.0687028 -0.0156902 0.0035883 0.111462 0.0346111 -0.0592769 0.0847951 -0.0510303 -0.0169449 0.0371664 -0.0386222 -0.000578028 -0.062283 -0.0133151 0.0248855 -0.120241 -0.0765223 0.0355822 0.0304979 0.00769067 0.0175506 0.000485614 -0.0423279 0.016915 -0.105185 0.00192497 -0.00774359 -0.00308482 0.0369967 -0.0908024 -0.00839664 0.0323056 -0.0622503 0.0120343 -0.0460515 -0.0212935 0.00637162 -0.00825303 -0.0046087 -0.0191751 -0.0206497 -0.127651 0.0136032 -0.0318089 0.0285258 -0.00481493 -0.000699788 0.00677693 0.0307674 0.00627217 -0.0349238 -0.0478187 -0.0145265 -0.0414978 -0.1113 0.0266682 0.114466 -0.0231765 0.0200588 0.0990551 -0.0215426 -0.0442577 0.0345995 0.0579461 0.017094 -0.0649388 -0.101023 -0.0163868 -0.0249883 0.00991373 -0.0246989 -0.0487252 0.0025356 0.0423698 0.0162238 0.0244289 0.0416845 0.0373608 -0.032514 0.0439762 0.0199099 0.0716221 0.048751 0.0169525 0.00303303 0.0211119 0.059041 0.0728402 0.0233715 0.0260203 -0.0310044 -0.0735829 0.0094917 -0.0357064 0.00787855 0.0324434 -0.0107856 0.0414262 -0.0319152 -0.0232789 -0.0593476 -0.0441247 -0.0054411 0.0951547 0.136954 0.0274745 -0.0496314 0.0234227 0.0412162 -0.0862907 -0.00529526 0.0226768 0.0653469 -0.0480768 -0.0479099 -0.0872662 -0.0476743 0.0107617 0.00399915 0.0449956 0.0539356 0.0494783 -0.0552672 0.0641947 0.059 0.0244672 -0.00410336 0.0223991 0.0277678 0.085691 -0.115592 0.0241636 -0.0707936 0.158409 0.0782603 0.027386 -0.0437305 -0.0613404 0.0773123 0.0673855 -0.0606236 0.103835 0.0343325 0.0561287 -0.0535924 0.00185094 0.0106891 -0.0275313 -0.0381109 0.00597504 0.088661 0.0219485 -0.122978 0.0385622 0.0714654 0.0164666 -0.00847078 0.0873454 -0.0216677 0.0308505 -0.0218063 0.146738 0.0474666 -0.00159758 0.0445178 -0.0302306 -0.0659876 -0.0905912 0.0521724 0.00735808 0.0174435 0.000764783 -0.0634876 0.0720629 0.0750015 0.0609839 -0.121992 -0.0669013 0.0408054 -0.0231235 -0.0160412 -0.0603165 -0.0816651 -0.00213068 -0.0238483 0.124957 -0.0829043 0.00869742 0.0182604 0.0685544 -0.075258 -0.103699 0.0905088 -0.0674788 -0.0419393 0.018068 0.0214686 0.111049 -0.0252747 -0.00979425 0.0230151 0.00767703 0.0486826 -0.0762699 -0.0106969 -0.0538599 0.0690493 -0.086174 0.0664385 0.0127004 0.106933 0.0669434 0.0612561 -0.0637335 -0.00852366 -0.026685 -0.015285 -0.22971 -0.0882117 0.0019253 0.0288318 0.0520669 0.0567698 0.0414798 0.111408 -0.048767 0.0449261 -0.00189184 0.00980155 -0.0848119 -0.0210338 0.00777543 -0.0792153 -0.0496384 0.0902138 0.0233917 0.051508 -0.155312 0.0889688 0.0658138 -0.0154445 0.107003 0.00528518 -0.0370499 -0.0100654 -0.0311172 0.055137 -0.0562441 -0.02609 0.0536593 0.0169837 -0.0210575 -0.0914807 -0.0325544 -0.0182363 0.0364249 0.012134 -0.0232129 0.0174733 0.00544523 0.0442005 0.00508179 0.00157069 0.0630783 -0.0409491 -0.0605061 -0.0110525 3.54549e-05 -0.038588 -0.0172121 -0.0557657 -0.0313186 -0.00334481 0.0494818 -0.14357 -0.0432812 0.0547333 0.0931049 0.0210225 0.040307 -0.0673623 -0.0171165 -0.126892 -0.0111764 0.0905248 0.104388 -0.0314127 -0.0149976 -0.106414 0.0607542 0.0514091 -0.0938393 0.0471327 0.0799434 0.0654024 -0.00555489 -0.0486473 0.0809441 0.0518287 0.0189544
nederbörd -0.0679284 -0.0270664 0.0274709 0.10827 -0.00244045 -0.0785527 0.1233 -0.0683881 -0.0269036 0.0210525 -0.0379749 0.00710784 -0.0469181 -0.0955344 0.00724127 -0.106836 -0.0622294 0.0139814 0.0141632 0.0493967 0.00447103 0.0460503 0.00173764 0.0876043 -0.0939064 -0.0306116 0.0145772 -0.0161408 0.0291918 -0.0604426 -0.0307538 0.0412642 -0.0721127 0.0265733 -0.024127 0.00727844 -0.0491304 -0.00530546 0.0108932 -0.0248156 0.0387436 -0.128811 -0.0135219 -0.0685556 0.0350687 0.000319703 -0.00644505 0.0269019 0.0204034 0.0360418 0.0203928 -0.0423107 -0.0269088 -0.0341924 -0.0563345 -0.001708 0.0926817 0.00132899 0.0329891 0.0921665 -0.100783 -0.00953419 0.0372605 0.0504834 -0.0507962 -0.104784 -0.0235961 0.0300228 -0.0505017 0.0208736 -0.0346388 -0.041178 0.0440119 0.039144 -0.00262036 0.0758504 0.0322096 0.0322292 -0.0287971 0.0156022 -0.00983522 0.0912597 0.109586 -0.00035474 0.00468578 -0.0097248 0.0261418 0.0308672 0.0244806 0.0155901 0.0212657 -0.0447875 -0.0138992 -0.0501496 -0.016914 0.0573264 -0.00606209 0.0676689 0.012925 -0.044795 -0.0221968 -0.0291942 0.00729231 0.0341246 0.104569 0.00502752 -0.0524891 0.0271834 0.0129263 -0.118599 -0.000436141 -0.0379069 0.0894613 -0.0653133 -0.0333302 -0.0992564 -0.0016645 -0.0333082 0.0140343 -0.0165009 0.0573818 0.0498168 -0.109386 0.0595351 0.0819516 0.0340673 -0.0135547 0.0121053 0.0109637 0.0884584 -0.14362 0.0384962 -0.0303701 0.144001 0.105426 -0.0256752 -0.0441893 -0.0524006 0.0321516 0.109898 -0.0345437 0.118213 0.0469754 0.0362631 -0.072385 0.0199657 0.0498001 0.00718983 -0.0395292 -0.0221518 0.0880469 -0.00675868 -0.0856099 0.0530175 0.0370275 0.014517 -0.00766707 0.0619061 -0.0198612 -0.00878888 0.00725682 0.0743362 0.00812963 0.00701251 0.0623694 -0.0183804 -0.0901407 -0.0308381 0.0688046 0.0182089 0.00124318 0.0316537 -0.0882002 0.0702671 0.0661083 0.0773527 -0.121894 -0.0310807 0.000204681 -0.0564961 -0.0270147 -0.0745262 -0.101062 -0.0285699 -0.023909 0.131985 -0.0503667 0.0108918 0.0174462 -0.0025309 -0.0577324 -0.0676188 0.0641911 -0.0296057 -0.0231399 0.0695932 -0.0248262 0.0850996 -0.0585418 -0.0199931 -0.00628621 0.00482626 0.066346 -0.0179694 0.0179668 -0.101051 0.107921 -0.0754655 0.0599836 0.065714 0.0968159 0.0324874 0.079514 -0.0942172 0.00396739 0.0173789 -0.017954 -0.205834 -0.063594 0.00736191 0.0576464 0.0633673 0.0509801 0.0317212 0.0983241 -0.0127829 0.0226189 -0.0176083 -0.0507895 -0.0936659 -0.0452684 -0.0165809 -0.0939275 -0.0549641 0.0819882 0.0558839 0.0131732 -0.166655 0.103205 0.0507835 -0.00259608 0.0498026 -0.0156975 -0.0704107 -0.0218242 -0.0536096 0.0561359 -0.0717652 -0.000310806 -0.00190721 0.0608325 -0.0427378 -0.0817148 -0.0734641 -0.020478 0.0262923 0.0177223 -0.0570382 0.0679694 0.0304347 0.0667157 0.0480227 0.0649168 0.0955125 -0.0236671 -0.0230666 -0.0240127 -0.0280724 -0.0958793 -0.0123024 -0.0613738 -0.0573099 0.00552721 0.0257923 -0.14489 -0.0251726 0.0300849 0.083624 0.0110847 0.0405932 -0.0863352 0.0298098 -0.089044 0.0376687 0.0335691 0.0852534 -0.0186494 -0.0263462 -0.0502079 0.00758061 0.0200263 -0.0669111 0.000480499 -0.00953137 0.0411121 0.0704552 -0.00222743 0.117992 0.0833171 0.0254242
finns 0.0774247 0.0763142 0.0582366 -0.0365267 -0.0762716 -0.0505473 0.0443331 -0.0906516 0.0583085 -0.0241209 0.0357012 0.00822921 -0.0629618 0.0169166 -0.0184053 -0.0385579 0.0348443 0.0431674 0.0123828 -0.016319 -0.0448564 0.0351082 -0.0481633 0.0338912 -0.0551868 -0.00933161 0.00542656 -0.0599896 -0.0552877 -0.00320362 0.0272946 0.0804733 -0.121727 0.0423036 0.0163859 -0.0673191 -0.0166956 0.040384 0.0765179 -0.127378 -0.130475 0.0632723 -0.0418916 0.0193705 -0.0101063 0.0592145 0.046429 -0.0142826 0.0986471 0.034406 -0.0821903 -0.0979527 0.0477834 0.0261196 0.00419878 0.0150082 0.0150662 -0.00414188 -0.102227 0.0857891 -0.00272797 0.0494058 0.194386 0.0121444 -0.0922026 0.01538 -0.0392341 0.0568015 -0.0116543 0.0140434 -0.0368039 0.0167273 0.10054 -0.0509347 -0.0736406 -0.0125769 0.00336178 0.0287841 0.0629445 -0.0360924 -0.0308847 -0.0205849 -0.0100677 0.00310365 0.047981 -0.0666852 0.0528185 -0.0477603 -0.131885 -0.0188406 0.0361313 0.047474 0.0479365 -0.0478759 0.0740291 0.0104185 0.0255418 -0.0227285 0.045951 -0.0589001 -0.00607486 -0.00533785 -0.0711001 0.070636 0.149356 0.056675 -0.0328305 0.0398127 0.0337214 -0.0300899 -0.0749053 0.00861107 -0.0800239 -0.00440487 -0.0338863 0.0118318 0.136976 0.0721219 0.0479445 -0.12849 0.0421579 -0.0140881 -0.00419564 0.0344842 0.026612 0.0469684 -0.014917 0.00532792 0.0810048 -0.0115685 -0.0348472 -0.0229169 0.023958 0.0530439 0.0968413 -0.0378761 -0.00793704 -0.0803438 0.0579172 0.0150489 -0.103953 0.138917 0.00585915 0.0772117 0.00271278 0.0509727 0.0304349 0.0296683 0.0313478 0.0679095 0.123109 -0.158694 -0.00593528 -0.0348389 0.0257326 0.0395227 0.0618862 -0.010757 -0.0221041 0.0198486 -0.0330559 0.0568746 0.0311508 -0.111846 0.0378505 0.0055563 -0.0744621 -0.0153388 0.0188286 0.0243264 0.0709589 0.0678184 -0.0808944 0.0287891 0.0153332 -0.0232592 0.01091 0.0123897 0.0522724 -0.0554025 -0.121885 0.0111547 0.0491462 0.0618046 0.0505308 -0.0874277 0.084402 -0.0466491 0.093107 -0.0601883 0.029103 0.0483503 0.0153422 -0.00630328 -0.00805526 0.00686168 0.075294 0.0863131 -0.0329703 0.0821443 0.00518066 -0.0516884 -0.00817902 0.0724092 -0.0323811 -0.139067 -0.11395 0.0127955 0.109583 -0.00225612 0.0397109 -0.0293084 0.0261808 -0.0698739 -0.0288846 0.118796 -0.0426697 -0.0568219 -0.0721229 -0.0164341 -0.0102849 -0.0302335 -0.0478267 0.0111691 0.103565 -0.00542501 0.0758947 0.0162384 -0.0679833 0.028869 -0.0442244 -0.0390152 -0.0556849 0.0102378 0.0616747 0.0519822 0.0264022 -0.0902948 -0.0278234 -0.00256728 -0.0025896 0.0349376 0.0427922 0.00530528 0.0416712 -0.004276 0.143099 -0.0518267 -0.0222571 -0.0300571 0.110683 0.0510122 0.0340303 -0.0648196 0.0280471 0.0321407 0.0118656 -0.00797995 0.0541064 -0.00129864 -0.0769165 0.0744602 0.0358114 0.0501305 -0.0387148 -0.0232474 0.00467429 0.0928297 0.000607204 0.0554201 0.00178978 0.0569233 -0.0837344 0.0154183 -0.0195046 -0.0686081 0.0910636 0.0320135 -0.0194182 0.0253364 0.0609709 0.0512377 0.0243988 0.0942312 0.0329392 0.0589152 0.0395609 0.0804561 -0.0318527 -0.0458867 -0.0988818 -0.0727546 0.00999664 0.00761467 0.0588429 -0.10878 -0.0078748 0.0160869 -0.073291 -0.0304806
ligger -0.0311822 -0.0940619 -0.0121456 0.0186216 -0.0817373 0.00752315 -0.0455578 0.0641892 0.0278465 -0.100634 -0.0070538 -0.0423951 0.0124971 -0.000541851 -0.0125514 -0.037905 0.029374 0.0265932 0.0559785 0.0605544 -0.0996683 0.0449383 -0.0578867 -0.0266266 -0.0131566 0.0937441 0.0431375 -0.0541706 -0.00924651 -0.000898079 -0.00516957 0.0234632 -0.0324111 0.0423216 0.11862 -0.110146 0.0469175 0.10215 0.0816793 -0.0165922 -0.0290697 -0.0322548 -0.0498766 -0.0415936 0.0352345 0.148107 -0.0175785 -0.00148155 0.0324716 0.132434 -0.0855287 0.0770977 0.0548296 -0.00623765 -0.0116269 0.0397237 -0.00655492 0.0400792 -0.0220629 0.104472 0.0146547 0.000380664 0.0137753 0.0210248 -0.0560618 -0.028907 -0.044641 0.0390383 -0.155554 -0.0773494 0.0383341 0.0491601 0.0414925 -0.0671307 -0.0370541 -0.0273162 0.0838387 0.013904 -0.104244 -0.0343979 -0.0889032 0.0518706 0.0770976 -0.00217629 -0.075413 -0.0272515 0.053939 0.0428769 -0.00133581 -0.0360775 0.0654083 0.117473 0.0457798 -0.0271155 0.0213256 0.0266223 -0.00302851 0.0716819 0.0412131 -0.0231998 -0.10817 -0.0207145 0.072986 0.128207 -0.0358718 -0.0141873 -0.0375009 0.0636227 0.0652361 -0.0285716 0.0393348 0.0513484 -0.0886217 0.0790885 -0.0360515 -0.0301402 0.0768254 0.00819275 0.0348998 0.0185395 0.0234675 -0.0643719 -0.0688243 0.005636 0.187504 -0.0491933 -0.00246353 0.0484577 -0.0445649 0.0117547 0.0294451 -0.0157449 0.0193181 -0.00717295 -0.000520378 -0.0314399 0.0248295 0.00571172 -0.112852 0.0699285 -0.0486576 0.0361258 0.0192131 0.0352475 -0.0163285 0.0917764 0.0956275 0.010412 -0.0437554 0.0513058 0.128222 0.0123839 -0.0937984 -0.0755768 -0.070363 -0.0619294 0.0626287 0.0457609 0.0391882 -0.027131 0.0539891 -0.01762 -0.0475352 -0.0374916 0.072907 -0.0175868 -0.0927384 -0.0126809 0.0132994 -0.0126805 0.0182436 0.0174507 -0.0688485 -0.0438154 -0.0127844 0.00489315 0.0649566 0.074335 -0.0627579 -0.0817885 0.0346041 -0.0168511 0.0133965 0.0768187 0.0282482 0.0418129 0.0169313 -0.00398429 0.0482337 0.0793997 0.0267954 0.00566348 0.0403892 0.0402023 0.0166348 0.0399391 0.00346725 0.0381338 -0.0411853 -0.0118105 -0.0114885 -0.0677207 -0.046688 0.0676605 -0.0419997 -0.139366 0.0131418 0.0305324 0.138857 0.0661504 -0.0222642 -0.0211495 0.00828979 -0.061787 0.00579576 -0.0466755 -0.0668446 -0.0915852 -0.0531276 0.0813746 0.0192217 0.105407 -0.0495875 -0.0021418 0.0793354 0.0468437 0.0182502 -0.0282956 0.045399 -0.0473208 0.0301687 -0.0422432 -0.0492849 0.0748938 0.122263 0.0151456 0.0116393 -0.033105 0.0395989 -0.0384805 -0.0360983 0.0399933 -0.0899951 -0.0122688 -0.0344826 0.0690061 0.0546152 0.00276316 -0.0366576 0.0352062 0.0860242 0.0142671 0.0255156 -0.128861 0.0240619 -0.0729516 0.0643153 -0.0585147 0.0781402 0.0472379 -0.0399736 -0.00908526 0.0739198 0.0474496 -0.0204103 0.0792225 -0.0132955 0.000723904 0.00711243 0.0019789 -0.0512272 0.0159982 0.0339271 -0.0335419 -0.0409186 -0.0702841 0.112126 0.104463 -0.027241 -0.0685565 -0.0617453 0.0200372 -0.00804864 0.059113 -0.0788023 0.0419829 0.0457446 -0.0238922 0.0513235 0.159271 0.054011 -0.181118 -0.0412268 0.00467893 -0.0774043 0.0189345 0.00528112 0.0663903 -0.0303117 -0.0206742
ingår -0.0299049 -0.000761426 0.0543263 -0.0268087 -0.0381745 -0.111108 0.0897111 -0.0639448 -0.0165422 0.0641691 0.0738425 -0.000155623 0.0642046 0.018562 -0.104109 -0.0498003 -0.049341 0.0224054 -0.0024559 0.0431197 -0.0285572 0.0300048 -0.00531513 0.0504287 -0.0917988 -0.0319295 -0.0281756 0.00765876 -0.0256223 0.00436596 0.00411828 0.0267425 -0.121469 0.0532618 -0.0185924 -0.0400597 0.0274387 -0.00455024 0.0552747 -0.02383 -0.0233967 0.0198317 0.00335519 0.0989243 -0.0081188 0.0239588 -0.046256 -0.0141852 -0.0309731 0.0721335 -0.0150014 0.030466 0.00488254 -0.0281224 0.0455092 0.00852776 0.0434791 -0.0110346 -0.0374011 0.122276 0.0819856 -0.0101071 0.128111 0.057169 -0.0687819 -0.0116541 -0.0335346 0.00410945 -0.0895023 -0.0275898 -0.0489322 0.0326711 0.0596227 0.0512523 -0.0149884 0.0562748 0.0707508 0.0282507 -0.0181062 -0.00887176 -0.0931924 0.0107466 0.00753971 -0.0151569 0.0725108 -0.0284849 0.09155 -0.0481477 -0.0676658 0.0235046 0.0256125 -0.0185997 -0.0337472 0.0506322 0.107768 -0.0405513 0.0344895 0.11321 0.123034 -0.094809 -0.0143566 -0.028659 -0.0371913 0.0530665 0.10543 0.00668043 -0.0357562 0.0410757 0.0625457 -0.0683671 -0.00617146 -0.0265016 -0.0692241 -0.0261671 0.0113192 -0.03196 0.12514 0.0471119 0.0574036 -0.050887 -0.0554332 0.102189 -0.166811 0.0334499 -0.0401974 0.0906936 -0.0564963 0.0648373 0.0137494 -0.0378735 -0.0407367 0.0223773 0.0729126 0.0774083 0.0777918 -0.0140599 -0.0372566 -0.0467164 -0.00113794 0.0243279 -0.0269727 0.0736404 0.107496 0.0807295 0.0535288 0.00581155 0.054348 0.0232427 0.0497367 -0.0329755 0.0809352 -0.038083 -0.035862 0.0200091 -0.183327 0.0653877 0.0178461 -0.0337173 -0.0171246 -0.0716318 -0.0132181 0.0798834 0.0407483 -0.0306782 0.0791077 0.0465871 -0.0537226 0.0379706 0.026587 0.0690568 0.0385427 0.0698674 -0.00380313 -0.0166127 0.0744375 0.0394145 -0.173332 -0.0260042 0.0128379 -0.0188828 -0.078868 -0.0144374 -0.0942033 0.0239408 0.00429256 -0.0207386 0.00642413 -0.0921534 -0.0147098 -0.0118243 -0.0555775 -0.0363239 0.0864385 -0.00513655 0.0124492 0.0116788 0.0174835 0.0641809 -0.0833466 0.0373917 0.0700881 0.0122073 0.0511923 -0.00592331 -0.137996 -0.0810818 0.0789884 0.0603714 -0.0132264 -0.0833737 0.0383571 -0.0137008 0.0252427 -0.0293536 0.0438974 0.0992276 0.00316787 -0.00731834 -0.0410747 -0.0435422 0.0155874 0.0146678 0.00922253 0.0361758 0.0244697 -0.00236081 0.0109018 -0.0178294 0.00810005 0.0649199 -0.0067907 -0.0203421 -0.0595468 0.0462541 0.0714734 0.0241497 0.0155307 -0.141399 0.00720389 -0.0748537 -0.076257 0.0276479 -0.00726244 0.0216717 -0.000887173 -0.0173175 0.0983307 -0.174895 -0.079071 -0.0337388 0.0978678 0.00108415 0.000310211 0.0060394 0.0502846 -0.0203078 0.000730323 -0.0560599 -0.0561289 0.0039436 0.0337128 0.0771874 0.00566999 0.0718893 0.0309213 -0.0717555 0.0515666 0.0824852 -0.0100104 -0.0349881 -0.0660918 -0.0599072 0.0413059 -0.0504906 -0.0386069 -0.0157697 0.130834 0.0016513 0.0362589 0.0268104 -0.0613512 0.0691583 0.0034485 0.0281799 0.0104304 0.125255 0.0521116 0.11395 -0.0258603 -0.0829966 0.0112824 -0.110347 0.00216776 0.0597814 0.0792926 -0.117374 0.0652482 0.112377 0.0102617 -0.0180077
#omdirigering -0.00828391 -0.0434149 0.112178 -0.123372 -0.103552 -0.130544 -0.00242714 0.0641504 -0.0333738 -0.00618971 0.0119186 -0.00103408 -0.0511784 -0.0315843 -0.0705279 -0.0349922 -0.100867 -0.00704893 -0.0856178 -0.00107863 -0.0841562 -0.0351821 -0.0033567 -0.0138048 -0.131763 -0.0148489 0.0938271 0.00365577 0.041782 -0.0399612 0.000359881 -0.0446804 7.0029e-05 0.0501063 0.108187 -0.0157496 0.0144273 0.0912846 0.0309163 0.0537309 -0.0320905 -0.0652606 -0.0180066 -0.0388696 -0.0269338 0.033017 -0.0333355 -0.0141584 0.0233147 0.0311611 0.0334091 -0.165019 -0.0123069 -0.0795998 0.017 -0.0590204 0.0325563 -0.12012 -0.0455789 0.0218107 -0.00918881 -0.0208244 0.0259206 0.0482468 -0.0349902 0.0388422 0.031608 -0.017102 -0.0299479 -0.0497976 0.0491653 -0.0184652 0.0525168 0.0407351 -0.0111456 -0.01844 -0.0467493 0.00682501 0.0240314 -0.0920313 -0.0649588 -0.0249323 0.0432484 0.0547487 0.0330393 -0.0520769 0.0460517 -0.00290166 -0.0613026 -0.0353579 -0.00733122 0.0108578 -0.0164127 0.057413 0.100363 -0.0194831 -0.0478506 0.0309254 0.132083 0.0222729 0.052919 0.0171425 -0.0233697 0.0563049 0.129556 -0.00374044 0.0318859 0.0538202 0.0130199 -0.0569245 -0.0130604 0.0288991 0.0416795 0.00699987 0.0566632 -0.0500566 0.0282403 -0.0353623 -0.0408081 0.0398589 0.016061 0.0498884 -0.0976578 -0.0629655 -0.0183598 -0.0125717 -0.00487554 0.00697368 -0.0546691 -0.0558263 0.0242226 0.00497372 -0.0476586 0.0726002 -0.00865543 0.0105032 -0.08467 -0.118548 -0.00723841 0.0207515 -0.0194078 -0.0159538 0.0539327 0.0358818 -0.0352017 0.143503 0.0348468 0.0746719 -0.00504902 0.0252391 0.0988216 -0.0319327 -0.150631 0.0677526 0.00294468 0.014685 0.106714 -0.000495726 -0.0161846 0.00349095 0.0737641 -0.00176502 -0.0476823 0.000568828 0.0803724 -0.0788223 -0.0414018 0.0240543 0.085837 -0.0357973 0.000936507 -0.0311764 -0.0810494 -0.029842 0.0767695 0.0234584 -0.00947121 0.0168815 -0.0297504 -0.064374 0.0162893 0.0492449 -0.126475 -0.039198 0.0165878 -0.0243451 0.0202454 0.00809363 0.00552872 -0.0598925 -0.0307725 -0.0041597 0.0303769 -0.0183581 0.0739843 -0.0710852 0.0549424 -0.0275335 -0.0333277 -0.0226985 0.0230921 -0.190097 0.0274149 0.00832446 -0.127107 -0.117791 -0.0820749 0.000376008 0.133073 0.029934 0.0307715 -0.0108803 0.129618 -0.0601251 0.0141802 0.0216566 0.101486 -0.0590936 -0.0256442 0.0222047 0.036888 -0.0108571 -0.0775243 -0.0334879 -0.0794889 -0.0934307 -0.0172046 -0.0261772 0.103163 0.020327 -0.147048 -0.00147604 0.0267552 -0.0362855 0.0574636 0.00361483 0.0590052 -0.0430021 0.00361229 0.030234 -0.0550642 0.0146655 -0.0313717 -0.0471605 -0.0713816 0.0238487 0.0282435 -0.0116395 -0.032182 0.0975257 0.152933 0.0463907 0.000863995 0.0474807 -0.00838949 -0.0518995 -0.0544342 -0.0178487 0.129443 -0.0552909 -0.0146328 -0.0257588 -0.0102887 0.0244697 -0.0263651 -0.0600694 0.0675381 0.0497992 -0.0452957 0.0137002 -0.0418967 0.00190268 -0.0630824 0.0130032 -0.0493639 -0.00217518 0.0622585 0.0194236 0.039625 0.0760888 -0.0806474 0.143463 0.0241758 0.0449967 -0.145348 0.0794441 0.0676484 0.0313835 -0.0148189 -0.0632339 -0.0476926 -0.0153782 0.0235797 -0.0015472 -0.141028 0.0237615 -0.0465198 0.0810629 -0.00916568 0.03258
att -0.0582532 0.0625752 -0.0109169 0.0458707 -0.0685595 -0.00111337 -0.0445412 -0.0494288 -0.0387689 0.128359 -0.010749 -0.000436829 -0.0537692 -0.0220554 0.0456407 -0.0887375 -0.00681009 -0.0188371 0.00187088 0.0306989 0.0280129 0.0719443 -0.0345961 -0.0922039 -0.0679616 -0.0177399 0.00441279 0.0348776 -0.00507009 0.0943334 -0.0768121 0.0521058 -0.131394 0.0834604 0.0558513 -0.0638314 -0.0023905 -0.0293254 0.000921784 -0.020129 0.0655052 -0.0110228 -0.0545593 -0.00207853 0.0472786 0.0866891 0.128901 0.0287223 0.0363318 -0.0170026 -0.0254919 -0.0828284 0.000596619 -0.039317 -0.0947091 0.0467553 0.0218335 0.0393861 -0.0280068 -0.010702 -0.0948071 -0.103764 0.0446772 -0.00160286 0.0263394 -0.106754 -0.0296345 0.0333817 -0.0695265 0.0334238 -0.0398437 0.0574254 0.0113464 -0.12828 -0.0374466 -0.0112561 0.113633 0.0596357 0.0328646 -0.0039526 0.051563 0.0390689 -0.0488774 -0.0379743 -0.0585296 0.0142244 -0.0274875 0.0793497 -0.0693079 -0.0206836 0.00605688 -0.00436651 0.143636 -0.131071 0.00282069 0.0559597 0.0209312 0.0322714 -0.0808119 -0.0171925 0.0040298 -0.0513629 0.0949708 -0.0761829 -0.0896467 -0.0386098 -0.0595143 -0.0561617 0.0288037 0.0838089 0.0332761 0.0191676 -0.0381128 -0.0146253 0.00332897 -0.0920524 0.0592379 0.0532785 -0.00254638 0.0324605 0.0147185 0.0807103 -0.0861164 0.136203 -0.0053432 -0.0221043 0.0504095 0.0176765 -0.0708073 0.105287 -0.0712902 -0.0699746 -0.0554797 -0.0150412 0.0752163 0.00335331 0.00153047 -0.0213245 -0.0178799 0.0159819 0.00531105 0.037451 0.0680911 -0.0483892 0.0438359 0.0792502 0.0364955 -0.0533285 0.00843898 0.0435489 0.0172198 -0.0233964 -0.0469504 0.0158089 -0.0600747 -0.0251989 -0.0405029 0.0344372 0.10392 0.00837263 -0.0504573 0.0246183 -0.105929 0.00270588 0.039706 -0.0205893 -0.0573392 -0.0156785 0.0795061 0.0363372 -0.0375958 -0.0754045 -0.0828868 0.0344403 -0.0579684 0.176859 -0.0075046 0.0921901 -0.0633033 -0.0819145 0.0135487 -0.0719644 0.00927567 0.103543 -0.045274 0.0880318 -0.00754346 -0.0466327 0.0885241 -0.016349 -0.0257181 -0.135042 0.0638265 0.0269466 -0.0342759 0.00553539 -0.0204231 0.0534155 -0.11847 0.0378051 0.0596551 0.0619464 0.0532145 -0.00306635 -0.0243741 -0.0766266 -0.0519492 0.0260012 0.0996728 0.0761903 0.137758 0.0022598 0.0927974 -0.0251421 0.0463682 -0.0357249 0.0471812 -0.141077 -0.00720488 0.0457486 -0.107231 -0.0774804 -0.0182853 0.0579928 -0.0406893 0.0306893 -0.0397271 -0.0402257 0.00169384 -0.0427707 0.07048 0.028449 0.0106624 0.0594581 -0.0552361 0.0539406 0.0792482 0.0684455 0.0261045 -0.0115676 0.0494026 -0.0240064 0.0623223 0.0460166 0.00960724 0.114694 0.0701284 0.00283843 -0.0129207 0.0141219 0.0282406 -0.0220484 -0.0605287 -0.00343478 -0.0159098 0.0269226 0.0191459 -0.0622339 -0.00434525 -0.00349023 0.0227993 0.0282092 0.0368482 -0.0907913 -0.0985695 -0.0504846 -0.0629165 0.013034 -0.00433946 -0.032549 -0.0958709 -0.101648 0.0123024 0.0553409 -0.0634352 -0.0569178 0.0741196 0.0413931 0.0245627 0.0304686 0.0203661 -0.0119829 -0.000397815 -0.0864061 0.0445187 -0.0335466 0.0345547 0.124106 -0.0644316 -0.00369393 0.026413 0.0579935 -0.0330104 0.0500962 0.0534358 -0.0690638 -0.0559283 0.0627666 0.0368359 0.00670333
till -0.0826915 -0.113452 -0.0232111 -0.00507619 0.022978 0.0577543 -0.0426338 -0.0267526 0.0434301 0.0918645 0.0385036 -0.024529 0.0330365 0.0734501 0.0420246 -0.0750922 0.0151857 -0.0323345 0.00128662 0.0686817 -0.014897 0.0719656 -0.0233389 -0.0565384 -0.170829 -0.0669598 0.00925907 -0.0290363 -0.0646461 0.0180056 -0.00704272 0.0895914 -0.0830769 0.0715394 0.0344986 -0.109705 -0.0551642 -0.0951918 0.089902 -0.0435871 0.0332048 0.0436938 0.0694363 0.0433284 0.0890732 0.0171297 -0.0266588 0.0276773 0.0257374 -0.0640314 0.0449384 -0.0450567 -0.0170101 -0.0141635 -0.0719083 0.00941204 0.0242809 -0.0245907 0.00761772 0.00426044 0.0512031 -0.0700204 0.0672094 -0.0368593 -0.105123 0.0339957 -0.100176 0.0395311 -0.0413103 -0.0271527 -0.107202 -0.0391748 0.102778 -0.0512976 -0.0517143 -0.0596189 0.0974902 0.141739 0.140359 -0.121514 -0.00307239 0.017024 -0.0336625 -0.045492 0.0344143 0.0535658 -0.0414049 0.145763 0.0451099 -0.0736908 -0.0152502 -0.0848896 0.0827449 -0.0423858 0.0229731 0.123216 -0.0369663 0.0600723 -0.0398986 0.0440074 0.0182104 -0.031266 0.0260566 -0.0572036 -0.0594382 -0.0139661 -0.0035321 0.00388859 -0.0723743 0.0301099 0.0514434 0.0218274 -0.0905476 0.0227543 0.000356568 -0.0604351 0.0427937 0.032006 -0.0359481 0.0100574 0.0542856 0.0127201 -0.0897998 0.112008 -0.0158535 0.0276704 0.11353 -0.0116692 0.0315868 0.11527 0.0567641 -0.0658916 0.0270771 0.0451053 0.0685399 0.0777477 -0.0309471 0.0512577 -0.0123476 0.0266293 -0.0119332 -0.0420992 0.0264631 0.0200368 0.0476457 0.0921855 -0.040308 0.052224 0.0204008 0.0571115 0.0977559 -0.0716115 -0.134479 -0.0198314 0.0108085 -0.0785154 0.0590389 0.0222503 0.0204557 -0.049674 -0.00498012 0.0426613 -0.0713855 0.0779812 0.0544586 -0.0891438 -0.0479533 -0.0157965 0.0719449 -0.0376839 -0.0675704 0.0228516 -0.0793385 0.0159163 -0.104913 0.0397682 0.101726 0.079985 -0.00730727 -0.0209317 -0.00469867 -0.141289 -0.0477592 0.0884128 -0.0689939 0.0321487 0.0516467 -0.0110104 0.0400344 -0.0887913 -0.0613608 -0.033982 0.0231033 0.098398 0.0224374 0.0601085 0.000722495 0.0747189 -0.00244433 -0.0469255 0.0175088 -0.102305 -0.0588873 -0.00819697 0.0472416 -0.0443873 0.0222597 0.0139273 -0.0123273 0.0770973 0.0692965 -0.0113326 0.0537895 0.0422829 -0.0313364 0.0290389 0.0673049 -0.0957159 -0.050633 0.042927 -0.0172179 -0.0330848 -0.0589504 0.0551147 0.000407111 0.0298297 -0.00553765 -0.105306 -0.0285811 0.00502405 0.0644861 0.0485636 -0.0138979 -0.0014928 -0.0696915 -0.00209012 0.10729 -0.0571837 -0.0114536 0.016849 -0.0587675 0.0588669 0.0278069 0.0199653 -0.0248817 0.0463844 0.0331375 0.00299275 0.0746639 0.0313358 0.00568533 -0.0117069 -0.0426029 -0.00642102 -0.0477 -0.0677278 -0.0260956 -0.00447656 0.0393031 -0.00881935 0.0452046 0.0526417 -0.0069642 -0.110376 -0.0733216 0.00282361 0.0197544 -0.0232539 0.0748862 -0.0201585 -0.0405427 -0.0923436 -0.0450304 0.0903538 -0.123994 -0.0148342 0.0437297 0.0425778 -0.021237 0.0133066 0.0703178 -0.0233386 -0.0466238 0.047077 0.0758305 -0.015095 -0.00908985 0.0606686 0.0474518 -0.00389785 0.0222499 -0.116283 -0.025066 0.00243936 -0.0109664 -0.0423246 -0.116346 0.0335188 -0.014576 0.0476602
