999 300
, -0.0566641 -0.0291025 -0.00313133 0.0571562 -0.032921 0.0779194 0.0326925 -0.0671118 0.0389353 0.134352 0.0316092 -0.0353794 0.0587268 0.0223222 0.0590598 -0.0551665 -0.0251117 0.00457111 0.0244194 0.08768 -0.0966959 0.073764 -0.0944106 -0.0490406 0.00135845 -0.0281397 0.0945917 -0.128508 -0.0109844 0.0101275 -0.0501995 0.0642888 -0.0731219 0.0692873 0.0753111 -0.0938905 -0.0537036 -0.128854 0.0026342 0.0554173 0.0350089 0.035677 -0.0448358 0.0666064 0.0153362 0.0497079 0.0384562 0.00857287 -0.0100644 0.0345433 -0.00646075 -0.00351568 -0.00907876 -0.0489855 -0.127619 -0.0444522 0.0590927 0.0878092 -0.0267945 0.0704922 0.0271275 -0.0686362 0.080032 -0.10123 -0.0272662 -0.0681069 -0.0578861 -0.0545473 -0.131339 0.0592311 -0.0292622 0.0114579 0.0890684 -0.0261755 0.0109528 -0.0320043 0.109974 0.0861554 0.0707622 0.00564978 0.0276014 -0.00325026 -0.0530809 0.0377204 0.0221669 0.0300616 -0.00710415 0.0469509 0.00130143 -0.0490436 0.0248427 -0.0490729 0.0701291 -0.0647183 0.0237996 0.069962 -0.0102963 -0.0349811 0.0038544 -0.0178838 0.0926855 -0.0182417 -0.0382713 0.0121355 0.0631503 -0.0239979 -0.00853369 0.0321858 0.00755813 -0.0633708 0.0597694 0.0197891 -0.017488 -0.0960956 -0.0567682 0.0472673 -0.0203468 0.0129662 -0.0387994 0.0910344 0.0721612 -0.00720461 -0.0444637 0.0936855 0.0417281 0.0191081 0.0498858 0.00672403 0.073546 0.0546729 0.054731 0.0934355 0.0659521 0.0176033 0.0212205 0.0253906 -0.0527031 0.0504256 -0.061448 0.0633343 0.00651895 0.0515036 0.0321014 -0.0466417 0.0782288 0.143778 0.0462105 0.0130883 -0.0388755 -0.0205961 0.0490122 -0.0645524 -0.028707 0.00987394 -0.0771733 -0.09697 -0.0362834 -0.0789622 0.0692414 0.124838 0.00632893 0.105522 -0.0926002 0.0774954 0.0661995 -0.0546009 0.0228573 0.0646952 0.0887018 0.0195523 -0.0535486 -0.0185377 -0.104508 -0.0121888 -0.0209636 0.0525475 0.00810227 0.0939149 0.0528827 0.00973761 0.042688 -0.0467534 0.0257825 0.0283171 -0.0890458 0.0657207 -0.0548522 -0.0711911 0.0709633 -0.0610553 -0.037976 -0.101892 0.0482509 0.036262 -0.0176353 -0.0463603 0.00315137 0.0133884 -0.196269 0.00803564 0.100899 -0.0288747 0.011064 0.0265289 -1.0615e-05 -0.0221741 -0.0816394 0.0748603 0.0423764 0.0733495 0.192371 0.00823397 -0.0477925 0.0038404 -0.0550968 0.0319222 -0.00507863 -0.112802 -0.0472639 0.00816811 0.00734611 -0.0322883 -0.0203234 0.0428705 -0.138055 -0.025369 -0.0438739 -0.0765733 0.0768035 0.0501884 0.131669 0.0240267 -0.0421231 -0.05623 -0.0568839 0.0598656 -0.0800508 0.0179232 -0.0543053 0.0168387 0.00365734 0.0269406 0.035556 0.0299169 0.0679032 0.0363361 0.0189736 -0.00853282 -0.00697601 -0.0173605 0.0632228 -0.0724306 -0.0753907 -0.0257974 -0.0735048 0.0127205 -0.013364 0.00691487 0.0130011 -0.00500388 -0.0218404 0.0598968 0.0334043 -0.0364625 -0.0211281 0.0286958 -0.148785 0.0146498 0.00504326 -0.0227252 -0.0669593 0.047072 -0.0125219 0.0302652 -0.0671663 -0.0648929 0.0588234 0.0628205 -0.0188262 -0.0206443 0.0536205 0.0576951 -0.0605026 -0.00566699 0.0257369 -0.0379569 0.0966821 0.0346598 -0.0505813 0.0467799 -0.00167926 -0.0415102 0.0287895 0.0779924 0.0375629 0.0145858 0.0347972 0.0214989 0.0362249 0.00855494
. -0.0515299 -0.014981 -0.0772718 0.0372422 -0.0531069 0.0355511 -0.00180013 -0.112003 0.0370247 0.0904043 0.0558387 -0.0686228 0.0123135 0.0249774 0.0699553 -0.128298 -0.0739203 -0.00587235 0.0152117 0.105917 -0.0165337 0.0525074 -0.0941596 -0.0529644 0.0344415 -0.0487231 0.0325527 -0.0850561 -0.0531321 0.0653964 -0.0768643 0.0590331 -0.0990365 0.023856 0.033412 -0.0159032 -0.0102953 -0.0363127 -0.0166947 -0.00287207 0.0897241 0.0160819 -0.0833323 0.00935217 -0.0132021 0.0779229 0.0337032 0.0429752 -0.020039 -0.0476966 -0.00363575 -0.00523666 -0.0101175 -0.055716 -0.102105 0.0161574 0.0699213 0.0467287 -0.0642797 0.0697597 0.00217859 -0.0439747 0.106225 -0.147869 -0.0348143 -0.0495437 -0.0660072 -0.0830511 -0.102096 0.105067 -0.00946857 0.00511212 0.0124564 -0.020541 0.00308677 0.0298956 0.0436456 0.0760127 0.0313843 -0.0968241 0.136763 -0.00585191 -0.0355188 0.080785 -0.00647006 -0.0533834 -0.0494624 0.075045 0.0182433 -0.0757135 0.0478615 0.00541639 0.0939533 -0.0479247 0.00332206 0.0397654 0.00348332 -0.000651463 -0.0819594 -0.106681 0.0097158 -0.0197549 -0.0639679 0.0204123 0.0377922 -0.00445046 -0.0267858 -0.0120084 0.060802 -0.0163025 0.0279774 0.0103181 -0.0278396 -0.0865528 -0.0646212 0.025249 -0.0346707 0.0619189 0.00313124 0.130911 0.1503 0.000424444 -0.0365212 0.097881 0.0456381 0.0230119 0.0341686 -0.0175045 0.0818805 0.0538194 0.0404962 0.076447 0.00763356 0.0204896 0.0308359 0.0887744 -0.0244405 0.0088617 -0.103691 0.0539774 -0.0695845 0.039857 0.0467489 -0.0134372 0.0488087 0.0949662 0.0669019 -0.00981203 0.0232199 0.00774989 0.0461151 -0.0633304 -0.0304284 -0.00180871 -0.00901669 -0.072122 0.0326268 -0.0709761 0.059933 0.0515112 -0.0384466 0.0547145 -0.0175681 0.0302304 0.0595592 -0.000547714 0.0335707 0.0294046 0.0292969 -0.0597291 -0.0303416 0.0167721 -0.155885 0.0346685 -0.0520303 0.0767812 0.00414593 0.107285 0.00953268 -0.039938 -0.019354 -0.0774066 -0.0488164 -0.0151796 -0.0508823 0.0844655 0.00683956 -0.106105 0.0639522 -0.029828 -0.0879484 -0.0626026 0.0374995 0.090762 0.0491594 0.000919682 -0.0356568 0.081792 -0.159198 0.00934744 0.0807897 0.027475 0.070026 0.0354776 -0.0208222 -0.0345351 -0.0164535 0.0928988 0.0721195 0.126897 0.105773 -6.35716e-05 -0.0680662 0.0454155 -0.00938285 0.0018533 0.0116612 -0.154828 -0.0305828 0.0245373 0.0409282 -0.08826 0.0237307 -0.010703 -0.113884 -0.0412544 0.0145892 -0.0721462 0.0851841 0.0429521 0.157347 0.0618774 -0.118747 -0.066732 -0.0341569 0.00853465 -0.0116686 -0.0298023 -0.00784198 -0.0117161 0.0193192 0.0155844 0.00787757 -0.0110983 0.0755749 0.0201067 0.0690102 0.00271643 -0.0764443 0.00597374 0.0299183 -0.0402499 -0.0844894 -0.041767 -0.0353488 0.0251231 0.0265418 -0.00477908 -0.0259722 -0.00111317 0.000621383 -0.00327648 0.0438292 -0.0644341 0.0360866 -0.0111697 -0.144001 0.0155437 0.0759535 -0.00159743 -0.102034 0.0442896 0.0323519 0.0510726 -0.0271122 -0.0789116 0.0216556 0.030085 0.0188183 -0.0546461 0.0417191 0.0215753 -0.0389051 0.00240886 0.0504753 -0.0424206 0.0858309 0.0338946 -0.0649604 0.0267354 -0.018888 -0.00997148 -0.0347744 0.0695442 0.0347282 -0.0281287 -0.00749801 0.0283152 -0.00528066 0.00807814
</s> 0.0150346 0.00800757 -0.0035165 0.0108307 0.0178032 -0.0574982 -0.0245036 0.0405936 -0.0301626 -0.118932 -0.0167264 -0.0290678 -0.105431 -0.0426257 0.0816915 -0.0575501 0.00694429 -0.0260118 0.107193 0.0882803 -0.0116233 -0.00140373 0.0127669 -0.0306139 -0.0846903 0.00325734 -0.0898122 -0.0531597 -0.110095 0.0622405 -0.0299863 0.122243 -0.0424607 0.0709348 -0.0203192 -0.0262734 0.0246269 0.0689833 -0.00523663 0.0164294 0.0314593 0.0609397 -0.0858478 -0.00839098 0.0414856 0.0259822 0.0648317 0.0485497 0.0510153 -0.0190788 -0.00126002 -0.0950243 -0.0281616 -0.0355812 -0.0891067 -0.012246 0.0580822 0.0244892 -0.00988671 0.0452073 0.0139679 0.117472 0.0300705 -0.0744432 0.079591 -0.0483518 -0.0117604 -0.00813926 -0.111091 0.0460813 0.00498329 0.0108672 0.13289 0.0645966 0.0607286 0.0134202 0.0276154 -0.0359351 0.00572823 0.0136252 0.12621 0.0573347 -0.0250038 -0.045424 -0.0317012 -0.054351 0.0338755 0.0648543 0.0462155 0.0287413 0.0204066 0.00170142 0.148497 -0.0249879 -0.021051 -0.016759 0.00849279 -0.0363552 0.0169451 -0.105445 0.0757018 -0.0860165 0.0858865 -0.0563018 0.0811177 -0.00466307 0.00934315 -0.0468721 0.0567399 -0.0132077 0.00227734 -0.0267156 -0.153123 -0.0444759 -0.0557266 0.0144204 -0.0367565 0.0536741 0.00858156 0.00762454 0.0621834 0.0282519 -0.127054 0.133194 -0.108319 0.0105243 0.0056968 0.0349504 0.0420818 0.06806 0.0490821 0.0570251 0.0124805 0.0323461 0.0487848 -0.0138282 -0.00315259 0.00695235 0.00444257 0.136474 0.0539187 0.0013865 0.11457 0.048903 -9.28661e-05 0.0575148 -0.0313433 -0.0326022 -0.00600494 -0.0365877 0.0331804 -0.0190349 -0.0797897 -0.0403968 -0.0105617 -0.0467001 -0.00616294 0.0169768 -0.0216023 0.00795339 0.0463478 0.0521069 -0.0377778 -0.0348168 0.107584 -0.000641641 -0.0526535 -0.00505885 -0.00201552 -0.0732287 -0.00549082 -0.0392125 -0.0872456 0.0204313 0.0610484 0.0230812 -0.0369554 -0.0306735 -0.0291246 0.0233422 -0.0455919 -0.00893213 -0.00512693 -0.0119142 -0.0516756 0.0597758 -0.0112723 -0.0437673 0.00178183 -0.0369417 -0.0424664 -0.0593712 0.0336436 -0.0365503 -0.112285 0.0113402 0.0693301 0.148347 -0.0976502 -0.108804 0.032107 -0.0120945 -0.0201591 -0.00417407 0.0206821 -0.067334 -0.0151512 -0.017653 0.112665 0.0113956 0.112015 0.0692011 0.0107512 0.00865123 -0.142534 -0.0940538 -0.105601 -0.0953591 -0.0543145 0.00562964 0.0189746 -0.0223337 0.001438 0.0849603 -0.0369735 -0.018574 0.00834003 -0.11194 0.049145 -0.041337 0.00196755 -0.0380702 -0.144353 -0.110989 0.0664173 -0.00180023 -0.0461651 -0.108214 -0.0786198 0.00151894 -0.0223522 -0.00621877 -0.0657081 -0.0590377 -0.0378087 -0.00921435 -0.0240156 -0.0418214 -0.00367775 -0.079235 -0.0858176 -0.018253 -0.164657 0.00829438 0.0362966 0.0810661 0.0713753 0.00757235 -0.0889636 0.00489809 -0.0518642 0.0409543 0.0256388 0.016936 -0.0542979 -0.0276272 0.0107019 -0.0280355 0.028541 0.00652288 -0.0530087 0.0521583 0.00818029 0.0295517 -0.0291224 -0.0708659 0.0239901 -0.0298786 0.0863128 -0.0643511 -0.061837 -0.000525861 -0.0513168 -0.0659631 0.0999153 -0.0837651 0.0658605 -0.0589156 -0.0880548 0.0412295 -0.00498265 -0.0335716 -0.0635097 0.0646419 -0.0516266 -0.0972147 -0.0188677 -0.00686509 0.0550194 0.0516643
- -0.098904 -0.0323464 -0.0605 0.0141411 -0.0244051 -0.0122931 0.0354477 -0.0554738 0.00855625 0.0130801 0.113925 -0.0286151 0.00778388 0.0430655 0.00587026 -0.0526147 -0.0474887 -0.0240794 -0.000307759 0.0828571 0.0102109 0.00505435 -0.0879987 -0.0729005 0.0432527 -0.00154408 0.0105381 -0.1314 -0.001652 0.0266937 0.0330158 0.0304279 -0.0511722 0.0367142 0.0396334 -0.0229212 -0.0395037 -0.0461027 -0.0541249 0.0190606 0.00521001 -0.0645831 -0.0416673 0.0469874 0.108383 0.0168518 0.0191863 -0.0111967 -0.00296156 -0.0445207 0.0156275 -0.0927612 -0.016904 -0.104697 -0.0441789 -0.0503683 0.0638709 0.0836502 -0.0213748 0.0228901 0.0609643 -0.112264 0.0561184 -0.00836462 -0.0455415 -0.100773 -0.0208628 -0.0552342 -0.235398 0.0626834 0.057036 -0.0474463 -0.00848755 -0.0413276 0.0183431 0.010147 -0.0157361 -0.00121363 -0.0378592 0.0478982 0.0416329 -0.00411578 -0.0869408 0.0918679 0.0270837 0.0351322 0.0371965 0.0219606 0.0323949 -0.041338 -0.0463283 -0.0187905 0.0514711 -0.0158501 0.0417719 0.00262046 -0.0286341 0.00816064 -0.066062 -0.0311702 0.048707 -0.00878226 0.0146748 -0.0108417 0.065549 -0.038524 -0.0090928 -0.00234634 0.0625978 -0.0842949 0.0583688 0.037722 -0.0126317 -0.13204 -0.0246976 -0.0263786 0.0169842 0.00894178 0.0216722 0.0422129 0.151478 -0.025007 -0.0295414 0.054773 -0.0406273 -0.0407639 0.0547336 0.0235694 0.0450955 0.0229279 0.0374597 0.0577703 0.0711533 0.00483978 -0.0722218 -0.0328856 -0.0383289 -0.0366195 -0.0147712 0.083952 -0.00152704 -0.0175657 0.167742 0.0758242 0.00145904 0.0924131 0.0811063 0.000771644 -0.042306 0.00130664 0.110244 -0.0733239 -0.118863 -0.0220698 -0.0611187 -0.0560391 0.0200009 -0.0141151 0.055701 0.0915423 0.00410925 0.0709325 -0.0381231 0.0109056 0.0856571 -0.0777064 0.0736071 -0.0107097 0.0680396 -0.000764553 0.0154432 0.0512897 -0.079242 -0.0180862 0.0105403 0.0173911 0.077544 0.00483987 -0.009029 -0.0356905 -0.0127658 -0.020758 -0.079385 0.0339048 -0.0908985 0.0743975 -0.0597932 -0.124318 0.0690388 0.00722709 -0.0886412 -0.0826124 -0.0190448 0.0205837 -0.0175717 -0.0538519 0.0517745 0.151026 -0.0855007 -0.0321951 0.115104 0.00337473 -0.0536164 0.0236923 0.0170313 0.00750506 -0.0235274 0.0413271 0.123861 0.10593 0.120365 0.000734069 -0.0423041 0.00930776 -0.0852761 -0.0488234 0.0561748 -0.0933009 -0.0664744 0.0110653 -0.00742544 0.0660618 -0.0827672 0.0112814 -0.136857 -0.0317774 0.0453871 0.00553505 0.0751846 0.0774147 0.103902 0.0573788 -0.120694 -0.0528066 -0.00856303 0.00409343 -0.0545821 -0.0281646 -0.00364992 0.0157598 -0.089082 0.0030361 -0.0218977 -0.0027954 0.0651887 -0.00161122 0.0340762 0.0524816 -0.040496 -0.0434705 0.0888305 -0.0151821 -0.0674043 -0.0288401 -0.0511421 0.0214223 0.0395808 -0.0130938 -0.0133427 0.0132958 -0.0358127 0.0401052 0.010245 -0.0411347 0.00348364 0.00260774 -0.0969965 -0.0774656 0.130982 0.0422778 -0.139337 0.0962436 0.0231108 -0.03741 -0.016195 -0.0324034 0.0467923 0.0450082 0.0454693 -0.0953391 0.0258843 0.0757848 -0.0897212 -0.00224581 0.035026 -0.0453046 0.0258762 0.0256281 -0.0367071 0.00817039 0.0470012 -0.0638598 -0.0180051 0.0535554 0.0317456 -0.0158129 0.0616726 0.0424111 0.102013 -0.0467447
' -0.0651859 -0.0571078 -0.00617986 -0.0590957 0.0155862 0.00044369 -0.0129316 -0.0818712 -0.00126076 -0.0364465 0.0550314 0.00846436 -0.022278 -0.0164391 -0.014912 -0.0605163 -0.051743 -0.0112777 0.0243676 0.0740147 -0.0518965 0.132079 -0.0603073 -0.0383837 0.00656352 0.0667426 0.0456396 -0.0566979 -0.0589559 -0.0208227 -0.0105208 0.0224349 0.00852979 -0.0211688 0.0633877 -0.0748594 -0.0664871 0.0291936 0.0522714 0.0178594 0.0161792 -0.0271559 -0.00892637 0.0542434 -0.0692564 0.001635 -0.0448016 0.0111159 -0.0468649 0.0377821 0.0450732 -0.0689406 0.0558979 -0.11747 -0.0745721 -0.0699492 -0.00380898 0.0345259 0.0662754 0.0673307 0.0921691 -0.0828847 0.0380208 0.0603354 0.0199786 0.00141427 -0.0116354 -0.0558604 -0.142725 -0.0226292 0.0261394 -0.0455628 -0.00396309 -0.000323439 -0.0318507 -0.0211173 0.0379464 -0.0175553 0.0498614 0.0812513 0.0776062 0.0209796 -0.0306655 -0.01869 0.00979709 -0.0855988 0.103601 -0.0584399 0.0657087 0.0183516 -0.000818539 -0.0542705 -0.0117713 -0.0112828 0.0609231 -0.00540694 0.0306509 -0.0156397 -0.00412675 0.00254544 0.0591905 -0.049226 -0.0327769 0.0651521 0.0880371 0.0164954 -0.00803242 0.00983078 0.0726153 -0.0705773 0.0213855 0.0467051 0.0164184 -0.0892895 0.00523481 0.0235511 0.0156692 0.0368192 -0.109778 0.0240429 0.130933 0.0216931 -0.0291653 0.12447 0.00195508 0.00173316 0.0216029 0.0166531 0.0792495 0.018989 -0.018486 0.059172 0.0641363 0.0647853 -0.0675625 0.0577081 -0.0556332 0.000378709 0.0505696 0.089474 -0.0242685 0.0559416 0.0915611 0.0127269 0.0714004 0.136022 0.0300955 -0.0282247 -0.0335421 -0.00701468 0.00859553 -0.0391375 -0.0695986 -0.0164694 -0.0619214 -0.00718399 -0.0534829 -0.0515682 0.033744 -0.0288947 -0.0485517 0.1365 -0.0953851 -0.01629 0.0996241 -0.0896593 0.0310342 0.0587823 -0.0162608 0.0675973 -0.15412 -0.0219625 -0.0397524 -0.0884093 0.0215769 0.0668918 0.0351064 -0.00601623 -0.0514766 -0.0979493 2.47425e-06 -0.0130037 0.00772486 0.0899061 -0.0923178 0.0871493 -0.00404835 -0.0111062 0.0402571 -0.0536225 0.0061502 -0.078412 0.0921507 0.0367803 -0.00443373 0.00740048 -0.0128462 0.0858402 -0.165003 -0.0131507 0.106728 -0.0292642 -0.0789641 0.0793583 -0.135792 0.0278642 0.019675 0.0136111 0.0382358 0.00129762 0.194204 0.0312 -0.0465579 -0.0972545 -0.0309242 -0.0118857 0.00993387 0.0315175 0.0110233 0.01804 0.0261664 0.0355895 -0.0993167 0.112823 -0.00625825 0.0526316 -0.0178641 -0.0146346 0.128948 0.067531 0.0966296 0.0147583 -0.0766569 -0.0546859 -0.0368386 0.0428042 -0.073367 -0.0645755 -0.0276483 -0.014145 -0.0647316 0.0391664 -0.0313488 -0.0327727 0.11195 0.0140008 0.0264649 0.00583472 -0.00582201 -0.0462856 0.0498749 0.000112356 -0.0502575 0.0494718 0.0269984 -0.0118878 -0.0771943 0.104112 0.0716387 -0.0229946 -0.028064 0.0371334 0.0098015 -0.0387391 -0.071511 -0.0335063 -0.0370175 0.0348451 0.0159876 0.0487205 -0.0661229 -0.0100219 -0.0122319 0.033608 -0.102243 -0.123731 0.0342631 0.047806 0.0618176 -0.0012064 0.00425339 0.0170978 -0.0668942 0.0652056 0.0805717 -0.00422236 0.0551185 0.0261285 -0.0178303 0.0160314 -0.150223 -0.08624 0.0832909 0.0240944 -0.0873163 0.0498733 0.0406597 -0.061827 0.0797865 -0.00530601
של 0.0238342 -0.103751 -0.0922843 0.0620991 0.00343731 -0.0210324 0.0848655 -0.0194384 0.00460825 0.0544888 0.129588 -0.0590588 0.0626013 -0.0430572 0.0230524 0.0364489 -0.0690865 -0.0605754 -0.00385395 0.0614524 -0.0198821 -0.000288945 -0.0699373 -0.0753008 0.082147 0.00646329 -0.020267 -0.0119338 0.0431549 0.00857105 -0.0135983 0.116507 -0.0345343 0.00998524 0.0348817 -0.0314926 -0.06046 -0.0542401 0.0495991 -0.0346496 0.0559249 -0.0955311 -0.0197138 0.0856647 0.0474824 -0.00744969 0.00298396 0.0233394 0.0761473 -0.00140792 0.0464492 0.0128509 -0.0643966 0.00750801 -0.027605 0.0220761 0.0635672 -0.0359595 -0.0773381 0.0579979 0.0214921 -0.100331 0.0788808 -0.0723056 -0.0192493 -0.00322708 0.0229679 -0.0807907 -0.0526579 -0.0502266 -0.114164 -0.0411672 0.062586 -0.0624933 -0.0765329 -0.00353197 0.0920761 0.121702 0.0232696 -0.0208332 0.0495849 0.0367377 -0.0874596 -0.0441098 0.0146311 -0.0196276 0.12127 0.0331412 0.0157499 -0.0962853 -0.0110649 0.0311028 -0.0182544 -0.0642297 0.0938218 -0.0571586 -0.00953588 0.0120277 0.0157247 0.0236897 0.0505622 -0.0626792 0.0951434 -0.00810746 -0.0710225 -0.0889519 0.00058666 0.0309967 0.043036 0.0364413 0.0225886 0.000628407 -0.0134651 -0.127265 0.0470714 0.000239674 0.0307504 0.0572807 0.0255881 0.165633 0.0114564 0.0278952 0.0671094 0.0590653 0.00296866 -0.018298 0.0217655 0.0564541 0.0136221 0.0209285 0.00161973 0.109383 0.035128 -0.0492008 0.0600339 0.0166129 -0.0546392 0.0389722 0.00548809 -0.0212045 -0.0101754 0.0142467 -0.0376527 0.0574215 0.0372883 0.0823643 0.0784763 0.0544326 -0.0143432 0.00941104 -0.00883659 -0.0992029 -0.0569969 0.019553 -0.0243126 -0.0647671 -0.00570353 -0.0165859 0.0499384 0.0100852 -0.0971102 0.0867239 -0.00122617 0.0704445 0.119281 -0.035446 0.0123825 -0.0119486 0.0841075 0.0378306 -0.0530549 -0.0190967 -0.0450113 0.00147603 -0.0883777 0.0620139 0.0433944 0.13466 -0.0425931 -0.0295232 0.0293548 -0.0319034 -0.00344705 -0.0424207 -0.0215108 0.0215656 0.0488873 -0.0300888 0.120985 -0.0139862 -0.0212094 -0.10493 0.0022682 0.0134379 0.117519 -0.0237186 -0.0458994 0.00411408 -0.0667855 -0.0206814 0.0314598 -0.0800709 -0.0506649 0.0348746 -0.017019 -0.0708468 0.0173543 0.0341832 0.101059 0.0164053 0.200393 -0.0235514 -0.0492792 -0.0821969 0.0178395 -0.0647986 0.0497097 -0.126663 -0.00744338 0.052134 0.0466319 0.00107188 -0.0167158 0.11687 -0.0997161 0.00562782 -0.10823 -0.0979646 -0.0280453 -0.0388981 0.0649675 0.0634273 -0.0713132 0.0421298 -0.0426366 0.0904857 -0.0156066 -0.0411066 -0.0190633 0.0651223 -0.00653674 -0.0123569 0.0504883 0.0507362 0.0987781 -0.00418269 0.061948 -0.0636511 0.01219 -0.00820489 0.0788915 0.00731339 -0.00966619 0.0225861 -0.00745251 0.0845203 -0.0496138 -0.0750569 -0.0180875 0.0310663 -0.0181892 0.0762869 0.0370536 0.0439087 0.012363 -0.103985 -0.0623948 -0.0148886 0.00329462 -0.0651731 -0.115221 -0.0539932 0.0399262 0.103127 -0.0369581 -0.0327766 0.0836827 0.080324 0.0616213 0.0940395 -0.0698886 -0.0242976 0.0257495 0.0881727 -0.000484955 -0.0037114 -0.00115988 0.0583686 -0.00783386 0.114788 0.0142131 -0.0645313 0.0705995 0.0184765 -0.0230267 -0.0668861 -0.0314586 0.079239 -0.0538582 0.00345175
) -0.0828704 -0.00483487 0.0230099 0.0510919 -0.0200039 0.0339451 0.00649958 -0.0026144 0.00551932 0.0239049 0.0289791 -0.0834431 0.105856 0.0288756 0.0269667 -0.063899 0.00262163 -0.0135846 0.00558406 0.117164 -0.048329 0.0727464 -0.0909377 -0.0563384 -0.0266076 0.0166864 0.025551 -0.148401 -0.0399218 -0.056673 -0.0212865 0.10648 0.00510823 0.00901247 0.0995306 -0.0713971 -0.0474137 -0.0449061 -0.0326119 -0.026445 -0.0196694 0.0228888 -0.112725 0.0646537 -0.0288512 0.0235844 0.0253203 0.042821 -0.00276072 0.0437667 -0.00444124 -0.103612 -0.0480746 -0.119009 -0.0512857 -0.0843467 0.0474303 0.0230263 0.0206145 0.0168087 0.0412899 -0.0345619 0.0535968 -0.0140051 0.000821388 -0.0292573 -0.0244514 -0.0533343 -0.0968252 0.0156044 0.00832628 -0.0128468 0.0641561 0.0210336 0.0119499 -0.0648013 0.102979 0.012384 0.0364839 0.0644427 -0.0104276 0.0265458 -0.00836431 0.0231405 0.0744915 -0.0427995 0.0148348 0.0675842 0.0559397 -0.0411973 -0.00169598 -0.0353396 0.00703295 -0.00221061 0.0488765 0.0047375 0.0300158 -0.0265893 0.0202338 0.0306425 0.101766 -0.001882 -0.03258 0.0893204 0.101236 -0.0122482 -0.0282254 -0.0261428 0.0538044 -0.0936504 0.0204183 -0.00563604 -0.0330604 -0.151244 -0.0306653 0.0431094 -0.0440167 0.0207491 -0.0112441 0.0112802 0.148553 -0.0251528 -0.0281448 0.128958 -0.0391292 0.0298632 0.0380364 0.0312598 0.12855 -0.0181245 0.0360364 0.0196349 0.0922773 0.103311 -0.0116633 -0.0257722 -0.10413 0.0223773 -0.00716772 0.16513 -0.00676325 -0.0331441 0.0591692 -0.0554252 0.0748167 0.121361 0.0433591 0.0103282 -0.042946 0.0531112 0.0446879 -0.0625928 -0.0809178 -0.0462948 -0.0861778 -0.0187647 0.00313613 -0.0168429 0.0431379 0.0864556 0.0154896 0.116608 -0.0750327 0.0461936 0.0491279 -0.113564 0.0339827 0.0381557 0.0267386 0.000756078 -0.0558835 0.00600049 -0.084584 -0.0197566 0.0317096 0.0665496 0.0218929 -0.00151512 0.0573303 -0.0571055 0.0207063 0.0066813 -0.0407001 0.0297437 -0.0824065 0.0761263 -0.0577923 -0.0276587 0.0200499 -0.0518237 -0.0224459 -0.127205 0.00295525 0.0394986 -0.0238636 -0.0823791 -0.00981964 0.0832258 -0.171295 -0.0793803 0.0659595 -0.0312537 -0.0189032 0.0625799 -0.0277984 0.00925498 -0.0392531 0.0575998 0.0925195 0.0190783 0.201413 0.0499835 -0.0204356 0.0496812 -0.0865729 0.00467111 -0.00653001 -0.0440631 -0.0425417 0.00206531 0.0154149 -0.0122847 -0.06424 0.0856304 -0.0794825 0.0438875 0.0151149 -0.0226933 0.0929969 0.0725831 0.0630126 0.019838 -0.0128114 -0.135318 -0.00813902 0.00975873 -0.102554 -0.0646383 -0.0124225 -0.0121377 -0.0338366 0.00373471 0.0563167 0.00821283 0.0964614 0.0256182 0.0683967 0.00940234 -0.0126899 -0.0302777 0.0576861 -0.0310644 -0.0190113 -0.044173 -0.0675761 -0.0484486 0.0742677 0.00852691 0.0394574 -0.108639 -0.0219526 -0.029543 0.0701402 0.0328419 -0.0697336 -0.00189093 -0.149081 0.00320766 -0.00603721 -0.0121851 -0.0691175 0.0305769 -0.0113858 -0.0380965 -0.0029611 -0.0352753 0.0623039 0.0270221 -0.00796924 -0.0547546 0.0481267 0.133145 -0.0657877 0.0188698 0.0758649 -0.000611731 0.117703 0.044622 -3.95306e-05 0.0443366 -0.0269149 -0.0306259 0.0271634 0.0453917 0.014107 0.0192717 0.0568719 0.0491461 0.0332314 0.0175944
( -0.0966459 -0.021732 0.000535683 0.0418473 -0.0209207 0.0407987 0.0174362 0.00317502 0.0248412 0.00890321 0.0391637 -0.0806114 0.109138 0.0429323 0.0255777 -0.0686719 0.00427955 0.0177798 0.00901571 0.116983 -0.0534666 0.043809 -0.0712109 -0.057657 -0.0377698 0.0353462 0.0313275 -0.11946 -0.0438044 -0.0679331 -0.0296779 0.0822881 0.00566649 -0.00272572 0.105628 -0.0750908 -0.0579768 -0.0311622 -0.0078267 -0.00184356 -0.0340559 0.00724939 -0.117221 0.060724 -0.0253525 0.0138799 0.0197724 0.0302618 -0.00880604 0.0314419 0.0298912 -0.0924859 -0.0451542 -0.117189 -0.0352081 -0.0921754 0.046278 -0.00404639 0.0234234 0.0248794 0.051311 -0.0313979 0.0347081 -0.00152106 -0.0366017 -0.0133983 -0.00718482 -0.0538622 -0.103371 0.0150748 0.0101011 -0.0150241 0.0774274 0.0275713 -0.0208739 -0.0827884 0.0973459 0.016955 0.016848 0.0838748 -0.00480832 0.0328824 -0.0210658 0.0352235 0.0934839 -0.0542984 0.0428604 0.0843366 0.0504417 -0.0397694 -0.00175467 -0.0299857 -0.0112021 0.00361671 0.0372655 -0.0196493 0.0388389 -0.0337898 0.0209408 0.0336288 0.133384 -0.0059963 -0.0168168 0.0900304 0.100912 0.0104773 -0.0170065 -0.0226177 0.04984 -0.0857899 0.0206799 -0.00209613 -0.0113888 -0.151109 -0.027666 0.0273305 -0.0384386 0.0236918 -0.0114338 -0.00411301 0.143665 -0.0294975 -0.0553713 0.137863 -0.0587272 0.044931 0.0532426 0.0316901 0.131098 0.00384674 0.0309167 0.0294635 0.073421 0.0953355 0.00493238 -0.0259662 -0.0821122 0.0297233 -0.00774227 0.175938 -0.0163295 -0.0165681 0.0603482 -0.0352295 0.0578942 0.0940304 0.0474271 0.0170905 -0.0366044 0.0429124 0.0630505 -0.0649199 -0.0828224 -0.027627 -0.0829934 -0.00733752 -0.00933681 -0.025536 0.0398594 0.0626066 -0.000275264 0.120907 -0.0812566 0.0318109 0.0665816 -0.122216 0.0243259 0.0393885 0.0255315 0.0218921 -0.0419083 0.0104691 -0.0938208 -0.0323187 0.0119835 0.0647336 -0.000166954 0.008716 0.0236594 -0.0507311 0.0375709 0.00221994 -0.0606887 0.00824464 -0.0767352 0.0747404 -0.0416775 -0.0394296 0.013535 -0.0513747 -0.0031986 -0.0965958 0.00194121 0.0363497 -0.0067848 -0.0824247 -0.00614842 0.0973269 -0.192871 -0.0627621 0.0560452 -0.0486418 -0.0242076 0.0659145 -0.0390287 0.0246513 -0.0448603 0.0541906 0.0967029 0.0212055 0.197192 0.0269794 -0.0111918 0.034217 -0.07489 0.0212551 0.0032843 -0.0129408 -0.046868 -0.00213452 0.0239471 0.00354673 -0.0757004 0.094142 -0.072091 0.0612045 -0.00373676 -0.0293563 0.0802484 0.0544643 0.0536435 0.0261218 -0.00970249 -0.149265 0.00232272 0.0318766 -0.110096 -0.0779512 -0.00737877 0.000269351 -0.0273276 -0.0043017 0.0392411 -0.00610442 0.095065 0.0396139 0.0737558 -0.000977095 0.00424319 -0.0233069 0.085724 -0.0425716 -0.0267107 -0.0202862 -0.0646568 -0.070797 0.0472927 -0.00969858 0.0242744 -0.115721 0.00774352 -0.0164732 0.0575471 0.0422794 -0.0784427 0.011773 -0.154901 0.0032813 -0.000257544 0.00270994 -0.0801275 0.0247702 -0.0110919 -0.0440687 -0.0020667 -0.0315688 0.068635 0.0259631 -0.0134193 -0.0440467 0.0640461 0.125807 -0.0603878 0.0351093 0.0723357 0.0210001 0.106678 0.0513798 -0.00364546 0.0566946 -0.0313176 -0.0447737 0.00492012 0.0578025 0.00754739 0.0127505 0.0586492 0.0324328 0.0242016 -0.00772608
את -0.0566464 -0.0395272 -0.0529669 0.0751225 0.02746 0.0595948 -0.0388448 -0.0103637 -0.0264837 -0.0585867 0.0209865 0.0299789 0.0250753 0.00164588 -0.0148824 -0.062473 -0.00119798 0.0528358 -0.0391559 0.0471668 0.0220761 -0.00370429 -0.0685539 -0.118892 -0.0393725 -0.0342113 -0.0524125 -0.0142061 0.0168688 0.0660546 -0.0552111 0.0140252 -0.0378112 0.0200283 -0.0338871 0.010065 0.0253685 -0.135649 -0.0630558 0.0187309 0.0464092 -0.0861039 0.0417776 0.035041 0.0590888 -0.0831774 0.0560613 0.075915 -0.0220651 -0.075871 0.0323756 -0.0836847 -0.0361543 0.00724527 -0.0528943 0.0168938 0.113233 -0.0737262 0.00365457 0.0359568 -0.01138 -0.080059 0.093386 0.0292904 0.0296055 0.0253785 -0.0015744 0.0452398 -0.0268539 -0.0115163 -0.0266107 0.0288706 0.0118154 -0.0654095 -0.0181272 -0.00117963 0.133613 0.116936 -0.0153257 0.00796689 0.0531366 0.027575 0.017632 0.0329117 -0.0193889 0.0669475 0.0168438 -0.040558 0.0292993 -0.0428014 0.0447057 0.0344559 0.0567273 0.00322461 0.0137485 0.0747081 -0.0278696 0.00523493 0.0520576 0.0239651 0.00840842 -0.0827306 0.0150806 -0.021117 -0.158449 0.0245827 0.00915496 -0.0416779 -0.0281005 -0.001946 0.0929314 -0.00972759 0.098487 -0.0103668 -0.0570261 -0.0855683 0.0446085 -0.0353423 0.0104534 -0.0144054 -0.0330764 0.106726 -0.00852935 0.0369444 0.0604872 -0.0177554 -0.0654152 0.0651154 0.0140245 0.0584205 0.00203629 0.0605935 -0.148296 -0.0504746 0.01295 0.00608019 0.00557763 0.0712219 -0.0027707 0.0921671 -0.0337841 0.0210914 0.0515803 0.0326121 -0.0496176 0.154726 0.129352 -0.0800943 0.0385533 0.0888617 0.00507646 -0.021836 0.026218 -0.00659273 0.0314296 0.0676871 0.0176255 0.014466 0.11503 0.0277938 -0.0615157 0.108632 -0.0238914 0.0800295 0.0125549 -0.0045949 -0.0694712 -0.0131454 0.0796493 -0.0069653 -0.0830865 0.00891928 -0.117455 -0.00843249 -0.123157 0.0881376 0.00783902 0.0648472 -0.0779948 -0.0619187 0.117874 -0.0440243 -0.0519467 0.0324455 -0.0713711 0.0816016 0.0421654 -0.0311826 0.00786756 0.0726895 -0.0541999 -0.0246244 0.00729109 0.156498 0.0557747 0.103092 -0.0421417 -0.0630196 -0.137449 -0.0152114 0.00983845 -0.0104058 -0.00161994 0.0105912 0.011285 -0.0239224 0.0205375 -0.0293037 0.0339355 0.0604257 0.0974444 0.041582 0.0159369 0.0181864 0.110153 -0.0275602 -0.0186518 -0.00635683 0.0346264 0.00419353 -0.0158441 -0.050117 0.0575944 0.134075 0.00531025 -0.0275122 -0.0529363 -0.102536 -0.0171379 -0.0149729 0.0966254 0.0596841 0.0499443 0.0549202 -0.0575994 -0.0209386 -0.0679817 0.0650868 -0.0449569 0.0109742 -0.034447 -0.0586495 -0.0388106 0.00551929 0.0553609 -0.0355965 0.0124325 -0.103033 -0.0256109 -0.0246542 -0.0132216 0.0371266 0.0541144 -0.0575498 0.011285 0.145108 -0.00432868 0.00725298 -0.00239217 -0.107515 -0.0138122 0.0151605 -0.000580909 -0.052464 -0.148343 -0.0668063 -0.0594137 0.0353819 -0.058541 -0.0902189 -0.0910385 -0.0751566 0.0589428 0.0362947 -0.111418 0.0347692 0.146489 0.0787316 0.0425551 0.0280191 -0.00969912 -0.0347313 0.0468551 -0.0573345 -0.0269639 -0.0249581 0.0560711 0.0431392 0.000210937 -0.00112531 -0.0172786 0.101842 0.0603558 -0.0750458 0.0667711 -0.049468 0.00375184 0.0555098 0.00621029 0.0253777
על 0.0151213 -0.0165024 0.0051525 0.0661044 -0.0369247 -0.0212623 -0.0540659 -0.0308985 0.0245709 0.0343167 0.0690537 0.00772147 -0.0402652 -0.0827113 -0.0243627 -0.0994248 -0.0225676 -0.0805701 0.068739 0.0495692 0.0335131 -0.00874879 -0.135029 -0.0378544 -0.0931119 -0.0588113 0.0675569 -0.0740954 0.0255563 0.0002341 -0.0102576 -0.0295646 -0.0571549 0.0259573 0.0316333 -1.74181e-05 0.0111956 0.0866892 0.0211029 -0.00953584 0.0695698 0.00501905 0.1448 0.0649937 -0.0190902 0.0253649 0.0866982 -0.0515297 0.0250531 0.000643475 0.0343061 -0.109908 -0.0336906 -0.0303158 -0.0543955 0.0457473 -0.0406065 0.075906 -0.0326459 0.076724 -0.0221974 -0.0853095 0.033763 -0.0596854 0.0541523 -0.066194 0.00324631 -0.0209741 0.0475263 0.0529797 -0.0492541 0.0145313 0.03826 -0.0679224 -0.0409971 0.0630051 0.0741607 0.0877554 0.000586627 0.0468154 0.0244288 -0.0166874 0.0507115 0.076161 -0.0766756 -0.0416193 0.0302731 0.0415851 -0.015959 -0.138665 -0.0396743 0.0274887 0.0359681 -0.071695 0.0655747 0.0930472 -0.0560062 -0.133893 -0.0866658 -0.0122792 -0.0516659 -0.00685463 0.123836 0.0504308 -0.013785 -0.0339672 0.0490217 0.0473422 -0.0315144 -0.0029899 0.0410585 0.0244808 0.0370985 -0.0137478 0.081063 0.0178618 -0.0213656 0.0498363 0.0435838 0.046789 0.0920788 0.0619694 -0.0319715 0.072086 0.0463342 -0.0134835 0.022962 0.0293712 -0.000726215 -0.00324503 -0.0323334 0.0190394 0.0685228 -0.000310214 -0.00905704 0.0309582 0.0317581 0.052486 -0.0147787 -0.0169236 0.107383 0.197612 -0.0335057 0.0616389 -0.072359 0.00478075 0.0429861 -0.0110059 -0.00317954 0.0907701 -0.0768382 -0.0760691 -0.072388 0.0226808 -0.0745482 -0.0709675 -0.0481351 -0.0787292 0.0575276 0.00419931 -0.0016726 -0.0142493 -0.0736041 -0.049057 0.0491158 -0.00334732 0.0855748 0.0338184 0.109544 0.0076728 -0.124256 -0.00944874 -0.0448148 0.0325245 -0.0732896 0.0934855 -0.0378246 0.116953 0.00555547 -0.0539846 0.0295611 -0.085561 -0.0190049 0.0534354 0.0565518 0.0511081 -0.00324843 -0.024054 0.110217 -0.0378082 -0.020789 -0.127313 0.079493 -0.0589927 -0.07252 -0.0828423 -0.0497304 -0.026722 -0.0987134 0.0380185 0.109435 0.0319211 -0.125291 -0.0265062 -0.0506258 -0.0322816 -0.0167158 0.0123025 0.083698 0.0457462 0.0490866 0.100725 -0.070564 0.028403 -0.0138026 0.0146594 0.0436695 -0.11309 0.042896 0.0250034 -0.0987045 -0.0254913 -0.0903735 0.0802695 -0.0922662 0.0427687 -0.031727 -0.0636215 -0.0560745 0.0428953 0.106497 0.0848401 -0.0395584 0.00225444 0.0449924 0.00221149 0.0545072 -0.00790923 0.0510642 0.081948 0.0102395 -0.00380003 0.0918404 0.0110962 0.0254438 -0.00211007 0.0146285 -0.0277861 0.0487528 0.0709138 -0.0113205 0.029275 0.0974431 -0.0251683 -0.00599029 0.0799954 -0.0595717 -0.025913 -0.0144869 -0.0471727 0.0226629 0.0775569 0.00294336 -0.0432823 0.0030745 -0.0661288 -0.0467198 -0.0135214 -0.0173199 -0.0396093 -0.0959619 -0.0910896 0.0421761 0.0630472 -0.0617853 -0.0246089 0.0610046 0.119199 0.0229648 0.0654857 0.03586 0.0917285 -0.0218001 0.0594054 0.0290526 0.00799316 0.0534798 0.0336267 0.00124243 -0.0100948 0.0488644 0.0295642 -0.0230318 -0.00813847 0.129147 -0.0588275 -0.037531 0.0473776 0.0270433 0.00671667
הוא -0.0173029 -0.0504688 -0.00835212 0.0276305 -0.0595533 0.0262061 0.0991272 0.00398308 -0.00618067 0.0208197 0.0914846 -0.0443235 0.0390747 0.00710275 -0.103425 -0.0364733 -0.0508715 0.014418 0.027447 0.0559012 -0.0211046 0.024781 -0.0357462 -0.0902734 -0.0302158 -0.00642797 0.0232451 0.0132277 -0.0795062 -0.0230098 -0.0409967 0.0433943 -0.0841716 0.0677771 0.0285674 -0.0871416 0.00289894 -0.0254787 -0.0147789 0.0938067 -0.0057914 -0.0309603 -0.051536 0.0111026 -0.0530134 0.0664362 0.0311238 0.0576971 0.0112486 -0.0439048 0.0500974 -0.00273347 0.0599931 -0.0583332 -0.0539135 0.0533675 0.0986665 0.00790413 0.0431979 0.0263811 -0.0192687 -0.0572428 0.0977873 0.0312823 0.0870886 -0.0567816 -0.0768892 -0.0123262 -0.0348245 -0.0469424 0.0187758 0.0468837 0.0804 -0.0912024 -0.0212474 0.032136 0.0734379 0.0271322 -0.0394948 0.0120152 0.0360977 0.0595794 -0.0202981 -0.0681766 -0.0586428 -0.086197 -0.0405103 0.00534887 0.0204309 -0.069254 0.121676 0.0417557 0.175821 -0.114674 0.0172859 -0.00384561 -0.055221 0.0744846 -0.0523552 -0.0565912 -0.0479282 -0.007743 0.0988172 0.0275475 0.022191 -0.0263579 -0.0661519 0.0470241 -0.0163569 -0.0318422 -0.062635 -0.0146352 -0.177588 -0.00321965 -0.0488189 -0.0423127 0.0278137 0.00580948 -0.0139617 0.0508121 0.0725455 0.00825135 -0.0319687 0.166404 -0.0530374 0.0357042 0.0217201 0.00402606 0.0274845 0.00410097 -0.0254905 0.0571347 0.0729616 -0.0314164 0.0224821 0.000602753 0.00751859 -0.0284628 -0.0730441 -0.0315484 -0.0721593 0.02974 0.119 -0.0302185 -0.0185008 0.0914522 -0.00221959 -0.078636 0.0128289 0.0158281 0.0139562 0.0139678 -0.0550929 0.0483499 -0.121016 -0.0285492 0.0442461 -0.103046 0.013237 0.0601887 -0.0952842 0.0620708 -0.111965 0.0587579 -0.00214167 -0.0478289 0.0233616 -0.0507527 0.0496276 -0.0740839 -0.0792698 -0.0127865 0.0132396 -0.00397244 -0.0321724 0.0707394 0.0805695 0.0190316 -0.0456419 -0.100063 -0.0126724 -0.0250198 -0.00535825 0.0421309 -0.0173003 0.023191 0.00837593 0.00975428 0.1028 -0.0396681 -0.0227963 -0.0991051 0.0197818 0.131546 0.0450644 0.053908 -0.0422986 0.0662589 -0.164352 -0.0538313 0.0868284 -0.0524662 -0.027269 0.0950189 -0.0575953 -0.0523672 0.000569125 0.0109621 0.0784162 -0.00453527 0.0925516 0.0189353 -0.0260144 0.000163408 1.02733e-06 -0.0266872 -0.0644635 -0.103558 -0.0412938 -0.0394644 0.0156088 -0.00516243 -0.0500677 0.144181 0.0110235 -0.0430491 -0.0866948 0.0396039 0.0359283 -0.0456306 0.120655 0.117784 -0.0261946 -0.0199626 0.0315539 0.0130585 -0.0684297 0.00377902 -0.0784743 -0.00230202 -0.0441922 0.0281772 -0.0344651 0.0638731 -0.00414834 0.0328926 0.0506416 -0.0467059 -0.0598849 0.00300995 0.00725478 -0.0285757 -0.049461 -0.045202 -0.0200831 0.0259556 0.0220756 0.0306855 0.0374153 0.00193844 0.042634 0.0421705 0.122555 -0.067377 -0.0501254 -0.0544383 -0.0447068 0.0652135 0.0306468 -0.097071 -0.111235 0.0168074 0.0196533 0.0593638 -0.00442925 -0.090695 0.064487 -0.0602356 0.0867997 -0.0539452 0.0247555 0.0943446 -0.0554979 0.0375601 0.0243113 -0.0259023 0.1382 0.0829521 -0.0599669 -0.00706224 -0.0679819 -0.0603191 0.079303 0.0333984 -0.0455349 -0.0728951 0.0146073 0.0429634 -0.0867947 -0.0339146
ב -0.0251905 -0.0680138 -0.0644841 -0.00889937 -0.000526602 0.00500495 0.0494174 -0.0443476 0.00393453 -0.00254775 0.0536925 -0.0264734 -0.0349281 0.0385861 0.0205691 -0.0165816 -0.0717456 -0.0521274 -0.0262603 0.0182592 0.0651348 0.024504 -0.0724996 -0.086768 -0.0263934 0.00374799 -0.0484676 -0.110602 0.0651091 0.000277839 -0.00358704 0.0561546 0.0133832 -0.0791774 0.0134174 -0.0569183 -0.0257969 -0.113632 0.0328998 0.00743703 -0.0270985 -0.0995796 -0.0354561 0.0585984 -0.0011627 -0.0931108 -0.0125852 0.00537263 -0.00832406 -0.0476387 0.0538874 -0.0481648 -0.0147997 -0.0355325 -0.0285616 -0.112282 0.00567712 0.127123 -0.00768617 0.0919755 0.0662221 -0.0450578 0.0733358 -0.0168219 0.0440243 -0.0834124 -0.00545237 0.0330653 -0.17475 0.0616319 0.0192096 -0.0189163 0.0110911 -0.0725088 0.0805779 -0.00679698 0.0574329 -0.00352189 -0.00396735 -0.0315236 0.0845771 0.0670686 -0.00424299 0.0153108 -0.00575968 -0.0966811 -0.0431667 0.0117811 0.0105644 -0.0423028 -0.0732827 -0.121002 0.100874 -0.0180742 0.0210341 0.0752095 -0.035218 -0.00119802 -0.0722021 0.0380898 -0.00676801 0.0467025 0.0386521 -0.0513216 0.0228387 0.00474541 -0.0102907 0.0376837 0.0823155 0.00165381 0.0775324 0.0125461 0.036623 -0.0348061 -0.0743696 -0.00655118 0.0871593 -0.00646942 0.0287682 0.0900291 0.113869 -0.0163835 -0.0871012 0.111519 -0.0545885 -0.0371499 0.0550416 0.0136043 0.029755 -0.00789376 -0.0192989 0.0106506 -0.0105083 -0.0767291 -0.0665956 0.0346754 -0.0386331 0.011392 -0.0872878 0.0761821 -0.0226396 -0.0103006 0.124303 0.0396819 0.0207173 0.20408 0.0700498 -0.0751135 -0.0396306 0.00348608 0.0196289 -0.0567426 -0.0515103 0.051616 -0.0905291 -0.0154755 0.0127878 -0.0441795 0.06197 0.0845381 0.00667596 0.073371 -0.0824429 0.0319695 0.0655303 -0.0398961 -0.0183221 0.0540018 0.0685369 -0.0255976 -0.0640438 0.0804018 -0.0444044 -0.00779686 0.00980457 0.0835704 0.0557492 0.0271653 0.00094773 -0.0295827 -0.0640557 -0.00102956 -0.0559911 0.0691564 -0.0406241 0.0796255 0.00658503 -0.0286265 0.0954873 0.0439591 -0.0482547 -0.163411 -0.00251605 0.0209176 -0.00556953 0.0494777 -0.00281068 0.116105 -0.0748562 -0.0915781 0.141511 0.0325618 -0.0225185 -0.00782039 0.068059 0.0621962 0.0183504 -0.00771545 0.150613 0.0764579 0.0987312 -0.103174 -0.0645988 0.0196935 -0.107156 0.0160895 -0.00405393 -0.0528968 -0.123768 0.0516517 0.0157321 -0.0238055 -0.0476201 0.023499 -0.0725215 -0.0231635 -0.013859 -0.058855 0.047915 0.0105772 0.123226 0.0267762 -0.0897187 -0.0400366 0.0343006 -0.0103261 -0.0316501 -0.0262221 0.00976609 -0.100609 -0.0973543 -0.036405 -0.00155851 -0.0129909 -0.0356457 -0.0221936 0.00626668 -0.00475055 -0.0238667 -0.000840102 0.0759181 -0.0544833 0.00465412 0.00907907 -0.0559058 0.0691493 -0.0128997 0.0642992 0.0310305 0.0645875 0.0233723 0.0375816 0.0123182 -0.00953783 0.0422385 -0.0456734 -0.0368648 -0.0591248 -0.0135607 -0.0605124 -0.0694791 0.0655873 0.0498159 0.0223414 -0.100071 -0.0983303 0.066767 -0.00110022 0.106763 -0.0717199 -0.00414995 0.0557476 -0.0530499 -0.00760823 0.0668027 -0.00706564 0.0377534 -0.0118667 0.00194061 0.0173381 0.117223 0.0461308 0.036976 0.0846293 -0.0125036 -0.0251157 -0.0428325 -0.027021 0.107985 -0.0151544
קטגוריה -0.0664589 -0.017856 0.0861777 0.0320008 -0.00810504 0.0219026 0.106078 0.0376053 -0.00684811 0.00885564 0.0212818 0.0204868 0.0414415 -0.0791167 0.00105267 -0.038328 -0.0164697 -0.0727717 -0.0199554 -0.0207246 -0.0846122 0.0718086 -0.109915 -0.0182999 -0.018525 -0.018151 -0.037898 0.0531543 -0.0347711 -0.0194406 -0.026846 0.0397011 -0.103758 0.0193936 0.166204 -0.0925804 -0.0556937 0.053557 0.00244177 0.0626002 -0.00409927 0.0074161 -0.0278805 0.0109555 0.0722336 -0.0165152 -0.0322245 -0.0841303 -0.0098305 -0.00571327 0.0778405 -0.0838584 -0.0338245 -0.113376 -0.00629943 -0.0290094 0.0590335 0.0554811 -0.0551402 0.0961301 -0.0347028 -0.100228 0.0840664 0.0694251 0.0466232 -0.00392927 -0.0615829 -0.0728197 -0.103972 -0.0644423 -0.00101486 -0.000300384 0.0316288 -0.0214521 -0.0576454 0.0504746 0.0252823 -0.0740223 -0.0408004 -0.00798587 -0.0141297 0.0678643 -0.0310017 0.0581938 0.0937007 0.00941494 -0.055889 -0.0178625 0.0662945 -0.00529634 -0.0986531 0.0935627 0.0296929 -0.0351459 -0.0131303 -0.0412025 -0.0673961 -0.018521 0.0777859 0.0224253 0.0352423 -0.104566 0.0597003 0.0166388 0.0612121 0.0397832 -0.0173423 0.128992 -0.0503166 -0.0393603 0.0308608 -0.00160787 -0.0400935 -0.0309596 0.028405 -0.024359 0.0641912 0.0438578 -0.0520797 -0.00155813 0.0547828 0.0653891 -0.0616036 0.0441444 0.032354 -0.0405492 0.0385102 0.0326228 -0.000651386 0.0908937 -0.0416367 -0.0283434 -0.116374 0.0487522 0.00412078 0.0683826 0.0240326 0.00752053 0.0397664 -0.00651757 0.041242 0.00746057 0.0665431 0.00704845 0.0658064 0.0270722 0.0800816 0.052382 -0.0756349 0.00664682 -0.0961938 0.0369325 -0.0556503 0.00964831 -0.0221386 -0.0544494 -0.0243375 -0.0225432 0.0292113 0.0466159 -0.00777962 0.0166449 -0.0644704 -0.0122811 0.090761 -0.124374 0.016535 -0.0284906 0.126703 0.0351511 0.0290576 0.0416009 -0.0316423 0.0372296 -0.00955526 0.110563 0.0506315 -0.020633 0.110709 -0.0790063 0.0804688 0.044263 0.00249299 7.58063e-05 -0.015309 0.0245845 0.0823089 0.0511399 -0.0707859 -0.0585747 0.0656243 0.00982534 -0.0106712 -0.0129925 0.0292396 -0.0375821 -0.0221452 0.0167358 -0.0263238 0.0787595 0.00993477 -0.110775 -0.0553683 0.066925 0.0055483 -0.10199 0.0981424 -0.0393806 0.163927 -0.0263573 0.0441293 -0.0133728 0.0717827 0.0187771 0.0045149 0.00613716 0.120141 -0.0614282 0.00597217 0.0676706 -0.0729188 -0.060989 -0.135509 -0.0599222 -0.1271 0.0141415 -0.00775184 -0.0780259 -0.0387009 -0.0168177 -0.0367473 0.13561 -0.0699162 -0.11601 -0.0340231 0.0881675 0.0950107 0.0258063 0.0151333 0.0186519 0.00803858 -0.100645 0.0504519 -0.0276753 0.0420505 0.0453055 0.0316238 0.0568868 0.0424397 0.0321573 0.0396206 -0.00287077 -0.0239691 0.0620315 -0.0511226 -0.0832602 -0.0133708 -0.0187115 0.136277 0.0505463 -0.111235 -0.0225137 -0.0414774 0.0310365 -0.0910283 -0.0189041 0.0297191 0.0132639 0.100263 0.0284353 -0.0584077 -0.0559464 -0.0157732 0.0449533 -0.0263033 0.0275587 0.0265897 0.0479027 0.0867041 0.106775 -0.023981 0.0603713 0.0661391 0.0701141 0.0898879 0.0547058 -0.0497599 0.0344668 -0.0603081 0.0759499 0.00818229 -0.00795089 0.072933 -0.0447793 -0.0834215 0.0204838 0.023361 -0.00302066 0.0404057 -0.0232083
לא -0.107231 0.0596252 -0.117586 0.0495366 -0.0460456 0.0430623 0.0283708 -0.11511 -0.0284752 0.107654 -0.0170497 -0.0112774 -0.0110905 0.00118345 0.0776994 -0.0509734 -0.064003 0.0635879 -0.0133368 -0.0150479 -0.0160238 0.0952146 -0.0279786 -0.0670848 0.00559298 0.036407 0.0554239 0.0672392 -0.00836579 0.075613 -0.00265795 -0.00476238 -0.0721606 0.108226 -0.0511618 -0.0632616 -0.0536277 0.0244235 -0.0321137 -0.169449 0.0593139 -0.0112762 -0.020158 0.00453378 0.0433358 0.0485456 0.0657324 0.0177036 -0.0490875 -0.0110683 -0.00140915 -0.0607281 0.0134199 -0.0274352 -0.130258 -0.0274421 -0.0407017 0.0646125 -0.0431075 0.0332751 -0.0593997 -0.0455115 0.106446 -0.0063593 0.0530277 -0.0443173 0.0408942 0.0696945 0.0509067 -0.0560257 0.0347138 0.0190788 0.0341748 -0.0860502 -0.0530113 0.0900255 0.0695696 0.0872379 0.0114937 -0.00450306 -0.00460557 -0.0227868 0.0400814 0.0354131 -0.0451902 -0.0360065 -0.086646 0.0248722 0.0319276 -0.0491563 -0.0646746 0.0535479 0.101681 -0.025192 0.00276023 0.0893545 0.060926 -0.00517304 -0.0333129 -0.0122959 -0.0198351 -0.0435086 0.0768711 -0.0666406 -0.0724794 -0.144526 -0.0348866 -0.0211631 0.00760667 0.0303164 -0.0164155 0.0207657 0.0546791 0.0255734 0.0177564 -0.0924306 -0.0237668 0.0596604 0.0103305 0.000877409 0.0829775 0.0443282 0.00387158 0.172753 0.0128324 -0.0309757 0.0492887 -0.00338516 0.0153598 0.0163597 -0.050357 0.000749009 -0.0896552 -0.00384913 0.0254735 0.0285194 -0.0245982 0.0225113 0.0644995 0.0426118 -0.0120024 0.0612064 0.0630517 -0.00509673 -0.0176454 -0.00629442 -0.078762 -0.0373573 -0.0151761 -0.0443301 0.0352262 9.64019e-05 0.0290573 0.0529261 -0.0523835 -0.0310779 0.024547 0.0410412 0.0918056 0.0814153 -0.0495612 0.0658959 -0.0585291 0.0564836 -0.0302474 0.0739879 0.0302371 -0.0620746 0.0368689 0.0941723 0.00332664 -0.110153 -0.12674 0.0551175 -0.066136 -0.0120598 0.0140684 0.00663096 0.0291099 -0.00907845 0.012484 -0.0701386 0.0213364 0.0313871 -0.045667 0.0223977 -0.0501267 -0.0273992 0.0578764 -0.0206484 -0.039718 -0.139318 -0.0420389 0.10081 -0.109373 -0.0227731 -0.00664852 0.00680711 -0.11541 -0.0101591 0.00248517 0.060416 0.0525441 0.0382513 0.0286686 0.0369153 -0.0612987 0.0506239 0.0785443 0.0520289 0.116319 -0.0148592 -0.0169069 -0.0608849 0.0391183 0.0122561 -0.028807 -0.0514511 -0.08538 0.092745 -0.0210367 -0.116095 -0.0767505 -0.0351766 -0.0244821 -0.00755016 -0.112691 -0.00499482 -0.00798992 0.0432685 0.0569691 0.10737 0.0355433 -0.042424 -0.0228426 0.090769 0.0463536 0.00776554 -0.0470627 0.0212682 0.057637 0.0211081 0.0270282 -0.00110968 -0.0574626 0.0439582 0.138755 -0.0359724 0.0112473 0.0153551 -0.0346351 -0.0953975 -0.0795442 0.00780006 0.0370031 -0.0523863 -0.040553 -0.0318174 -0.0342246 0.0377463 -0.0259857 -0.0417406 -0.0133221 -0.163953 -0.0342181 -0.0695022 -0.0126576 0.070294 -0.0471778 0.0129773 -0.141601 -0.0071359 0.0898621 0.0242729 -0.0868249 -0.0782482 0.0279218 0.0478897 0.00785729 -0.0772671 0.0669544 0.0372878 -0.085138 -0.0930542 -0.0314393 -0.0253157 0.0383368 0.102756 -0.0426892 -0.000307423 -0.0185166 0.132801 0.0158949 0.0269063 -0.0560779 -0.0221314 -0.114438 0.0143252 0.0198794 -0.0510748
עם -0.0454439 0.0685425 -0.0732861 0.0569305 -0.0145809 -0.0508414 0.102358 -0.0836612 0.0518098 0.0217542 -0.00131401 0.0676106 0.0317397 0.0744806 0.0885032 -0.0458523 0.0168053 -0.0552915 -0.0123062 0.0952513 -0.025468 0.0438102 0.0227261 -0.011233 -0.0157973 -0.0639306 0.0335212 -0.0337688 -0.065265 0.0109068 -0.00262563 0.0223045 -0.0663515 -0.0297352 0.0338112 -0.0275237 -0.0857799 -0.0102248 0.0519255 -0.0239786 0.0873774 0.027844 0.0710613 -0.0170545 -0.0162877 -0.0340427 0.0561383 -0.0288173 -0.0175612 -0.00542056 0.0368635 0.00759894 -0.0302926 -0.0022493 -0.0510142 -0.00158097 -0.0207188 0.00866769 -0.0569037 0.0122419 -0.00103802 -0.103543 -0.0212029 -0.107093 -0.0999149 -0.0469099 -0.0454205 0.0830058 -0.0780822 0.098526 0.017663 0.0208328 0.0115183 0.0401146 -0.00409569 -0.0438009 0.0809989 0.0626695 0.111611 -0.0142698 0.0419135 -0.121365 -0.0299108 -0.00575266 -0.0580467 0.0174197 0.0317626 0.0217038 0.0469338 -0.00224404 -0.0083716 -0.0134028 -0.0204908 0.0254351 0.0571543 0.0597415 -0.0333179 -0.0328872 -0.00664228 -0.0747685 0.0462129 -0.0195505 0.0471058 0.0781951 -0.0307255 -0.0920098 0.0627991 0.0898075 0.0232435 0.0362249 0.0224447 -0.0772916 0.0237446 -0.0207216 0.0396701 -0.105233 -0.0301072 -0.00343537 0.0728814 0.107403 0.00141691 -0.0284878 -0.12442 0.0500793 0.0160164 -0.0737169 0.0445011 0.0303349 0.017817 0.0635269 -0.00747496 0.0122901 -0.0263592 0.0118201 -0.00428875 -0.038163 0.023702 -0.0320927 0.0277848 0.0478237 -0.0847354 0.123155 0.103636 0.134652 0.0514321 0.086265 -0.0572398 0.0383246 -0.0349431 -0.0477136 -0.0459749 -0.00500483 -0.0401029 0.0229383 -0.0644885 -0.109425 0.0194324 -0.0883257 0.0311583 -0.00441975 0.0129963 0.0332849 0.00275846 0.0886565 -0.00983088 -0.0623745 0.0130384 -0.0135098 0.115557 0.00183874 0.00336506 0.0351018 -0.0688778 0.0155374 -0.15974 0.051726 0.0370542 0.0917616 -0.040943 -0.0341731 0.105181 0.0167906 0.00630308 0.12433 -0.000262792 0.00425879 0.0711203 0.0141112 0.0263622 0.023461 0.0118058 -0.0982595 0.0184194 0.00628617 0.067886 -0.0143518 -0.089271 0.0792744 -0.140287 -0.0166915 0.0365095 -0.019368 0.0203258 -0.0136242 0.0374374 -0.0669974 0.00694138 0.0101907 0.101593 0.065111 0.113703 -0.0628626 -0.0145675 -0.117682 -0.0026906 -0.00279956 0.0418134 -0.158812 -0.11389 0.0143788 -0.0675683 -0.0453387 -0.000448836 0.0919152 -0.023086 -0.0224446 -0.0482533 -0.0324984 0.0244689 0.0306287 0.214081 -0.0216318 -0.0416247 0.0031144 -0.129481 0.05313 0.0818319 -0.0552047 -0.0381173 0.0371684 0.0166026 -0.0589425 0.0189962 0.012283 0.00139175 0.0769313 -0.0308209 -0.0402485 -0.0531105 -0.0137574 0.0151881 -0.0457234 -0.000868691 0.00186804 -0.0474924 0.0242265 -0.0480345 -0.0343698 -0.0318426 0.0364232 0.0715277 0.0995141 0.0353483 -0.0163515 -0.0788817 0.0691988 -0.03829 0.0668654 0.0877383 -0.0956712 -0.0331252 -0.0355956 0.0215519 0.0557441 -0.032205 -0.0742381 0.0320599 0.0803341 0.0796827 0.103818 -0.0303009 0.0419675 0.020348 0.0349893 -0.0163737 0.0612084 0.0894631 0.0885588 -0.0313661 0.0455853 0.0263231 -0.0861453 0.12052 0.072131 0.0516243 0.0397169 0.0109764 -0.0406149 0.0048908 -0.0406407
ה -0.0689015 0.00662327 -0.0693445 0.0096084 0.0703535 0.0470197 -0.0654847 -0.0851723 -0.108708 0.0126496 0.0562643 -0.025372 -0.047599 -0.00850401 0.0654337 0.021116 -0.0688946 -0.0169256 0.0340433 0.0356307 0.119942 -0.026614 -0.113276 -0.16421 0.0907366 -0.0166783 -0.120729 -0.0855893 -0.0642117 -0.0170747 0.0291945 0.0796821 0.00419437 -0.0306568 0.00775399 -0.0123915 0.00481505 -0.0680458 -0.0618295 -0.0397183 0.00254679 -0.0846148 -0.011671 0.0218224 0.0391224 0.0132861 0.00348829 0.0398274 0.0272184 0.0139482 -0.0379861 -0.0128537 -0.0472955 -0.00439088 -0.098016 0.0171981 0.0460973 0.0957619 0.0274227 0.0310584 0.141301 -0.0265081 0.0568257 0.0496833 -0.0380326 0.0202855 0.0649953 -0.058738 -0.191045 0.0691764 0.0433122 -0.055306 0.0263943 -0.0691513 -0.0280184 0.0191914 0.0444949 0.137428 -0.0491617 0.0282621 -0.0379934 -0.0105652 -0.0840419 0.0352636 -0.05626 0.0294688 0.00931128 -0.0153216 0.0165333 0.0642812 -0.0727372 -0.102094 0.0284932 0.0185256 -0.00774821 0.00823196 -0.0474382 0.100781 0.00426408 0.000119516 -0.00519129 0.0124467 0.0682626 -0.000968778 0.0252985 0.013774 -0.0808421 0.0398989 0.0429567 -0.0303788 0.0290647 0.0461313 -0.0665597 0.00760049 0.00207905 0.0365626 0.0747102 -0.00620783 0.0339248 -0.017774 0.0601828 0.0165436 -0.0290151 0.0702104 -0.0987374 -0.0204362 0.09323 0.0187326 0.0292316 0.0915268 -0.0665351 0.0604454 -0.0208385 -0.00491254 -0.0824577 -0.0484682 -0.028903 -0.000926856 0.0231753 0.0834175 0.0452726 -0.00801444 0.0546225 0.0926154 0.0631633 0.0955942 0.0141871 -0.0263039 -0.0747332 -0.0451746 0.103095 -0.0893346 -0.17638 -0.0320238 0.0179761 0.017922 0.00250796 0.0891172 0.0468614 -0.0311583 -0.0336034 0.0729852 -0.0490876 -0.0186451 0.0682983 -0.0349168 0.142189 0.0642087 0.0326637 0.110921 -0.0423169 -0.0075848 0.0261926 -0.0882203 0.0291491 0.0251523 -0.0162756 0.0055143 -0.0267401 -0.0262158 0.1 -0.0176392 -0.0323969 0.0956417 -0.085392 0.0582103 -0.0530993 -0.121359 0.0286139 -0.0133633 -0.00936411 -0.125373 0.0214831 -0.0206372 -0.0485242 -0.064719 0.00878283 0.149723 -0.0307316 0.0136023 0.0765433 -0.032838 -0.0238966 -0.0241105 0.00526896 -0.0537492 0.040914 -0.00990402 0.0529324 0.0897541 0.0515452 -0.0561711 -0.0198157 -0.0712424 0.0218925 -0.0452203 0.1008 -0.0414209 -0.000465984 -0.0187212 -0.0215922 -0.058319 -0.0913801 0.0919646 -0.015689 0.00809255 0.0370302 -0.00903008 0.0124842 -0.0164516 0.133068 -0.00412976 -0.129968 0.0428415 0.0145974 0.0279498 0.0601725 -0.0389263 -0.0642692 -0.00598758 -0.080586 -0.00694695 -0.00101302 0.00614175 0.0593417 -0.0227069 0.047713 -0.0341978 -0.0554385 0.0066788 -0.0179102 -0.0558289 0.0299126 -0.00724754 -0.0608359 -0.028757 0.0523587 -0.0474759 -0.0422804 0.0141273 -0.0528122 0.0420392 0.0107985 -0.0132235 -0.0241777 -0.0125923 0.0250015 -0.0744259 0.061803 -0.0161397 -0.121548 0.0325728 0.012555 0.072608 -0.0479713 -0.0872968 -0.0723799 0.0520798 0.105376 -0.127044 -0.054336 0.0944825 -0.000678812 -0.0223979 0.0652249 -0.0582876 0.00258031 -0.0162679 -0.0489892 0.0509902 -0.0116039 -0.000868333 0.0546652 -0.0207116 0.0531192 0.0821856 0.0266871 0.0329306 0.0034022 -0.0366923
גם -0.00490512 0.066265 -0.0435882 0.0687548 -0.0147326 0.0196272 0.0724481 -0.086522 0.0516042 0.0722934 -0.0114178 0.0170782 0.0198456 -0.0406003 0.112909 -0.0982837 -0.00610227 0.122075 -0.0106413 -0.0367822 0.0590692 0.0371169 -0.0351099 -0.0952426 -0.0039059 0.0222014 0.035271 -0.0463227 -0.0234088 0.00784612 -0.034688 0.0369503 -0.0669895 0.0734358 0.0247791 -0.013804 -0.0384663 0.00167474 -0.0347358 -0.0886311 -0.00591701 0.0420731 -0.00402524 0.049574 -0.00735546 0.0298233 -0.0177294 0.0217017 0.0450133 0.00845962 0.0320328 0.0123699 0.0208835 0.0220418 -0.151811 -0.0652743 0.0478416 0.0151519 -0.106529 0.0635167 -0.0163851 0.00362076 0.0997206 -0.059922 0.0405448 0.00713873 -0.0459055 -0.0254611 0.0468973 0.0765979 -0.0698905 0.0197709 0.0796416 -0.0697583 -0.0943934 0.0246345 0.0838714 0.130995 0.00483089 0.0171314 0.0590146 0.040797 -0.0501868 0.0744675 -0.0345556 -0.0579846 -0.0587097 0.0326968 0.0325541 -0.0174113 0.0235097 0.00243301 0.161611 -0.0436624 0.0160987 0.0330394 -0.023917 0.0411063 0.0316911 -0.0120162 -0.0504127 -0.0155455 0.0646996 -0.0488726 -0.0874254 -0.0700027 -0.0176064 0.0508284 0.00543608 -0.0349777 -0.0496113 -0.00562964 -0.0115378 -0.0560071 -0.0316576 0.0383424 -0.000713723 0.0515184 0.0264197 -0.00153284 0.132188 0.0678309 -0.0108655 0.0855806 0.00881713 0.034495 0.177534 -0.0368288 -0.0281707 0.144246 -0.0257112 0.133082 -0.02235 -0.00167848 -0.0415885 0.0147848 -0.15474 0.0404587 -0.0697407 0.0363939 0.00520173 0.0757747 0.0179809 -0.00891841 0.0459261 0.16483 0.0236444 -0.0272333 0.0125524 0.00303044 -0.0576774 -0.0805216 -0.0195227 -0.00773288 -0.0381409 -0.0645168 0.0249256 -0.0592891 0.0801032 0.0153441 -0.0630862 0.0211379 -0.0446322 0.0381759 0.12436 0.0159315 -0.0572485 -0.0800363 0.00995919 0.0400368 -0.0631397 -0.0468837 -0.143434 -0.0293046 -0.0717196 -0.0222102 0.0262878 0.000236627 0.0313941 -0.0110183 -0.0227184 -0.0259567 0.0280755 0.0690205 -0.0176742 0.105195 -0.0193292 -0.00804644 0.0846063 0.00515739 -0.0818705 -0.088425 0.0200113 0.0658512 0.0310403 0.0182422 -0.0278714 0.0248872 -0.118768 -0.107581 -0.00342538 0.0315475 0.0173973 0.0497449 0.0400838 -0.00171861 -0.0552387 0.0109904 0.0387812 0.0335991 0.167998 -0.024531 0.0244452 -0.0245173 0.0347965 0.0496465 0.013381 0.00198036 -0.0457343 -0.0304803 -0.0329564 -0.118018 -0.0896824 0.0015975 -0.0415292 -0.0237068 -0.10156 -0.0982614 0.00976104 0.0607231 0.136657 0.0457694 0.0127727 -0.0352011 -0.0230144 0.00690687 0.096682 0.0517968 -0.0273059 0.00495493 -0.0116075 -0.0251573 0.0487798 0.0436037 -0.0108247 0.0516917 0.126396 0.0298977 -0.0576584 0.0370716 0.0211704 -0.0235761 -0.0711261 -0.00968945 -0.0522 0.00156234 -0.0250282 -0.0784243 0.0339501 -0.0869402 0.00638968 0.0281023 -0.00127704 -0.0522524 -0.019918 -0.0968761 -0.0891117 0.139964 -0.0312456 -0.067717 -0.123112 -0.0198008 0.0471771 -0.0640603 -0.0257183 -0.0571889 0.0769407 0.0246968 -0.0200574 -0.00181196 0.07593 -0.00317774 -0.0434673 0.0149996 -0.0130024 -0.043004 -0.0234828 0.0441316 -0.0513036 0.0797002 -0.0571439 -0.00662956 0.0650111 0.0435657 -0.0647825 -0.0134678 -0.0162015 0.0718181 0.0210006 0.0669229
זה -0.0300196 0.0574919 -0.111496 0.0325634 -0.00138538 0.0576272 0.0477213 -0.047903 0.00480117 0.024601 -0.0101351 -0.0125423 0.0356385 0.0146777 -0.00802011 -0.0939211 -0.0451974 0.00837886 -0.00768733 0.124757 0.0209476 -0.0074636 0.0073777 -0.0844293 -0.0923555 -0.0274459 0.0163546 -0.00411852 -0.0251166 -0.0146631 -0.0361955 0.0372209 -0.0879671 0.0493978 0.0224282 -0.0356029 0.0155802 -0.0107549 -0.049556 -0.0235405 0.0128076 -0.0683368 -0.132161 0.00811993 0.0101556 0.103988 0.0189583 -0.0234913 -0.0383836 -0.0095406 0.0431124 -0.0396205 -0.0239075 -0.0440749 -0.059642 0.0355974 -0.0261292 0.0433569 -0.0827768 0.0147894 -0.0041717 0.00667716 0.159203 -0.0179402 0.0383054 -0.0968506 0.0162317 -0.0514012 0.0517291 -0.00898856 -0.0654356 0.00642133 0.0501295 -0.137751 -0.0397904 0.0720341 0.0628055 0.0874108 -0.0426659 0.00456751 0.0518032 -0.00939187 -0.0531863 0.0506864 0.0150005 0.0613463 -0.0432096 0.0454378 -0.000926015 -0.0218707 0.0339983 0.0220927 0.175896 -0.0153541 0.0383837 0.081998 0.0415056 0.0307538 -0.0543334 0.047029 -0.00991434 0.0317505 0.0380409 0.00453514 -0.0887726 -0.0549789 -0.0708998 -0.0116941 0.0225271 0.0561303 -0.0408325 -0.00709075 -0.0993802 0.000276167 0.0772241 -0.0264313 0.0426756 0.0819098 -0.0118981 0.0803217 0.0816368 -0.00089823 -0.0313094 0.203768 0.0160543 -0.0109257 0.014974 -0.00596772 -0.0192386 0.0962761 -0.00344123 0.0348901 0.0268478 -0.0543673 -0.0185428 0.0481586 -0.0233444 0.0378942 0.0859692 0.0482583 0.00510595 0.0751659 0.0656971 0.0600966 -0.0250166 0.0805926 -0.0105766 0.0317586 -0.0436909 0.0177174 0.032017 -0.0712649 0.0573935 0.0189911 -0.0323076 -0.0484172 0.118374 -0.0538276 -0.0294809 -0.0142584 -0.0586933 0.0208774 -0.110282 0.00741356 0.00960793 0.0278756 0.0615875 -0.13175 0.0201642 -0.00540525 -0.0371351 -0.0303526 -0.0955283 -0.106183 -0.0583158 0.00657422 0.0142571 0.0295287 -0.0227115 -0.0644452 -0.0217017 -0.0920699 0.0287528 0.0759045 -0.0625134 -0.0224602 -0.0372161 -0.0684176 -0.0179663 -0.0893642 0.00215118 -0.156238 0.0159619 0.138538 0.00238204 -0.0354845 0.00394005 -0.0180316 -0.107637 -0.0550939 0.0745273 0.0409634 0.0219638 0.0648761 -0.0191198 0.0108305 -0.048726 -0.0379037 0.0708258 0.031225 0.0943639 -0.0391191 -0.0264769 -0.0613377 0.0827931 -0.0481498 -0.0164356 -0.0991247 -0.0361298 0.0360503 -0.0643566 -0.104985 -0.057773 0.0720094 0.0112791 0.0280635 -0.07895 0.00786003 -0.0557907 -0.0173275 0.0898313 0.0348602 0.0155073 -0.0368618 0.0518641 0.0754949 0.0463976 -0.0646588 -0.0261844 0.0577881 -0.0210307 -0.00429315 0.0329457 0.0669455 -0.0754765 0.0263405 0.12143 0.0794442 -0.0241187 -0.0155525 0.0362418 0.0112714 -0.0683751 -0.00972475 0.0038532 -0.031255 -0.058529 -0.0939468 -0.0221986 -0.0286093 0.146196 -0.0577015 -0.00109204 -0.0674491 0.0308775 -0.0502168 -0.0411284 0.0951374 -0.042069 -0.0288676 -0.138169 0.0137828 0.0708257 0.00210593 -0.0206977 -0.00866321 0.0293733 0.0456384 -0.0600411 -0.046825 0.023911 -0.0352428 -0.0931592 -0.0164819 0.0447147 -0.122354 0.0808789 0.0478584 -0.0524351 0.109215 -0.0606188 0.0877583 0.060832 -0.0375885 0.0161908 -0.041772 -0.0283072 0.102181 0.0629649 -0.0498479
היא 0.0373413 0.00931043 -0.0208149 0.00737918 0.0370269 -0.0266322 0.0471073 -0.0730416 -0.0280781 0.0259762 0.112476 -0.0492655 0.0211777 0.0015689 -0.022377 0.00695907 -0.0202983 -0.06052 0.0228383 0.0511497 -0.0557239 0.0333157 -0.0439712 -0.187795 -0.0371943 0.0333784 0.0833197 0.0306805 -0.00666809 0.0485782 0.00502641 0.12446 -0.0478324 0.0389422 0.0610817 -0.081903 -0.109132 0.00920525 0.0239603 -0.0117395 -0.0178343 0.0171241 -0.0658301 0.0507488 -0.0259007 0.0687375 0.0738964 0.0861264 -0.00443518 0.0737223 0.0812313 -0.0930774 0.0961329 0.0188459 -0.025681 0.043934 -0.0518879 -0.00461968 0.0958175 0.150361 0.0210555 -0.0928759 0.0423862 -0.108696 0.0439815 -0.000988435 -0.0742445 -0.0013342 0.00640763 -0.025297 -0.00320325 -0.0298375 0.000519011 -0.00750111 -0.0885731 -0.0781122 0.00263236 0.0770361 0.0510689 -0.0624519 0.0613997 0.0545418 0.0406459 -0.0750569 0.00756188 0.0851411 0.00975785 0.00032398 -0.069181 -0.0195527 0.0460934 0.0293226 0.0440754 -0.0455789 0.0480617 -0.0561479 0.0350947 0.0548077 0.0620817 0.0266168 -0.076929 -0.0389828 0.118428 -0.0279348 -0.0633127 -0.0234809 -0.0716475 -0.0415854 -0.00504843 -0.00257193 -0.012092 -0.0280653 0.0361454 -0.0321957 -0.0386674 -0.0861558 0.0310409 0.062996 0.0701007 0.102368 0.0822943 0.0946839 0.0233006 0.0604071 0.0816173 0.0352516 0.0637087 -0.0434541 0.0850412 0.0095557 -0.0300114 -0.00227487 0.0288695 -0.0130494 0.049556 0.0166817 -0.0591154 0.0185187 0.0298115 0.0492542 -0.00840579 0.00492398 0.0286348 -0.0430871 0.0196935 0.0693921 0.00288446 -0.0924084 0.0952917 0.0507298 -0.0213411 -0.0534696 -0.0621842 -0.0354104 -0.108788 -0.0216302 0.0547501 -0.00133407 0.0907045 -0.0211068 -0.054695 0.143571 -0.124549 -0.0440818 0.086412 -0.0819195 0.000662898 -0.0887646 0.0282174 0.0753493 -0.0273433 -0.0175425 -0.100176 0.0567777 -0.011357 0.0103515 0.0383892 0.00296975 -0.0630332 -0.0454716 -0.0116856 0.0442798 -0.0527792 0.117361 -0.000565031 0.0358827 0.123117 -0.00753291 0.0246327 -0.063975 -0.0239385 -0.0608953 0.0515942 0.00706288 -0.0649998 0.0155239 0.0889265 0.0714492 -0.0299528 0.0496705 0.0701999 -0.00901497 0.0302375 0.0072716 -0.0958569 -0.0323471 -0.0530654 -0.0806477 0.0444536 0.0336496 0.112343 0.0249423 -0.096583 0.0532466 -0.0251235 -0.0976906 -0.0478571 -0.0695565 -0.0421501 0.0336432 -0.062788 -0.0884712 -0.0495589 0.118493 -0.0583846 -0.0149548 -0.0154025 0.0223498 0.0483596 -0.0073098 0.0381076 0.00901679 -0.133765 -0.0670297 -0.147242 0.0165661 -0.10542 0.0361481 -0.0144025 0.000638103 0.00725515 0.0198378 0.0962426 -0.0198679 0.0667539 0.116888 0.053865 -0.00365659 -0.0157743 0.00352156 -0.0317393 0.0177425 0.0209078 0.0105712 -6.84595e-05 -0.00698407 0.0668487 0.0197944 0.131332 -0.00706826 -0.0250496 0.0129044 0.0211811 -0.0686571 -0.101344 0.00489895 -0.0550184 0.0393641 0.074231 -0.0329433 -0.0540185 -0.011809 -0.0173441 0.0489871 -0.0213405 -0.135936 0.0442016 -0.00914711 -0.00321221 0.00705902 0.0232484 0.0203676 -0.0342337 0.0221451 0.0495427 -0.108134 0.0722487 0.0591371 -0.00409044 0.112368 0.00166016 -0.0248415 -0.0364707 0.0283326 -0.0356989 -0.0368978 -0.0678148 0.0135891 0.0208649 0.0497226
היה -0.0534298 -0.060359 -0.00124165 0.0173085 -0.0444049 0.0223316 0.00257111 0.0358556 -0.0722924 0.157683 0.105589 -0.0517292 -0.00207661 0.0778751 0.0275427 0.00973271 -0.0939788 -0.0462361 -0.0906768 0.0388925 0.0385152 0.00076773 -0.0317567 -0.040601 -0.0726038 -0.0403181 -0.0138206 -0.0261392 0.00566673 0.00856103 -0.0357076 0.0520746 -0.0597517 0.101374 0.00662122 -0.00630505 -0.00360783 -0.0506692 0.0286979 0.0249078 0.0641535 -0.0208127 -0.0997598 0.00315786 -0.0611095 0.00153323 0.0416607 0.0869989 -0.0155033 -0.00135636 0.0577202 0.0290438 0.0209782 -0.0334257 -0.0721609 0.0334267 0.130566 0.0663449 -0.0771568 0.0729459 0.0203817 -0.0154413 0.00560944 0.0447688 0.0238712 -0.0223533 -0.062006 -0.0151352 -0.137084 -0.0848693 0.000153458 -0.0315872 0.103743 -0.012511 0.0632388 0.03087 0.00399843 0.0316641 -0.0539948 0.0907511 0.0679813 0.0806824 -0.020845 -0.0252711 0.0125579 -0.0761031 -0.0917435 -0.00281777 -0.0518836 -0.0744799 0.0785669 -0.0413414 0.0756261 -0.0683111 -0.054128 0.0251126 -0.0235703 -0.00251737 -0.065075 0.00945411 0.0170451 0.055827 0.0620072 0.00451947 0.0265273 -0.0563612 -0.0310335 -0.01002 -0.0792529 0.00703751 0.0509819 0.0671718 -0.105977 -0.0794021 0.0450516 0.0760191 0.013467 0.0533238 -0.0455525 0.0746636 0.043665 0.00625418 -0.0200714 0.131139 0.00272285 0.0430612 0.0408924 0.0781036 -0.0656852 0.0576843 -0.0232277 0.00285879 0.0252511 -0.0325731 0.0371535 -0.0257815 0.011925 0.0884968 -0.095067 -0.0194432 -0.0694913 -0.0167678 0.0741746 0.0582954 0.0784221 0.10549 -0.0882077 -0.0110828 0.0130964 -0.0353173 -0.0144732 -0.0246456 -0.00614654 0.095882 -0.058751 -0.0604759 -0.0183876 -0.0693514 0.0710681 0.0752537 0.00417162 0.0140595 -0.0878412 0.045566 -0.00270412 -0.0177835 0.0908524 0.00233752 0.0791949 -0.0678745 -0.0879152 -0.0650714 -0.0275427 0.00499189 -0.0028408 0.00929869 0.00207934 -0.0397651 0.00782896 -0.0116671 0.0132719 -0.0515333 0.0182651 0.0655556 -0.0648421 0.0932623 -0.0878214 -0.0332845 0.0921667 -0.0494041 0.0345728 -0.175933 0.00597511 0.022208 -0.0361845 -0.0117375 -0.0365968 -0.0395276 -0.0756452 -0.0571353 -0.00847172 -0.0996062 -0.0564612 0.0803163 -0.013037 -0.0237934 -0.0245981 0.018148 0.0852191 0.00306112 0.0775343 -0.0953318 0.0177326 -0.0499881 -0.0195716 -0.0389028 -0.0479701 -0.0643343 -0.092911 0.0368531 0.0807308 -0.0218018 -0.128346 0.165594 0.0567043 0.0635338 0.0375086 0.0102765 -0.0312715 -0.0497611 0.00291291 0.0981056 0.0551883 -0.0130022 0.00437228 -0.00474475 -0.0357322 0.0905151 -0.0883678 -0.0161703 0.0432309 0.0802873 0.051588 0.0088518 -0.0337729 0.0264268 0.0976985 -0.059942 -0.00282692 -0.106773 0.0056402 -0.0888662 -0.0349317 0.023613 -0.0360655 0.0269357 -0.0390727 0.0335534 -0.0507525 -0.076673 -0.00395995 0.0773557 0.121949 -0.0748393 -0.0762372 -0.00387086 0.0302538 0.0933972 0.0511907 -0.111737 -0.0840576 0.00875412 -0.0488411 0.0509373 0.00695618 -0.0383451 0.0704458 0.0500794 0.0698965 -0.0684655 -0.00363747 -0.0825017 -0.0486675 0.103418 -0.0437279 0.065196 0.0264555 0.0869691 0.0163162 -0.000915921 -0.00431587 -0.0331901 -0.000902099 0.0145206 -0.063854 -0.0213556 -0.0387192 0.0558116 -0.0961801 0.0475778
או 0.00200803 0.0790924 -0.0656606 -0.0120608 -0.0843689 -0.0181423 -0.000674391 -0.11503 0.0441025 -0.00830634 0.0612169 -0.0169569 0.0664335 0.0120442 0.000171015 -0.0117172 -0.0329329 0.0742978 0.0182093 0.0440431 -0.0687893 0.00947947 -0.0439892 0.072194 0.0183863 0.0503443 0.0617892 0.0116606 -0.0710649 -0.0101023 -0.000863864 0.0153974 -0.138403 0.102178 -0.0153794 -0.023801 -0.0456529 0.0243246 0.0812669 0.00392937 -0.031381 -0.0230375 -0.103557 -0.0373615 0.00972877 0.0616801 -0.00630317 0.00264353 -0.0176846 -0.07547 0.0867504 -0.0461959 -0.0548037 -0.0843785 -0.123857 0.00184973 0.0178407 -0.00767841 -0.0064448 0.0163001 -0.0236133 -0.0523659 0.0191261 -0.0226604 -0.000630153 0.00252052 0.00344239 -0.0762254 0.0431334 -0.0315901 -0.131093 0.00925008 -0.00920077 -0.0579678 -0.0735648 0.0536481 0.0979818 0.0780472 -0.0486723 0.0815982 0.0244656 -0.028122 -0.034585 -0.0348925 0.0304331 0.0720019 0.0506978 0.0382278 -0.00775809 0.0199633 -0.0220183 -0.0792554 0.0712951 -0.0903192 0.0370149 0.0541629 -0.0232794 -0.00314683 -0.0574803 0.108493 -0.0360011 -0.0648089 0.0231244 -0.119073 0.063773 0.0135613 -0.0738441 -0.00510702 0.0483893 0.0195627 -0.0431027 -0.0271796 -0.119692 -0.0712451 0.0396368 0.00908538 -0.0594799 -0.0493786 -0.0176498 0.115497 0.139985 0.024533 -0.0485878 0.214638 -0.0616953 -0.0465205 0.0872478 0.0298482 0.0384205 0.082335 0.0401301 0.012329 -0.000257813 0.0969425 0.0141474 0.000850494 -0.0453908 -0.0240392 0.0825061 0.00845121 -0.0600676 0.0311433 0.000110161 -0.00806149 -0.0051989 0.0730759 -0.119501 -0.0103786 -0.0395588 0.0214444 -0.0646514 -0.0400063 -0.0333191 -0.0331546 -0.0547097 -0.017761 -0.0510922 -0.0486545 0.146795 -0.062343 -0.0494251 0.0211955 -0.0995895 -0.0726138 0.0772915 -0.0651997 -0.0546159 -0.0459526 0.0838182 0.0358122 -0.0318506 -0.083513 -0.0441827 0.0147517 -0.0454736 0.0923285 -0.023949 0.0200986 0.00205209 -0.0693398 0.0132292 0.00937872 0.0165294 0.0560168 0.00754814 0.119103 0.00211576 0.0375598 0.078631 -0.00187446 -0.0151888 -0.0920436 -0.00896748 0.0128083 -0.106767 -0.0509834 0.0252509 0.0172171 -0.0829032 0.0159118 0.0427741 -0.126318 -0.0682067 -0.0500255 -0.0431153 -0.00857594 -0.13737 0.0258162 0.00923028 0.041556 0.0691878 0.0297104 0.0635068 0.0632346 0.0326047 -0.00556243 0.0150435 -0.0351341 -0.0552878 -0.013678 -0.108033 -0.102594 -0.0942087 0.0676248 -0.019804 0.0299232 -0.0840221 -0.0167909 0.0135972 0.00505278 0.0380646 -0.02104 -0.117794 -0.026662 -0.0522196 0.06947 -0.018546 -0.0457945 -0.0336428 0.0329489 0.0429572 0.0140774 -0.00208353 -0.0512417 -0.0118092 0.104214 0.0212289 -0.0343156 -0.00642103 0.0992589 -0.0129189 -0.0384111 -0.112863 0.0342158 -0.0252677 -0.0214062 -0.029676 -0.10506 0.0131557 -0.0586183 -0.0414963 -0.029182 -0.0641151 -0.002272 -0.0588434 -0.0708016 -0.0999456 0.0638592 0.0160839 0.00582116 -0.105749 0.0451747 0.0499449 -0.0330914 -0.0533256 0.052382 -0.0246861 0.0262801 0.0242965 -0.00252326 0.108421 0.00885119 -0.0631953 0.0597921 0.10468 -0.0406246 0.0685733 0.116604 -0.0560603 -0.000119745 -0.0284702 -0.0183965 -0.00555432 0.0727602 0.0199001 -0.027302 0.0120492 0.0537327 0.0741185 -0.000802105
בשנת -0.00453427 -0.0442753 -0.0425458 0.000541521 -0.0410346 0.0121962 0.00306778 -0.00567117 0.0138667 0.0947639 0.0888531 0.0289627 -0.0381561 0.0825226 -0.0540001 -0.0361997 -0.0356661 -0.036005 -0.00580734 0.0641888 0.0357095 -0.0187109 0.0142404 -0.100257 0.0053716 -0.0279285 -0.0650247 -0.0603186 0.0579101 0.0578308 -0.0497009 0.0196849 0.0407974 0.00855632 0.0504091 -0.0596662 0.018785 -0.0454887 0.0717716 -0.0341434 -0.0058639 -0.0401561 -0.0498036 0.0255621 0.00140351 -0.106154 0.0265594 -0.0161788 0.0191013 -0.0129007 0.0157004 -0.0206041 -0.0679483 0.007948 -0.0385836 -0.119075 0.0240042 0.102666 0.0314005 0.050412 0.0239663 0.0178678 -0.00275768 -0.0235078 0.0410037 -0.00775472 -0.0303554 0.0655312 -0.0537672 0.065579 0.0424336 0.0191964 0.045686 -0.0512712 0.0155652 -0.0301908 -0.00542174 0.0275906 -0.00982799 -0.0499806 0.0521131 0.0506929 -0.0251206 -0.01901 -0.0629822 -0.108336 -0.0584778 0.0540051 -0.0151922 -0.0171337 -0.0634641 -0.062362 0.0693176 -0.029534 0.0349533 0.0522606 -0.00246675 0.0153472 -0.0496957 0.0278372 -0.032385 0.0395029 0.104457 -0.0450179 -0.0772592 0.00471604 -0.0336272 0.0906958 0.116771 0.00952173 0.0417169 -0.00522381 -0.0266216 0.0349376 0.0215467 -0.0289865 0.0420362 0.079539 0.0462623 0.0604679 0.106042 0.0903621 -0.0829616 0.0405174 -0.0609603 0.0358905 -0.000608077 0.0581477 0.0819088 0.00492403 -0.0703363 0.0380225 0.00774843 -0.0880323 -0.0152336 0.091227 0.00236789 -0.0214774 -0.0494798 0.0587079 -0.00947482 0.0264026 0.0774037 0.0541149 0.0192209 0.233634 0.0499533 -0.0529223 0.00576275 0.0221158 0.0251393 0.0192665 0.00468591 0.0647179 -0.109375 0.0183097 -0.0379491 -0.00120458 0.021145 -0.0657226 -0.0469421 0.0639615 -0.014599 -0.0204561 0.167881 -0.0397917 -0.0230907 0.0419997 0.183764 -0.0200146 -0.00802615 0.0368813 0.00631378 -0.00774924 0.0316269 0.00937999 0.0314059 0.0706545 -0.0301565 -0.0219116 -0.018447 0.0327538 -0.0892824 0.00358559 0.0097147 0.0291774 0.0150286 -0.035641 0.0245983 0.0661615 -0.0442886 -0.151036 0.0133738 0.0247154 0.00432207 0.0161784 -0.018492 0.0586823 -0.0377898 -0.124812 0.0919769 0.0545651 0.00314467 0.0176266 0.00199902 0.0145846 0.00776455 0.0255528 0.183691 0.0757056 0.0872809 -0.170756 -0.119265 0.0872912 -0.0544781 -0.0169691 0.00290361 -0.0810611 -0.0589814 0.0658123 0.00414271 -0.100983 -0.0425555 -0.0435079 0.0279267 -0.035553 -0.0158531 -0.0711722 0.0103411 0.0206543 0.149479 0.00962408 -0.0865828 0.0580011 0.0676341 0.0121578 0.080452 -0.00494591 -0.113573 -0.0421626 -0.129633 -0.0601985 -0.0364389 -0.0105387 -0.0897983 -0.0765768 -0.0489426 -0.0792363 -0.0437357 0.0751352 0.0798069 0.027652 0.0129571 0.00483846 -0.0478227 0.0211451 -0.0331834 0.0537121 -0.0021141 -0.0116805 0.055438 0.00705898 0.0377727 -0.0219567 -0.00150194 -0.00245075 -0.0193065 -0.0438321 -0.00291851 -0.07296 -0.0344438 -0.0174677 0.0048693 0.0374116 -0.122965 -0.110651 0.104013 0.0993478 0.117882 0.0447323 -0.0656928 0.0285557 -0.00362083 0.0382531 0.101602 0.0586316 -0.0689295 0.0431856 0.0374219 0.00129463 0.0100884 0.00565954 0.0628763 0.0483309 -0.03075 0.0101701 -0.101297 -0.0256733 0.044276 0.00378162
שיחה -0.119537 0.0136993 0.000366533 0.0279547 -0.105633 0.0099438 0.0871522 -0.105439 -0.0456926 -0.0133346 0.00555965 -0.0264118 0.0355343 -0.00870556 0.0758897 -0.0949906 0.0152313 -0.0152168 -0.078091 0.0277783 -0.00186915 0.0526394 -0.00012983 -0.0252757 -0.0692261 -0.0351219 0.0089974 0.0421016 -0.0953886 -0.0354963 -0.103541 0.022709 -0.0482312 0.0404304 -0.015591 0.0223934 -0.0836995 0.105463 -0.106547 -0.0829688 -0.0199145 0.0294674 -0.11445 -0.0375678 0.0246146 0.0107952 0.0195006 -0.0390155 -0.0239152 -0.0199874 0.0378437 -0.107336 -0.0888378 -0.11537 -0.0181085 -0.00610543 0.0486447 -0.0134162 -0.0460112 0.0918807 0.0803532 0.00627954 -0.0125425 0.0489019 0.00166946 0.00957495 0.0436648 0.0306481 -0.073997 0.0614103 0.015597 0.0846226 -0.0456202 0.0244134 -0.0422546 -0.0183396 0.0320712 0.061382 0.00723971 0.0360626 -0.0594451 0.043636 0.108689 0.0774725 0.0962453 -0.0298219 0.0350974 -0.00360877 0.0056189 0.00702233 -0.0446167 -0.0777646 -0.0748939 -0.00524125 0.0163519 -0.0468876 0.0521196 0.0196193 -0.0525248 0.0424049 0.0253788 -0.0418604 -0.00155212 0.0543972 0.0782749 0.0304313 0.00846175 0.0569368 -0.00133739 -0.0696303 -0.0687632 -0.0422121 0.0135326 -0.00188865 -0.0169993 -0.0201022 0.0561198 -0.00577094 -0.0607518 -0.0465926 0.105671 -0.106433 -0.0317664 0.112466 -0.0444993 -0.00709126 -0.0117035 0.0606334 0.077774 0.100835 0.0677199 -0.00297687 0.0241155 0.0842047 0.0598299 -0.0674738 -0.0189721 -0.0630088 0.0857788 0.0820711 -0.00365754 -0.00601363 0.0635651 -0.00434997 -0.0285374 -0.00279314 -0.00889223 -0.047886 -0.104375 0.0158994 0.0874261 -0.0485777 0.00768389 0.0778865 0.0704821 -0.00684163 -0.0798755 0.0909485 0.0619276 0.114782 -0.0843404 0.0782948 -0.127789 0.0124508 -0.00155662 -0.0419376 -0.0851656 -0.0322 0.0100397 0.0132025 0.0114793 -0.0300661 -0.166879 -0.0481402 0.0400834 0.0363608 0.0186369 -0.0475972 0.0292956 -0.0757543 -0.00851395 0.00388336 0.040321 -0.052661 -0.0191436 0.0820052 -0.0065615 -0.121388 -0.032846 -0.0252985 -0.106266 -0.101153 -0.0267683 0.0366061 -0.00198475 -0.0722972 -0.0201046 0.034102 -0.115106 -0.0563044 0.0556522 -0.019982 0.0178497 -0.0299331 -0.051647 0.0143224 -0.0820418 0.0926732 0.0260386 0.017587 0.145079 0.0864083 0.0722456 0.0113321 0.00920795 0.0141219 -0.0406032 -0.129797 -0.0241007 0.0575343 -0.00777528 -0.061981 -0.0434205 0.000198975 0.00215282 0.0962167 0.0403307 -0.0885145 0.0650725 0.0585613 -0.0283911 0.0381592 -0.0600452 -0.00783803 -0.0527326 0.00224887 -0.00486966 -0.0572342 0.065738 -0.0711032 -0.0247609 0.0209239 0.126685 -0.0191725 0.0358331 -0.0441836 0.0582748 0.0830869 0.0115407 0.0027532 0.063641 -0.142069 -0.105756 -0.000573673 -0.0540872 -0.0631575 0.0734013 0.0444492 0.0468285 0.0580483 0.0405333 0.0584763 -0.00281725 0.0302375 -0.0418856 -0.121281 -0.0477583 -0.0243897 -0.00995926 -0.0679057 -0.0346217 -0.0812558 0.0691296 0.0208919 -0.0247484 0.0255351 0.0309974 0.0424423 0.0233494 -0.0538872 -0.00170255 0.0891427 -0.055221 0.0219458 0.0168194 -0.0146886 0.0325122 0.045722 0.0395023 -0.000453745 -0.000196461 0.0824993 -0.0554186 -0.0358701 0.093178 -0.026579 -0.0402978 0.102968 0.0709383 -0.0163912
לאחר 0.0573413 -0.0735469 -0.0795859 0.0160918 -0.0460313 -0.00778362 0.00745611 -0.00933863 -0.0811123 0.0959817 0.00800923 0.0523319 -0.0149574 -0.00719521 -0.00440729 0.00482603 -0.0439394 -0.0145526 0.0380923 0.11255 0.0744569 0.00724922 -0.0753425 -0.114278 -0.0960615 -0.0467707 -0.024827 -0.0475219 0.0423009 0.0430829 -0.0318284 0.0672982 -0.0147955 0.0220613 0.0569663 -0.071735 -0.00550527 -0.0839321 0.0704201 -0.0185818 -0.0533691 0.0688318 -0.0387842 -0.0416666 0.0151434 -0.0697199 0.0268174 0.0711242 -0.0162515 0.0382778 -0.0558725 -0.079789 -0.0284572 0.0414202 -0.0195872 -0.0023773 -0.0215536 0.101547 -0.00267115 0.000656738 -0.0834636 -0.113497 0.0263941 0.0177474 0.00179793 0.0444242 -0.0547741 0.081614 -0.0585507 0.00728537 0.0322834 -0.0037701 -0.0109657 -0.0164832 0.0810876 0.0395171 0.131395 0.0742582 0.0298924 -0.0707887 0.0486951 -0.0494795 0.0327681 0.0576707 -0.0170406 -0.0908338 -0.0458613 -0.0520942 -0.018876 -0.0627381 -0.141167 -0.0512836 0.0501567 -0.0357853 -0.00493989 0.0557155 -0.06896 0.0495557 -0.126054 -0.0295334 0.00394218 0.0163404 0.135269 -0.0113791 0.0222583 0.0120851 -0.029998 0.0544337 0.0464327 0.059106 0.089162 -0.0281378 -0.00685708 0.0642143 0.0521354 -0.0453596 0.0419653 -0.00968724 -0.0105193 0.118433 0.0795027 0.0902692 -0.0861934 0.121465 -0.00713949 -0.0779141 0.0140968 -0.0055463 0.121417 0.0539829 -0.085458 -0.0467565 -0.0882571 -0.0789181 -0.0549877 0.0371222 0.039016 -0.000919645 -0.0254234 -0.0445391 0.00426342 0.0249 0.0651761 -0.0159352 0.0376169 0.0934315 -0.0983572 -0.047478 0.0237221 0.0261984 -0.04627 -0.0659349 -0.00873879 0.0797854 -0.0355935 -0.0126833 0.0361115 0.0352947 0.109601 -0.0231682 -0.0402512 0.0243455 -0.146167 0.118315 0.0840542 -0.0747498 0.0417481 -0.00320059 0.105487 -0.0935938 -0.0521018 0.00131506 -0.0101461 0.00172702 0.0122689 -0.0141866 -0.0909791 0.0904064 0.0291968 -0.0944448 -0.0300503 -0.0456339 -0.105765 -0.0540098 -0.00541846 0.0735991 0.0567056 -0.053509 0.0600083 0.0577202 -0.07483 -0.0213262 0.0341972 0.0566065 -0.0242385 -0.0116781 -0.0900998 -0.0853908 -0.0022921 -0.0462329 -0.0860859 0.0374724 -0.0426124 -0.0236168 -0.0262771 0.0204421 0.0139281 0.0251274 0.0903069 0.0132725 0.0740621 -0.0958116 -0.00878575 -0.00110593 -0.0514858 0.00256725 0.0422511 -0.0647169 -0.0771019 0.0743345 -0.0509262 -0.0614012 0.033969 0.0158904 -0.010659 -0.0232628 -0.154822 -0.0639564 0.0571556 0.0278801 0.142714 -0.0104079 -0.124063 0.0370565 -0.0738786 -0.0476296 -0.0112895 -0.0422541 0.00861154 0.0199564 0.0260055 -0.0922077 0.131799 0.0370851 -0.0796459 0.057823 -0.0302178 -0.026355 -0.00570837 -0.0149422 0.0819463 0.0431157 -0.0364297 -0.0683156 0.00403936 0.0202623 -0.0227899 -0.0761567 -0.0436512 0.0800267 0.0800043 0.0352462 -0.0213106 -0.0445392 -0.0553876 -0.00398014 0.0481015 0.00335328 0.0352095 -0.0542111 -0.057464 -0.0778191 -0.000754162 0.00276396 -0.127131 -0.0335564 0.0890135 0.0606247 0.0165204 0.0140863 0.00872699 0.0111029 0.0756552 0.0533586 0.00895101 0.0446811 0.0241631 0.0196197 0.0278606 -0.0516018 -0.0249286 -0.0645755 0.0535787 0.0123103 0.0433728 0.0090936 0.0179687 0.00702272 -0.0151029 0.0272089
• -0.100892 0.010885 0.0461088 0.00377617 -0.0534469 0.0538769 0.0527839 -0.088708 -0.0148972 -0.00831382 0.0470225 0.0231714 0.0462685 0.00234086 0.0550037 -0.051814 0.00385277 0.00583935 -0.0929103 0.0555487 -0.0174888 0.057755 -0.010736 0.000911738 0.0283646 -0.0091694 0.0292431 0.0289678 -0.0834822 -0.0790586 -0.0669272 0.132573 -0.121643 0.0451059 0.0339721 -0.00130368 -0.0370594 0.0856903 -0.0532619 -0.0972851 0.0263164 0.0362698 -0.120456 -0.0157261 -0.0866931 -0.0363436 0.0243605 0.028658 0.000394427 0.0462849 0.0140717 -0.121034 -0.0458758 -0.0975807 -0.00134416 -0.0345018 -0.00565671 -0.00952283 -0.0614565 0.0974391 0.11366 -0.0548731 -0.032268 0.02005 0.0372085 0.0487756 0.0337668 0.0447317 -0.0466715 0.0410068 -0.0154822 0.0488427 0.0401876 -0.049018 -0.0804036 -0.0160783 0.107007 0.030829 0.072023 0.0322267 -0.0706962 0.0407254 0.0340998 0.0477567 0.0994936 -0.017027 -0.0158584 -0.0398405 -0.00477701 0.00334639 -0.0163126 -0.0498544 -0.100913 -0.0425026 0.0693349 0.0349241 0.0600192 -0.00972062 -0.00917997 0.00830604 0.056706 -0.105894 -0.121527 0.0753196 0.0235928 -0.00192244 0.0141518 0.0278966 0.0847285 -0.0859464 -0.0565407 0.0259152 0.0128202 0.0255786 -0.0160391 0.0239212 0.113603 -0.0136466 -0.0934685 -0.0119055 0.0542481 -0.0308508 -0.0409374 0.112415 -0.0167816 0.0218905 0.0721216 -0.0514793 0.146947 0.0550984 0.0355362 -0.0228863 -0.0615404 0.095348 0.00784924 -0.0330956 0.0213471 0.0408804 0.118581 0.0944291 0.0149776 0.0518172 0.0443714 0.0560124 0.00161084 0.0467664 -0.00285052 0.0513152 -0.0668679 -0.0232244 -0.0372492 -0.0280006 -0.0290389 0.033023 0.0856985 0.0143757 -0.033153 0.138981 0.0618495 0.090952 -0.0557259 0.0516061 -0.109285 0.0441235 0.0445713 -0.0464725 -0.0751623 -0.0603853 -0.00523764 -0.0256195 0.00853841 -0.0328862 -0.111281 -0.0114438 0.0838981 0.0698455 0.0311654 -0.058584 -0.0367858 -0.0367214 -0.0111104 -0.0251485 0.0144371 0.0303282 -0.0334433 0.0594413 -0.0125116 -0.0298699 -0.109692 -0.0192242 -0.0469677 -0.137494 -0.00813853 0.0705743 -0.0325926 0.000821483 -0.0272035 0.0919006 -0.082485 -0.0191534 0.00996715 -0.0401716 -0.0207185 -0.0219976 -0.150356 -0.00445394 -0.0619863 0.0446109 0.0757745 -0.0270804 0.104892 0.0579221 0.0295811 0.0562826 -0.0284899 0.0274594 -0.00504491 -0.0748366 -0.00462643 -0.0439232 -0.0403676 -0.0642125 -0.0420746 -0.00534197 0.0591993 0.0857694 0.0141649 -0.0825521 -0.0174177 0.0147205 -0.00119043 0.0698315 0.027938 0.00510888 -0.0104426 0.0196809 0.0733976 -0.0481834 0.0575692 -0.0187093 -0.0200812 0.0415731 0.134106 0.0252914 0.0461156 -0.0665146 0.0889648 0.124328 0.0391503 -0.00867165 0.0496089 -0.113904 -0.053305 0.0175957 -0.0442075 -0.0682408 0.0136688 0.0131676 0.0510843 -0.0371033 0.0762654 0.0324102 -0.0187077 0.021907 -0.0227407 -0.0837092 0.0529138 -0.0367631 0.0439781 -0.144676 0.0193604 -0.0230528 0.0818877 0.0622244 -0.0424147 -0.0203765 0.0571369 0.0619778 0.0741687 0.00094551 -0.0601158 0.0266699 0.00200243 0.0927269 0.0671199 -0.0140706 0.0297292 -0.000978816 0.0703149 -0.0241942 -0.0783788 0.0642161 -0.0337218 -0.121209 0.0700567 -0.0316647 0.0326726 0.0960206 0.0400895 -0.0301369
בין 0.000511397 -0.0197422 0.0870009 0.0983328 0.0327084 -0.00908056 0.0505014 -0.0744032 -0.0138781 0.135292 0.0261864 0.0772919 -0.0186228 -0.0655622 -0.00772373 -0.0197611 -0.0102205 -0.073339 0.0618428 0.0353966 0.0027443 -0.0370683 -0.0123669 0.012288 0.0368172 -0.0766656 -0.00552925 -0.00909531 0.012995 0.00552846 -0.0466496 0.0908025 -0.013373 0.0741523 0.082884 0.0546588 0.0543789 0.0213876 0.0574882 0.0174172 0.0778644 -0.0354085 0.0353135 -0.110143 0.10561 -0.0624549 0.0241077 -0.0858073 -0.0122248 0.0161428 0.0669864 0.0506114 -0.136058 -0.0146052 -0.0234524 0.0644251 0.108979 -0.0378068 0.02831 0.06872 0.0391309 -0.0629064 0.164128 -0.0456937 0.0301064 -0.118672 -0.108239 0.0403008 -0.0376021 -0.0516619 -0.0968518 0.0172459 -0.00505034 0.0815375 0.00209971 0.00958401 0.0258154 0.106167 0.0402344 0.0659683 0.0658437 0.0527962 -0.0703092 -0.0306493 -0.00655816 -0.0436773 -0.0141687 0.0244067 -0.0120193 -0.0771665 -0.0196896 -0.0942688 0.0289223 -0.0725107 0.110129 -0.039541 -0.0239328 -0.00350238 0.0229241 -0.044975 0.0387314 0.0167736 0.105711 -0.0686419 -0.112832 -0.0584126 0.115259 0.0105093 0.0236542 0.0119885 0.0283848 0.00786398 0.0415556 -0.0775906 0.0846844 -0.0957718 0.0249311 0.0311194 -0.07041 0.109073 0.100285 0.0337571 -0.049639 0.0397299 0.00995803 0.0699771 -0.0242539 -0.0016388 -0.061954 0.0339237 -0.0250768 0.030671 -0.0327631 -0.00304582 0.0472845 -0.0103115 0.00347643 -0.0386559 0.0126651 0.0225162 0.0628089 0.110163 0.145948 0.0332293 0.0129346 0.0287609 -0.0618873 -0.0186683 -0.0698128 0.139142 0.0593566 -0.0517872 -0.108561 -0.0665694 -0.0343959 -0.0214739 -0.00375473 0.00772991 0.0539713 0.0901338 -0.0270556 0.0257485 -0.051795 0.061128 0.0700418 -0.0480796 -0.0126209 -0.0299217 0.0563696 -0.0167825 0.0457399 0.00843821 -0.0154746 0.0831111 -0.0401884 -0.0141472 0.100358 0.0614546 -0.0275901 -0.0301886 0.00568079 0.00847433 0.0170267 0.0986783 -0.0290704 0.0440052 0.0132853 0.0582875 -0.0553031 -0.0125614 -0.0241225 -0.031115 0.112374 0.0897837 0.00119318 0.103355 0.00284824 0.000674042 -0.0262758 -0.0614391 0.0545045 -0.0148615 -0.0623864 0.0692166 -0.0725567 -0.0156441 0.0470406 0.0472198 0.0252194 0.0524728 0.0662021 0.0583265 0.106488 0.059239 -0.0068254 -0.0609859 0.0575179 -0.132819 -0.0917516 -0.0417026 -0.0147151 -0.109116 -0.0465962 0.119793 -0.0182429 -0.0173148 -0.0597417 -0.0335055 0.0374738 0.00159236 0.130107 -0.0919953 0.0471038 0.0522503 -0.00918943 0.0363258 0.0825806 0.0139437 0.0149825 0.0117008 -0.0300592 0.0558669 -0.0730302 -0.00653362 -0.020246 0.0687529 0.108402 0.0612222 -0.0496869 -0.0676689 -0.0355469 0.0371946 -0.00621196 -0.0147454 -0.0665439 -0.0294739 -0.0488578 -0.0575876 -0.0082575 0.0510757 -0.0516515 0.0815746 0.0311764 0.0511888 0.0158681 0.0286185 -0.0372862 0.047381 0.0568164 -0.00205286 -0.0815168 -0.00512869 0.0722359 0.00608939 -0.0073434 -0.0195759 0.0592133 0.00999101 0.0590019 -0.0756517 0.0433887 -0.00676944 0.0300518 -0.0154019 0.0148674 0.0537365 0.0199287 0.0687642 -0.0759251 0.114283 0.0964806 0.0311134 -0.0176162 0.020417 0.0319444 0.0413142 -0.0361101 0.0363972 -0.0685227 0.0512345
ידי 0.0496105 -0.0568309 -0.102496 -0.000792667 -0.0826837 -0.00450691 -0.00670713 -0.0247186 0.043703 0.0352174 -0.0263832 -0.0314285 -0.00634087 -0.0522129 0.0368822 -0.00705686 -0.00656383 -0.0676065 0.0261138 0.0101586 0.0304055 -0.0014166 -0.158348 -0.0504808 0.0148621 -0.102364 0.0294997 -0.047558 0.012652 -0.0246094 -0.0361526 0.00941682 0.0114366 -0.0387239 0.0737654 -0.0221985 0.00680457 0.0741973 0.0758135 0.0266412 -0.0325969 0.0715864 0.0338118 0.0824989 0.00974754 -0.0412692 0.0495088 -0.0537565 -0.0299044 0.037259 0.0335606 -0.0769364 -0.0480569 -0.0464429 -0.0530816 -0.0394947 -0.0611255 0.0875282 0.018299 0.065791 0.0175723 -0.0078954 -0.0395834 -0.053193 0.046849 -0.0397334 -0.0423205 -0.0506899 0.0479413 -0.0157601 -0.0345979 0.00425582 0.052577 -0.139614 0.00728643 0.0263295 0.0148513 0.0488276 0.0229079 -0.0213544 0.0140978 0.0341556 -0.0221439 0.0914111 -0.0335933 -0.0651098 0.0455423 -0.0346368 0.020976 -0.0820263 -0.0966864 -0.0606074 -0.0256378 -0.0286328 0.115261 0.00900903 0.0287468 0.0184964 -0.0884394 0.0602872 -3.82139e-05 -0.0154819 0.121248 0.0479315 0.000297307 -0.0497813 0.120751 0.00297873 0.0711513 0.00523058 0.0159111 0.0272122 0.0272509 0.0266929 0.081938 0.00687139 0.00251858 0.133055 0.0167448 0.00102919 -0.0204515 0.106859 -0.0909905 0.122277 -0.0661676 0.0064217 0.00117559 0.0199362 -0.0504848 0.0480885 -0.0516231 -0.0285486 0.0323879 0.0780941 0.0759486 0.0728553 0.0394621 0.0115022 0.0391934 0.0165329 0.113229 0.122712 0.0132922 -0.00547255 -0.0652789 0.0030946 -0.0146827 0.000507538 -0.0337593 0.0501934 -0.0162874 -0.104916 -0.063856 -0.0673888 -0.0457611 -0.101531 -0.100998 -0.0689764 0.0811409 -0.0159473 0.0234451 -0.078682 -0.0803797 0.0261418 0.0637561 -0.0322769 0.0844172 0.0471323 0.139448 -0.00371925 -0.0431949 0.0288532 0.0502803 -0.00965891 -0.0743165 0.0695515 0.0021876 0.0328792 -0.00793651 0.0339526 0.0397889 -0.0852418 -0.0517382 0.026016 0.120458 0.116747 -0.0100399 -0.016888 0.0901316 -0.103789 0.0150417 -0.128311 0.125849 -0.0813037 -0.056622 -0.0789323 -0.0929346 -0.0743864 -0.0483379 0.0168096 0.0667184 0.0993285 -0.0956779 -0.0351199 -0.0480633 -0.069332 -0.00401823 0.0582761 0.0985091 0.0389767 0.112386 0.0630032 -0.0902969 0.0575169 -0.0507235 0.0296839 0.0916769 -0.105892 0.058935 0.056995 0.000233907 -0.0269789 -0.0631476 0.032352 -0.0589734 -0.00689691 -0.0611207 -0.0876817 -0.0630827 0.0407115 0.0872607 0.0457223 -0.0337428 0.0347598 -0.0165866 0.0199722 -0.00602694 -0.0406324 0.000127526 0.0446952 -0.0342925 0.011349 0.0296359 -0.0929719 0.033357 -0.0342974 -0.0311849 -0.0771693 0.108165 0.0483188 -0.00446825 0.020473 0.0280704 -0.0200479 -0.0337568 0.0239673 -0.013933 -0.0359677 -0.0781774 -0.0484922 0.0235617 -0.0283067 0.015916 0.0227256 -0.0416877 -0.0931333 -0.0381845 -0.0407508 -0.0334297 -0.0294972 -0.0370905 -0.0237951 -0.0366052 0.0377617 -0.0853545 0.0403565 0.0919611 0.0428814 0.0867752 0.0372941 -0.00202021 0.116066 -0.0706748 0.0736483 0.0740513 0.0224351 0.0499728 0.100924 0.00282988 -0.0118383 0.0750481 -0.0345791 0.0566494 0.0734728 0.0384661 -0.00705527 -0.0383374 0.0903992 0.00357372 -0.0244442
ג -0.0527845 -0.013668 0.0287993 0.0325015 0.0106352 0.0120519 -0.0901578 -0.0698661 -0.0445056 0.00816751 0.0219576 0.0739898 -0.0738612 0.00167495 -0.021532 -0.0136035 -0.0117349 0.0592138 0.0320309 0.137268 0.00595331 0.0897703 -0.05519 0.00711455 0.0467343 0.038902 -0.0147073 -0.00428362 -0.0449526 0.0106263 -9.25278e-05 0.031397 0.00136537 -0.0288361 0.0397067 -0.0927644 0.0132508 -0.0566688 0.0119959 -0.0929855 0.0100726 -0.0374841 0.0592379 0.0969175 -0.013202 0.00387506 -0.0869919 -0.0548673 -0.00203725 -0.0220157 0.00911632 -0.0111203 0.0268971 -0.0801376 0.0437774 0.00657949 0.0667064 0.0677245 -0.0685389 0.0745382 0.128686 0.0354644 0.0591506 -0.00114223 0.00312068 0.00319335 0.0065989 -0.0664 -0.128952 -0.0230356 -0.03291 -0.0529379 0.0237091 -0.0816273 0.0320859 0.0204336 0.0524837 0.0482817 0.0473519 -0.0142253 0.116327 0.0326419 -0.0235342 -0.00748876 -0.0517982 -0.0650157 -0.0909569 -0.0675343 0.0417552 0.0169149 -0.0157959 -0.0582141 -0.0916753 0.0353132 0.0622602 0.00253099 -0.00190103 -0.0250903 0.0233652 -0.0118927 -0.066315 0.0234038 0.0049287 0.0299202 0.0482619 -0.0183847 0.069813 0.0195556 0.0541332 -0.0186004 -0.0453923 0.0627048 -0.0132183 -0.0610871 0.04066 0.000273416 0.0722653 -0.00474716 -0.00144779 0.0828004 0.0323857 0.018568 0.0282888 0.0778372 0.0406901 -0.01075 -0.0520165 0.0467174 0.0113017 -0.0686206 -0.0110642 0.140493 -0.0154897 0.0713255 -0.0258873 -0.022959 -0.0589894 -0.063126 0.0139067 0.013549 -0.0136377 0.111364 -0.0598792 -0.0467996 -0.0417698 0.069565 0.0461335 -0.0180514 -0.0976387 -0.00735167 -0.00248072 -0.0997537 -0.0376018 -0.00555694 0.0481828 0.0766704 -0.0439535 -0.0819542 0.0263826 0.0242738 -0.0267389 0.131974 -0.0454633 -0.0308516 0.17551 -0.0553825 0.0182084 0.0792286 0.0751844 0.0140537 -0.136788 0.0612701 -0.109564 -0.0273989 -0.000114497 0.0426826 -0.135653 0.0277265 -0.0143702 -0.124204 0.0664802 -0.0162059 0.0249857 0.0835086 -0.045439 0.121679 -0.0240634 -0.03401 0.0564726 -0.0785594 -0.0155839 -0.119277 0.0562036 0.052514 -0.0425885 0.0114754 0.0168152 0.044101 -0.00587922 -0.0274596 0.0643132 0.0286998 -0.0645945 -0.0134464 -0.0955577 -0.0207195 0.0379071 -0.0298785 0.119461 -0.0183281 0.117974 -0.0331197 0.0231693 -0.12354 0.017753 -0.0478145 -0.0112873 0.0300989 -0.048798 0.0503217 0.0495227 -0.0387007 0.032204 0.013305 0.0145752 -0.0485644 -0.0674773 -0.0644517 0.0470155 -0.0184411 0.119628 0.00452907 -0.0149437 0.0560079 -0.0178396 -0.0298787 -0.0160573 -0.0636815 -0.0908885 -0.0515758 -0.0329618 0.165454 -0.0659987 0.061717 5.35938e-05 0.0349605 -0.0686023 0.00437136 -0.0311943 -0.0424733 0.0860223 0.00234425 -0.0117513 0.0346491 0.0144872 -0.0456806 0.0751374 0.0639345 0.0694269 -0.00273567 0.0463813 0.0879597 -0.0108173 -0.0946244 -0.0630242 -0.0597568 0.0423253 0.00329212 0.072941 -0.0734673 -0.0148694 -0.0341163 -0.0125105 0.0841022 -0.112498 -0.163408 0.0749155 -0.0241121 0.032852 0.0228324 0.0619917 0.0287658 -0.0443991 0.0411316 0.0671247 0.114846 0.0551856 -0.0217809 0.00623631 0.0663474 -0.0785396 -0.0751908 0.116832 -0.0151606 -0.00575045 0.0348889 0.0110952 -0.0559641 0.073977 -0.0135148
ל -0.082645 -0.0710089 0.0122579 0.0486912 0.0588854 0.0201697 0.0686776 -0.014065 0.0402005 0.0116569 0.029895 -0.0769897 -0.0566946 -0.0766082 0.0553086 0.0582177 0.0393141 -0.0451709 -0.0259351 0.0531112 0.0842165 -0.00253217 -0.0255832 -0.00131775 0.0462592 0.0119547 -0.0243788 -0.0949844 -0.0848216 0.0919715 -0.00162517 0.0672157 -0.00452423 -0.018036 0.0377749 -0.103994 0.00408004 -0.10964 -0.00680231 0.0362534 -0.0883725 0.0551422 -0.00615056 0.109955 0.106707 -0.052634 0.0339825 0.0236197 -0.030651 -0.0198726 0.0248749 -0.0322976 -0.0754588 -0.0505099 -0.0710726 -0.0555591 0.00871407 0.0751263 -0.0164356 0.0245168 0.039824 -0.0263386 0.059064 -0.0726685 0.0780701 -0.00259272 -0.0403612 0.0103349 -0.120851 -0.133295 -0.0451412 -0.0153059 0.011067 0.0325099 -0.0682491 -0.034285 -0.00711903 0.0743944 -0.0448945 0.0303587 0.106703 0.0977396 -0.0104668 0.0455972 0.0648987 -0.0200936 0.0656518 0.101828 -0.011306 -0.0230845 0.0113273 -0.0317612 0.043671 -0.0871694 0.0631613 0.0762652 0.01545 0.00234371 -0.0442562 -0.114641 0.0371882 -0.0540683 -0.00364698 -0.0892158 0.00225346 -0.00230633 -0.0511944 0.027905 0.0270592 0.00987889 0.0313445 -0.0247839 0.0609467 -0.0191509 -0.00494616 0.00691779 -0.0103941 0.0231934 -0.00443948 0.0572558 0.122361 0.0131811 -0.0747311 0.133889 -0.0847011 -0.0210577 0.0262787 -0.023073 -0.0425746 0.0469791 -0.0280038 0.0628167 0.0330908 -0.0127961 -0.0409081 0.0444137 -0.017982 -0.101912 0.00733038 0.0184704 0.0543243 0.13657 0.0441918 0.0447845 -0.0198667 0.0761187 0.0392633 -0.0146335 -0.0490218 0.0618869 0.0683254 0.0571611 -0.0397364 0.0673085 0.151246 -0.0428354 0.0475659 0.00682411 0.0246607 0.0177031 -0.0264494 0.0476088 -0.0428721 0.0780652 0.0949629 -0.0272536 0.120518 0.0325652 -0.00940619 0.0258108 0.0174827 0.00820593 -0.0712559 0.0535093 0.03289 0.0922927 0.0417933 0.0450727 -0.005076 -0.0590371 -0.0267342 -0.0919134 -0.0416238 0.0659896 -0.127527 0.0947528 -0.0657435 0.0236681 0.0997621 0.0757029 0.0670428 -0.0721928 0.0875926 0.147738 -0.00951638 0.0216156 0.0584906 0.0272832 -0.0216924 -0.108025 0.132036 0.0600373 0.0269518 0.0270166 0.0183455 -0.0365267 0.0357175 0.0889776 0.0959836 0.0741414 0.028839 0.0171048 -0.00435703 -0.0535773 -0.0943907 -0.07957 0.113258 -0.0731585 -0.0331247 0.0618134 -0.0286008 -0.00172304 -0.0574733 0.0044982 0.0284218 0.019269 0.0380432 -0.0153174 0.00374071 -0.0134842 0.0715945 -0.0245925 -0.0051036 -0.0221549 0.0570076 -0.0358926 0.00595609 -0.0221757 -0.0692504 -0.0225077 0.0613382 0.0170687 0.0878998 0.0305689 -0.0025108 0.117272 0.0413526 -0.000273158 -0.0739857 -0.0128923 -0.0144697 -0.000654077 -0.0606235 -0.024147 -0.0534087 0.0677674 0.0666247 -0.0593096 0.0412874 0.0328774 -0.0421331 0.0784591 -0.0726355 -0.0488439 -0.0262341 -0.034344 -0.0186286 -0.0437027 0.0479524 -0.0611843 -0.0891161 0.0413778 0.023623 0.00618071 -0.0185797 0.010717 0.0611759 -0.00925784 0.108103 0.0757567 -0.00558553 -0.0324079 -0.0056165 -0.0465192 0.0331417 -0.125072 0.0356506 0.0243232 -0.0854088 0.087895 -0.0371032 -0.135807 -0.12265 0.0326396 0.04985 0.012169 -0.00609149 0.0108204 0.0432893 -0.040082
כל -0.0844586 0.0143382 -0.0594452 0.114532 0.0262127 0.00593258 0.0351544 -0.0964958 -0.00906071 -0.024823 -0.0104611 0.0180829 0.0357955 -0.0180767 -0.0527612 -0.0425057 -0.0604428 0.0149546 0.0164676 0.048107 -0.011315 0.0417838 -0.0584978 -0.00124537 0.00104295 0.00141673 -0.0145762 -0.0066675 0.150082 0.00998962 -0.0180035 0.0598579 -0.0388784 0.0867854 -0.0523004 -0.0357613 0.124646 0.0323175 -0.0408478 -0.0205298 0.04872 -0.0598194 0.019519 0.0270007 0.0310256 0.0257659 0.0676962 -0.0466341 0.0116815 -0.0869869 0.00488317 -0.124326 -0.000160954 -0.0143717 -0.0239646 0.0221319 -0.0396407 -0.00690912 -0.0581288 0.0406236 -0.0676417 -0.0503046 0.139899 -0.0539133 0.0355651 -0.0810702 -0.043499 -0.0170141 0.0438246 -0.00694314 -0.0453678 -0.0177767 -0.0215252 -0.097459 -0.0738927 0.0887714 0.110945 0.045419 0.0177486 -0.0164839 0.054485 0.0584976 0.00158734 0.0616495 -0.0982127 0.0799218 -0.0111065 0.0438869 0.000877803 -0.0413048 -0.00866138 0.00928727 0.034697 -0.0815203 0.0908055 0.034503 -0.0143643 0.000386895 -0.0211404 0.0355135 0.0292658 -0.00790361 0.0663624 -0.025845 -0.0199823 -0.137598 -0.0766345 -0.0148266 -0.0140279 0.117465 0.0720015 -0.0612141 -0.0281046 -0.0225844 0.0286181 -0.0636269 0.15677 0.0428924 0.000526681 0.0562695 0.056352 0.0679082 0.0413088 0.177249 0.087231 0.0207637 0.0680096 0.0989266 -0.0109754 0.0159792 0.0368304 0.120093 -0.0623393 0.0103894 0.0821436 -0.0449767 -0.0694743 -0.00856519 0.0490086 0.000745115 0.0144089 -0.0394958 0.0267722 0.053066 0.00169141 -0.00751129 -0.0565385 -0.107862 0.0150062 0.0910903 -0.0233354 0.0164403 0.00920872 -0.00863255 0.0180797 0.0447647 0.00449733 -0.0214163 0.085841 0.0707131 -0.0614149 0.0562807 -0.109052 0.0653087 -0.0345951 0.00957108 -0.00163581 0.020539 0.0570762 0.00519969 0.0596628 -0.0644021 -0.0980377 -0.0102227 -0.15418 0.0481073 -0.0357854 -0.00951286 -0.0127326 -0.0613338 0.112233 -0.0397227 0.0263679 0.0564777 -0.044528 0.0314252 0.142057 -0.141153 0.0735063 -0.00272479 0.0338355 -0.0220933 0.0287326 0.0399491 -0.0468506 -0.0687984 -0.0319136 -0.03472 -0.121555 -0.0353358 0.105147 -0.0615558 0.0349409 -0.0485894 -0.0132407 -0.038719 -0.0109615 0.0161177 0.0593561 -0.00589505 0.0431988 0.01577 0.0712447 0.0561259 0.14881 -0.0537872 0.0361913 -0.0876177 0.024701 0.0216096 -0.032757 0.0311328 -0.01825 0.118942 0.000958058 0.103169 -0.0985117 -0.0406087 0.00699808 -6.56281e-05 0.0604857 0.04076 -0.0288958 -0.0192587 0.0252734 0.0143892 -0.00350945 -0.0162716 -0.0250614 0.0077944 0.0284361 -0.00217512 0.0623475 0.00615987 0.0280825 0.018563 0.127552 0.0373101 -0.0781759 0.0428729 -0.0591147 -0.0311992 0.0060411 -0.0796289 -0.000990777 0.0941919 -0.0414997 -0.0214018 0.00425814 -0.072966 -0.0115875 0.0154253 0.0208388 -0.0172155 2.08934e-06 -0.0111642 0.00563677 -0.0302949 -0.0829311 -0.0806563 -0.0706896 -0.0113631 0.0621479 0.0493973 -0.0358541 -0.0280293 -0.0372053 0.0377742 0.0540935 0.0401273 0.0135693 -0.0230525 0.00550724 -0.0980414 -0.0221265 0.0662204 0.0662048 0.108084 -0.119562 0.0783155 0.072827 0.0596694 0.0626991 0.0570706 0.0625257 0.00842819 -0.0558707 0.0111489 0.123287 -0.00924794
כי -0.102003 -0.0103734 -0.0242259 0.0393788 0.0346138 0.002341 -0.000268383 -0.0893328 -0.0122721 -0.00946008 0.00476338 -0.0560115 -0.016353 -0.024864 0.0174912 -0.00674628 0.0364865 -0.0544829 0.0705052 0.00725642 0.0256705 0.0580145 -0.0539393 -0.098295 -0.0716209 -0.00687095 -0.00207737 0.138157 0.00188245 0.12336 -0.0447922 -0.026407 -0.0672967 0.0326535 0.0373806 -0.0092039 0.0281397 0.0151985 0.0527025 0.000975091 0.0425878 -0.000817039 -0.0122274 -0.0389493 0.0785239 -0.0495072 -0.0120468 -0.00309598 0.0373601 0.0540656 -0.0174149 0.0106985 -0.0674412 -0.0211922 -0.130825 -0.0381444 0.0183236 0.0323125 -0.0117157 0.0397138 -0.0750019 -0.100301 0.0303886 -0.0704118 0.0911451 -0.0870241 -0.0371035 0.0237565 -0.0213072 0.0293981 0.0226809 0.0051306 0.0224901 -0.0327653 -0.048468 -0.00218277 0.045755 -0.0104461 0.0777957 0.00209816 0.0561814 -0.0507836 0.0614928 -0.00640292 -0.142347 -0.100544 -0.0653895 -0.0357082 -0.0231611 -0.0600868 0.0254941 0.0726107 0.0732013 -0.0531922 -0.0355491 -0.0559739 0.0288749 0.0415589 0.00470765 0.00933262 -0.00970384 -0.0745076 0.00409886 -0.00986887 -0.109462 -0.0680974 -0.0298342 -0.0760437 0.0599194 -0.0473343 -0.0473672 0.0159295 0.0318188 0.0289668 0.00404008 -0.0558745 0.0275903 0.0555562 0.0366915 -0.0279666 -0.0313781 0.039398 0.106375 0.123524 0.03205 0.00581146 0.0855473 0.0134725 -0.0263866 0.0512873 -0.0933231 0.0160214 -0.0671178 -0.0467837 0.0338441 0.0267178 -0.023295 0.0322149 -0.00468144 -0.045057 -0.034045 0.0607543 -0.00980564 -0.0348079 -0.0384637 0.0400312 0.0428151 -0.0884133 -0.00904917 -0.0396344 0.0225439 -0.0395281 -0.0411302 -0.0034681 -0.0152384 -0.0450731 -0.0584376 0.0551812 0.0785152 0.0705448 -0.0263838 0.0789386 -0.0440687 0.00283839 -0.00515047 0.0312013 0.0904797 -0.0264484 0.00301832 0.0367481 0.0224114 -0.0802916 -0.109156 0.104181 -0.0288119 0.105598 -0.0788925 0.13949 0.00216927 -0.0930107 0.0218341 -0.111145 0.0618281 0.16272 -0.0660238 0.0222316 0.00331477 -0.0982559 0.154033 -0.0607216 -0.0365777 -0.2114 0.0178373 0.086097 -0.0595212 0.0336232 -0.00830687 -0.0407412 -0.103316 -0.0294039 0.0200579 -0.0516097 0.0197145 0.0439894 -0.0482896 -0.0704717 0.0225341 0.0173642 0.082663 0.0490106 0.161633 -0.00233938 -0.0298859 -0.0811867 0.063677 0.047435 -0.0374749 -0.0108163 -0.00587747 -0.00855887 -0.108518 -0.053931 -0.0232469 0.0994136 -0.0773403 -0.0347155 -0.0219727 0.0175764 -0.0166853 -0.0484548 0.0294546 0.0409875 -0.0501943 0.11809 -0.00527592 0.100404 0.0641476 0.0230159 0.0689751 0.00906971 0.0520265 -0.0488885 -0.00699894 -0.0255487 -0.0545607 0.0613628 0.0295021 -0.0358914 -0.0340693 -0.0810891 0.0627767 0.0506377 -0.0598811 0.0555127 0.0571273 0.0385721 0.0287046 0.0363201 -0.0419854 -0.122611 0.0429083 0.00184874 0.0360142 -0.0848349 -0.0128161 -0.0580766 -0.0231567 0.0544025 -0.00436727 -0.0135716 -0.0802805 -0.0326656 0.149206 0.0717037 -0.0570595 -0.0527599 0.0916592 0.0262665 0.0571558 -0.0623576 0.0629358 -0.0383794 0.0236111 -0.0293007 0.0442267 -0.031927 0.0129012 0.113158 -0.000635914 -0.0307922 0.0254701 0.0606276 -0.00910661 0.0381412 -0.053013 -0.0737204 -0.0640413 0.0546283 -0.030853 -0.0219019
