999 300
</s> -0.0395231 -0.00020123 0.0074851 0.0282351 -0.0276922 -0.03295 0.0492604 -0.0610755 -0.013765 -0.0128358 -0.00358957 0.0248732 -0.00766073 -0.0521782 0.0316565 -0.0503435 0.0925585 0.0435855 0.0951424 0.094671 0.0353044 0.0390426 -0.0479663 -0.072447 -0.107527 -0.0128513 -0.046243 -0.133491 -0.018413 0.029301 -0.00770366 0.087789 -0.0273514 0.0098713 -0.0359449 -0.0672881 -0.0737885 0.0172928 -0.0429303 0.0116299 0.0628896 -0.0379293 0.000687188 -0.00191695 -0.0536924 0.0231658 -0.0472071 -0.0192464 0.122035 0.0924545 -0.0329164 -0.0994671 0.0132842 -0.0312532 -0.041967 -0.040764 0.0988954 -0.00799607 0.019153 0.102116 -0.0678503 0.0181732 0.0209635 -0.0129906 -0.0474432 -0.0319967 -0.0717193 0.021986 -0.0117813 -0.0350737 -0.0241774 -0.0827975 -0.0200648 0.0647651 -0.0791948 0.0597741 -0.00131101 -0.0278644 -0.00804168 -0.00795261 0.0437156 0.104208 -0.055178 -0.0567333 -0.0569628 -0.062013 0.0611552 0.0766074 0.0253737 -0.0724311 -0.0453536 0.0338118 0.030943 0.0497502 0.0174456 0.0282422 0.0352782 0.0976578 0.0373523 0.0164451 0.023178 -0.0170772 0.0215733 -0.0929388 0.102254 0.112286 0.0524021 0.00535973 -0.0146186 -0.0346175 -0.0406078 -0.00678457 -0.048164 0.0410923 -0.0418572 -0.00456167 0.00643269 0.148872 0.0200207 -0.0350786 0.0398092 -0.0692543 -0.125607 0.0385647 -0.0256032 -0.000471255 -0.057837 -0.0155618 -0.00987595 0.0622138 0.0163241 0.00674573 -0.0351617 0.0426651 0.0200872 0.0721691 0.0439497 -0.0418485 0.0516855 0.181783 -0.0502213 -0.0194523 0.0184828 0.0776975 0.035195 -0.0162698 0.0891509 0.0389548 -0.0270806 0.0630973 0.144146 -0.0424752 -0.0766142 -0.0504742 -0.0213669 -0.015858 0.0698709 0.0633048 -0.016652 0.00545049 0.0475662 0.0701214 0.0209444 0.0167672 0.0661493 -0.0362965 -0.0289606 -0.0540237 -0.0531611 0.0755092 -0.0851977 -0.00509251 -0.0491917 -0.0064934 -0.0295025 0.000760803 -0.115099 -0.111866 -0.0121355 -0.0850698 -0.022042 -0.00466459 -0.083019 0.0138538 -0.0348993 0.112182 -0.108401 -0.0672333 0.0762497 0.0491613 -0.0196941 -0.084615 0.0397957 0.0586102 -0.183642 -0.0165594 0.080331 0.0332053 -0.0689819 0.00863448 0.0116111 -0.0214542 -0.00308685 0.062839 0.0790635 -0.150644 -0.026821 0.0491436 0.0914257 0.037537 0.0418002 0.0139927 0.158396 0.0112238 -0.136747 -0.0105653 0.0259555 -0.13023 0.00589216 0.0135808 0.0845392 0.0468075 -0.0135562 0.0894924 0.0112062 -0.0141531 0.0775695 -0.12865 0.0644461 0.00630034 -0.0182207 -0.0675839 -0.0941137 -0.0372407 0.104823 -0.0337997 0.0291764 0.00699099 -0.0583672 -0.0355915 -0.00220762 0.00725311 -0.0134795 -0.0438624 -0.0407449 -0.0453393 0.00712274 -0.0769413 -0.0444392 0.0127305 0.0331548 -0.0293212 -0.138816 -0.0489505 0.0551341 -0.0164089 0.0910886 -0.0174328 -0.0292702 -0.045607 -0.0305109 -0.0222651 -0.0379837 0.0323856 -0.0454304 -0.0561222 -0.0147566 -0.0426316 -0.0394624 0.0385636 -0.0593107 0.0189599 0.0773251 -0.00256793 0.0500619 -0.0329279 -0.0162594 0.104634 0.0325613 0.0254695 -0.0247749 -0.0161097 0.0294051 -0.0646402 -0.0224478 0.0582934 -0.0367367 0.019269 -0.0749554 0.0234949 0.0402191 -0.074567 0.0263436 0.0371684 -0.0117608 -0.0447198 -0.106319 0.0517083 0.0314742 -0.0555858
. -0.0170218 0.00380044 -0.0408576 -0.0393834 -0.0592042 0.0200423 0.0221737 -0.104308 0.00331659 0.0958449 0.117761 -0.0547649 0.016409 -0.0197474 0.0117461 -0.0694166 -0.0498571 0.0379063 0.00310984 0.0412542 0.0179006 0.0394826 -0.114693 -0.0309387 -0.00991029 -0.00756916 -0.0137578 -0.122708 -0.0154375 0.0101146 -0.112229 0.106901 -0.0935097 0.0475024 0.0130876 -0.0746917 -0.0280571 -0.0447588 0.0974723 -0.0565474 0.046553 0.0343341 -0.0249656 0.0336595 -0.0469726 0.00779733 0.0483612 0.0511372 -0.0596733 0.03434 0.0810503 -0.0199907 -0.0468998 0.0466715 -0.0707595 -0.00189937 0.0316315 0.0110678 0.0152043 0.0552411 0.0132222 -0.13515 0.164227 -0.0284675 -0.00830247 -0.0309795 -0.0283276 0.00194163 -0.0675651 0.0553624 -0.0629951 -0.0386843 -0.0224319 -0.138048 -0.0237949 -0.0390081 0.0684199 0.129205 -0.042142 -0.0202142 0.00154848 0.0918593 -0.0375015 -0.0134156 0.0275567 -0.0134014 0.0203371 0.0232242 0.0589639 -0.0120368 -0.0340457 -0.114998 0.0350639 -0.0860442 0.106686 -0.0456122 -0.00991156 0.0251282 -0.0278781 -0.0609417 -0.00826606 0.059809 0.000608727 0.0603066 -0.0719464 0.114073 -0.0279517 0.00191768 -1.51308e-06 -0.0243283 0.0535328 0.115945 -0.0301488 0.00160154 -0.0477784 0.0213733 0.0977557 0.099692 -0.0333231 0.109863 0.0799349 -0.0404756 -0.0585324 0.0568097 0.00778154 0.0443188 0.0507695 -0.060254 0.0626088 0.00792127 -0.00577115 0.0380508 -0.0165491 -0.0505917 -0.0115617 0.0377561 0.0233049 0.0430128 -0.0166061 0.101053 -0.0409609 0.0700011 0.0909248 0.0225345 0.0141606 0.138399 -0.0329197 0.0224938 -0.037193 -0.0474692 -0.0256149 -0.100196 -0.0111137 -0.0809396 0.0463541 -0.0497406 -0.0402104 0.066015 0.0588175 0.0813278 -0.0462689 0.134167 -0.0440233 0.0348424 0.119743 0.030499 0.0282072 -0.0504605 0.0385442 0.00660151 -0.0885536 0.00140336 -0.118474 0.000150015 0.0463604 0.0651017 0.0371482 0.0263141 -0.00880758 -0.000105451 -0.0360428 -0.0674622 -0.062363 0.0280567 0.0491696 0.0918666 -0.0516926 -0.0820718 0.0359484 -0.0383512 -0.0460541 -0.0330979 0.11038 0.0495557 -0.0577338 0.0224641 0.0395632 0.0160985 -0.113411 -0.0457183 0.078348 -0.0518672 -0.0660802 0.0142922 0.0434122 -0.0994652 -0.0849658 0.0409858 0.0713505 0.0324142 0.0549018 -0.0219731 -0.0455808 -0.0458085 -0.0626093 -0.0289996 -0.0118319 -0.142688 -0.0498155 -0.0182085 -0.00848822 -0.0285262 -0.0615077 -0.0268508 -0.0229683 -0.0138903 -0.00778468 -0.0565015 0.101025 0.151714 0.00235169 -0.00713428 -0.0781747 -0.0232538 -0.0418941 0.0165557 -0.00511673 0.005346 -0.1003 0.0169182 -0.0178784 -0.0440292 0.0954948 0.0230582 0.120792 0.00112845 -0.00366621 -0.0515416 -0.00696938 -0.0212404 0.00587521 -0.0188439 -0.0992489 -0.0149633 -0.0597332 0.0862664 0.0201696 -0.043103 -0.00152388 -0.0753317 0.0135919 -0.0390751 0.0293919 -0.0450546 0.0734555 -0.00241934 0.098839 -0.0441607 0.039679 0.011012 -0.0227153 -0.00341088 -0.03764 0.0499841 -0.0757054 -0.021705 0.0270424 0.0598883 -0.0119215 -0.00100219 0.067774 0.00927591 -0.019981 -0.0435955 0.0770453 -0.0752013 0.030986 0.117648 -0.0387317 -0.00188896 0.0279338 -0.120119 0.0290888 0.0464555 -0.0322673 -0.0743468 -0.000555541 0.0688333 -0.0737416 0.0183316
, -0.0276202 -0.0135711 -0.0401842 -0.0375482 -0.0032935 0.00370874 -0.0212476 -0.0446785 0.00170021 0.088901 0.0355795 -0.001308 0.0434183 0.0564558 -0.0348462 -0.0206227 -0.0177764 0.064872 -0.0802508 0.00660114 0.0490954 0.0635598 -0.128696 -0.00367254 -0.116382 0.0348578 0.0229197 -0.0748459 -0.0125025 0.0762438 -0.0989825 0.128768 -0.0483363 0.045832 0.0278117 -0.139143 -0.0196382 -0.0948685 0.0934363 -0.0406262 0.0334556 0.0821289 -0.00307023 0.0407435 -0.00997755 0.00638416 -0.0258685 -0.0353136 -0.00473145 -0.00499433 -0.0212784 -0.000558713 -0.0348022 -0.00623144 -0.0383026 0.00961688 0.00654945 0.0672294 -0.0203538 0.0267585 0.0616671 -0.064128 0.0999763 -0.0129881 -0.0731233 -0.0632643 -0.0277486 0.0455186 -0.0512281 -0.0137306 -0.0228209 -0.00387824 0.0279179 -0.163049 -0.0327215 -0.0678239 0.0637933 0.0959447 0.0336022 0.0522918 -0.0101908 0.0116358 0.00798545 -0.0303459 0.0129212 0.0554103 0.054719 -0.00226961 0.0502759 -0.00970463 -0.00435709 -0.00681813 0.0657583 -0.0825513 0.103291 0.0573909 0.033057 0.016281 -0.0022468 -0.033778 0.0760587 -0.00531276 0.0546117 0.00869724 -0.0228748 0.12633 -0.101574 0.020454 -0.0479988 -0.0049284 0.0450887 0.0654285 -0.0510034 -0.0184641 -0.0555353 -0.0305709 0.107089 0.0655028 0.0303292 0.0157836 0.0148132 0.0392751 -0.0935709 0.107628 0.0216682 -0.016631 -0.031785 -0.0734631 0.0689209 0.0510189 -0.0326935 0.0772037 -0.0125386 0.0368849 0.00192005 0.0112191 -0.0232962 0.0154293 0.029889 0.0540985 -0.0374969 -0.00692028 0.0878264 -0.00423115 0.0228382 0.19233 -0.0342859 0.053673 -0.0441372 -0.114179 -0.0794606 -0.0876352 0.0189823 -0.0373651 -0.0209305 -0.0125213 -0.0978412 -0.00664406 0.100223 0.0312278 -0.0839172 0.0785646 -0.0390184 0.0893374 0.0820067 -0.00968212 -0.0529448 0.00751608 0.072944 0.0357121 0.0163669 -0.0406641 -0.0661846 -0.0553953 -0.0203096 0.0818601 0.0509469 0.138985 0.0853412 -0.0258081 0.0141598 -0.0800491 -0.0353259 0.0597225 0.0321895 0.0980445 -0.0650488 0.0185642 0.0474229 -0.085587 -0.00930149 -0.0556059 0.107742 -0.0509269 -0.0521923 -0.0264261 0.0588091 -0.0140756 -0.134781 -0.00251167 0.102202 -0.0509822 -0.0589041 0.109879 0.0443939 -0.110206 -0.0796129 -0.0604379 0.0398868 0.0373522 0.112772 0.0233907 -0.0638093 -0.0330071 -0.0476812 -0.0124873 -0.0215996 -0.151603 -0.113307 -0.0966594 -0.0427789 -0.000282765 -0.0828169 -0.0412186 0.0103526 -0.0181315 -0.0226068 -0.0634035 0.0584035 0.111463 -0.0197666 -0.0212218 -0.0301739 -0.0515588 -0.062124 -0.00106584 -0.0627901 -0.026289 -0.060557 0.0692116 0.000337073 0.0711202 0.0960239 0.00898588 0.0473539 0.0394245 0.0529098 -0.0406279 -0.0254148 0.0378916 0.00012937 -0.00668809 -0.0620589 -0.0607554 -0.054844 0.0378179 0.0292229 -0.000302982 0.0826751 0.00194126 0.0601337 0.0302804 0.0820019 -0.0137465 0.0084437 0.0367984 0.0473458 0.0279825 -0.0452881 0.00487294 -0.0158613 0.0111619 -0.0619785 -0.00888004 -0.0648601 -0.0117563 0.0997122 0.0467128 -0.00304626 0.0663014 -0.0272372 0.0364521 0.0174876 -0.00762469 0.0206125 -0.0978707 0.0990625 0.0519678 -0.0649642 0.0106914 0.0204005 -0.116322 0.0646919 0.0183566 -0.0272874 -0.0336997 -0.0389518 0.0137759 -0.029741 0.0633255
w 0.0767073 -0.0285911 0.0112 0.0738918 -0.122041 0.037056 0.00358037 -0.0708351 0.0239659 0.035387 0.0659048 0.0371928 0.0542278 -0.00345071 -0.0548567 -0.0255903 -0.0330406 0.00876477 0.0286217 0.0469598 0.0255705 0.0428079 -0.125922 -0.0828924 -0.041684 -0.0293981 -0.0150503 -0.0408287 0.0912056 0.00567995 -0.0687633 0.0138603 -0.0149174 0.0875192 -0.00536698 -0.109606 -0.0707166 0.0564954 0.0668252 -0.0536346 0.0192827 0.0748632 -0.0277224 -0.00216555 -0.0100739 -0.0108077 0.0740566 0.0974918 0.0226854 0.0740824 -0.025251 -0.012049 -0.00906888 0.0880402 -0.0714775 -0.0215948 0.037482 0.0658392 -0.00538016 0.0746197 0.055238 -0.102964 0.125592 -0.000239067 -0.0458747 -0.0903901 -0.0726058 -0.0121379 0.000465238 0.080246 -0.0176135 0.0168115 -0.0407638 -0.0912882 -0.0300221 -0.000983155 0.0757187 0.127002 -0.103323 -0.0738988 -0.0432718 0.143143 -0.0447451 -0.000792474 -0.0768012 -0.00128151 0.0507278 0.0675608 -0.0466765 -0.096856 -0.046086 -0.0430512 0.086059 -0.105723 -0.0194429 -0.0210033 -0.0517129 0.0781385 -0.0740902 0.00737898 -0.0904875 0.00194054 0.0299637 0.0139361 -0.0400269 0.0595139 -0.0457396 0.00460646 -0.0310959 0.0236569 0.0410375 0.0739307 -0.105752 -0.00821975 -0.0298234 -0.0234902 0.115677 0.09626 -0.0242504 0.0542278 0.0501212 0.0481077 -0.0481294 0.118481 0.0497128 -0.0396823 0.0673847 0.00957286 0.119142 -0.0327444 -0.0254074 0.0629709 -0.113415 -0.0521407 -0.0967452 0.0735529 -0.0641578 0.00211266 -0.00343848 0.0640185 0.0312373 0.0556417 0.0936136 -0.00251243 0.122702 0.166906 0.0384209 -0.0212248 -0.0179991 0.00773025 0.0455453 -0.0766837 -0.00127189 -0.01825 -0.0505777 -0.00228389 0.0763092 0.0622192 0.0339129 0.0251862 -0.0425526 0.119834 -0.0551722 0.0573392 0.101216 0.00633786 0.00500049 -0.0257396 0.0329002 -0.00619278 0.00759941 0.0613986 -0.0726949 0.0137113 -0.0360279 0.0188811 0.0338485 0.127072 -0.0538719 -0.0516854 0.0295883 -0.0724265 -0.0738445 -0.0115041 0.00370389 0.0921965 0.0430497 -0.00420904 -0.036826 -0.0525692 -0.0132494 0.00853616 -0.0103141 0.00138331 -0.0132923 0.0326978 0.0403016 0.0615191 -0.0168599 -0.0457889 -0.0300023 -0.0213143 -0.0658588 0.0548928 -0.0217136 -0.137509 -0.0770103 0.00285948 0.0315487 0.0707799 0.0655695 -0.0686429 -0.0311546 -0.00881226 -0.0251179 0.0377012 0.0221752 -0.135317 -0.113986 -0.0588411 -0.0599004 -0.0657519 -0.0788869 -0.0960821 -0.0604268 0.025841 -0.078348 -0.0606034 0.0443773 0.0267632 -0.0193362 0.101897 0.0393677 0.00898863 -0.0515155 -0.0714754 0.0129057 -0.0224765 -0.0366262 0.0455008 -0.0504138 -0.0582005 0.00545975 0.0271598 0.127501 0.00279406 0.0379408 0.0337257 -0.00218283 0.0547875 -0.0284595 -0.0263915 -0.0431274 -0.0871844 -0.0549751 -0.0137847 -0.00867554 -0.0186545 0.0202582 0.049681 -0.0234113 -0.0144269 0.120207 -0.00495131 0.0222752 0.0242225 -0.00548348 -0.0566484 -0.0209235 0.00816586 -0.0276184 -0.011516 -0.0767021 0.01628 -0.115741 -0.0411392 0.0734899 0.0120394 0.0225731 -0.0883668 0.045438 0.0447982 -0.0603485 0.0336938 0.0109576 0.0102004 -0.008531 0.0125345 -0.0541195 0.034431 0.0291112 -0.0819927 -0.00684077 0.0948541 -0.0238931 -0.00699165 0.0303861 0.0717207 -0.0268851 0.0159149
- -0.0813769 -0.0544102 0.00553835 0.00165844 0.0460814 -0.0641696 0.0719943 0.0381239 -0.0340915 -0.0655488 0.00596991 -0.0168708 0.049372 0.00395665 0.0321728 -0.0350233 -0.0886255 0.0923604 0.0136827 0.151805 0.0147423 0.002427 -0.0912495 -0.0337958 -0.0487946 -0.0131288 0.0763754 -0.129714 -0.0426724 0.0132111 -0.0336213 0.051938 -0.0508083 0.0182716 0.0256487 -0.0965264 -0.0191495 -0.044314 0.0056752 -0.100876 0.0498696 0.0665521 0.0385966 0.0899215 -0.0278292 -0.0412224 -0.0464704 -0.0599098 0.0129168 0.0359024 0.0344845 -0.115289 -0.0942465 -0.0713216 -0.0291166 -0.0489763 0.0749682 0.0613794 0.0423826 0.0516869 0.0490427 -0.0941275 0.0852295 -0.0552237 -0.0200872 0.0136698 0.0342903 0.0280386 -0.149758 0.00318211 0.0427533 -0.11525 0.0101836 -0.0576889 0.0401396 0.0322446 0.0995868 0.0388853 -0.0577473 0.0151232 0.0222936 0.0493141 0.00895871 0.0477038 0.0354429 0.0481885 0.0844694 -0.0524466 0.00375311 0.000677985 -0.0324748 0.0216183 -0.0335214 -0.0484111 0.0585864 -0.00604027 0.00125744 -0.0084388 -0.0383309 0.000425244 0.0503097 -0.0631791 -0.0412217 -0.0447627 0.105312 -0.00303617 -0.0222438 -0.013372 -0.0200875 -0.0575305 0.0572066 0.0698661 -0.0553739 -0.00734295 0.0344286 -0.0524758 0.054852 0.051537 -0.0835593 0.0353204 0.0941977 -0.0668817 0.0699493 0.0568817 -0.0105989 0.00121825 0.0329462 -0.0343132 0.0758646 0.0471656 0.040699 0.0449607 0.0593995 0.0307488 0.0486641 -0.00466278 0.0126693 0.0323476 0.0564559 0.0831783 0.00662195 0.0600481 0.0779794 0.0664593 0.103574 0.0628019 0.0077563 0.0201626 -0.0340604 0.00572499 -0.0144413 -0.0369369 -0.0133423 -0.0806411 -0.00737133 -0.0166503 -0.00127463 -0.07923 0.0834079 0.0989417 -0.017567 -0.00219263 0.00233397 0.0492622 0.100283 -0.00615685 0.00655443 0.0544117 0.0883365 -0.00439248 0.000645765 0.0561842 -0.0470854 -0.0397837 -0.00532832 0.0992819 0.106579 0.0370172 -0.0253197 -0.0665408 -0.0346235 -0.0579492 -0.119093 0.0858444 -0.0241419 0.179952 -0.0707491 -0.075841 0.127851 -0.00309556 -0.033224 -0.0700075 0.0521305 -0.0133847 -0.0931387 -0.0976165 0.0360265 -0.0231241 -0.0300855 -0.0365378 0.0744113 -0.0425821 -0.105548 0.116713 0.0325442 -0.000628236 -0.0903737 -0.046918 0.0776313 0.102122 0.0352515 -0.0306299 -0.0423097 -0.0182571 -0.100016 -0.0888592 0.0212276 -0.0350146 -0.0350114 -0.0468925 -0.0610087 0.0615678 -0.0946532 -0.0621478 -0.0120998 -0.0549618 0.0652638 0.0359822 -0.0119294 0.0886416 -0.0300595 -0.0382899 -0.0371594 -0.0527715 -0.138277 0.0703146 0.00761876 -0.0212004 -0.112429 0.0624518 -0.07278 0.00688231 0.0284152 0.00973766 0.124065 -0.0528459 0.0480566 0.0804229 -0.0316079 -0.00580683 0.0054944 0.0275605 -0.0918779 0.101656 0.00620187 0.105002 0.0485134 0.0131325 0.0393446 -0.0588804 0.0344543 0.0305788 0.077631 -0.0166603 -0.0416914 -0.0224041 -0.00195903 0.00576638 0.117073 0.0652299 -0.0132363 0.0147544 -0.0237553 0.0519616 -0.060186 -0.0363469 0.0745648 0.0986976 0.0439255 0.0454707 0.0365731 0.0623995 -0.0750835 -0.0180326 -0.0132752 0.0361807 0.0109337 -0.0156939 -0.0714291 0.0516126 0.0171547 -0.0136008 0.0462876 0.0057922 -0.0468556 -0.0431808 -0.0280268 -0.0334733 0.0353512 0.00834863
) -0.0685812 -0.0390044 -0.0220148 -0.0703107 0.0267383 0.0124902 0.0267948 -0.0304411 0.0182993 -0.0367681 0.00508573 -0.111704 0.037589 0.013871 -0.0507457 -0.00983056 -0.0115948 0.0872232 -0.0225038 0.0708975 -0.013564 0.0935794 -0.0747343 -0.0412729 -0.114161 -0.0382282 -0.0201998 -0.0963541 0.0412538 -0.00264306 -0.0788553 0.118135 -0.0645045 0.0446459 0.045979 -0.0775057 0.00329173 -0.101778 0.0846656 -0.0748509 0.0323843 0.032637 -0.088299 0.0912493 -0.0115823 0.0172197 -0.00793352 0.00374028 -0.0158464 0.0114783 -0.04278 -0.0558357 -0.0251368 -0.0327763 0.050412 -0.0630626 -0.048127 -0.0249369 -0.0334787 0.0936716 0.0482166 -0.0284227 0.0519486 0.0373037 -0.000388181 -0.00368865 -0.0204688 -0.0383315 -0.0736012 -0.0123375 0.00132088 0.0184635 0.0214043 -0.0312951 0.00343341 -0.0344593 0.0535229 0.071098 0.00933985 0.0695935 0.0541589 0.107523 -0.0422331 -0.00735589 0.0659021 -0.0177169 0.0346505 -0.0162571 0.024019 -0.00518653 0.0503562 -0.100185 0.00434584 -0.0824035 0.0640191 -0.0520504 0.0126087 0.0171176 -0.0619412 0.0226517 0.0682631 0.00982833 -0.0157581 0.0748466 0.0100063 0.0721328 -0.0370985 0.0505496 0.0710661 -0.109482 0.096433 -0.00465089 -0.0470727 -0.0492627 -0.0288375 0.0267373 0.0673187 0.0398482 0.0123589 0.0297916 0.12559 -0.0211329 -0.0999009 0.126306 -0.00809797 0.00962961 -0.0258383 0.0155425 0.0669074 -0.0544686 0.0125419 0.0776127 0.0265931 0.0767481 0.0280828 -0.0132938 -0.00686208 -0.08412 0.0527653 0.108135 0.0426366 0.0058147 0.0743628 -0.0129406 0.0472485 0.212615 0.0313376 0.0465186 -0.037187 -0.0535067 -0.0497189 -0.0696641 -0.0422144 -0.00957734 0.0297578 -0.0180743 -0.0423 0.0797238 0.0608791 0.0643758 -0.0391167 0.0119578 -0.0783046 0.0595229 0.107498 -0.0268731 0.0211655 -0.0125393 0.0373247 0.021077 -0.0513322 0.0165357 -0.11563 -0.0229481 -0.0222552 0.0696763 0.0676741 0.045545 0.101832 -0.0751611 -0.0893737 -0.0654533 0.00648814 0.0085342 0.0419239 0.0529099 -0.0142344 0.0469009 0.0881144 -0.0553732 -0.0194014 -0.0901986 0.0894755 0.0649628 -0.0889185 -0.062515 0.0391324 -0.0152351 -0.0839121 0.0189793 0.134444 -0.0793895 -0.0513229 -0.00259756 0.0533842 -0.00212637 -0.0973917 0.0122784 0.108725 0.00458429 0.0929767 -0.0285103 0.0263703 0.0122319 -0.0355529 -0.120625 -0.0313374 -0.0677613 -0.153867 -0.0500427 0.0199372 -0.0184912 -0.111184 -0.00167432 0.0387816 -0.0360303 -0.0314858 -0.0228616 0.10556 0.125286 -0.0613034 -0.00520516 -0.0146578 -0.109013 -0.0807478 -0.0102457 -0.0289122 -0.00780889 -0.100849 0.0366527 -0.0439841 0.0693971 0.0328153 0.0176776 0.0767291 -0.00368167 0.02529 0.0157444 0.0236987 0.0222645 -0.0363724 -0.0796896 -0.0895614 0.0155579 0.00633624 0.0506591 0.0637689 0.00114882 0.0390742 -0.0617695 0.0885651 0.0294758 0.0317455 -0.0184466 0.0188192 0.102249 -0.00749831 0.0436719 0.0397229 -0.0709302 -0.0517478 -0.0422742 -0.0749296 0.0558835 0.0241298 -0.0105813 0.0724096 0.029567 0.0996613 -0.00507375 -0.0172792 0.0569205 -0.0667855 0.0213797 0.0789838 -0.0259304 0.0972587 -0.0440674 0.0136007 0.0525967 -0.0125841 -0.0469189 0.015078 0.103492 -0.0451299 -0.0207844 -0.00461367 0.0523291 0.0424312 0.0757341
( -0.0611973 -0.0325253 -0.0176405 -0.0637817 0.0228303 0.0135518 0.0295223 -0.0179245 0.027522 -0.0578318 0.0238496 -0.116278 0.0361804 0.0132052 -0.0449397 0.00770531 -0.0258821 0.0964845 -0.0230485 0.080966 -0.0148956 0.0737292 -0.0492588 -0.0318377 -0.114166 -0.006261 -0.0138727 -0.0956204 0.0450309 -0.00219003 -0.0882155 0.101895 -0.0733864 0.0277873 0.0689965 -0.0646335 0.0324397 -0.0970675 0.0824176 -0.0499169 0.0393916 0.0339217 -0.0754729 0.0863057 -0.0142691 0.00354766 -0.0115974 -0.00895176 -0.023674 0.0106933 -0.0386997 -0.0432462 -0.0100369 -0.0508913 0.0529345 -0.0545018 -0.0153553 -0.0447919 -0.0380779 0.0839677 0.05372 -0.0237058 0.0542457 0.0161758 0.00092594 -0.00539059 -0.00770208 -0.0333205 -0.0665132 -0.0151533 0.00308464 0.00666562 0.0349041 -0.0154732 0.018954 -0.0328725 0.0373908 0.0698779 0.0111114 0.0887488 0.0520016 0.119054 -0.0300739 -0.00896693 0.0599164 -0.0105234 0.0385095 -0.0233103 0.027287 0.00227878 0.0435308 -0.0987612 -0.00594797 -0.0958889 0.0586857 -0.0479144 -0.000184399 0.0063685 -0.0429922 0.0290623 0.0744234 0.00135727 0.00893392 0.0725233 -0.00143253 0.0614578 -0.0200034 0.0586982 0.0823721 -0.0992419 0.100952 -0.0043321 -0.00963263 -0.0467541 -0.0216626 0.0253094 0.0551077 0.0474773 0.012534 0.0485341 0.142453 -0.0251653 -0.100655 0.110292 -0.033533 0.0039283 -0.0315235 0.0222484 0.0598288 -0.0512939 -0.00115927 0.0693953 0.0405388 0.0750621 0.0378771 -0.00710239 -0.00222788 -0.0940766 0.075295 0.107597 0.0417271 0.0145082 0.0654705 -0.00826267 0.0711786 0.216604 0.029748 0.0573273 -0.0363015 -0.0671684 -0.0339801 -0.0844453 -0.0377888 -0.00696851 0.0113766 -0.0190366 -0.0443545 0.0778621 0.0477759 0.0572915 -0.0530193 0.0133516 -0.0833982 0.0614435 0.0945016 -0.0375611 0.0358581 -0.0162488 0.0215355 0.0148733 -0.0678953 -0.000594015 -0.114715 -0.00435999 -0.0264794 0.0679265 0.0591417 0.0355666 0.0955632 -0.0613387 -0.0896329 -0.0392067 0.0232678 0.0107847 0.0392972 0.0613021 -0.0266408 0.036287 0.111917 -0.0209395 -0.0325545 -0.0837789 0.0866469 0.0975745 -0.0946132 -0.0611387 0.051504 -0.0298793 -0.0955184 0.00386882 0.117309 -0.0957169 -0.0564783 0.00687077 0.0610544 -0.00271621 -0.0736906 0.0191061 0.116397 0.0237501 0.0873549 -0.0338583 0.0167032 0.0332797 -0.0602845 -0.120666 -0.040304 -0.0480837 -0.135858 -0.0520156 0.0168567 -0.0293749 -0.119639 0.00431223 0.0727588 -0.0214691 -0.0484924 -0.0413323 0.119465 0.1042 -0.070798 0.0102132 -0.0268558 -0.103054 -0.1049 0.00538417 -0.0316088 -0.00523219 -0.0983324 0.0532195 -0.0445654 0.0504737 0.039232 0.0387827 0.0620985 0.0241388 0.0217332 0.0159874 0.0485997 0.0197852 -0.0268545 -0.0699261 -0.0872034 0.0303984 -0.0203911 0.0256092 0.0674445 -0.0127579 0.0175071 -0.0692589 0.109758 0.041502 0.0414135 -0.000711463 -0.0014912 0.091245 -0.000484403 0.0212269 0.0224316 -0.0471938 -0.0510161 -0.0589295 -0.0575762 0.0430111 0.0192767 -0.0083861 0.0757579 0.0118892 0.0940103 0.0182836 -0.000964535 0.0622719 -0.0720173 0.0540263 0.0985518 0.0103695 0.0949113 -0.0405151 0.00681448 0.0479777 -0.0116291 -0.0490658 -0.00669585 0.117384 -0.0380917 -0.0250018 -0.00866013 0.0530286 0.0502745 0.067001
' 0.0309525 -0.0279744 0.14207 0.0407613 -0.0304093 -0.0543158 0.0862431 0.0226533 -0.0354858 -0.0259881 0.0421638 -0.0809777 0.0711459 0.0770479 -0.0417059 0.0170477 -0.106916 0.0454729 -0.0659588 0.0489102 -0.0278221 0.0400591 -0.0748349 -0.00956749 -0.0925791 0.0429566 -0.0269041 -0.0104213 0.000844885 -0.0377818 -0.0407117 0.0536473 -0.00861431 0.0111478 -0.0176543 -0.0730454 -0.00363122 0.046024 0.0578819 0.0486645 0.0442445 -0.0332342 -0.0431411 -0.0396443 -0.0271943 -0.0527596 -0.03628 -0.0172477 0.0217739 -0.00365029 0.035001 -0.0820364 -0.0125724 -0.0592209 -0.0194205 -0.0330758 0.0382746 9.07168e-05 -0.0193982 0.0627337 0.0708728 -0.136492 -0.0254061 0.10107 -0.0123066 0.000682777 -0.0248193 -0.0191489 -0.102699 0.00485844 0.0609986 -0.0328459 -0.0150232 0.0480517 -0.0212287 0.0814958 0.0630768 -0.0255076 0.0301475 0.109662 0.0499935 0.0837967 0.0337872 0.0320304 0.0351668 0.0138782 0.0468218 0.0364931 0.00393475 -0.0342091 -0.0326707 0.0534635 -0.00514015 0.0109829 -0.0609104 -0.00762247 -0.000264032 0.0297875 -0.0225916 0.0712318 0.0433651 0.0370994 -0.0840336 0.0335146 0.0713724 0.0317148 -0.0624942 0.0469148 0.0801155 -0.0831216 0.0567372 0.0628309 0.011262 -0.0837739 -0.0561684 0.00574887 0.058942 0.0643151 -0.0148899 0.0907991 0.117928 -0.00395373 0.00384961 0.137968 0.038303 0.000639998 0.0899573 -0.0190474 0.0586982 -0.0356185 -0.0401895 0.0526135 0.0369031 0.0851179 0.0410806 -0.035659 -0.042526 -0.150039 0.0700986 0.0728251 0.00157557 0.0300205 0.116541 0.0202484 0.0359098 0.169142 0.0447165 0.00860928 0.0647982 -0.0638288 0.0123778 -0.0492506 -0.0573535 -0.0612453 -0.0589696 0.0230223 0.0159604 -0.114177 0.0961705 0.0380428 -0.0378378 -0.0310065 -0.0724044 0.0787223 0.111512 -0.0773757 0.0552443 0.0207045 -0.00705941 0.0527295 -0.119248 -0.0145141 -0.0233139 0.0307128 0.0235674 0.0761487 0.0836155 -0.0232946 -0.0210524 -0.0672324 0.0209018 0.0396214 -0.00339517 0.0790647 -0.0427644 0.0832004 0.0231171 0.0247989 0.0616493 -0.0199012 -0.0306499 -0.115833 0.0814485 0.0818761 -0.0661074 -0.056748 0.000713387 0.0642921 -0.024199 -0.0245716 0.0317535 -0.0564048 -0.135438 -0.0261171 -0.0492754 -0.0835732 -0.0444196 -0.0348239 0.0877013 0.0253797 0.102318 -0.0388969 0.00539536 -0.00472166 -0.137302 -0.0633672 0.00584361 -0.035638 -0.0650706 -0.0916448 -0.00495438 -0.0363128 -0.16154 0.0257005 0.0608034 0.0109248 -0.0220334 0.00437975 0.0635264 0.0398313 -0.0781624 -0.0323207 -0.0603186 -0.0920624 -0.0840962 0.086545 -0.0541581 -0.0469808 -0.00904896 -0.028967 -0.0542336 0.0534352 -0.0167166 0.0395696 0.118398 -0.0139658 0.0320247 0.106337 -0.0037593 0.0111932 0.103897 0.00533574 -0.0105232 -0.0588806 -0.00277767 0.0325823 0.0532801 -0.0374895 0.0917912 -0.0545156 0.0451639 0.0301612 0.027082 0.0124548 -0.0584405 -0.0379478 -0.0422364 0.0692698 0.0204509 -0.0874324 -0.136022 -0.0324674 -0.0488754 -0.0517413 -0.00119199 0.00500557 0.0892126 0.0607442 -0.0154604 0.0461904 -0.0117096 0.0573097 0.0428152 0.0481379 -0.0287121 0.0271387 0.0989446 0.0123686 -0.0478487 0.0239914 -0.0906931 -0.00370193 0.022966 0.0394543 -0.0642267 -0.0454841 -0.0144219 -0.00143152 0.0597163 0.0491726
i 0.0535667 0.0152573 -0.0633032 0.101409 -0.0730479 0.00892808 0.0262776 -0.0499817 0.0341983 0.0860219 0.0811438 0.0103194 0.0387192 0.0372335 -0.00282861 -0.0631823 0.027234 0.0178381 -0.0448595 -0.00148915 -0.03735 -0.0304346 -0.0999076 -0.0108502 0.012929 -0.0488858 0.0971001 -0.0945905 0.0296309 0.0433048 -0.0455544 0.0970287 -0.054298 0.0165252 0.087392 -0.0709732 -0.039114 -0.127061 0.078943 -0.108828 0.0197916 0.0775751 -0.0297138 -0.0390113 0.010467 -0.0501012 0.0242322 0.0117772 0.0129062 -0.046929 -0.0337866 -0.0166928 -0.0493641 -0.0395608 -0.0799965 0.0214624 -0.0143074 0.0274664 -0.162036 -0.0111461 -0.00584766 -0.107496 0.149535 -0.00610416 -0.0406518 0.012852 -0.0659809 0.0383024 -0.0502096 -0.027823 -0.0376067 0.0371192 0.0649868 -0.111687 -0.0313884 0.0268806 0.051776 0.125169 0.0427257 0.0409626 0.0157868 -0.00850641 -0.0266743 -0.0144769 -0.0577116 -0.0175066 -0.042875 0.0391184 0.0892766 -0.0152453 0.0359982 -0.0128105 0.0574757 -0.108097 0.0359968 0.132766 0.0566742 0.0536497 -0.0139885 -0.0735443 -0.0138188 -0.069143 0.117525 -0.0397587 -0.0614733 0.0640112 -0.069468 0.0879823 0.0253933 -0.0027605 0.0273385 -0.00687568 -0.0275025 0.0223713 -0.011024 -0.00161902 0.024624 0.0653123 -0.0304191 0.0939917 0.0208797 0.0292825 -0.0733422 0.0732237 0.0441571 0.047354 0.0604157 -0.0581795 0.0861633 0.0626247 0.0159535 0.0261821 -0.0723274 0.000703611 0.0278755 0.0281198 -0.0560639 0.0169692 -0.00683357 0.0549813 -0.089741 -0.0335492 0.0505667 0.00622893 0.0766915 0.150273 -0.0758797 -0.0122939 -0.025985 4.44388e-05 -0.071305 -0.0346843 -0.0694911 -0.0555471 -0.0918608 -0.00164001 -0.112094 -0.0430666 0.14151 0.0481649 -0.0632349 0.0975978 0.0303996 0.0616918 0.0806787 -0.0755755 -0.025191 -0.0461179 0.0424992 -0.0435795 0.0247656 -0.0320579 -0.0188078 -0.0423325 -0.0464437 0.0696961 0.0689218 0.136883 0.00386725 -0.0181723 0.123851 -0.0745197 -0.00260154 0.039556 0.0143726 0.119209 0.0367358 0.0465729 0.0534704 0.00685002 0.0173598 -0.026164 0.0859999 0.0233275 0.031095 -0.00610884 0.0243673 -0.0205095 -0.0700729 0.00220385 0.081552 -0.0385372 -0.0370195 0.0109033 0.0352392 -0.0204649 -0.0247153 -0.00332535 0.105018 0.082746 0.16291 -0.0254306 0.0510093 -0.0184616 0.000548107 0.0311503 -0.0102706 -0.130508 -0.106571 0.000378168 -0.012871 -0.0388535 -0.0727023 0.0267945 -0.0660805 -0.0106954 -0.0901014 -0.099328 0.00891471 0.0905057 -0.0117256 -0.00797723 -0.0554361 -0.0330106 -0.0994576 0.0503034 -0.0445432 -0.0667089 -0.116995 0.0477354 -0.00546727 -0.0347446 0.0231613 -0.00794015 0.0390785 0.112618 0.0489076 -0.0803127 0.0294593 0.0341832 -0.0958385 -0.0200355 -0.0309747 -0.0307818 -0.076074 0.0421593 0.0246787 -0.00107775 0.0184837 -0.00861013 0.00752594 -0.000377351 0.0269484 0.0412173 0.0171382 0.0328264 -0.00159817 0.0182933 -0.0205114 -0.000310803 -0.0500508 0.000241283 -0.0688597 0.0980023 -0.02098 -0.0304063 -0.0190763 0.0531778 -0.00596768 0.0591437 -0.00998951 0.0528892 -0.00253581 0.0724488 -0.00904658 0.0724581 0.0597799 0.037528 -0.111551 0.0092786 0.075266 -0.0717728 0.0703992 -0.00772368 0.0119952 -0.029803 -0.0442254 0.0554288 -0.0186752 0.0551242
– 0.0734679 -0.00728698 0.0828782 -0.0541141 -0.0175752 -0.0797087 0.0895904 0.00477316 -0.0395965 -0.0307048 0.0460916 -0.0572353 0.0618648 0.0841217 -0.0997308 -0.0231891 -0.0945499 0.0309298 -0.0719115 0.0805588 -0.0321414 0.0611505 -0.0683434 -0.0304109 -0.127525 0.000920666 0.0076276 -0.0486731 0.0757844 -0.0705691 -0.052918 0.121076 0.0257495 0.0196764 0.0408994 -0.0425569 -0.0330468 -0.0830497 0.0157465 -0.0471271 0.0685884 -0.00417764 -0.0480787 0.0152468 0.00100107 -0.0361333 -0.0396519 -0.0397739 -0.013273 0.0812833 0.0131764 -0.021681 -0.0403076 0.0347508 -0.0170432 -0.0503527 0.0748738 0.00573148 -0.00514553 0.0349125 0.0786188 -0.0723156 0.0278242 0.0332301 -0.059544 -0.0200382 0.0230582 -0.0266011 -0.0298953 0.00299046 0.0128538 0.0172226 0.0364531 0.0663737 -0.0099256 -0.00490414 0.0669563 0.013603 -0.0210729 -0.0114273 0.0826802 0.123443 -0.0122438 -0.0185969 0.0317409 0.0166379 0.0595594 0.0214402 -0.0351787 -0.066991 -0.0163882 -0.0538255 0.0239645 -0.0721201 -0.00697369 -0.0648959 -0.00395614 0.0220272 0.0151028 0.0895631 -0.0249034 -0.0277445 -0.0302181 0.0509999 0.0876683 0.00831675 -0.0292975 0.0226869 0.0276551 -0.0520076 0.0273011 -0.0272334 -0.0487181 -0.10476 -0.0106687 -0.0549603 0.0387292 0.0160919 -0.0372166 0.0563219 0.159361 0.0452465 -0.0280224 0.0479285 0.0152092 -0.0524976 -0.0166119 -0.00705297 0.0681707 -0.0997025 -0.0088887 0.00600974 -0.0193356 0.0148657 -0.016938 -0.0221356 -0.0388102 -0.147054 0.0336503 0.0971834 -0.0130515 0.0406335 0.0823826 -0.0119582 0.0254261 0.184281 -0.0227892 -0.0768515 -0.0111349 -0.0813823 0.0403933 -0.0697991 -0.0657603 -0.0264239 -0.138573 -0.0138798 0.00455529 -0.0267607 0.110711 -0.00206143 -0.0148085 -0.00995996 -0.0651084 0.0808842 0.0912939 -0.0360281 0.0772438 0.0322778 0.0318838 -0.0192318 -0.0205341 0.0254149 -0.0606721 -0.0602726 0.0259185 0.077676 0.0797809 0.0420828 0.00123396 -0.0793984 -0.00557098 -0.0385231 -0.0331373 0.0352129 0.0222634 0.0873168 -0.0344353 0.00413166 0.0243416 -0.0541574 -0.0346285 -0.133007 0.0523398 0.0568708 -0.0129227 -0.0382373 0.052012 0.0801189 -0.0139084 -0.0394086 0.00771578 -0.106608 -0.166124 0.00954767 -0.0115269 -0.0622938 -0.0223932 0.00263214 0.163285 -0.0602271 0.135027 -0.0237166 -0.00319122 -0.0220194 -0.0963076 -0.121553 -0.0242567 -0.110317 -0.107247 -0.101655 -0.0255461 -0.0541099 -0.119306 0.0394052 0.00540501 -0.076397 -0.0098354 0.00346711 0.0423725 0.0818973 -0.0404163 -0.0257459 -0.0373759 -0.0354321 -0.0884506 0.0444406 -0.0627248 0.0186438 -0.0184263 -0.0365556 -0.0764171 0.0286137 -0.0488532 -0.0391903 0.0918197 -0.0443147 0.0331482 0.0563886 0.0368178 0.0292324 0.044165 -0.0311535 0.0343704 -0.0290179 -0.00627768 0.107819 -0.0387609 0.0848236 0.0670445 -0.038684 0.00053967 0.0349714 0.0178019 -0.00729405 -0.0115472 0.0732713 -0.0403519 0.104281 0.00178584 -0.0105982 -0.0243503 -0.0171178 -0.0132305 0.00829742 0.00411624 -0.0159381 0.124785 0.114808 -0.0121912 0.0972125 -0.034339 0.0666655 0.00413975 0.116961 0.0167399 -0.0122564 0.0392691 -0.0113041 -0.048884 0.0988729 -0.032994 -0.0570744 0.0640601 0.0816049 -0.069403 -0.0129606 0.0198069 0.056742 0.0644648 -0.0641515
na -0.0563311 -0.0277296 0.096662 0.0805041 -0.0686482 -0.0451398 -0.0100796 -0.0484762 0.0409169 -0.0827646 0.0595875 0.0516479 -0.0457574 0.0550209 -0.0379784 -0.106547 -0.07634 -0.01981 0.0380046 0.0232633 -0.00325262 -0.0170683 -0.13338 -0.0311358 0.00244716 -0.0327539 0.0560402 -0.0568734 0.0429513 0.0462668 -0.0429229 0.0369307 -0.0555994 0.0705999 0.00827372 -0.000967113 -0.0368085 0.0700663 0.057508 -0.0969565 0.0756732 -0.0295131 -0.0230151 -0.0258546 0.0234768 0.0515546 0.0749617 0.0619647 0.0459011 -0.0282044 -0.0228545 -0.0873669 -0.0769143 0.0358692 -0.00643509 0.0419602 0.0318279 0.0581216 0.000657143 -0.0260582 0.0476928 -0.0776961 0.0629437 -0.0413949 -0.0618826 0.0254999 0.0542637 0.00828622 0.0520297 -0.0358848 -0.00975818 0.00230194 -0.0215196 -0.0404178 -0.00136409 0.0404588 0.0997227 0.112803 0.0417636 -0.112112 -0.0463368 0.00306243 0.0276471 -0.0323969 0.0687302 0.013535 -0.07558 0.0977783 -0.00303629 -0.0540527 0.0660435 -0.0899569 0.148161 -0.100888 0.0773476 0.0134275 0.000854797 0.0355766 -0.0205741 0.0548723 -0.0145249 -0.016252 0.069545 0.0609475 -0.0512204 0.0374038 -0.0362172 0.0269754 -0.0148429 0.0287319 0.063785 -0.0814898 -0.023138 -0.00335909 -0.0281123 0.00353268 0.0196274 0.0947059 0.0134267 0.0209256 0.0400374 0.014914 -0.0611824 0.00233553 0.0197481 0.019729 0.100243 0.0200109 0.0274802 0.0139647 -0.00191359 0.0104552 -0.0439465 -0.00903216 -0.00292711 0.0203591 0.0483011 0.116861 -0.00488149 -0.0408384 -0.0343186 0.020031 -0.0403004 0.0733705 -0.00970175 0.109391 0.0595642 -0.0940203 -0.109407 0.00101708 -0.0213734 -0.133461 -0.053862 -0.00387319 -0.0608561 -0.133412 -0.053776 0.00962842 0.0478182 -0.0109817 -0.113003 0.0569719 -0.0126866 -0.043873 0.108016 0.0784624 -0.00518254 -0.0960687 0.0601104 -0.0533712 -0.102592 0.0528945 -0.0454533 -0.0176186 -0.0785056 0.0238365 -0.00434462 0.048821 -0.00396244 -0.0685681 -0.00224886 -0.00377597 -0.0413126 0.031994 -0.027172 -0.0144072 -0.00110461 0.054697 0.019096 -0.11659 -0.0883168 -0.0200704 -0.0226786 0.0367343 -0.0733657 0.0337571 -0.0914277 0.106533 -0.0836872 -0.0661652 0.0458809 -0.0192629 -0.038728 0.053103 -0.0240364 0.0146515 -0.0884888 0.112562 0.0102809 0.176921 0.0719865 -0.0232164 -0.0562679 -0.0274454 -0.0922072 -0.0268698 -0.057313 -0.131692 -0.0294451 -0.0395646 -0.0343864 0.016857 0.0189026 0.0104608 -0.0258775 -0.0243775 -0.00569615 -0.0466502 0.0962465 0.0646138 0.00849317 0.000402836 -0.0294596 0.0286909 0.0537406 0.062743 -0.0435427 0.0441003 0.0181358 0.0202156 -0.00851495 0.000363359 0.0801351 -0.0147365 0.0457367 0.12478 0.101221 0.00197142 -0.0569796 0.0977356 -0.0320733 -0.0262693 -0.000890008 -0.0620181 -0.0621085 0.150801 -0.072419 -0.09724 0.0832312 0.0336948 0.00273511 -0.0478121 -0.0744738 -0.00261933 -0.0381702 0.00678254 0.0408581 -0.0531304 -0.0338285 0.0457958 -0.105359 0.0275581 -0.00201859 0.069405 -0.0568598 -0.0650586 0.0324258 0.066425 0.0786419 -0.0260187 0.0747122 0.0493788 -0.066205 -0.0391159 0.113424 0.0172471 0.10207 -0.0435272 -0.0566202 0.00540307 0.0329974 -0.083816 -0.00251605 -0.0192779 0.0576673 0.00355374 -0.057782 0.0603611 -0.0317163 -0.0661729
z 0.00863186 0.0466725 0.072618 0.142238 0.00675197 0.0551264 0.0775888 -0.10848 -0.0185174 0.026569 -0.0163873 -0.0495086 -0.03923 -0.0392063 -0.0763826 -0.0450857 0.0241791 0.0288136 -0.0279924 0.0992272 -0.0652767 0.0164775 -0.114314 0.0419852 0.0469231 0.020846 0.0132861 -0.0184989 -0.132951 -0.0221517 0.00161201 0.120856 -0.0590259 -0.0376124 0.0682824 -0.0153976 -0.0471991 -0.126632 0.0635659 -0.0496766 0.161747 0.0122589 0.00486649 0.034628 -0.0147329 -0.00020252 0.0538447 -0.0370762 -0.00556391 0.00245854 0.00651743 -0.0779372 -0.0141475 -0.00378995 -0.0304211 0.0928751 -0.0578732 -0.0490914 -0.0793525 0.0252134 0.078892 -0.16826 0.0411844 -0.0286699 0.0184578 0.011433 -0.0763018 0.0374934 -0.0262598 0.0268939 -0.0349051 0.0531431 0.00495954 -0.125929 -0.0447145 0.00688552 0.0495411 0.112646 -0.00650721 -0.0354024 -0.00012218 -0.0414036 0.0211469 -0.0100925 -0.0308578 0.0395296 -0.024637 0.0401536 0.0240073 -0.0606698 -0.00171451 -0.0784185 0.0491898 -0.0863173 -0.0075964 0.0329957 0.00725611 0.0685336 -0.023237 -0.0468912 0.0387915 0.0414591 0.0722857 0.0670296 -0.0956863 0.000293829 0.0444023 0.121287 0.0166498 0.0189891 -0.0131019 0.0236235 0.0239621 -0.108734 -0.0392549 -0.0141053 0.047566 0.0731379 0.0126962 0.146524 0.0448116 -0.0585229 -0.0319186 0.0443987 0.0877047 -0.0444684 -0.0440713 0.0912435 0.0440719 0.042518 0.0345273 -0.0177592 -0.0983796 0.00780722 0.0199261 -0.0229095 0.0251407 -0.0086852 -0.0343828 0.0642428 0.0341687 0.0429053 0.0674129 0.00820463 -0.0587968 0.0822438 0.00256676 -0.0110973 -0.0269455 -0.024913 0.00584794 -0.0640016 -0.0310487 -0.00586187 -0.031631 -0.0467213 0.00174422 -0.0320753 0.0177058 0.0168485 0.0745676 0.0547999 0.0879082 0.00655819 0.0549278 -0.0614198 0.0458385 -0.0128925 0.0958199 -0.0276473 -0.0117714 -0.110501 -0.0546583 0.026454 -0.0639525 0.0335905 0.0562515 0.0755842 0.0730829 0.0392601 0.0895045 -0.00656756 0.00547933 0.098039 -0.0438574 -0.00737323 0.0687399 0.0627223 -0.0286937 0.0128666 0.0152823 -0.0680889 0.125501 -0.0189055 -0.0365072 -0.0218036 0.0578813 0.000656447 -0.074571 0.0181083 -0.00116151 -0.0702733 0.024666 -0.0377962 0.0638732 -0.0212222 0.016426 0.0110207 0.104497 0.0858222 0.022413 -0.0649399 0.0789815 0.00259103 0.00708075 0.00479807 0.0728225 -0.181776 -0.0183102 0.0717245 -0.0673682 0.0572803 -0.0731018 0.0266632 -0.0623809 -0.0205563 -0.0770683 0.0121393 -0.0416333 0.0311029 0.0308456 0.0046315 0.00980152 0.0403675 3.64284e-05 -0.0579708 0.0524169 -0.0374744 -0.0120271 0.147732 0.00652398 -0.0690563 0.108598 0.0723562 0.0489299 0.0398268 -0.00376799 -0.0107726 -0.023865 -0.0162221 -0.08865 -0.0554415 0.00447795 -0.0732329 -0.061999 -0.0016176 -0.0446524 -0.0861924 -0.0227354 -0.0692044 0.0450315 0.0771143 0.0842387 0.028818 0.0230367 0.074343 0.00984675 0.0455586 0.0771026 -0.0307779 -0.0688822 -0.0807236 -0.00189526 -0.0363098 -0.0357555 0.00720147 0.00584262 0.0858919 0.0720289 -0.00855163 0.0536799 -0.0154711 -0.0195291 0.0168192 0.0604685 0.0042969 0.0131388 0.184304 0.00688964 0.0938035 0.080394 -0.050319 -0.0434355 0.13595 -0.0204371 0.0596185 -0.0357844 -0.0119806 0.0220796 -0.0875362
do -0.0118619 0.0478559 0.00307861 0.0609283 -0.0391567 -0.0716634 -0.00652773 -0.0444188 0.0121611 0.0449177 -0.0212917 -0.0557325 -0.0514091 0.0337531 0.0989615 0.028614 -0.0667971 0.0398415 0.0246665 0.0592954 0.0121294 0.025667 -0.0772343 -0.0457351 -0.0414539 0.0323643 -0.0204414 0.000624714 0.034949 0.0195829 0.0260869 0.0939035 -0.0618522 -0.0360471 0.0457664 -0.0544224 0.0429451 -0.212996 0.0329568 -0.0532024 -0.0207643 -0.00302112 -0.021837 0.0850086 -0.00984242 -0.080149 0.0200959 0.0272806 0.0592129 0.0776379 -0.0272038 -0.138957 -0.0179076 0.018433 -0.0911521 0.0936214 0.0782635 -0.0332278 0.0579922 -0.0160782 0.0700109 -0.117744 0.220147 -4.88145e-05 -0.011755 -0.0793239 -0.0856674 0.0235281 -0.057128 0.0300441 -0.103115 -0.0031728 0.02227 -0.0513283 -0.0339263 0.00942152 0.0440198 0.150307 -0.0136002 -0.0945495 -0.0660124 0.108975 -0.152267 -0.00221897 -0.0129546 0.021332 -0.0127654 -0.0311466 0.0624944 -0.000207026 -0.143269 0.0153551 0.154097 -0.100306 -0.0386545 0.0464869 0.0282057 0.136233 0.0010802 0.0374706 0.085898 -0.061702 9.47141e-05 -0.0676716 -0.0426062 0.0735994 -0.0920431 0.0474191 -0.00175827 0.0405648 0.0404588 -0.0733177 0.0044554 -0.0413714 -0.0472793 6.60547e-05 0.0463962 0.0340393 -0.00699905 -0.00240344 -0.0112418 0.087183 -0.0409005 0.0508172 0.0516649 -0.0336149 0.0949705 -0.0338776 0.0345584 0.0916888 0.0619349 -0.0282715 -0.100059 -0.015509 -0.0710261 -0.00273861 -0.0151489 -0.0532985 -0.0443306 0.0675127 -0.0218696 0.0367985 -0.0201339 0.0279971 0.0416428 0.111017 -0.00284028 -0.108746 0.103602 0.0743671 -0.0315181 0.0183078 0.0221614 0.0141021 0.0302251 -0.00213971 -0.00278704 0.0900408 0.131276 0.00468368 -0.0350343 0.116072 -0.0638708 0.00404653 0.0113359 0.0144781 0.0359348 -0.0848401 0.136277 -0.00502528 -0.0368534 -0.0424832 -0.0111006 0.0482494 -0.0535288 0.0764644 0.0477771 0.00705483 -0.0425902 0.0462017 0.0571068 -0.0412115 0.0712215 0.0253631 -0.0189779 0.0545607 -0.0745234 -0.0211822 0.0155558 -0.0170005 -0.0622517 -0.0197373 0.0461737 0.045935 -0.0339739 -0.0114746 -0.0147592 0.0126358 -0.00288151 -0.013927 -0.0400093 -0.0177768 -0.0207427 -0.0362026 -0.0355588 -0.0315838 0.0449782 0.0892263 0.0850951 0.107057 -0.00710672 -0.0777601 -0.0219962 0.0551698 -0.0162467 -0.0290548 0.0803748 -0.0509935 -0.00275731 -0.0143501 0.130443 -0.00853707 -0.0420186 0.0109502 -0.00175653 -0.0354132 -0.0497944 -0.0603644 -0.0215364 -0.00186545 0.0513444 -0.0138033 0.116477 -0.0154473 -0.069734 -0.0150219 0.0085114 0.0389902 -0.0399214 -0.00387973 0.0530483 0.0275154 0.0713989 -0.0289128 -0.0513522 0.0693877 0.0702583 -0.0961881 -0.0251173 0.0235466 0.0228466 0.0303361 -0.0992103 -0.0757868 -0.0207431 0.046539 -0.0908043 -0.0517198 0.0229172 -0.0468901 0.0122349 0.00854422 -0.0354307 0.0327675 0.0180108 0.0389693 0.0509193 0.0634488 0.0962974 -0.00606762 -0.0657969 -0.0356266 0.0781353 0.00556648 -0.0067588 -0.0099641 0.0266444 0.0920003 0.0222221 -0.0162869 0.0649777 0.0284443 -0.0130919 0.000329986 0.0176413 -0.0400953 0.00257548 0.0614181 0.0235728 0.0207835 0.00422439 0.0331116 -0.0177223 0.110338 0.00765719 -0.00661505 -0.0547846 0.0435022 0.0836666 0.019216
się 0.0470943 0.0065172 0.0271967 0.0435775 -0.0882738 0.0345032 -0.0357192 -0.0079974 -0.00264871 0.0535686 0.00938095 0.000159685 0.0181098 -0.00212368 -0.0375286 -0.0603099 0.0530533 -0.0150179 0.0100456 0.0826952 0.0274651 -0.0183656 -0.0268645 -0.115202 -0.0347062 0.0286546 0.0478709 -0.00891973 -0.049152 0.00826683 -0.0806773 0.0776317 -0.00902398 0.00269478 0.00389394 -0.0162122 -0.0877835 -0.00204926 -0.0370787 -0.0739998 0.020516 -0.0226062 -0.0184979 -0.00729521 -0.0459122 0.0882453 0.0612704 -0.0349151 0.013978 0.0396386 0.0430259 0.0212167 -0.0170464 0.0242949 -0.0466764 0.0491328 0.0231235 0.0362446 -0.00718735 -0.0323032 0.035828 -0.138615 0.0577686 -0.0431138 0.0699144 -0.0214095 -0.122927 0.10992 0.0281199 -0.0663194 -0.10262 -0.0409487 0.0605497 -0.0259871 -0.0550026 0.0655423 0.0677309 0.0741108 0.0368431 -0.0415045 -0.0324695 -0.0170189 -0.0265198 0.0131046 -0.0178629 0.0086317 0.00581373 0.0519415 0.0204583 0.0514696 -0.0307518 0.00852821 0.163928 -0.117652 0.0486287 0.129378 0.0405733 0.0579235 -0.00235194 -0.0193774 0.00558069 -0.0333024 -0.0238398 -0.0614086 -0.0508638 -0.0185938 0.00725315 -0.0369335 -0.0197095 0.0724538 -0.00412457 -0.0518517 -0.0613714 0.045208 0.0380566 -0.00598067 0.0516865 0.0179308 0.0286565 -0.0126713 0.0742735 0.0151187 -0.0250678 0.142438 0.0302118 -0.000276584 0.0944463 -0.0181533 0.0155764 0.0507783 0.0753077 -0.0216817 -0.0518924 -0.0166375 -0.100767 0.0136026 0.00575107 -0.013549 -0.0300963 0.020029 0.000648767 0.0566789 -0.0933759 0.0675296 -0.026586 0.0904088 -7.25734e-06 0.0911371 -0.032084 -0.00981338 0.0613232 -0.100839 0.0526193 0.108443 0.0344594 -0.000648625 0.0875133 -0.0895159 0.0681647 0.0485786 -0.0544946 0.130776 -0.0550231 0.116685 0.0150567 0.0723379 0.0221874 -0.0848299 0.0236585 -0.0774807 0.0282416 -0.0506893 -0.0644823 -0.106273 0.040178 0.112935 0.0677454 0.117657 -0.139943 -0.0918253 0.0938319 -0.00488799 0.0149095 0.0499867 -0.0142835 -0.0943571 0.0418244 0.0299006 -0.0115349 -0.0617336 0.00940902 -0.0523034 0.00196087 0.0297157 -0.0256934 0.0821691 -0.00299965 0.00196847 -0.18899 -0.0638723 -0.0147008 -0.0252838 -0.00281092 0.0202738 0.0222064 -0.0835083 -0.0236287 0.0070138 -0.00112424 0.142389 0.0937438 0.0344408 0.0523659 -0.0768109 0.0588117 0.00347739 -0.0742077 -0.099273 0.0496341 -0.039711 -0.0151543 -0.0537062 -0.0208358 0.0660845 -0.00383807 -0.00792785 -0.0538869 -0.0131773 0.0126293 -0.0249598 0.0414232 -0.0334694 -0.0121016 0.0146582 0.047802 0.0453314 0.106053 -0.0177859 0.0298546 0.0924749 0.113727 -0.014332 0.035968 0.0637526 0.0939416 0.0338886 -0.0370257 0.10741 0.0288783 0.0129561 0.0615799 -0.0311872 -0.0703521 0.0387519 -0.0164924 0.00506957 -0.0158521 -0.130909 0.0929575 -0.0404004 -0.0304307 0.154414 0.0122321 -0.0518141 0.0142927 -0.0297769 -0.0406561 0.0293321 0.0620455 -0.0280625 -0.0307453 0.00544654 -0.0871143 0.115931 -0.0199943 0.00900616 0.0557046 0.0739594 -0.0034768 0.0236649 -0.0629952 0.00768211 -0.0770018 -0.0284747 0.0682265 -0.0496145 0.10947 0.0865474 -0.0245569 0.0427927 -0.0648834 -0.0062048 -0.0547158 0.0688462 0.00741533 0.0542588 0.0199216 0.0223313 0.0339742 0.0668634
align -0.0411904 -0.00144538 -0.0328842 -0.0392029 -0.0605675 -0.102495 0.0201232 0.0654476 -0.0592579 -0.0501351 0.0266754 0.0667044 0.0360072 -0.0759056 -0.0213366 -0.0217692 0.0310235 0.0265644 0.0173587 0.063772 0.0188479 0.0354411 -0.0844743 -0.0808856 -0.177273 -0.0584901 -0.0340172 -0.024414 -0.0344726 -0.0345993 0.00401019 0.127456 0.00189683 0.0651123 0.0782132 -0.0620115 -0.00255849 -0.00926772 -0.00470607 -0.0641014 -0.0433985 0.0136804 0.0113896 0.0156242 0.0251684 -0.015659 -0.0281822 -0.0138585 -0.0117504 0.026048 -0.0137571 -0.108346 -0.0400135 -0.0813222 -0.0713593 -0.0762614 0.0042904 -0.0197981 -0.0921466 0.0858944 -0.0254416 -0.00301692 -0.0237701 -0.0505649 0.0352402 0.0687711 -0.0232876 0.0438895 -0.136419 0.044314 -0.0911719 -0.0421148 0.0947508 0.113974 -0.0286778 0.0573197 -0.029081 0.0401506 -0.0172393 -0.0188553 0.00844787 -0.0212219 0.0814166 0.0431132 -0.0323438 0.00244249 0.0259177 -0.0757431 0.0685458 0.0112721 -0.0339169 0.0596019 -0.0648612 0.047465 -0.0636721 0.0329298 -0.0216842 0.00257563 -0.0706747 -0.0614253 0.0352724 -0.12546 -0.0706219 0.0537898 0.00981998 0.112987 0.00993425 -0.124479 0.0637324 -0.0105607 -0.0250864 -0.0102887 0.0235135 0.0113927 0.0854006 -0.0571415 0.0668149 -0.0086352 0.0408289 0.0664548 0.00533951 0.0365568 -0.0772027 -0.0459772 0.0438103 -0.0184192 0.107084 0.081479 -0.0603109 0.0125822 0.0541573 -0.0616876 -0.0802366 0.0687377 0.0593015 -0.131119 0.0378454 -0.0947439 0.161176 0.0299355 0.00374672 0.027229 0.0825572 0.06054 0.0206435 0.110755 0.0887119 0.0238028 -0.037684 -0.0161679 0.00128092 -0.0235719 -0.0874368 0.071622 -0.0348602 -0.0409916 -0.0241017 0.0187427 -0.0311984 -0.0539183 -0.0304049 -0.00116293 -0.028807 -0.0279636 0.101521 -0.0596536 -0.0521877 -0.0501762 0.0467108 -0.116879 -0.075893 -0.0669902 -0.107606 -0.0242515 0.0473073 0.131178 -0.0768523 -0.0633568 -0.0705463 -0.0516051 -0.0077066 -0.0515021 -0.0246767 -0.0638032 -0.059033 0.0811154 -0.00516615 0.0173736 0.0962402 -0.00404259 -0.0235412 0.00762531 0.00516088 0.0738249 0.030355 0.00555445 -0.0260886 0.0544333 -0.0717475 -0.030095 0.0752411 -0.0377583 -0.033842 -0.019959 0.0557492 -0.0340453 0.0998829 -0.017062 0.168922 -0.0448331 0.077499 0.0536843 0.0533732 -0.018648 -0.0869427 -0.0392755 0.0351266 -0.0584788 -0.0673256 0.05646 -0.0245607 -0.0238151 -0.0492952 0.0191634 0.0380517 0.0193783 -0.0137899 0.0450511 0.053336 0.000496669 0.0434755 -0.0209319 -0.0628131 0.00368684 -0.00237988 0.0588258 0.0224712 -0.0111822 0.0201646 -0.00235225 0.00102203 0.00683346 -0.0267431 -0.135515 -0.0775156 -0.0891572 -0.081067 -0.0944837 -0.00352564 -0.0946309 0.0769181 -0.0973573 -0.0331118 0.0590177 -0.0254295 0.00765483 -0.0220077 -0.0733905 0.078207 0.00414892 0.0893823 -0.0292595 0.0542825 0.0129061 -0.0296583 -0.0762432 0.0252549 0.0663696 -0.0467314 0.00796759 -0.0413859 0.0293522 0.04691 0.0311236 -0.0776683 -0.048994 0.0513055 0.0802778 0.0331675 -0.0188052 0.0343346 0.0600063 0.103893 0.0588695 0.0441951 0.0852239 -0.0260318 -0.0410284 0.0596459 -0.0697374 0.0115188 -0.00175264 0.0673973 0.00674066 -2.32748e-05 0.0384669 0.0159517 0.0148946 0.101871 0.00215205
roku -0.0434294 0.00671167 0.000162806 0.0333326 -0.0990579 0.0345978 -0.0153376 -0.0404674 -0.00861133 0.0920422 0.065026 0.00954933 0.0468754 0.0442672 -0.0360303 0.0470996 -0.0284597 -0.0635645 -0.0606615 0.0354284 -0.0490918 0.037023 -0.0315093 -0.057068 -0.0160805 0.0203051 -0.050716 -0.0687644 0.0463767 0.0279079 -0.0779499 0.0806676 -0.0272534 -0.0153723 0.0701197 -0.0360061 0.0872301 0.0129183 0.0662461 -0.00870462 0.00223829 0.0214608 0.00254511 -0.0130428 0.0364988 -0.128336 0.00760147 0.0379942 0.0139829 0.000779662 0.0333178 -0.0630992 -0.0799086 0.0961002 -0.0531168 -0.00215268 0.0132523 0.138522 0.0747332 0.0601327 0.109124 -0.0343798 0.0603592 -0.0494057 0.00689993 -0.0987396 -0.107285 -0.0125168 -0.058239 0.0714015 0.0427008 0.0203217 -0.0791256 -0.0906123 -0.0356849 -0.0275785 -0.0354311 0.137194 0.001044 -0.059796 0.0292563 0.13052 -0.0362984 0.00336575 -0.0307507 0.0168426 -0.0678634 0.0946957 -0.0412349 -0.0147003 -0.0715879 -0.0466234 0.117355 -0.0623501 0.0250053 0.00561331 -0.0816221 0.0462636 -0.0509036 0.0528974 -0.0946528 0.0237101 0.0168348 -0.0407497 -0.0365591 0.00646462 -0.0279644 0.0773297 0.0100637 0.0240709 0.0394635 0.0168764 -0.0324585 0.0176601 -0.0409752 -0.0345562 0.0851049 0.0574544 0.0871007 0.0907827 0.0774958 0.0363552 -0.0487333 0.114901 0.0220937 -0.088944 0.0518375 0.0579959 0.106751 0.032693 0.0130206 0.0213619 0.00133079 -0.0591354 -0.00157472 -0.0422365 -0.0245714 0.0107384 -0.0492385 0.081753 -0.0333401 -0.00380712 0.00259282 0.0298905 0.0594236 0.189714 0.0111698 -0.0251121 -0.00792012 0.018434 0.0884998 -0.0106717 0.000129021 0.0580862 -0.0916544 -0.0457362 0.00622823 0.0311252 0.0584303 0.0639069 0.0192717 0.100939 0.039998 0.0428898 0.150138 -0.0322391 0.000576861 0.07612 0.0546807 -0.013818 -0.0125404 0.0683534 0.011111 0.0112534 0.0182133 0.0362953 -0.0345247 0.0517962 -0.0460125 -0.0104359 -0.00528063 -0.0149998 -0.047157 0.0567007 -0.0418952 0.0489492 0.0533455 -0.0549927 -0.0310001 -0.0213888 -0.0488288 -0.0348709 0.0831115 0.0628623 0.00280926 0.0950247 -0.0537699 0.0549207 -0.0862936 -0.101896 -0.0286379 0.00869299 -0.00436231 0.0322964 0.040495 -0.000884532 -0.0247823 -0.0401776 0.142181 0.0896618 0.0852057 -0.0780953 -0.0531318 0.0161678 -0.033951 0.0450349 -0.0400817 -0.110607 0.0238461 0.0108744 -0.0271003 -0.103113 -0.0355712 -0.00885413 -0.0207843 0.0835104 -0.0907496 -0.087139 -0.0385304 0.0881411 0.123255 -0.0055267 -0.0308911 0.072848 0.100999 -0.0579454 0.0164671 -0.100687 -0.0116546 -0.00687294 -0.0454992 -0.0569813 0.08519 -0.0256613 0.0939163 -0.070957 0.0187163 -0.058832 -0.00896797 0.00550256 -0.0406393 -0.087479 0.0219781 -0.0492843 -0.0579093 0.00837041 -0.0407888 0.0249601 0.027534 0.0304431 0.0692437 0.0660774 0.0957847 0.0113193 0.0243291 0.0186047 0.00871999 -0.0366595 -0.00337441 -0.059999 -0.0791521 0.0179217 0.0125799 0.0325879 -0.17591 -0.103245 0.0353616 0.0867538 0.0589321 -0.075277 -0.0225952 0.0483467 -0.0313849 0.0382935 0.0573387 0.0229988 -0.0667951 0.051791 0.0584308 -0.0389651 0.0691961 -0.0135039 -0.0364836 0.067632 -0.052555 0.0212542 0.00851857 0.0163382 0.023169 -0.10302
a 0.0188372 0.0352856 -0.000270289 0.0686887 -0.0134184 0.0580816 -0.00176569 -0.0556431 0.0399798 0.0227149 0.0435044 -0.0395973 0.0907656 0.0474273 0.0207285 0.0771715 -0.0411039 0.0707775 -0.0484611 0.0359859 -0.0430375 -0.0310676 -0.0842412 -0.0489823 -0.0904208 -0.0305721 0.0670217 -0.145358 -0.0327779 0.124145 -0.0566238 0.102913 -0.0473771 -0.0304307 0.0456257 -0.0520206 0.0175846 -0.0519864 0.130547 -0.0126444 -0.00544768 -0.0290297 -0.0258864 -0.061353 0.0668529 -0.00274748 0.0168741 0.0340733 -0.0937639 -0.0198393 0.0377201 -0.0277746 -0.0942383 0.00845631 -0.0778581 0.0492302 -0.0517236 -0.0166465 -0.106559 0.102051 -0.00282812 -0.0634165 0.0519285 -0.0337883 -0.0515702 -0.0863899 -0.0340271 -0.0108176 -0.0619451 0.0634723 -0.0534684 -0.0256315 -0.082579 -0.092978 0.0211836 -0.0404416 -0.0101762 0.0952795 0.0111515 0.0783792 0.0219805 -0.00971293 0.0984959 0.0100562 -0.030442 -0.0580732 -0.0752202 0.00279926 -0.0102556 -0.0351646 -0.0195976 -0.0193401 0.0758058 -0.0704448 0.0265069 0.0782684 0.0174226 0.0159603 -0.000161708 0.0138339 -0.0701945 -0.0135007 0.082229 -0.0472714 -0.11502 -0.0115787 -0.00976547 0.0143974 0.0425209 0.0231586 0.0120888 -0.0245716 0.0713262 0.0447271 0.0697067 -0.0271556 0.0718232 0.0124091 -0.0381722 0.153535 -0.0243892 0.0132927 -0.0522836 0.0697504 0.0182048 0.00810041 0.0495036 -0.00562765 -0.00121261 0.0202855 0.0535309 -0.0213393 -0.0199556 0.0188263 0.0380469 0.12222 0.033 0.0282283 -0.00887542 0.0489007 0.0155216 0.0401077 -0.00593317 0.0219317 0.0334513 0.0225265 -0.0497969 0.0102132 0.0299734 -0.0159233 -0.0194876 -0.0758008 -0.0643302 -0.102288 -0.00843414 -0.001206 -0.0293361 0.026393 0.0787741 0.0839503 -0.0897614 0.159781 -0.0717601 0.0838984 0.0755991 -0.0686945 -0.00166665 -0.0271106 0.0682485 -0.0233511 -0.0806521 -0.110234 -0.101563 -0.105107 -0.0371572 0.0483203 -0.00208519 0.0121279 -0.0168725 0.0404948 0.0104267 -0.03953 -0.0605194 0.0354433 -0.0503751 0.123204 0.0342418 -0.0879238 0.0640898 0.0288785 -0.0821113 -0.0168621 0.0972962 0.118164 -0.0791245 -0.0266809 0.0543777 -0.0593829 -0.0869623 -0.0635398 0.0314618 0.104741 -0.068825 0.0355591 0.0291752 -0.0934131 -0.0403431 -0.00433585 0.00183764 0.0444442 0.0650746 -0.00873947 -0.112141 0.0379166 -0.109968 -0.0118416 -0.0664014 -0.0694845 -0.0984085 -0.0115157 -0.0382917 -0.0411074 0.0104116 0.0288864 0.0631133 -0.0100568 0.0108825 -0.134078 0.0218752 0.0598866 0.0404335 0.00548286 -0.0300004 -0.0252879 -0.0321978 0.121969 0.00358478 -0.0190876 0.0132943 0.0685246 -0.0225159 -0.000775686 0.0214678 0.0362165 0.0147682 -0.0239975 0.00569066 -0.0688292 0.012315 0.0344124 -0.0664803 0.0325684 -0.0980441 0.00143589 -0.0229866 0.055143 -0.0250887 -0.102858 -0.0278368 -0.0243073 0.0752345 0.00732277 0.103958 -0.00168012 -0.0115879 -0.0862881 0.0532984 -0.00533483 0.102379 -0.0852453 -0.0981797 -0.0178428 0.0260095 -0.0102777 -0.0864866 0.0067585 0.0770849 0.0563691 -0.0309836 0.02149 0.0815256 0.1028 -0.0520696 -0.0575875 0.0188769 -0.05658 0.0990126 0.0740397 -0.00728749 0.0430884 0.12621 -0.0311766 -0.0175245 0.0104143 0.0236713 0.00369234 -0.0412587 0.0969162 -0.0384439 0.0191972
jest 0.0259818 0.0563912 0.0408464 0.0668034 0.000580985 0.0434563 0.00558476 -0.052456 -0.0707158 0.105815 0.031592 -0.0135783 0.0206021 -0.03837 -0.0283989 -0.0253913 -0.039518 0.000647071 -0.000164688 0.0419116 -0.0805284 0.123263 -0.0328579 -0.0949616 -0.0256518 0.00611542 0.0655325 0.0683471 -0.0105472 -0.0321675 -0.0470648 0.135586 -0.0627595 0.0420581 0.0370678 -0.072492 -0.0812739 0.0635757 0.0177563 0.0221398 -0.0181152 0.00850193 -0.117357 -0.0321287 -0.0453412 0.0705127 0.0939118 0.0147567 -0.0155587 -0.0160645 0.0696207 -0.0322086 0.0633992 -0.0182948 0.0210929 0.0684185 0.108853 0.0633743 0.00613588 0.113338 0.0451657 0.0311871 0.081237 -0.011039 -0.0458148 0.0269462 -0.0268539 0.0293861 0.0578186 0.0106658 -0.0516774 0.0536037 0.0600535 -0.0389098 -0.0940142 -0.00616104 -0.00871418 0.100787 0.0426689 -0.0363135 -0.00183222 -0.0181385 0.00311462 -0.129395 -0.0157553 -0.0444779 -0.0931203 0.0699887 -0.0337554 -0.0321419 0.0791585 0.0853874 0.0339072 -0.0664703 0.00568818 -0.0649649 0.0158985 0.014267 -0.0564871 -0.0767069 -0.0440633 0.0599897 0.0840788 0.0240875 -0.0182534 -0.0437402 -0.0206421 -0.0128566 -0.0354334 -0.0340364 0.0164826 0.0401934 -0.0804374 0.0272549 0.0236972 -0.122618 0.0179774 0.0775511 0.0139174 -0.00108333 0.0362198 -0.0184469 -0.0841467 0.142856 0.0383313 0.0626545 0.0610322 0.0858153 0.0103674 -0.0244217 -0.0219782 -0.00571983 0.0098016 0.0363869 0.0273499 0.0274921 0.056711 0.0439252 0.0177578 0.0327811 -0.0302335 0.0481337 0.099148 -0.00163775 -0.0537406 0.0299482 -0.108484 0.024275 0.055423 0.0798824 -0.0378687 -0.0972488 -0.024487 -0.0216925 0.0187508 -0.062814 0.0133472 -0.0169763 0.138198 0.00815511 0.046749 0.0115344 -0.0984944 0.0162698 0.0944073 -0.0212462 -0.0125419 -0.0494929 0.0667015 0.00144735 -0.0728475 -0.105253 -0.0405832 0.0408386 -0.0372535 -0.0470837 0.0791795 -0.0429814 -0.0133276 -0.0192705 0.0090406 -0.0289547 0.0714533 0.0878407 0.00890648 0.0745673 0.0390722 0.00455315 0.100743 -0.0296718 0.015877 -0.0358163 0.00457169 0.104973 -0.0621716 -0.0460629 -0.0154704 0.00127962 -0.107129 0.00618134 0.0529038 -0.0918548 -0.0297733 0.0730851 -0.0392008 0.0359358 -0.0901557 0.102596 0.0812756 -0.018583 0.00747465 -0.0136742 0.0688628 0.108575 0.00174986 -0.0623629 -0.0517248 -0.157484 -0.0474201 0.0062989 -0.000455561 0.0100197 -0.0893161 -0.0186977 0.054864 -0.0191017 -0.0784711 0.0314612 -0.0439109 -0.0213559 0.00459939 -0.00474041 -0.0521881 -0.00708395 -0.113696 0.02124 -0.00981621 -0.0955912 0.0278669 0.0147785 0.0015545 0.00578032 0.0524252 -0.0558722 0.0176204 0.128515 0.104165 -0.0386246 0.0467676 -0.0381025 -0.0676886 0.098068 -0.0435173 -0.0561972 -0.0533818 0.0455036 0.0186694 -0.0272004 0.02771 0.0214602 0.064053 -0.0246596 0.0667837 -0.0463881 -0.0680477 -0.0446423 0.00262892 0.0977769 0.0415064 0.00871653 -0.0428555 0.0758595 0.0250544 0.0839191 0.0328463 -0.0386848 0.100585 0.0946061 0.0141667 -0.011578 0.104466 0.0166046 0.00638328 -0.012729 -0.0245486 -0.0343073 0.0563636 0.0953262 -0.139392 0.0437273 -0.0137939 -0.117808 0.0163244 -0.0468017 -0.0325517 -0.0693965 0.0534488 -0.0251727 0.131263 -0.103666
rd -0.100692 -0.0765306 0.00720831 0.0660398 -0.0146437 -0.0769125 0.0255089 0.0191746 -0.0104365 -0.0793473 0.0436052 0.0250668 -0.0241227 0.018156 0.0100422 0.0171025 -0.00109805 0.0435372 0.0105676 0.0595115 -0.064451 -0.0538307 -0.0541212 -0.0515769 -0.0831207 -0.0304419 0.070011 -0.0127826 -0.0282597 0.123158 -0.032627 0.0184605 0.0456468 0.0213566 0.0957583 -0.00450484 -0.0314825 0.12867 0.027442 -0.0201184 0.0224049 -0.0121713 0.0633508 0.0212128 0.100071 -0.0373634 0.0248746 -0.0643109 0.0288553 -0.0109761 0.0509047 -0.141861 0.0260682 -0.0988413 -0.0375327 -0.083333 0.104537 0.0151868 -0.0422034 0.0282629 -0.0121671 -0.00320951 -0.0232455 0.00595333 -0.0193502 0.0157876 -0.0156896 0.0341813 -0.108844 -0.00749769 0.0293483 -0.0234077 0.0452022 -0.0902787 0.0112426 0.101855 0.0556078 -0.033547 0.0286404 0.00384243 -0.0451093 0.042618 -0.0113915 0.0261207 -0.0971866 0.090466 0.0370861 9.56166e-05 0.00699242 0.00991997 -0.0129989 0.0444203 -0.0505752 0.0571769 -0.00288905 -0.0235846 0.0273155 -0.0637061 -0.0116488 -0.00424607 0.0788805 -0.0100286 0.00152994 -0.0327132 0.058573 0.021617 0.0059555 -0.0234895 0.0534405 -0.0284562 -0.0413878 -0.00277222 0.0254048 -0.0550128 -0.000121209 -0.0456288 0.00272776 0.0375574 0.000404501 -0.0925002 0.0740942 -0.0122314 0.00538317 0.0661181 -0.0169386 -0.087277 -0.0061075 0.11367 -0.0816282 -0.0436189 -0.0277809 0.056919 -0.0941212 0.103185 0.037047 0.016319 -0.0380266 -0.0637349 0.107589 0.0697712 -0.042286 0.0142112 0.0112278 0.121126 -0.0076581 0.0357598 0.108609 0.0490554 -0.0140293 -0.0231711 0.0781705 0.0360613 -0.0440339 -0.00730004 -0.0604818 -0.0495259 -0.0541626 -0.0505396 0.0368905 -0.0978429 0.0541164 -0.0687609 0.0280597 -0.0161005 0.0300906 0.00836503 -0.0580317 -0.0115109 0.0395442 0.0436322 -0.00848253 -0.0143146 -0.0390875 0.0258146 0.0242513 0.131419 -0.0231237 -0.0165784 -0.0747106 -0.0418305 0.0595594 0.0261428 -0.0754035 -0.0479521 -0.105406 0.0925983 0.0350752 -0.0759341 0.0949954 -0.0531668 -0.0474611 0.0326623 0.00794709 0.121794 -0.0114131 -0.0908793 -0.0170932 0.0486496 -0.0310761 -0.0219365 0.0391861 0.0348307 0.0176813 0.00728157 -0.119852 -0.0657294 0.125618 -0.0233894 0.106361 0.0168811 0.0686516 -0.0217651 -0.00294114 0.0164361 -0.0351702 -0.000565519 0.0600517 -0.0768263 0.033407 0.0474397 -0.0812522 0.0571888 -0.0727667 0.100159 -0.0117116 -0.0418143 -0.0621319 0.036498 -0.0214536 0.0490175 -0.0222617 0.0351639 0.00576501 -0.031953 -0.0813112 0.0740524 0.112046 -0.0769071 -0.0248463 -0.0471218 -0.117439 0.00804086 0.0257077 -0.0541151 0.0270279 -0.0445451 -0.00428308 0.0108424 -0.118422 -0.130381 0.111105 0.0854808 -0.0351473 -0.0694031 0.00313415 -0.048978 0.0284405 -0.107197 0.0294432 0.0263121 0.0586177 0.0510905 0.091298 -0.00223192 -0.0901562 -0.0557121 0.0215755 -0.0161269 0.091994 0.0257085 -0.0266938 0.00898978 -0.044595 -0.0349587 -0.0481319 -0.0747429 0.111452 0.167639 0.00426557 0.00595887 -0.00409928 0.132011 -0.0452729 -0.0736097 -0.00672266 0.109904 -0.102687 0.128488 -0.0351502 0.0243993 0.017524 -0.024921 -0.0149165 0.0666315 0.0894562 0.00650092 -0.0186095 0.0562603 0.0706664 0.0748088
nie -0.0674827 0.0395737 -0.045761 0.0370691 -0.0456097 -0.00851119 0.0201039 -0.0712469 -0.0343063 0.0402606 -0.0371642 -0.0569698 0.0159595 -0.0295391 0.0507921 -0.0659321 -0.0259227 0.0351318 -0.0210051 0.0381451 0.00632943 0.0250139 -0.0555764 -0.0801595 0.0112964 -0.0343493 0.0359924 0.0715175 -0.0248423 -0.00195165 -0.0380862 0.0330951 -0.0305384 0.0704264 -0.00895691 -0.0520594 0.0383975 -0.0386872 -0.00282833 -0.101124 0.0411305 -0.0572811 0.0406763 -0.0311038 0.0287062 0.0599186 0.0179401 -0.00779985 -0.0163212 0.00757408 0.00610392 -0.135686 -0.0154562 -0.0274606 -0.0559022 0.000365619 0.00502185 0.0623632 -0.0666589 0.0471756 -0.0361371 -0.013934 0.143293 -0.0696744 0.0135019 -0.0852642 0.0416323 0.04586 0.102185 0.0523707 0.0532488 0.0593562 -0.0306548 -0.109919 -0.101244 0.0256303 0.0755437 0.09403 -0.0236167 -0.0457234 -0.0345612 -0.00647019 0.0718226 -0.00800597 -0.0337868 0.0473351 -0.079846 0.0578733 -0.00132459 -0.0340886 -0.04081 0.0334378 0.131595 -0.123446 0.00107268 0.0242932 0.0549044 0.0389584 -0.0364845 0.0241678 0.0452497 -0.054526 0.036162 -0.101051 -0.0314714 -0.0195714 -0.0552028 -0.105046 0.0651004 0.0172908 -0.0447564 0.0611775 0.037163 0.0439445 0.0750053 0.00144317 0.155803 0.0751351 0.0313074 -0.000113601 0.00775751 -0.00886021 -0.00611993 0.174014 0.0217946 -0.0445506 0.0846661 0.00379358 -0.0119429 0.0771701 -0.0480259 -0.00799828 -0.0699765 -0.0076943 -0.0775843 -0.00569416 -0.0273285 0.0319391 0.0730816 0.0574626 -0.0179626 0.0422909 0.0729233 -0.0507456 -0.0547726 0.0348261 -0.0618479 -0.039545 -0.0433354 -0.0820092 -0.0395609 -0.0347478 -0.00212178 0.0183653 -0.0292619 0.0396023 -0.0357184 0.0940468 0.096417 0.0556062 -0.120304 0.090484 -0.0310626 0.0646606 0.0343348 0.0465835 -0.0473987 -0.0477694 0.079279 0.0396669 -0.0236764 -0.127547 -0.0914357 0.0020209 -0.0824847 0.0696471 0.000505882 0.0777058 0.00724487 0.000454972 0.0584285 -0.0551978 -0.00872353 0.0453472 -0.053316 0.0487134 0.0334805 0.0341958 -0.0240623 -0.0200145 -0.0564316 -0.0916633 -0.0291983 0.12094 -0.106729 0.0240442 -0.0231335 -0.0764158 -0.110528 0.00770187 0.0653651 0.0360697 0.0624867 -0.0267052 -0.0097136 -0.0706549 -0.112964 -0.0113408 0.0941185 0.00176447 0.127219 0.00607198 0.0945674 -0.041196 0.030444 -0.0244584 -0.0336892 -0.0967888 -0.0365334 0.0554678 -0.0149395 -0.0715462 0.00845209 -0.0506392 -0.0370093 0.0514585 -0.0801951 0.0279987 -0.0157183 0.0498408 0.0454588 0.0668362 -0.00865163 -0.0519164 -0.0186456 0.0627947 0.0630057 -0.00537211 -0.0420045 0.0633165 0.0442369 -0.0195151 0.00723933 -0.0392299 -0.0679652 0.0672582 0.0703152 0.0695147 -0.0996982 -0.0242531 0.0541418 -0.028202 -0.0720513 0.0157506 -0.0127798 0.0222483 0.025249 -0.0495238 0.00749729 -0.0605459 -0.0553057 -0.0302322 -0.129781 -0.135431 -0.00171769 -0.0397833 -0.0169343 0.0787117 -0.0423469 -0.0639108 -0.119826 0.0354307 0.0840306 0.0305564 -0.0781518 -0.0499012 -0.0527571 0.0429803 0.0197126 0.000917853 0.0839456 -0.0116325 0.00299534 -0.0728405 0.0171948 -0.0651699 -0.0132648 0.171645 -0.0554646 0.0487826 -0.0398638 0.0751797 -0.0708663 -0.00581998 -0.00123377 -0.0551351 -0.0721876 0.0497307 0.0432441 -0.0106746
od 0.0578246 0.062501 -0.0333855 0.00307682 0.000544404 -0.0586378 -0.0304164 -0.0509852 0.0241321 0.0763703 0.0418043 -0.000478036 -0.0392974 -0.0251934 0.0394582 0.0652932 -0.0799416 -0.0444816 -0.0695384 0.121053 -0.0810177 -0.0666452 -0.0419722 -0.147685 -0.0352763 -0.121858 0.0172902 -0.0817882 0.0281559 -0.0388802 0.00606117 0.109419 -0.0777123 0.0199288 0.094669 -0.0901619 0.0677706 -0.0759988 -0.0449328 0.0102457 0.00923908 -0.0422761 -0.0392578 0.0359035 -0.0350323 -0.0700374 0.0299628 0.0054539 0.145935 -0.0455547 -0.0162221 0.0310284 -0.0424393 -0.0346107 -0.0263705 -0.0100039 -0.0642495 0.0597458 -0.0218843 0.0173837 0.0787856 -0.019901 0.1003 -0.0133808 0.0535993 -0.030492 -0.111632 -0.102439 -0.044449 0.0569448 -0.0325471 0.0202659 0.0105438 -0.0421487 -0.0156073 0.105014 0.0288326 0.143716 -0.00651273 -0.0618358 0.033343 0.0425272 -0.0473622 -0.0241686 0.0315454 -0.0182737 -0.0590513 0.0224721 0.0221736 0.115513 0.0381375 -0.0458188 0.0182244 -0.0406435 0.0613806 0.036236 0.0464134 0.0642925 0.013547 -0.0260062 0.0211434 0.00042459 0.0332594 -0.0491026 -0.0297914 -0.117992 -0.0994016 -0.104061 -0.0254045 0.0819498 0.00717905 -0.0765633 -0.126311 -0.00855469 -0.0401775 -0.0165685 0.151666 0.0275481 -0.0311277 0.0496883 0.0878608 -0.00900393 -0.0548219 0.0868843 -0.0080367 -0.0307074 0.183305 0.0466153 0.035242 -0.0110601 0.0842978 0.0170932 -0.0334592 -0.0407159 0.00140114 -0.0859545 -0.0271897 -0.0516132 -0.0347018 0.0588917 -0.0578922 -0.0248177 -0.0081061 0.169326 0.0423666 0.1003 0.0525307 -0.0191344 0.0203787 0.0450984 -0.0131112 -0.0627873 0.0162206 0.00260683 -0.0838717 -0.0334188 -0.0889159 0.0848839 0.0758665 0.0285227 -0.0926593 0.071985 -0.0700768 0.0421447 0.0740575 0.0322473 -0.0486339 -0.0209993 0.0262053 0.00982281 -0.0922768 -0.0511196 -0.105477 -0.0268839 -0.0286385 0.0257202 0.0137544 0.0296516 -0.0339167 0.0863273 0.0552412 -0.104152 -0.0161526 0.0780672 0.0605065 0.0382088 -0.0283267 -0.0650977 0.0728519 -0.0274967 -0.0141718 0.00627455 0.101167 -0.0269634 -0.0391647 0.0581107 -0.00168433 -0.00218162 -0.000985166 -0.132108 -0.0668202 -0.0713622 -0.0041023 0.0671323 0.020125 0.0455473 -0.0167077 0.00249185 0.0752288 0.0700363 -0.0162136 -0.0397177 0.0363968 0.0347565 -0.101343 -0.0286242 0.0291351 -0.0985919 -0.022241 0.0145634 -0.0213423 0.052026 -0.00979557 0.00746295 -0.0601213 -0.015907 -0.0748935 -0.0572928 0.0371104 -0.0019295 -0.0457532 0.0479674 0.0292566 0.0340561 -0.0570328 -0.0334322 0.0647357 -0.0159308 0.0103099 0.0380639 0.0707694 0.0971701 0.0360597 -0.0193463 -0.0204927 0.102693 0.0458511 0.00485436 -0.0689382 -0.0128013 -0.0580452 -0.00507286 -0.0377937 -0.06257 -0.0128312 0.073414 0.00253945 0.0329974 -0.0187193 0.0372908 -0.0305204 0.0371839 0.0510418 0.0289531 0.0574897 0.0162768 0.110245 0.00255374 -0.0501971 0.0288692 -0.0815832 0.00491857 -0.0563761 0.0713314 -0.00190177 -0.0624494 0.09859 0.0339291 -0.0248716 -0.0621692 -0.0123703 0.0769516 -0.00928515 -0.0133433 0.0822148 -0.118171 0.0452428 0.0248486 0.0554111 0.0846369 0.00112383 -0.059295 0.0421342 0.0198366 -0.0135017 0.00489742 -0.0571487 0.0147276 0.051801 -0.0521306
o -0.0331895 -0.0816798 0.0458062 0.0218024 -0.0168097 0.0889582 -0.0709672 -0.0739432 -0.0261595 0.0443477 0.0304076 0.010824 -0.00612788 -0.0166654 -0.0699976 -0.000169349 -0.0832106 0.0564326 -0.0239688 0.0367717 -0.0617907 0.0232751 -0.136693 -0.0764663 0.056523 -0.00664259 -0.0240633 0.0287058 -0.00420224 0.0250575 -0.065688 0.0209157 -0.0366725 0.0396114 -0.0505375 -0.0928285 0.00623962 -0.0106235 0.114545 -0.0159893 0.000307446 -0.0904693 -0.0611125 0.124496 0.0645411 0.079986 0.0919457 -0.0509275 0.109594 -0.0152414 -0.0900658 0.00873109 0.0798607 -0.0972956 -0.068588 0.0654981 -0.0304858 -8.58919e-05 0.0288299 -0.0386618 -0.0448686 -0.12541 0.0979364 -0.0522407 0.0864652 0.0937238 -0.136913 0.0903496 0.0929985 0.0431852 -0.0529319 0.0562381 0.0365697 -0.0836172 -0.00267968 -0.0454094 0.0467902 0.108671 -0.0654755 0.0157455 -0.0119577 0.0575502 -0.0169178 -0.00836166 0.00216775 -0.0365488 0.0442918 0.0637611 0.0452359 -0.111377 -0.0372724 -0.0168033 -0.0429125 -0.0189499 0.0211162 0.106902 -0.0414857 -0.0148774 0.0356834 -0.0316553 -0.0247117 -0.0669448 -0.0088921 -0.0355618 -0.0655852 0.00867475 0.0226424 -0.0353984 -0.0361563 0.0190751 -0.0547302 0.0186972 0.0256207 -0.0701683 0.00543846 0.0298551 0.0502573 0.0693011 -0.107848 0.0641492 0.0458302 0.0418645 -0.0262057 0.0240252 0.0105363 0.0234022 0.0240884 0.000128775 0.0561578 0.114182 0.00350711 -0.0805006 -0.0609884 -0.0253796 -0.0300535 0.0198821 -0.0371969 0.0267598 0.0597711 -0.0130457 -0.0408566 0.0251637 0.0536666 0.0731575 0.0309 0.0284727 -0.0469727 -0.0827603 -0.0239262 -0.0348036 -0.0306792 -0.105393 -0.0181695 0.00281027 0.0612949 -0.0578823 0.0707769 0.010839 0.0107942 -0.0146382 -0.0258409 0.153994 -0.00772813 -0.0871317 0.0278265 -0.0238667 -0.0284943 0.00543185 0.00468951 -0.0593618 -0.0609363 -0.00580052 -0.0214161 0.013238 0.0030883 0.0238936 -0.0988929 0.0273529 -0.021879 -0.131314 0.0150427 0.00555706 -0.0213125 0.0113529 0.0152107 0.15005 0.0315474 -0.0137705 0.0265614 -0.0321652 -0.0468628 -0.0369207 0.0304186 -0.0682423 0.00726627 -0.048452 0.0959387 -0.0411173 -0.0185113 0.0899735 0.0215877 -0.0385107 0.00505205 0.0659607 -0.064259 -0.0238137 -0.102155 -0.0680712 0.0790182 0.0587768 0.0696779 0.0968568 0.0122846 -0.0333853 0.00743322 -0.033242 0.000670752 -0.0562123 -0.0521821 0.0288847 -0.0554115 -0.0486178 -0.0304615 0.0616514 -0.0541978 -0.0769618 -0.0506464 0.00389847 -0.0538613 0.00492325 0.0639179 0.0273603 -0.0760314 -0.0324566 0.0220936 0.0155354 0.00967336 -0.0563137 0.0549299 0.01877 -0.132954 0.0685904 0.0965068 0.0940019 0.0537542 0.0992498 0.0438329 -0.017042 -0.0172584 0.0634875 0.00371971 0.0205518 -0.0466439 -0.0398178 -0.030717 0.0179129 0.0400553 0.0143327 0.00267248 -0.0382792 0.107351 0.00204245 0.0123849 -0.108107 0.0288725 0.0485119 0.0401634 0.0204455 -0.0718017 0.064239 -0.117581 0.0438875 0.0832421 -0.00198858 -0.0677468 -0.095124 0.0839939 0.126223 -0.0265706 -0.00906916 0.000193595 0.0086491 -0.0801865 0.00310738 0.00334404 0.0584997 0.0640661 0.071807 0.0327135 -0.0216711 -0.0729516 -0.0375242 0.0211528 -0.0135137 0.0636453 -0.109882 0.0482585 0.111232 0.158766 0.0641319
to -0.0331254 -0.00256134 0.0461246 0.0950608 0.0148733 0.0161097 0.00753992 -0.139985 -0.0489182 0.107901 0.0340933 -0.0729515 0.0439497 0.0275748 -0.0399987 0.0139934 -0.0406499 0.109208 -0.0119852 0.0182884 -0.0608895 0.042464 -0.0539691 -0.091452 -0.00826444 0.0162078 0.0822942 0.0157447 -0.0815274 0.0873862 -0.072175 0.0845523 -0.0705283 0.0783521 -0.0690119 -0.055232 0.034745 -0.0417268 -0.0267843 -0.0341516 -0.0126621 -0.0733153 -0.0437158 0.021951 0.0491235 0.0435717 0.0415293 0.027838 -0.0704788 0.00333324 0.0661204 -0.0640895 -0.0259214 -0.0238621 -0.024355 0.141075 -0.0898537 0.0584624 -0.00823058 0.0333532 -0.0584189 -0.0371415 0.120149 -0.00251679 -0.0547375 -0.0548826 0.00958596 0.0603983 0.0577765 -0.00754851 -0.0337137 -0.0268712 0.0444562 -0.0556064 -0.0266956 0.0113304 0.0407271 0.0728795 0.0288184 0.0664072 0.0789487 0.0651946 0.0159197 0.0192225 0.046077 -0.00816518 -0.0424726 0.0795614 -0.0611079 -0.0343815 0.0640874 0.023753 0.164812 -0.0862291 0.00383798 0.0086015 0.0424844 0.10397 -0.0430812 0.0810743 -0.0221165 -0.0317478 0.0871122 -0.0178427 -0.0669847 -0.0634599 -0.0409145 0.0514422 0.0195155 -0.0446348 0.0198361 0.0255263 -0.00104779 0.0355505 -0.0187174 -0.047509 0.0594701 0.00983032 0.0978541 0.0299975 0.124108 0.0404489 0.0156204 0.175106 0.0191398 0.0036352 0.076654 -0.0147584 0.0782558 0.0753308 -0.00304442 0.0376791 0.0574701 0.026464 -0.00780173 -0.0318703 0.0260977 -0.0224305 0.0762267 0.0475051 -0.0396483 -0.0137826 0.102066 0.00874354 0.00886235 0.0703668 -0.124742 -0.0435505 0.0565459 -0.0167571 0.050797 -0.0846737 -0.0146226 -0.0612679 -0.0248107 -0.0180076 -0.00865616 -0.0162037 0.0180012 0.00481258 -0.038863 0.0605499 -0.130773 0.00625371 0.0183935 -0.00218142 -0.0300402 -0.0527085 0.10714 0.0325389 -0.0886644 -0.0667262 -0.146568 -0.0843803 -0.0526842 0.0916513 0.0055538 0.0351506 0.0734282 -0.0953464 0.067215 -0.0668316 -0.0361998 0.134735 -0.0449311 0.0339056 0.0574973 -0.0282846 0.00721013 -0.0392805 0.00529391 -0.0495706 0.0497052 0.105567 -0.00592747 -0.0302829 0.0509955 -0.033541 -0.0765292 0.0190155 0.0681465 0.0443671 0.0591249 0.0160694 -0.0615932 -0.0284787 -0.0198705 -0.0417035 0.0514021 0.0014323 0.0803825 0.0290356 0.00279503 -0.108086 -0.00279136 -0.0547177 0.0215751 -0.0980589 -0.0927821 0.0180215 -0.100265 -0.0783669 -0.0821428 -0.00666417 0.0434029 -0.0545683 0.0571349 -0.0572057 -0.0924761 -0.00655006 0.0232822 0.00486421 -0.0807182 -0.0402908 -0.0907791 0.0602609 -0.0925946 -0.00104849 0.014387 -0.0206504 0.0207335 -0.0438131 0.0440915 0.00779535 0.0017206 0.0632779 0.0182611 0.0382276 0.0258633 -0.0128045 -0.012312 0.0255129 -0.0747402 0.0702179 -0.00653852 0.068116 -0.0824086 -0.0311489 -0.0285151 -0.0839252 0.0104155 -0.022425 0.00224552 -0.0124254 -0.100465 -0.0568278 -0.0830023 0.0678783 0.0100836 -0.0994658 -0.105104 0.00252999 0.068294 0.0305083 -0.0252315 0.0108968 0.059821 0.0475459 0.0393545 -0.0552933 0.0508668 0.0362834 -0.0623576 -0.00935877 0.0350807 -0.125237 0.104397 0.0828415 -0.0748094 0.0124291 -0.00164503 0.0336168 0.0370829 -0.0626944 -0.0115862 -0.0342067 -0.0432377 0.0467849 0.0333535 0.0358617
# -0.0034868 -0.0559439 -0.0129747 -0.0523306 -0.0291768 -0.0624667 -0.0137737 0.00730616 -0.0431484 -0.124021 -0.0119157 -0.00347673 0.0468368 -0.0209541 -0.0457704 0.0328217 -0.0131889 0.057387 -0.0434408 0.0266715 -0.0674248 0.0399605 0.0140835 -0.0118918 -0.149562 -0.0489272 0.0229825 -0.0781917 -0.0310449 -0.00945053 -0.0324389 0.116786 -0.0840818 0.114224 -0.0150707 -0.0860583 0.0237237 -0.00667469 0.0699529 0.0217569 0.0581038 0.0874336 -0.0271884 0.0322765 -0.0231929 0.0403017 -0.0903551 -0.0298671 -0.0553063 -0.0256852 0.0251154 -0.0127952 -0.00996704 -0.0654462 0.0747272 -0.0431245 0.00947875 0.0287955 0.0280814 0.0652287 0.0892844 0.0613656 0.0315979 0.0489966 -0.0722401 -0.0405361 0.0743507 0.0599917 -0.0556277 -0.0247363 0.050612 0.0513128 0.125373 0.044651 -0.0837038 0.0186466 0.0717306 -0.01399 0.026465 0.0823063 0.0852776 0.0222954 0.0244405 0.0759217 0.0740919 0.117249 0.0311953 -0.0688055 -0.0030812 -0.0477076 -0.0192975 0.047563 0.0466881 -0.0792318 0.0139256 0.00894288 -0.0108431 0.00200838 0.0407911 0.0209772 0.0483784 -0.0154618 -0.0401267 0.0199248 0.0158142 -0.0172387 -0.0100282 0.0624427 0.0637698 -0.105371 -0.0360612 0.00789746 0.084619 0.0406589 0.030233 -0.0469097 -0.024068 0.0105967 -0.00112348 0.0284273 0.144365 -0.0497449 -0.0218384 0.0935365 -0.00946157 -0.0339454 -0.0330998 0.0635422 0.117535 0.00939764 0.00108245 0.0218869 0.0609397 0.129217 0.067855 -0.023953 -0.0986447 -0.0428225 0.108679 0.123408 0.00348017 0.0289099 0.13658 0.0522471 0.0800101 0.101436 -0.0545944 0.0562583 -0.0213529 -0.0181446 0.0544024 -0.0338929 0.0431736 -0.0594903 0.00906836 0.00419463 -0.118824 -0.0105854 -0.0134834 0.0294732 -0.0182553 0.00603618 -0.141217 0.0557114 0.0350567 0.0224516 0.0490179 -0.0463688 0.016626 0.00454618 -0.116017 -0.0300602 -0.0448097 -0.0891146 -0.00691495 0.0466303 0.0835407 0.031379 0.00868774 -0.159297 -0.00660063 -0.00644891 -0.0193498 0.0150764 -0.0570271 -0.0164144 -0.025671 -0.0073494 0.130793 -0.0155429 -0.0233163 -0.00784008 0.00901794 0.0713501 -0.0528845 -0.0890313 -0.0110859 -0.00157307 -0.077658 -0.0545609 0.00663314 -0.0642268 0.0305438 -0.0184328 0.0491833 -0.0175956 -0.0718189 -0.0103565 0.109476 -0.020275 0.115591 -0.0153092 -0.0155719 -0.106252 -0.0806519 -0.0631192 -0.0165342 -0.0767607 -0.0693512 -0.0335627 -0.0515019 -0.100646 0.0279419 -0.10009 0.108665 -0.0189587 -0.0119312 -0.0222095 0.0220473 -0.0586979 -0.00770673 0.0137341 -0.043166 -0.123345 -0.0672753 0.0431106 -0.103419 0.0819514 0.0423846 -0.0605909 -0.0308322 0.0923317 0.0806576 0.0376124 -0.0128604 -0.00390836 0.0540633 -0.0002268 0.0773391 0.0298168 0.0450471 -0.0629017 -0.00115406 0.0360383 0.0390743 0.0227433 -0.0827274 -0.0195394 0.0158675 -0.0624041 0.0701695 -0.0317088 0.0385568 -0.0758651 -0.0208396 0.0725195 -0.030784 0.114134 0.0290355 -0.0432141 -0.050087 -0.067802 -0.00895112 2.35118e-05 0.0260182 -0.0192165 0.00710126 0.0641309 -0.0698749 0.000358314 0.0215198 0.10324 0.00931131 0.0688623 0.101155 0.0326491 -0.0213116 -0.0414837 -0.0513121 0.0078492 -0.0676045 0.0598133 0.0170373 0.0761336 0.0148211 -0.102092 -0.0230551 0.0472127 0.0818627 0.0123375
przez -0.00920288 -0.0227585 0.00193672 0.0379156 -0.0855174 -0.0171585 -0.0448419 -0.012935 -0.0225202 0.125154 -0.072538 0.0754408 -0.0931707 -0.0420212 0.0540498 -0.0637715 0.0119742 -0.0526892 0.0264075 0.0265881 -0.0583182 -0.060656 -0.100723 -0.0418744 0.0461559 0.0372673 -0.0143951 0.0032351 0.0420029 -0.0270818 -0.043566 0.0851227 -0.0047208 0.0754931 0.159484 0.00615233 0.0711626 -0.0372441 0.0657954 -0.0277306 0.0988798 0.0326602 0.0706295 -0.0283294 -0.0343939 0.0580339 0.0812499 -0.00405373 -0.0274892 0.0397325 0.041287 -0.073072 -0.0406402 -0.00406159 0.00583982 -0.031796 -0.0768806 0.0420903 -0.0279416 0.0436626 -0.0247894 -0.0154316 0.0740081 0.0347762 0.0554973 0.0180298 -0.0706779 -0.0220251 0.0506418 -0.0536113 -0.0715055 0.0728245 -0.0427945 -0.0973194 -0.00218409 0.0714327 0.0569353 0.0388076 -0.021315 -0.0421261 -0.0283243 0.0107219 -0.0181171 0.0890834 -0.0657909 -0.042659 -0.0539397 0.0412835 -0.0562596 0.0306219 -0.0514185 -0.0298133 -0.0106071 0.0323546 0.119679 -0.0784514 0.034856 0.0142218 -0.131995 0.0774279 -0.067024 -0.0722272 0.0467422 -0.0519965 0.00318183 -0.00302141 0.00174744 0.0586474 0.00689614 -0.0261299 0.0158469 -0.0393522 -0.0242859 -0.0313582 -0.0444872 0.0296478 0.107737 0.105601 0.00508881 -0.0109839 0.04164 0.0857017 -0.0552499 0.108974 -0.0145938 0.111265 0.0262368 0.005257 0.0381649 0.0462115 0.0103438 -0.0277336 0.0136698 0.0914174 0.0902242 0.0418741 -0.00491767 -0.0427614 -0.053451 0.0746525 0.0132591 0.00961595 0.0241949 -0.0381607 0.0200416 0.0516772 0.0196243 -0.0445939 0.0303485 0.0374079 0.00382861 -0.0375261 -0.0509585 -0.0158181 -0.0499712 -0.12277 -0.0682345 -0.000486883 0.0872666 0.0157851 -0.0525088 0.00610375 -0.122518 -0.0490361 0.156424 -0.0873864 0.0495291 0.0483028 0.0757222 0.0346626 -0.0506912 0.0866617 0.00709673 0.0108718 -0.100645 -0.0609303 -0.0759808 0.037201 -0.03114 -0.0547513 0.039119 -0.100159 -0.07047 0.0675709 -0.0225224 0.0605059 -0.0507632 -0.0398852 -0.0370192 -0.0610416 -0.000618107 -0.113124 0.0759043 -0.0384773 -0.0280234 -0.0924423 -0.0457207 0.0597957 -0.0589605 -0.0611145 0.0189218 0.0289093 -0.0372368 -0.0377754 -0.0509116 0.0232553 -0.0422907 0.0840128 0.119423 0.0888754 0.121814 0.00639718 -0.0651356 0.0781526 -0.0350847 -0.0240205 0.101495 -0.0411867 0.0697686 -0.0187061 0.0818652 -0.138359 -0.0426488 -0.0687733 -0.036892 -0.0261788 -0.0910138 -0.0333768 -0.0571994 -0.0504617 -0.0427155 -0.00514293 -0.0506114 0.0852274 0.0179899 0.0394825 0.0161101 0.010206 0.0229251 0.103224 0.0401194 -0.0489518 -0.0315614 -0.0422096 -0.0385178 0.0324424 -0.00293684 -0.0267409 0.119647 0.0600613 -0.047667 0.0816318 -0.0392881 -0.0461573 -0.0557127 0.0526639 -0.0753496 -0.0338471 -0.098365 -0.00710156 0.0194461 -0.0314705 0.0354541 -0.0243535 -0.0325483 -0.0980245 0.0401521 0.0199918 0.00328873 -0.0750429 -0.0347631 0.0704987 -0.00929543 -0.0210159 -0.0678181 0.0535799 0.0811959 0.0489281 0.0750593 -0.0230657 0.00829136 0.0701624 -0.0405922 0.0262925 0.0241244 0.0559003 -0.0281072 0.106291 -0.0587125 0.0384407 0.0804036 -0.072783 0.0791446 0.00262284 -0.0274462 -0.023029 0.0692144 0.067664 0.0983166 -0.0766734
left -0.0679655 -0.00370005 -0.055341 -0.0105074 -0.111825 -0.104336 0.00869896 0.0971384 -0.0881413 -0.0815411 0.0565074 0.0458231 -0.042083 -0.0669103 0.0183263 -0.0406544 0.043815 0.011063 -0.0495993 0.0853015 0.00417488 0.0240617 -0.0858119 -0.0815403 -0.163557 -0.0460851 -0.0657202 -0.0112289 -0.0606791 0.0297528 -0.0161548 0.12939 -0.00357569 0.0830764 0.0366113 -0.067012 0.0396208 0.0749131 0.0212173 -0.021375 -0.0214413 0.0344548 0.0223422 0.0722611 0.0175439 0.0106998 -0.0442075 -0.020104 -0.0422882 -0.0147086 0.00529587 -0.0976605 -0.0671898 -0.0876433 -0.036715 -0.0520482 0.0480931 -0.0219896 -0.0510893 0.120009 0.000222852 -0.0131944 -0.0348275 -0.0262549 0.0895158 0.0654233 0.00684665 0.0422689 -0.119785 0.0546756 -0.0647685 0.00425828 0.0638895 0.0941958 -0.020944 0.0191233 -0.0549336 -0.0148903 -0.0654104 -0.00244638 -0.0221982 -0.0200152 0.0277966 0.0333262 -0.0254686 -0.0563287 0.0336252 -0.0951357 0.0467989 0.0257949 -0.0549977 0.0305664 -0.0440002 0.0522921 0.00141424 0.0584355 -0.0124257 -0.0259866 -0.0670746 -0.0356997 0.0691817 -0.0437232 -0.00383289 0.0548153 -0.00366354 0.0731218 0.0609302 -0.0385653 0.132057 -0.005236 -0.0249075 0.028262 0.00306412 0.0355067 0.0702538 -0.000988255 0.0563675 0.0229876 0.0372807 0.0139991 0.00203493 0.0336972 -0.0991178 -0.00525041 0.0493028 0.00184473 0.0638865 0.102986 -0.0295955 -0.0331112 0.0377866 -0.0549611 -0.0296882 0.108823 0.0606214 -0.108811 0.0201038 -0.0495545 0.174424 0.0549771 -0.0095815 0.0287979 0.131123 0.0658906 -0.0144271 0.114585 0.0493061 0.0655303 -0.042959 0.00809568 -0.0203498 -0.0918697 -0.049246 0.0102149 -0.0427051 -0.0661695 -0.0149319 -0.00643007 -0.0456727 -0.0510281 -0.0135967 -0.00997804 -0.0191443 -0.0661542 0.0813987 -0.0195265 -0.0372282 -0.0356944 0.0321082 -0.0678504 -0.0423147 -0.0772154 -0.0936892 0.0175076 0.0605978 0.19384 -0.0658428 -0.0958106 -0.0554504 -0.090249 -0.0168257 -0.0470692 -0.0620748 -0.11696 -0.100532 0.0598208 0.00185321 -0.0373144 0.0792907 0.0233784 0.0204613 0.0204239 0.019104 0.116492 -0.00360088 0.0165502 -0.038096 0.0290604 -0.0594544 -0.0605293 0.0905743 -0.0122835 -0.0390926 -0.0162576 0.0195386 -0.0748889 0.0824248 -0.0391055 0.122821 -0.0250221 0.0716149 0.0448989 0.044031 -0.00918145 -0.0897093 -0.0233791 -0.0115976 -0.0302648 -0.0567536 0.0246536 -0.0301131 -0.0415571 -0.0346279 0.0155015 0.0318972 0.0259642 -0.0484372 0.050866 0.0729821 0.0151388 0.0430745 -0.0255116 -0.0330867 -0.0156412 -0.0141636 -0.0033871 0.0400981 -0.0585783 0.0100931 -0.0245642 -0.0241278 -0.0267729 -0.0233841 -0.137864 -0.0908715 -0.114909 -0.0486042 -0.0703168 -0.0303403 -0.0770535 0.0868672 -0.0908559 -0.0685475 0.0616797 -0.0395973 -0.0372355 -0.00311977 -0.0308194 0.0259873 0.0228032 0.0118798 -0.0103878 0.016486 0.0142681 -0.0639383 -0.0660867 0.0252343 0.0727989 -0.0367771 -0.0336778 -0.0353443 -0.00222097 0.0551035 0.0464841 -0.0583305 -0.0180743 0.0735615 0.113632 0.0146942 -0.00822281 0.0636668 0.03098 0.105529 0.0939726 0.0459541 0.0596803 -0.0569105 -0.0562761 0.0195608 -0.0737082 0.0437712 0.00934526 0.0634378 -0.0169662 0.0525008 0.0200516 -0.013534 0.0637272 0.0924786 0.0384544
po 0.0058129 -0.106969 -0.0275223 0.0926283 -0.0510268 0.0684994 0.00671103 -0.0690479 -0.0111837 0.0510067 -0.0283437 0.0257359 -0.0792728 -0.01081 0.0759457 -0.0521985 -0.0848767 -0.0166751 0.0126465 0.129635 -0.00411495 -0.0439435 -0.0158187 -0.0262831 -0.0539404 -0.00703686 -0.0397172 -0.058072 -0.0398768 -0.0272175 0.0661111 0.018932 -0.0396408 0.0684582 -0.0265379 0.045739 0.0256041 -0.013367 0.0393772 -0.0434938 0.0848138 0.0410457 0.029281 -0.0272277 0.0277667 -0.00787321 0.107092 0.0555194 0.0787979 0.0114633 0.0304512 -0.115586 -0.0215849 -0.0456387 -0.070724 0.0504362 -0.0225229 0.0463802 -0.0520065 0.0171462 0.0620041 -0.113148 0.0607471 -0.00313843 0.0535428 0.0340477 -0.050873 0.194196 -0.00317921 0.113338 -0.0458256 0.0078692 0.071747 -0.107798 -0.0108869 0.0519193 0.0551331 0.124746 -0.0255255 -0.0488198 0.0835119 -0.0208239 -0.0215182 0.0230321 -0.0156388 -0.00550576 -0.0692618 0.0996225 -0.00876268 -0.0440023 -0.0540947 -0.144417 -0.0105072 -0.0678237 0.0412819 0.0650641 -0.00791856 0.0437731 -0.0247608 0.0887911 -0.0305597 -0.0428782 0.0301253 -0.0386817 -0.0342236 0.0763075 0.0450854 0.0672043 -0.00780675 0.0387977 0.0872604 -0.0390918 0.0593819 -0.0427797 -0.0191777 -0.00707029 0.0222702 0.0483608 -0.0328377 0.0755539 0.0843667 0.0758163 -0.013245 0.0927151 0.0384713 -0.092362 0.066086 -0.110295 0.0789797 0.0600004 -0.0380853 -0.0413321 0.0327571 -0.0744513 -0.0802618 -0.020933 0.00108988 0.0724789 0.0119522 -0.0106605 0.0514863 -0.0152093 -0.0400525 0.04482 -0.0105742 0.0862612 -0.0259051 -0.048272 0.0221018 0.0615854 -0.00893195 -0.0461845 -0.0425725 0.0373284 -0.00960988 -0.0248079 -0.0391621 -0.0180871 0.139687 -0.0212076 -0.0593897 0.121866 -0.0369397 -0.0142245 0.0799534 0.0121951 -0.0932258 0.0343802 0.0102251 -0.0922171 -0.011606 0.00136967 -0.00518576 -0.00523683 -0.0763536 0.00191106 -0.010343 0.110992 -0.0349031 -0.0417778 0.000168769 -0.157754 -0.0882642 -0.100834 0.0286192 0.103274 0.0231025 0.0121432 0.0876068 0.026305 -0.00910159 -0.0766041 -0.0350214 0.0742954 -0.00643753 -0.00398038 -0.0646492 0.0636344 -0.104238 -0.0667652 0.000213323 -0.0451237 -0.0501811 -0.0695584 0.0659378 -0.0610896 -0.0913284 0.080465 -0.0403539 0.0117584 0.0734575 -0.0633594 -0.00190345 0.0441496 0.0228035 0.12722 -0.0144117 -0.0719725 -0.0588941 0.0284416 0.0232723 -0.0659276 -0.00166591 -0.0262206 -0.0629781 0.0518779 -0.0201656 -0.0368303 0.103108 -0.0733194 0.0287227 0.0652645 0.022468 -0.0342104 -0.0389106 -0.0830032 0.0208288 0.0100422 -0.00945369 0.0446738 -0.0327022 -0.00603962 0.0704535 0.0246845 0.0701965 0.0523348 -0.0337028 0.00327601 -0.0584663 0.014721 -0.0469228 -0.0476529 -0.104934 -0.0290033 -0.0107185 0.110933 0.0517001 -0.0242084 -0.0492592 -0.0851496 -0.0193249 -0.091194 0.115671 -0.0676812 0.019488 -0.0692434 0.0555556 0.00740978 0.00216739 -0.141484 -0.0445115 -0.0468953 0.00386653 0.0555037 -0.0927489 -0.0708348 -0.00209643 0.0597824 0.0404148 -0.0351753 -0.0136486 -0.0093308 0.0133809 -0.0129394 0.0539881 0.0692396 0.0189469 -0.0615416 -0.0480957 0.052145 -0.0824882 -0.0670116 0.0249437 -0.0347722 0.0163124 -0.00413498 0.0113668 -0.0123662 0.0506758 0.045255
score 0.0163366 -0.124689 0.0500228 0.131704 -0.0763785 -0.106953 0.0885391 0.00321775 -0.0114196 -0.0380544 0.0591993 0.0869798 -0.0371739 -0.0499913 0.0155556 -0.00250743 0.0370041 0.0775776 -0.0308123 0.148558 0.0327262 -0.0477238 -0.0735605 0.0160603 -0.0935143 -0.0486297 -0.0603548 -0.030427 0.000614962 0.108179 -0.08919 0.0365065 0.01743 0.0621222 0.00224831 0.023465 -0.0433145 0.0603593 -0.0477473 -0.0352108 0.0122664 -0.097163 0.0505272 -0.00255645 0.0860952 -0.0847385 0.0156338 -0.0374755 0.0276065 0.0107472 -0.000770456 -0.162493 0.0210549 -0.0754971 -0.0354413 0.000241313 0.114654 -0.0153063 -0.00832542 0.0760412 -0.0438242 -0.0172578 -0.00477041 -0.0781144 -0.0503943 0.0483401 -0.0177893 0.0474597 -0.0649824 0.0279614 -0.0220555 -0.0348554 0.101106 -0.0039709 0.0282077 0.10665 -0.0386402 -0.0389634 -0.053683 0.00539019 -0.0138965 0.0136653 0.0278911 0.145672 -0.0685381 0.0080721 0.0321071 -0.00719116 -0.00586868 0.0914491 -0.101519 0.00678738 -0.0509811 0.00911738 -0.0141171 0.0127414 -0.0120031 0.0239082 -0.00287418 -0.0323297 0.074212 -0.0397176 0.00456649 0.0308199 0.100225 -0.00359342 0.023532 0.0203902 -0.0274694 -0.10395 -0.0185327 -0.00667116 0.0371354 -0.0698173 0.0531313 -0.0297226 -0.0239207 -0.0232347 -0.000920729 -0.0382624 0.0710921 -0.0303976 -0.00783019 0.129926 -0.0687451 -0.0432974 -0.0894405 0.0884679 -0.105605 0.0122951 -0.027584 0.0411542 -0.0689594 0.0745468 0.0681709 -0.0306794 -0.0447333 -0.0247269 0.111337 0.0462277 -0.023015 -0.0632687 -0.060731 0.0479911 -0.121948 0.0880575 0.121225 0.00171666 -0.0562792 0.0299418 0.148594 -0.0327853 -0.0435688 -0.0367634 -0.0287377 -0.0446395 -0.0615181 -0.0365291 0.0424355 -0.0396408 0.013022 0.0202759 -0.00642445 0.0044954 0.0375312 0.00128025 -0.0841244 -0.0567033 0.141127 0.0191014 -0.0152761 0.0117126 -0.0708048 0.121639 0.0445639 0.0948126 -0.0805209 0.0195085 -0.0274918 -0.0994391 -0.0274885 0.0447606 -0.0218797 0.0292237 -0.0816943 0.0662225 0.0580624 0.0236539 -0.0370584 -0.0320466 0.0207855 0.0163364 0.037406 0.0937868 -0.0586558 -0.120442 -0.00276491 0.0127358 0.0446683 -0.0279879 0.0534583 0.0239071 0.0297545 0.0526237 -0.0891599 -0.0744085 0.0578081 -0.0237413 0.125158 0.0301564 0.0785716 0.0879964 0.0240156 -0.0360342 0.00611952 0.0142286 0.099369 -0.0809176 0.0425019 0.0608013 -0.0168186 0.0357391 -0.113102 0.0112457 -0.0201579 0.00644142 -0.0256415 -0.0247895 0.0478116 -0.011723 0.00385603 0.0765966 -0.0209387 -0.0256432 -0.0132843 0.0120339 0.0809725 -0.0716074 0.018569 -0.103941 0.0220918 0.01342 -0.0527359 -0.0349318 -0.00767351 0.0133819 -0.0265437 0.0097954 -0.0618394 -0.0733923 0.0499678 -0.00917823 0.00516438 0.0449539 0.0271498 -0.0201199 -0.0144865 -0.0698859 0.0315299 0.020301 -0.0530771 0.000885214 0.0502544 0.000232598 -0.108588 -0.0604025 -0.00608462 -0.127793 0.0253779 -0.0334319 -0.00991235 0.0634799 -0.0252467 0.0421458 -0.0852055 -0.0735085 0.0922689 0.134456 0.0159812 -0.00212574 0.025015 0.095921 -0.0722023 -0.00655589 -0.0168971 0.102102 -0.0210591 0.0334671 -0.0595706 0.0558139 0.0167223 0.0213894 0.00800754 -0.0617363 0.0678761 -0.0247683 -0.0169722 0.0470353 0.0385748 -0.00148771
jako -0.0381987 0.0571221 -0.0245934 -0.00752041 -0.0294725 -0.0116605 0.0113443 0.000101102 0.0723685 0.0462936 0.0265416 0.0186391 -0.0233998 0.0189382 0.0228438 -0.044874 0.0612403 -0.103844 -0.00317159 0.0703635 -0.098224 0.0659319 -0.0760636 -0.042137 0.065024 -0.0186542 0.0434876 0.00471599 0.00955689 -0.0362059 -0.0370062 0.00415712 -0.0839964 0.0570378 -0.00176733 -0.0305893 0.0192916 -0.0151986 -0.0188772 -0.0554603 -0.0472437 0.0209674 0.055283 0.0603501 0.000134106 -0.002903 -0.0203907 0.0543067 0.0357464 0.0860163 -0.00245058 -0.024629 0.0778698 -0.0857038 -0.0228461 -0.00790987 -0.010429 -0.0679169 0.0187958 0.0502363 0.0528379 -0.099561 0.0122708 -0.0531308 -0.0733873 -0.0644797 -0.00572143 -0.0529478 0.0215864 -0.00108073 -0.0425765 -0.0224396 0.0840562 -0.00427464 0.0276098 -0.0649529 0.0712651 0.0696592 -0.0176781 -0.0585605 0.133797 0.0371245 -0.0414079 -0.0454948 -0.018541 -0.00726011 -0.0621093 0.107017 -0.169007 0.0156395 0.0736617 -0.0355459 0.0592509 -0.0193147 0.0610263 0.0464359 -0.0521369 0.0762143 -0.113182 0.0558155 0.0390111 -0.0508954 0.059014 0.0294735 0.0171317 -0.0627428 0.0339907 0.0128304 0.0925311 -0.0570507 0.0260633 -0.0157523 0.0259888 -0.0578109 -0.116436 0.0332188 0.0916035 -0.00433469 0.0492184 -0.0107765 0.0903426 0.0952311 -0.0400978 0.107423 -0.0555553 0.00771565 0.11537 0.0417858 0.0408173 -0.0872923 0.0362508 -0.0123057 -0.0323885 0.0770379 0.00843906 0.124046 -0.067632 -0.08949 0.0214047 0.0265034 0.000171865 -0.0183915 0.0820884 -0.110221 0.0728912 0.127729 0.0314636 -0.0693896 0.0285013 -0.0153807 -0.0624354 -0.0823106 -0.00415828 0.0359026 -0.0800402 0.0411668 -0.0687414 -0.0117982 0.104715 -0.0171326 0.0556078 0.0451376 0.00939397 -0.0110533 -0.0355962 0.0392666 0.0396554 -0.0106499 -0.00929276 0.13567 -0.0469768 -0.0180733 -0.0525459 -0.0841925 -0.0897981 0.0531135 -0.00217016 0.0586998 -0.0118222 0.00350332 -0.0462386 -0.0211725 0.0685341 0.0345806 -0.052291 0.0514593 0.0616362 -0.0176134 0.12703 0.00522864 -0.130431 -0.129313 0.0211594 0.0681594 0.0860981 -0.00458732 -0.0296321 0.0817901 -0.0317242 0.0826381 -0.040385 0.0507598 0.0229818 0.0524132 0.0464597 0.00645921 -0.00694515 -0.0290887 0.0574949 0.0778253 0.114284 -0.0923022 -0.134921 0.0319457 -0.0405683 -0.038796 -0.0618032 -0.0194552 -0.0610898 -0.00275775 -0.0418982 0.0135933 -0.00570592 0.0625972 0.0216389 -0.0613838 -0.0265269 0.0574241 0.00400377 0.0563559 0.103495 -0.0102466 -0.0759939 -0.0409554 -0.129352 0.081682 -0.00507308 0.0469259 -0.0609985 -0.0401128 4.60429e-06 0.0617616 -0.0446723 0.0649153 0.0205839 -0.0332972 0.0109473 -0.00887931 -0.0244232 -0.0845709 -0.0860032 -0.0039821 -0.0512365 0.0445536 0.0113787 0.031138 -0.0394855 -0.0602332 0.0366331 -0.00239757 0.0101365 0.0243921 0.163977 0.040522 -0.0369613 -0.0908531 -0.0578711 0.0399161 0.0232102 -0.0455317 -0.0943033 0.0062721 0.0713429 0.0313197 -0.0671351 -0.0580945 0.133015 0.0344418 0.00784299 -0.0274427 0.00532114 0.0347211 0.0285986 0.128368 0.0478917 0.0259388 -0.037755 0.0599352 -0.0358485 0.0391223 -0.0658792 0.0168346 0.11934 0.0306373 -0.0428273 -0.0199967 -0.0176014 -0.047213 -0.00558525 -0.00587345
oraz 0.0315287 0.00920567 -0.0282345 0.112302 0.00455335 0.0392696 -0.0142881 -0.0024296 0.110546 -0.0315028 0.0355319 0.0766562 0.101201 0.0037307 -0.00271881 0.0209175 0.0644401 0.0678649 -0.0885882 -0.0280616 -0.0657899 -0.0309526 -0.110294 -0.0192686 -0.0296959 -0.0430368 0.0301566 -0.0184485 -0.0641621 0.00465408 -0.0561935 0.0944832 -0.0573439 -0.0182263 0.163965 -0.0769729 0.0296538 -0.0239891 0.126672 -0.0775415 0.0541068 0.0751117 0.00278079 -0.0125793 -0.00774846 -0.00901805 0.00492729 -0.0208674 0.0891299 -0.0327168 -0.0329734 -0.0161228 -0.00900656 0.0725364 -0.0819564 -0.0160182 0.0545287 -0.00402901 -0.19521 -0.00912013 0.0525411 -0.0163834 0.163725 -0.0299707 0.0139328 0.0747567 -0.0497082 -0.00938153 -0.0341488 -0.0336976 -0.0482663 0.0224793 0.0743681 -0.0115551 -0.0513055 -0.040498 0.0462468 0.0328715 0.0441544 0.000370083 0.0885467 0.0211818 -0.0626966 -0.0553654 -0.00449471 -0.0695479 0.00376192 0.0430046 0.0440842 -0.0118148 0.0216127 0.0249883 0.0515737 -0.0650472 0.0407222 0.0940596 0.0206777 0.0289914 0.0159434 -0.0331992 -0.0423692 -0.0429072 0.130418 -0.0259791 -0.051148 0.0497152 7.27103e-06 0.129187 -0.011201 0.011994 0.0452992 0.0168832 -0.011239 -0.0370052 0.0182651 -0.00122341 0.00169692 0.05829 -0.0380868 0.108162 0.0606656 0.00269879 -0.0366235 0.0292665 0.0288725 0.0871598 0.0538507 0.0729243 0.0572274 0.094346 0.0612304 0.0311269 -0.0683936 -0.069557 0.0557306 0.0920409 -0.0183912 0.0356688 0.0172633 0.00452262 -0.0733115 0.0443017 -0.00645954 6.50196e-05 0.0791815 0.184323 -0.00209463 0.0246984 -0.0166277 0.0246794 -0.0958249 -0.065074 -0.0680331 -0.00915493 -0.0609532 0.0312563 -0.0939334 -0.033603 0.090649 0.020307 -0.0139121 0.0745405 -0.0077204 0.0327599 0.137236 -0.135122 -0.0559112 0.011568 0.0359848 -0.0387601 0.0560022 -0.0398923 -0.053504 -0.00363596 -0.038498 0.020912 0.0901404 0.078751 0.000127632 -0.0277454 0.03151 -0.0492102 0.00621019 0.0404531 0.0281412 0.0766093 0.071542 0.0100363 0.0319481 -0.0366945 -0.0174153 0.0064899 0.0408877 0.0040479 0.040527 0.0158982 0.00895685 0.0416328 -0.0257508 -0.00851562 0.0374929 -0.0682315 -0.032696 -0.0245083 0.0452289 -0.0425639 -0.033172 0.015574 0.0958376 0.0777441 0.171686 -0.040653 0.0381894 0.0329361 -0.0252612 -0.0106743 0.00292917 -0.129284 -0.0979384 -0.0300839 -0.0256151 -0.0397796 -0.00247629 0.0800445 -0.0507619 -0.0702153 -0.142175 -0.0970704 0.0207415 0.0416248 -0.0422408 0.0333699 -0.0574619 0.0192632 -0.0340729 0.0229904 -0.0329807 -0.0297329 -0.0579789 0.0267215 -0.00289552 -0.014606 -0.00974063 -0.0373056 0.051526 0.086305 0.0740171 -0.0990467 -0.0127621 0.0502526 -0.00822292 -0.050287 -0.058567 -0.0193958 -0.146846 0.0562236 -0.00680019 -0.0036549 0.0255537 0.0195364 0.0618644 0.0675005 0.0538998 0.0822975 -0.025463 -0.00410238 -0.0603546 0.011281 0.000912682 0.028549 -0.0670214 -0.0433001 -0.0589619 0.0302344 -0.0194364 0.00629262 0.0146871 0.0492182 0.049006 0.0143659 -0.0527721 0.049635 -0.029311 0.118395 0.0137401 0.0557991 0.0241341 0.103064 -0.124186 0.0500498 0.128006 -0.0205919 0.0744071 0.0856405 0.0166601 -0.0220675 -0.0235837 0.0493603 0.0377082 -0.029127
" 0.00659912 -0.0203885 -0.128801 -0.0600971 -0.047153 0.0799036 -0.0608596 -0.0152067 0.0818246 -0.0200404 -0.00680799 0.069678 -0.00961536 -0.0541963 -0.0359713 -0.0398624 -0.0199721 0.0042802 0.0116112 0.0253813 0.0484128 -0.019301 0.0164723 -0.0189311 -0.0272901 -0.1025 -0.0396788 -0.0100896 -0.0358094 0.0460543 -0.0174135 0.0647789 0.01124 0.0489062 -0.00867725 -0.142109 -0.00491015 -0.0290414 0.0729589 -0.0101633 0.0668169 0.0766294 0.0237435 -0.0256264 0.0254235 -0.0501551 -0.00257844 -0.042267 -0.0502416 -0.0521494 0.0686818 -0.00753412 -0.000468903 -0.089518 -0.112962 0.0693428 0.0244154 0.00840406 0.0622396 -0.0316414 0.0834379 0.0997155 0.080188 0.0886271 -0.0244599 -0.0952352 0.0289505 -0.0711348 0.0102821 -0.0324032 -0.0217983 0.0582173 0.0877286 -0.0337321 -0.0293708 0.0334344 0.0662192 -0.0128624 -0.00486268 -0.00509201 0.0327641 -0.0264428 0.0259934 0.0467523 -0.011035 -0.0993911 0.0419408 0.0211362 -0.0974949 0.0908802 -0.0220414 -0.0529278 0.0798878 0.0227617 0.0853203 0.0208459 -0.12349 -0.00965379 -0.0848186 0.00685632 -0.106606 -0.0582331 -0.0342005 -0.0528169 -0.0362563 -0.00453001 0.0382305 0.00692596 -0.0305093 -0.0182046 0.0462715 0.00554259 -0.0100142 0.00581016 -0.0153087 -0.0113167 -0.0248639 -0.0121429 -0.0840816 0.152038 -0.0119543 0.0257533 -0.0109933 -0.0260384 -0.0602006 -0.0836028 0.0179167 0.0825556 0.0276761 -0.0206737 0.037768 0.0400754 0.0451465 -0.0623636 0.047497 0.0335672 -0.0356725 0.0105676 -0.0497171 0.0642925 0.0242657 0.0655106 0.118461 0.0235948 0.0309912 0.0687438 -0.015113 -0.0788589 -0.0292141 -0.113377 -0.0601543 -0.0275583 -0.0564804 -0.0223075 -0.0896078 0.0621835 -0.0739023 0.0463066 0.0561688 -0.0122264 -0.00847675 0.12682 -0.104808 0.00667259 -0.0176035 -0.0449181 0.00401659 0.0148063 -0.0110403 0.0417922 -0.0329326 -0.0763454 -0.041662 -0.0353762 0.00339349 0.0108903 -0.0328002 0.0249053 0.00475094 0.0147019 0.081835 0.0693298 0.077271 0.00207795 0.0135633 0.0538625 -0.0614576 0.0240342 0.067964 0.0669837 -0.0244941 -0.1242 0.00266196 -0.00115902 -0.057177 0.00428354 0.0486866 0.0766896 -0.170644 -0.127488 -0.00783493 -0.0159254 0.0405439 -0.0536196 -0.0627129 -0.0774447 -0.093799 0.0682764 0.160054 0.0105984 0.14104 0.0306817 0.0168266 -0.120999 -0.0740356 -0.0132009 -0.0480913 -0.0600464 0.0755956 0.0207945 -0.0617073 0.000468291 -0.0506313 0.0635043 -0.0833361 -0.0745644 -0.10766 -0.0663748 -0.00461784 0.0401597 0.00267614 -0.0115961 0.0748697 -0.04448 -0.0758208 0.0307913 0.0162768 0.0663463 -0.0350692 -0.0669813 0.00179364 -0.0201576 0.0173579 0.00996418 -0.030834 -0.0557447 -0.00709197 -0.00775168 0.00162841 -0.046759 0.0129172 0.0551721 0.0135696 -0.0620619 0.0866702 0.0511543 -0.1477 -0.0227869 0.0648797 -0.0546991 -0.00526886 0.075812 0.0460663 -0.0280659 -0.0606605 0.16482 -0.0370478 -0.0118899 0.0148883 -0.00723858 0.0434731 -0.0103243 0.0844742 0.0132817 -0.0495548 -0.052707 0.0384917 -0.00430504 -0.0296114 -0.0510437 -0.0700038 -0.110276 -0.165624 0.0790913 0.0833783 -0.0471371 0.054874 0.00514821 -0.0677431 0.00440224 0.00590455 0.0503961 0.00265937 0.027255 0.089803 0.0481424 0.0067936 -0.0193088 0.0299297 -0.0122337
