999 300
. -0.0880519 -0.0904436 -0.0492648 0.0218757 -0.0406605 -0.00775476 0.0580737 -0.0598729 0.0161716 0.130946 0.00965522 -0.085784 0.0579338 0.000445008 0.0107617 -0.0780289 -0.0592259 -0.031267 0.0285325 0.0447504 -0.0303223 0.0896319 -0.0723441 -0.0611745 0.0193503 -0.0708855 -0.0284607 -0.0181076 -0.044212 0.0185084 -0.170957 0.141175 -0.0839958 0.0192036 0.0230682 -0.00223029 -0.0944811 -0.0138797 0.141781 -0.0216479 0.0221647 0.00990378 -0.0227707 -0.00685181 -0.0627939 -0.0313266 -0.0193145 0.00992587 0.0226351 -0.0194735 0.0310686 -0.103639 -0.0722074 0.0367671 -0.115657 -0.00777073 -0.0136916 0.0391406 0.0228873 0.0921727 0.0122846 -0.169064 0.0929666 -0.102335 -0.0326824 0.004329 -0.044375 -0.00554852 -0.0783089 0.0487769 -0.0469704 0.0339634 -0.0841085 -0.142968 -0.00379913 -0.0282942 0.147174 0.125309 -0.0161405 -0.0258363 0.0130764 0.0333984 0.0303065 0.0309031 0.0147645 -0.049527 -0.0410466 0.0208763 0.0389049 -0.0361869 -0.00581938 -0.0786004 0.059847 -0.0690713 0.0451027 -0.0441754 -0.00581334 0.0139002 -0.0164983 -0.0706138 0.0505989 0.0488739 -0.0492351 -0.0167396 -0.00808536 0.00705513 -0.0458079 0.00878527 -0.000878738 0.00122644 0.0299944 0.0369749 -0.0654059 -0.0268945 -0.0713365 0.0238834 0.0134805 0.0446712 -0.0138052 0.0332813 0.0906516 0.0214678 -0.0326153 0.133333 -0.0341478 0.00576708 0.0957515 0.0298076 0.0283783 0.0556 0.00139071 0.132106 0.0461815 0.0913538 -0.0643745 0.0297206 -0.0468539 -0.0430075 -0.0531136 0.106826 -0.00512558 0.0366156 0.0158228 0.147914 0.0370033 0.067058 0.0471639 -0.00724449 -0.0357835 -0.00598085 0.0600192 -0.0756679 -0.0375609 -0.0493059 -0.0345045 -0.0413287 0.0816151 0.0507803 0.121698 0.0458509 -0.0219887 0.122616 8.22748e-05 0.0233756 0.146476 -0.0122232 -0.0319692 0.0430952 0.102953 -0.0120429 -0.140407 0.0360235 -0.0991663 0.0216174 0.0534313 0.0253207 0.029538 0.00869226 0.0283224 0.00720187 -0.00602264 -0.0596595 -0.0438037 0.0843872 -0.00315675 0.0641981 -0.00285502 -0.0701142 0.0891333 -0.0683127 -0.0621374 -0.103154 0.0856363 0.0245622 -0.0568759 0.0311531 -0.0599264 0.00991062 -0.104021 -0.0713087 -0.0457118 -0.0215792 -0.0410355 -0.00626551 0.0356573 -0.0546299 -0.0712011 0.00594229 0.090271 0.0986524 0.088219 -0.0655742 -0.00947033 0.0039175 -0.0745983 0.0115249 -0.0447157 -0.129078 -0.0862358 -0.0120978 0.00920077 -0.0182831 0.0189906 0.00283406 -0.0372535 -0.00431414 -0.0244545 -0.0366286 0.0188937 0.0688671 0.0854867 0.0464736 -0.0796788 -0.0645133 -0.0066174 0.0108519 -0.038352 0.00114696 -0.0050627 -0.0477322 -0.0121729 0.0313386 0.025843 0.0221182 0.0906037 0.0157279 -0.00822897 0.0126035 0.0361817 0.00437218 0.0126046 -0.0164752 -0.073226 -0.00265209 -0.016888 0.0276341 0.00244479 -0.0337489 -0.0447923 -0.00321393 0.0169525 0.0633952 0.0791991 0.016893 0.0385206 -0.0225465 -0.0374089 0.0074645 0.0202936 -0.00234536 0.0143535 0.0555829 0.100003 0.0348449 -0.0958885 -0.0370585 0.0234936 0.0129359 -0.0283885 -0.0266144 0.0659381 0.0277049 -0.0400856 -0.128479 0.0586713 -0.000123791 0.0678368 0.0732695 0.0152607 0.017413 0.0892657 -0.0266097 -0.000570481 0.0127196 -0.00298248 -0.122734 -0.0576845 -0.00378345 0.0067135 -0.0395543
</s> -0.136961 0.069936 -0.0384727 0.0415419 -0.0537785 -0.0090806 0.0080533 -0.0789997 0.0490909 -0.011817 0.0299728 0.0647873 -0.0180311 -0.0290913 0.0889507 -0.0625971 -0.038826 0.0805347 0.0457407 0.0999726 -0.0387707 0.0470399 -0.0590991 -0.0598211 -0.109675 -0.0788028 -0.026085 -0.0724057 -0.0618886 0.0431964 -0.0153839 0.152165 -0.0343474 -0.0433923 -0.0402579 -0.100232 0.0068857 -0.0254523 -0.0144665 0.00230307 -0.00454847 -0.0751805 -0.0428969 0.0140352 -0.0100154 0.0717437 -0.0408442 0.0289119 0.0402314 0.00666048 0.00727941 -0.0678066 0.0347818 -0.142256 -0.00406901 -0.0148616 0.0234679 -0.00084557 0.0246798 0.0897282 0.0667239 -0.121133 0.00325643 -0.0863058 -0.0631812 -0.0405881 0.0104603 0.0367741 -0.0320123 -0.0280447 -0.0272385 -0.0306176 0.0973693 -0.024437 -0.0737874 0.0334141 0.113865 -0.0235153 -0.0494695 -0.0214443 0.0109687 0.0155628 -0.0561391 -0.046239 -0.0718814 0.0313309 0.0870276 0.031968 0.0564285 -0.0945522 -0.0202176 0.0785139 -0.0127494 -0.012799 0.064853 -0.0400405 0.0458557 0.082512 0.0572355 -0.109867 0.0332082 0.00993754 0.0219735 -0.0873731 0.062161 -0.0263268 0.015009 -0.0760711 0.0264768 0.00895474 -0.055765 0.0204811 -0.0404805 0.0493767 -0.0222895 -0.0138033 0.0284017 0.05205 0.0044384 0.0399986 0.148999 0.0807913 -0.0590179 -0.0252378 -0.072159 0.00988466 -0.0390765 0.0664448 -0.00675779 0.0790683 0.0317436 -0.044052 -0.00663967 0.0519156 -0.0191759 0.0303094 0.00765613 0.0417611 0.105861 0.10448 -0.000336299 0.094918 0.119644 0.083044 0.0399489 0.00454215 -0.0178339 0.0402603 0.0530436 -0.0285848 0.0856117 -0.0391994 -0.0740266 -0.06948 0.0169526 -0.0458627 0.0242853 0.0180362 0.0182859 -0.038626 0.0432758 0.0222923 -0.0580696 -0.0166877 0.025585 -0.0317209 -0.062988 0.00245643 0.0397614 -0.047521 -0.0429234 -0.0221533 -0.0784619 -0.00963445 -0.0761918 0.0218587 -0.0596705 -0.00910013 -0.0143148 -0.0532233 0.0441681 -0.0459501 -0.0487599 0.00357897 -0.0159266 0.143027 -0.0762108 -0.0440005 0.00795776 0.070256 -0.0162962 -0.0973583 0.0380814 -0.0407067 -0.0645403 -0.00318734 0.0876909 0.0782956 -0.0421548 -0.112461 -0.05303 0.0406701 -0.0231466 0.0106145 -0.0817256 -0.106632 0.0834046 -0.0232028 0.11433 0.0541921 0.0126742 0.0794003 0.055963 -0.036947 -0.0828095 -0.0486109 -0.0618213 -0.121664 -0.0588793 -0.0790152 0.0918721 0.100207 -0.0239747 0.0297485 0.00445168 -0.0290135 -0.000681872 -0.0868358 -0.0195771 -0.0575508 -0.0554121 0.00749865 -0.0246689 -0.0255303 0.0222581 -0.0477973 -0.00604403 -0.0718876 -0.0232159 -0.0486634 -0.0855736 -0.0330206 0.0270834 -0.058669 -0.00855881 -0.0997985 -0.00876112 0.0389654 -0.0499914 -0.0218902 0.0397737 -0.0350272 -0.107654 0.0651668 -0.048738 -0.00624309 0.0721933 -0.091042 -0.0762878 0.0508008 0.0125473 0.0805224 0.0615029 0.012583 -0.11232 -0.040038 -0.0134911 0.063832 0.0428825 0.0325902 -0.0536568 0.0404544 0.0655595 -0.151271 -0.066245 -0.033417 0.035147 0.0196936 0.0423312 -0.021659 -0.111991 -0.0367931 -0.0199336 0.000422848 -0.00773555 -0.000366988 -0.0182918 -0.0171541 -0.0710128 -0.00658784 -0.019527 -0.0601252 0.0487783 0.099025 -0.093154 -0.0162457 -0.0533352 0.0283489 0.116955 0.0593751
, -0.066418 0.0692342 -0.0356146 -0.0234202 -0.0235384 0.0687869 0.0525012 -0.0816417 0.0422093 0.0917132 0.0437328 -0.0458457 0.10997 0.0881806 -0.0356659 -0.0871694 -0.0391561 -0.0394808 -0.0239002 -0.00692179 -0.00761349 0.0672129 -0.0355973 -0.043067 0.019588 0.0199506 0.0197293 -0.0149995 -0.0560876 -0.0205662 -0.0888178 0.105042 -0.145531 0.0399437 0.0614593 -0.0492443 -0.116989 -0.042738 0.139688 0.0045641 0.0408427 0.00805727 -0.0948878 -0.0405816 0.0630265 -0.0339171 -0.0231939 -0.000462867 0.0289358 -0.0179706 0.0735733 0.00508747 -0.0691276 0.00325153 -0.0356196 0.0377176 -0.0169729 0.00374504 -0.0637019 0.083925 -0.0639253 -0.0866943 0.0740475 0.0230368 -0.0288416 -0.0476857 -0.0233777 -0.0330323 -0.031288 0.0165897 -0.00394236 -0.026082 0.019733 -0.0858112 -0.00343437 -0.0788214 0.0839514 0.0488987 0.0302263 0.0235301 0.0097061 0.00615071 -0.0243355 0.00923426 0.0171918 0.00387073 0.0173038 0.00200488 0.0636245 -0.0269811 0.0108978 -0.0113769 0.0905392 -0.077897 0.074474 -0.0139093 0.0241356 -0.0123676 0.103911 -0.0391941 0.0731331 -0.0594892 -0.0227083 -0.0554081 -0.0390076 0.0314967 -0.0909653 0.0140297 0.0230447 -0.0386519 -0.0164094 0.0868372 -0.138762 -0.0342541 -0.0869061 -0.00281189 0.0295541 0.0442966 0.0190646 -0.0414502 0.142555 0.0979942 -0.0350353 0.114357 0.0229833 -0.0149949 0.0606597 0.0444533 0.069068 0.0660698 -0.0697387 0.123935 0.0285239 0.00343214 -0.0955027 0.014313 -0.104854 -0.0290955 0.0130532 -0.0165517 -0.0221267 0.0440806 0.0685542 0.00534182 0.0379797 0.0550729 -0.0163929 0.0520724 0.0494851 0.00936278 0.0218769 -0.138105 -0.0155618 -0.0265825 -0.0862197 -0.0505926 -0.0324526 -0.0294275 0.0650055 0.0511653 -0.053017 0.1297 -0.0505638 0.0655069 0.0758266 -0.123991 -0.0692718 0.0425201 0.0503278 0.0225302 -0.0384086 -0.0489434 -0.0689797 -0.0417209 -0.0741821 0.0677856 0.0133822 0.0441955 0.0484826 0.0522803 -0.00105892 -0.0892199 0.0278698 0.0703131 -0.026333 0.143143 -0.00687751 -0.0978044 0.0572537 -0.0320965 -0.0794523 -0.0774843 0.0818263 0.0718604 -0.0225959 -0.0359146 -0.00714952 0.0809516 -0.136213 -0.0484325 -0.013398 -0.101344 -0.0502961 0.0395008 0.0240903 -0.0410003 -0.0287499 0.00860918 0.0567788 0.0396636 0.120549 0.00663121 -0.052274 -0.0303992 -0.07634 0.00721232 -0.0105494 -0.113394 -0.0620716 -0.0142081 -0.0818106 -0.0111408 -0.112879 0.0577762 -0.00753862 -0.0561494 -0.0715304 0.0162949 -0.00034306 0.0590296 -0.00248492 0.0129808 -0.0854293 -0.00656029 0.000552676 0.0129532 -0.02892 -0.0865576 -0.130007 -0.010339 -0.0091766 0.0298759 -0.00168489 -0.00122288 -0.0441028 0.0817261 -0.0338311 0.0130721 0.0461498 0.0668426 0.0520264 -0.0289149 -0.025438 0.0185124 -0.0571418 0.0508167 0.0396864 0.0768997 -0.00323212 -0.0167372 -0.0217794 0.0236783 0.149986 -0.0529901 -0.00859874 -0.0328772 0.0134493 0.0511653 0.0122106 -0.0506652 -0.0375369 -0.018607 0.065608 -0.0392825 -0.085428 -0.0849173 0.0394135 0.0375683 0.00648068 0.0492575 -0.0188652 0.0441466 -0.0588916 0.00389051 0.13125 -0.0518375 0.0724804 0.0420764 -0.0340512 0.0133763 0.0987114 -0.0311053 0.0501999 0.0310655 0.017604 -0.061774 -0.0511798 -0.0463528 0.0471367 0.0167206
- -0.0702794 -0.0324338 -0.0544999 0.0211621 0.0112521 -0.01121 -0.0570758 -0.0495221 0.0241098 0.0171888 0.0352844 -0.0726644 0.111969 -0.0555243 -0.0499869 -0.00675107 -0.0467805 0.0191984 0.0288382 0.0543009 -0.0053012 -0.0509768 -0.0066407 -0.0226785 -0.110505 -0.0415138 -0.0519202 -0.0308859 -0.0121949 0.124175 -0.0428136 0.102629 -0.0219367 0.0837217 0.019347 -0.0224947 -0.0723779 0.0154477 0.0331162 -0.0221445 -0.0434402 0.0243321 -0.0835923 0.076114 -0.109195 -0.0372505 -0.0288608 3.1734e-05 0.0692506 0.00404021 -0.0194734 -0.0354227 -0.0660729 -0.0435908 -0.0487646 0.0463167 -0.0410827 0.034878 -0.000439414 0.0534364 -0.027481 0.0172737 0.117183 -0.118072 -8.43034e-05 -0.00140759 -0.100992 -0.0245108 -0.175009 0.0601668 0.0664289 -0.0388344 -0.0767577 -0.0107299 0.0174559 0.0124398 0.101802 0.070858 -0.021528 0.111882 -0.000633764 0.00984978 -0.00196719 -0.0202946 0.092391 -0.0705297 0.000894479 -0.0772062 0.0554302 -0.0147663 -0.0785586 0.00814897 0.0458936 -0.0770123 0.0135838 -0.0537409 0.104032 0.0250827 0.0202643 -0.0244677 0.0254815 0.0588236 0.0122637 -0.0408315 -0.00710155 -0.0410846 -0.0766112 0.089219 -0.00584349 0.0135046 0.0678234 -0.0165264 -0.0587784 -0.00308045 -0.0229177 -0.0134458 0.0594819 -0.0235177 -0.00157589 0.0629095 0.105278 0.00315941 0.00250438 0.0960133 -0.0312427 -0.0752846 0.0753503 0.0250259 0.0219597 0.0406148 -0.00879152 0.0551413 -0.0241936 0.0525874 -0.05197 0.0300867 -0.0192624 0.103416 0.0501969 0.071241 0.0662096 0.0227969 0.0684116 0.134557 0.107563 0.100563 0.0411107 0.0676622 -0.020339 -0.000748349 -0.0177359 -0.0959607 -0.0121146 -0.0792316 -0.0612493 0.00843415 -0.014336 -0.0150826 0.0133314 0.0221605 -0.0686782 0.0722902 -0.0572707 -0.00152043 0.14051 0.0121508 0.0202779 0.00498025 0.0730749 0.0232388 -0.045451 0.0589243 -0.0203548 0.0333336 0.00125116 0.0438247 0.0361707 -0.00337922 0.0666832 -0.0252027 0.0522141 -0.00346916 -0.0527348 -0.0409615 -0.0601053 0.225585 -0.0210295 -0.118316 0.0916582 -0.00232339 0.0360838 -0.0766992 0.0474975 0.0019221 -0.098846 0.0102395 0.0189198 0.00578696 -0.0780802 -0.0516404 0.0280996 -0.0297029 -0.0115158 -0.0462775 0.0224032 0.00162549 -0.0253855 0.00146896 0.117067 0.114766 0.0456763 -0.0151481 0.00378217 -0.0015171 -0.0171036 -0.0556857 -0.0897992 -0.0365661 -0.0186845 0.0141826 -0.0417526 0.0245194 -0.0666279 -0.0559902 -0.056198 -0.0369528 -0.0408847 0.00642534 0.0343758 0.0585325 0.0556119 0.0689672 -0.104901 -0.10957 0.0201741 0.0783598 -0.0111127 0.0313868 -0.0735324 -0.0384093 0.0457813 -0.00339105 0.0135517 0.0201888 0.125911 0.0311786 -0.00474761 0.0528229 0.0176608 0.0464186 0.0443631 -0.00676578 -0.0810301 0.0785747 -0.0188114 -0.0742468 -0.0863714 -0.00307397 0.0308691 0.0270999 -0.0291995 -0.0428745 0.126647 -0.0326212 -0.0464873 -0.0457871 0.00460175 -0.0373635 0.077486 0.00882436 -0.0346248 0.0387408 0.0448718 0.0288093 -0.0754275 0.0336908 0.121946 0.0466915 0.074313 -0.000262618 0.0541188 0.0373884 -0.0636078 0.0471532 0.0872444 0.0273759 0.100708 0.021737 -0.0831698 0.0374175 0.0821813 -0.0711792 0.123955 0.00641265 -0.0668171 -0.106384 -0.0549252 0.0119773 0.0143896 -0.0414787
ja -0.0283205 -8.7049e-05 -0.0421761 0.026727 -0.0362623 0.0293601 0.0553854 -0.0401537 0.0574526 0.114478 0.103234 -0.0417956 0.0767822 0.00507498 -0.0196168 -0.0882702 -0.030343 -0.0837701 -0.0393644 0.0406988 -0.0455514 0.0175726 -0.0776384 -0.0313254 -0.0300086 -0.0229535 0.0253561 -0.0106779 -0.0434421 -0.0128173 -0.0706592 0.126297 -0.0689543 0.135779 0.0273758 0.0560955 -0.0614745 -0.0268934 0.135905 -0.0466271 0.0365297 -0.0195458 -0.043003 -0.0444778 0.0137045 -0.0204605 -0.0319638 -0.022459 0.00674162 -0.0319453 0.0823846 -0.00887858 -0.0753696 0.048723 -0.0863058 0.0053068 -0.0204503 0.042903 -0.0863901 0.0655032 -0.0750304 -0.100617 0.0945682 -0.0371879 0.0367377 0.0165029 -0.163517 0.000481063 -0.052145 0.00954599 -0.151857 -0.0188283 -0.07465 -0.0824049 -0.00174976 -0.0490099 0.114853 0.103198 0.0549933 0.00491457 0.00679691 -0.0345395 -0.0455782 -0.055874 -0.0372327 -0.031462 -0.0932115 0.086787 0.0352231 0.010157 0.0178206 -0.0485363 0.0755142 -0.0928664 0.0623528 0.0703736 0.0419685 0.0499354 0.0586342 -0.0442824 -0.0143224 -0.0489287 0.0735823 -0.0378234 -0.0792372 0.00280109 -0.0542121 0.0315597 -0.00709335 -0.03276 -0.029611 0.0632897 -0.0837097 -0.0654294 -0.0170236 -0.00798188 -0.00508707 0.0591022 0.0212726 0.0101885 0.0868794 0.0795735 -0.0225134 0.10368 0.00875695 -0.00148468 0.100408 -0.0302403 0.0664756 0.0828564 0.000178681 0.100122 -0.039085 0.00209708 -0.0319606 0.029834 -0.0338596 0.0469933 -0.0428709 0.0175456 -0.0279865 0.0127042 0.0923147 0.0173349 0.0718676 0.132887 -0.0124163 -0.0136763 0.0559906 0.0233273 0.0169555 -0.089959 -0.108778 9.93478e-05 -0.0736104 -0.0364538 -0.0588778 -0.0495195 0.136402 0.0208763 -0.0491403 0.124174 0.00729902 0.0758318 0.0935755 -0.0909891 -0.0329883 -0.0316625 0.095332 -0.0207398 -0.0222777 -0.0218552 -0.068812 -0.0233308 -0.0224949 0.0161637 0.0414302 0.0776862 0.0146786 -0.0633171 0.0468144 -0.0427331 0.028382 0.0764932 0.0184574 0.121259 0.0207184 -0.0291858 0.0537344 -0.0497323 -0.0619516 -0.048427 0.0061056 0.0469975 0.0299441 -0.0189583 -0.0931557 0.0128106 -0.102023 -0.00740463 0.0460504 -0.0936168 -0.0664672 -0.0129194 0.0176881 0.0088966 -0.0433426 0.00959938 0.089509 0.0238043 0.135955 0.00659111 -0.00776647 0.00011104 -0.0518636 0.0420327 -0.00222333 -0.157535 -0.034808 -0.0461283 -0.0323775 -0.0388357 -0.0278449 0.0175053 -0.124068 -0.0338626 -0.0607202 -0.0752214 0.0164773 0.0827245 0.0394533 0.013368 -0.0693691 -0.0466391 -0.0254887 0.0235113 -0.00787789 -0.117721 -0.0330058 0.00232787 -0.0064716 -0.00901165 0.0153721 0.0232475 0.0781198 0.0294114 -0.0310083 -0.00793393 0.0439112 0.0211097 -0.04432 -0.0435904 -0.0153654 -0.0571053 -0.032187 0.0150131 0.0163672 0.00827006 0.00418752 0.00975297 0.0445639 0.0728572 0.0770202 -0.0596601 0.00573271 0.0359578 0.0222571 0.0508628 0.0461754 -0.0547097 -0.0915124 0.0240494 0.0243489 0.025428 -0.0914963 -0.0335083 0.0160403 0.0214825 -0.0456637 0.0860777 0.036578 0.0371115 0.00636698 0.0066777 0.0956352 0.033141 -0.00819001 0.0641466 -0.0965671 0.0502309 0.0987037 -0.0377279 0.13307 0.0893006 0.0695312 -0.0420876 -0.014639 -0.0243554 0.0383813 0.00814467
) -0.112128 -0.061705 0.0197611 -0.0378024 0.0111853 0.0288283 0.0450911 -0.0720003 0.0169978 0.0382336 -0.0272869 -0.0796482 0.10143 -0.00114567 0.023653 -0.014731 -0.0169094 -0.00285784 -0.0289745 0.0303451 0.0251085 0.0279747 -0.0522991 0.00846678 -0.0339434 -0.00511773 -0.0120993 -0.0437773 0.0014261 -0.00570822 -0.119395 0.130605 -0.0808704 0.033938 -0.0110438 0.0285812 -0.0911201 -0.0885739 0.0347786 -0.0314558 0.0694688 -0.0154017 -0.0313909 -0.0206379 0.0125158 -0.0172357 -0.110916 -0.0587171 0.103773 -0.00226111 -0.0529627 -0.0612741 -0.0489229 -0.0638915 -0.0600975 -0.0525141 0.0188678 0.0198676 0.0181898 0.105211 0.069215 -0.0839112 0.0364466 -0.0254473 -0.0225944 -0.0248386 0.0494486 -0.0962387 -0.0791573 0.0424154 0.0173594 0.0415524 3.92742e-05 0.0151327 -0.00376095 -0.0148666 0.103683 0.0566968 0.000306242 0.101322 0.0101836 0.0629131 -0.00181325 0.0806423 0.0313137 -0.0841748 0.0520923 0.00520603 -0.000652907 -0.0174784 0.0108152 -0.0145345 -0.0169917 -0.0307653 0.0362115 -0.0542429 -0.0581516 0.0341344 0.0282131 -0.0438053 0.0845015 -0.0236699 -0.0748276 0.00949334 0.0723653 -0.0329162 -0.0656616 -0.000728387 0.0688063 -0.0516095 0.0748913 0.0615607 -0.0665616 -0.0628991 -0.0473432 0.0281488 -0.0260549 -0.00227631 -0.0237994 -0.0474933 0.143688 0.0117401 -0.0703179 0.157972 -0.0742993 0.0812694 -0.0150148 0.100229 0.00933622 0.000628412 -0.0246767 0.110221 0.0258715 0.0869106 -0.0542028 0.035165 -0.0354528 -0.0944081 0.0835916 0.0967534 -0.0331626 -0.0237131 0.0898414 0.129369 0.00869698 0.176786 0.0217121 0.0333251 0.0110858 0.0259463 0.0667654 -0.0229929 -0.0774053 -0.015092 -0.0599525 0.0494666 -0.0212573 -0.0189766 0.0754557 0.0624442 -0.00698225 0.0882565 -0.0628196 0.0349847 0.0955061 -0.127569 -0.0277421 0.0179248 0.0126441 0.0279022 -0.0635709 0.0345107 -0.0395179 0.0032694 0.00897029 0.0371307 0.0720408 -0.0237141 0.0502274 -0.00761929 -0.065997 -0.0240296 -0.0033976 0.0801554 -0.0620014 0.0605955 0.0314958 -0.0288142 0.0844838 -0.0148524 0.0136167 -0.114247 0.0258493 0.0831125 -0.0705518 -0.0926146 0.0436022 0.0218533 -0.163581 -0.00379956 -0.0823144 -0.0805716 -0.0157432 0.0205066 0.00927321 0.0451075 -0.0553949 -0.00932145 0.136345 -0.0138166 0.137056 -0.0242771 -0.0290783 -0.0628042 -0.0303229 -0.0554495 -0.00414088 -0.0362982 -0.118566 -0.051944 -0.0309761 0.0530125 -0.0457193 0.0976895 -0.0176813 -0.0336243 -0.0618557 0.0180236 0.00506644 0.0880156 0.017574 0.106409 -0.0541938 -0.115887 -0.02106 0.0311584 0.0223518 0.0266837 -0.0756497 -0.0764234 -0.0341888 0.0335253 -0.0459145 -0.0346351 0.0396255 0.0626082 -0.00123819 0.00643286 0.0318346 0.0446603 0.0824036 -0.0342174 -0.00837188 0.038744 -0.00147841 0.00248944 0.0422148 0.0447104 0.0241292 -0.0143171 0.0274218 0.0430846 0.118715 0.0224917 0.0101332 0.00974316 -0.019241 0.0436305 -0.0250819 -0.0179496 0.00214708 -0.000394594 0.0725194 -0.0529927 0.0581568 -0.0169859 0.102562 -0.0277661 0.0656071 0.000534988 0.000294041 0.0962484 -0.0536006 0.0210408 0.105868 0.0626436 0.0794125 0.036899 0.103553 0.0372945 0.0486588 -0.0734696 0.0328798 0.0214534 -0.00745292 -0.061507 -0.0596146 0.0329655 0.0622417 0.0841533
( -0.0976851 -0.0537823 0.0274847 -0.0269714 -0.00810345 0.030303 0.0496593 -0.0519408 0.0547814 0.0345767 -0.0202163 -0.0727053 0.0988982 0.0113368 0.0135731 -0.0152119 -0.0186166 0.0091562 -0.0333085 0.0481146 0.00406173 0.0141826 -0.0291749 0.0250401 -0.0580492 0.00851389 -0.00784325 -0.0570909 -0.0169779 -0.000853902 -0.103867 0.125575 -0.0942406 0.0282179 0.00222268 0.0199831 -0.0878261 -0.0707895 0.0521074 -0.0421784 0.0724207 -0.00447906 -0.0525708 -0.0126036 0.027425 -0.0267443 -0.109674 -0.0752397 0.109613 0.00586238 -0.0395823 -0.0815835 -0.0415386 -0.0772357 -0.0515022 -0.0669188 0.0187985 0.0094135 0.00475352 0.112416 0.0623713 -0.0913133 0.0251834 -0.035476 -0.0380606 -0.0190685 0.0921548 -0.0746321 -0.0724254 0.0613945 0.0240187 0.0447302 0.0133043 0.00827755 -0.00517938 -0.0114842 0.0977476 0.0508896 -0.00325743 0.109479 0.0305624 0.047541 -0.0156307 0.096389 0.0447832 -0.061664 0.0580279 0.0140315 -0.00722763 -0.00356074 -0.0264035 0.000273916 -0.0290969 -0.00654921 0.0204348 -0.0450837 -0.0489362 0.0292485 0.0478809 -0.0470447 0.100473 -0.0123455 -0.0739882 -0.00400023 0.0762053 -0.0277198 -0.054051 -0.0162178 0.06291 -0.0708979 0.0733455 0.052981 -0.0376893 -0.0489353 -0.0513572 0.0280113 -0.0277073 -0.00155547 -0.0262624 -0.0201008 0.144075 0.00234275 -0.0610093 0.145474 -0.0624068 0.0954553 -0.0115665 0.0967366 0.00747369 -0.00830788 -0.00770733 0.0857982 0.0425927 0.0839185 -0.0430107 0.0425261 -0.0323635 -0.0878284 0.0648748 0.086756 -0.0469079 -0.017495 0.0921828 0.117031 0.0103993 0.165444 0.0254328 0.0288373 0.00934307 0.0117527 0.0750807 -0.00767128 -0.0759472 -0.0123735 -0.0462669 0.0610631 -0.0196998 -0.0194118 0.0768005 0.0680688 -0.0185143 0.0698999 -0.0773081 0.046502 0.0789015 -0.123626 -0.0560233 0.0319517 -0.00174426 0.0269827 -0.0589076 0.0412271 -0.0376789 -0.00960602 0.0148502 0.0383181 0.0537398 -0.0374473 0.059999 -0.0161136 -0.0652149 -0.0316078 -0.00968641 0.0613695 -0.0694464 0.0703236 0.0441009 -0.0428314 0.0977078 0.0265431 0.0194088 -0.1113 0.0148123 0.102168 -0.0822765 -0.0749142 0.0348455 0.0187504 -0.175735 -0.0208879 -0.0764731 -0.103618 -0.0143063 -0.00343828 -0.00873473 0.0445756 -0.0733961 -0.00142851 0.135004 -0.0147866 0.14688 -0.0224186 -0.0131599 -0.0680817 -0.0243254 -0.0657536 -0.0187358 -0.0506452 -0.128601 -0.069926 -0.0364922 0.0536927 -0.0662477 0.0854791 0.00507131 -0.0411437 -0.0638506 0.0241266 -0.00433668 0.0861249 0.0225078 0.107142 -0.0340676 -0.104785 -0.0307599 0.0394088 0.000882287 0.0219991 -0.0675542 -0.081343 -0.0174441 0.0404142 -0.0289952 -0.0289954 0.0433165 0.065323 0.00162549 0.00178658 0.0459372 0.027529 0.104011 -0.0330386 -0.0360457 0.0391403 -0.0111428 -0.0134416 0.0373681 0.0408673 -0.00379458 -0.0147522 0.0417314 0.0472708 0.10943 0.0155891 -0.0107818 -0.00334347 -0.0206197 0.037586 -0.0376035 -0.0258638 0.0154186 -0.0107286 0.0699928 -0.0503413 0.0523596 -0.0226279 0.0962339 -0.00250882 0.0695034 -0.0075011 -0.0213979 0.0869229 -0.0400275 0.0374487 0.111487 0.0678129 0.0720504 0.0129597 0.0867112 0.0508352 0.0433134 -0.0746683 0.0304891 0.0201463 0.0163814 -0.0744118 -0.0476289 0.0204053 0.0824248 0.0757995
on -0.033338 -0.0256247 0.0907789 0.0126832 -0.0387368 0.0154082 0.0647969 -0.0161174 -0.030164 0.0225634 0.0845366 0.0918738 0.038747 -0.0312407 0.0748622 -0.00824886 -0.0468918 -0.0155661 0.0379585 -0.00779301 -0.0378635 0.0299269 -0.0194011 -0.0865476 0.038309 -0.0183966 -0.0181365 0.080752 -0.0833952 -0.0266401 -0.0427502 0.108898 -0.123285 0.0135171 0.0107441 -0.00247156 -0.0382654 0.0317961 0.0483229 0.00862298 0.0999144 -0.0290067 -0.0680571 0.0461427 -0.0220577 0.0445114 0.0312433 0.0104976 -0.0213421 -0.0243712 0.000207617 -0.0293888 0.0545582 0.0678967 -0.0331 0.006012 -0.00646274 0.0263965 0.00565786 0.017444 0.0336461 -0.0139598 0.0259788 0.000504503 0.0340456 -0.00172052 -0.0785795 0.00805634 0.0496195 0.00254156 0.014236 -0.0368641 -0.000214116 -0.0420323 -0.0915554 -0.0125233 0.076893 0.130307 -0.0704793 -0.0515631 -0.0418335 0.049261 0.0540436 -0.0800786 -0.0200318 -0.0378463 -0.0283332 0.0317952 -0.0422597 -0.0300633 0.0911018 0.021668 0.053568 -0.151524 0.00312297 -0.0985394 0.132276 0.0448074 0.0151257 -0.023058 -0.0463301 -0.0791343 0.0223993 -0.0332805 -0.0105799 -0.0472625 -0.0906938 -0.000455836 0.0418672 -0.0482523 -0.0252485 0.0414647 -0.156261 -0.0181981 -0.0144371 0.0225785 0.0122935 0.0910055 0.097675 0.104131 0.0302746 -0.00350026 -0.0160804 0.137908 0.0138205 0.0397364 0.0330602 0.106604 0.0708864 0.0870574 -0.0152806 0.0947482 0.0636533 0.0304118 -0.0416728 -0.00904492 0.00334131 -0.0134019 -0.00919464 0.0207264 -0.0600726 -0.0157017 0.0627391 0.0129252 0.0232391 0.0808128 -0.0147375 0.052048 -0.0421972 -0.0201655 -0.0319694 -0.0525013 -0.0577557 -0.0417992 -0.0592523 -0.0584162 -0.00300302 -0.0253857 0.139951 0.0528591 0.022396 0.0627424 -0.0585023 0.0258616 0.162394 -0.0986885 0.0332854 0.00231186 0.0794943 0.0822039 0.00875289 -0.0359882 -0.0565546 -0.0137284 -0.0184044 -0.0191247 0.0773478 0.00279724 -0.0263643 -0.0267807 -0.0246154 0.0102488 0.0309006 0.0993285 0.0196955 0.0145782 0.0502671 -0.0553439 0.0376483 -0.048791 -0.0144432 -0.135718 0.0423593 0.0702633 -0.0370335 -0.119913 -0.0178532 0.0605647 -0.0613071 -0.0107804 -0.010905 -0.0445588 -0.0341991 0.00903983 -0.11047 -0.0113608 0.000344791 0.0914491 0.11369 0.00421704 0.0914864 -0.040689 0.0052469 -0.00838175 -0.0988258 -0.0691292 -0.0432462 -0.100801 -0.0593972 0.0331377 -0.0340966 -0.0389448 -0.0985437 0.0289944 -0.0314525 0.011831 -0.035324 0.0933107 -0.0101493 0.0107832 -0.0557984 -0.0385582 -0.0910199 0.0125938 -0.0519139 -0.0511803 -0.0481233 -0.0812299 0.0236073 0.0790638 -0.0589221 0.130428 0.0236296 -0.0293372 0.055842 0.159118 0.0231707 -0.0074405 0.0473293 -0.00364557 -0.00315922 0.0246339 -0.0690289 -0.049802 -0.0217829 0.0859914 -0.00390519 0.0350196 0.0284821 -0.0181589 0.0422268 0.0536581 0.108848 -0.0436851 -0.019065 0.0213085 -0.0653542 0.0747003 -0.00612199 -0.0352201 -0.0286 0.0128935 0.10438 0.0512105 0.0224628 -0.141435 0.105411 0.0520281 0.0337016 0.0366825 0.0435791 0.0994124 -0.0226134 -0.0432135 0.0255621 0.0360018 0.0886546 0.0225574 -0.00768799 0.133418 0.0266862 -0.0972517 -0.0608424 0.0378279 -0.0290449 -0.14678 0.00638842 0.053323 0.051168 -0.0276048
' -0.0810802 -0.0487327 0.0578638 0.0282615 -0.0374548 0.0438408 0.0691906 0.0166503 -0.0370293 -0.0650569 0.0811721 -0.046401 0.0107163 -0.0768906 -0.046074 -0.00879603 0.0439644 0.0387311 -0.0218225 0.0214248 -0.0366351 -0.0247576 -0.0332623 -0.0478719 -0.0500791 -0.0183763 -0.00214201 -0.000448229 -0.0255402 0.0392575 -0.0301653 0.118506 -0.0315657 -0.0157282 -0.025004 -0.0145885 -0.120555 0.0344577 0.0518104 -0.0272125 0.0655819 0.0509062 -0.0947593 -0.0209446 -0.0545577 0.0435694 -0.0204975 -0.06934 -0.0235371 -0.00572097 -0.00707602 0.0181969 0.0587676 -0.0774476 0.039582 -0.0757207 0.0291298 0.00957484 -0.0171808 0.062987 0.070869 -0.0578831 -0.0195278 0.106683 0.0457259 -0.0210695 0.0106117 -0.0502308 -0.059116 0.0411949 0.0304511 0.031783 -0.0116858 -0.00696225 -0.0146701 0.0281449 0.0523239 0.0110763 -0.055545 0.0970128 0.0101612 0.0894481 0.0475933 0.0471146 -0.013528 0.00397713 0.0721247 0.0207542 -0.0310192 -0.0167228 -0.0919788 0.0954636 -0.00245586 0.0707333 0.0124151 -0.00564689 0.0463366 0.0560051 0.0162523 -0.0394979 0.0133886 -0.0176426 -0.0249195 0.0401033 0.0990571 -0.0181661 0.00105706 -0.00257428 0.131986 -0.0476126 0.0915322 0.0322138 -0.0481671 -0.0706635 0.0187767 0.0747012 0.073407 0.0505182 0.0202476 0.0462616 0.171475 0.0185089 -0.0698925 0.0385782 -0.0370277 0.0190063 -0.00834493 0.101174 0.0170742 0.0105428 -0.0597108 0.0427706 0.0202892 0.0622797 0.0609446 0.0553209 -0.0965556 -0.0696622 0.0544511 0.0850452 -0.0170289 0.0311653 0.0728769 0.0535774 -0.00491145 0.198283 0.0347483 0.0584086 -0.0235642 -0.00670765 -0.00822468 0.00702757 -0.0702454 -0.0719765 -0.140857 -0.015802 -0.0640431 -0.0686333 0.0520561 -0.00584037 -0.103547 0.0270521 -0.0960999 0.0472193 0.0800459 -0.0903844 0.0481221 0.00128275 0.0749587 -0.0271161 -0.0424252 -0.0123799 -0.0933693 0.0092134 0.0266292 0.0594375 0.0439406 0.0291142 -0.0256383 0.0169759 -0.0630034 0.0327238 -0.0605739 0.0244473 -0.0103531 0.0393896 -0.00881497 0.063711 0.0712213 0.0502167 0.0334947 -0.0578745 0.0652491 0.119597 0.0226659 -0.120254 0.0544344 0.043275 -0.133132 -0.0798192 -0.0129656 -0.0540873 -0.0613141 -0.0285864 0.00353739 0.0281279 -0.0267035 0.00770784 0.108699 0.0301064 0.181158 -0.0904553 0.00382507 -0.0271696 -0.0813176 -0.0686033 0.0690894 -0.0171653 -0.0187548 0.029002 -0.0149132 0.00188659 -0.163563 0.130145 0.0108145 -0.0254839 0.00366649 0.0468159 -0.0330257 0.0368545 -0.00531817 0.00999761 -0.115848 -0.0871281 -0.0659437 -0.00273348 0.0113707 -0.00965721 0.0252939 0.00320757 -0.0342241 0.083272 -0.0683426 -0.0318999 0.0755771 0.0411146 -0.0270494 0.0465521 0.0415089 0.0653016 0.0457595 0.0465487 -0.00249712 -0.034945 -0.0547984 0.0169167 -0.0434696 -0.0132025 0.0636525 0.016831 0.0228 0.0496525 0.0625609 -0.00700688 -0.010461 -0.0291614 -0.00680563 0.0670874 0.0164078 -0.00795243 -0.0685593 -0.0496883 -0.0387225 -0.0956361 0.0800565 -0.0536086 0.163288 0.0728735 0.00712462 -0.0765945 0.00719288 0.0741265 -0.0108043 0.0919274 0.0642361 0.0553524 0.0645009 0.032211 0.0383499 0.0337287 0.053229 -0.0343745 0.0257119 0.0441106 -0.120329 -0.0831074 -0.0192596 -0.0508564 0.0733189 0.0783292
– -0.0393209 -0.0854244 0.0084134 0.000782992 0.0250553 0.048393 -0.0159874 -0.0683297 -0.00652763 0.00816561 0.0723682 0.00191494 0.0618083 -0.0185493 -0.0287099 0.0245161 -0.0443765 0.00825464 -0.0522986 0.0673395 0.032269 0.0230083 0.0220468 -0.0292377 -0.061846 -0.14557 -0.0143315 -0.118945 0.0603208 -0.0508429 -0.0829481 0.0614206 -0.0667241 0.0272175 0.0476382 -0.0121485 -0.0767325 -0.029776 0.0779108 -0.0736929 -0.0381594 -0.02908 -0.0442857 -0.029022 0.0819051 -0.0605599 -0.0771182 0.0473216 0.0541251 0.0440207 -0.0360991 -0.0962054 -0.100705 0.00299505 0.0577472 -0.0703627 0.0390181 0.0681725 0.00553476 0.140641 -0.024755 -0.0258719 0.0243855 0.00697187 -0.0799633 -0.0413844 0.017297 0.00772498 -0.104113 -0.00121151 -0.0327933 -0.047823 -0.052542 0.03358 0.066301 -0.0148424 0.0598618 0.0299113 0.00800234 0.111647 0.0396091 0.0437275 -0.0306738 0.0187061 -0.0113923 -0.0209389 -0.0749707 -0.0626223 -0.0140935 0.0214344 -0.064194 -0.0619144 0.0119137 -0.0438226 0.0347377 0.0344801 -0.0369568 0.0585083 0.032186 0.0303584 0.105634 -0.0248875 0.00989364 -0.00157298 0.0262959 -0.0352141 -0.0457149 0.0129484 0.00880919 -0.0641094 0.0389959 0.0318603 -0.0872894 -0.0432164 0.0428214 0.0273865 0.0191049 0.0527338 -0.0270019 -0.0517995 0.101418 0.0741163 -0.0105942 0.0418314 -0.0317938 -0.00536934 -0.0561945 0.017647 -0.0434484 0.0182629 0.0187839 0.0182606 -0.0229619 0.0373761 -0.0491525 0.02674 -0.0906112 -0.10187 -0.00229821 0.0632721 -0.018847 0.0194 0.0620552 0.0648508 0.0224917 0.151662 -0.0311605 -0.078221 0.0141898 0.0886758 0.0478056 -0.0395693 -0.113673 -0.00210814 -0.0232298 -0.0167947 -0.0727608 0.00594199 0.114921 0.076595 -0.0384671 0.0667478 -0.123889 0.0787243 0.0465339 -0.0299885 0.0245066 0.201815 0.0983385 -0.042424 0.0104127 0.0225367 -0.0626711 0.0248292 0.0619536 0.0172093 0.0297034 -0.00626077 -0.00753306 -0.0462359 0.0498926 0.0256552 -0.0346746 0.00330277 -0.0506371 0.0812633 -0.0235285 0.0605256 0.102638 -0.0465933 -0.0339298 -0.0414991 0.0774996 0.124552 0.0408836 -0.0697711 0.0621735 -0.0742348 -0.0749909 0.00680311 -0.0292263 -0.0562547 -0.0672039 -0.0167683 0.122382 0.0505027 -0.0112684 0.0277632 0.185426 0.0756433 0.0948031 -0.00475831 -0.00624238 -0.0847824 -0.0476827 0.0598242 -0.0653658 -0.015815 -0.120357 -0.0643361 -0.0533515 0.0293212 -0.0842404 0.100107 -0.0504726 -0.00617566 -0.0244831 -0.013727 0.0171998 0.0641496 0.0118015 0.081273 -0.0485976 -0.0681561 -0.0246326 -0.00606749 0.0356317 -0.0169553 -0.0431978 -0.0649337 -0.0338349 0.0386111 -0.0106603 -0.116915 0.0236731 0.0029412 -0.0578278 -0.0958059 0.0345691 0.015598 0.0242995 -0.0441053 -0.0458147 0.0233632 -0.0026646 -0.00708916 -0.0052271 0.018314 -0.0967321 0.0262843 -0.107448 0.131113 0.17636 -0.0548602 0.0538541 0.00726617 0.0602966 0.0211812 0.0258678 0.0522386 -0.0249548 0.0470893 0.0547747 0.00190953 -0.00785779 -0.105891 0.117954 0.0746481 0.0154359 0.0627383 0.00221414 -0.0254992 -0.00184212 0.0868468 0.0775403 -0.0602185 -0.00279341 0.02654 0.0246553 0.0264889 -0.00873046 -0.0594673 -0.00281314 0.00472613 -0.000552127 -0.0376881 -0.0084439 -0.0457418 0.0532712 0.00269725
oli -0.033999 -0.0427892 0.00266273 -0.00265926 0.0115233 0.0588878 0.0158652 -0.0532916 -0.0235918 0.0813926 0.0688749 0.0670016 -0.0242324 0.0520942 0.0115005 0.0270683 -0.0780369 -0.0415883 -0.0229126 0.0635486 0.027014 0.0341159 -0.0236426 -0.0652876 -0.0104888 -0.069016 0.00774071 0.0519325 0.00440155 -0.0392934 -0.0320252 0.0373841 -0.129391 0.0550187 0.0218203 -0.0380745 -0.0213572 -0.0257674 0.128194 -0.0271669 0.0762471 -0.0698887 -0.0768507 -0.0189197 0.000768401 -0.102272 0.0319577 0.0338483 -0.0232104 -0.0139496 0.085321 -0.0213832 -0.0175937 0.102996 -0.0815437 -0.024158 0.0535579 0.0787637 0.00671417 0.0149736 0.0217147 -0.0437009 0.0451899 -0.0384587 0.0507786 -0.0194553 -0.09998 0.0672585 -0.0150662 -0.0627486 0.0343947 -8.64382e-05 -0.0159273 -0.00991163 0.0198109 0.0328883 -0.00515829 0.13392 -0.058886 -0.0764117 0.0232569 0.0804907 0.0107199 -0.00363806 -0.0488629 -0.0964101 -0.0615666 0.00983327 -0.0678749 -0.0365725 0.0288659 -0.0906645 0.0721161 -0.140795 0.0356517 -0.0143951 0.0144503 -0.0792681 -0.0290979 -0.0200056 -0.0366097 0.0169611 0.0202136 0.0582517 -0.0242296 -0.0108359 0.0173278 0.0527473 -0.055561 0.00332369 0.0476697 0.00394873 -0.0459123 0.00522292 0.0952918 0.0860745 0.0575159 0.0676697 0.0475376 0.0459392 0.0269268 0.0417463 -0.00925019 0.0669059 -0.000217547 -0.069549 -0.0408885 0.101465 -0.0366132 0.0677799 -0.0936792 -0.0250453 0.0848119 -0.00890766 -0.0717425 -0.0418196 -0.0125188 0.0161668 -0.00905499 0.0150433 -0.0757126 -0.0666405 0.0442902 -0.0349458 0.091772 0.151396 -0.0887814 0.0122525 -0.0150139 0.00566217 0.00855662 -0.00523051 -0.0391275 0.00457832 -0.0630459 0.058262 -0.0308567 0.0136526 0.0409195 -0.00673767 -0.00676095 0.0574493 -0.0317679 0.0809035 0.0754604 -0.0251495 0.116664 0.0662087 0.0593869 0.00689628 0.035048 -0.0257459 -0.0791652 0.0408491 -0.0713595 0.02523 -0.00277077 0.0178244 -0.0605629 -0.0310483 0.0561001 -0.016092 -0.0467519 0.0367261 -0.0647137 0.0787863 -0.0206442 -0.0700973 -0.0303148 -0.086567 0.0603978 -0.182591 -0.0131352 0.109548 0.00101428 -0.0578594 -0.0464251 0.0255716 -0.106213 -0.0359489 -0.0785574 -0.11661 -0.0339061 0.03342 -0.0321849 -0.0404244 0.0196164 0.0505125 0.0788884 0.0207214 0.157827 -0.121017 -0.0230045 -0.111413 -0.0358129 -0.0458714 -0.1158 -0.0996221 -0.10494 0.0447838 -0.0245213 0.0051543 -0.11513 0.0719735 -0.0648297 0.0824565 0.032826 0.0722336 -0.0235223 0.0292054 -0.0392525 0.0206795 -0.0219554 -0.0241414 -0.0165506 -0.0406806 -0.00816928 0.00256747 -0.00332872 0.0828173 -0.0039773 0.103962 0.025701 0.0329493 -0.0103958 0.00725633 0.0275328 -0.081179 0.00451356 -0.00780201 -0.0257946 -0.0281517 0.000200267 0.0323479 -0.051417 0.0338618 -0.0760626 0.057482 -0.063681 0.0596504 -0.0400935 -0.00881201 0.12885 -0.0361471 -0.065837 0.0857142 0.00071428 0.0726914 0.0311909 -0.0354811 -0.115722 -0.0017786 0.0432782 0.0964328 -0.0538313 -0.147564 0.0644926 0.061397 0.132843 -0.00694226 -0.0118668 -0.0391813 -0.0283335 -0.0418772 -0.0207444 0.066145 0.0250922 0.0217315 -0.0297582 0.0129199 0.061228 -0.0624966 -0.0880801 0.100986 -0.0259845 -0.0525932 -0.0639952 0.0401271 -0.0449495 0.000755244
hän 0.0664623 -0.0983725 -0.0754259 -0.0184081 -0.00253561 0.00305528 0.0273265 0.0379291 -0.0429243 0.0952728 0.100987 -0.0132443 0.0169147 -0.038984 -0.0376232 -0.126038 -0.027308 -0.0604143 0.0118201 0.0752946 -0.0063412 0.0630355 -0.129894 -0.135017 -0.00313617 -0.0684941 0.0446071 -0.0424421 -0.0508763 -0.0475251 -0.0546783 0.00766494 -0.0950655 0.0434209 0.00696451 -0.0936976 0.076206 -0.115372 -0.0156067 -0.00190243 0.0101883 0.00106534 0.0189613 -0.0580929 -0.0235132 -0.0985701 0.0102749 0.0767221 0.0368689 0.0221352 0.0433451 -0.0625353 -0.0321855 0.0892595 -0.0551407 -0.0271651 0.126946 -0.0368658 0.0870892 0.120124 -0.0291759 -0.0495274 0.0726219 -0.0647847 0.011183 -0.0387857 -0.087777 0.0520489 -0.0789494 -0.00949957 -0.0292194 -0.0829678 0.0395824 -0.00202062 0.0438728 -0.0293862 0.069793 0.0793492 -0.0963731 -0.0175762 0.043441 0.060542 -0.0407837 -0.0445456 -0.0323119 -0.0114008 -0.124254 -0.0553559 -0.00214532 0.0211483 0.116848 -0.111851 0.15592 -0.0629478 0.0230691 0.0793614 0.0105967 0.0344712 -0.0642547 -0.0281466 0.00699464 -0.0393534 0.0208436 0.0272708 -0.0690805 0.0597253 -0.0938026 -0.00378663 -0.0782661 -0.0255425 -0.0104375 -0.0305114 -0.0172357 0.0132482 -0.0656075 -0.0245987 0.0421331 0.0582612 -0.0449867 0.0157982 -0.0186089 0.0785172 -0.000459637 0.0886836 0.0412345 0.00944143 0.0399579 0.0758657 -0.0296638 0.0155184 -0.0460723 0.0246895 -0.0487116 -0.0988505 -0.0742464 -0.00931108 0.00800597 0.0165497 -0.051158 0.0674001 -0.0457408 -0.0020731 0.00133205 0.041826 0.0515341 0.0773503 0.033093 -0.129576 0.0221538 0.0296018 0.00584099 -0.037331 -0.02062 0.0456967 -0.109582 0.0583212 -0.0868309 -0.0330415 0.0353904 0.0107785 -0.0869936 0.144979 -0.0666886 0.0411166 0.00176404 -0.0170995 -0.0076913 0.00988825 0.089577 -0.0175593 0.0312098 0.0799947 -0.0559616 -0.00950345 0.0205202 0.0724278 -0.0268731 0.0710989 0.0263358 -0.130319 0.0657142 0.0418683 -0.0413725 0.0757569 -0.0611279 0.0695532 -0.00691361 0.0299617 -0.00192411 -0.0396397 -0.00858391 0.0588212 0.00706769 0.043194 -0.0540076 -0.0331984 -0.0664509 0.0373839 -0.0853896 -0.0528272 0.109421 -0.0577317 -0.0236494 0.025533 -0.00571689 -0.0359092 -0.0301026 -0.0157314 0.113775 0.0429369 0.070417 -0.0408762 -0.0613854 0.0351181 -0.0422783 0.0395088 0.00584144 -0.0968132 0.00697811 0.00921464 -0.0573861 -0.0365158 0.0194937 -0.00805084 -0.0299148 0.0358571 -0.0140186 -0.115962 0.0101275 0.0421301 0.0479525 0.09522 -0.0392769 -0.0158507 0.0298429 -0.0062052 -0.0129641 0.0172835 -0.00371244 0.0313172 -0.0482728 -0.0104783 0.0761846 0.170338 -0.0749185 0.0279957 0.0122564 -0.0589812 -0.0814033 0.00328963 -0.00980776 -0.0773808 0.056616 -0.0272348 -0.0643819 0.0295315 -0.0194425 0.0156854 0.0731692 -0.0576767 -0.0324621 0.0748417 0.0991773 -0.0606547 0.0220685 0.0453087 -0.00211559 0.076014 0.082777 -0.0294876 -0.125505 -0.0419778 -0.0529289 -0.00314818 -0.0798022 -0.0987925 0.00884924 -0.0626898 0.010074 0.017875 0.103833 0.0443056 -0.0237367 0.0339628 -0.0419834 -0.019183 0.0990747 0.0223996 -0.00337167 -0.0609047 0.102218 -0.0701557 -0.00942243 0.0016129 0.0683643 -0.00870512 -0.00631042 0.00499101 -0.0260875 0.0236861
vuonna -0.0315392 -0.0768128 0.00644099 0.0468782 -0.0293676 0.0112649 -0.0525479 -0.0748223 0.0294099 0.126146 0.0903421 0.00881006 0.0392547 0.034854 -0.000216722 0.00455676 -0.0346083 -0.0656147 -0.0262577 0.0442887 -0.066234 0.0375146 -0.0797175 -0.10938 -0.0524604 0.0188781 -0.0176889 -0.0110199 0.0940602 0.113689 -0.0701113 0.0279273 0.0194372 0.0371834 0.0561442 0.0125456 0.037153 -0.056754 0.0672369 -0.0326032 0.0754028 -0.00473655 -0.0177401 0.0899033 0.0151879 -0.127245 0.0285522 0.0132287 0.0523555 -0.00724957 0.0334351 -0.0911149 -0.00225858 0.0516374 -0.0348876 -0.0849612 -0.000371099 0.079421 0.0141353 0.0368845 0.0379082 0.0127207 -0.0127046 -0.011215 0.0883138 -0.0676393 -0.0835086 0.0544368 -0.0498819 0.0335211 0.027091 -0.0703472 0.0188963 -0.029636 0.0156682 -0.078308 -0.0283567 0.0621484 -0.00682107 0.0295944 0.0147438 0.0446566 -0.014891 -0.0143791 -0.0182893 -0.103952 -0.0778669 0.0846918 -0.0515507 -0.0163525 0.0140184 -0.0536616 0.0387705 -0.0343364 0.0593634 0.044251 -0.0174385 0.0213719 -0.0220567 0.0371124 -0.0558162 0.0466987 0.0401468 -0.0678326 -0.0987296 0.00861911 -0.038677 0.0976684 0.0345874 0.000113973 0.00624607 -0.000760374 -0.0324752 -0.0260568 -0.0470825 -0.0467702 -0.00295434 0.0820741 0.0695827 0.0122482 0.112609 0.0447 -0.0691741 0.103644 -0.0226215 -0.0374971 0.0996122 0.131222 0.0704409 0.109582 -0.0502821 -0.0172705 0.0558632 -0.0532233 -0.0256639 0.085681 0.0551315 -0.0204491 -0.0618322 0.0881593 -0.0439267 -0.0170831 -0.0630617 0.00709471 0.0463553 0.209692 -0.00862205 0.017524 0.00898733 0.0863125 0.000495051 -0.0041552 -0.0239234 0.120775 -0.101707 0.00261499 -0.011736 -0.042755 0.065717 0.00724763 -0.00386493 0.202853 -0.00895811 0.0797588 0.14625 -0.046767 0.0336749 0.0860064 0.110096 0.0229707 -0.0643203 0.0318328 -0.00849355 0.0246348 0.0177642 0.0235137 0.0157675 0.00531492 -0.0747361 -0.0173364 -0.0488637 -0.0246193 -0.103415 0.00870415 -0.05659 0.10109 0.0286436 -0.0425533 0.0194856 -0.0119787 -0.0396853 -0.0162993 0.0696429 0.102774 -0.0183573 -0.0151098 -0.0217482 0.0359889 -0.0813446 -0.0601893 -0.00589298 0.0710246 -0.0477058 -0.000606351 -0.0105173 0.00985952 -0.0146162 0.00120246 0.210093 0.118785 0.0772482 -0.068336 -0.0471078 0.0614986 -0.027688 -0.0166633 -0.0360389 -0.0385183 -0.0638319 0.0370534 0.0116673 -0.0666849 -0.0365414 0.00887803 0.00215139 0.0264697 0.0241612 -0.142346 0.0384002 0.0294482 0.0781918 0.0227752 0.0115986 0.0764535 0.0569916 -0.0435221 0.0202194 -0.0946859 -0.0517056 -0.00866747 -0.0741568 -0.103748 -0.0277429 0.0439057 0.023081 -0.0617247 -0.0250114 -0.0585807 -7.4212e-05 0.030181 0.0797177 -0.0336864 -0.0338393 -0.0017087 -0.00589859 0.0978751 -0.0537078 0.0150348 -0.0258936 -0.0160283 -0.00147438 0.0299679 0.00164362 -0.00389599 0.00252358 0.0775113 -0.0086429 -0.0302828 0.111756 -0.052713 -0.0560519 0.0381301 -0.032139 0.0268223 -0.142209 0.017145 0.0576644 0.0418668 0.050846 -0.033422 -0.0386722 -0.0119782 0.00918392 0.0580223 0.0338125 0.0354032 -0.0534875 -0.015749 0.0767225 -0.00578491 0.0633149 -0.04593 0.0548277 -0.0441665 -0.046727 0.0087013 -0.103777 0.0383381 -0.0193207 -0.0365464
myös -0.0478673 0.0101437 0.0230329 -0.0477431 -0.0111736 0.00912699 0.0427407 -0.0190265 0.0754641 0.0180165 0.0432038 0.0132209 0.0753685 0.00600535 -0.0031412 -0.0699009 0.012828 0.0495884 -0.045063 -0.0393191 0.0581684 0.062482 -0.0531901 -0.135342 -0.0275461 -0.0170577 0.0536064 -0.0310533 -0.0168713 -0.0418119 -0.0950038 -0.00976994 -0.0822196 0.0730527 0.116109 0.035519 -0.0397945 0.0196813 0.0617081 -0.0973759 0.0189034 0.0709036 0.0310824 0.0265354 -0.00906835 -0.0656276 -0.0247543 -0.0210464 0.0295639 -0.0710104 -0.000341327 0.0177175 -0.017 0.0695973 -0.0639066 -0.0689633 0.0570291 -0.00789845 -0.095406 0.0370901 0.0086369 0.0344192 0.0881363 -0.0083224 0.0525764 -0.0132739 -0.113196 0.0295427 0.0266492 -0.0199986 -0.070352 -0.00563822 0.0329032 -0.116752 -0.0450928 0.0055041 0.0739654 0.123507 -0.0062649 -0.0320785 0.0378433 -0.041062 -0.0179463 -0.030849 -0.0116696 -0.123527 -0.0784095 -0.00226594 -0.0207446 -0.0200542 0.0112997 -0.0720824 0.150828 -0.0808894 0.0154743 0.0245202 0.0842118 0.0448527 -0.0609512 -0.0339604 -0.0183341 -0.0303441 0.07215 -0.0544986 -0.0789733 -0.0148382 -0.0330489 0.0502972 0.0279749 -0.0128917 0.00150384 -0.0182233 -0.128328 -0.0575815 -0.0689714 0.0413956 0.00781858 0.0779561 -0.0296887 0.00795128 0.115391 0.0628523 -0.00847559 0.13391 0.0333542 -0.0239985 0.120531 0.0648483 -0.0177112 0.16564 -0.0350898 0.0412188 -0.102134 -0.0354199 -0.0147069 0.0795261 -0.0659161 0.0501292 -0.118447 0.00910376 0.0231893 0.0209345 0.0877051 -0.0272507 0.0589072 0.121018 0.0402414 0.0291214 0.0383892 0.0624515 -0.0482779 -0.0923407 0.0121194 -0.0575678 -0.0042616 -0.0116157 -0.0352395 0.0130421 0.107214 -0.0577562 -0.0695552 0.0901757 -0.011195 -0.00818501 0.0577333 -0.0540176 -0.0893268 -0.08098 0.074321 0.0556556 0.00251616 -0.00934368 -0.078426 -0.0377975 -0.00681164 0.0585427 0.0879103 0.0674981 0.0157407 -0.0215864 0.0484305 0.00400754 0.0302044 0.0891054 0.00702778 0.116783 0.0589219 0.037742 0.0903047 -0.0440579 -0.00747619 -0.0177399 -0.00563908 0.0306106 -0.0873711 -0.00535447 -0.0129341 0.0582908 -0.0632971 -0.0980244 0.0443607 -0.0453757 -0.00590722 -0.00328155 0.030419 -0.0203614 -0.054308 -0.0230225 0.119615 0.0428961 0.0869897 -0.0997611 -0.044973 0.0374008 -0.00288113 -0.0171307 -0.0346738 -0.117856 -0.0752221 -0.0189921 -0.0516207 -0.0327609 -0.0909416 0.0511363 -0.0696791 -0.0173265 -0.0892631 -0.0918835 0.0245569 0.0237472 0.0472023 0.0264443 -0.0304301 0.0796613 -0.0224626 0.0587652 0.0543565 -0.0948161 0.0200934 0.0596243 -0.0659843 -0.00858647 0.00832533 0.0269976 0.0262593 0.0634889 0.0881571 -0.0138972 0.00934958 0.0624954 -0.0463905 -0.0420215 -0.00107601 -0.0947301 -0.0366487 0.0136459 -0.0502919 -0.0265471 -0.0125618 -0.0317467 0.0135154 0.0694876 0.0341315 -0.0267999 -0.00423493 -0.0632676 -0.0892739 0.0851643 -0.0284725 -0.113271 -0.117537 -0.0383227 -0.0763415 0.0351858 -0.0441173 -0.0678887 0.00784351 0.0669937 -0.0357687 -0.00142036 0.133721 -0.0478822 0.0235589 -0.013315 0.0389544 -0.011042 -0.0354271 0.0714123 -0.0688375 0.0768077 3.02075e-05 -0.00239319 0.0997647 0.0229753 -0.0575061 -0.0542935 -0.0250829 -0.00728453 0.00198525 0.0477158
ei 0.00675858 0.0490626 -0.0345516 0.0447221 -0.035995 -0.0538962 0.0490847 -0.0681565 -0.0775488 0.133137 -0.025613 0.0211714 0.0247294 0.0203205 0.0563257 -0.0670067 0.00882319 0.108393 0.0389468 -0.0177906 -0.0493557 0.0585369 -0.0358082 -0.127612 0.00079605 0.0382886 0.0535747 0.104643 0.0280073 -0.0297611 -0.0527572 -0.0551523 -0.0503117 0.0351915 0.00222673 -0.0822854 -0.0220716 0.0295692 0.0167255 -0.0406014 0.0980209 -0.0557958 0.0379888 -0.0282496 0.0476215 0.081228 0.0544613 -0.0581597 0.0298683 -0.0138155 -0.0658134 -0.194978 -0.0673 0.0193523 0.0100491 -0.0339098 -0.00795489 0.0224122 0.0273216 0.0841828 -0.100308 -0.0117114 0.0681202 0.0245281 0.00109613 -0.0250683 -0.0594748 0.0670752 0.042937 -0.0815592 0.0606776 0.0434139 -0.0133028 -0.0695799 0.0311563 0.0349128 0.0670447 0.11415 -0.0708586 0.00858105 -0.00957915 0.0757624 0.0704792 -0.0480981 -0.00163428 0.0275924 -0.120498 0.0647645 -0.0118231 -0.0580543 -0.0444634 -0.0132526 0.156426 -0.0389811 -0.00522822 -0.00598277 0.0381196 0.0270835 -0.00721023 0.0626336 0.041175 -0.0807648 0.0152276 -0.0485757 -0.0471684 -0.0865822 -0.0343368 -0.0798146 -0.0386803 0.0321248 -0.0601634 -0.00257392 0.0672444 -0.056752 0.0473098 -0.0126097 0.063596 0.0928185 0.0304614 0.114509 0.0904035 0.0542711 -0.0460549 0.200338 -0.0407366 -0.0294768 0.0290044 0.0360467 -0.00946277 0.0164559 -0.0583041 0.00297161 -0.0186106 0.0461313 0.0178401 -0.0196346 -0.0203337 0.00156173 0.0640453 -0.00546253 -0.0324847 0.0117432 0.0600005 0.00455145 -0.0379258 0.0583546 0.00242125 0.00154965 0.00554512 -0.046498 0.0239308 0.0165203 -0.00159889 0.0144196 0.0156175 0.0623084 -0.0634966 0.116899 0.0689072 0.1089 -0.0241752 0.0804133 -0.0471067 0.0642521 0.07167 -0.00669515 -0.0358286 0.00260147 0.0923295 0.110449 -0.0267608 -0.01041 -0.046111 0.0352981 -0.00590525 -0.0679541 -0.0160804 0.0426812 0.0308359 0.0898052 -0.00641684 -0.147003 0.0231617 0.0142574 -0.0323045 0.0384807 0.0361549 -0.026247 0.0711152 -0.0583687 0.0026519 -0.0994552 -0.0159453 0.0955586 -0.0833049 0.0144429 0.0423828 0.0253958 -0.067208 0.0140027 -0.0176859 0.0265731 0.0197505 -0.0150569 -0.0646534 -0.068296 -0.0604635 0.0812374 0.0889053 0.0602147 0.00230759 0.0210606 0.0783013 -0.00230435 0.0194771 -0.0589558 -0.020388 -0.0799076 -0.0378478 0.0914695 -0.119277 -0.100057 -0.0782777 -0.016987 0.0206069 0.0155878 -0.108993 0.105972 -0.0644538 0.0328973 0.0335474 0.0845229 -0.0299235 -0.0313327 -0.0772848 -0.000723401 0.0331725 -0.0116188 -0.0405439 0.0380965 -0.0156485 0.0282727 0.0471931 0.0245442 -0.0961802 0.101058 0.0593905 -0.0115948 -0.00951799 0.00169216 -0.0145748 -0.0445984 -0.0401665 0.029073 0.0069445 0.0100123 0.0202399 -0.0916985 -0.116081 -0.00499881 9.53292e-05 -0.0533914 -0.0397176 -0.125532 -0.0539626 -0.056562 -0.016441 0.00410759 0.00217061 -0.0142014 -0.087388 -0.0675113 0.0412601 0.081988 -0.0725265 -0.0544237 0.0222797 0.0476272 0.00970315 -0.0564016 0.0683066 0.0116751 -0.0741058 0.0138793 -0.0325348 -0.0437513 0.0953493 0.0981143 -0.105336 0.0374452 0.0555489 0.0119142 -0.0245204 0.00780784 -0.0250723 -0.11998 -0.0618067 0.0112543 0.0342147 -0.0612852
joka -0.00355622 0.081086 0.0266435 0.0822041 -0.0206086 0.054148 0.0160425 -0.0130163 0.0448851 0.0879174 0.0151375 0.0199427 0.0570515 -0.0405585 -0.0905431 -0.0393718 0.0190787 -0.0507131 0.00534792 0.107955 -0.0200541 0.0185128 -0.186211 -0.127248 0.0313813 -0.0165821 -0.0401217 0.0651745 0.0470283 -0.0297195 -0.0626806 0.00644999 -0.0562832 0.0223673 0.034848 -0.0687646 -0.047467 -0.0584295 -0.00221132 -0.0339767 0.0376543 0.00247975 -0.106653 0.0525569 -0.0649806 -0.0154847 0.0454617 0.0151798 0.0262339 0.0468768 0.0785032 0.014811 -0.00208979 0.0317924 -0.00934948 0.0441151 0.066369 -0.0457044 0.0921727 0.0479422 0.0154259 -0.0224495 0.0787624 0.0435207 -0.0382164 -0.124816 -0.106268 -0.0961131 0.0532498 -0.0154374 -0.0624713 0.0409813 -0.0294737 -0.102761 -0.0654365 -0.0310487 0.089875 0.0096604 -0.0757384 -0.0828755 0.0149899 0.00165943 -0.0233642 -0.0249798 0.00449394 -0.0122991 0.0370607 0.0323091 0.0265266 -0.0374695 -0.00651747 -0.0258829 0.0706143 -0.0479277 0.0897956 -0.0410878 0.0300457 0.0380308 -0.031767 -0.0312593 -0.106965 -0.0112581 0.0675292 0.0719372 -0.0131747 -0.0165852 -0.11389 0.00463776 0.0317917 0.030499 -0.00805634 -0.0273387 -0.105408 -0.0344836 -0.062311 0.00283069 0.0648451 0.0819273 0.0292042 -0.010146 0.0589825 0.0621319 0.00396035 0.217884 -0.00522931 0.0258602 0.0803307 0.0304849 -0.0344644 0.111373 -0.0227731 0.0506062 -0.0608421 -0.0831028 0.0340855 -0.0281676 -0.0282718 -0.0520189 0.0213864 0.0826339 0.00720045 -0.00439598 0.0644907 0.0373106 -0.0517185 0.20819 -0.0160853 0.0182032 0.0509122 0.0242856 0.02678 -0.00820921 -0.0325029 -0.0545229 -0.0296457 0.0464617 -0.00775979 -0.0295859 0.0480354 -0.0275541 -0.0874451 0.0730443 -0.0809845 0.063831 0.0949445 -0.112446 0.0718713 -0.0400309 0.0924388 0.00549195 -0.00190621 -0.0553748 -0.062884 -0.0106529 -0.0443573 0.0164674 -0.00862179 0.0968258 -0.0256834 -0.0209812 0.0289067 -0.0045042 -0.0681295 0.108687 0.0137222 0.128903 -0.0164701 0.0479004 0.0612229 -0.0827878 0.0237109 -0.0774583 0.130185 0.0206498 -0.0283225 -0.0952712 -0.0425227 0.0836511 -0.097299 -0.0160995 0.0396959 -0.0163482 -0.00925359 0.073982 -0.0786242 -0.0461213 -0.0258943 0.0129788 0.0525698 0.118167 0.0792552 -0.0123322 0.0288363 0.0158877 0.0340518 -0.00539415 0.0128231 -0.0481483 -0.0150098 0.0876641 -0.0252392 -0.00247159 -0.0468632 0.122919 0.00355547 -0.0215476 -0.0477765 -0.0169576 -0.0488215 0.0267484 0.0112941 -0.0053273 -0.0671836 -0.0274204 0.010079 -0.00224717 0.0107763 0.0183698 0.0417343 -0.00745535 -0.0303238 0.0156157 0.013731 -0.0461675 0.0775638 0.00975536 -0.0123759 0.0276293 0.000693021 -0.0616704 -0.0336807 0.0610855 0.0331037 -0.0616856 -0.103493 -0.0015265 0.01203 0.0356643 0.0663212 -0.0138423 -0.0180141 0.0670025 -0.0150935 -0.00913116 0.0103052 -0.0509437 -0.0261882 0.020471 0.0672964 -0.154797 -0.082978 -0.0353545 -0.0857653 0.034957 -0.0658584 -0.102402 0.0846956 0.0973273 0.0735262 -0.0322379 0.0039932 0.0250982 0.00689526 -0.0189985 0.0166357 -0.0458411 0.0812449 0.0762513 0.0261205 0.0219862 0.0637583 -0.120632 0.0443584 0.0336277 -0.0426631 -0.0228044 0.0929738 -0.0149901 -0.0684009 -0.00515909
# -0.0535138 -0.0859805 0.0352464 0.0132782 -0.0639737 0.0250203 -0.0151807 -0.00107952 -0.00690234 -0.0169251 0.0025451 -0.0139047 0.0531655 0.0245386 -0.0239911 -0.00373184 0.00179707 0.0209869 0.0245339 0.0184661 -0.0182037 0.0187933 0.0320694 0.00754019 -0.010015 -0.0119669 0.0225346 -0.0895255 0.00814243 0.0888731 -0.08184 0.0888102 -0.0390964 0.0748159 -0.0359754 -0.0489645 -0.0124126 -0.0585839 -0.00840826 -0.0029449 0.0579009 0.0176833 -0.050309 0.00083648 0.0377218 0.115344 -0.0641145 -0.00534504 0.00323027 0.0507506 0.0507245 -0.128032 -0.0491011 -0.0785588 0.0432324 -0.0232619 -0.0297532 0.0697659 -8.84903e-05 0.0750761 0.0302188 -0.0608011 0.0415393 0.0178796 -0.0882666 -0.0170543 0.130925 0.0302428 -0.0255119 -0.0128348 0.00739299 0.00509561 -0.0221437 0.0643372 -0.0577948 0.0227703 0.102054 -0.0173767 0.0232337 0.126805 0.0369484 -0.0234922 0.000100079 0.0371103 0.0322637 0.0408123 0.0340821 -0.0129322 -0.0179035 0.0122891 0.0637639 0.0435704 0.030744 0.0113137 0.0701131 -0.00308294 -1.99502e-05 -0.0267088 -0.0412715 -0.0477258 0.0882514 -0.0249344 -0.0341898 -0.0175466 0.0881245 0.0195037 -0.108515 0.0727558 0.00656804 -0.117066 0.0210098 0.0467581 0.0231981 -0.0168249 0.0380883 -0.0150541 -0.0335718 -0.0526942 -0.0243522 -0.0267869 0.160861 -0.0241784 -0.0264742 0.100172 0.00875757 0.0612422 0.0169739 0.0305401 0.0207251 -0.000484254 -0.0391506 -0.0165999 -0.00124601 0.0908682 0.0425239 0.00995715 0.0259008 -0.00565832 0.0752361 0.0980404 -0.0512025 0.0415021 0.164063 0.139377 0.00091748 0.0554911 0.0116314 0.0236812 0.0125702 -0.0339293 0.0567912 -0.0577867 -0.0334364 0.0149956 -0.0418991 0.0064842 -0.0306114 -0.0010074 0.0672574 0.0718114 0.0173975 -0.0389151 -0.110187 -0.0830526 1.149e-05 -0.00675688 -0.0687078 -0.0027038 0.112167 0.0429348 -0.000770247 0.0321663 -0.0364886 -0.0427295 0.0778668 0.0104811 0.076186 -0.0833804 0.0143168 -0.0552499 0.0462471 -0.0405142 0.0115104 0.0487124 -0.108404 0.0674315 0.107063 -0.0548744 0.0661369 -0.0322223 -0.0583448 -0.0270388 -0.055385 0.0274252 -0.0773038 -0.0963911 0.0045395 -0.00649353 -0.107514 0.00177846 0.00340374 -0.0267273 0.0409633 0.0116005 -0.0692194 0.0222604 -0.0751256 0.0148555 0.0492117 0.00286509 0.135347 -0.0401676 -0.0246698 -0.0886236 0.00599932 -0.0679638 0.0210604 -0.0635636 -0.132138 -0.014831 -0.0998345 -0.0460665 -0.0426979 0.000493718 0.0196329 0.000862273 -0.0331288 0.0805132 -0.0705723 0.0539067 -0.0068292 0.138761 -0.0745043 -0.103721 -0.106285 0.120647 -0.0490534 0.0655663 0.00551537 -0.0787404 -0.0172448 -0.0493023 0.0395344 -0.0545234 0.0561434 -0.0210598 0.0471081 -0.025432 -0.0306969 0.00998015 0.0958991 -0.0674142 -0.0530985 0.0557014 0.00707469 -0.0611815 -0.0439245 0.0553264 0.090318 0.0244399 0.0214513 -0.0320299 0.075541 -0.0193475 -0.082554 0.0492425 0.0221756 0.0773829 0.00283896 0.0100529 -0.0458787 -0.0401625 0.0982692 -0.0691208 0.0833376 0.0504294 0.0985976 0.0924598 -0.00919174 -0.153819 0.0603285 0.0899229 0.0685532 0.0702835 0.137793 0.126068 -0.0284715 0.0183577 -0.0389081 -0.00417566 0.0535557 0.00276503 0.0368061 0.0315274 0.0737761 0.00608003 -0.0216447 0.0955567 0.10088 0.0855274
kello -0.106359 -0.0627655 0.00667987 0.108834 -0.130702 -0.0571245 -0.0293048 -0.0785524 -0.0187095 0.0206853 -0.0766371 -0.0617045 -0.0495683 -0.0114557 0.0281918 -0.0472935 -0.0279705 -0.0485806 0.026291 0.068696 -0.0240504 0.0345432 0.0367585 -0.0270472 -0.072717 0.0106216 0.0433677 0.0204889 0.0220602 0.0704321 -0.0395925 0.0449786 -0.05765 0.0444731 -0.0124911 0.0183175 -0.052482 0.0274048 -0.00377182 0.00378684 -0.0525193 -0.0151951 -0.047888 -0.0755911 -0.0156449 -0.0146994 0.0169232 -0.0268557 0.0229189 -0.0072139 0.0158233 -0.0877132 -0.0389716 -0.0444037 -0.085065 -0.00875764 0.100396 0.046043 0.0195381 0.0840907 -0.00965537 0.0482895 0.0927595 -0.102297 0.00637651 -0.0319572 0.0818168 0.0262692 -0.0703005 0.0301567 0.0384933 0.0472413 -0.0355207 -0.0746093 0.0171935 0.0953303 0.135464 0.0289137 0.00209013 0.00455337 0.0576377 0.0380563 0.0999383 0.0318976 0.156142 -0.00084881 0.00164526 0.038143 0.0566569 0.0404645 0.0250353 -0.0457496 -0.0109877 -0.0939866 0.00808219 0.0252646 -0.0404326 -0.0408209 -0.00430915 0.0474175 0.0510414 0.0401942 0.0167802 -0.0714104 0.0830119 0.0134792 -0.0285596 0.0550194 -0.00546239 0.00099448 -0.0174266 0.0207655 0.0161129 -0.0418912 -0.00766319 -0.0158024 0.0421584 -0.0468516 -0.0123748 -0.0726564 0.0765861 -0.0790464 -0.0875654 0.205941 0.0147789 0.0282035 -0.0325975 0.0220307 -0.00455257 0.0596032 0.078167 0.0119726 -0.0179974 0.124716 0.0546557 -0.0599946 0.0107705 -0.0373652 0.0478553 0.13455 -0.0428906 0.0054026 0.0353845 0.131174 0.0261046 0.0874034 0.0246399 -0.0452332 -0.134909 0.0480598 0.102162 0.0487507 0.0378102 0.0258625 -0.00961333 0.0328715 0.0253418 -0.0118116 0.10164 0.0392907 -0.059174 -0.00746923 -0.0761167 -0.091899 0.0437257 -0.041633 -0.0827842 -0.0654475 0.0813771 0.0328175 -0.0237279 0.144688 -0.148387 -0.0555493 0.0381362 0.0203858 -0.00925938 -0.118828 0.0566277 -0.0927534 0.000621494 -0.0417188 -0.0690775 -0.0236511 -0.0695648 0.0870613 0.0588858 -0.0968503 -0.0188198 -0.0950472 0.0316334 -0.0695826 -0.0102218 0.0391494 -0.0887093 0.0493368 -0.0076795 0.0880607 -0.0978222 -0.0629536 -0.0009991 -0.0664237 0.019406 0.000445144 -0.0213123 0.017015 -0.0320767 0.0450383 0.0378785 0.0196085 0.0992995 -0.0452563 0.0333745 -0.0354321 0.00396991 -0.0379976 -0.0329764 -0.119717 -0.00269585 0.0221852 0.0102877 -0.000791783 -0.00309742 0.0229542 0.0447443 -0.0101627 1.17969e-06 0.0134905 -0.0282057 0.0494271 0.0356741 0.0670214 -0.0626161 -0.0552972 0.0209593 -0.00662859 0.0529355 0.0313507 0.0291304 -0.0486225 0.0541589 -0.0213146 0.024092 0.0113126 0.0366467 0.0108065 0.0624657 0.0767684 -0.0170624 -0.0354871 0.0634607 -0.0491854 -0.119451 0.0138179 0.0441825 -0.0625614 0.0895489 -0.057066 0.042896 0.0191543 0.0955392 -0.000655353 -0.0435044 -0.00480269 0.0404381 -0.00394583 -0.0496475 0.00122842 -0.0954604 0.0308352 -0.0130502 -0.0313811 0.0647855 0.0184559 -0.0283784 -0.0887877 -0.00445655 0.0747996 0.0147081 -0.0802121 -0.0304912 0.0990828 -0.0256965 -0.0579217 0.0680527 -0.0235442 0.0462792 0.0955706 -0.0449971 0.102316 0.0584247 0.066527 -0.0611103 -0.0344397 0.108685 -0.00781894 -0.0616655 0.0918262 0.112251 0.0366965
se -0.15678 0.0387407 0.04708 0.0640219 -0.0441353 0.0622873 0.0237153 -0.0347259 0.00137893 0.082346 -0.028572 -0.0482709 -0.00655884 -0.109383 -0.00367128 -0.0607829 -0.0304313 -0.000578764 0.0696461 0.0617531 0.0191856 -0.0409927 -0.173289 -0.142815 0.0561543 0.0265069 0.0208095 0.0605458 0.052837 0.0117254 -0.0756318 0.0428898 -0.0523173 0.102897 -0.0369218 -0.0822697 0.0246531 -0.0407632 -0.00786422 -0.0851854 0.00311332 0.00275585 0.0031028 0.00606024 0.0126878 -0.00738487 0.0570027 -0.0292482 -0.0703339 -0.0173541 0.026671 -0.014531 -0.0290713 0.034804 -0.0366941 0.125652 -0.0167171 0.0549734 0.0442905 0.0261184 0.0681476 -0.0897892 0.0755845 -0.034156 -0.0560878 -0.0968492 -0.130112 -0.0657493 -0.0184963 0.018637 -0.0506249 -0.0114436 -0.0372836 -0.0437723 -0.0863729 0.0309343 -0.00539063 0.0879907 -0.0715662 -0.093423 -0.000304309 0.028034 0.0738579 0.00773029 0.0246218 0.0543007 0.0047074 0.0763922 0.0222033 -0.00523228 0.036314 0.0294019 0.0696703 -0.100631 0.035661 0.0588384 0.0159365 0.0407101 -0.00444629 0.000695458 -0.0745861 0.00462263 0.0184368 0.00477558 -0.0261039 -0.0463423 -0.11739 0.101469 -0.0105067 -0.0100788 -0.0728399 0.060447 -0.0225556 -0.0312742 -0.0789884 -0.00946735 0.0812296 0.125341 0.0806682 0.0173395 0.0457671 0.0601988 -0.0259671 0.175451 0.074948 0.006876 0.131847 -0.0192826 0.117097 0.080248 -0.00980607 0.0203959 -0.0299141 0.0181858 -0.0200618 0.00524847 0.00704602 0.00122173 -0.0253064 0.0609567 0.0200625 0.0326679 0.0729835 0.0954318 -0.0766629 0.0852499 0.0264351 0.0235026 0.0519374 0.0272614 0.0205781 -0.0579838 -0.0624533 -0.0933889 0.029516 -0.0579669 0.0363594 -0.0503944 0.0696937 -0.0211307 -0.101402 0.11986 -0.0768631 0.0722168 0.0585015 -0.0146165 0.00233976 -0.0329127 0.00866816 0.0384953 -0.0415287 -0.0782522 -0.141061 0.00465546 0.00615964 -0.0693674 -0.059468 -0.0286948 -0.012926 0.0717934 0.00502824 -0.0164381 0.0176856 0.0514181 0.00564245 0.0374089 -0.00229181 -0.0564222 0.00714553 0.0350227 -0.0283556 -0.0543415 0.104737 0.11194 0.0194513 -0.0686676 0.0754376 0.0322383 -0.0616339 -0.0579469 -0.0073262 -0.00310867 -0.0497844 0.108045 -0.0490109 -0.039231 -0.0420935 0.0664239 0.0407683 0.13737 0.0518056 0.0150521 0.0311461 0.0159905 0.00397009 0.0511141 -0.0171785 -0.096466 0.0384089 -0.00598138 -0.00872398 0.00168066 -0.0583781 -0.013723 0.0165479 0.0101359 -0.0679179 -0.0655218 -0.0476758 -0.0326613 0.0841953 -0.0154359 -0.0676676 -0.00397742 0.00494589 0.0191424 -0.0184519 -0.0715438 0.0134098 0.0212762 -0.0838636 0.00817859 0.0724178 -0.0779261 0.0383433 0.0361336 -0.0105215 0.0441157 0.012691 -0.04097 -0.0141913 0.0627424 -0.00927991 -0.0448925 0.0103998 0.0460104 -0.0136512 0.00651005 0.0435882 -0.079723 0.0295944 0.0559908 -0.0311795 -0.070342 -0.0368578 0.00573556 -0.0511386 0.0303537 0.0852794 -0.0829284 -0.194745 0.0106336 -0.0313325 0.0190923 -0.0561755 -0.0460201 0.0421776 0.0494117 -0.0185023 -0.0381912 -0.0195854 0.0166309 -0.094653 -0.0770065 0.0206033 -0.102114 0.0861789 0.0168464 -0.021217 0.00948516 0.0906831 -0.0755629 -0.0426168 0.041262 -0.0124336 -0.0471278 0.0912919 -0.00742375 -0.0479688 -0.0552772
että -0.0551379 0.0337595 -0.0484166 0.0673412 -0.000905261 0.0654863 -0.0310919 -0.0751409 -0.0144331 0.035571 0.0470988 -0.0141358 0.0636892 -0.00988544 -0.0116343 -0.0431023 -0.0608752 -0.0203064 -0.0243366 0.0117696 0.0976755 0.0652206 -0.055398 -0.167261 -0.0721128 0.0631136 0.0594484 0.0480537 -0.0528763 0.011163 -0.0864006 -0.027472 -0.0752513 0.0540036 0.0403529 -0.063461 -0.0284402 0.0606343 0.00159348 -0.0434233 -0.00410337 0.0416714 -0.0809964 -0.0341038 0.0515217 0.0463868 0.0353254 -0.0301997 -0.0596267 -0.0248962 -0.0241228 -0.0516487 -0.0480602 -0.047098 -0.100664 -0.0324963 -0.0527496 0.0305266 -0.106975 0.0302783 -0.0837614 -0.0323494 0.0637698 0.0113675 0.00285766 -0.134016 -0.0510108 -0.00917221 0.0141136 -0.00267245 -0.00450335 0.0498129 0.0733852 -0.0250686 -0.0670471 0.0183237 0.04903 0.0790407 0.0721901 -0.00398713 0.0698347 -0.0943616 0.0269257 -0.00974652 -0.0178221 0.00776029 -0.0290371 0.0707438 -0.0428226 -0.0145841 0.0777832 0.0397045 0.125056 -0.0658891 -0.00605149 0.00543666 0.149783 -0.00585421 0.015057 -0.00959425 -0.0386526 -0.0621902 0.0527739 -0.101053 -0.100311 -0.0229603 -0.0366608 -0.00621462 0.0974372 -0.0252928 -0.0303486 -0.0387092 -0.0130337 0.00878015 -0.00556372 -0.0996942 0.0773716 0.0637137 -0.0430424 -0.0239958 -0.0329464 0.114907 -0.0109384 0.169657 0.0143043 -0.063735 0.0524152 -0.005589 0.0333537 0.0927283 0.0132995 -0.0235886 -0.0173497 -0.0739711 -0.0309744 0.0648937 -0.0390901 0.00223439 0.027104 0.0285735 0.0312545 0.0114642 0.0655663 -0.145591 -0.0110686 -0.0197434 -0.0638442 -0.00282269 0.00285165 0.00325086 0.0229229 -0.103264 -0.0543631 0.0145939 -0.0762297 -0.0657085 0.00166018 0.0177088 0.0539254 0.0549204 -0.0486882 0.0855822 -0.0292984 -1.57311e-05 -0.00631417 0.000591021 -0.0179455 -0.0406318 0.0352929 -0.0227783 -0.05792 -0.106546 -0.118862 -0.00764439 -0.10617 0.0765982 0.00179974 0.0377852 -0.0246247 -0.0843217 0.00224644 -0.0667327 0.000173909 0.112596 -0.0612642 0.0702658 -0.00715276 -0.032835 0.0443805 -0.0641962 -0.0362896 -0.153531 0.0146429 0.0289803 -0.0172521 -0.025198 -0.0413449 0.00283246 -0.170751 -0.00107115 0.0463831 0.0366638 0.0500288 -0.0338501 0.00222461 -0.0490302 0.0297439 0.0150236 0.0852694 -0.0522251 0.133548 0.0333134 0.0585943 -0.0614408 0.0806182 -0.01794 -0.0631811 -0.064221 -0.0292174 0.0729933 -0.174224 -0.0980585 -0.0501185 -0.0365648 -0.0578195 0.0617732 -0.0790447 -0.0372289 0.00815166 0.0375817 0.0167774 0.0328994 0.00880927 0.0495003 0.0423325 0.0186738 0.0743999 -0.0358832 0.091184 0.0185318 0.0320069 -0.0193696 0.0485107 -0.0451682 -0.0473765 0.0872535 0.0375771 0.0444677 0.0371502 0.00649963 0.00985858 0.0449724 -0.0409145 -0.029438 -0.0585448 -0.0041237 0.0360131 -0.0288931 0.0276468 0.0148048 0.0121253 -0.0307752 0.0743241 -0.0857567 -0.0396924 -0.0546154 -0.0196386 0.138327 -0.010188 -0.0417503 -0.0938309 -0.0195105 0.091386 0.0294554 -0.135238 -0.0593439 0.00967642 0.031408 0.0358259 0.003167 -0.0104358 -3.19225e-05 -0.0126406 -0.114685 0.0206509 -0.0704803 -0.00154309 0.0697821 -0.0798764 -0.0334298 0.068598 0.0741489 0.0678394 0.0540648 0.00621726 -0.0465644 -0.000841353 0.0687524 0.00451408 -0.00921295
ovat 0.00817639 -0.0182084 -0.0511153 0.0695619 -0.0326707 -0.025455 0.0680119 -0.0452677 0.0576652 -0.0251974 0.0467343 0.107161 -0.0760668 -0.0488454 0.0176508 -0.00780089 0.0301831 -0.0509178 0.0478083 -0.0109928 -0.0132171 0.0168609 -0.021731 0.0469843 0.0282299 0.0464033 0.0871855 -0.0415078 -0.0924338 -0.0486752 0.00653876 0.0746551 -0.0790915 0.05075 0.0335513 0.0244552 -0.0280545 0.0575773 0.00459659 0.0308897 0.0639134 -0.0653783 -0.00451757 0.0192047 0.0866905 0.0235791 0.0250576 0.0160179 0.0516795 -0.0761348 0.0162673 -0.0179508 0.057601 0.0605317 -0.0516211 0.036096 -0.0263403 0.037174 -0.185901 0.0568604 0.0092225 -0.0267247 0.0859117 0.0512693 0.0529685 0.103909 -0.0367254 -0.0568022 -0.0286666 0.0022807 -0.0220138 -0.0299283 0.0253033 -0.0577772 -0.106381 -0.0622642 0.0469759 0.0398906 0.0429568 -0.0285473 -0.0399206 0.0530895 -0.0572823 0.0467815 -0.0785855 -0.108085 0.0540923 0.0140042 -0.0363181 0.0828328 -0.0186467 0.031836 0.0198006 -0.169853 0.0562852 -0.0249167 0.153499 0.0228783 0.127063 -0.0270587 0.0964123 -0.0127449 -0.0352177 -0.0681077 -0.0567522 -0.0566677 0.0190775 0.0289792 0.0584842 0.00963187 0.0147829 0.052496 -0.0671701 -0.0270487 0.0145793 0.0116283 0.0437985 0.0708829 0.0810233 0.0508796 0.0666727 0.030623 -0.0453559 0.0537529 -0.0277113 0.00749975 0.0482385 0.0533563 0.0488733 0.0217289 0.0288349 0.0811229 -0.00912445 0.0226236 -0.0451587 -0.00932383 -0.00109868 0.0457721 0.0289795 0.0539801 -0.0531605 0.0943438 -0.0171434 -0.01135 0.00050232 0.0692116 -0.0567177 -0.0035037 0.0508916 -0.0299753 -0.0209161 -0.11262 -0.000203974 -0.00479376 -0.0410457 -0.0749731 0.0363457 -0.0344334 0.184186 0.0436605 0.0147362 0.0157663 -0.0536458 -0.0362598 0.0873775 0.0257626 -0.00812145 -0.0446136 0.167602 0.0713029 -0.0421477 -0.00593287 -0.0229786 -0.0190203 -0.0383634 0.058197 0.0406452 -0.089344 -0.00420493 -0.00557064 0.00344388 0.0265745 0.0249618 0.0617843 0.109098 -0.0331108 0.040971 -0.0538397 0.0730046 -0.014181 -0.0173555 -0.0303313 -0.00864546 0.052696 0.0552362 -0.0219658 -0.0435381 -0.0152235 0.0378085 0.0546557 -0.000700425 -0.0776113 -0.016991 -0.00480618 0.0487496 0.00871531 0.0505773 0.0415132 0.072512 -0.0527829 0.0866672 0.0130825 0.0160842 0.0125864 -0.00935659 -0.10496 -0.0581857 -0.0931154 -0.0450495 -0.0562164 -0.0133389 -0.100923 -0.0732562 0.00232991 -0.0523525 -0.0092322 -0.0282121 -0.0406649 -0.0232756 -0.0260177 -0.0359583 0.0181029 -0.0386402 -0.0324786 -0.06171 0.0679615 0.0136642 -0.137437 -0.057366 0.0694155 0.0374072 -0.0540584 -0.0366776 0.032835 -0.0197158 0.179692 0.0427189 -0.0986234 0.0713197 0.0219931 0.0460531 0.0494519 -0.138781 -0.0426078 -0.029663 0.0334782 -0.0177454 -0.0113489 0.0299825 -0.0102179 0.0430815 0.0879549 0.0680891 -0.034453 -0.0979097 -0.0481663 -0.0153382 0.114961 -0.0150713 0.064957 0.0123854 0.0400887 0.144715 0.00064941 -0.0301515 -0.0163509 0.0453412 -0.0127003 -0.0231343 0.0990723 0.0292103 0.110872 -0.0166942 0.0765244 0.0282663 0.0655141 -0.0403842 0.114125 -0.134224 0.0876561 -0.0032818 -0.0321673 0.0155188 0.072286 0.025396 0.0145364 -0.0939255 0.00164136 0.102025 0.0221848
mutta -0.044875 0.0324364 -0.0833658 0.000469619 -0.0360272 0.00158999 0.0283684 -0.0697119 0.0443695 0.0993778 0.0379493 -0.00969693 0.0594758 0.0295333 0.0431828 -0.0747475 -0.0152656 0.0134816 0.0234263 0.038474 -0.0547978 0.0818232 -0.117251 -0.0840167 0.0112631 0.00828877 0.0671188 0.00845209 0.00120527 0.0242901 -0.112406 -0.000288888 -0.0937655 0.0844049 0.00129875 -0.0460397 0.0131347 -0.0225083 0.00761271 -0.0618896 0.0234412 0.0232297 0.00995036 -0.0215814 -0.00173648 -0.00277489 0.131429 0.0800125 -0.0179664 -0.056587 0.0272775 -0.150248 0.0118284 0.0421357 -0.0698587 0.0405341 -0.0609061 0.0631334 -0.0337237 0.0920874 -0.0435344 -0.0949829 0.0605854 -0.0302144 0.0346346 -0.0311427 -0.0717456 0.0395698 0.0375204 0.0168367 -0.0266305 0.0176771 -0.0430405 -0.111566 -0.0325327 0.0234405 0.0680233 0.143087 -0.00203364 -0.0488796 -0.000988092 -0.0516949 0.0248114 0.00186139 0.0337357 -0.0152862 -0.0582174 0.0545392 0.00466165 -0.0157195 -0.0359058 -0.0297906 0.104103 -0.0387083 0.0660667 0.0221461 0.115076 0.0207115 -0.0558055 -0.0803962 0.00546353 -0.0196268 0.110314 -0.0200456 -0.0642726 -0.0750552 -0.071235 -0.0514362 -0.0158473 0.00587087 -0.0547504 0.0337199 -0.0200124 -0.0199872 0.0493499 -0.104107 0.0537957 0.0507434 0.0740501 -0.0094936 0.0491498 0.0710805 0.0180046 0.219773 0.0589712 -0.104497 0.0790432 -0.0360724 -0.00477421 0.056937 -0.0827508 0.0285667 -0.0334815 -0.0122035 -0.0963894 0.0476685 -0.00625766 0.00689954 -0.00231211 -0.0383569 -0.0274407 0.0195749 0.0103237 -0.0569422 0.00961499 0.0134446 -0.0439544 -0.0296394 -0.0266343 -0.0133411 0.0109372 -0.110968 -0.0457365 0.0519595 -0.0670267 -0.0310426 0.0300459 0.0653783 0.0848288 0.0185526 -0.0798009 0.124029 -0.0163625 0.116522 0.0459566 0.026534 -0.12939 -0.035224 0.109396 0.0396213 0.00929357 -0.0548606 -0.0624364 0.00265351 -0.00677792 0.0264266 0.0058414 0.0725551 0.0157233 -0.0489956 0.0642549 -0.0883449 0.0268191 0.00649308 -0.0115641 0.032583 -0.00388906 0.0642714 0.0659691 -0.00219782 -0.0701711 -0.146173 0.0167454 0.138176 -0.0396386 -0.00268007 -0.00585277 -0.0362932 -0.0723207 -0.0807869 0.00993752 0.0511795 0.00911041 0.0639273 0.0345511 -0.0579392 -0.0527303 0.0644232 0.0434735 0.0763827 0.0511575 0.00490705 0.0149274 -0.00405857 -0.0316588 0.00977332 -0.0126422 -0.0522533 -0.0412182 0.0728824 -0.0446558 -0.0917776 0.0322656 -0.0325317 -0.0275682 -0.0293301 -0.0690018 -0.0738555 -0.0422414 0.0394765 0.0803739 0.0798984 -0.0769634 -0.0362924 -0.068375 0.0221151 0.0317031 -0.0853017 0.0244052 0.0320508 0.0184595 0.0168517 0.0547876 0.0192583 -0.0444291 0.0760792 0.045261 0.022492 -0.0472982 0.0101725 -0.0296862 -0.0397986 -0.100233 -0.0915678 0.00239893 -0.0212626 0.0459075 -0.075709 -0.0470808 0.0225346 -0.0134425 -0.0104471 -0.0099014 -0.173583 -0.0885965 0.000385585 -0.0175922 0.0903129 0.0466442 -0.0877527 -0.137738 -0.049251 0.0546112 0.00616829 -0.074022 -0.0417738 0.026815 0.0554429 -0.00244656 0.0255335 0.0691844 0.0208515 -0.0676145 -0.0724579 0.00419193 -0.0144396 0.0112365 0.177064 -0.0564591 -0.00141073 0.0115257 0.0365165 0.0187334 0.054026 0.0617882 -0.0407349 -0.0155995 0.0142635 -0.0364502 0.0128493
sen -0.0844539 0.00620008 -0.0366618 0.0735272 -0.0283317 -0.0533866 -0.0101363 -0.0899155 -0.00547078 0.0459101 0.00082119 -0.09688 0.012971 -0.0107983 0.0915492 0.0120377 -0.023893 -0.128108 -0.0298187 0.00888157 -0.054702 -0.0130522 -0.085255 -0.122403 -0.0241548 -0.0652076 -0.0112353 -0.0595322 0.0201962 0.0525963 -0.0338148 0.104868 -0.11117 0.0948818 -0.0525516 -0.0468118 -0.00312901 -0.0647662 0.0212241 -0.0157793 0.024117 -0.0232757 0.0016463 0.0651348 -0.00868023 0.0380346 -0.0163224 0.00884963 -0.0502435 -0.0531129 0.0664426 -0.0715695 -0.0274018 0.0112914 -0.0248615 -0.0263301 -0.050531 0.0826719 -0.00832122 -0.02311 -0.0887407 -0.0713194 0.0989102 0.00643722 -0.00129361 -0.025982 -0.124393 -0.0472765 -0.0215798 -0.0237293 -0.116462 -0.0137428 -0.00396104 -0.0324833 -0.0482693 0.0548393 -0.0431059 0.129277 3.20465e-05 -0.0746724 0.00900611 -0.0447969 0.024457 0.0580128 -0.0288626 0.0168018 -0.0317664 0.0929351 0.0135836 0.0265391 0.0364524 0.0323485 0.0622432 -0.105986 0.0626768 -0.00758425 0.125574 0.0260268 -0.0110138 -0.0198246 -0.0906418 -0.000207561 0.0300436 -0.0122336 -0.0467525 -0.0464591 -0.000274359 0.0802556 0.032161 -0.00304174 -0.0480411 0.0696858 -0.0394803 -0.0444317 0.00106264 0.0268167 0.106691 0.116574 0.111233 0.0107453 0.00880773 0.0983559 0.00637993 0.0730717 0.0177753 -0.050537 0.0888679 0.0870801 0.177305 0.0988578 0.019569 0.0174457 -0.017501 0.0766507 -0.0238278 0.0222281 -0.00642217 -0.00028696 -0.0791713 0.0506826 -0.0336442 -0.0327963 0.0152601 0.0595262 0.0133648 0.0797521 -0.00360063 0.00427549 0.0885966 0.0648025 0.0339673 -0.0603529 0.0288516 -0.0159922 -0.014049 -0.0967389 -0.0172906 -0.0637835 0.11676 0.106217 -0.0722866 0.126664 -0.0383035 0.0812012 0.110319 -0.0236252 -0.0145059 -0.0350015 0.0629117 -0.0451522 -0.101737 -0.125161 -0.0409384 0.0228822 -0.0100106 0.0424784 -0.0256568 0.0589817 -0.00631425 0.0151594 0.000840198 -0.0137495 -0.01549 0.0459133 0.0376523 0.015432 0.0143822 -0.117618 0.0737298 0.0182001 -0.0110823 -0.0924486 0.0916832 0.0284526 -0.0783028 0.0492373 -0.00166566 -0.021581 -0.0548616 0.0256415 0.0724816 -0.0197261 -0.0701015 0.046067 -0.108448 -0.0370209 -0.0505021 0.0151476 0.0420061 0.0209803 0.0596134 0.0417309 0.0509372 0.00520999 -0.0877608 0.0465889 -0.0802667 -0.0853569 -0.00324244 -0.0112152 -0.0500896 -0.0161348 -0.0134188 0.0245701 0.000612914 0.00878643 -0.0520259 -0.0428048 0.00639063 0.0765417 0.0571291 0.0744249 -0.0245552 -0.028453 -0.00527079 -0.0179821 0.00454321 -0.0518704 0.0626139 -0.00860496 -0.0297393 -0.0476731 0.0286704 -0.00595418 0.0883291 -0.00610603 -0.00682993 -0.0280603 0.0370099 0.0172749 0.0237184 0.110663 -0.084649 -0.0418137 0.0388031 0.0838396 0.0198187 0.0603649 0.0615703 -0.0687321 -0.0108812 0.0948797 -0.0134813 -0.155566 -0.0279077 0.0147088 0.0217039 0.00862231 0.00587369 -0.0878532 -0.136783 0.0229116 0.0352007 0.0571144 -0.00410162 -0.034193 0.0114586 0.112272 -0.0870209 0.0114595 0.0076015 -0.0108256 -0.0999709 -0.0873887 0.0519299 -0.0312908 0.0354641 0.0896391 -0.0655433 0.0557027 -0.0259578 0.031274 -0.00490674 0.0427389 -0.00899518 -0.144758 -0.0199572 -0.043488 -0.0694005 0.0153326
sekä 0.0496252 -0.00430852 0.0147772 0.0419169 0.0113284 0.0335872 -0.0242341 0.039886 0.0822605 0.000742621 0.0660159 -0.0134106 0.0655527 0.0114832 -0.032255 -0.0435739 -0.0410521 -0.0408139 -0.0522879 -0.0325285 0.00355925 0.00792084 -0.0689368 -0.0616822 -0.0821291 -0.0123807 0.0378694 0.0372047 -0.0225759 -0.0588636 -0.0814756 0.0744955 -0.0457273 0.132951 0.11893 -0.0126519 -0.0521695 0.0147768 0.0458675 -0.0606579 0.0121796 0.0262082 0.00932186 -0.0295549 -0.0202119 -0.0195123 -0.0774177 -0.0325635 0.0404275 -0.0329258 0.0482035 0.0613329 -0.0744635 0.0554909 -0.0871671 -0.0191453 0.056168 0.00300526 -0.128855 0.12309 -0.0769773 -0.000110646 0.0692341 -0.0262866 0.0378122 0.0621061 -0.171983 -0.0138108 -0.0556149 -0.0178944 -0.131388 -0.0735145 -0.0043112 0.0489258 -0.0197054 -0.0390419 0.0271672 0.105492 0.00856845 -0.0108168 0.100103 -0.0144475 -0.0658466 -0.101749 -0.00741732 -0.0613344 -0.0772973 0.0195077 -0.00932783 0.0222909 0.0235137 -0.0844922 0.0397358 -0.129121 -0.00748362 0.105791 0.0601787 0.0171033 0.0578803 -0.0296195 -0.0305138 -0.0790715 0.0462884 -0.0645019 -0.0662824 0.0512673 -0.0201138 0.088516 -0.0390197 -0.0586821 0.027163 0.0716603 -0.0675531 -0.043646 -0.0445192 0.0276196 -0.00929767 0.0367674 -0.0177831 0.0603967 0.0887128 0.0294604 -0.0138574 0.0757013 -0.0646584 0.0216065 0.0989093 0.0189024 0.108156 0.0725101 0.0192492 0.0702196 -0.0961213 -0.0563321 0.0224385 0.0612 -0.0440722 0.0754849 -0.0715753 0.0157592 -0.0100712 0.0590914 0.0392688 -0.0100774 0.0974961 0.149681 0.0208676 0.0176062 0.0823412 0.0317728 -0.0259674 -0.118508 -0.0891626 0.00126042 -0.0423032 0.00829818 -0.0700668 -0.025215 0.0994361 0.00872394 -0.0436077 0.0257969 -0.00470799 -0.0531248 0.0421995 -0.104959 -0.0659799 -0.0514074 0.054512 -0.0073526 0.0541509 -0.00252114 -0.0667119 0.00413101 -0.0282276 -0.0104497 0.0363685 0.0526758 0.0324701 -0.0683073 0.00933113 -0.0130318 -0.00366359 0.094472 0.0483847 0.117817 0.0104965 -0.0151534 0.00602309 -0.0438801 -0.0397277 0.0241082 -0.0333279 -0.0331014 0.0167297 -0.011553 -0.0642186 0.0396435 -0.0497459 -0.12533 0.0412573 -0.111892 -0.0380827 -0.0591576 0.0324254 0.0415542 -0.051254 -0.0053219 0.0678612 -0.022453 0.11719 -0.0347296 0.0379038 0.0276709 -0.0628118 0.0405994 0.0067803 -0.151315 -0.0204858 -0.042756 -0.0146682 -0.0394556 -0.0659474 0.0130633 -0.0873379 -0.023425 -0.0633627 -0.12019 0.0538939 0.0367449 0.000618683 0.030702 -0.0766505 -0.0150804 -0.0298185 0.0211645 -0.00751329 -0.104452 -0.00840946 -0.00752781 -0.0388297 0.0476169 -0.0450668 0.0010379 0.0439434 0.0634415 0.0501251 -0.0292648 0.088277 0.0774576 -0.011635 -0.00353958 0.0405071 -0.0622647 -0.0630461 0.000848637 -0.0263502 -0.00129968 0.0245937 -0.0234058 0.0597772 0.0318479 0.0995441 -0.00750736 -0.0203722 -0.0129119 0.0123871 0.0349855 0.00529271 -0.0381683 -0.0429977 -0.00832415 -0.0286856 0.0397778 -0.0840996 -0.0435665 -0.03178 0.0822255 -0.0512613 0.0567305 0.0503188 0.0344383 0.00533661 0.0199411 0.0859613 0.0127661 -0.0345437 0.0627435 -0.143352 0.0801473 0.140916 -0.0267548 0.141843 0.114892 0.0493467 -0.0277249 -0.00953183 -0.020239 0.0601507 -0.0207011
n -0.0842248 -0.0338787 -0.0300382 -0.0353721 -0.0336672 -0.0233984 -0.0136672 -0.149629 -0.0706638 -0.0956051 0.189658 -0.0882647 0.099707 -0.0184476 0.0591529 -0.0480266 -0.0081496 -0.00297716 -0.0148527 0.0736871 -0.029367 0.0865976 -0.133108 -0.119431 -0.0150088 -0.0561169 -0.000357368 -0.126387 0.00417493 0.0828833 0.0369441 0.0262823 0.0988998 0.0284838 0.0110004 0.0277693 -0.0244796 -0.0679166 -0.0400222 -0.0165319 -0.000264834 0.0395851 0.0549745 -0.0100968 -0.0369891 -0.0571213 -0.0281983 -0.0127679 0.0303456 -0.0566588 -0.00711474 -0.0961953 0.0362979 -0.0141574 -0.0286577 -0.0275347 0.0382242 -0.0347606 0.00479491 -0.0475235 -0.0759172 -0.0592165 0.0508998 -0.0723257 -0.0249779 -0.0250473 -0.0590627 -0.103435 -0.112793 0.0180418 0.0227707 0.0536739 0.0353815 0.0461172 -0.0342762 0.00464525 0.0399072 0.113133 -0.0245925 0.0864139 0.0861398 0.0147797 0.00189708 -0.0695849 0.0274887 -0.0566328 -0.0528105 0.0691698 -0.0276778 -0.012161 -0.0108189 -0.06084 -0.00961364 0.0265497 0.106327 -0.0122849 0.0144279 -0.0127024 -0.00718102 -0.0198168 0.0483289 -0.0108877 0.0343347 -0.0727918 0.0136488 -0.109939 0.0629139 0.0206913 0.0149669 0.0720816 -0.0492871 -0.0120967 -0.0968885 -0.0202845 0.0434301 0.053376 -0.0207376 0.137227 0.0356252 0.0531593 0.0861991 -0.0397635 0.051585 0.142273 -0.0584959 -0.00733112 0.0527824 0.143838 -0.00837292 0.0858474 -0.000664685 0.0249191 0.00170142 0.0444473 -0.0466914 0.0263067 -0.0355671 -0.045253 0.0108979 0.0527897 0.102035 0.0360419 0.00921308 0.004393 -0.00911137 0.0957145 0.0435839 -0.0889534 0.0908961 0.0680395 -0.0578857 -0.0363043 -0.0756643 -0.0399416 0.0691188 -0.0870797 0.0701659 0.100019 0.0284618 0.148347 0.0441397 0.0813157 -0.0224074 0.0914445 -0.00271607 -0.00715314 0.0407124 0.0645157 0.114675 -0.0958163 0.013445 -0.00220061 -0.07024 -0.0240543 -0.0197483 0.114438 -0.0447614 0.0153872 -0.00319709 -0.0236212 0.0806768 0.0398805 -0.0256679 0.130751 -0.0367506 0.0805082 -0.0712306 -0.0462539 0.10465 -0.0154025 0.07733 -0.0365409 0.0308744 0.0147255 -0.0127913 -0.0174434 0.0336924 0.031124 -0.133259 -0.0751678 0.032658 -0.0239586 0.0125031 -0.0387993 -0.0215793 0.0120706 0.0294688 -0.0209656 0.057772 0.0425843 0.106806 0.0698795 -0.0314239 0.00668373 -0.0825385 -0.0477781 -0.0150087 -0.0466796 0.0446553 0.0302671 0.0380901 0.0399902 -0.0368602 0.0305752 -0.0366605 -0.0770658 -0.0538984 -0.0233572 0.0302069 -0.0251311 0.0616434 -0.0414464 -0.0645455 0.0498899 -0.0789636 0.00825442 0.0344906 0.0318221 -0.0119738 0.091107 0.010743 0.00527053 -0.0304368 0.0451397 0.0764165 -0.0796719 -0.0159771 -0.0127409 0.0108337 0.0389497 0.0236951 0.0495862 -0.0449856 0.0710453 -0.0850091 0.0106852 -0.0377763 -0.0422671 -0.0734036 -0.0384707 -0.00956019 0.048376 0.0339799 -0.00797025 -0.0336889 0.0962769 0.0416078 0.0299451 -0.0526103 -0.0401778 -0.05395 0.0403596 0.0458542 0.0556981 -0.0418478 -0.0178711 0.0197537 0.0572683 -0.0337923 0.0243378 -0.0249101 -0.0243725 -0.0637584 0.0271432 0.0261458 0.0675845 0.030007 0.0255445 -0.102752 0.0109552 0.0912496 -0.105846 0.0439083 0.112293 0.0185896 -0.0481268 -0.0436922 0.0539729 0.0466043 0.0106814
tai 0.00798058 0.0802952 0.0492061 -0.00342048 -0.058404 0.00939995 0.00592811 -0.0902503 0.00367699 0.00922746 -0.0573263 0.00795147 0.047244 0.0623152 0.0406953 -0.0706642 -0.0400652 0.0948374 0.0810495 0.0154515 -0.0470248 -0.0414413 0.0166738 0.0340547 -0.0121768 0.0335348 0.0127187 0.00707398 -0.0587239 0.027799 -0.0349642 0.0489782 -0.0783646 0.0308594 -0.0355574 -0.0655543 -0.0705287 0.00336135 0.0559438 -0.00417018 -0.0354612 -0.0217505 -0.0457679 -0.00689497 0.0328014 0.0344226 -0.0158082 0.0202811 0.0362384 -0.0162311 -0.0114216 -0.0623017 -0.0150622 -0.0160656 -0.096465 1.97083e-05 -0.0136845 -0.023668 -0.0639772 0.0121112 -0.0763248 -0.0276178 0.0862743 0.025456 0.0325343 0.083215 -0.0193322 -0.0142728 0.026556 -0.049711 -0.11223 0.102219 0.0565961 -0.0380512 -0.0495687 0.0585373 0.0857091 0.0846524 -0.0975785 -0.023901 -0.037241 0.00405352 -0.0333488 -0.0229938 -0.0891255 0.0169095 -0.051817 0.0586973 -0.0171421 0.0247448 -0.0751721 -0.0420199 0.00427629 -0.0864848 0.00569979 0.0230589 -0.00485718 0.0749152 -0.0549363 -0.0132958 -0.0448838 0.011871 0.0962399 -0.094625 0.0677074 0.038883 -0.0140644 -0.01886 -0.113409 0.0145116 -0.02501 -0.0377466 -0.122377 -0.0219924 0.05837 0.0497726 0.0313638 -0.0593954 -0.0123327 0.0672788 0.118155 0.0087298 -0.0742979 0.0870575 -0.0236148 -0.0545761 0.0134354 0.0162187 -0.000800649 0.062274 0.00895959 0.0507059 0.0147622 0.129832 0.0410317 -0.00764101 -0.0791341 -0.017075 0.0650168 -0.0855086 -0.0816863 0.0423336 0.0456628 -0.0265462 0.0297834 0.124123 -0.0626914 -0.112672 -0.00797826 0.034241 -0.0805301 -0.0223529 -0.0375208 -0.0378328 -0.0559449 -0.00759856 0.00248639 -0.0387477 0.147083 -0.0573378 -0.0299015 0.113162 -0.0576219 -0.121815 0.0433401 -0.0783039 -0.0393089 -0.0985952 0.0859982 0.03262 -0.151984 -0.0769503 -0.0794499 0.0307139 -0.0133904 -0.0117389 -0.116258 0.0695998 0.0400647 -0.0770896 0.0244675 0.00772359 0.00658979 0.0111453 0.0568228 0.106811 0.0566841 -0.0229871 0.0809211 0.00699252 -0.0339754 -0.0367162 0.0711385 0.0152709 -0.113579 -0.129594 0.0234437 0.0177582 -0.0903977 0.0140124 0.0828012 -0.0985936 -0.0357437 0.040865 -0.0263106 -0.042833 -0.125993 0.059007 -0.00121953 0.0688793 0.0145046 0.00645019 0.0308428 0.10792 -0.00260966 -0.0145189 -0.000379735 -0.074121 -0.0519246 -0.0634881 -0.0655335 -0.0872191 -0.0395772 0.0811891 -0.00519199 -0.00814726 -0.104596 0.00396126 0.0428295 -0.0102241 0.0319368 0.00805158 -0.104547 -0.00506823 -0.0882772 -0.0179876 0.0194323 -0.00770604 -0.0645277 0.0278497 0.0428372 -0.00480684 -0.00867155 0.00325789 -0.0248796 0.166705 0.0220693 -0.040557 -0.019417 0.0578964 -0.0380115 -0.0193489 -0.106682 0.00670683 -0.0107701 0.018723 -0.0169412 -0.0474925 -0.00316123 -0.0952666 0.0355651 -0.0115565 -0.0286796 0.0648842 -0.102431 -0.0272547 -0.0973448 0.102047 0.0179781 -0.0355216 -0.00256624 -0.0124365 -0.0329381 -0.0273623 -0.0828588 0.0385009 0.0349133 -0.0352655 0.0382583 0.0269624 0.0500585 0.0261661 -0.10379 0.0208958 0.0600022 -0.0245199 0.068935 0.140854 -0.114097 0.0833787 0.00622741 0.0516306 -0.0196381 0.0485226 -0.00909624 -0.079936 -0.065171 0.0148721 0.0592839 0.0203027
" 0.00535336 0.00554533 -0.004469 -0.0240261 -0.00451698 0.119529 -0.107316 -0.0110703 0.0623878 0.00615152 -0.00291381 0.0863649 0.0323138 0.0205877 -0.0722724 -0.0881961 -0.0682968 -0.0144892 0.0323842 0.0808566 -0.0657739 0.0455284 -0.0095331 -0.0124326 0.0190631 -0.0406128 -0.00227273 -0.0201935 -0.0484206 0.0258204 -0.0497029 0.0476507 -0.0654574 0.032663 0.0431442 0.00878191 -0.0410094 -0.0531308 0.0753529 -0.00304698 -0.033176 -0.0538182 -0.0484778 0.0194298 0.0683774 0.05679 -0.0691685 0.0224739 -0.0522175 0.0573574 0.118131 -0.0196913 0.0306397 -0.0740782 -0.0426294 -0.0232045 0.0795563 0.00452406 0.0712282 0.045456 0.0995812 0.00786885 0.0320801 0.071361 -0.0419491 -0.052184 0.108824 0.0983786 -0.00671477 -0.0946299 -0.0475187 -0.0614155 0.0583169 0.010847 -0.0449799 -0.0243161 0.0575736 -0.0736743 0.00179264 0.0328596 -0.0568099 -0.0699343 -0.0410892 0.0471189 -0.0238314 -0.000933855 -0.0532185 0.0439439 -0.0275997 0.00210361 -0.0385242 -0.0096419 0.137961 0.00461301 0.0917722 0.071497 0.00956139 0.00643364 -0.0518871 -0.00817231 -0.0289141 0.00406923 -0.00404745 0.0128627 -0.0594609 0.00532455 -0.057462 0.122458 0.0174948 -0.126267 0.0231003 -0.00472022 -0.0618891 -0.0372157 -0.0249217 -0.0305162 0.0218005 0.0212298 -0.123341 0.00886249 0.0855116 0.0638405 -0.056283 0.0556498 -0.0930165 0.0280409 0.0378383 0.0448892 0.0383825 -0.0504005 0.0495774 0.0410396 0.0629219 0.0195919 0.0440114 0.0138949 -0.0319911 0.0372714 -0.0132968 -0.0159063 -0.0213755 -0.0485725 0.103196 -0.0131476 -0.0252914 0.0809159 0.00326133 -0.0838464 0.00921209 -0.091884 0.0723818 -0.0748874 -0.0698952 -0.0129876 -0.0257505 0.130975 -0.0981978 -0.0375177 0.0246447 -0.0279926 -0.0368114 0.0233197 -0.16896 0.000901106 -0.000216265 -0.045906 0.0028043 0.00150285 0.0400021 0.0535043 -0.0662232 -0.153246 -0.0344393 -0.0766569 -0.0130154 -0.0468973 -0.0303709 0.025979 -0.0212979 -0.0267149 0.0279643 -0.116718 0.0524347 0.0876097 -0.0668437 0.0989512 0.00246715 -0.0403785 0.0462743 -0.0158668 -0.0201965 -0.148831 0.0335976 0.082985 -0.0615232 -0.0283779 0.00285034 -0.00425407 -0.128648 -0.0765853 -0.0111983 -0.00673265 0.0731395 -0.0178981 -0.00859194 -0.029467 -0.0309966 -0.0423244 0.0935045 0.000204628 0.234592 -0.0155943 -0.0450645 -0.0842324 0.0115094 -0.0575843 0.0246932 -0.0512111 -0.0292073 -0.0776259 -0.0800176 -0.0522936 -0.118675 0.080425 0.0194327 -0.00128947 -0.121681 -0.0331569 -0.0331956 0.0784453 0.0498594 -0.000385073 -0.00309183 -0.116465 -0.0539872 0.0469166 0.0274236 0.0581321 -0.00599384 -0.0612266 -0.0609807 -0.115931 -0.0185364 0.0568514 0.0240765 -0.00385919 0.0521838 -0.0361822 0.0782621 -0.036088 0.0497379 -0.0046918 0.00405911 -0.0298365 0.00139107 0.0524443 -0.0855308 0.0560624 0.0688778 0.0228192 0.00660941 0.0417987 -0.0095813 -0.002052 -0.0704775 0.0369594 -0.0649164 0.0371299 -0.0284892 -0.0428288 -0.0916812 -0.00310707 0.0534872 0.00690586 0.00136315 0.0615198 0.0737369 0.0782785 -0.116417 -0.036518 0.0480975 0.00228649 0.0239872 0.115616 0.00819849 -0.00943075 0.0505558 0.0606442 0.0152851 0.0188053 -0.0296381 0.0532852 -0.0135506 0.04057 0.0312371 -0.0372596 -0.0958208 -0.0275052 0.0460458 0.0664868
the 0.080723 -0.0708106 0.0247917 0.0402813 -0.00856479 0.0607456 0.00906879 0.00632033 0.0814375 0.119729 -0.0629261 -0.022552 -0.0357388 -0.124763 -0.0271478 0.00583241 -0.0344714 0.0363647 -0.0243781 0.0320105 -0.0726027 0.0503977 0.00793378 -0.0767858 -0.0577483 -0.0446389 -0.0933208 0.0164863 0.0233431 0.0842156 0.0028763 0.00380041 -0.0102368 0.105288 0.0807675 0.0343538 -0.0136372 -0.0769611 0.0341549 -0.0471104 -0.0260635 0.0703189 -0.00608964 0.120532 0.0437717 -0.0676244 -0.061233 -0.0240073 -0.0453911 0.031318 0.0452863 -0.0554767 0.086715 0.0167189 0.0239162 -0.0480523 0.140164 -0.0301736 0.00587466 -0.0110962 0.00619688 0.102546 0.0529042 0.0180479 -0.108853 0.0943105 0.0551102 -0.0105146 -0.0711144 -0.00298279 0.0740651 -0.0829409 0.0323023 -0.00880975 -0.0522601 0.0613273 0.0593177 -0.02305 -0.0400848 0.0305992 0.037918 0.00847882 -0.0330937 0.049733 -0.011105 0.0547589 0.000775189 0.0763195 0.0667098 0.0838255 -0.0329244 0.0291656 0.0561729 -0.0445368 0.0402308 -0.0448474 -0.0334101 -0.0242479 -0.0612884 -0.0335466 0.0842774 0.0162914 -0.0230955 0.0436785 -0.030851 0.0564337 0.0277872 0.0609825 0.0589036 -0.10059 0.013284 -0.0938631 0.0315474 -0.0428048 -0.074531 -0.0217106 0.0265296 0.0591613 -0.0602991 0.0735439 0.122091 -0.0768812 0.0151412 0.108222 -0.0309684 0.0624369 0.115946 0.0531731 0.0235327 0.0421547 0.00299343 -0.0142009 -0.00719808 0.0587154 -0.04821 -0.0203056 -0.0547372 -0.00480168 0.0155558 0.0445403 0.0407604 0.0271762 0.0555407 -0.0263165 -0.0290468 0.0609263 0.0324758 -0.0291578 0.00506622 -0.0186578 0.128197 -0.0772953 -0.131441 -0.0083714 -0.0205156 -0.0445077 -0.054762 0.0532548 -0.0156584 0.0267623 0.0580623 0.0380536 -0.0174851 0.0267952 0.053809 0.0879598 -0.0375565 -0.00106226 0.0787373 0.0337728 -0.100764 0.00251597 0.000873808 -0.0651822 -0.00945746 0.085982 -0.0780848 0.0585928 -0.0543883 -0.0322787 -0.111893 0.100404 0.0302298 -0.022198 -0.0676316 0.0698003 0.0506245 -0.146824 0.10417 0.0382051 0.03739 -0.0876784 -0.0346725 0.0847934 -0.0583808 -0.00809467 -0.0232952 0.0775782 -0.144245 -0.0537804 0.0335585 0.0629629 -0.0259599 0.0398768 0.0453258 -0.0595276 0.0424701 -0.0112366 0.126496 0.0241312 0.105736 0.0123366 -0.0507848 -0.115919 -0.0236061 -0.0446257 0.0128298 -0.0664645 -0.077655 0.0436002 -0.0906723 0.0426608 -0.0755913 0.0505034 0.00346538 -0.00372762 -0.0386543 -0.102084 0.0263638 0.000550326 0.0679713 0.0978282 -0.00783061 -0.0456531 0.0179165 0.00709072 0.0373689 0.0799113 0.0537707 -0.0300539 -0.0238536 0.020724 0.0199339 -0.0329836 -0.053015 0.0725857 -0.062634 -0.0533292 -0.0256083 -0.00160312 0.113997 0.00212187 0.000970303 0.030815 0.024162 0.0991343 -0.0106107 -0.0475692 0.0976826 0.018016 0.0170221 -0.017209 0.0882845 -0.00245635 -0.0510789 0.0198967 -0.0578414 -0.0242885 0.0743742 0.035132 -0.0841935 -0.000649401 0.0264609 0.0253916 0.00935504 -0.128463 0.0903849 0.0611689 -0.0207898 0.0212801 0.0832418 0.0935294 -0.00774604 0.0860734 0.0839673 0.02173 0.0948847 0.0650567 0.0577892 0.0221546 -0.00127816 -0.0119181 0.0507011 0.0229317 0.0100475 -0.0526717 -0.0755062 0.0704929 -0.00127573 0.0401432
s -0.102308 -0.092496 0.00278419 -0.0367137 0.0157687 -0.00581027 0.0591817 0.0475486 -0.0444343 0.00521883 -0.0350611 -0.0243614 0.0391677 -0.0768058 0.00460978 -0.0461688 0.0336778 -0.00695902 -0.0664607 0.0299841 0.00257772 0.0265749 -0.0839463 -0.0391537 -0.0740274 -0.0338913 -0.0205636 -0.00921574 0.0202057 0.0268281 -0.0186049 0.0550704 0.0728452 -0.0397777 0.028955 -0.0064364 -0.110812 0.0653898 0.128977 0.0168884 -0.0356182 0.0227899 -0.0483081 -0.0040877 0.0424523 -0.0358966 0.00969914 0.041734 -0.00857464 0.0184796 0.0210921 0.0172053 0.0436671 -0.0161729 0.0124711 -0.159557 0.0871271 -0.019155 0.0224925 0.166358 -0.00972284 -0.0216501 0.0182022 0.0243183 -0.00925283 0.0403127 0.102807 -0.0495231 -0.0587706 -0.0140095 0.00235296 0.0314164 0.0839157 -0.0205935 0.0111258 -0.0771098 0.167143 0.0142472 -0.0187761 0.0456399 -0.0302961 0.0781782 -0.00167265 -0.0387608 0.0203089 0.00071755 -0.00684324 -0.0583262 0.00965243 -0.0204342 -0.00501017 -0.0241125 -0.00141498 0.0759435 0.0228721 -0.0142938 0.0378946 0.00269862 0.0260937 -0.0227047 0.0384875 -0.0142213 -0.037291 0.01464 0.0445057 -0.0123952 -0.052434 -0.0720904 0.112747 -0.0333292 0.0349413 -0.0185871 -0.0599296 -0.00355091 -0.0257947 -0.056246 -0.0459007 0.0789444 -0.0238036 0.115548 0.0263434 0.0407456 -0.0713271 0.0340355 -0.0587105 -0.0347282 -0.000114994 0.0152957 -0.0320913 -0.0351243 -0.0244376 0.000440747 0.0500211 0.0331111 -0.0179559 -0.0439592 -0.0224439 -0.0113255 0.0104886 0.0839433 -0.0179728 -0.0265263 0.101988 0.126418 0.00372805 0.19544 -0.00645789 -0.0577653 -0.0076553 -0.108557 -0.00218554 0.00820343 -0.0308909 -0.012666 -0.148117 0.0159076 -0.0139726 0.00657657 0.00227117 0.0654071 -0.0205973 0.0531912 -0.0697935 0.0627172 0.0839977 -0.123675 -0.00741154 0.0192471 0.0597885 0.0149791 -0.11066 0.0483373 -0.0872905 -0.0580186 0.0601045 0.0979765 0.0924985 -0.0501247 -0.00827286 -0.0638165 0.00610459 0.0137704 -0.0407212 0.120675 -0.156275 0.0883797 -0.0442062 -0.0495261 0.0220639 -0.00700863 -0.0115041 -0.0914541 0.0289487 0.0512363 -0.028412 -0.0516659 0.0705004 0.0524408 -0.103761 -0.0372975 -0.000608166 0.0489014 -0.0445153 -0.0473775 0.048181 -0.0124899 0.0265067 -0.0634528 0.150573 0.0320665 0.210835 -0.0426756 -0.0117405 -0.0574645 -0.109591 -0.0356556 0.0245365 -0.066785 -0.123943 -0.00790679 -0.0333941 -0.00943255 -0.069574 0.0933906 0.0110736 0.0328663 0.0379888 -0.0225095 0.0508612 0.0359804 -0.0496048 -0.00612139 -0.0165475 -0.0588605 0.0122952 -0.0167096 -0.010863 0.0386319 -0.0466984 -0.0302922 -0.0210349 0.0872642 -0.0546813 -0.069239 -0.0192506 -0.00693272 -0.100057 0.0142305 -0.00566732 0.000576117 0.0690965 0.0222405 -0.0391941 0.0465401 -0.0475256 0.0774828 0.106214 0.0307233 0.0639072 0.045005 0.0690576 0.0492386 0.139144 -0.0217116 -0.0528174 0.00241139 0.0167793 0.0373963 0.0117458 0.0120815 0.00107057 -0.0679576 -0.0238765 0.0354562 -0.0731328 -0.0939537 0.113479 0.0132844 0.0279915 -0.0387946 0.017215 0.0634521 -0.0586669 0.0862495 0.0989253 0.0549843 0.022711 -0.00523419 0.0840211 0.0590923 0.0588301 -0.0478768 0.0578871 0.044243 -0.115717 -0.0287977 -0.0210924 -0.0278488 0.03272 0.0171866
kanssa -0.0637932 0.045908 -0.0402747 -0.0349069 -0.050287 -0.00120886 0.129501 -0.0450907 0.0343142 0.0546252 -0.015696 -0.0264924 -0.0220581 -0.074177 0.0256025 -0.0637469 -0.000788298 -0.0119443 0.0384726 0.11791 0.0141504 -0.00096264 -0.0323644 -0.0111417 -0.00115169 0.00288304 0.0568075 0.080078 -0.0708319 0.0125054 -0.00792853 -0.00371729 0.0214977 -0.0703127 0.0232077 -0.0162835 -0.0197987 -0.0146733 0.129364 -0.0383054 0.167494 -0.0415176 0.0433339 -0.0415689 -0.0220697 -0.0804668 -0.0103818 0.0196001 0.0430705 0.0780184 0.039329 -0.000153372 0.0150776 0.0222473 -0.0907438 -0.0149097 0.0413422 -0.0389318 -0.0412205 0.00931214 -0.0259527 -0.00199944 0.00905096 -0.15958 0.0248587 -0.0300701 -0.0550278 0.0458465 -0.0659751 0.10067 0.0224867 -0.0330012 -0.0230087 -0.030229 -0.0703555 -0.0574593 0.0203517 0.147259 0.0139137 -0.0031368 0.0272081 -0.0862796 -0.0406738 -0.0218402 0.0119022 -0.0292071 0.00436649 0.0114242 0.0534245 0.00659982 0.0159212 -0.0765891 0.0230696 0.0171952 0.0965443 0.0872284 0.0239478 -0.0416103 -0.0449128 -0.023254 -0.00104137 -0.0266586 0.0835529 0.0893114 -0.128144 -0.0201465 -0.0196945 0.00193952 0.116396 -0.00621853 0.059259 0.0207958 0.0543376 -0.0179975 0.0137078 -0.105093 -0.0372579 0.104143 -0.0732186 -0.000354255 0.0233683 0.0248621 -0.153883 0.0868156 0.0799479 -0.00145214 0.06064 -0.0346975 -0.0767384 0.0784023 -0.0660655 -0.0191736 -0.0630196 -0.0524726 0.0459597 -0.0955075 0.0156912 0.00874018 -0.00968778 0.0255461 -0.0118646 0.0897239 0.0293975 0.117938 -0.0274495 0.052311 0.0385129 0.0220275 0.0123259 0.0616633 -0.037457 -0.0932594 -0.000940078 -0.0787585 -0.0100619 -0.00574705 -0.0877814 -0.00197548 0.118144 0.0339794 0.119628 0.0631641 0.0291873 0.0871238 -0.0375495 -0.0434822 -0.00663386 0.0168789 0.116487 0.0421986 -0.0368916 -0.00134003 -0.029023 -0.0339189 -0.00298917 0.0387033 0.061598 0.135912 -0.0888854 -0.0329297 0.0834655 -0.0293321 0.0161895 0.0200978 -0.0644284 -0.00334515 0.0803407 0.0493993 0.0391731 0.00629684 0.118946 -0.033765 0.0712328 -0.0119688 0.0480608 -0.0471997 -0.0400999 -0.0101172 -0.0212102 -0.0246929 0.0616101 0.00229753 0.0101643 0.0283179 0.00126737 0.0370186 -0.108807 -0.0183906 0.0996738 0.0608226 0.108653 -0.0675915 0.0131041 -0.01128 -0.0676236 -0.010789 0.0531983 -0.114114 -0.037225 -0.0207826 -0.0658486 0.0432657 -0.000108185 0.00150988 -0.047103 -0.0146541 -0.116744 -0.0221588 -0.00124696 0.0121703 0.132939 -0.0887876 0.0642766 0.0115447 -0.0835537 0.0764405 0.0926151 -0.0225122 0.0155864 -0.00882381 0.114322 -0.0339751 -0.0596148 0.0486036 0.00140627 0.0326608 -0.031092 -0.0158146 -0.0931206 -0.037058 -0.0516104 -0.0416708 0.0309042 0.00844496 -0.0149076 -0.012341 -0.0220764 0.029402 -0.0451988 -0.107019 0.0243788 0.121972 0.0709922 0.0531261 -0.030753 0.0505803 -0.0258403 -0.0142549 0.0859676 0.0169518 -0.101173 -0.0248859 0.0617767 0.0123942 -0.10785 -0.0272952 0.084672 0.00861724 0.0257116 0.0522639 0.00375365 0.0351583 0.109648 0.0227825 0.0381534 0.0608824 0.0634883 0.0498169 -0.0125818 0.00409305 0.159578 -0.0720613 0.0471946 0.0106597 -0.0181169 0.0218039 -0.0343161 -0.0175207 -0.0383842 -0.0861688
hänen -0.0323989 -0.0813802 -0.070524 0.0489773 0.095684 0.00555707 0.00939619 0.0114307 -0.0957096 0.176125 0.112276 -0.0254839 -0.116437 -0.0214989 -0.0379886 -0.073723 0.00539862 -0.0848382 -0.0462196 0.0933749 -0.0228666 0.0231485 -0.0991719 -0.071318 0.0613741 0.0498085 0.0629224 0.0156392 -0.0277274 0.0162342 -0.0410804 0.0369731 -0.116725 0.0464174 -0.0534138 -0.0104854 0.0389064 -0.0760642 0.046166 0.00943624 0.0520934 0.0144555 0.00656488 -0.0177408 0.0104522 -0.0850933 0.0661553 0.0749921 0.0444948 -0.00800902 0.0934715 -0.0243625 -0.057204 0.0538607 -0.152678 -0.0449726 0.00379528 -0.0478294 0.0302968 0.0346032 -0.0565683 0.0240818 0.0629105 0.0143418 -0.0795719 -0.0615898 -0.0262845 0.0450749 0.0469589 -0.0608345 0.0479707 0.00878591 -0.0132197 -0.155268 0.0170606 -0.0632734 0.107644 0.0838773 -0.0440404 -0.0469688 0.0454642 0.0503935 -0.0179553 0.0318146 -0.0371891 -0.0533232 -0.0514543 0.00235283 -0.0483525 0.0172078 0.11448 -0.0621379 0.0705288 -0.0956584 0.0352741 0.0160256 -3.48482e-05 0.00306109 -0.0634609 -0.0432112 -0.00979993 0.00314753 0.00769182 0.00525843 -0.000187175 -0.0772554 0.00671052 0.00297804 0.00707046 0.0640929 0.0804836 -0.0456386 -0.0353443 0.062944 -0.0361836 0.022635 0.0408597 0.0307184 -0.0101923 -0.0578996 0.0394117 0.0940656 -0.0130682 0.10276 0.065919 -0.0913844 0.0848631 0.0499118 -0.0457617 -0.0680223 0.00897905 0.0450118 0.0921684 -0.113218 -0.0229007 0.0164299 -0.119804 -0.0231155 -0.0318468 -0.0434333 -0.0242367 0.00202956 0.0562662 0.0106274 -0.0234803 0.0647186 0.0569699 -0.0520208 -0.0520145 -0.00482038 -0.00275929 -0.0132405 0.0092279 0.00250905 -0.0813244 0.0748504 -0.130819 -0.0045095 -0.0217901 -0.0616509 -0.0746178 0.0233751 -0.00796038 0.035915 0.0528138 0.0644596 0.00267746 -0.0324176 0.0863788 -0.0276164 0.00648892 -0.0690106 -0.0704255 -0.0182652 -0.000255354 0.0987751 -0.103348 -0.0243777 0.0257972 -0.0862878 -0.00914965 0.0033724 0.01255 0.0437544 -0.0384111 0.0621389 0.0305707 -0.00132478 0.000481615 -0.0817861 0.0315507 -0.0565516 0.035467 0.0175916 -0.0569483 0.0187826 -0.148252 0.0118223 -0.0565786 0.00701558 0.0507956 0.00709108 -0.0189848 -0.00582119 0.0859402 -0.0288407 0.0485534 -0.00637353 0.0238164 -0.0528645 0.110735 0.00780527 -0.0291546 -0.115141 -0.04788 -0.0160517 -0.0186746 -0.0892815 0.0541053 -0.00796467 -0.112338 -0.0895849 -0.0468758 0.0868645 0.0129198 0.0617954 -0.0727676 -0.131857 -0.0190249 -0.0155685 0.0449695 0.046149 -0.049143 -0.0648606 0.0684653 0.0667789 0.0583877 -0.0478553 -0.0238629 -0.0127385 0.0611759 -0.0350467 0.0155129 0.199412 -0.0322261 -0.0461748 -0.021253 -0.0366041 0.0155354 0.0340677 0.00519278 -0.00775986 0.0428235 0.0117707 -0.113494 0.0367596 -0.00471186 0.0104206 0.043439 -0.0713101 -0.00528872 0.0605328 0.0524982 -0.00970519 0.0176983 -0.0447907 -0.0114969 0.0391108 0.0485631 -0.0387589 -0.0321297 0.00490043 0.0564967 0.119925 -0.0851693 -0.107864 -0.00920857 -0.0099186 -0.002062 0.0651663 0.0116213 0.0573241 -0.00901811 0.0974604 -0.02267 0.00567567 -0.0557229 0.080522 0.0522457 -0.0435128 0.0283958 -0.041874 -0.0453575 0.0299786 0.0712666 0.00040794 0.0225486 0.130296 -0.0086848 0.074166
