999 300
de 0.0112826 -0.0671803 -0.00981728 0.0294519 0.000214481 0.00246093 -0.0041006 -0.0680936 0.0181481 0.0636653 0.153175 -0.0839842 0.10831 -0.0491142 -0.0863641 -0.0252936 -0.0463349 -0.0177916 -0.0141944 0.0671455 -0.0743263 -0.00026428 -0.119757 -0.00380226 -0.0899903 0.00737435 0.0860215 0.0027493 0.0772617 -0.0335144 -0.0287343 0.124651 -0.0855462 0.0922579 0.022885 -0.0410335 0.00129951 -0.0838041 0.0731206 -0.00309161 0.0576818 -0.0631184 -0.060097 0.0565826 0.0297152 -0.0849665 0.00347891 -0.0420404 0.0338751 -0.0108848 0.00897108 0.0613928 0.0261734 0.0240385 -0.0774596 -0.00967332 -0.0481988 0.0694957 -0.0242491 0.0247999 -0.0858575 -0.144792 0.10974 -0.067686 -0.0235472 -0.0885851 -0.104747 0.014018 -0.109704 -0.0388153 -0.0789062 -0.0043426 -0.0264663 -0.0740495 -0.0381357 -0.0468287 0.0676015 0.0556545 0.0184169 0.0274827 0.0138082 0.10323 -0.129362 -0.0522507 -0.0135895 -0.0243786 -0.0048123 0.0598608 0.0337631 -0.0952838 -0.0365026 0.0635903 0.066143 -0.152296 0.00616991 0.00125276 -0.00411868 0.00644327 0.00855733 -3.10041e-05 0.0459427 -0.0437032 0.0508919 -0.0834513 -0.0852562 -0.0320481 -0.0605096 0.0643475 0.0719748 0.0505118 -0.00552893 0.0182213 -0.127666 -0.0529908 0.00207376 0.0256974 0.0301015 0.0739649 0.0931386 0.079815 0.159111 0.00124996 -0.0533906 0.0506108 0.0135983 -0.0059358 0.0612139 0.0796099 0.0590979 0.0420495 -0.015507 0.0461889 -0.01335 0.0137127 0.0254036 0.0298324 -0.119349 0.0600508 0.0361411 0.0565306 -0.0119154 0.0546535 0.0238315 -0.0017243 0.0686681 0.110954 0.0464012 0.0515392 -0.037564 0.0462412 0.0173509 -0.11372 -0.0466487 -0.00574488 -0.0842043 -0.0745145 0.00472527 0.0146411 0.105348 0.0214894 -0.103001 0.121251 -0.0707625 -0.0168155 0.143133 -0.0275236 0.0111813 -0.00861996 0.0209205 -0.0995727 -0.113507 0.0501579 -0.0823312 0.0571243 0.00987622 0.0780674 0.00759771 0.060856 0.0172756 0.000203919 0.0300639 -0.000290721 -0.0345062 0.0211086 -0.0372537 0.0850139 -0.0233816 -0.0247121 0.0100987 -0.00628812 0.00901034 -0.128976 0.101373 0.0449848 -0.0476972 0.0280739 0.0435052 0.00548644 -0.0407198 0.00607765 -0.0200559 -0.0493866 -0.0548143 0.0380163 0.0713368 -0.0287536 -0.0186328 0.0465693 0.032853 0.0401075 0.0776635 0.0241589 0.0662901 -0.0618614 -0.0372497 -0.0246812 0.00894799 -0.109984 0.0157612 0.00833403 0.046492 -0.0560192 -0.0569775 0.0363386 -0.0423757 -0.0285256 -0.0483648 -0.0300164 0.0247378 -0.0293548 0.0372093 0.0452082 -0.0393663 -0.0629473 -0.0340207 0.0105428 -0.0455001 -0.0469981 0.0339448 -0.022193 0.0211406 0.0212142 0.0487659 0.0448334 0.0349881 0.0592408 0.0528185 0.00979846 0.063392 0.00738819 0.0064985 -0.0539702 -0.0411062 -0.0217593 -0.0944857 0.033295 -0.0389706 0.0098181 0.0608419 0.0186545 0.0281497 -0.0277385 0.0291926 0.00773555 -0.0559897 0.0357279 0.00620732 0.0801326 0.0864837 -0.0190868 -0.00949661 0.0107991 -0.0036873 0.0212485 -0.0954814 -0.0796646 0.069931 0.0890966 0.012653 0.0441189 -0.0533279 -0.00370968 0.0821138 0.0937674 0.0753638 0.0149149 -0.0126574 0.043423 -0.0522856 0.00987166 0.00292157 -0.131351 -0.00562856 0.0639164 0.0149503 -0.0554039 -0.00250436 0.0961082 -0.0643627 -0.0699482
</s> -0.0298442 0.00557907 -0.00211211 0.053231 -0.0547812 -0.0240182 -0.0967634 -0.0624292 0.00611361 -0.0377142 -0.00565484 -0.0173431 -0.0935756 -0.0376741 0.0342532 -0.077685 0.0354169 0.0851652 0.046217 0.100969 0.0401112 0.0352362 0.11855 -0.0677471 -0.163863 -0.0898762 0.00323365 -0.118861 -0.0179245 0.010371 -0.0344437 0.138246 -0.102561 0.0116802 -0.000203296 -0.0600971 -0.0491757 0.0411978 0.0606418 -0.123374 0.0367437 -0.0236356 -0.047354 -0.0334959 0.0369574 -0.0288136 0.0489743 -0.0617702 0.0492833 -0.0931681 -0.00721595 -0.0887421 -0.0773266 -0.129539 -0.002362 -0.00459239 0.0554321 -0.00127286 -0.00603171 0.0244883 -0.0294047 0.0487762 0.0879812 -0.0149953 -0.0740616 -0.0443445 0.0230852 -0.00180679 -0.024451 -0.0226512 -0.134361 -0.0591658 0.0947255 0.0459171 -0.00421038 0.0198078 0.0383334 0.0934604 0.0192368 0.0525062 -0.0413086 0.0327715 -0.00989087 -0.0174846 -0.0393281 0.0404709 0.092385 0.0424434 0.0702379 0.00185809 0.061494 0.0959112 0.0185393 -0.0154743 0.0226838 -0.00581535 0.0607339 0.0954341 0.0445578 -0.124408 0.0126466 -0.0671063 0.0360242 -0.107112 0.0828975 -0.0435548 -0.0440735 0.0457661 0.00625957 0.00056563 0.0419417 0.0235181 -0.101436 -0.0211541 -0.0334405 0.0233087 -0.0408267 0.0477613 0.11622 0.017904 0.0844629 0.00709876 -0.0258503 0.0256243 0.00462036 -0.0202653 -0.0729017 0.0337225 -0.0516985 0.0881323 -0.0639381 -0.0332565 -0.00265224 0.0573414 0.0396685 0.0197135 0.00917978 -0.0644072 0.0330921 0.135978 -0.0208036 0.00836084 0.0407629 0.0855793 -0.0271432 -0.0628035 -0.0311206 0.0469813 -0.0255439 0.0298604 -0.0674657 -0.0844919 -0.0636933 -0.020927 0.0514161 -0.0691551 0.108617 -0.0439873 0.00658413 0.0875476 0.00825683 0.120623 0.0255058 -0.0186039 0.00617833 -0.0139583 -0.0220318 -0.0763955 -0.0472566 0.00910993 -0.00869559 -0.023035 -0.0476046 -0.0619549 -0.0567289 -0.015354 -0.0864295 8.00663e-05 -0.0351199 -0.0585203 -0.0126344 -0.0388544 0.0104304 -0.0442237 -0.0299246 0.0649873 -0.0504368 -0.037967 -0.0141894 0.0407119 0.0195741 -0.0924381 0.0193545 -0.00157919 -0.135563 -0.0506996 0.0681313 0.089747 -0.0868283 -0.0050434 -0.00261463 -0.0271957 0.0358788 -0.0074714 0.0124084 0.019595 -0.0445329 -0.0512841 0.121335 -0.0255361 -0.0241146 0.000878608 0.0704967 0.0858316 -0.0111166 0.0073663 0.014003 -0.137847 0.0105088 -0.0294795 0.0754806 0.0132445 -0.0663467 0.0887668 -0.0587761 -0.0344761 0.0237943 -0.0866999 0.0929046 -0.0594205 0.0379529 0.0227725 -0.104241 -0.0855349 -0.0368155 0.00442091 0.0336462 -0.0881132 -0.0461499 -0.0648986 -0.0573209 -0.00598886 0.0694114 -0.0656684 0.0212298 0.0255584 0.00099836 0.078186 -0.0673525 -0.016972 0.015016 0.013664 -0.0228911 0.0109519 0.0437163 0.0952461 0.0229572 -0.0567407 0.0706954 -0.0868661 -0.0476569 -0.0192619 -0.0257051 0.107421 -0.080972 -0.0546867 -0.0219376 -0.0241409 -0.0662669 0.0536936 0.0146302 0.0284446 0.0940293 -0.087611 -0.0895485 -0.0867515 -0.0407734 0.0201332 0.00589186 -0.00498849 -0.0482624 -0.00583357 -0.0407689 -0.0719787 0.0620121 0.00360148 0.0216385 0.00458646 0.0282482 0.018518 -0.00703804 -0.103302 0.028073 0.0427229 -0.112417 -0.0843012 -0.100582 0.0505454 0.0563227 0.00630142
, 0.056718 0.0483239 -0.045997 0.0116163 -0.0436712 -0.00260415 0.0861699 0.0472782 0.0636273 0.163779 0.0765014 -0.0386193 0.0522489 -0.0130921 0.00287849 -0.0462799 -0.00558343 -0.00911794 0.00244149 0.0648163 -0.00893673 0.0513739 -0.0555821 0.0301552 -0.0403546 0.0505225 0.0523427 -0.0404508 -0.0367251 -0.0586602 -0.0730585 0.149809 -0.0440739 0.101508 0.0831581 -0.133282 0.0057597 -0.110889 0.0427308 -0.0597132 0.0820478 0.0545301 -0.030995 0.0440553 0.00612705 -0.0262952 -0.0334407 -0.0179396 0.0725036 -0.0132633 -0.0308839 0.00515775 -0.0672387 -0.0229266 -0.0786416 -0.0616211 -0.0513246 0.0963977 -0.0745373 0.0734661 0.0126489 -0.0908841 -0.0249736 -0.0620953 -0.0402166 0.0129051 -0.0414694 0.0077107 -0.104236 -0.0109916 -0.0045392 -0.0286071 0.0482684 -0.0688883 -0.0890925 -0.0605536 0.110615 0.0130874 0.0376674 0.0197677 -0.00865604 -0.00529972 -0.0576999 0.0417238 0.0599855 -0.0321613 -0.0451448 0.0065566 0.0725649 -0.0471878 0.0118328 -0.0137104 0.0301364 -0.0696658 0.00913935 0.0276599 0.0165304 -0.0464393 0.0722846 -0.0507208 -0.0465582 -0.0952667 0.0353285 0.0163588 -0.0893564 0.0395074 -0.0799568 -0.0436822 0.0205604 -0.0365627 0.0224576 0.00254109 -0.126954 -0.0118806 0.0364358 0.0388566 0.070087 0.04454 -0.044435 0.0331858 0.120547 0.017373 0.02023 0.117663 0.002234 -0.0562611 0.0144663 0.0158347 -0.00962819 0.0260099 0.0281803 0.0573069 0.0113189 -0.00583875 0.0399855 0.0350163 -0.0290259 0.0509634 -0.098949 0.0451473 -0.0376314 0.0879941 0.0956055 -0.053418 0.033445 0.113548 -0.0443051 0.024047 -0.0612196 -0.00646156 0.00922844 -0.118123 0.00924604 0.0537879 -0.0573214 -0.0599051 0.0265022 -0.0196384 0.10148 0.0887427 -0.0140982 0.164016 -0.0761166 0.0815552 0.114397 -0.0417545 -0.0842573 0.0205592 0.0417049 0.0155973 -0.107365 0.058095 -0.0270888 -0.0578282 0.0177071 0.073319 0.0448377 0.0995605 -0.0280807 0.0414281 -0.0446891 -0.0574326 0.0104788 0.010906 0.0149586 0.100328 -0.0449283 -0.0856841 -0.0437566 -0.0407786 -0.0117972 -0.0803712 0.0618244 0.0540275 -0.0345201 0.0401163 0.0350456 0.0744824 -0.114931 -0.0237992 0.0343585 -0.0729896 -0.0219182 0.007546 0.0611054 -0.0905339 -0.0432237 -0.00336601 0.154265 0.0398265 0.103272 0.00186496 0.010489 -0.0409708 -0.0929172 0.0230155 -0.0325836 -0.0915474 -0.118231 -0.0209456 -0.00108621 -0.0421152 -0.0851858 0.024142 0.0593898 0.0014565 -0.0934705 -0.0549042 0.0281585 0.0591033 -0.0152735 0.0712723 0.0139026 -0.0718928 -0.0504398 -0.0323506 0.0103998 -0.00374241 -0.0307886 -0.0807048 -0.060783 0.0538318 -0.000750881 -0.0150357 0.0455738 0.0336425 0.0474048 -0.0405365 -0.0223157 0.0726446 0.0417761 0.0399251 -0.112591 0.0173877 -0.0909619 -0.0405417 -0.0432662 0.0101406 0.0354744 0.0677977 0.000686162 0.0454916 -0.00676501 -0.0515022 -0.0628717 0.0310968 -0.0192876 0.0231664 0.072731 -0.0340476 -0.0378325 0.0356826 0.0745503 -0.0469499 -0.0860375 -0.0104516 0.112771 0.0083371 -0.00438579 0.0311038 0.0379662 0.0448056 0.0252026 0.0533797 0.0506732 -0.0182004 0.115721 -0.0135071 0.0293834 0.0168076 0.00665353 -0.118485 0.0107858 0.0462568 -0.00768675 -0.0825349 -0.0244397 0.0185155 -0.088537 0.032169
. 0.00746738 0.0359589 -0.0668227 -0.0638003 -0.106034 -0.0381125 0.0123112 -0.0634154 0.0559848 0.174827 0.0958853 -0.0808416 0.0726975 0.027804 0.0126955 -0.0590654 -0.0651381 -0.0145971 0.0543476 0.0496953 0.00172395 0.065897 -0.0898147 0.0536188 -0.0756975 -0.0239437 -0.00637775 -0.0880773 0.055774 0.0423557 -0.0631856 0.105312 -0.0643756 0.09558 -0.0171457 -0.0787019 0.022045 -0.0595654 0.105227 -0.0482688 0.0576323 0.00190728 -0.0464471 0.0444557 0.0364338 -0.0457567 -0.0175865 -0.0545608 0.0191349 -0.0088168 0.000138885 -0.031906 0.0164291 -0.00367518 -0.106448 0.0546721 0.0029496 0.0576676 -0.0112538 0.0723764 0.0492798 -0.101936 0.0932775 -0.172727 -0.0339566 0.052966 0.00462583 -0.0584426 -0.113959 -0.0104152 -0.01502 0.010991 0.00785233 -0.0825899 -0.0585839 0.02819 0.0572913 0.0345715 0.0225483 0.00659293 -0.0197949 0.0643081 -0.0533395 0.0222634 -0.022639 -0.0645619 -0.0135666 -0.0378805 0.0414271 -0.0587041 -0.0730412 0.0225693 -0.00146779 -0.0250578 -0.00529461 0.0214031 0.0750773 0.0319297 0.0435343 -0.171476 0.0117802 -0.0437801 -0.0463609 -0.0421068 -0.0686143 0.0415252 -0.0872506 0.0267066 0.0550443 -0.0106944 0.00566837 -0.0105354 -0.0680875 -0.0212709 0.0102003 0.0823821 0.0911908 0.0219699 -0.022911 0.120701 0.0971141 -0.00638212 0.00492424 0.0986695 0.0567364 0.0184711 -0.0318271 -0.0136185 -0.0160936 -0.0345308 0.0454919 0.0649211 0.0188916 0.037278 0.0376496 0.0384691 -0.000883402 -0.0221054 -0.0705729 0.11272 -0.0785638 0.0396282 0.0719671 0.0519426 0.022766 0.00178993 0.0341424 0.02168 -0.0360108 -0.0138026 -0.0300024 -0.0965336 0.0082049 -0.0361305 -0.00577428 -0.0761477 0.0513903 -0.0334977 0.0318154 0.0862274 -0.0210645 0.12743 -0.0392428 0.0624064 0.092328 -0.0160785 0.0455044 -0.0231484 0.0479677 -0.0347389 -0.0422934 -0.0163346 -0.0412785 0.0508367 0.0615271 0.0519928 0.0260252 0.0450738 -0.0494376 0.0020279 -0.0395765 -0.0585396 -0.0278489 -0.0232211 -0.0285199 0.11897 -0.056981 -0.0869802 0.0462791 0.0265321 -0.061719 -0.0604722 0.119938 0.0480452 -0.0501735 -0.00801723 -0.0105048 0.0428751 -0.103648 -0.0588349 -0.00159007 -0.0432132 0.00842705 -0.00400189 0.0280929 -0.0560927 -0.0124423 0.100857 0.0922757 -0.0231 0.0852603 -0.00943833 0.00336727 -0.044507 -0.0190649 -0.00393331 -0.00577207 -0.11316 -0.105774 0.077288 0.0214343 -0.0603902 -0.007856 0.0227182 0.0102781 0.0479346 -0.0293302 -0.0539594 0.0796739 0.0940646 0.0181411 0.0964308 -0.0818541 -0.052312 -0.00511692 0.0449195 -0.0480762 -0.00123126 -0.0490707 -0.116717 -0.0622263 0.0820154 -0.00408837 -0.0258417 0.0443003 0.0641425 0.0554511 -0.000777933 -0.0266439 0.0478066 0.0034285 0.0199334 -0.10915 -0.0283728 -0.0721644 -0.0611515 -0.0257782 0.00955777 -0.0720459 0.041172 -0.00206685 0.0669292 -0.0186028 0.0126711 -0.0404428 0.0539462 -0.0196979 -0.102865 0.0873154 0.0323316 -0.010613 0.0529921 0.131145 -0.0226884 -0.0281365 -0.033275 0.0183092 0.0254498 -0.038635 -0.00841462 0.0207061 0.0714331 -0.0403673 -0.028642 0.072965 -0.0465681 0.0896332 0.0958044 0.0326405 -0.0393176 0.0141869 -0.132324 -0.00126236 0.0544394 -0.0300131 -0.157426 -0.00706538 -0.00636976 -0.0959537 0.0333265
la 0.0290578 -0.0371877 -0.0100636 0.0238376 0.0187113 0.000751986 -0.0193272 -0.0525519 0.0809585 0.0100087 0.0763572 -0.0570769 -0.00427405 -0.0860639 0.00888413 -0.0872011 -0.0629341 -0.0332256 0.0438589 0.122085 -0.0908058 0.0521355 -0.0720814 -0.0532411 -0.0833182 -0.00588468 -0.0156866 -0.00649917 0.0477774 0.0439401 -0.0664511 0.105397 -0.0649558 0.116866 0.0162375 -0.0681262 0.00836596 -0.11037 0.0068533 -0.0176864 0.129833 -0.0325216 -0.06306 0.068837 0.0141367 -0.0100482 0.0373938 -0.0426741 0.0203196 -0.0171579 0.0516472 -0.00408775 -0.00314539 0.00597006 -0.115664 0.029378 -0.021525 0.0191025 0.00336851 -0.0388444 -0.048526 -0.0648789 0.119158 -0.0607384 0.0322967 -0.110984 -0.103291 0.0512771 0.00833329 0.0642771 -0.113933 0.0541939 0.0104422 -0.0883452 -0.0101103 -0.0650584 0.0409775 0.0586114 0.00678329 -0.0508006 -0.000159087 0.0315761 -0.103151 0.00143929 -0.0450276 -0.034844 0.00277389 0.110471 -0.047379 -0.0612059 -0.0126967 0.0849038 0.0935189 -0.0921154 -0.0168719 -0.0637996 0.0488795 -0.0179994 -0.081755 -0.0231563 -0.0472326 -0.0591928 0.0122489 -0.0736964 -0.111346 0.0451661 -0.0692804 0.0618542 0.0500187 -0.000930989 -0.0810465 0.0220529 -0.0730808 -0.0206147 -0.0153985 -0.00877072 -0.0201375 0.108755 0.0949031 0.0398802 0.150238 0.0289008 0.0188778 -0.0139002 0.0525352 0.0275991 0.0154442 0.0596255 0.0360518 0.0017594 -0.0299205 -0.0259511 0.048162 -0.0100644 -0.0441018 0.0441891 -0.0861036 0.132969 0.0315838 0.116022 -0.0113256 0.00408223 -0.0155264 -0.0150372 0.0233952 0.109882 0.0258535 -0.0557111 -0.0133074 0.0597147 0.0311294 -0.0818496 -0.0644818 0.0681778 -0.030647 -0.0584204 0.0264491 -0.0314901 0.101446 -0.0424587 -0.0678678 0.075087 -0.055028 -0.0492631 0.103725 -0.0342693 -0.0597704 0.00140007 0.102954 -0.0236137 -0.0698158 -0.017795 -0.0369539 0.0366825 -0.0362255 0.105765 -0.0267677 0.0721816 -0.0359582 -0.0226917 -0.0288104 0.0198283 0.0190662 0.0334903 -0.00101899 0.0838129 0.0159749 -0.0674627 0.0062427 0.0295358 -0.0939992 -0.05565 0.119252 0.0855534 -0.101917 0.0040443 0.0544419 -0.0470187 -0.0145885 0.0036687 0.0571794 -0.0341144 -0.106537 0.050706 0.0190548 0.0380621 -0.0560323 0.00197307 0.0461074 0.00869136 0.112726 0.0486538 -0.0239701 -0.010957 -0.0288827 -0.0082906 -0.0130508 -0.166165 0.0515696 -0.0223432 -0.0728682 -0.0399206 0.011453 0.0880151 0.00885503 -0.0113839 -0.0491856 1.53482e-05 -0.0222851 -0.044423 0.0619848 0.12658 -0.0252143 -0.0536082 0.0114899 0.102842 0.00697793 -0.109101 0.0792573 0.00821106 -0.0184409 -0.0348225 0.0258601 0.0293586 0.0377961 -0.00106914 0.108895 -0.00244081 0.0365513 0.0230092 0.0201986 -0.0104922 0.00420484 0.025295 -0.111952 0.0390231 -0.0338163 -1.63516e-05 0.0305146 -0.0153001 0.00819163 -0.0780837 0.0606908 -0.0741793 -0.00637811 0.0583836 0.0315896 0.0177698 0.0231281 -0.0785207 -0.0537538 -0.0783456 0.0359191 0.0905737 -0.0657812 -0.0713433 0.0591482 0.0751633 0.0463691 0.0420915 -0.0453437 -0.0182548 -0.00781608 0.0559563 0.0301324 -0.00735466 0.0220957 0.0528162 -0.0597827 -0.00197592 -0.0687768 -0.0478974 0.040521 0.0724457 -0.0214109 -0.09953 -0.0351098 0.0713416 -0.0793507 -0.0581184
en 0.0593703 -0.00823614 0.0125724 0.0104206 -0.106029 0.0331596 0.0392384 -0.0725999 0.0418946 0.011232 0.118884 0.0477529 0.0999194 -0.0457685 -0.0429797 -0.030374 -0.0302159 -0.0499049 0.0321392 0.072044 -0.0314767 0.0465233 -0.0885024 0.00239733 -0.0950015 -0.0839402 0.0348846 -0.030144 0.0687039 0.035369 -0.0765971 0.0260387 -0.0466535 0.0815324 0.0119116 -0.0922773 -0.0561304 0.0520656 0.0433121 -0.0337296 0.0807516 -0.0245031 -0.0629561 0.0256891 0.0334454 -0.0306222 -0.0317929 -0.0279233 0.0173655 0.0219516 -0.0387564 -0.0350658 -0.0264751 0.0312516 -0.0949532 0.00531793 0.00547126 0.140046 -0.0288941 0.0486202 0.03161 -0.0537357 0.119796 -0.104224 -0.0148216 -0.0385903 -0.0458301 0.0398419 -0.0544116 0.0528281 -0.0371492 -0.0416987 -0.0305256 -0.0715566 -0.0101811 -0.00985939 0.0958943 0.0580387 -0.0622956 -0.0798401 -0.0675864 0.034365 -0.00998982 0.032138 -0.0734427 -0.0960905 -0.0213422 -0.00565326 -0.0609756 -0.0656718 -0.0556507 -0.00163566 0.132416 -0.117633 0.0488639 -0.0185981 0.0116791 0.0790807 -0.0386718 -0.0431223 -0.0277305 -0.0769208 0.102612 0.0270612 -0.0948461 0.0256878 -0.0435042 0.0798789 -0.000878595 0.0583333 0.0302717 0.0403076 -0.094249 -0.111875 -0.0197074 -0.0143211 0.0676037 0.0211212 0.0647414 0.0539242 0.160103 -0.00992821 -0.116975 0.102688 0.00422544 -0.0876037 0.0713194 0.00837858 0.0173126 0.0128038 -0.0211256 -0.0177963 0.00206081 -0.0512115 -0.115467 0.0417123 -0.0616765 0.0409972 0.0363565 0.0373364 -0.0264921 -0.000413151 0.0280382 -0.0108209 0.0681437 0.0441157 0.0740287 -0.0118755 0.00499462 0.0444295 0.00682108 -0.0788854 -0.065873 0.0217203 -0.0650937 -0.0700934 0.0688244 -0.036577 0.0292733 -0.0115578 -0.115738 0.166322 -0.110888 0.0722851 0.117418 0.0317706 -0.0527339 -0.0466545 0.0551681 -0.0628608 -0.0676695 0.0146766 -0.0542282 -0.0442398 -0.0355522 0.0468148 0.0364113 0.0978591 -0.0260077 -0.00768734 0.0110006 -0.000733826 0.018067 0.0245586 -0.057576 0.0816615 0.00327911 0.0378793 -0.0339295 -0.0549992 -0.01185 -0.041882 0.0258741 0.0636598 -0.0329093 -0.0551456 0.0479695 0.0201635 -0.066554 -0.179167 0.0392647 0.0465685 0.00277729 0.116757 0.00996997 -0.0410601 -0.0534282 0.0996497 0.0599499 0.0691056 0.0797024 -0.0342076 0.0380957 -0.016589 0.0234134 -0.0137438 -0.0277555 -0.0557454 -0.108323 -0.00353732 0.0250567 -0.0428714 -0.0450561 0.0470258 -0.0548192 0.0373012 -0.116715 -0.0315441 0.0270062 0.0178295 0.0638043 0.0381724 -0.0603035 0.0146881 0.00327101 -0.0241275 0.0346776 0.00179342 -0.00150441 -0.00956516 -0.027792 -0.00389625 0.075128 0.0472732 0.0797865 0.0471279 0.0323393 0.0169546 -0.000248567 0.0826828 0.0369235 0.0160436 0.0123256 -0.0299948 -0.166883 -0.0269289 -0.122087 -0.0195556 0.0265346 0.0688055 0.0838076 0.0313109 0.0201557 -0.0170589 0.00144787 -0.0247592 -0.0215433 -0.0343564 -7.20099e-05 0.0225618 -0.0410453 0.0560966 0.0173715 0.00244119 -0.0735663 -0.105415 0.0741295 0.0305693 0.00343922 0.0251228 0.00318108 0.0366205 0.00914709 0.00651331 0.0648089 0.0143353 -0.0235723 0.054933 -0.087014 -0.0133022 0.0130418 -0.162589 0.0241024 0.0534708 0.0109282 0.017632 -0.00834898 0.0216667 -0.0819967 0.043098
el -0.0675644 0.0040941 -0.0185521 0.0383705 -0.0408803 -0.0391954 -0.00786786 -0.0246449 0.0198113 0.0133762 0.0112635 0.0225916 0.128683 0.01028 -0.105102 -0.00261667 0.0393213 -0.0549231 0.00829446 0.170792 -0.00926164 0.0110431 -0.0836951 -0.0447773 -0.051451 -0.0941132 0.00265303 -0.0102366 0.00968417 0.0546508 -0.0716362 0.0222185 -0.103749 0.0582986 0.0696487 -0.0861066 -0.0678865 -0.0631383 0.117256 -0.0324724 0.0838852 0.0145212 0.014361 -0.00521977 -0.000170821 -0.074533 -0.0594734 -0.0347074 -0.00608056 -0.0415728 -0.0203445 -0.0114605 0.024684 -0.0555878 0.00712082 0.0234003 0.0216857 0.106873 0.0422591 0.0221508 -0.0207454 -0.015575 0.049001 -0.0403536 0.0200425 -0.0426885 -0.0417728 -0.0274032 -0.0628531 -0.0586878 -0.0992061 -0.0924712 0.0174995 -0.0529556 -0.0312147 -0.0169774 0.0142736 0.0810453 0.0820736 -0.0398796 0.0103033 0.0427654 -0.0343752 0.00325175 -0.0261555 0.0214076 -0.102946 0.105214 -0.0181198 -0.0205004 -0.00411767 -0.0459983 0.168366 -0.0736454 -0.0130596 0.00930667 0.039474 0.0634765 -0.00745459 0.0466706 -0.0376172 -0.0274315 0.0320617 -0.0758274 -0.103943 -0.00350274 -0.0204263 0.00316619 0.0568962 0.0332467 0.0583986 0.00494443 -0.135302 -0.0461837 0.0296805 -0.0214996 0.151795 0.0202349 0.0680314 0.0753829 0.140423 0.0117518 -0.10399 0.115621 -0.0352422 0.00804816 0.0992658 0.0590147 0.0285992 -0.00305568 -0.0464485 0.0203283 -0.00794535 0.011549 -0.0528846 0.0222638 0.0339819 -0.0416114 -0.104108 -0.0151256 -0.0141019 0.062509 0.149057 -0.0114976 -0.0118819 0.115502 0.0810977 -0.0101007 0.0196832 0.0348731 0.0425444 -0.00603415 -0.0302482 0.0854816 -0.0117847 -0.0694023 0.0534948 -0.0592949 0.052096 0.0297782 -0.0246984 0.0872751 -0.0537031 0.098425 0.11802 -0.0340192 0.022627 0.0195238 0.0510172 -0.0539866 -0.0759611 0.0139097 -0.0373264 -0.0492711 -0.0433775 -0.0185628 0.0497825 0.0430124 -0.0285897 -0.0497062 -0.0245231 0.0323423 -0.0770627 0.042378 -0.0424151 0.140579 0.00528575 -0.076314 -0.0641423 -0.0715299 0.0235857 -0.0948392 0.024329 0.12944 0.00923246 -0.00811338 -0.0260461 0.111114 -0.0711747 -0.0751825 0.0401845 0.00896134 0.00444044 0.0288277 -0.0296663 -0.0807904 -0.0474287 -0.00923069 0.0746157 0.0716624 0.129735 -0.0140984 0.109324 -0.00552953 -0.0017707 -0.0816523 0.0352575 -0.0669622 -0.076253 -0.00240388 0.0983587 -0.11041 0.00154004 0.0624107 -0.00815631 0.0408912 -0.0780497 0.00338719 0.0351471 -0.0568352 0.0641185 0.00592207 -0.0280267 0.0456053 -0.00521653 -0.0117814 -0.00453507 -0.00488414 -0.00225831 -0.00918593 -0.0555415 -0.014418 -0.0236046 -0.0450297 0.0872634 0.0649921 0.0238941 -0.00759335 0.064496 0.0501559 0.0352963 0.0867583 -0.0248908 -0.0347146 -0.0957046 0.0353395 -0.0810492 -0.0557041 -0.00167451 -0.0228417 0.0181661 0.0799385 0.00694632 -0.094136 -0.0365114 -0.0487631 -0.0688814 0.0265906 0.00692468 -0.0573931 -0.137801 -0.037596 0.0348336 0.00352845 -0.0508211 0.0155447 0.0639374 0.0289213 0.050999 -0.0635099 0.0613752 0.014437 0.0266232 0.0323762 0.0608618 -0.0578254 0.0589898 0.0827603 -0.0376998 -0.0341335 0.0364115 -0.0646187 -0.031288 0.0602654 0.0387781 -0.0021592 -0.016691 0.114014 -0.0462624 -0.00506433
y 0.00172683 0.0467167 -0.0543203 0.0595875 -0.0566068 0.0223836 0.0507448 0.0255245 0.126772 0.106475 0.0678858 -0.0744506 0.0441606 -0.0458201 -0.0108641 0.00248181 -0.00275894 -0.0596435 -0.0197418 0.0340541 -0.0142585 -0.00968671 -0.053102 -0.0496656 -0.0504219 0.0164192 0.0857522 -0.0745537 0.0561234 0.00376456 -0.0761745 0.122418 -0.0495499 0.121483 0.0676158 -0.0556961 -0.000564779 -0.0595557 0.080172 -0.0993222 0.0457947 -0.00395399 -0.0654121 0.00943459 0.02314 0.0154478 -0.0203013 -0.0633562 0.0322186 -0.0198596 0.0171446 0.0255239 -0.107357 -0.0224892 -0.0766141 -0.0169123 0.00391445 0.0653646 -0.107899 0.0871805 -0.0191098 -0.136411 0.0372907 -0.0325151 0.0417809 0.0312858 -0.0677322 -0.0190738 -0.0991011 -0.00864124 -0.0924817 -0.0326638 -0.0293627 -0.0926335 -0.0531943 -0.0967985 0.100791 0.0826452 0.0399521 -0.0445901 -0.0310706 0.0408622 -0.0726993 0.00101365 -0.0367698 -0.0128451 -0.0433633 0.0722492 0.0598069 -0.0308803 0.0257444 -0.0225655 0.0510636 -0.114247 0.012522 0.0714863 0.0349047 0.0198258 0.0162936 -0.0419392 0.0144436 -0.079801 0.107426 -0.029499 -0.0846071 -0.0255942 -0.055638 -0.000361017 -0.0121625 -0.0292451 0.0286366 0.0168039 -0.110971 -0.0606911 -0.0250476 0.0218788 0.0494452 0.0449176 -0.0299938 0.0716486 0.0980655 0.0206164 -0.00648939 0.142393 0.0131768 0.0366405 0.0860348 0.0311442 0.0174735 0.0651018 0.107833 0.0498476 -0.0581344 -0.0139901 0.049155 0.0603339 -0.0205224 0.084592 -0.0595651 0.0566015 -0.0519616 0.112607 0.0325117 -0.0615162 0.109877 0.10342 -0.0552064 -0.0339963 -0.00869386 0.0124443 0.0272701 -0.0872845 -0.0396317 0.0474661 -0.0462613 -0.0505247 -0.0594664 0.00491263 0.109799 0.0231026 -0.0111932 0.076038 -0.0420705 0.106942 0.129548 -0.0873287 0.0212109 -0.0428269 0.0970033 -0.0576271 -0.0378131 0.0475752 0.0173795 -0.00470522 -0.0210793 0.0614343 0.0800316 0.106712 -0.025002 -0.0471898 0.0564943 -0.10615 0.0032406 0.0338243 0.0149823 0.136691 0.000980886 -0.0976895 0.0622845 -0.0490685 -0.0139349 -0.0285229 0.0584106 0.0417294 -0.00582659 0.0503326 -0.0226377 0.0640525 -0.083203 -0.0199262 0.0787546 -0.101946 -0.0110837 0.0349492 0.00198282 -0.0352917 -0.086095 -0.020543 0.113528 0.0133433 0.0981874 0.000334503 0.033248 -0.0616933 -0.017008 0.00382966 -0.0220187 -0.152866 -0.0531377 -0.012374 -0.0130999 -0.103336 -0.017717 0.0199768 -0.0105854 0.00837396 -0.0829077 -0.0634469 0.0616746 0.0707397 0.0346803 0.0663338 -0.0523185 -0.0957604 -0.0782568 0.0653867 0.0170821 -0.00820826 0.00444793 0.0100975 0.0192325 -0.00564054 0.0207489 -0.0447318 0.0782647 0.0312818 0.0392374 -0.0457159 -0.00194437 0.0371991 -0.0114332 0.00053552 -0.0791993 -0.0285001 -0.0709748 -0.0488981 0.0270425 -0.0213458 0.00810683 0.0668602 -0.0264015 0.0383047 -0.00205679 -0.0197941 -0.035353 -0.0192435 -0.003007 0.0652719 0.0669366 0.00561999 -0.0283886 -0.00271127 0.0415612 0.0291423 -0.0614731 -0.0226038 -0.0030778 0.127466 -0.0110655 0.0214128 0.0871796 0.0287086 0.0890645 0.0838803 0.0489782 0.0270385 0.040845 0.0141638 -0.0372664 0.041792 0.0840003 -0.0541354 0.101925 0.0646035 0.00785695 -0.0309435 0.000282859 0.0315602 -0.0136776 -0.00925541
- -0.104511 -0.0379512 0.0275529 -0.0123946 -0.00256189 0.0225129 0.0228611 -0.0251339 -0.017656 -0.0281803 0.00937598 -0.0603433 0.00376751 0.00501812 -0.0168588 -0.0722176 -0.054238 0.0745482 0.0156777 0.101656 -0.00773008 -0.0101595 -0.0702691 -0.091571 -0.0774126 -0.0301212 0.0821501 -0.185585 0.0419464 0.0200969 -0.00258562 0.0701983 0.0102208 0.0531996 0.0521381 -0.0432155 -0.0740812 -0.0694893 -0.0126081 -0.0573103 0.112605 0.0101045 0.0481054 0.0864723 0.0453848 0.0370164 -0.0324085 -0.0273855 -0.02715 0.00502395 -0.0259428 -0.1113 -0.031404 -0.0347815 -0.0052799 -0.0458272 -0.020203 0.0213369 -0.0649251 0.030267 0.00836999 0.0325876 0.0138386 -0.086891 -0.0492258 0.0500813 0.0350586 0.0371662 -0.16118 -0.0565904 0.0154587 -0.00495887 -0.0301948 -0.0865148 -0.0320836 -0.0442155 0.0895018 -0.00445193 -0.0478391 0.148567 -0.0495997 0.0224524 -0.0647762 0.0112982 0.0454517 -0.063912 0.0950172 -0.0692259 0.0397719 -0.026985 -0.0082414 0.066526 -0.0860107 0.00427971 -0.0308231 -0.0255002 0.0276502 -0.0618772 0.0218481 0.0270567 0.111527 -0.016042 0.0487479 -0.0580086 0.0769583 0.0445099 -0.0506496 -0.0135355 -0.00458661 -0.0334307 0.0952499 0.0831864 -0.080435 -0.0185972 -0.00595299 -0.105767 0.0587245 -0.0231703 -0.060307 0.0449469 0.0509894 -0.0888122 0.0251482 0.0446243 -0.0089036 -0.00955944 -0.00839813 -0.0275391 -0.0657064 -0.068523 -0.0628418 0.0480965 0.0709378 0.00875898 -0.0125079 -0.00728762 0.0288029 -0.00995483 0.000565631 0.130439 -0.0298798 -0.00522223 0.126742 0.145151 0.0751631 0.0993872 0.0733813 0.0296243 -0.0321437 0.0522753 0.0253414 -0.0608736 -0.0395587 -0.0617666 0.0237536 0.0261617 0.00361967 -0.127862 0.0846097 0.0518492 -0.000651707 0.0142505 0.0169864 0.0389774 0.0779164 -0.0438947 -0.0064454 0.05701 -0.0139877 -0.0524949 -0.0862871 0.104607 -0.00247656 0.0969801 0.0567001 0.0893799 0.0522809 0.05491 0.0172816 -0.0812036 -0.0441523 0.00281806 -0.115481 0.00358244 0.0116053 0.158267 -0.074795 -0.0894704 0.0087874 -0.00665915 0.0171388 -0.0714924 0.0548275 0.0114923 -0.0161108 -0.0607766 0.0293917 -0.012887 -0.0258196 -0.0732457 0.0437074 -0.024336 -0.0477596 -0.0177107 0.0416553 -0.0200193 -0.0203979 -0.0423358 0.120464 0.0364529 0.0785983 -0.00997555 0.0102676 0.00240781 -0.0407917 -0.0254465 0.0167245 -0.0197363 -0.153429 0.058968 -0.0519453 0.086755 -0.12799 -0.0200805 -0.0620146 -0.0223499 -0.041157 0.0561931 0.0955608 0.0514312 0.0418697 0.0969723 -0.0172949 -0.107272 -0.0607805 0.0233815 0.010868 0.00836935 -0.0564308 0.00287431 -0.0555156 -0.0189301 -0.0258371 -0.0267016 0.0935278 -0.035349 0.0532138 0.0862569 -0.044232 -0.0221505 0.016823 0.0330806 -0.070824 0.0843358 -0.0062713 -0.0310975 0.0075878 -3.60516e-05 0.0194573 0.0402174 -0.0311493 0.0821161 -0.0110639 0.00378572 -0.131499 0.0275279 -0.0498181 -0.0478346 0.110182 -0.0267397 -0.0683194 0.044115 0.0902199 -0.0490841 -0.0368714 -0.0228181 0.10602 0.0224712 0.0381127 -0.0224828 -0.0153469 0.0681099 -0.0556586 0.0267401 0.034175 0.0906426 0.0976816 -0.0122449 -0.0366555 0.0526725 -0.0190596 -0.0676853 0.029046 0.0136665 -0.0551124 -0.0378515 -0.00874178 -0.0208738 0.042522 -0.0304265
) -0.0554763 -0.0236053 -0.0186457 -0.0534599 -0.0195199 -0.0589143 0.0465603 0.0209849 0.0480188 0.0779315 0.0709112 -0.109338 0.128001 -0.0080794 -0.0561212 -0.000392048 0.00225602 -0.0386789 -0.0699778 0.0718812 -0.00175362 0.0467626 -0.0797575 -0.0124335 -0.0534222 -0.0120267 0.025958 -0.128346 -0.00503693 -0.0208854 -0.0745316 0.146879 -0.0803297 0.047674 0.0672016 -0.0716534 0.0211414 -0.101554 0.0601993 -0.0314399 0.101691 0.027763 -0.0414856 0.0599836 0.0739621 -0.0424242 -0.0889962 -0.108173 -0.0147107 0.0282294 -0.00258959 -0.0853374 -0.0250061 -0.0936098 -0.0425208 -0.0920016 0.00871387 0.0406788 -0.0746918 0.0768401 0.0283159 0.00361537 0.0517235 -0.053129 0.00613288 0.00773983 0.00175433 -0.041157 -0.113159 0.0392537 0.00693534 -0.0232675 0.0159285 -0.0151755 0.0124064 -0.0671649 0.0961444 0.0930053 -0.00112999 0.168507 0.0284117 0.0438353 -0.0428232 0.0601453 0.0288376 -0.0604047 0.0745008 0.0293834 0.0136046 -0.0233557 0.0401864 0.0167564 -0.0387096 0.0217617 -0.0344202 -0.043318 -0.0288132 -0.000516641 0.0225818 -0.0600449 0.044409 0.00740873 -0.0187217 -0.029058 0.0394903 -0.0264782 -0.0728514 0.00946987 0.0714806 -0.0618296 0.033173 0.00461506 -0.0433036 -0.0641635 -0.018333 0.0107413 0.0233108 0.0455937 -0.0160432 0.00669433 0.140864 -0.0349726 -0.0503739 0.122403 -0.0386955 0.0213365 0.00816686 0.021928 0.0308942 -0.0615867 0.0532124 0.0717689 0.0482922 0.0649284 0.0574781 -0.0367028 -0.00639232 -0.097314 0.0375749 0.0827139 0.0329386 -0.000411614 0.101965 0.0978334 0.0364628 0.121752 -0.0192362 -0.0125855 -0.0298959 0.0184193 -0.0526895 -0.059389 -0.0629555 -0.016252 0.0156023 -0.0117905 0.0672147 0.0166918 0.128125 0.0181834 0.0500215 0.0627471 -0.0675757 0.0494664 0.0192254 -0.0544654 -0.00173779 0.0806518 -0.00272597 0.0289811 -0.0684779 0.0636092 -0.0168456 0.0313518 -0.003964 0.0229067 0.0714746 0.0171069 -0.0317381 -0.00212724 -0.0243344 -0.0263 0.0515101 0.0878111 -0.0201943 0.0895259 -0.0218602 0.0210324 0.0608812 0.0257316 0.0354133 -0.112178 0.096437 0.0615377 -0.0538145 -0.142462 0.0364302 0.0302088 -0.15175 -0.0433864 0.00942658 -0.0728664 -0.0568548 0.0708699 -0.0104331 0.0180121 -0.0889218 0.0333697 0.136644 -0.0155556 0.121612 -0.0162844 0.0524864 -0.0147462 -0.0422193 -0.0458653 0.0557498 -0.0876823 -0.201349 -0.0609912 -0.0378689 0.0308237 -0.028156 0.00341818 -0.0385382 -0.0675275 -0.040197 -0.0144158 0.0702208 0.0246426 -0.0789244 0.0918819 -0.0202945 -0.112183 -0.0656722 0.000240602 -0.0118813 -0.0378403 -0.0757893 -0.0438761 -0.083846 0.112565 -0.0116738 0.00712099 0.0159534 0.0775605 0.0457904 0.0027332 0.0282794 0.0184288 0.0722989 -0.0795943 -0.0798077 0.0434424 0.0058141 -0.068555 -0.0077182 0.0735575 0.046273 -0.0115274 0.0641642 0.0109578 0.0741055 -0.0145527 -0.0574562 0.0453179 -0.0158378 -0.0237 0.000432578 -0.0144963 -0.0459723 0.00317222 -0.0116476 -0.0168436 0.032387 0.0215458 0.112583 0.0384947 -0.0350183 -0.0246608 -0.0179483 0.0630748 -0.0183131 -0.022917 0.0704002 -0.0158793 0.0721186 -0.00878026 0.0556437 0.0318242 -0.00928079 -0.109239 0.030332 0.0629558 -0.0323405 -0.0323983 -0.0315229 -0.0601541 0.00891776 0.0526534
a 0.00975112 0.119637 -0.0942776 -0.0464149 -0.0405434 0.0475084 0.0341872 0.0266829 -0.0355644 0.148003 0.0681747 -0.0877465 -0.0283309 -0.056195 0.0114812 0.0438521 -0.0808381 0.00349589 -0.0155833 0.0698691 -0.00705903 0.0350561 -0.0915204 -0.00819792 0.00479954 -0.0177702 -0.00994384 -0.108691 0.008076 -0.0209999 0.00426352 0.0702555 -0.0877146 0.0910797 -0.0147118 -0.11022 0.0349289 -0.0851626 0.00283883 0.0750625 0.0730617 -0.0312385 -0.0256113 -0.0315099 0.0347672 0.0652587 0.0988442 0.0823979 0.0689653 -0.158082 -0.00817641 -0.0464158 0.0574543 -0.0144348 -0.0958095 0.02447 0.0374128 -0.0076234 -0.0600084 0.023464 0.01985 -0.0847562 0.0872168 0.00823615 0.0127491 0.0181383 -0.126212 -0.0121579 -0.0223335 0.00148263 -0.0563427 0.0144894 0.0832793 -0.177106 -0.0517708 -0.0542267 0.123522 0.0595698 0.00219836 0.0156276 0.0353615 0.0186483 -0.0429712 -0.00473874 -0.034195 0.028294 0.046897 0.0644226 0.106598 -0.000265707 -0.00815025 0.00438235 0.109577 -0.0406536 -0.0719481 0.0736738 0.0275263 -0.0491297 0.00337114 -0.107607 -0.0425055 0.0382756 0.0650691 -0.00754835 -0.078798 0.00483923 -0.0186827 0.0460076 0.0578245 0.0159246 -0.0178582 -0.0492316 0.00614735 -0.0202196 -0.00607911 -0.007078 0.0671585 0.0297627 -0.0805695 -0.0156748 -0.00812021 0.0745784 0.0481133 0.06913 0.0675901 -0.085362 0.0251587 0.0119791 0.0171626 0.0727988 -0.0318013 -0.0016124 -0.0352005 0.0177587 0.0282304 0.116075 -0.032585 -0.0285519 -0.0775812 0.0595998 -0.0182417 0.0426937 0.00515793 -0.00357626 0.0414304 0.0729902 0.0148321 -0.0238366 0.0554372 0.0469339 0.0147837 -0.0850903 -0.00783743 -0.0524577 -0.0337407 -0.114862 -0.0686778 -0.0705654 0.0488455 -0.0265024 -0.0491378 0.0351447 0.00272222 0.00390732 0.118423 -0.0300674 -0.0802817 -0.0535262 0.0989052 0.0356557 -0.170423 0.052 -0.0317037 0.0409809 0.0316994 0.123209 -0.0334113 0.018638 -0.0682869 -0.103262 0.0487244 -0.0872005 0.0222187 0.0167851 -0.0115659 0.0435872 -0.0102539 -0.0080929 0.123839 0.0290373 -0.106611 -0.0402306 0.130107 0.049695 -0.0533811 0.0382213 -0.0161471 -0.0145961 -0.134773 0.00497049 -0.0465312 -0.134493 -0.0337239 0.0264446 0.0396196 -0.0369539 -0.030764 0.0156583 0.0837196 0.0425554 0.0781432 -0.0137224 -0.126679 0.0223628 0.000734047 -0.0578896 -0.0650061 -0.0938807 0.0639242 0.098554 -0.103743 0.0103537 -0.0303705 0.0311502 0.033287 0.0248492 -0.0539245 -0.0914327 -0.0064936 -0.0358289 0.0876889 0.0103675 -0.036118 -0.00805633 0.00622018 0.0584753 -0.00209006 0.0444164 0.0114529 -0.000769249 -0.000219319 0.0145257 0.0398693 0.0228918 0.0262819 0.00346863 0.0301739 -0.0421571 0.00913725 0.029883 0.0490262 0.0254422 -0.137204 0.0251723 -0.0342355 -0.12476 -0.0847641 -0.00615219 -0.0313119 0.00693453 0.0421954 -0.0459513 -0.0218726 0.0107243 -0.0536707 0.00755717 0.0235506 0.0299614 0.0114588 0.0290584 -0.0248488 -0.0276563 0.0396026 0.0581892 -0.088952 0.0239154 0.0350618 -0.0199812 0.0510433 -0.0699488 -0.0057464 -0.0381105 -0.0695138 -0.00149769 0.0505493 -0.0167692 0.050989 0.0461348 -0.000640267 0.00910974 -0.0185248 -0.0104393 0.0772929 0.044558 0.105982 -0.105275 -0.0124132 0.00745753 -0.020058 0.0512259
( -0.0278752 -0.0205902 -0.0419664 -0.0529697 -0.0062768 -0.0615589 0.0450855 0.0277408 0.0661499 0.0608958 0.0754022 -0.0986419 0.127137 0.0167981 -0.0549109 0.0157981 -0.00926037 -0.0172199 -0.0902941 0.0742059 -0.0132315 0.0565117 -0.0610129 0.00937312 -0.0491565 -0.00788961 0.0362955 -0.13562 -0.00320721 -0.0267673 -0.071064 0.152842 -0.100517 0.0489756 0.0586871 -0.0642134 0.013144 -0.089353 0.0674576 -0.0238539 0.0946873 0.0237954 -0.0372976 0.0443954 0.080571 -0.0323208 -0.0797015 -0.098947 0.000980425 0.0183739 0.000490493 -0.0925781 -0.0153356 -0.0989616 -0.0429233 -0.0801584 0.00111011 0.0347006 -0.0737993 0.0738243 0.0365 0.00542304 0.0487546 -0.0501669 -0.0119702 0.0147166 0.00519194 -0.0487516 -0.111806 0.0420267 -0.00136553 -0.00291483 0.0059478 -0.00439893 0.00769349 -0.0738989 0.0802998 0.0917822 -0.00893636 0.161222 0.0250155 0.044404 -0.053188 0.0593843 0.0347308 -0.0715044 0.0652783 0.0438688 0.027474 -0.0327621 0.0210673 0.0306756 -0.0382036 0.0123448 -0.0391147 -0.0445956 -0.045852 -0.0118052 0.0316647 -0.0512063 0.0513517 0.00612218 -0.0238317 -0.0234246 0.0265791 -0.023503 -0.0569192 0.0195083 0.0574971 -0.0628979 0.0287016 -0.0143159 -0.036225 -0.0673385 -0.0040204 -0.00211127 0.0125855 0.0514874 -0.0340929 0.012153 0.137907 -0.0295203 -0.0464828 0.122514 -0.0470026 0.0310816 0.0188482 0.0304465 0.0448493 -0.0597003 0.0405532 0.0771509 0.0467525 0.0698135 0.0614933 -0.0319997 -0.00860573 -0.0839372 0.0525134 0.0769581 0.0286345 0.00321927 0.085122 0.0900734 0.0360296 0.120401 -0.0216259 -0.00277137 -0.0211876 0.00508172 -0.0633418 -0.0518329 -0.0674055 -0.0085463 0.0139823 -0.0125111 0.0580452 0.0111247 0.129526 0.0147344 0.0557651 0.065823 -0.069849 0.0367652 0.0151673 -0.0619986 -0.0138441 0.0767334 0.0042779 0.041718 -0.0932467 0.0567289 -0.0174064 0.0247792 -0.00475205 0.0258109 0.0704773 0.0017232 -0.0286872 -0.0063693 -0.0258435 -0.0503254 0.0455471 0.0948946 -0.0192099 0.100963 -0.0154854 0.00255449 0.0484308 0.0435085 0.0387919 -0.110844 0.082377 0.070624 -0.0579434 -0.137574 0.0441212 0.0348213 -0.152876 -0.047723 0.00307209 -0.068729 -0.0571765 0.0643534 -0.0108397 0.0154261 -0.0691909 0.0291783 0.128164 -0.0270339 0.113256 -0.0278893 0.0609076 -0.0226252 -0.0418452 -0.0539542 0.0485851 -0.0711574 -0.191221 -0.0723596 -0.0333464 0.0419272 -0.038524 0.00826529 -0.0383198 -0.0572859 -0.0458701 -0.0199554 0.0694129 0.0410322 -0.0706202 0.0902127 -0.0223667 -0.141082 -0.0779742 0.0146466 -0.00308552 -0.0281675 -0.0753324 -0.036483 -0.0908381 0.105894 -0.023433 0.010126 0.0221724 0.0752723 0.0492048 0.00905182 0.0278483 0.0270931 0.0925245 -0.063828 -0.0771296 0.0648195 0.00934758 -0.0734529 -0.0283718 0.0561304 0.0459242 -0.0207205 0.085555 -0.0123317 0.0793246 -0.0133327 -0.0665304 0.0582735 -0.019313 -0.0255053 0.000973828 -0.00389821 -0.0422366 -0.0198024 0.00323207 -0.00513045 0.032734 0.019461 0.127978 0.035392 -0.0162059 -0.00439658 -0.0225499 0.0598201 -0.00886577 -0.000156312 0.0759248 -0.0174217 0.0678141 -0.0054074 0.0465983 0.0371803 -0.0173309 -0.128946 0.0186759 0.0768172 -0.0124781 -0.0288409 -0.0268033 -0.0559168 0.022535 0.0513761
que -0.0779861 0.0562002 -0.0971401 0.0958111 -0.0289896 0.0145427 0.0170061 -0.0586086 0.0283498 0.106415 -0.0553694 -0.00194813 -0.0115082 -0.0292685 0.0039378 -0.037342 0.00456125 -0.041789 0.0560937 0.0469255 -0.00913729 0.0503681 -0.0813857 -0.0864576 -0.0207285 0.0379294 0.0453725 0.00633542 -0.0187458 0.00327134 0.0323657 0.00815668 -0.0949695 0.11381 0.0555207 -0.0431335 -1.54663e-05 -0.0675404 -0.0242444 -0.0285526 0.00943362 -0.00689981 0.0166153 -0.0463186 0.0446358 0.0158789 -0.0144248 -0.0174158 -0.00747614 0.0317949 -0.00713151 -0.0584201 -0.0114309 -0.00214194 -0.11228 0.06123 -0.0824661 0.0399843 -0.027233 0.0764572 -0.0140576 -0.0400754 0.140307 -0.0288416 0.025596 -0.172521 -0.0352256 0.0515859 -4.4007e-05 -0.0657019 -0.0852368 -0.00469866 0.040125 -0.0914225 -0.0361024 -0.0258251 0.109517 0.0862608 -0.00824553 -0.0166521 -0.00361474 -0.0168239 -0.0932827 0.139092 -0.100156 0.0663562 -0.0459072 0.050704 -0.00690417 -0.0587215 0.0186099 -0.0290164 0.13359 -0.0524948 -0.0219642 -0.00332867 0.0795541 0.0351353 -0.0696477 -0.0059843 -0.0266399 -0.0479162 0.0841928 -0.0631016 -0.0868744 -0.0638961 -0.0625791 -0.0405733 0.053491 0.0515218 -0.0664324 -0.0236603 -0.0790118 0.0448312 0.035197 -0.0865198 0.0917913 0.0170669 -0.00492874 0.0244914 0.033395 0.0777811 -0.00756919 0.169449 0.0231342 -0.0128908 0.104059 0.0682447 0.00183012 0.0592796 -0.019149 0.0101126 -0.00567803 -0.0496949 -0.00072516 0.0246958 -0.0502863 -0.00382723 0.0436871 0.0366315 0.0627649 0.0632623 0.0612826 0.0059233 0.00635951 0.0385186 -0.00517281 -0.0298599 -0.00265386 -0.0256916 -0.0400155 -0.0624956 -0.0496724 -0.0158152 -0.123355 -0.0748534 -0.0100706 0.0160754 0.0585005 0.0210211 -0.140451 0.0497936 -0.0846201 0.0183006 0.065435 0.0134306 -0.0137118 -0.0363482 0.074567 -0.00359028 -0.0114035 -0.0831078 -0.0797626 -0.0192161 -0.08853 0.0576611 0.0014903 0.096213 -0.0161124 -0.0110346 0.0358864 -0.0255794 -0.0194805 0.0886011 -0.0230095 0.0334365 0.00717982 -0.0212396 0.108764 -0.0967721 -0.00361476 -0.110495 0.114925 0.0517796 -0.0551306 -0.0207196 0.0403894 0.0283077 -0.101052 -0.0174902 0.0644571 -0.00716935 0.0451776 0.0636702 -0.0146765 -0.035988 0.000270456 -0.0157972 0.0312791 0.0690376 0.115332 0.0166758 0.0682377 -0.0389868 0.0962961 -0.0881751 -0.02275 -0.133085 0.0192521 0.0245998 -0.104819 -0.0464295 0.0410936 0.0335072 -0.0414949 0.0729692 -0.0882659 -0.0119149 -0.0499857 0.0293377 0.0615505 0.023843 0.000524166 -0.0046129 0.00669583 0.0629295 0.0322005 -0.0219506 0.0683101 0.00803716 -0.0266812 -0.0788751 0.0523538 -0.0390189 -0.0158019 0.0950034 0.0811645 0.0197635 -0.0380693 0.00798781 0.0450445 0.0243707 -0.0549182 -0.0820355 -0.0252825 0.0178598 0.0299414 -0.00976698 -0.0172116 -0.045568 0.00748529 -0.00455389 -0.0188243 -0.149911 -0.0581523 -0.083171 -0.0782598 0.0266712 -0.0391344 -0.0166636 -0.105156 0.0138302 0.119813 0.0561659 -0.1041 -0.0268826 0.0736408 0.048292 0.0389078 -0.0296122 0.0280777 -0.0602691 -0.00792899 -0.0798268 -0.0107382 -0.0296062 -0.0216863 0.118015 -0.034741 0.0673221 0.0781357 0.0737526 0.0512087 -0.0301762 -0.000138025 -0.0577903 -0.0245552 0.108747 0.0263406 -0.0366666
' -0.0748611 -0.0139666 0.0611284 -0.0424755 -0.00743341 -0.0365686 0.0420182 -0.0433293 -0.0417542 -0.0849132 0.0233636 0.0254318 0.0768037 -0.0304371 -0.0181383 0.0577565 0.0486631 0.121405 -0.0630608 0.0803579 -0.0849199 -0.0123264 -0.0729448 -0.0224805 -0.144744 -0.0313677 0.0500506 -0.0193595 -0.0387642 0.0197715 -0.0730161 0.0510416 -0.0605131 0.00631642 0.0192854 -0.0778679 -0.0566766 0.0528648 0.052267 -0.0189518 0.0268993 0.00245843 -0.0689773 0.0138609 -0.00698974 -0.0189876 0.00295164 -0.0610084 -0.00251857 -0.0114434 0.0671327 -0.0663883 0.0589962 -0.0694601 -0.0206168 0.000530524 -0.0107707 -0.0243759 -0.0373832 0.0665153 0.0304736 -0.0499278 0.0444396 -0.0122968 -0.0532609 -0.000673652 0.05512 -0.0578455 -0.114656 0.000160019 0.0127844 -0.0575492 -0.0141189 -0.0383141 -0.0876415 -0.068693 0.0192501 0.062353 -0.0768115 0.117701 0.0145234 0.0709452 0.00755408 0.0265424 0.0106303 -0.0373668 0.000589428 0.0489683 0.015579 -0.0221096 -0.106569 0.0827892 -0.0027211 0.0358259 -0.025165 -0.043331 -0.0358448 0.00218277 0.0415611 0.0260776 -0.0506009 -0.0141963 0.011607 -0.00392406 0.0864943 0.035423 -0.0872832 0.0560527 0.0914742 -0.0509614 0.0590426 0.0396054 -0.0225239 -0.0331101 -0.0165006 -0.0394934 0.0163813 0.0340475 -0.0341169 0.114983 0.138388 0.0378452 0.0189868 0.0624382 -0.0412652 -0.00729047 0.0238548 0.0509517 -0.0117714 -0.0503572 -0.00329077 0.0396403 0.0554315 0.157447 0.0991729 0.0341946 -0.0907266 -0.0291213 -0.0503319 0.0666825 0.0179205 -0.0288416 0.0635823 0.0487817 0.0302329 0.162352 0.00717599 0.0634091 0.0145289 -0.0247408 -0.0654762 0.00402427 -0.133728 -0.0429664 -0.119308 0.0368325 -0.0421697 -0.0650119 0.134955 -0.0222857 -0.108035 -0.0219727 -0.0820441 0.0304151 0.124285 -0.0921756 -0.0601967 0.0674877 0.00763299 0.0371877 -0.089564 0.015308 0.0156458 0.0287484 0.0190323 0.076019 0.0261828 -0.000354544 0.021831 0.0505852 -0.00304179 0.0431999 -0.0229457 0.0261089 -0.0661147 0.0578975 -0.0675769 0.084366 0.0591566 0.0438375 0.0698535 -0.0777903 0.137746 0.0479936 -0.00991569 -0.0330409 0.0342265 0.0403064 -0.0589546 -0.0392273 0.00149504 -0.0565543 -0.0999441 0.0659095 -0.00234313 -0.0183549 -0.0601147 0.0164438 0.10184 0.0308667 0.0992627 -0.0266367 -0.0222057 -0.00563473 -0.0587954 -0.0822714 -0.00492057 -0.0608138 -0.0611327 -0.0555482 -0.00380598 0.0533964 -0.109705 0.0837829 -0.0137828 -0.0591405 -0.0592572 0.050781 -0.00218507 0.00911406 0.031999 0.0197925 -0.0530993 -0.113032 -0.138844 0.0727334 0.0228476 0.0266737 0.00290309 -0.00854243 -0.151335 0.111883 0.00688598 -0.0434798 0.0552947 0.036708 0.0584292 0.0789527 -0.031125 -0.00943248 0.0592526 0.0524683 -0.000217294 0.0232275 -0.00962971 -0.0151594 0.00095177 -0.00033557 0.0678001 -0.0660619 0.0530657 -0.0078259 0.0385376 0.0496701 -0.0332922 0.0107187 -0.0174299 0.0877877 0.0026348 -0.0232212 -0.109028 0.0423715 -0.0617269 -0.0938261 -0.0333092 -0.0316676 0.0816317 0.026836 0.0152809 -0.0330505 -0.0303595 0.0928409 0.0685748 0.079538 -0.0224125 0.0781745 0.038396 0.070847 0.00758456 -0.00646461 -0.0334457 -0.0627751 0.0918673 0.0276699 -0.0537256 -0.106409 0.00835568 -0.0362184 0.101068 -0.0167595
del -0.0968493 -0.0449945 -0.0587112 0.0185129 0.0147838 -0.0322395 -0.062114 -0.0137997 0.0304937 -0.00638133 0.0416653 -0.0826573 0.0808594 0.0031596 -0.136079 -0.0101358 -0.0645654 -0.0746663 0.0151552 0.238711 -0.0475533 -0.0087496 -0.0807829 -0.0653335 0.00397047 -0.0722381 0.00292467 0.00236931 0.0070384 0.0479725 -0.0455786 0.0675106 -0.0773178 0.0790711 0.055183 -0.0348423 -0.039614 0.00946961 0.0287685 -0.0150334 0.122671 -0.0204204 0.0042746 0.0471267 -0.0203661 -0.0789906 -0.0713119 -0.0449373 -0.000562868 0.00535755 0.00603399 0.0219017 0.0616985 -0.0351574 -0.0106235 0.0741883 -0.0214128 0.0983039 -0.0326728 0.0514915 -0.0691058 -0.0517779 0.0762652 -0.0407107 -0.0281749 -0.0586983 -0.069202 -0.103555 -0.011868 -0.0705784 -0.0874455 -0.0478102 0.0929786 -0.0151669 -0.00453432 -0.0306106 -0.00205388 0.110312 0.0459908 -0.0292515 0.0349661 0.0721988 -0.0646014 -0.045577 -0.091662 0.00848046 -0.0620004 0.116442 -0.00885238 -0.0262161 -0.0271805 -0.0375707 0.0872701 -0.039776 0.0104133 -0.0102932 0.0587622 0.0213098 -0.0311896 0.0300585 0.0286419 -0.0517391 0.0440347 -0.0403582 -0.0551775 -0.000684137 -0.0127054 0.0678926 0.0169049 0.00447835 0.0859771 0.0590681 -0.104045 -0.108322 0.0607063 0.0430922 0.0849103 0.0776125 0.0867187 0.0173676 0.127368 -0.0147886 -0.0319666 0.056982 -0.0577491 -0.0039304 0.0415103 -0.000125701 0.0963716 -0.0136705 -0.0837288 0.0556702 0.0229674 -0.0278512 0.0227995 -0.0268187 -0.0671366 0.0168717 -0.0417256 -0.0231668 0.0371517 -0.0407007 0.0529106 0.0386742 -0.0495679 0.120341 0.117234 0.00332642 -0.0235823 0.0162135 0.0394389 -0.0596167 0.0110071 0.11124 -0.0314481 -0.0886072 0.0147995 -0.00504589 -0.00979687 0.0124651 -0.0321273 0.0805496 0.0219809 -0.00525378 0.121811 -0.0482674 -0.0171615 -0.0117723 0.0674073 -0.0482257 -0.0994882 0.00955341 0.01027 0.00914499 -0.104062 0.0416491 0.151629 0.0389059 0.00161824 -0.0556266 -0.0584264 -0.0224894 -0.0697514 0.0369407 -0.0868294 0.0661319 0.0223258 -0.095363 0.0144491 -0.00694805 0.0118605 -0.0868554 0.0397544 0.0977698 -0.00015931 0.0286706 -0.0509183 0.0440781 -0.00930341 -0.048299 0.0590908 -0.14504 -0.0288518 0.0325826 0.0215458 -0.0416776 0.00512992 0.0196815 0.0346135 0.0412763 0.094234 0.0613269 0.0724447 -0.015633 -0.00216599 -0.133814 0.0563507 -0.0873857 -0.0147921 0.0270185 0.0661427 -0.0375789 -0.0251961 0.0286398 -0.077329 -0.0214134 -0.0318562 -0.0234317 -0.000628405 -0.0535188 -0.0632338 0.0763958 -0.0816102 0.0570528 -0.0295677 0.0391335 -0.00997282 -0.0111716 -0.0461242 -0.0538165 -0.052986 -0.0749983 -0.0356754 -0.0492169 0.0558287 0.0512682 0.0201806 0.00831031 0.0850414 -0.0301955 0.00376474 0.0613784 -0.0193142 -0.0219081 -0.00124682 0.0938863 -0.0898601 -0.0576641 0.0488985 -0.0487905 0.0130229 0.0173565 0.0106518 -0.030064 -0.0597241 -0.01933 -0.0432506 0.0713613 0.0705156 -0.100299 -0.0567775 -0.036609 0.00341678 0.0414066 0.00902743 0.124439 0.0647489 0.0903562 0.025502 -0.0115863 0.0559263 -0.0301994 0.0297352 0.039646 0.0687864 -0.0440372 -0.0146065 0.0447275 -0.0123809 0.0106011 0.0379768 -0.121224 0.0115727 0.0653361 -0.00966798 0.0191997 -0.0373811 0.125466 -0.0721938 -0.05683
los 0.0106551 -0.00927621 -0.0345451 0.0956706 -0.042091 -0.0124639 -0.0110907 -0.0369577 0.0361653 0.0417628 0.0473506 0.0138438 0.00558719 -0.036906 -0.00486453 -0.0561139 0.0420558 -0.0598959 0.00147992 0.0310352 -0.0490206 0.00800561 -0.147882 -0.000822395 -0.0651024 -0.0164514 0.0495651 -0.00421203 0.0493606 -0.059792 -0.0181168 -0.00661363 -0.0217882 0.0508761 -0.0178032 -0.0652265 0.048375 -0.0425139 0.0319021 0.00403049 0.0308189 -0.0225561 -0.0348733 -0.0132926 0.0498702 -0.00803409 0.0353716 -0.0982662 -0.0110694 -0.0766479 -0.0127207 0.0220819 0.0177837 0.0348197 -0.101349 -0.0244146 -0.0180531 0.133861 -0.161801 0.0389296 -0.0339988 -0.0852224 0.134104 -0.0381825 0.0794856 -0.0672156 -0.0646047 -0.0105272 -0.0946703 -0.0534085 -0.0534605 0.0756354 -0.0609096 -0.0275819 -0.0577468 -0.0374303 0.129091 -0.00121813 0.0172801 -0.0748897 -0.00544071 0.049265 -0.0733556 0.0594167 -0.099133 -0.0549512 0.00152845 0.0729467 0.0191702 -0.0256559 -0.0735874 0.0481058 0.0881557 -0.14716 -0.0535263 0.035432 -0.00900331 -0.0407423 -0.0130605 0.00404379 0.0703276 -0.0198734 0.0890754 -0.0714484 -0.124594 0.0185978 0.0902086 0.0733567 -0.0182909 -0.0358026 -0.0716532 -0.079091 -0.0415285 0.023329 0.0705054 0.0148213 0.0451939 0.163167 -0.0207399 0.0319248 0.042991 0.0734419 0.0523538 0.0658881 0.0755398 -0.0260431 -0.0298412 0.0409058 0.0321792 0.125349 -0.028139 0.0292694 -0.0558722 0.0906938 -0.0840594 0.0397311 -0.0956952 0.0231707 -0.0580718 -0.0306078 0.061012 0.0490976 0.0688496 0.0497308 0.0761347 0.0242181 -0.0351789 -0.0753893 -0.0321909 0.0874155 0.0557101 -0.119544 -0.0466122 0.00435191 -0.0280298 -0.00409342 0.0205736 -0.0679623 0.0955013 0.0862679 -0.0752978 0.00936014 0.00963962 0.116823 0.0427441 0.0136331 -0.0125453 -0.00841239 0.0465892 0.0604237 -0.0197318 -0.00435304 -0.117923 0.0113674 0.016153 0.131157 0.00386365 0.0406357 0.0422379 -0.0604772 -0.00491666 -0.0285223 0.0561163 0.0209226 -0.0583102 0.0682404 -0.00287873 -0.0363114 0.0752643 -0.0582345 -0.00256154 -0.0496172 0.0441153 0.0817017 0.0159832 0.0690048 -0.0633158 0.0363458 -0.0383202 -0.0125214 -0.0024835 -0.0950321 0.0271464 0.0252797 0.074556 0.0101197 -0.00483873 0.0612605 -0.0306508 0.11282 0.121724 0.0501094 0.0595044 0.00368743 0.0466634 -0.0621234 0.0982342 -0.11087 0.0365923 -0.0375786 -0.0546687 -0.0383704 -0.0277584 -0.0318699 -0.00228662 0.00587507 -0.0238309 -0.156708 -0.0222554 0.00983609 -0.00526062 0.0285808 -0.0064496 -0.0604565 -0.0548151 0.0327698 0.0310118 -0.000218726 -0.0331732 -0.00143435 0.0656171 -0.0909144 0.0332154 -0.0167814 -0.0399348 0.0966875 0.0792395 -0.0440396 0.0955501 -0.0260191 0.0454742 0.0188286 0.0108865 0.0271696 -0.0888315 0.0469038 -0.0140077 -0.0413768 0.0422473 -0.0692311 -0.0308025 0.0492319 -0.0163825 -0.0345552 -0.0543083 -0.0252181 -0.0780247 0.00235849 0.0276269 0.0534321 0.00182318 0.046481 0.0143137 -0.0138194 -0.0228999 0.055157 0.0838634 0.00730119 0.0518066 0.0236071 -0.0519618 -0.00101704 0.00466609 0.0728954 0.12188 -0.0333371 -0.035092 0.051649 -0.188609 0.0460039 0.0542694 -0.0257246 0.0240686 0.020333 0.0230807 0.00671023 -0.0413636 0.0692458 -0.0202044 0.0149517
se -0.0572164 0.083642 -0.0761287 0.0705687 -0.031336 0.0180099 -0.0258044 -0.118369 -0.0303595 0.079535 -0.00356188 0.0407558 0.0177494 -0.049422 0.0257236 -0.0318891 0.0822861 -0.0923423 0.0455458 0.0593215 -0.000397932 0.0676983 -0.00555946 -0.123809 -0.0442011 -0.0309228 0.0466725 -0.0504608 -0.0125477 0.00498285 -0.0433694 0.0522497 -0.0756539 -0.000260237 0.00573134 -0.0604719 -0.0592933 -0.107409 -0.0500374 0.00071922 -0.00939827 -0.0180992 0.028924 -0.0301505 0.0394537 -0.0373089 0.00168205 0.0176021 -0.0442717 0.0375976 -0.0102948 -0.0244892 0.0461462 0.0618126 -0.0483668 0.00886612 -0.0258386 -0.00239522 -0.0514352 0.0516844 0.0103493 -0.0622639 0.0901504 -0.00620482 0.0365945 -0.0550216 -0.117726 0.00375072 -0.0538488 0.0342434 -0.0614438 -0.0351834 0.039938 0.013739 -0.0699979 -0.0570077 0.0695438 0.0224252 0.0229085 -0.068121 0.0326996 0.00236431 -0.0292788 0.00856313 -0.0338228 0.0869183 0.0190783 -0.00954043 0.110772 -0.0977025 -0.0344049 0.00258339 0.131514 -0.0820041 -0.0840429 -0.0577134 0.0207329 0.099368 -0.0440738 -0.0574877 0.0337215 -0.0302912 0.0816751 -0.0511228 -0.0483232 -0.0425172 -0.0374311 0.0406433 -0.0175591 0.067681 -0.117311 0.0552859 -0.0130568 0.061363 -0.0846601 -0.0628096 -0.0120478 0.026013 -0.0136715 0.0582591 0.0231294 0.014971 -0.0726404 0.182061 0.0812587 -0.0149023 0.133019 0.0681739 0.0394234 0.0256171 -0.0116863 0.0286782 -0.0213608 -0.0563417 -0.027275 0.0413585 -0.0545269 0.0830076 -0.0308606 0.0416147 0.0820535 0.0258237 0.0621555 0.0814874 0.0562489 0.0279616 0.0480571 -0.049654 -0.0684428 0.0497575 0.038116 -0.0607044 -0.105049 0.0104061 0.00753019 -0.0387232 0.0279831 -0.0961481 0.103493 -0.0890168 -0.109711 0.0978993 -0.0970872 0.146811 0.0283206 0.0205813 -0.0450253 -0.117021 0.0465105 0.0327403 -0.0731461 -0.0835267 -0.0590821 -0.0342457 -0.0600328 0.0915568 1.17361e-05 0.051033 -0.0566272 0.0156551 -0.0143895 -0.0177188 0.0304109 0.0428311 -0.0660842 -0.0791811 -0.0480976 0.0576431 0.000164375 0.00176257 0.0107194 -0.048054 0.131222 0.10299 -0.0190685 -0.0348297 0.0882666 0.0341873 -0.100966 0.00890704 0.0963866 -0.0299419 -0.076931 0.100151 -0.0100739 -0.0710665 -0.00474962 0.0894939 0.0266976 0.0240542 0.106803 0.00123581 0.045549 0.0081492 0.0981874 -0.00221543 -0.0729296 -0.0177141 -0.000105019 0.0600617 -0.109301 -0.0595799 0.0387905 0.0491887 0.0402288 -0.0456124 -0.0993256 -0.030353 0.0732149 -0.00271739 0.0563299 -0.0115171 -0.020246 0.0516342 -0.0516562 0.0291426 0.0929552 -0.00771641 0.0203838 -0.0611392 -3.92392e-05 -0.121532 -0.0133376 -0.0397269 0.0188885 -0.00812787 -0.0384943 0.0147681 0.022943 -0.0449336 0.0193992 0.0684925 0.0132514 -0.117665 -0.0273556 0.0559192 0.0661933 -0.0745628 -0.0806859 0.0265081 0.0144918 0.0305397 -0.0165377 -0.0831082 -0.0323268 -0.0687657 -0.0341474 -0.00446727 0.0111676 -0.0925861 -0.0557413 6.93324e-05 0.10425 0.037033 -0.0429537 -0.0669486 0.0574079 0.0338392 -0.0100848 -0.0242605 0.0652602 -0.0439672 0.0142033 -0.00716961 0.000208359 -0.0340909 0.000711999 0.0188319 -0.0986675 -0.0360939 -0.0418252 0.0194512 0.0129517 0.0122717 -0.0182389 0.0617287 -0.0386256 0.109619 -0.0813216 -0.00604466
por -0.0351489 0.00697959 -0.0308424 0.035797 -0.000227844 0.0202063 0.0179425 -0.0474975 0.0176146 0.0879902 0.00205475 0.0726498 -0.0021476 0.0108849 0.0392014 -0.0370355 -0.00419791 -0.0143487 0.0117293 0.00849231 -0.0834596 0.0664958 -0.0701429 0.0515544 0.0300635 -0.0730663 0.0128755 0.0150183 0.0623187 0.00268462 -0.137653 0.0570211 -0.0410724 0.0998837 0.0475182 -0.0341503 -0.0621742 -0.047055 0.132612 -0.0223521 0.0712419 0.0296884 -0.0157833 0.0238773 0.0366575 0.0417454 0.0443494 -0.0631647 0.0426811 -0.0103026 0.0592445 -0.052757 -0.104396 -0.0736917 -0.0406058 -0.0118197 0.011511 0.144402 0.0536712 -0.0530818 -0.0237272 -0.11325 0.0132041 0.0232476 -0.0251491 0.0894363 0.0204314 -0.0353691 0.0137421 0.0156739 -0.0433927 0.00743199 -0.0633049 -0.140502 -0.044869 0.0418312 0.0478486 0.0734597 0.0901169 -0.0305414 -0.0435455 -0.0132977 0.022089 0.103443 -0.0871523 0.00187053 -0.0709996 0.0204695 -0.0594383 -0.0803995 -0.0705552 -0.0664304 0.0129713 -0.123773 0.0702668 -0.011693 0.0136872 -0.0175388 -0.0322127 -0.0303683 -0.0304968 0.0159907 0.0981232 -0.0254275 -0.0487276 0.00226886 0.0291617 0.0513948 0.0896662 -0.0607991 0.0824732 0.0315003 -0.00641525 0.0144936 0.0276179 0.0464576 0.10082 0.107689 -0.0043122 0.00393518 0.0668487 0.0896011 -0.0705928 0.149805 0.0461322 0.00654294 0.0422388 0.0122619 0.0287884 0.108422 0.0130725 0.0858096 0.00598103 0.0346297 0.135041 0.0497829 0.0923114 0.0155966 -0.0273089 0.0937472 0.0919601 0.0421705 0.0946749 -0.0818527 -0.022677 -0.00925233 -0.0603894 -0.0310243 -0.00987091 0.0522065 0.035605 -0.0417656 -0.00527437 0.0679672 -0.0629339 -0.0345084 -0.0143177 -0.022588 0.110284 0.0346647 -0.0308774 0.0175146 -0.0292077 -0.00667805 0.130908 -0.0255227 0.0669513 -0.000991904 0.0781656 0.044696 -0.0150075 0.0958761 -0.0393108 -0.0102613 -0.0291604 0.0142796 -0.0102839 0.0450888 -0.0647648 -0.0377578 -0.00870694 -0.0707363 -0.0783467 0.0545627 0.0461339 0.123001 0.01952 -0.0910606 0.00835708 -0.0745751 -0.0522335 -0.120581 0.0895375 -0.00462721 0.0144948 -0.0308584 -0.0425293 -0.0451975 -0.0558578 0.0246702 0.0116702 0.0883854 -0.0326605 0.0509942 -0.0677978 0.0550555 -0.117411 0.098768 0.0837665 0.061911 0.167633 -0.00204362 0.0564813 0.0467313 -0.0187573 -0.0237438 0.0116565 -0.0407197 -0.0254319 0.00422708 -0.00950245 -0.0652565 -0.00326326 0.0106144 0.0296821 -0.0112756 -0.131048 -0.0050182 -0.0452479 0.0387465 -0.0627238 0.00752379 -0.0735725 -0.0150584 -0.0048837 0.0197806 -0.0358714 -0.053801 0.0650602 -0.0209819 0.0427307 -0.00961779 0.0643492 0.00366894 -0.00778213 0.00687407 -0.0382773 -0.083575 0.0538573 0.0481255 0.0388693 -0.0223108 0.0329075 -0.0496712 -0.0890935 -0.0373157 0.000824071 0.0019346 -0.0463124 -0.000122169 0.0177324 0.0208691 0.0523464 -0.0315833 -0.0366579 -0.00895061 -0.0469024 -0.0468956 -0.0300965 -0.0101938 -0.054074 0.00936186 -0.0231093 -0.0393201 -0.0575135 -0.0396796 0.0649184 0.12673 0.0619473 -0.00171171 0.00580965 0.0826213 -0.0610179 -0.000519607 0.00342052 0.0350169 0.0820732 0.15608 -0.0727552 0.0781373 -0.00909464 -0.124917 0.0913449 0.1187 0.0140434 -0.032596 0.0586206 0.0420476 -0.00965232 -0.0314468
un -0.0209159 0.0775753 -0.00800698 0.134246 -0.0315915 -0.04172 0.0135822 0.00329495 0.0146991 0.0125225 0.048398 0.0143905 0.00587643 -0.00849613 -0.05717 0.0314381 0.00391665 0.0296753 -0.0313724 0.0885325 0.0383041 -0.0606588 -0.140164 -0.0703813 -0.037561 -0.0740824 -0.0440049 0.108051 -5.17328e-05 0.0507463 -0.0715732 0.0242493 -0.0801081 0.0449111 0.038456 -0.00763408 -0.106149 -0.10991 0.0556519 -0.0414881 0.00706045 -0.0274351 0.00576755 0.00900511 -0.0591801 -0.0277492 -0.0173822 -0.0635459 -0.0482804 -0.0513281 -0.0180548 -0.00735901 0.0822295 -0.0205139 0.0188417 0.0594135 0.0200646 0.0209416 0.0653589 0.0667884 -0.0319778 -0.0238111 0.082532 -0.015103 0.0221163 -0.127161 -0.0968444 -0.025186 -0.00343406 -0.0895187 -0.0541754 -0.0528293 0.0746041 -0.0223201 0.0230888 0.0132233 0.0483699 0.0284828 0.00917485 0.0490504 0.0634641 0.0461628 -0.0173678 -0.067399 0.0515112 0.0700327 -0.0673037 0.0205065 -0.0331914 -0.0307884 -0.00287777 -0.000517002 0.148417 -0.0630496 -0.00740382 0.0224481 -0.000847062 0.0757082 -0.0624523 0.0100288 -0.0118237 0.00971154 0.143455 -0.00457999 0.0259002 0.0150121 -0.0483963 0.0482274 0.0101132 0.0122098 0.027422 -0.0427395 -0.0984563 0.00633344 0.0704467 -0.0766556 0.0943279 -0.0909 0.0542889 0.0311917 0.0653281 0.0209475 -0.0341887 0.165516 -0.012275 0.00104627 0.0465514 0.124963 -0.00222458 0.0342975 -0.0210456 0.0492798 -0.0242437 -0.00697334 -0.0306372 -0.0305886 -0.0467304 -0.0782375 -0.0168834 -0.00748884 -0.0147404 0.0676031 0.156812 0.000821054 0.00182665 0.0847892 -0.0767639 0.0114242 0.0150333 -0.0154983 -0.0331063 0.0481495 0.0211497 -0.0321434 -0.0495996 -0.114587 0.0658914 -0.0312605 0.0977581 0.0716307 -0.0987961 0.0805463 -0.0436772 0.0989486 0.0967917 -0.057252 0.0448029 0.0227425 0.0542168 -0.0965387 -0.125631 0.0349031 -0.0732237 0.00549176 -0.0609771 0.0388654 -0.00253549 0.0321774 -0.0194032 -0.0377276 0.0264224 0.0703052 -0.0121702 0.0215826 -0.0488849 0.0408818 -0.0223627 0.0234719 0.0204156 -0.0386357 0.0149777 -0.173056 0.0961951 0.210678 0.0334707 -0.0954649 0.0398465 0.0504545 -0.045076 0.0409411 0.00984273 0.0319936 -0.0145776 0.090434 0.058538 -0.130241 -0.0818527 0.00966369 0.0648799 0.0319713 0.0884579 -0.0452752 0.0532622 -0.0029797 0.0436634 -0.068683 0.00303034 -0.073632 -0.104112 -0.0206329 -0.0214535 -0.021573 0.00915621 0.0362618 0.00492206 0.0432743 -0.0217197 0.055707 -0.0295252 0.0192857 0.00998758 -0.0685739 -0.0599172 -0.0304622 -0.02123 -0.0256644 -0.0295679 -0.0358542 -0.0518756 -0.0186571 -0.0790076 0.0357353 -0.016524 -0.0240784 0.0543034 0.0776669 -0.0358534 -0.0332318 0.00642613 -0.0365245 -0.0398647 -0.0140365 -0.137435 -0.0672972 -0.0837877 -0.00987178 0.00405748 -0.0533466 0.0371764 -0.0182938 0.0212122 0.100839 0.0240649 -0.0525321 -0.0593679 0.000304408 -0.0547487 0.0417685 -0.0696401 -0.0962747 -0.0713793 -0.034342 -0.091199 -0.0506077 -0.0784746 -0.0122578 0.0253889 0.0461709 0.00928068 -0.044959 0.056033 -0.0493701 0.0306035 -0.00987448 0.0253489 -0.0950103 0.0153763 0.0841617 -0.0382319 0.010161 0.0825473 -0.0534624 -0.0556111 -0.0175934 -0.0283124 -0.0726076 -0.00716605 0.0674307 0.0616629 0.00936138
con -0.0347741 0.104592 0.0182496 0.0722811 0.0119185 0.0689842 0.0701032 -0.0471901 0.156728 0.028485 0.0353827 0.0637685 -0.00280573 -0.0611064 -0.0363142 -0.0340354 0.0142368 -0.00285575 0.0099909 0.0519891 0.0467056 -0.0367133 0.0408447 -0.144765 -0.0219431 0.00591888 0.0785272 0.00477795 0.00835071 -0.0905325 -0.0843288 0.0322798 -0.0839457 0.0122249 0.00321784 -0.0667295 -0.072126 -0.0428706 0.116732 -0.0304386 0.114009 -0.0031649 0.0468196 -0.0117641 -0.0694041 0.018892 0.0462513 -0.0208037 0.00873318 0.0302468 0.0175863 -0.0520108 0.0204416 0.115992 -0.00925424 -0.0323369 -0.0305889 -0.0240539 -0.0713136 -0.0376203 -0.0332711 -0.0635049 0.0995973 -0.0716063 0.00664276 -0.0448944 -0.139941 0.0824573 0.000595359 -0.0123009 -0.0504436 0.0467005 -0.0635153 -0.0731251 -0.0747523 -0.0568308 0.108533 0.149601 0.0210303 -0.0018771 0.0440211 0.0324511 -0.0194293 0.0245251 -0.0296353 0.00784391 -0.0307554 0.0312656 0.05401 -0.106846 0.023271 0.00481432 0.0356299 -0.00643107 0.0371961 0.0170015 0.0418008 -0.00807899 -0.0126453 -0.0568971 -0.0362627 0.000631739 0.0478887 -0.0133772 -0.0644644 -0.0183931 -0.0575257 0.0485835 0.0247745 -0.0176147 -0.00584689 -0.021652 0.0300675 -0.0245157 0.0278071 -0.00630903 0.0110683 0.0236668 -0.0179141 0.0429418 0.0652137 -0.0182677 -0.0786651 0.131609 0.0494967 -0.00876973 0.0413341 0.0709427 -0.0129447 0.11413 0.0857925 0.0216146 -0.106675 0.0216393 -0.0223798 -0.00270638 0.060451 0.0748029 -0.0329736 -0.0042346 -0.120522 0.113758 0.0525168 0.0320972 0.0187532 0.127786 -0.0179971 -0.0158155 -0.0838417 0.0559767 0.086722 -0.058383 -0.0253496 0.00189819 -0.0393954 -0.0615014 0.0244779 -0.0475935 0.0377942 0.0834877 0.0203467 0.0451633 -0.00666181 -0.00246913 0.0371455 -0.0898116 0.0113736 -0.113486 0.000926652 -0.0738515 -0.0248387 0.00950148 -0.0596385 0.0577905 -0.0574513 0.0592337 0.00568022 0.0128721 -0.0464871 -0.0354792 0.0300657 -0.13337 -0.0101704 0.0108062 0.0297768 0.104529 -0.0220206 0.00715458 0.0467594 -0.00419436 0.0783033 -0.0442353 0.074004 -0.0139439 0.0661598 0.0196236 -0.0182106 0.0641797 -0.0818466 0.0127391 0.0580908 -0.0162092 0.0381986 -0.0419807 0.0735652 -0.0335594 -0.0431572 -0.0672975 0.107949 0.045544 0.0472663 -0.0444132 -0.0311 -0.0928813 -0.00469327 -0.0466275 -0.0666176 -0.0740126 -0.0411339 0.00114081 -0.0560189 -0.0708649 -0.0925458 0.117867 0.0555944 0.0588215 -0.0497185 -0.00123793 -0.0430113 0.0749553 0.0677519 0.0186471 -0.0252068 -0.0444428 -0.074094 0.0414813 0.0470174 -0.0203181 0.00195304 0.0945891 -0.027584 -0.0811509 -0.030731 0.0458268 0.015048 -0.0185696 -0.00827644 -0.0247957 -0.064918 0.0575609 -0.00527466 -0.0479659 -0.0459215 -0.0667087 -0.110599 -0.0136649 -0.0637225 -0.0809632 0.0473509 0.0325963 0.107838 0.0831573 0.016877 -0.0373853 -0.0233132 0.0518159 -0.0411206 0.0987853 0.086211 0.0180425 -0.0376447 -0.0421999 0.0246205 0.079428 -0.0677051 -0.00359905 0.0382359 0.113919 0.106814 0.0531598 -0.0321039 -0.00732214 0.127503 0.0365478 0.0564947 -0.0150178 0.0619275 0.0882067 -0.0323805 0.0633059 -0.00476643 -0.100155 0.0723113 0.118665 0.0776837 -0.0493867 -0.0393352 0.0692934 0.0351846 -0.044949
las 0.0506639 0.0351545 -0.0172116 0.0490008 -0.0561541 -0.00195074 -0.0226514 -0.085457 0.118764 0.0750615 0.0244487 -0.049647 0.0178333 -0.0305367 -0.0441866 -0.11024 -0.00366929 -0.0101048 0.0464581 0.00954881 -0.0903416 -0.0246514 -0.0531538 -0.1167 -0.0324617 -0.0570935 0.0491086 -0.0610294 -0.0483233 0.0378509 -0.0280704 0.0479077 -0.0480485 0.174171 0.0030331 -0.0083211 -0.0208241 0.0301372 -0.0614373 -0.0159208 0.0987305 -0.0543245 0.0113139 0.00162914 0.109684 0.0144995 -0.0271101 0.0686425 0.0331672 0.00771765 -0.0528601 0.0158113 -0.0452209 0.00812087 -0.0615416 -0.00160739 -0.0328031 0.0600029 -0.132618 0.0184791 -0.061327 -0.0981455 0.163738 -0.0268178 0.007138 0.0844223 -0.110156 -0.0813834 -0.0262382 0.0728268 -0.0646987 -0.0439197 0.052825 -0.0628713 -0.0595652 -0.0108243 0.020263 0.0885479 -0.0282036 0.02674 -0.0939535 0.074165 -0.04008 0.0620551 -0.0544354 0.00724982 0.0157011 0.0635107 0.0376603 -0.023749 0.0757646 -0.0560904 0.117774 -0.143053 -0.0398919 0.0224638 0.00288057 0.0156023 0.0397524 0.0292548 -0.00128463 -0.0260976 -0.0166314 -0.0680013 -0.0529937 -0.0801559 -0.0421559 0.0507077 -0.0169675 0.0324617 0.0203459 -0.020103 -0.000751108 -0.0854002 -0.0077471 0.113282 0.0131092 -0.00320639 0.0402273 -5.28829e-05 0.108341 0.138829 -0.0100378 0.0864733 0.0672027 0.0209736 0.128579 0.0360784 0.0374157 0.0406414 -0.0555545 0.0090685 0.0115776 -0.0964091 0.0139126 -0.0284838 -0.14336 0.0609753 -0.015037 0.0767117 0.0525658 0.0676763 0.0217504 0.059347 -0.0595657 0.035853 0.00206852 -0.0451787 -0.00612259 0.0659637 -0.00729639 -0.0753552 -0.0164408 0.021452 -0.00759684 -0.0585019 0.00244365 -0.0294765 0.0962679 -0.0559233 -0.109607 0.0149053 -0.0574633 0.0304183 0.0581765 0.0643265 -0.0491318 -0.10869 0.0893755 0.0335349 -0.0408477 0.053829 -0.0437978 0.00857264 -0.013083 0.104625 -0.0460908 0.0283378 -0.0689865 -0.000219377 0.0153397 0.00552688 -0.00152708 0.0207117 0.0134272 -0.0113965 0.0035227 -0.0423256 0.0781302 0.0129738 -0.0630284 -0.127704 0.018131 0.0395726 -0.0224731 0.00989337 0.0423292 0.0352878 -0.0208285 -0.000530357 0.0337618 0.00841326 -0.00644665 0.0708737 0.0727029 -0.0324 0.101043 -0.0525747 0.105499 0.0871627 0.0735984 0.0144997 0.019857 -0.163303 0.00417292 -0.0853099 -0.0563976 -0.0803943 -0.0180613 0.0313514 -0.0248563 0.0373 -0.0205695 0.00576105 -0.0126634 0.0771866 -0.0323741 -0.0355345 -0.00535878 -0.000233479 -0.0763921 -0.00368241 0.0619323 -0.0986021 -0.0496702 -0.0224195 -0.0564212 -0.0422981 0.113693 0.0835384 -0.00344819 -0.0182955 0.0783823 -0.00471734 0.0333519 0.0667594 0.0642443 -0.0503742 -0.0157173 0.00362424 0.00386348 0.0695063 0.00829881 -0.103556 0.0232788 0.0756806 0.00659514 -0.0693405 -0.0828003 -0.0167787 0.0262263 0.0312799 -0.0497463 0.0793526 -0.0226655 -0.0553956 0.0131497 0.0174196 0.0187578 -0.0375544 0.00993731 0.00560459 -0.0140699 -0.0296563 -0.0227298 -0.00478809 -0.0125713 0.0713526 -0.0736246 0.0420485 0.0645219 -0.0292198 0.106517 0.0467114 0.0431401 0.00745433 0.0069804 0.0103313 -0.136248 0.0415097 -0.00317651 -0.0262903 -0.0012559 0.0545185 0.0963007 -0.0223261 0.0430278 0.148748 0.0267267 -0.0241632
una 0.00882484 0.0726263 -0.0368602 0.0401482 -0.00796764 -0.0433238 0.131895 -0.0282671 0.0216385 -0.0235967 0.0399241 0.0783715 -0.0473758 -0.0227999 0.0356542 -0.0285136 -0.0456163 -0.0119485 0.0683843 0.07696 -0.0424099 -0.0188911 -0.0648938 -0.0611863 -0.129052 -0.0448704 -0.0217288 0.0701795 0.0658636 0.00748097 -0.104722 0.0579771 -0.0585247 0.062162 0.0185876 0.0291879 -0.0756973 -0.0675737 -0.0626963 -0.0760696 0.121849 -0.0450933 -0.0708263 0.0298815 0.0547618 0.00144202 0.127397 -0.0756411 -0.0102485 0.0149902 0.0106525 -0.0290036 0.0388033 -0.00460135 -0.0655986 0.0725409 -0.0508077 0.0232455 0.0788572 -0.0108854 -0.0774284 -0.109261 0.1214 -0.0779355 0.0146734 -0.0137883 -0.11007 0.0669263 0.0521457 0.0553838 0.0130656 0.0316051 0.0337212 -0.0358 -0.0223262 -0.0227112 0.0541356 0.0240598 -0.0438099 -0.0809083 0.0470106 -0.0260387 -0.0397745 0.00132006 -0.025318 0.0869386 0.0361488 0.110736 -0.019109 -0.0662164 0.0308709 0.0349147 0.0379903 -0.0828855 0.0154708 -0.0446915 0.0784285 0.0499551 -0.0210911 -0.00488283 -0.0791137 -0.0456168 0.0151979 0.0399494 -0.026745 -0.0370215 -0.0812678 0.0613567 0.0317526 0.0083433 -0.0520984 -0.0595602 -0.107735 -0.0270059 -0.0105936 -0.0552424 -0.0407104 0.052425 0.00686458 0.0489419 0.140207 -0.0075275 0.0762336 0.106182 0.0038181 0.00194492 -0.00271753 0.016138 0.0275071 0.0170352 0.0333122 0.0584102 0.0595622 -0.062437 -0.026682 0.00240694 -0.0388465 0.00140674 0.109186 0.0792747 -0.00612045 0.0855812 0.0361522 0.00586865 0.00370442 0.0739888 -0.0355556 0.0212401 -0.0348562 0.00370542 0.0237281 -0.0461981 -0.0303477 -0.00592125 -0.0997327 0.0400086 0.0411573 -0.000245376 0.0953694 -0.120402 -0.0878304 0.100404 -0.0638548 0.00251127 0.143237 -0.0155969 0.0125211 -0.0129636 0.100705 -0.0590885 0.0100338 -0.00644329 -0.0380327 -0.00382844 0.0360552 0.146569 0.00542166 0.0600371 0.040785 0.0159631 0.0171498 0.101801 -0.0186487 0.0304158 0.0269406 0.00678243 0.000465597 0.0311135 0.00591923 0.0243805 -0.0419763 -0.103821 0.168249 0.116366 -0.0143899 0.0238014 0.0439289 0.000529873 -0.0404017 0.00183123 0.0503439 -0.0286364 0.0142675 0.0282237 -0.110662 -0.036457 -0.0936361 0.005136 0.0163014 0.00354761 0.0226154 0.043569 -0.0583563 -0.0356528 0.0765032 -0.0116985 -0.0533093 -0.223529 -0.0349875 -0.00500272 -0.0785514 -0.0193008 -0.0197039 0.0966618 0.0262219 -0.0534819 -0.0748831 0.0515641 -0.0644236 0.0498624 0.0445134 -0.00782224 0.0111543 -0.00584601 -0.0506455 0.0271256 0.0282171 -0.126285 0.0453477 0.0616921 -0.106142 -0.00633103 0.0513121 -0.00917713 -0.0192211 -0.016877 0.074871 0.00129387 -0.0640018 0.0168234 -0.0147937 -0.0723572 -0.0710648 -0.0192449 -0.0831868 0.0830192 0.0386506 0.00820238 0.0523833 -0.00534053 0.0236456 -0.0421367 0.082986 -0.0142765 -0.044327 0.0705747 0.00252573 0.0535384 0.0036792 -0.0511729 -0.0446552 0.00242614 -0.00282123 0.0137947 -0.105559 0.0255407 0.0785602 0.0114916 0.0468681 0.0615585 -0.0387427 -0.00126413 -0.01434 -0.00631986 0.015512 -0.0379412 -0.0216737 0.0518397 0.0336899 0.0614227 -0.01101 -0.118623 -0.0116684 -0.0102557 -0.0248663 -0.193124 -0.00595822 -0.0206277 0.00139974 -0.00695846
su -0.0486031 -0.0166142 -0.0820961 0.0270471 0.0149276 -0.0578764 0.0483309 0.022218 0.0626647 0.108415 0.0973929 0.0544671 -0.00511851 -0.0166408 0.0258804 -0.0370157 -0.0604168 -0.0204322 -0.0472524 0.128933 -0.0193474 0.0295596 -0.0108167 -0.115589 -0.0513893 0.0431221 0.0407871 0.0761254 -0.0222931 0.0760764 -0.0469922 0.0992452 -0.13569 0.0571748 -0.0471103 -0.0207166 -0.0259518 -0.0829185 0.0579216 -0.00940757 0.0809317 -0.00542562 0.0077652 0.0626852 -0.0113365 -0.00887985 0.106745 0.0565442 0.019836 -0.00769282 0.0731619 -0.0411138 0.0309289 0.0336242 -0.0146054 0.0555326 0.00760767 0.0151246 0.0338212 -0.0182777 -0.0523387 -0.0619054 0.023729 -0.0197767 0.000554716 -0.077454 -0.019556 0.0785014 0.0228171 -0.0395947 -0.086183 0.0359509 -0.0123823 -0.0941405 -0.00584067 -0.00634369 0.0710912 0.133723 0.045734 -0.149423 0.0138575 0.0555611 -0.0532326 -0.00547469 0.00126665 0.0158423 -0.0673897 0.0940113 -0.0133582 0.00949086 0.0875753 0.00891128 0.106428 -0.0306766 0.035222 -0.0364493 0.0222512 0.0127933 -0.12647 0.00855154 -0.0806238 -0.0387874 0.127067 -0.0405778 -0.0725974 0.0291508 -0.0525584 0.0169751 0.0141099 0.0569086 -0.0074241 -0.0209876 -0.0186251 -0.00570591 -0.0210785 -0.056302 0.0929041 0.0534519 0.113698 0.052595 0.0858364 0.00100064 -0.0306353 0.0878795 0.0373836 0.013666 0.0765034 -0.0166659 0.0254456 -0.0306366 0.0238146 0.0516933 0.0909202 -0.0961146 -0.0455952 0.0587961 -0.0575531 0.0321467 -0.0649555 -0.0238325 0.00615201 0.0673106 0.140449 -0.00638461 0.0855768 0.0852705 0.0812439 -0.0566324 -0.0175592 0.00553019 0.00765409 -0.0172918 0.0286208 0.0769546 -0.00588315 -0.0456354 -0.111575 -0.0252487 0.059227 -0.0380437 -0.081896 0.0318551 -0.0183184 0.0783455 0.0507632 -0.0319879 0.0355289 -0.0202984 0.097468 -0.0670882 -0.082878 -0.0603518 -0.0320765 0.022593 0.0143128 0.0958148 -0.0354119 0.121084 -0.0460474 -0.0745287 -0.0124648 -0.0870621 -0.041935 0.0190522 -0.0107657 0.071002 0.0697959 -0.0602158 -0.0116258 -0.0422432 -0.0167055 -0.0494797 0.0734976 0.120844 0.0233977 0.05264 -0.00481821 -0.0890361 -0.0135965 0.0295685 0.114709 -0.0543121 0.0168452 0.00671914 0.000480469 -0.0203156 -0.000708796 0.0359513 0.0822658 -0.00233344 0.13788 0.0534591 0.0488874 -0.0738961 -0.00823506 -0.0669467 0.00228112 -0.0815049 -0.0115896 -0.0139849 0.0187109 -0.0507541 0.0306197 0.0434027 -0.0100203 0.0811608 -0.0970271 -0.111709 0.00926234 -0.0201088 0.0630448 0.0573421 -0.114269 -0.0486191 0.0165408 0.152627 0.0159925 -0.00776586 -0.0361903 -0.0283978 -0.00170343 -0.0306538 0.0135768 0.0126182 0.0384246 0.0199431 -0.0645191 -0.0359575 0.00437779 -0.0439426 -0.00521602 -0.0489356 -0.0233869 -0.0669629 -0.0368251 -0.0331513 -0.0488028 0.0159248 0.0897154 -0.0181674 0.0222889 0.0998761 -0.00313296 -0.0517011 -0.00719891 0.0103059 0.0123652 0.0588275 0.0451635 -0.0429091 -0.138703 -0.0876449 0.096097 0.129642 -0.0930015 -0.0947691 0.0414525 0.0879577 0.0516743 0.0499747 0.020174 -0.0455158 0.00102788 0.00602275 0.0418198 0.0312926 -0.029829 0.0180603 0.0213471 -0.00163236 0.0295186 -0.0586625 -0.0268328 0.0321659 0.0722136 -0.0563616 0.0516905 0.0537357 -0.0485489 0.0208388
es 0.0254378 0.0116844 0.0437779 0.0319627 -0.0026431 -0.0208769 0.0537529 -0.0321674 -0.0531028 0.00858455 0.0482222 -0.00670684 0.0353342 -0.0910386 -0.0215892 0.0767095 -0.0360081 -0.0437761 -0.0476443 0.0546212 -0.10007 0.0503696 -0.0449806 -0.0886963 -0.0407669 0.0224859 0.0222601 0.103255 -0.03142 -8.64718e-05 -0.0518742 0.0471025 -0.146315 0.0220549 0.0223184 -0.0120216 -0.0148926 0.0142554 -0.00844562 0.000758578 0.0297605 -0.026721 -0.0874631 0.0577941 -0.0239804 0.110315 0.0426632 -0.0445756 -0.0641397 0.00781468 0.0363481 -0.0452756 0.0428928 -0.0737347 0.0181022 0.0929161 0.0300644 0.0116741 0.0594222 0.0934761 -0.00306067 -0.0599514 0.0600211 -0.0194235 -0.00682075 -0.016139 -0.0567318 0.0456759 0.0205831 0.0128348 -0.0191719 -0.0379113 0.0249475 -0.00562643 -0.0991627 -0.0313768 0.0299555 0.0884306 -0.0131082 0.0336921 -0.00247753 0.107201 0.0264194 -0.10577 -0.00906273 -0.0748881 -0.0241947 0.0405758 -0.0531239 -0.0448808 0.119425 0.1001 0.0501389 -0.0924006 0.0103353 -0.0403862 -0.0154425 0.0602336 0.0202219 -0.0465558 -0.0535524 -0.0359795 0.0237278 0.0257388 0.0133713 -0.0117696 -0.119323 -0.018909 0.0745743 -0.0185114 -0.0196964 0.0164677 -0.164966 -0.0147294 0.0515038 -0.00967767 0.0417575 0.0759538 0.0773427 0.0806022 0.089425 -0.0162908 -0.0167006 0.144268 -0.00842665 0.05194 -0.041992 0.036254 -0.0402667 -0.0203998 -0.0225312 0.0283216 0.058051 0.0860216 0.0458252 -0.0464161 0.0819577 -0.00045273 -0.0207627 0.114445 -0.0388104 0.00743147 0.102942 -0.0232088 -0.0274823 0.0699005 -0.0686639 0.0326856 0.0811726 -0.0612801 -0.0317139 -0.0168419 -0.000446408 -0.0362475 -0.0667333 -0.0212995 0.0479749 -0.0318927 0.246461 0.00927889 -0.0422866 0.0049873 -0.114166 -0.0298222 0.141985 -0.0176867 0.0237439 -0.0271606 0.0386914 0.0752959 0.0188715 0.00744048 -0.0204828 0.0164559 0.00665502 0.063014 0.0481225 0.0281331 -0.0177152 0.0225032 -0.022307 0.0511498 0.00311192 0.0295204 0.0374437 0.0261389 -0.0126096 0.0338572 0.0632912 0.0032103 0.0318752 -0.12233 0.0794582 0.0776185 0.0295053 -0.042311 -0.0224794 0.0221036 -0.0871236 0.0140564 -0.00670834 -0.100928 -0.105791 0.0433049 -0.0652659 -0.0145394 -0.082109 0.0573056 0.118728 -0.0379875 0.044576 0.0649246 0.0904962 0.0362396 -0.0237781 -0.0252557 -0.0182049 -0.150405 -0.0592325 -0.0372232 0.0265379 -0.00251898 -0.060216 0.0172386 0.106987 -0.0225206 -0.0387943 0.0659166 -0.00717591 0.00646804 -0.00324748 0.0135332 -0.106353 0.0116722 -0.058897 0.00769505 -0.0109491 -0.0945899 -0.0404715 -0.00286735 -0.0816908 0.143074 0.0632657 -0.0285159 0.0765764 0.107191 0.130128 0.0486312 -0.0125418 -0.0640822 -0.0340723 0.0363877 -0.0572164 -0.0370139 -0.022872 -0.0226581 0.00406591 0.0154983 0.0527729 -0.0274402 0.0568506 0.00586789 0.0631623 -0.0433715 -0.0935326 -0.0171631 -0.0803394 0.142567 0.0224176 -0.0425757 -0.0648776 0.0388548 -0.00763091 -0.00477714 0.0318769 -0.067773 0.0699886 0.0328609 -0.0127912 -0.00946933 -0.00851918 0.0741587 0.0254903 0.0341493 -0.0409081 0.0064861 -0.00594137 0.0888906 -0.052759 0.0602062 0.0379857 -0.0801707 0.00697886 -0.0334458 -0.0580095 -0.113084 0.0605595 -0.0470115 0.0419411 -0.0152609
categora -0.089145 -0.00058708 0.00964759 -0.0255403 -0.0382439 0.0173139 0.0303097 -0.0778162 -0.0767598 0.0101317 0.0421018 -0.00905493 0.0052624 -0.0818721 -0.10189 -0.0274827 0.0255593 -0.0578947 -0.0255511 0.0170143 -0.0771592 0.0112167 -0.0974471 -0.023106 0.0121128 -0.0481292 -0.0199041 0.0426429 -0.0225424 -0.0820421 -0.00635462 0.0954693 -0.0988912 0.0320735 0.0663868 -0.0723125 0.0899663 0.0348519 0.0279512 0.0968059 0.0408636 -0.0793081 -0.0720405 0.0180847 0.0445298 -0.0316331 0.0399328 -0.106863 -0.0312605 0.0359342 0.0639243 -0.0339346 0.0759109 -0.0824016 -0.0606083 -0.0655195 0.0145675 0.0200948 -0.0935699 0.0285724 -0.0474088 -0.0563256 0.00662039 0.0747367 -0.0207309 0.150957 -0.069108 -0.0833676 -0.0688559 0.0425033 -0.00823872 -0.0434582 0.00995451 -0.106413 -0.00871618 0.0610798 -0.104889 0.0608055 -0.060716 -0.0650194 -0.00634707 0.104085 0.00952859 0.000916704 -0.0129468 0.0152713 0.0102812 -0.0643908 0.0402558 0.0395307 -0.0995784 0.0461865 0.00402208 -0.130141 0.0291998 0.0219745 -0.077126 0.0227582 -0.001289 0.0131182 0.0327682 -0.113109 0.0297844 0.0436637 -0.0550827 -0.00499232 0.0467389 0.0783882 -0.00189142 -0.0294355 -0.00518154 -0.00314538 -0.0158319 -0.103491 -0.0505637 0.0485451 0.0344481 0.0469733 0.00114057 0.0546635 0.0674353 -0.0150475 -0.0136357 0.0266739 -0.0468716 0.0280713 -0.0268854 0.00128374 0.0277361 0.0462857 -0.0345049 0.0390091 -0.0823341 0.0839655 -0.0322629 0.0757884 -0.0207907 0.0366966 0.161893 0.0734762 0.0178572 0.0329085 0.0609926 -0.016657 0.0377197 0.0251668 0.0243684 0.0878301 -0.0822485 0.0202278 -0.0650928 -0.0190657 -0.0101867 -0.0145773 -0.110764 -0.0602267 0.00209622 -0.069986 0.00653702 0.0242328 -0.00851378 0.0764939 0.0300283 -0.0281916 0.114263 0.0121018 -0.0665679 -0.0795949 0.0493946 -0.0104226 0.0644165 0.0161614 -0.0125102 0.0474415 -0.00283944 0.0528861 -0.0341304 0.0253403 0.045513 -0.0548529 0.03619 -0.0216491 -0.073114 0.0201581 0.0118831 -0.0648292 0.0973453 0.0511011 -0.123976 -0.0194054 -0.00258764 -0.00603118 0.0210442 0.0220681 0.0439024 -0.118925 -0.0173586 0.00116167 -0.0219501 0.0553637 -0.0240112 -0.0506937 -0.0163321 0.0729482 0.0284959 0.00139115 0.00699528 -0.0891735 0.0778183 0.0181542 0.00613629 -0.00717659 0.105887 -0.0570583 0.0595336 0.0361466 0.162398 -0.0754186 -0.0617641 0.0411047 -0.0246208 0.0171654 -0.0704739 -0.0497455 -0.0805921 -0.0113246 -0.0489806 -0.0725181 0.0714352 -0.0074756 -0.0858796 0.0986199 -0.00585584 -0.0407714 -0.00866106 0.105534 0.0670748 -0.0615843 0.0191915 0.0831926 -0.017805 -0.0283856 -0.030858 -0.0642874 0.0501991 -0.0213334 0.0159157 0.0117695 0.0860634 0.102858 0.0920088 0.0144132 -0.0348976 -0.00940479 -0.00432963 -0.072149 -0.0997673 -0.0268778 0.144008 -0.00342044 -0.0413982 -0.0150919 -0.00729781 -0.168221 -0.0425201 -0.0676985 0.0900962 -0.000407935 0.0413445 0.0158321 -0.0307365 -0.0332243 -0.0250615 -0.0239063 -0.0472864 -0.0403779 -0.0709756 0.0574112 0.0973411 0.127011 -0.0455567 0.0666008 0.043901 0.0398126 0.0424328 0.0263198 0.00463832 -0.0224533 -0.104395 0.0887178 0.0338373 -0.0430352 0.0251389 0.0918658 -0.0371794 0.00351199 -0.076257 0.0029146 0.0511902 -0.0908574
para -0.00212636 0.108817 0.0268683 -0.014073 -0.059023 -0.0331923 -0.0488565 -0.0225978 0.0149347 0.0452916 0.00698288 -0.0185538 -0.021066 0.0497674 0.0797245 -0.0593968 0.0382321 -0.0870705 -0.00142706 0.0139621 0.11469 0.0440446 0.0331688 -0.136682 -0.102764 -0.0376265 0.0477907 0.0302133 0.00834143 0.0378154 -0.101539 -0.0174815 -0.0949265 0.0381403 0.0526383 0.0261123 -0.008984 -0.0453094 -0.00647974 -0.0477002 0.0519998 -0.00999465 -0.0632727 0.0458882 -0.0338387 0.0390726 0.102454 -0.000912919 -0.022524 0.00999245 -0.0229688 -0.0458579 0.0147808 -0.0510329 -0.043748 0.0264537 0.12173 0.0286196 -0.00632738 0.00649956 -0.00480647 -0.0550808 0.123183 -0.110774 0.0450676 -0.0025948 -0.0413952 0.00538403 -0.0806304 -0.0111382 -0.0840876 0.0836593 -0.00238486 -0.105291 -0.011504 0.00911929 0.0709061 0.0358314 0.0774725 0.0128066 0.0290511 0.10701 -0.0738927 -0.00224514 -0.0414547 0.000518994 -0.00766116 0.00506353 -0.0615945 0.0366534 -0.0245577 -0.0668036 0.10189 -0.107241 0.0598534 0.182604 0.0126263 0.0730973 -0.0897069 -0.0136841 0.0411969 -0.0942186 0.0891885 -0.0742324 -0.0767746 0.0339164 -0.0177992 -0.0143881 -0.0454383 0.0835136 -0.0109228 -0.0272842 -0.0298775 -0.0340728 0.0188104 -0.0665757 -0.021735 0.0234561 0.0623904 -0.0361947 0.0980981 0.117092 -0.0225472 0.0842701 0.0252492 0.0133845 0.0874115 0.0755679 0.00254695 0.117328 -0.00275435 0.0315863 -0.0799801 0.0260314 0.0770983 0.0653852 0.0041259 -0.0675613 0.035833 0.0716582 -8.46623e-05 0.0624898 -0.0147633 -0.103625 0.0699004 0.0991446 0.048837 -0.0843144 -0.0520612 0.0766923 -0.0108966 -0.0686265 -0.0268361 0.0283216 0.022438 -0.019501 0.0487076 -0.00537586 0.0804337 -0.0747026 -0.0925669 -0.0416994 -0.0606248 -0.017696 0.0851533 -0.052507 -0.0544775 0.00524943 0.0364871 0.0109525 -0.0452126 -0.00505548 -0.029253 0.0212602 -0.118447 0.124033 0.01774 0.0371229 -0.0847984 -0.00370309 -0.0362476 0.006238 -0.0410041 0.00594211 -0.120899 0.0515261 -0.0272758 0.0474224 0.0601045 -0.0182857 -0.0977122 -0.119591 0.0200183 0.038332 -0.0711909 0.00708833 -0.00668686 0.0386022 -0.0916093 0.0300455 -0.00186913 0.0560224 0.00596318 -0.0360157 -0.00861359 -0.0361018 -0.104619 0.0219644 0.0840042 0.0451615 0.101884 0.00755027 0.00475249 -0.0441022 0.0982172 0.0474452 -0.0195977 -0.0968284 0.00639701 0.0207731 -0.0425427 0.00192654 -0.0110647 0.00768242 -0.0024321 0.0286707 -0.00739506 -0.0912672 -0.0253946 0.00871082 0.0553492 0.0911381 -0.0370883 -0.00251254 -0.0771371 0.0566575 -0.00341999 0.0488744 0.0193345 0.0215719 0.0628816 0.0602255 0.0122687 -0.0056772 0.080882 0.118533 0.0436922 -0.053268 0.00165352 0.120281 0.0239023 -0.0183779 -0.00453288 0.0181047 -0.0367638 -0.0135124 -0.088464 -0.0253605 -0.0189468 0.025027 -0.0234456 0.00466348 0.0559145 0.0322603 -0.0920793 -0.0964007 -0.0936685 -0.0284634 0.0318824 0.0058403 -0.0734539 -0.0313317 0.0103224 0.0479618 -0.039234 0.0689007 0.00665433 0.0921727 0.0688051 -0.000652698 0.0893534 0.0188365 -0.0221669 0.0265014 0.138124 0.0171524 -0.0375372 0.0602646 -0.133901 0.052566 0.0249159 0.0108374 -0.0137065 -0.00946179 0.0834833 -0.0848461 -0.0506743 0.035551 0.0445811 -0.0227721
como -0.0693744 0.0268185 -0.0424076 0.0189094 0.029213 0.0258876 0.04451 -0.0469648 0.026584 0.0280146 -0.000336443 0.0199042 0.0917016 -0.0886651 0.0667191 -0.0804574 0.0339704 -0.0526696 -0.0585969 0.0558741 -0.0522729 0.0317574 -0.0487763 -0.107493 -0.00136046 -0.00135294 0.0599887 -0.0072238 -0.0769924 0.000300357 -0.0137965 -0.0121126 -0.0848376 0.106268 0.0945015 0.0235047 0.083064 0.0665224 0.00169615 -0.096116 -0.06038 0.0715348 0.00589111 -0.009033 -0.0160816 -0.0418445 -0.021123 0.0486596 0.0443912 0.0224753 0.0352663 0.045116 0.0320475 0.0215356 -0.0561108 0.00289925 0.00923152 -0.00221984 -0.0319174 0.0601237 0.00291674 -0.0177377 -0.00681384 -0.0839981 0.00875107 0.0121781 -0.0298855 -0.0603426 0.0288547 -0.0722568 -0.0663496 -0.00613225 0.00913631 -0.0777686 -0.0164252 0.0114019 0.0485888 0.0744306 0.0966572 -0.0340698 0.0525104 0.0592842 -0.0717602 -0.0364327 -0.0198989 -0.0910995 -0.0533842 0.0790105 -0.134183 -0.0183832 0.0498519 0.0063096 0.071477 -0.0755442 0.0424054 -0.0284282 0.0199276 0.00988304 -0.0795776 0.0359708 0.0165888 -0.136611 0.103458 -0.0322263 -0.0534701 0.0419944 -0.0361978 0.0496835 0.0439265 -0.0465305 0.0049205 -0.0279693 -0.0494201 -0.00376779 -0.021721 0.0216869 0.0619868 -0.0239304 -0.0221222 0.0347772 0.116806 0.0592564 -0.090837 0.121448 -0.133409 -0.00408704 0.155644 0.0645204 -0.0678666 0.0802331 -0.00584172 0.0311216 -0.00493977 0.0429235 0.0487847 0.0706055 -0.0229757 -0.00354279 -0.00407131 0.0352025 -0.0315394 0.0708811 0.0564001 -0.0268339 0.0642372 0.138428 -0.00647192 0.0403401 -0.0268145 -0.082449 -0.0928632 -0.0882991 -0.00466358 0.10653 -0.105265 0.068675 -0.0357562 0.0105393 0.162812 0.00850587 -0.0219449 0.0428878 -0.0748148 -0.00720275 0.0680673 -0.0448235 -0.0136789 -0.102127 0.052606 0.100572 -0.0953017 0.0196535 -0.0607957 -0.0418465 -0.0438197 -0.00502172 0.0240049 0.0593895 -0.00350123 0.0497984 0.00922132 -0.0517793 0.00407383 0.0977221 0.0107051 0.0468377 -0.00807854 -0.0088741 0.0661613 -0.0206941 -0.058214 -0.128975 0.0133037 0.0374881 0.00936021 -0.00450249 -0.0125715 0.0455636 -0.0258916 -0.0166243 0.00586259 0.0381965 -0.0406014 -0.0183553 0.114948 -0.0404175 -0.0657939 0.0517685 0.0570224 0.0735421 0.142539 -0.0245408 0.0462658 0.031648 0.0547097 0.00612493 0.0120095 -0.089937 -0.0563864 -0.0113399 -0.102713 0.0313578 -0.0969283 0.010947 -0.0964931 -0.0237632 -0.021599 -0.0370816 -0.0167237 0.0550023 0.0632464 0.0153627 0.00673572 -0.0320343 -0.0893918 0.137172 0.0956386 0.00893879 0.025899 -0.0027666 0.053776 0.0541184 -0.0526491 0.0354841 0.0402293 0.0250746 0.0778684 0.0221238 -0.0575906 -0.017904 0.0620429 0.0160769 -0.0215942 -0.0179026 -0.0295998 -0.0181133 -0.0731846 -0.0579334 -0.0137171 -0.0376338 -0.021131 0.0446583 0.00654009 -0.0373752 -0.101213 -0.142299 -0.123642 0.07467 -0.00157259 -0.0931469 -0.0749994 0.0481608 0.0350433 0.0276174 -0.055108 -0.0719753 0.125363 -0.0281504 -0.0189874 0.0357327 0.0159046 -0.0122701 0.0307413 0.126976 -0.0191368 0.00762779 -0.0357047 0.0482206 0.0596002 0.00445378 -0.0831262 0.0689682 0.0430486 0.0478614 -0.0456682 -0.0689474 0.017742 0.013052 0.00207058 0.0271166
al -0.0538188 -0.00313759 -0.0175539 -0.0433123 0.0104982 0.0840753 -0.00488247 -0.032068 -0.0541234 0.0363413 -0.0161196 -0.045567 0.0110293 -0.0299908 -0.0823349 0.0249818 -0.00261417 -0.0165098 -0.066165 0.147168 0.00463535 -0.00240759 -0.0379326 -0.0756576 -0.0496744 -0.0668839 0.0307636 -0.0350116 0.00180347 -0.00499515 -0.0698075 0.0452824 -0.124147 0.00658052 0.0426027 -0.134592 -0.0383716 -0.0546843 0.0302042 0.0790798 0.0429426 -0.0193782 0.0818382 -0.00376727 0.000451447 0.0639913 0.0281124 0.0428421 0.00651786 -0.0569265 0.0272043 -0.0609625 0.00202339 -0.0935339 -0.000947938 0.0252962 0.0684062 0.085531 -0.0402325 0.0392728 -0.0314706 -0.00736347 0.0437918 0.0655805 -0.00940747 -0.0317241 -0.159517 -0.0431895 0.0548294 -0.0392024 -0.115989 -0.036055 0.110522 -0.111309 -0.0631789 0.00513031 0.101344 0.0881013 -0.00310105 -0.0406215 0.0370456 -0.0662784 -0.0041495 0.00211017 -0.0037754 0.110524 0.0127587 0.0788739 0.108714 0.0109278 -0.0256247 -0.0881097 0.131422 -0.00867946 -0.105693 0.0243036 0.0317826 0.013141 -0.0245595 -0.0506457 -0.0876928 0.0417391 0.0341562 -0.0276242 -0.0308808 0.0610013 0.0331217 0.0434017 0.0282048 0.00914215 0.0210005 -0.0105221 -0.0371705 -0.0626187 0.0168358 0.033995 0.0878636 -0.00686081 -0.0060027 -0.0296953 0.0473841 -0.0118976 -0.0307051 0.0526921 0.0752345 -0.0968335 0.0410356 -0.00182222 -0.00202795 0.0659049 -0.119 -0.00754496 -0.0606849 -0.0409362 -0.0392819 0.0485383 0.116964 -0.0173993 -0.104636 0.0256856 -0.0531212 0.0245458 0.0327627 0.0126545 -0.0306906 0.145462 0.00573496 -0.0106762 0.00772743 -0.0177915 0.0357186 -0.0258747 0.0170453 -0.00351819 -0.0130274 -0.099388 0.0106131 -0.0439531 0.0428779 0.0131524 -0.0370898 0.0547207 0.00205836 -0.0595498 0.0769962 -0.0503651 -0.0567955 -0.0781725 0.0589381 -0.0739416 -0.102847 0.106233 -0.0189581 -0.0274705 -0.00549035 0.162448 0.00816187 0.120463 -0.0426178 -0.0473893 -0.0283442 -0.0503227 0.00750853 0.0312516 -0.00649278 0.111897 0.00434817 -0.0163533 0.124754 0.0104122 0.0282729 -0.0148647 0.0488073 0.0701735 -0.0105811 0.017153 -0.0972219 0.0104724 -0.122954 -0.0136999 0.0192632 -0.126419 -0.07569 -0.0130092 -0.0301677 -0.0700381 -0.027463 -0.0821635 0.081235 0.10787 0.0759998 -0.0049269 -0.000725818 0.0167624 0.048752 -0.0733667 -0.0513819 -0.0345893 -0.004163 0.0730825 0.034666 0.0105301 -0.0135175 0.048627 -0.0449182 0.10778 0.0294774 0.0168222 0.0227271 -0.0649089 0.0519411 0.00566166 -0.062434 0.00596475 -0.0512601 0.0212634 0.00157064 0.0462228 0.0280317 0.0359233 -0.0166594 -0.0501807 -0.0665936 -0.0338682 0.0285893 0.118835 0.00578799 0.0313703 0.052104 0.0333286 0.0923015 0.0544482 -0.0639476 0.000798575 -0.0826209 -0.0331112 -0.068563 -0.0174592 0.0562097 -0.00322322 0.0317828 0.0840323 -0.045494 -0.112883 -0.003984 0.0303211 -0.0952614 0.040517 -0.00706409 -0.0880951 -0.0477962 -0.0801751 -0.0199967 0.0788117 -0.0642988 0.0472459 0.0540269 0.0630501 0.0229596 -0.133455 0.0606666 -0.0803646 -0.0283047 0.00903348 -0.00109688 -0.0677099 0.0722854 0.0143861 -0.0521554 0.0233628 0.0267655 -0.0296531 0.00842724 0.131699 0.0827694 -0.0350545 -0.0415294 0.0598987 -0.0120669 0.0238243
rd -0.1295 -0.0089508 0.0218996 0.0915509 0.0379911 -0.0600911 0.0942812 0.0243563 -0.0250204 -0.0931399 0.0196213 0.0453164 -0.0674783 -0.0457723 0.0413143 0.0105154 0.016261 0.0621947 -0.0429826 0.130312 0.0235114 -0.069259 0.0445024 -0.0523707 -0.15685 0.0261038 0.00901011 -0.0107718 -0.0227605 0.136957 -0.0152945 -0.00168118 -0.0266564 0.0270833 0.0559371 -0.0519183 -0.0426989 0.024565 0.043186 -0.104438 0.0504659 0.0151006 0.0386639 0.0124001 0.114599 -0.0733651 0.0963173 -0.0774998 0.0172877 0.000313097 0.022722 -0.0779426 0.0347221 -0.0609479 -0.0544567 -0.0505817 0.0279336 0.0556971 -0.0824355 0.0255524 0.0504847 -0.105503 -0.0087421 0.0666084 0.00754903 0.0471442 0.0632676 -0.00527581 -0.0969319 -0.0328445 0.0498439 0.0627076 0.0427998 -0.00396465 -0.0348324 0.0258319 -0.016732 -0.0446021 -0.0443772 -0.0176535 -0.0823009 0.00165549 -0.000355959 0.0239093 -0.0255184 0.053906 0.0259217 -0.0637947 -0.0274027 0.0437147 -0.0469578 0.0815031 -0.129123 -0.0050908 0.0311894 0.0714768 0.0747118 -0.0123523 -0.00606454 -0.0162288 0.124064 0.0173688 0.0450863 -0.0581055 0.0996068 0.0138991 0.102183 -0.0253637 0.0822563 -0.0482838 -0.02728 0.0664514 0.0674228 -0.0171555 0.0173638 -0.0227522 0.106923 -0.01459 -0.089989 -0.0271639 0.0703021 0.0947578 0.0161565 0.044729 -0.00954832 0.0208579 0.00348322 0.051309 -0.0624183 -0.0125409 -0.0251765 -0.0053313 -0.0689908 0.118109 0.0446379 0.0187391 -0.0432587 -0.0351795 0.0902988 0.0913975 -0.0566946 -0.027054 0.0890085 0.0872043 -0.037681 0.103944 0.0884155 0.0595605 -0.0291075 -0.0281645 0.043185 0.0737347 -0.043882 0.0741253 -0.0833519 0.0167419 -0.00265148 -0.074564 0.0731712 -0.0222345 0.0416555 -0.0532996 0.0416435 0.00680556 0.0928114 -0.0394633 -0.0884375 -0.0103539 0.0377577 0.0303156 -0.0359371 -0.00920704 -0.0505938 0.0751604 0.0562025 0.125845 -0.00158839 -0.021268 -0.018353 -0.109661 -0.0257131 -0.0446814 -0.0871419 -0.0355546 -0.101334 0.0931636 -0.0571525 -0.0856887 0.0218813 -0.0818162 0.0412543 0.0506016 0.00465755 0.0872979 0.00651146 -0.0761183 0.0297744 0.0332359 -0.0561607 -0.0486447 0.10147 -0.022297 -0.0318684 -0.00435499 0.00328809 -0.0408808 0.156612 0.00341389 0.16267 0.0342503 0.105839 -0.0121318 0.0441228 -0.0202535 -0.0656299 -0.0529857 -0.0127534 -0.0287253 0.0629704 0.017147 -0.0978767 0.091316 -0.0740804 0.020528 -0.0511078 0.0438053 -0.0578821 0.0299796 -0.00489541 0.0541301 0.0405272 0.00932019 0.0120145 -0.00766602 -0.0310497 0.0635871 0.0383519 -0.0161196 0.0147345 0.0274264 -0.00331866 -0.0590158 0.0328964 -0.0861448 0.0250991 -0.0613419 -0.0350789 -0.0546043 -0.0721045 -0.0450211 0.0341839 0.0887182 -0.0371359 0.0237349 0.013894 -0.0565235 0.00727594 -0.0857366 0.0483096 0.0235416 0.0508403 -0.00686471 0.0375946 0.0410081 -0.0729867 -0.0483156 0.0515274 -0.00662191 -0.0174651 0.0151176 0.0260994 0.000562419 0.0263483 0.00770144 -0.045446 -0.0866942 0.0931491 0.0754016 -0.0086261 -0.0271108 -0.0129722 0.102804 0.00392953 7.44146e-05 -0.00961492 0.148581 -0.0865813 0.0533803 -0.0427566 0.0326545 -0.00877843 -0.0829945 0.0433674 0.000150366 0.0331589 0.000670581 0.0224448 -0.0123544 0.0899017 -0.0471179
fue -0.0114793 -0.0457609 0.0284126 0.0205342 0.00299304 0.0481617 -0.0380349 -0.0241613 -0.0909468 0.108504 0.0787532 -0.0523104 -0.0163067 -0.0138885 0.00482096 -0.0234416 -0.0496834 -0.0213933 -0.087275 0.0808796 -0.0626992 0.0131594 -0.0765263 -0.128722 -0.0360267 -0.0510841 -0.00191053 0.0362808 0.0335835 0.0665307 -0.107786 0.0206136 -0.07079 0.0590998 0.0532679 -0.000261562 0.00809662 -0.00446581 0.11654 -0.079537 0.0198404 -0.0269144 -0.0903546 0.0610388 -0.0351331 -0.00162397 0.0808667 -0.00116996 -0.0373247 0.0521589 0.0876095 -0.013954 -0.0593225 0.000714941 0.0120675 -0.0237105 0.0424758 0.0626542 0.0722166 0.065151 0.0597443 -0.0428319 0.00127889 0.00519044 0.0785943 0.0194604 -0.0826186 0.0633698 -0.0568263 -0.0448168 -0.0105301 0.000515383 0.0088367 -0.0698005 0.0393446 0.0625447 -0.0383691 0.0681443 0.00410166 -0.0772357 0.0148623 0.047192 0.0120229 -0.0268554 0.00034739 -0.133612 -0.093058 -0.0485154 -0.0702527 -0.0702117 -0.0184743 -0.0145403 0.0531023 -0.111025 0.0588597 -0.0143739 -0.0801104 0.0220188 -0.0168479 -0.0325578 -0.0639768 -0.00407411 0.0603382 0.0136668 0.027459 -0.0367596 -0.0411112 0.116044 0.00662101 -0.0293551 0.0816834 0.0304443 -0.0390678 -0.0487123 0.0590717 0.0285114 0.0459841 0.149039 0.0132922 0.0445799 0.0478456 0.0435569 -0.0546407 0.165982 -0.0696085 -0.0145209 -0.017605 0.0628071 0.0024632 0.0839058 -0.0525159 0.0102925 0.0195491 -0.0132174 0.0121575 -0.0129009 0.0338873 -0.00581449 -0.0715622 0.0682001 -0.0018516 -0.00638553 0.0297391 0.00990644 0.0215843 0.113545 -0.0565799 -0.0253797 0.0308196 -0.00493552 -0.00677053 -0.0444844 0.0094038 0.1316 -0.0960718 0.0381295 -0.0142085 0.00126362 0.181885 -0.0551419 0.0193461 0.0278544 -0.0320204 0.0414265 0.126775 -0.0354449 0.153465 0.0696098 0.124931 0.0530952 0.028295 0.0700619 0.011631 0.0135775 0.03997 -0.0714063 0.00469913 0.03277 -0.0715047 -0.0329229 -0.000829268 0.0554095 -0.0672676 0.0730419 0.045965 0.085014 -0.0119473 -0.037731 0.0236449 0.0114112 -0.0227263 -0.101143 0.0223816 0.0472727 0.029206 -0.00625273 -0.0707868 0.00403343 -0.0645713 -0.0207758 -0.0433271 -0.0378265 -0.0689956 0.0578351 -0.0418954 0.0464071 0.0376977 0.0345939 0.168948 0.066412 0.118483 -0.00952911 -0.00429205 0.0285484 -0.0535467 0.0222018 -0.00552498 -0.0817518 -0.108853 0.0525934 0.0588345 -0.0192406 -0.0411189 -0.0425793 0.0585387 0.0265019 0.00574587 0.00163036 -0.00803174 0.00176379 0.0190465 0.0475432 -0.0732889 0.0807531 -0.0363829 -0.0770047 0.00261838 -0.0060518 -0.0542395 0.0285963 -0.0349153 0.0757372 0.0443459 0.0380071 -0.00230435 -0.0779442 0.0850556 -0.0654774 0.0238323 -0.0878857 0.0152354 -0.022607 0.0781841 0.0175784 -0.0206323 -0.0186735 -0.113282 0.0583595 0.00132385 0.0477065 0.0124049 0.0229094 0.0620052 0.000206323 -0.11901 0.0843972 -0.0448608 0.0035219 0.0302902 -0.0699622 -0.137539 0.0197985 -0.0777413 0.0164256 -0.0703288 -0.103331 0.0848311 0.11552 0.0621688 -0.0798322 -0.0884367 -0.0183483 -0.0330953 0.0574991 0.00105224 0.0161722 -0.0132273 0.104362 0.0130132 0.000523943 0.0203545 -0.082127 0.0162991 0.0149788 -0.0288833 -0.0348473 0.0185276 -0.0477625 -0.00341417 0.0547296
no -0.111545 0.0397625 -0.0532838 0.050597 -0.0402989 -0.0328704 0.00609144 -0.0413968 -0.0369903 0.0753762 -0.0210376 0.000873518 0.02035 0.0168281 0.0386468 -0.0218937 0.0129076 0.028146 0.0315439 0.018534 0.00611114 0.0511706 -0.0527902 -0.0673102 -0.0119509 0.0924287 0.0148702 0.0110683 0.0291703 -0.0224446 -0.0465358 0.0443147 0.0721962 0.0656685 -0.0645476 -0.0825763 0.0121363 0.0300512 -0.0701621 -0.0750555 0.112275 -0.0193585 0.0254268 -0.0354651 0.0898495 0.13475 0.0443735 -0.0103344 0.00595159 0.00159982 -0.0175014 -0.127993 -0.00744991 -0.0056941 -0.0488058 -0.0104463 -0.018068 0.0127179 -0.0875132 0.0570963 -0.0989455 0.0286546 0.0740471 -0.0342674 -0.0165782 -0.0727628 -0.0615152 0.0134307 0.0288859 -0.0374132 -0.00482144 0.00159739 -0.0350918 -0.0694247 -0.0818261 0.0424766 0.105594 0.113936 0.0329865 0.0490955 -0.0225621 0.0406142 -0.0106623 0.0478054 -0.0391574 0.0267345 -0.049591 0.0229908 -0.0399669 -0.0270894 -0.0240853 -0.0100358 0.0530061 -0.107113 0.018036 0.00780551 0.11517 0.0478671 -0.0730743 0.0227705 0.0531999 -0.0908297 0.00585164 -0.0783891 -0.0417199 -0.0546178 -0.0630835 -0.0994743 0.0780196 0.0537191 -0.0366641 0.0309314 -0.0292065 0.0127599 0.0433737 0.0113862 0.126547 -0.0255134 0.0206519 0.00449762 0.0922921 0.0259201 -0.000757884 0.169261 -0.000503081 -0.0812318 0.0388607 0.0228264 0.00939825 0.0571955 -0.0380291 -0.00378351 -0.0462088 -0.00563088 -0.0253536 0.0189051 0.0295108 -0.0548414 0.0497684 0.00380937 0.00606625 0.00367035 0.0275685 -0.0483423 -0.0145512 0.0314456 -0.0605697 -0.0639768 -0.00684171 -0.0579866 -0.00868055 -0.0759075 -0.0151775 0.00257153 -0.0784935 0.00804952 0.0336608 0.0650077 0.0151294 0.0961211 -0.072096 0.100813 -0.055468 0.0325026 -0.0158606 0.0375922 -0.066254 -0.0494904 0.080431 0.0719816 -0.0640715 -0.0504656 -0.117639 -0.00812913 -0.0197759 -0.00944312 -0.019574 0.00138521 0.0568807 -0.0257007 -0.0084684 -0.0881427 0.0223379 0.0864628 -0.0454138 0.0552554 0.0187473 0.0317578 0.0714802 -0.0541358 0.0257375 -0.156106 -0.0335475 0.0271117 -0.0367458 -0.0184206 0.0104479 0.0399862 -0.158308 0.0109997 0.0290073 0.0801378 0.0771613 0.00309198 -0.00221497 0.00648951 -0.0784815 0.00223002 0.111918 -0.00197263 0.174372 -0.0315893 0.0464087 -0.0811481 -0.0318338 -0.0426816 -0.0134815 -0.0646005 -0.0407924 0.0923427 -0.0802848 -0.087184 0.00735226 -0.020696 -0.000261013 0.0219359 -0.0876342 0.0340361 -0.0934039 0.0208861 0.0741992 0.120344 -0.0373807 -0.0367709 -0.07319 0.0515658 0.00861597 -0.0569138 -0.0281455 -0.0368727 0.0557461 -0.0133088 -0.012274 -0.00292502 -0.0309209 0.0982481 0.169467 0.0257941 -0.0494893 -0.001474 0.0216792 -0.0369659 -0.0434918 -0.00169843 -0.00977396 -0.00154699 -0.0605609 -0.0680011 -0.0766207 -0.0202486 -0.0179623 -0.0514319 -0.146735 -0.101431 -0.103628 -0.00855808 -0.0111844 0.0593297 -0.00456395 -0.00987444 -0.0632336 0.0135288 0.111425 0.083418 -0.0365033 -0.0118003 -0.031197 0.0176431 0.0396763 -0.0642703 0.060762 0.0255193 -0.10487 -0.0313649 0.0216312 -0.0702411 0.116516 0.143552 -0.0892077 0.0425839 0.013569 0.0890763 0.015173 -0.0224001 -0.0070148 -0.0679431 -0.0725815 0.0195514 -0.0338698 -0.0335708
